tree
version=v4
num_class=1
num_tree_per_iteration=1
label_index=0
max_feature_idx=419
objective=huber
feature_names=Column_0 Column_1 Column_2 Column_3 Column_4 Column_5 Column_6 Column_7 Column_8 Column_9 Column_10 Column_11 Column_12 Column_13 Column_14 Column_15 Column_16 Column_17 Column_18 Column_19 Column_20 Column_21 Column_22 Column_23 Column_24 Column_25 Column_26 Column_27 Column_28 Column_29 Column_30 Column_31 Column_32 Column_33 Column_34 Column_35 Column_36 Column_37 Column_38 Column_39 Column_40 Column_41 Column_42 Column_43 Column_44 Column_45 Column_46 Column_47 Column_48 Column_49 Column_50 Column_51 Column_52 Column_53 Column_54 Column_55 Column_56 Column_57 Column_58 Column_59 Column_60 Column_61 Column_62 Column_63 Column_64 Column_65 Column_66 Column_67 Column_68 Column_69 Column_70 Column_71 Column_72 Column_73 Column_74 Column_75 Column_76 Column_77 Column_78 Column_79 Column_80 Column_81 Column_82 Column_83 Column_84 Column_85 Column_86 Column_87 Column_88 Column_89 Column_90 Column_91 Column_92 Column_93 Column_94 Column_95 Column_96 Column_97 Column_98 Column_99 Column_100 Column_101 Column_102 Column_103 Column_104 Column_105 Column_106 Column_107 Column_108 Column_109 Column_110 Column_111 Column_112 Column_113 Column_114 Column_115 Column_116 Column_117 Column_118 Column_119 Column_120 Column_121 Column_122 Column_123 Column_124 Column_125 Column_126 Column_127 Column_128 Column_129 Column_130 Column_131 Column_132 Column_133 Column_134 Column_135 Column_136 Column_137 Column_138 Column_139 Column_140 Column_141 Column_142 Column_143 Column_144 Column_145 Column_146 Column_147 Column_148 Column_149 Column_150 Column_151 Column_152 Column_153 Column_154 Column_155 Column_156 Column_157 Column_158 Column_159 Column_160 Column_161 Column_162 Column_163 Column_164 Column_165 Column_166 Column_167 Column_168 Column_169 Column_170 Column_171 Column_172 Column_173 Column_174 Column_175 Column_176 Column_177 Column_178 Column_179 Column_180 Column_181 Column_182 Column_183 Column_184 Column_185 Column_186 Column_187 Column_188 Column_189 Column_190 Column_191 Column_192 Column_193 Column_194 Column_195 Column_196 Column_197 Column_198 Column_199 Column_200 Column_201 Column_202 Column_203 Column_204 Column_205 Column_206 Column_207 Column_208 Column_209 Column_210 Column_211 Column_212 Column_213 Column_214 Column_215 Column_216 Column_217 Column_218 Column_219 Column_220 Column_221 Column_222 Column_223 Column_224 Column_225 Column_226 Column_227 Column_228 Column_229 Column_230 Column_231 Column_232 Column_233 Column_234 Column_235 Column_236 Column_237 Column_238 Column_239 Column_240 Column_241 Column_242 Column_243 Column_244 Column_245 Column_246 Column_247 Column_248 Column_249 Column_250 Column_251 Column_252 Column_253 Column_254 Column_255 Column_256 Column_257 Column_258 Column_259 Column_260 Column_261 Column_262 Column_263 Column_264 Column_265 Column_266 Column_267 Column_268 Column_269 Column_270 Column_271 Column_272 Column_273 Column_274 Column_275 Column_276 Column_277 Column_278 Column_279 Column_280 Column_281 Column_282 Column_283 Column_284 Column_285 Column_286 Column_287 Column_288 Column_289 Column_290 Column_291 Column_292 Column_293 Column_294 Column_295 Column_296 Column_297 Column_298 Column_299 Column_300 Column_301 Column_302 Column_303 Column_304 Column_305 Column_306 Column_307 Column_308 Column_309 Column_310 Column_311 Column_312 Column_313 Column_314 Column_315 Column_316 Column_317 Column_318 Column_319 Column_320 Column_321 Column_322 Column_323 Column_324 Column_325 Column_326 Column_327 Column_328 Column_329 Column_330 Column_331 Column_332 Column_333 Column_334 Column_335 Column_336 Column_337 Column_338 Column_339 Column_340 Column_341 Column_342 Column_343 Column_344 Column_345 Column_346 Column_347 Column_348 Column_349 Column_350 Column_351 Column_352 Column_353 Column_354 Column_355 Column_356 Column_357 Column_358 Column_359 Column_360 Column_361 Column_362 Column_363 Column_364 Column_365 Column_366 Column_367 Column_368 Column_369 Column_370 Column_371 Column_372 Column_373 Column_374 Column_375 Column_376 Column_377 Column_378 Column_379 Column_380 Column_381 Column_382 Column_383 Column_384 Column_385 Column_386 Column_387 Column_388 Column_389 Column_390 Column_391 Column_392 Column_393 Column_394 Column_395 Column_396 Column_397 Column_398 Column_399 Column_400 Column_401 Column_402 Column_403 Column_404 Column_405 Column_406 Column_407 Column_408 Column_409 Column_410 Column_411 Column_412 Column_413 Column_414 Column_415 Column_416 Column_417 Column_418 Column_419
feature_infos=[-0.51027361186327291:4.3364960485313899] [-2.1670985879683462:2.1983868558051287] [-2.3849646232975412:6.4186672833527778] [-2.0790308676029903:6.4362932873125613] [-7.5950191155195865:7.1920327735827136] [-1.1882953176282824:5.2705353103461885] [-2.142077453332099:1.9122575563884883] [-1.6326705612566954:2.5954479704245275] [-1.7801890078689957:2.8902059714412123] [-1.9150246581238322:2.6848419451130701] [-5.9956314592879494:6.877004924327756] [-2.8967212944800727:3.0149496952042165] [-3.0127647822056027:2.9072298690383369] [-1.107524747665307:4.9532069255326778] [-1.3686146135652482:4.4277842544136234] [-2.8620378689793387:3.0977938119849306] [-1.3971917821454465:5.2100931182748242] [-1.5489352370712366:5.4084160172794693] [-2.8526320117579229:3.1313304532910822] [-2.9232670545420212:2.9218658363828922] [-3.2015078444826024:2.8885081476726788] [-0.5105251247334901:4.3228153254792572] [-2.1666243737302535:2.1987324030531115] [-2.3837866770585818:6.4122879371293502] [-2.0728828735502192:6.4099982443840835] [-8.3453747345003606:7.095317822348794] [-1.1878376730213498:5.2723132457782054] [-2.1406687397879782:1.912122257064101] [-1.6326244391220965:2.5956144695265042] [-1.7802969500620835:2.8902230066157464] [-1.9150408485593726:2.6846710214045406] [-5.9678722303432341:6.8490048174214762] [-2.8967499854839942:3.0154552787022819] [-3.0128114250378291:2.9077281699496305] [-1.1076974246407516:4.9533367882455623] [-1.3685889938702549:4.4277810411676137] [-2.8620602954274967:3.0982177174044887] [-1.3967637506354795:5.2109539243523173] [-1.549202566089884:5.4141047559118434] [-2.8526303794844021:3.131329564664068] [-2.921863471978527:2.9213975004655968] [-3.2039777223928994:2.8928590084243573] [-0.51083517879938212:4.310259848515746] [-2.1657865057851158:2.1987341985952971] [-2.383664033969739:6.4100476181819221] [-2.0686493817585969:6.3906719983274636] [-9.4521819082137739:6.9722268368963087] [-1.1874449347969824:5.2732551002492238] [-2.1387707540074543:1.9115158342863974] [-1.632558621732529:2.5957711429994457] [-1.7807366860204252:2.890566349141765] [-1.9149800826408014:2.6844272941679685] [-5.9303674737429244:6.810445334051499] [-2.8974621256240876:3.0159167966752833] [-3.0135870970357548:2.9081954236793526] [-1.107935801430441:4.9596124913204758] [-1.3690422411269423:4.4324558394767051] [-2.8636183797349317:3.0992576875273907] [-1.3963801696897657:5.2122293448039647] [-1.5493792301796618:5.4189911186910358] [-2.8525122155253793:3.1312490557664909] [-2.9205090524515795:2.9208068059906913] [-3.2039361156382111:2.894215866938588] [-0.51114195663508122:4.2976878908065403] [-2.1650215538799533:2.1987810935882415] [-2.3838179004815054:6.4095350532823696] [-2.0660085010680738:6.3773226766353259] [-9.3505578500018256:6.8539859934680072] [-1.1871651011472422:5.2735946603688895] [-2.1374061862880382:1.9111314723678603] [-1.6324630397914883:2.595931630052946] [-1.7813033412940189:2.891017786277343] [-1.9150543102124913:2.6847135442076184] [-5.9041636801776862:6.7840766419652665] [-2.8974549472069375:3.0159296979195682] [-3.0135804769636376:2.9082086099734172] [-1.1084341116083527:4.960199910962821] [-1.3689504867154798:4.4332297505503853] [-2.8632303201431002:3.0992950798801164] [-1.3960789759630052:5.2137246229637597] [-1.5495527938876554:5.4238773730215133] [-2.8523156867784505:3.1311212229522356] [-2.9194343217757455:2.920221377613486] [-3.2037363113942865:2.8953471211220156] [-0.51141862349480194:4.2845317619933292] [-2.1648281380245598:2.198790875106122] [-2.3839544203056664:6.4094194138152076] [-2.0644985059499508:6.3684042922479236] [-9.2097739786462558:6.7565286304629124] [-1.1870398680660006:5.2736171556486093] [-2.1376619310327372:1.9112216835899396] [-1.6323339771095147:2.5961063487572429] [-1.7818901985545001:2.8914828718447829] [-1.9151664580402463:2.6852611536047393] [-5.8927418992331848:6.7732926529943143] [-2.9002579378978357:3.0166508406069008] [-3.0165621707405408:2.9089341914402005] [-1.1084302369624928:4.9602027047876547] [-1.3687752786389196:4.4350485584374617] [-2.8665031883160941:3.1008250684842098] [-1.3959692962435681:5.2148806653357163] [-1.549906149596973:5.4295661843653242] [-2.8551623480569992:3.1330736498022289] [-2.9188388213195178:2.9199554197124673] [-3.2033824252326526:2.8959151938099241] [-0.51164254029224265:4.2704130923222765] [-2.1651663349872692:2.1987240991386314] [-2.384125953786929:6.4092483068658739] [-2.0636680144623987:6.3622941211243962] [-9.1276253770123503:6.7005998781185543] [-1.1869222987361085:5.2736379002705389] [-2.1395050137364491:1.9118639082884941] [-1.6321991227478432:2.5962695421681059] [-1.7819238946536207:2.8915128282627927] [-1.9155102932789914:2.6864410579374787] [-5.8914056614422554:6.7723693885329679] [-2.9020237441193677:3.0161860416562063] [-3.0184203032329662:2.9084947104420857] [-1.1079461559619028:4.9628975027853679] [-1.3683797506400552:4.4360404920469625] [-2.8685430184641771:3.1009906225730464] [-1.3958578020081354:5.2152411918197945] [-1.5501100094588718:5.434102896571976] [-2.8576016274536462:3.1340268684686561] [-2.9201097742025777:2.9206538175383869] [-3.2032633860695858:2.8959203841958097] [-0.51187093484236812:4.2564732862815138] [-2.165213193549917:2.1986967621948321] [-2.3843122400810253:6.4090480864744741] [-2.0632517869897917:6.3580121992638983] [-9.0776671985250328:6.6672801830711297] [-1.1868150516601423:5.2736481550252492] [-2.1401491381924651:1.9119952406576182] [-1.6320863735477575:2.5963778538886615] [-1.7819873687041958:2.8915655696872538] [-1.9157586420407013:2.6872815943877395] [-5.8821490982316034:6.7589869699435212] [-2.9036646484172928:3.0196918760731357] [-3.0200755817957399:2.911776981360199] [-1.1078750480657256:4.963067546313285] [-1.3675610569284973:4.4366052705323131] [-2.8701340000015443:3.1047553205672971] [-1.3958544454580821:5.2177446837127386] [-1.550321418128968:5.4389035205580845] [-2.8590142038215793:3.1343399896476085] [-2.9215271085280712:2.9213309485531154] [-3.2032242855335364:2.8959310368427378] [-0.51215030602889955:4.2435482060127132] [-2.1648994059323439:2.1988091419204601] [-2.3844265978491039:6.4090307438886276] [-2.0631316285181849:6.3551693024690303] [-9.0327093810289636:6.637465797092859] [-1.1867207247347678:5.2736679281880274] [-2.1397987552668605:1.9119285311038798] [-1.632004905714856:2.5964478891224569] [-1.7814625351500613:2.8911896232311896] [-1.9154468208717645:2.6857660318540266] [-5.879461888256742:6.754282188882347] [-2.9028450006118192:3.0207118589601145] [-3.0192463115485184:2.9127802282655537] [-1.1080614382061591:4.9633097120342295] [-1.3669764800486055:4.4369219711150061] [-2.8700384273111168:3.1060178137828327] [-1.3958368275708237:5.2205204092034263] [-1.5504529014793507:5.4430087223466126] [-2.8591481427312209:3.1341051257555437] [-2.9218710429892369:2.9214855918656011] [-3.2031555150076176:2.8959254314095895] [-0.51235292655585507:4.2293239053883651] [-2.1648499950851487:2.1989692441608373] [-2.3846066135658721:6.4088569863419949] [-2.0631542719860532:6.3531094659196299] [-9.0132116519887617:6.6252264708283786] [-1.1866627373769794:5.2736663530427874] [-2.139648571886636:1.9120759265172582] [-1.6319379143512887:2.5964773088014854] [-1.7810105726345555:2.8911318019456651] [-1.9153355736413447:2.6848903354025744] [-5.8662507465031437:6.7359852500836306] [-2.9032218373539473:3.0212906379032876] [-3.0196156955697213:2.9133077125777271] [-1.1080957947930767:4.9631763097023089] [-1.3666973092865713:4.4384263643613293] [-2.8706620949132602:3.1071734721208011] [-1.3961292871963418:5.2244421030195181] [-1.5504092420396876:5.4458980800110952] [-2.8589582322658385:3.13356617202379] [-2.9220166756706512:2.9214974328361691] [-3.2033480362644351:2.8959626109619343] [-0.51259621834236357:4.21589037315207] [-2.1646752444450499:2.1993143628435856] [-2.3847752983667871:6.408708429003851] [-2.0632630881614933:6.35160201259571] [-8.999733249340423:6.6170662660889406] [-1.1865949279197971:5.273667988929545] [-2.1392494723001629:1.9124096355011673] [-1.6318854628004529:2.5964843616537934] [-1.7805352061360851:2.8911576884605168] [-1.9152513196132461:2.6842460579603151] [-5.8599293033936473:6.7267025023040405] [-2.9024561812909386:3.0216212119233963] [-3.0188495895017966:2.9136591164433292] [-1.1083725242283162:4.9633950768411745] [-1.3669442777923617:4.4385286270823778] [-2.869660933097379:3.1074545262728765] [-1.396142270930627:5.2253824662083641] [-1.5502679519850009:5.4478863655238836] [-2.8599571522314893:3.135826565542164] [-2.9221622579782296:2.921508918739578] [-3.2029710224467318:2.8960029001984275] [-0.51285544695704399:4.2027160608493306] [-2.164629701076271:2.1993325134666346] [-2.3849337978848242:6.4086198080894583] [-2.0634261067803625:6.3505110219161374] [-8.9891848141346262:6.6108304333776955] [-1.1865138870018295:5.2736739574633473] [-2.1394766149900915:1.9124336194905243] [-1.6318348910805356:2.5964894301591408] [-1.780442577142634:2.8911322701169704] [-1.9154104396390512:2.6849492838356159] [-5.8557400232046399:6.7201601063491561] [-2.908343731385385:3.0255877206626463] [-3.0254007609117779:2.9177980721484236] [-1.1080275472325034:4.9633093968517432] [-1.3671745189311331:4.4460396277277656] [-2.8754838850415254:3.1114126896135015] [-1.3965255298437509:5.2300731025690554] [-1.5502566959178501:5.4508965552247011] [-2.8600043691078212:3.1370219461093343] [-2.9225470008062437:2.9214534630071558] [-3.2028227241097178:2.8959758062062955] [-0.51317740767696107:4.1907533326132782] [-2.1642450533522157:2.1993348157277879] [-2.3848931423549944:6.4086008941374999] [-2.0636269217598135:6.3498760406525658] [-8.9704333628691195:6.5991079913743915] [-1.1863858817857453:5.2736766025439472] [-2.1391621156710854:1.9123483279224385] [-1.6318056769603377:2.5964936756586137] [-1.7803882219600522:2.8911120649068041] [-1.915515137740412:2.6852652473064835] [-5.8557461477070047:6.7199380507704891] [-2.9067478162396485:3.0248379013905589] [-3.023710405395128:2.9170681597796664] [-1.1083637730990972:4.9631850825857367] [-1.3671809910311365:4.4459950514203745] [-2.8734964204864792:3.11043469383563] [-1.3967640379647455:5.2331142136655782] [-1.5501667597692188:5.4538476861897003] [-2.8592547890597464:3.1369512421409054] [-2.922968438893836:2.9215670025655855] [-3.2021241165537084:2.8957127080331979] [-0.51352066340523705:4.179227020628832] [-2.1638032953365092:2.1992804790474696] [-2.384455258675044:6.408152998788867] [-2.0638197161078717:6.3496359253609587] [-8.9425304589243275:6.5811297901380854] [-1.1862345626789215:5.2737004337786981] [-2.1389304142563335:1.9122717371059617] [-1.6318446293517785:2.5964820370956208] [-1.7802489942063002:2.8910490631546462] [-1.9150991144790421:2.6841943447306327] [-5.8386531598227913:6.7034489407934723] [-2.9070110493192707:3.0249252904616428] [-3.0239837716835072:2.9171487272118224] [-1.1079743149515255:4.9529805697243097] [-1.3668608429785463:4.4428361181442995] [-2.8743241191747306:3.1108320628991377] [-1.3969104725733574:5.2357130135027257] [-1.5500656723249941:5.4568247216562851] [-2.859368556530665:3.1369926654630587] [-2.923272867205807:2.9215825740659596] [-3.2015747208686522:2.895509825289289] [-0.51384886835500199:4.1673794458514868] [-2.1639743106192433:2.1993166334895222] [-2.3837871039219083:6.4073454468574793] [-2.0639512729310274:6.3496030673352788] [-8.9170612242666198:6.5647841523613382] [-1.1859517105350903:5.2737947185528169] [-2.1401264970907579:1.9127386103792117] [-1.6319050647132587:2.5964423077427465] [-1.7803654535314519:2.8911097910633026] [-1.9152157147292403:2.6844710191705108] [-5.8275742320276072:6.6931678287598046] [-2.9125259019855738:3.028027771788055] [-3.030054595512079:2.9203777603112844] [-1.1074741234777039:4.9522242052532786] [-1.3665892118348626:4.4470168363994533] [-2.8800081016830883:3.1146591894771212] [-1.3966045930261204:5.2373304294833405] [-1.5499849320959485:5.4599820742408234] [-2.8625672565444447:3.1393634158319936] [-2.9247229806342179:2.9220715682646312] [-3.2021777389147519:2.8958128280960134] [-0.51411996842287044:4.1545553183923163] [-2.1641672543556632:2.199267308480596] [-2.3833788766640223:6.4069151421439541] [-2.0640188305046769:6.3496154033897589] [-8.9067134536677557:6.5586320866361127] [-1.1855774235957057:5.2738791938081713] [-2.1409358033187829:1.9127631894716084] [-1.6319077330951295:2.5964395606942055] [-1.7808213213949189:2.8911875377094334] [-1.9153002492931439:2.6847315111165591] [-5.8252158155514522:6.6915218278399786] [-2.9134202152256625:3.0294353998643353] [-3.0309366897269738:2.9216675194444992] [-1.1072743168447818:4.9525572503274393] [-1.3662553983331409:4.4471925066099685] [-2.8809706850518531:3.116481724358549] [-1.3969336320904873:5.2417511195410009] [-1.549990146444967:5.4631435763731622] [-2.8653786672271497:3.1409870459037141] [-2.9249384560429617:2.9219774916636658] [-3.2021314277766613:2.8957991157190084] [-0.5143924865956917:4.1418159299106101] [-2.1642816504479336:2.1992241437001696] [-2.3831553786699673:6.4067159841866763] [-2.0640424098964392:6.3496246236836926] [-8.9031609694982929:6.5568163780900077] [-1.1850908400498461:5.2738346551128519] [-2.1414987027615009:1.9126651412034941] [-1.6318741271513471:2.5964779428475251] [-1.7811746947523017:2.8910154345970165] [-1.9154743453711018:2.6852913002210812] [-5.8025493452200179:6.6615564757787613] [-2.913372118355348:3.0298953085918545] [-3.0309061171505411:2.9221255662195889] [-1.1076909115285385:4.9508757603992466] [-1.3664148076954397:4.4473201134192513] [-2.8809577499999639:3.1165117295850253] [-1.3970122662857032:5.2443686034283248] [-1.54992322410567:5.4657974501953488] [-2.8657760164172883:3.1410088086189938] [-2.9247183816044178:2.9222025584886944] [-3.2023406592449684:2.8958736807449195] [-0.51468104813302562:4.129393750688795] [-2.1644369577148259:2.1991979390488368] [-2.3830021600072393:6.4065898270820778] [-2.0640363309411955:6.3496214883817679] [-8.9016390100290437:6.5561730487721395] [-1.1845792871790564:5.2736619960719864] [-2.1421967699415823:1.9126534804830688] [-1.6318123337292916:2.5965121950376999] [-1.7814691022598479:2.8907734773004075] [-1.9155997829147553:2.685798181590128] [-5.7841668605337917:6.6368705606739065] [-2.9138866953636087:3.0300391050232545] [-3.0314382860027855:2.9222551308105844] [-1.107484712661456:4.9505922089527514] [-1.3661789771543187:4.4471678050713512] [-2.8814795227097521:3.1166712418401361] [-1.3968742340934732:5.2472587128805204] [-1.5497512902151855:5.4680127276744273] [-2.8665215488446427:3.1408612587935854] [-2.9248584765080663:2.9222155505681586] [-3.2033620908793687:2.8962840735630273] [-0.51493377066789736:4.1163430017739735] [-2.1649213083340344:2.1990702320931064] [-2.3830823406153057:6.4066239834304843] [-2.0640478566367575:6.3496273599167878] [-8.9017587115242858:6.5559878762838926] [-1.1840346213409834:5.2734281634148337] [-2.1433999345919399:1.9122885833710812] [-1.6317218196129555:2.59652793330745] [-1.7817655746214494:2.8904507425754211] [-1.9159390414655304:2.6868953657640224] [-5.7565868279604633:6.6008419976654684] [-2.9153661359752707:3.0297829170759605] [-3.032966274010668:2.9219864331236911] [-1.1073727392235773:4.9511756579692774] [-1.3658077250342824:4.4477899732504591] [-2.8834222594714407:3.1167286671015844] [-1.3966915154792137:5.250429107789472] [-1.5496322646168834:5.4703637879621505] [-2.8673804218300205:3.1401552684758531] [-2.9261044161266092:2.922395922770562] [-3.204761504482708:2.8968356832378115] [-0.51520344095385184:4.1036491379999749] [-2.1652600148172398:2.1989861010031269] [-2.3832481273910009:6.4066490575049162] [-2.0640940043046752:6.3496481834174912] [-8.9013896137303856:6.5551618370338707] [-1.1834670215709833:5.2730750085255051] [-2.1442977138856336:1.9119516960037257] [-1.6316207282478139:2.5965188384832216] [-1.7820349951781618:2.8899630935980722] [-1.9161298097817154:2.6875515685205453] [-5.7342284511470778:6.5712344690148745] [-2.9150813907310473:3.0301868409851798] [-3.0326962376183877:2.9223995864373111] [-1.1074175658931966:4.9512050745509235] [-1.365434831458002:4.4477414828557222] [-2.8828124137721107:3.1166654671033442] [-1.39641102105334:5.2511462023054252] [-1.5495278210270813:5.4728103296215966] [-2.8673502268895259:3.1398885963139604] [-2.9277042618645646:2.9231054999289783] [-3.205911394889565:2.8972686494665627] [-0.5154529943931937:4.090626859425381] [-2.1657904983663139:2.1988275010851717] [-2.383505449712207:6.4065137522417333] [-2.0641980053039397:6.3496795437202289] [-8.898978728816461:6.5523732932293965] [-1.1829675241993647:5.2726801804601919] [-2.1453979409966539:1.9113150486658139] [-1.6314913795582331:2.5964741938021119] [-1.7822589135130775:2.8897587152251938] [-1.9160676836746036:2.6872915169414799] [-5.708230509173073:6.5369868516861667] [-2.9159376597578661:3.0299698664578427] [-3.0335597284611668:2.922158628870557] [-1.1076153736162042:4.9513274826284208] [-1.3648885471734364:4.4479613001909364] [-2.8837864439299796:3.1164248348198971] [-1.3960316478157788:5.2508612422901866] [-1.5494036480648177:5.4751813579309712] [-2.8681031327744471:3.1398512811628843] [-2.9302614203599786:2.924224836775414] [-3.2076630777644217:2.8979189486786057]
tree_sizes=2938 2910 2908 2924 2918 2937 2927 2894 2930 2936 2945 2926 2933 2934 2926 2927 2936 2950 2906 2926 2925 2925

Tree=0
num_leaves=31
num_cat=0
split_feature=246 33 261 199 244 17 116 258 373 15 26 5 89 218 182 200 264 119 17 258 316 77 175 182 206 77 43 62 83 71
split_gain=4.64458 5.60726 5.19731 6.50981 4.40845 4.31156 4.23533 3.91495 3.72481 4.25625 3.72293 3.41342 4.28502 3.99734 3.40124 3.3057 3.46943 3.68588 3.29195 3.26172 3.29674 3.24343 3.51451 3.19548 3.31102 3.31535 3.85233 3.18994 3.17543 4.68161
threshold=0.25401055568632952 -0.7015379500456832 -1.1742350899488725 -0.15655439734416446 -0.28533168451164076 0.02277084301524478 0.099443706097636794 -1.2927144350718145 0.015210648170749833 0.086815573946081748 -0.91667729212586957 0.70629802002615205 -0.62960631069997519 -0.0055752211181051307 0.21664260831842366 1.6309663151780758 -0.53666014199184553 0.10205953756377099 0.10651690217730127 0.80595370024775581 -0.16713981293438923 -0.74303562186361904 0.65687508141518236 -0.71541871395083478 0.93891663274775305 -0.7642681831767536 -0.65035431784855746 0.16343082888099095 -0.72739174918542504 -0.90662246822501447
decision_type=2 2 2 2 2 2 2 2 2 2 2 2 2 2 2 2 2 2 2 2 2 2 2 2 2 2 2 2 2 2
left_child=1 7 -2 11 21 6 14 -1 9 -9 -8 12 -4 -14 19 16 17 -7 -18 20 27 -5 -23 -20 25 -25 -27 -3 29 -12
right_child=2 5 3 4 -6 15 10 8 -10 -11 28 -13 13 -15 -16 -17 18 -19 23 -21 -22 22 -24 24 -26 26 -28 -29 -30 -31
leaf_value=0.00059459589211716764 0.0021268958890559814 0.00067190592603092478 -0.00047987476371883501 -0.0016052135473413095 -0.0012674718393663462 -0.0041242875952432513 0.0019374560642881344 0.00025754318505655065 -0.0035959414601782875 -0.0029083616759149914 -0.0011782551507549738 -0.0013435028771651022 0.0034577415967741608 -0.00016516686601728922 0.0023769381367020189 0.0020864954588775877 -0.0034132248023103374 -0.00034033350973611693 0.0018045635128899455 -0.0016834586865564509 0.0021165676926684714 0.0031439098846059118 -0.00034442301209249319 0.0011351311322089347 0.0011769963917134057 0.0007818524676677939 -0.00293223412027215 -0.0027575840689072089 -0.0014153878808801331 0.0037643001094404514
leaf_weight=62 153 117 55 38 317 66 52 93 105 72 42 36 130 36 122 32 35 47 59 58 118 65 46 37 63 33 117 33 253 31
leaf_count=62 153 117 55 38 317 66 52 93 105 72 42 36 130 36 122 32 35 47 59 58 118 65 46 37 63 33 117 33 253 31
internal_value=-0.000121359 -0.000435669 0.000463538 9.97478e-05 -0.000597056 -0.000137399 0.000298599 -0.0015942 -0.00211587 -0.00111229 -0.000470849 0.00137737 0.00185109 0.00264968 0.000958138 -0.000882269 -0.00110923 -0.0026272 -0.000583836 0.000400677 0.000879368 0.000794047 0.00167354 -0.000227388 -0.000737286 -0.00141429 -0.0020827 -7.60437e-05 -0.000879711 0.000898382
internal_weight=2523 1647 876 723 466 1315 826 332 270 165 378 257 221 166 448 489 457 113 344 326 268 149 111 309 250 187 150 150 326 73
internal_count=2523 1647 876 723 466 1315 826 332 270 165 378 257 221 166 448 489 457 113 344 326 268 149 111 309 250 187 150 150 326 73
is_linear=0
shrinkage=1


Tree=1
num_leaves=31
num_cat=0
split_feature=240 261 36 57 122 293 305 261 388 98 309 331 78 114 34 374 225 139 119 288 372 175 351 250 205 12 89 225 221 292
split_gain=4.80204 5.20425 4.83198 4.66417 5.1769 4.55148 5.1187 3.91204 3.67697 4.15474 3.77657 3.43828 4.58215 3.73883 4.59473 4.43204 4.28452 4.99937 4.14248 5.78164 4.09071 5.30537 3.74178 3.86853 3.71114 3.37584 3.26873 3.19676 3.46739 3.12469
threshold=-1.0845683522848333 1.7140461760636632 -1.2293186632429933 -0.19002261771545023 0.1717293932225768 0.39478798165434892 -0.38551790309078821 -1.4495633226519355 0.25494703931245266 -0.67144002218394716 -0.22677232467675779 -0.93813153825372397 0.018498443561023568 0.44739863353684134 0.66816252594497838 0.024931821035161551 0.9261189392259922 0.62038486888977085 0.46563131251689965 -0.068934363631145329 -0.36300715488169538 -0.83928046885964558 0.33428574175919784 -0.26077595299858397 -0.30527876877965215 -0.95677634853501148 -0.58865010080970126 0.41992126977252042 -0.35050487920436252 -0.78637244331240364
decision_type=2 2 2 2 2 2 2 2 2 2 2 2 2 2 2 2 2 2 2 2 2 2 2 2 2 2 2 2 2 2
left_child=3 2 27 -1 5 -5 -7 -8 11 -10 -11 12 -4 16 15 -15 17 18 20 -20 21 -13 23 -23 -14 -22 -12 28 -2 -3
right_child=1 29 8 4 -6 6 7 -9 9 10 26 13 24 14 -16 -17 -18 -19 19 -21 25 22 -24 -25 -26 -27 -28 -29 -30 -31
leaf_value=0.0027616823798893848 -0.0024875488038509129 0.0026232014907904533 -0.00079462855818829585 0.0045180698542722636 -0.0015516941711379618 0.0034934925697743891 0.0015557802341539752 -0.0022875642274448184 -0.0011104209453205603 -0.0007556710473727435 0 -0.0058624820712615145 3.681631748461061e-05 0.0012334958786425643 -0.0025811835411086413 -0.00086571572284044329 0.00087974256636954629 0.00066602766472247566 -0.0020993801064502736 0.0020865005113657065 0.0013943316754885019 -0.00049114640615880486 0.00023887089374376104 -0.0047869556427708477 0.0041137916088666553 -0.0016443550354016693 0.0033915329322803255 -0.0038772676897545657 0.00053030818359742703 -0.00033234141191298316
leaf_weight=99 76 91 86 33 100 38 42 62 75 46 40 53 43 265 55 157 101 110 63 65 38 38 45 56 51 315 100 58 69 53
leaf_count=99 76 91 86 33 100 38 42 62 75 46 40 53 43 265 55 157 101 110 63 65 38 38 45 56 51 315 100 58 69 53
internal_value=-0.000120382 -0.000304298 -0.000438577 0.000919094 0.000222562 0.00127075 0.000429097 -0.000688205 -0.000269518 0.000817126 0.0016245 -0.000457624 0.000822859 -0.000631603 7.21652e-05 0.000440317 -0.0010163 -0.00126886 -0.00159356 0 -0.00197255 -0.00316237 -0.00202881 -0.00314885 0.0023405 -0.00129715 0.0024414 -0.00189762 -0.00102978 0.0015115
internal_weight=2523 2149 2005 374 275 175 142 104 1802 261 186 1541 180 1361 477 422 884 783 673 128 545 192 139 94 94 353 140 203 145 144
internal_count=2523 2149 2005 374 275 175 142 104 1802 261 186 1541 180 1361 477 422 884 783 673 128 545 192 139 94 94 353 140 203 145 144
is_linear=0
shrinkage=0.01


Tree=2
num_leaves=31
num_cat=0
split_feature=240 261 36 246 122 274 143 306 266 81 250 317 341 57 139 281 225 246 118 127 120 291 184 328 368 91 302 20 151 176
split_gain=4.74518 5.14181 4.7671 4.60771 5.68065 4.60057 4.10878 3.80352 3.73474 3.72488 4.04683 3.67888 3.62018 3.40705 3.64113 3.40459 3.15653 3.69741 3.15244 3.39229 3.57282 3.07811 5.85512 3.42983 3.57916 2.96159 3.07409 2.94803 3.78716 4.98332
threshold=-1.0845683522848333 1.7140461760636632 -1.2293186632429933 0.15480194281817147 0.1717293932225768 -1.0944319397293907 -0.29440513252130307 0.2539222756426161 -1.0119824463529759 0.037327698359871424 0.61169998900476685 1.9387857314197807 1.0954253526276938 -1.0164129667990098 0.36546394860795767 1.1698274498560008 0.41992126977252042 0.037104694817161506 1.003137084897797 0.1405196538649178 0.24638813637743553 -0.68952103673674425 0.59025579267430606 -0.077108497101430487 0.09976377920790036 -0.74490928517554289 1.0479247539601608 1.2588091459348967 -0.055857739439795488 -1.5105810710500533
decision_type=2 2 2 2 2 2 2 2 2 2 2 2 2 2 2 2 2 2 2 2 2 2 2 2 2 2 2 2 2 2
left_child=3 2 16 4 6 12 -1 8 -4 -5 -11 13 -3 -9 18 -12 17 -2 19 20 -15 22 23 -10 -25 -21 -27 28 29 -23
right_child=1 5 7 9 -6 -7 -8 11 21 10 15 -13 -14 14 -16 -17 -18 -19 -20 25 -22 27 -24 24 -26 26 -28 -29 -30 -31
leaf_value=-0.00027603799605276433 -0.0023571349419760465 0.0045442332044519761 0.0013921041396402179 0.0051765213516773659 -0.0026353161170482053 -0.00075012653964486985 0.0034898883743550292 0.0021080909480746739 -0.0037696663457160453 0.0039591910464819085 -0.0015868206766362376 0.0035399110790561229 0.00037198287466109342 0.00055089926608316981 0.0014222028838987112 0.0017457701158646035 -0.0038522448701163131 0.00080311803147196774 0.0019974679902715741 0.00036592291466690404 -0.0022042717299454156 -0.0031350167270284145 0.0015464624476323769 -0.002661495225293038 0.0015351871020324967 -0.0038185311439839832 0 -0.0022797593740480288 -0.00087014716087735651 0.0010139983005432521
leaf_weight=78 85 52 82 30 62 53 42 76 105 41 50 32 39 191 117 71 58 60 41 35 60 30 39 46 32 81 30 82 451 272
leaf_count=78 85 52 82 30 62 53 42 76 105 41 50 32 39 191 117 71 58 60 41 35 60 30 39 46 32 81 30 82 451 272
internal_value=-0.000119371 -0.000302206 -0.000435689 0.000913916 -0.00020211 0.00150262 0.00103666 -0.000267747 -0.000619395 0.00198877 0.00131202 0.000328893 0.00285634 0.000147483 -0.000118625 0.000324606 -0.00188494 -0.0010223 -0.000546173 -0.000830094 -0.000100163 -0.000782499 -0.00183261 -0.0025887 -0.000881943 -0.00203288 -0.00282659 -0.000493622 -0.000286969 0.000567484
internal_weight=2523 2149 2005 374 182 144 120 1802 1139 192 162 663 91 631 555 121 203 145 438 397 251 1057 222 183 78 146 111 835 753 302
internal_count=2523 2149 2005 374 182 144 120 1802 1139 192 162 663 91 631 555 121 203 145 438 397 251 1057 222 183 78 146 111 835 753 302
is_linear=0
shrinkage=0.01


Tree=3
num_leaves=31
num_cat=0
split_feature=240 57 122 193 310 253 66 300 245 55 82 187 228 198 292 203 137 309 41 6 22 251 241 60 223 347 242 169 390 388
split_gain=4.69165 4.56437 5.07446 4.48618 4.19861 4.58785 5.51385 5.4644 4.12853 4.0643 3.65342 3.88124 5.75865 3.76307 3.63128 3.49083 3.47234 4.01296 3.3911 3.85497 3.3162 4.10607 3.65786 3.27685 3.09815 3.64444 3.36995 3.71109 3.15537 3.31501
threshold=-1.0845683522848333 -0.19002261771545023 0.1717293932225768 -0.22590478472405076 -1.0277362851690295 -1.4649013029758795 -0.39810828460305908 -1.4182037923440869 -0.79066289574148352 -0.3305113169384219 -0.37147585272925437 -0.7982147504818996 -0.77868506780296343 1.0059566149451127 -0.64910904684527926 -0.43710429796714162 -1.1424292913145437 0.3509476199639559 0.53242993708351627 0.37620401812174942 -1.4673582797415738 -0.40188269596653353 -0.012191861248200032 -0.09432893754741957 -0.74818156198250263 -0.043383145520687207 -0.9205801136528976 0.73331127861141676 1.5543455290780963 -0.35957867495165935
decision_type=2 2 2 2 2 2 2 2 2 2 2 2 2 2 2 2 2 2 2 2 2 2 2 2 2 2 2 2 2 2
left_child=1 -1 9 8 15 6 -6 14 -2 -3 13 -12 -13 -10 -7 -5 17 -9 19 -11 -18 22 23 -22 25 -23 27 -26 29 -28
right_child=3 2 -4 4 5 7 -8 16 10 18 11 12 -14 -15 -16 -17 20 -19 -20 -21 21 24 -24 -25 26 -27 28 -29 -30 -31
leaf_value=0.0027321170455785375 -0.001588499836012054 -0.00054360259194961857 -0.0015363514671723048 -0.00030504115011330832 -0.001885201222187764 -0.0038224296715894811 0.002752399295597938 -0.0032806030926197612 -0.0021115274702836022 0.00068357364246339513 0.0043486881048752455 -0.0019076244983906774 0.0023950822191488108 0.0011897929632586652 -0.00023736645744994601 0.002735442459664267 -0.0021978068016845769 0.0001374959378667614 -0.00013337361146554803 0.0055254033675624275 -0.0003760457842757827 -0.0010589208588935436 0.0037822150892358932 0.001933362988665765 0.0029986358217375226 0.0022388758178647251 0.00089583236089145588 -0.0011136045766084693 0.0016974284565624068 -0.0016508984947930317
leaf_weight=99 65 70 100 77 35 93 77 94 55 31 51 42 99 85 45 67 97 49 31 43 207 58 32 84 41 71 53 41 32 499
leaf_count=99 65 70 100 77 35 93 77 94 55 31 51 42 99 85 45 67 97 49 31 43 207 58 32 84 41 71 53 41 32 499
internal_value=-0.00011813 0.000909299 0.000220045 -0.000299942 -0.000519013 -0.000667699 0.00125164 -0.00081621 0.000652064 0.00125797 0.00111258 0.00200231 0.00106971 -8.3416e-05 -0.00270919 0.00109347 -0.000616467 -0.00208914 0.00249346 0.00363422 -0.000435883 -0.000274899 0.000665449 0.000282169 -0.000663937 0.000724448 -0.000941707 0.000905433 -0.0012118 -0.001395
internal_weight=2523 374 275 2149 1752 1608 112 1496 397 175 332 192 141 140 138 144 1358 143 105 74 1215 1118 323 291 795 129 666 82 584 552
internal_count=2523 374 275 2149 1752 1608 112 1496 397 175 332 192 141 140 138 144 1358 143 105 74 1215 1118 323 291 795 129 666 82 584 552
is_linear=0
shrinkage=0.01


Tree=4
num_leaves=31
num_cat=0
split_feature=240 261 36 246 122 354 293 185 81 305 266 317 200 225 57 139 118 203 289 62 200 279 91 93 351 407 278 236 295 394
split_gain=4.63291 5.03227 4.68753 4.55003 5.55848 4.26128 3.6713 4.89989 3.66061 3.60555 3.63241 3.62881 3.165 3.38264 3.11285 3.5746 3.10407 3.28512 4.25399 6.00086 3.04885 3.04345 3.34089 3.02676 3.00834 4.59825 3.5194 3.93488 2.74266 2.73508
threshold=-1.0845683522848333 1.7140461760636632 -1.2293186632429933 0.15480194281817147 0.1717293932225768 0.079827026506400126 0.39478798165434892 -0.22758695904265377 0.037327698359871424 0.24106466285473063 -1.0119824463529759 1.9387857314197807 0.4853999086042467 0.41992126977252042 -1.0164129667990098 0.36546394860795767 1.003137084897797 1.3302158242039275 -0.62304172816627301 -0.15386769879107251 0.374382264579667 -1.5261601383099566 -0.27640852640049424 0.46470740637144442 -0.88127734989922957 -1.2004574886167105 -0.015015270431369772 -0.50986497429985989 -1.094589679232062 0.20209703802217013
decision_type=2 2 2 2 2 2 2 2 2 2 2 2 2 2 2 2 2 2 2 2 2 2 2 2 2 2 2 2 2 2
left_child=3 2 12 4 6 28 -1 -8 -5 10 -4 14 13 23 -11 16 17 18 19 -16 -10 22 -12 -2 26 -26 27 -23 -3 -27
right_child=1 5 9 8 -6 -7 7 -9 20 11 21 -13 -14 -15 15 -17 -18 -19 -20 -21 -22 24 -24 -25 25 29 -28 -29 -30 -31
leaf_value=0.0037575971787529336 -0.0028707902717278965 0.0039020226544055803 0.001378967855347409 0.0051333240239182492 -0.0026113801664905622 -0.00080921015556098194 -0.0019966542420701851 0.002725037716933199 0.0023721974086491206 0.0020261759722194116 -0.0049987588567393165 0.0035074108673314396 0.00017008454426778138 -0.0049658912643790248 0.0032361970694425209 0.0014124574822162381 0.0019859952009607888 0.0021625803021544758 -0.001754265759619763 -0.0015796939220956779 -0.00036773407897271681 -0.00034414611501144431 -0.00028416214412021817 0.00042283704628547032 -0.0027795108166627949 -0.00091360539579804837 -0.0017966202211100607 0.0033948587919822183 0.00014496718642904478 0.00046078295071477662
leaf_weight=33 65 63 82 30 62 49 52 35 100 75 33 32 52 43 46 117 41 31 267 53 62 49 31 43 107 554 38 57 32 189
leaf_count=33 65 63 82 30 62 49 52 35 100 75 33 32 52 43 46 117 41 31 267 53 62 49 31 43 107 554 38 57 32 189
internal_value=-0.00011647 -0.000297154 -0.000429232 0.000904495 -0.000204377 0.00148829 0.00102068 -2.23925e-05 0.00197266 -0.000262679 -0.000604678 0.00031878 -0.00186632 -0.00259334 0.000138319 -0.000114179 -0.00053791 -0.000819744 -0.00109631 0.00062826 0.0013014 -0.000765448 -0.0028687 -0.00153014 -0.000619519 -0.0008485 0.000690962 0.00164579 0.00271712 -0.000556987
internal_weight=2523 2149 2005 374 182 144 120 87 192 1802 1140 662 203 151 630 555 438 397 366 99 162 1058 64 108 994 850 144 106 95 743
internal_count=2523 2149 2005 374 182 144 120 87 192 1802 1140 662 203 151 630 555 438 397 366 99 162 1058 64 108 994 850 144 106 95 743
is_linear=0
shrinkage=0.01


Tree=5
num_leaves=31
num_cat=0
split_feature=240 261 36 274 246 122 164 414 341 305 317 291 331 307 320 328 368 183 304 11 245 388 304 15 137 200 225 54 384 215
split_gain=4.5757 4.97632 4.62866 4.49035 4.48659 5.47952 4.81488 3.71904 3.58205 3.55677 3.57644 3.42512 4.77873 3.54339 3.53336 3.33195 3.92301 3.22839 4.28521 5.55915 4.73109 3.84743 3.66337 3.34489 3.29892 3.12467 3.34573 3.09589 3.74744 3.03777
threshold=-1.0845683522848333 1.7140461760636632 -1.2293186632429933 -1.0944319397293907 0.15480194281817147 0.1717293932225768 -0.2853133155535777 0.96308182650252927 1.0954253526276938 0.24106466285473063 1.9387857314197807 -0.68952103673674425 -0.71100094194573904 -0.56966626093671369 0.092296972795539473 -0.077108497101430487 0.078621878808732087 -0.63670053516596636 -0.051750523052649683 0.49834278559050643 -0.62083997064392793 -0.15602129706310253 -0.11572395723244032 -0.16079237016412204 0.47220194529492887 0.4853999086042467 0.41992126977252042 -0.063916963639373117 0.83470243489038931 1.0000000180025095e-35
decision_type=2 2 2 2 2 2 2 2 2 2 2 2 2 2 2 2 2 2 2 2 2 2 2 2 2 2 2 2 2 2
left_child=4 2 25 8 5 6 29 27 -3 11 -11 12 -4 14 -13 -14 -17 22 20 24 23 -22 -15 -19 -20 26 -2 -6 -29 -1
right_child=1 3 9 -5 7 -7 -8 -9 -10 10 -12 13 15 17 -16 16 -18 18 19 -21 21 -23 -24 -25 -26 -27 -28 28 -30 -31
leaf_value=0.0011969809433106673 -0.0015187650118023159 0.0044969091712738626 0.0007138667677788706 -0.00074386386708779771 0.0048461061064153915 -0.0025913868104544234 0.0035394633315662121 -0.00066923360317582036 0.00034840423840938546 0.0001378288507747797 0.0034826526451369696 -0.00050971036040989152 -0.0036666404326947837 -0.0029516095077762238 -0.0029967361702411262 -0.0030239967526285911 0.0013665094175375997 0.0016173679540131955 -0.0020385860245205815 0.002594492147521426 0.00049758168089488939 0.0039072746040553531 0.00040109511029215591 -0.0020661768240525439 0.00074737136946770094 0.00016882462746084289 -0.0049360959596104091 6.0188171683230268e-05 0.0039516381019105516 -0.0027205500075859683
leaf_weight=42 108 52 59 53 46 62 45 39 39 630 32 222 102 63 79 38 38 45 136 46 60 86 60 49 57 52 43 67 40 33
leaf_count=42 108 52 59 53 46 62 45 39 39 630 32 222 102 63 79 38 38 45 136 46 60 86 60 49 57 52 43 67 40 33
internal_value=-0.000115027 -0.000294604 -0.000425958 0.00148086 0.000899602 -0.000201337 0.00101478 0.00196029 0.00281847 -0.000260436 0.000317045 -0.000600127 -0.00166981 -0.000310785 -0.00119442 -0.00248683 -0.000785891 0.000125249 0.000504443 -0.000426118 0.00144765 0.00256547 -0.00129589 -0.000253737 -0.00119092 -0.00185401 -0.0025764 0.00266281 0.00160662 -0.000487689
internal_weight=2523 2149 2005 144 374 182 120 192 91 1802 662 1140 237 903 301 178 76 602 479 239 240 146 123 94 193 203 151 153 107 75
internal_count=2523 2149 2005 144 374 182 120 192 91 1802 662 1140 237 903 301 178 76 602 479 239 240 146 123 94 193 203 151 153 107 75
is_linear=0
shrinkage=0.01


Tree=6
num_leaves=31
num_cat=0
split_feature=240 261 36 57 47 144 354 197 244 388 98 310 309 245 212 412 297 71 62 15 114 271 88 292 9 395 175 181 408 155
split_gain=4.52574 4.91395 4.57005 4.43409 4.64518 4.74677 4.20618 3.8866 3.62815 3.53758 4.09206 4.03958 3.68539 3.52275 3.11898 3.40911 5.01328 3.09837 2.98917 2.9638 2.71603 4.66871 4.50464 4.18124 4.09342 3.93446 3.28251 3.71933 3.19345 3.37912
threshold=-1.0845683522848333 1.7140461760636632 -1.2293186632429933 -0.19002261771545023 0.23318820558099598 0.69791132930887689 0.079827026506400126 1.4137146503616835 -0.18868582371345369 0.25494703931245266 -0.67144002218394716 -1.0148594142575655 -0.22677232467675779 -0.73232053953697607 -0.07914772790053641 1.0000000180025095e-35 -0.37039257785760543 0.28494688985737138 0.075847146694472137 0.69119953401998513 0.44739863353684134 -1.2115475320368174 0.071011375269032714 -0.66944504513239433 -0.33215070025330828 -0.23917787640130841 -0.86483243675819044 0.1176119795603002 -0.64660858493540863 0.49255705069177663
decision_type=2 2 2 2 2 2 2 2 2 2 2 2 2 2 2 2 2 2 2 2 2 2 2 2 2 2 2 2 2 2
left_child=3 2 14 19 5 17 -3 -7 -6 11 -11 18 -12 -14 15 16 -2 -5 -4 -1 21 22 -13 24 -23 -22 -27 -28 -25 -30
right_child=1 6 9 4 8 7 -8 -9 -10 10 12 20 13 -15 -16 -17 -18 -19 -20 -21 25 23 -24 28 -26 26 27 -29 29 -31
leaf_value=0.004091338364590631 0.00099544961148729703 0.0026928076002093937 0.0023040410075984914 0.00041095290798693896 -0.002840793934831424 -0.0021114085670912042 -0.00081035071038914957 0.0021275072058455813 0.00080389406426217076 -0.0011054648879942691 -0.00074167042602008839 0.0036490563223404542 -0.00040045178184906641 0.0032543828313633259 0.00073315574913411518 -0.0042740391456754876 -0.0032409262826569893 0.0045134680608616157 -0.00063936002759469883 0.0004119254338244597 0.00090521004852047002 -0.00058635480740728478 -0.0012725909211440012 -0.0019136468691041291 -0.0038482176436060618 0.001666586431788235 -0.0022025274701055982 0.00070748051581115043 -0.0010180264534428716 0.00065203959706705062
leaf_weight=59 50 95 86 34 65 51 49 34 42 75 46 40 31 109 35 62 56 49 52 40 240 70 30 179 99 39 153 57 298 198
leaf_count=59 50 95 86 34 65 51 49 34 42 75 46 40 31 109 35 62 56 49 52 40 240 70 30 179 99 39 153 57 298 198
internal_value=-0.000113909 -0.000292514 -0.000423055 0.000895153 0.000215541 0.00126275 0.00147174 -0.000348441 -0.0013758 -0.000258564 0.000807227 -0.00044313 0.00160862 0.00241564 -0.00184206 -0.00241029 -0.00121491 0.00294096 0.00116593 0.00269181 -0.000606391 -0.000927642 0.00149358 -0.00113742 -0.00254905 0 -0.000881754 -0.00138986 -0.000770118 -0.000341365
internal_weight=2523 2149 2005 374 275 168 144 85 107 1802 261 1541 186 140 203 168 106 83 138 99 1403 914 70 844 169 489 249 210 675 496
internal_count=2523 2149 2005 374 275 168 144 85 107 1802 261 1541 186 140 203 168 106 83 138 99 1403 914 70 844 169 489 249 210 675 496
is_linear=0
shrinkage=0.01


Tree=7
num_leaves=31
num_cat=0
split_feature=240 261 36 246 122 164 354 306 266 317 194 57 310 339 200 225 215 151 331 407 408 375 298 246 371 419 392 365 78 33
split_gain=4.47515 4.85133 4.51099 4.40819 4.9283 4.23418 4.15182 3.64338 3.5752 3.48037 3.44263 3.29703 3.38645 4.57788 3.08096 3.308 3.05452 2.96666 4.72808 4.12262 3.95289 4.3286 3.94913 3.13057 3.26433 5.22679 3.69667 3.76387 3.94315 2.93233
threshold=-1.0845683522848333 1.7140461760636632 -1.2293186632429933 0.12999573564688024 0.1717293932225768 -0.2853133155535777 0.079827026506400126 0.2539222756426161 -1.0119824463529759 1.9387857314197807 -0.094455437337594719 -1.0164129667990098 0.53642445142293371 -0.38841473623276618 0.4853999086042467 0.41992126977252042 1.0000000180025095e-35 -0.057330448199579991 -0.95161651521501189 -1.291517091607687 -0.27499688848874093 0.17272258252722233 0.02988056767456403 -0.97534603073934778 0.58209331957598109 -0.22012191649920068 0.58488656644157089 0.11222168566437593 -0.23509828638648528 -0.30531315297114842
decision_type=2 2 2 2 2 2 2 2 2 2 2 2 2 2 2 2 2 2 2 2 2 2 2 2 2 2 2 2 2 2
left_child=3 2 14 4 5 16 -3 8 -4 11 -5 -9 -13 -14 15 -2 -1 19 -19 -10 21 -21 -23 -20 25 -25 27 -27 -29 -22
right_child=1 6 7 10 -6 -7 -8 9 17 -11 -12 12 13 -15 -16 -17 -18 18 23 20 29 22 -24 24 -26 26 -28 28 -30 -31
leaf_value=0.0011793306389484893 -0.0014958502941510893 0.0026758734609202014 0.0013669257245159574 0.0039736056046844534 -0.0025382954305067902 0.0033645082604553968 -0.00080415388400319448 0.0020791846532852219 -0.0023229570525205314 0.0034510308679583592 0.00099619752958651406 0.00029314062439029132 0.0014963025101871394 -0.0027530405608998548 0.00017819243603972375 -0.0048931720074680118 -0.0028152615797113292 0.0010801010994182434 7.2840000000581445e-05 -0.0026000950563769176 -0.00054389207939601551 -0.0016416260687401518 0.0030815981284372119 -0.0036433978068630378 0 0 0.0018861436285078526 -0.0004130630529011196 -0.0040752259105266558 0.0020647629368459987
leaf_weight=42 108 95 82 57 60 43 49 76 66 32 141 434 32 89 52 43 31 78 100 71 57 30 36 154 80 82 30 51 82 140
leaf_count=42 108 95 82 57 60 43 49 76 66 32 141 434 32 89 52 43 31 78 100 71 57 30 36 154 80 82 30 51 82 140
internal_value=-0.000112663 -0.000290278 -0.000419998 0.00089073 -0.000235868 0.000935507 0.00146266 -0.000256553 -0.00060078 0.000327321 0.00190949 0.000150606 -0.000111029 -0.00158254 -0.00182982 -0.0025473 -0.000480174 -0.000760446 -0.00117332 -6.73946e-05 0.000374609 -0.000900995 0.00087601 -0.00148817 -0.0018234 -0.00219138 -0.00123633 -0.00170844 -0.0027349 0.00128697
internal_weight=2523 2149 2005 374 176 116 144 1802 1139 663 198 631 555 121 203 151 73 1057 657 400 334 137 66 579 479 399 245 215 133 197
internal_count=2523 2149 2005 374 176 116 144 1802 1139 663 198 631 555 121 203 151 73 1057 657 400 334 137 66 579 479 399 245 215 133 197
is_linear=0
shrinkage=0.01


Tree=8
num_leaves=31
num_cat=0
split_feature=246 32 111 261 199 244 366 27 204 414 74 100 198 383 331 267 114 262 270 258 15 166 129 100 4 130 90 218 311 396
split_gain=4.43347 5.30626 6.24791 4.80643 6.3144 4.32695 4.31319 3.69413 6.02285 4.47364 4.4083 4.29138 4.07017 4.00995 3.84316 4.05016 4.91185 3.9983 3.73041 3.69293 3.50979 5.08772 3.60128 3.37362 3.71206 4.30928 3.94154 3.34324 4.92867 3.25672
threshold=0.25401055568632952 -0.7081355516569201 -1.1068981995231966 -1.1742350899488725 -0.15655439734416446 -0.28533168451164076 0.9183314478104766 0.91261108822976211 -1.3358114813909554 -1.3132705618787344 -0.26102187399899046 0.52735653758975543 1.0635206776874304 -0.73331817942487176 -0.906277497619149 -0.17051019376371082 -1.3855944665787636 -0.073445707800159257 -0.93020309536176815 -1.2927144350718145 0.074109654490744428 0.097361042981707849 -0.35764282432746203 1.0000000180025095e-35 -0.033635065841770236 0.10537741771003233 -0.6890594992111515 -0.0055752211181051307 -0.53825005913927504 -0.39798477968650281
decision_type=2 2 2 2 2 2 2 2 2 2 2 2 2 2 2 2 2 2 2 2 2 2 2 2 2 2 2 2 2 2
left_child=1 19 6 -2 27 -6 -3 8 -4 -10 12 23 13 -11 -9 17 -17 -16 -15 -1 21 -21 -22 24 26 -26 -12 28 -5 -7
right_child=3 2 7 4 5 29 -8 14 9 10 11 -13 -14 18 15 16 -18 -19 -20 20 22 -23 -24 -25 25 -27 -28 -29 -30 -31
leaf_value=0.00057820970425382257 0.00205957491527642 0.00038702525069370054 -0.0041452305171638722 -0.00078392925255078199 0.0008014694522350829 -0.002772469748909186 0.0036240671264981344 0.0034473825895633453 0.0022745369211770593 0 -0.0023347438455504528 -0.0022551063173228787 0.0013940382143482566 -6.6018742110048018e-05 -0.0030732305222264836 -0.0017387246163359481 0.0020392757198351317 0.00085754306099954103 -0.0040254294189314048 -0.0019444842156054094 -0.00062437439723530923 0.0024080176237861023 -0.0045024740463122728 0.0021129334195480716 -0.0027983788799185809 0.00062819158557491999 0.0013912608380470971 -0.00068634932513459259 0.0028356794270001 -0.00053448639016581755
leaf_weight=62 153 122 48 46 149 96 64 37 50 53 32 82 30 33 61 44 126 40 118 117 39 32 82 75 87 58 155 57 154 221
leaf_count=62 153 122 48 46 149 96 64 37 50 53 32 82 30 33 61 44 126 40 118 117 39 32 82 75 87 58 155 57 154 221
internal_value=-0.000111735 -0.000418883 -0.000128637 0.000459688 0.000109479 -0.000576647 0.00155415 -0.000412551 -0.000764875 -0.000538362 -0.000745526 -0.000191549 -0.00187058 -0.00238381 0.000509346 6.75797e-05 0.00102352 -0.00148152 -0.00320498 -0.00154588 -0.00205268 -0.000957093 -0.00332364 0.000220974 -0.00020155 -0.00140384 0.000709242 0.00136773 0.0019789 -0.00124104
internal_weight=2523 1647 1315 876 723 466 186 1129 821 773 723 489 234 204 308 271 170 101 151 332 270 149 121 407 332 145 187 257 200 317
internal_count=2523 1647 1315 876 723 466 186 1129 821 773 723 489 234 204 308 271 170 101 151 332 270 149 121 407 332 145 187 257 200 317
is_linear=0
shrinkage=0.01


Tree=9
num_leaves=31
num_cat=0
split_feature=240 261 274 36 57 122 55 306 341 266 317 57 139 212 412 297 264 265 106 141 11 291 184 328 368 151 176 247 218 175
split_gain=4.39035 4.76501 4.42702 4.41603 4.34847 4.8387 4.04086 3.58952 3.5342 3.52649 3.42454 3.23222 3.49416 3.08475 3.34493 4.94537 3.01183 3.87874 4.28188 3.50579 3.00725 2.93539 5.69907 3.32835 3.4479 2.81131 3.8978 4.08498 3.54677 3.2508
threshold=-1.0845683522848333 1.7140461760636632 -1.0944319397293907 -1.2293186632429933 -0.19002261771545023 0.1717293932225768 -0.3305113169384219 0.2539222756426161 1.0954253526276938 -1.0119824463529759 1.9387857314197807 -1.0164129667990098 0.36546394860795767 -0.07914772790053641 1.0000000180025095e-35 -0.37039257785760543 0.55704521058810119 -0.62858374326853339 -0.28964745183941604 0.24447602267907284 0.54756658841467043 -0.68952103673674425 0.59025579267430606 -0.077108497101430487 0.09976377920790036 -0.055857739439795488 -1.5105810710500533 0.02328804940597692 -0.66865468938213224 -0.24441624610402016
decision_type=2 2 2 2 2 2 2 2 2 2 2 2 2 2 2 2 2 2 2 2 2 2 2 2 2 2 2 2 2 2
left_child=4 3 8 13 20 6 -6 9 -3 -5 11 -9 16 14 15 -2 17 18 -13 -18 -1 22 23 -11 -25 26 -23 -28 -29 -30
right_child=1 2 -4 7 5 -7 -8 10 -10 21 -12 12 -14 -15 -16 -17 19 -19 -20 -21 -22 25 -24 24 -26 -27 27 28 29 -31
leaf_value=0.0042275092820636927 0.0010031549954930177 0.0044456967156966806 -0.00075805170133455904 0.0013587576204112598 -0.00057249001977551308 -0.0015048905079453891 0.0024562449361606735 0.0020599771966823403 0.00032627668231725691 -0.0036888721623571119 0.003424484280540663 0.00074191058054566387 0.0014007979895950867 0.00075013102963566785 -0.0042217603517929097 -0.0032044005373107467 -0.00065885480846382535 0.0005554430782219751 -0.0037934643535874786 -0.0046674847202923374 0.00057724409122416308 -0.0030946867728198412 0.0015532577292221347 -0.0025927927539548062 0.0015260191322030389 -0.00095782412832856004 -0.00024313106000090339 0.004300049969098634 0.0028706931043416262 -0.0014772377693508235
leaf_weight=54 50 52 53 82 70 100 105 76 39 105 32 32 117 35 62 56 74 252 48 32 45 30 39 46 32 491 207 43 30 34
leaf_count=54 50 52 53 82 70 100 105 76 39 105 32 32 117 35 62 56 74 252 48 32 45 30 39 46 32 491 207 43 30 34
internal_value=-0.000110915 -0.000286858 0.00145036 -0.000415438 0.000882902 0.000209748 0.00122372 -0.000253689 0.00277898 -0.000595379 0.000325823 0.000150458 -0.000108507 -0.00181039 -0.00237579 -0.00119158 -0.000527575 -4.00171e-05 -0.00194449 -0.00197933 0.00266209 -0.000753978 -0.00177944 -0.00252583 -0.000844618 -0.000471766 0.000209074 0.000558131 0.00213013 0.000510328
internal_weight=2523 2149 144 2005 374 275 175 1802 91 1139 663 631 555 203 168 106 438 332 80 106 99 1057 222 183 78 835 344 314 107 64
internal_count=2523 2149 144 2005 374 275 175 1802 91 1139 663 631 555 203 168 106 438 332 80 106 99 1057 222 183 78 835 344 314 107 64
is_linear=0
shrinkage=0.01


Tree=10
num_leaves=31
num_cat=0
split_feature=246 32 404 414 26 116 127 57 162 350 246 329 56 101 383 258 415 138 265 21 412 235 392 393 350 253 412 12 151 265
split_gain=4.36004 5.19885 4.68707 4.59773 4.76501 5.29548 4.68177 4.19186 4.07402 5.54723 3.98208 3.90247 4.01447 3.7198 3.63503 3.61354 3.508 4.47281 3.47606 3.20936 3.15502 5.17854 4.33206 2.8951 2.88501 2.79323 2.79206 2.78308 3.69005 2.73423
threshold=0.25401055568632952 -0.7081355516569201 0.2138182920975045 -1.3132705618787344 -0.86886317001524604 0.031929526219640451 1.1485404628877272 -0.18399386085428576 -0.47827801158274491 0.047938196300928763 2.1995876410327457 1.1484091560897787 -0.38800974381817582 -0.45658148637000556 -0.40076864228429798 -1.2927144350718145 -0.58843136386078776 -0.17764081112152375 -0.60003606225825257 -0.44738199145573415 -0.17554033187391191 -0.30876965395410089 0.18797155323777906 -0.22306186904986969 -0.20926357816180355 1.0199338368626811 -0.7547478027689668 -0.010504146445289667 -0.20674027858677324 -0.58640771355955845
decision_type=2 2 2 2 2 2 2 2 2 2 2 2 2 2 2 2 2 2 2 2 2 2 2 2 2 2 2 2 2 2
left_child=1 15 20 14 -5 6 -6 8 23 -10 11 12 13 -4 -3 -1 17 -9 -18 -17 24 -22 29 -7 25 26 -2 28 -21 -23
right_child=2 3 10 4 5 7 -8 16 9 -11 -12 -13 -14 -15 -16 19 18 -19 -20 27 21 22 -24 -25 -26 -27 -28 -29 -30 -31
leaf_value=0.00057032368262298404 0.0026247245933683143 -0.00063582847910848537 -0.0015270314851982725 0.0014129560685006682 -0.0001547881323131871 -0.00025958315015020891 0.0028404102249649068 -0.0029282906800508503 -0.0024219161156628635 0.0013084510693295024 -0.0011611755869965605 -0.00027833841957858411 0.0038933553567039782 0.0025654463876377456 0.0033929118995798665 -0.0033664590455927293 -0.00032547657378017902 0.0018266955837607385 -0.0035508177687864234 -0.0024325902567943558 0.0026383929414940731 -0.0027065419355163946 -0.0047360812856682708 0.0034277694776835965 0.0018255454177592545 -0.0028456591221038253 -0.00029947484424672753 -0.0023708485072569513 0.0018558780572218998 -2.2068321441442968e-05
leaf_weight=62 40 31 34 141 503 39 56 33 115 57 45 56 110 53 61 109 48 43 149 30 33 53 33 39 117 30 137 80 51 135
leaf_count=62 40 31 34 141 503 39 56 33 115 57 45 56 110 53 61 109 48 43 149 30 33 53 33 39 117 30 137 80 51 135
internal_value=-0.000109989 -0.000414599 0.000456664 -0.000127264 -0.000294186 -0.00052346 0.000145411 -0.00124573 -0.000282817 -0.00115612 0.00147154 0.00196486 0.00262403 0.000911533 0.00199756 -0.00153014 -0.00210086 -0.000196011 -0.00280124 -0.0020315 -6.12276e-05 -0.000899618 -0.00146926 0.0015612 0.000582179 -0.000107415 0.000355371 -0.00106682 0.000186972 -0.000825701
internal_weight=2523 1647 876 1315 1223 1082 559 523 250 172 298 253 197 87 92 332 273 76 197 270 578 254 221 78 324 207 177 161 81 188
internal_count=2523 1647 876 1315 1223 1082 559 523 250 172 298 253 197 87 92 332 273 76 197 270 578 254 221 78 324 207 177 161 81 188
is_linear=0
shrinkage=0.01


Tree=11
num_leaves=31
num_cat=0
split_feature=389 245 331 189 350 397 304 324 242 370 341 239 66 182 160 16 263 205 373 415 263 396 73 14 286 34 352 411 409 405
split_gain=4.08161 3.73589 4.33361 3.95026 4.30416 4.72982 4.81345 4.30744 4.11955 3.82978 4.09155 4.16726 3.99509 3.82622 3.77063 3.57464 5.48098 3.48284 4.76629 4.24616 3.77837 3.45182 3.39215 4.06342 3.34493 3.27609 3.38651 3.22297 3.11415 4.02083
threshold=1.5366654574509753 -0.74866330061779784 -0.91395918406678078 0.038160767801812427 0.14138063954903393 -0.29879218219305742 0.083940117093904656 1.7724491218363332 0.27910835271548623 -0.41719776721589436 -0.81087190370725282 0.60306749980154761 -0.22782255498969903 1.2457199938768169 -0.30287170510692024 0.49992945714450626 -0.40659553886131272 0.016471707484795185 0.62642693793241655 -0.1844289456659616 -0.36979395044752156 0.33773726121582132 -0.024541248547505893 -0.2184798611916299 0.13720881533298279 -0.80307704847874517 -0.8112471858960858 0.16762137626119897 -0.035390098945111588 0.29024424322863296
decision_type=2 2 2 2 2 2 2 2 2 2 2 2 2 2 2 2 2 2 2 2 2 2 2 2 2 2 2 2 2 2
left_child=1 9 27 4 5 7 15 25 13 10 -1 -12 -11 17 -14 28 -17 18 19 -6 -19 -8 23 -10 -5 -4 -27 -3 29 -7
right_child=-2 2 3 24 8 6 21 -9 22 12 11 -13 14 -15 -16 16 -18 20 -20 -21 -22 -23 -24 -25 -26 26 -28 -29 -30 -31
leaf_value=0.00024362973713626463 0.0013881801922403321 0.0024693517548578753 0.00080087215743131104 0.00030500395809477147 -0.0016682638197529074 0.00030048378199167854 -0.0032412004250694407 0.0016887925737811363 -0.001315038753692211 0.00071565741404199326 -0.0039577968474303451 -4.256386487256913e-05 0.0002968034414830161 -0.0027807975774806625 -0.0032811334935518412 -0.004602336723782012 0.00019551585242152215 0.0039957881937734783 -0.0029346377463893049 0.0022355121888575102 6.4533618197957465e-05 0 0.003350931543634454 0.0022046399324694098 0.0031178947112619365 -0.0053206903984149298 -0.0018969705110016902 -0.0001967014852439014 -0.0001510314361461584 0.003418085336732336
leaf_weight=52 167 113 34 177 47 96 75 32 60 169 105 40 49 51 63 32 73 38 61 61 70 58 65 66 56 34 269 69 164 77
leaf_count=52 167 113 34 177 47 96 75 32 60 169 105 40 49 51 63 32 73 38 61 61 70 58 65 66 56 34 269 69 164 77
internal_value=-0.000109156 -0.0002185 -1.45464e-05 -0.000175122 -0.000370505 -0.000773776 -0.000195179 -0.00165599 0.000353553 -0.00100599 -0.00207093 -0.00292702 -0.000232365 -0.000314225 -0.00169418 0.000298624 -0.00127865 0.000138667 -0.000735613 0.000491749 0.00154071 -0.00185339 0.00151759 0.000495181 0.00102312 -0.00199644 -0.00232991 0.00144027 0.000809454 0.00173986
internal_weight=2523 2356 1878 1696 1463 944 575 369 519 478 197 145 281 328 112 442 105 277 169 108 108 133 191 126 233 337 303 182 337 173
internal_count=2523 2356 1878 1696 1463 944 575 369 519 478 197 145 281 328 112 442 105 277 169 108 108 133 191 126 233 337 303 182 337 173
is_linear=0
shrinkage=0.01


Tree=12
num_leaves=31
num_cat=0
split_feature=246 32 111 320 368 156 1 92 285 412 35 351 293 200 71 258 373 15 56 400 12 324 56 118 304 363 182 266 156 111
split_gain=4.25161 5.1151 6.12414 4.60534 4.70826 4.21678 4.16644 4.8137 4.26897 3.98245 3.82591 4.31086 3.92577 3.78475 4.33974 3.55132 3.62666 4.11509 3.5439 3.34585 3.33876 3.33223 3.53268 3.16436 4.64032 4.23317 4.0039 4.11507 3.758 4.67234
threshold=0.25401055568632952 -0.7081355516569201 -1.1068981995231966 0.47891579312674354 0.70837349656251614 0.96258830519668814 1.4870407487784498 1.1695012453211773 1.7931004342607639 -0.62268977271922699 -0.013112640012160766 -0.91994159963658884 0.6011432865408296 -1.1580128456787036 0.29886960471512386 -1.2927144350718145 0.015210648170749833 0.086815573946081748 0.58889152480866269 -0.79919184498511953 -0.29868735502962768 -0.46005870333164484 -0.49007772232947283 -0.10014404389632688 -0.16659076126447889 -0.94238154148338837 0.46042381792184167 -0.87291487305076787 -1.0587663055603136 1.031847696912521
decision_type=2 2 2 2 2 2 2 2 2 2 2 2 2 2 2 2 2 2 2 2 2 2 2 2 2 2 2 2 2 2
left_child=1 15 18 4 9 -6 8 -8 13 -2 11 -11 -12 14 -4 -1 17 -17 19 -3 -13 22 -5 24 25 -15 27 -26 -25 -30
right_child=3 2 6 21 5 -7 7 -9 -10 10 12 20 -14 23 -16 16 -18 -19 -20 -21 -22 -23 -24 28 26 -27 -28 -29 29 -31
leaf_value=0.00056611469597555697 0.0014127766403859271 0.0039879146182820917 -0.0042003621730125609 -0.0012159785711103016 0.0027644368237580612 -0.0012194334723587548 0.0046259077309685594 -0.00010453796632249247 -0.0035448591781661234 0.0032811801157453481 -0.0011167772853431024 0.0010734735490150343 -0.0049023151411549063 -0.0025145696165981058 0.00011393809589581231 0.00032186791335085506 -0.0034714120409721251 -0.0027919095018375164 -0.0013290050642236189 0.00088234522748787542 -0.0014495957784924005 0.0035600145165260661 0.0018854123313428351 -0.0032848396942329904 0.0028864358311501454 0.00039614686246189953 0.0030010375149625663 -0.00016365001184464088 -0.0011297371110663042 0.0020490144529755703
leaf_weight=62 95 61 52 52 97 33 32 53 45 32 138 78 35 95 37 93 105 72 32 93 144 66 106 58 51 97 70 253 231 55
leaf_count=62 95 61 52 52 97 33 32 53 45 32 138 78 35 95 37 93 105 72 32 93 144 66 106 58 51 97 70 253 231 55
internal_value=-0.000108342 -0.000409161 -0.000124125 0.000451189 1.69739e-05 0.00171211 -0.000405259 0.00168427 -0.000583059 -0.000400569 -0.000820367 -1.64179e-05 -0.00195848 -0.000437833 -0.00238875 -0.00151567 -0.00201274 -0.00102409 0.00154189 0.00217988 -0.000539121 0.0016816 0.000831011 -0.000236727 0.000215898 -0.00102935 0.000870545 0.000347223 -0.000992848 -0.000491093
internal_weight=2523 1647 1315 876 652 130 1129 85 1044 522 427 254 173 999 89 332 270 165 186 154 222 224 158 910 566 192 374 304 344 286
internal_count=2523 1647 1315 876 652 130 1129 85 1044 522 427 254 173 999 89 332 270 165 186 154 222 224 158 910 566 192 374 304 344 286
is_linear=0
shrinkage=0.01


Tree=13
num_leaves=31
num_cat=0
split_feature=246 32 111 320 368 366 156 200 131 320 284 258 373 15 324 56 249 136 115 331 183 409 31 16 352 136 382 331 74 77
split_gain=4.19033 5.04434 6.03607 4.54082 4.64579 4.22336 4.15728 4.03333 4.08087 3.59136 4.23683 3.50427 3.57333 4.05854 3.28822 3.48342 3.08992 3.06629 3.6084 4.52143 3.49935 3.45247 3.3379 5.12335 3.24937 3.1887 3.0567 3.00616 2.96235 2.91268
threshold=0.25401055568632952 -0.7081355516569201 -1.1068981995231966 0.47891579312674354 0.70837349656251614 0.9183314478104766 0.96258830519668814 -1.1580128456787036 -0.3716821378069684 0.10059759852243362 -1.163230850923054 -1.2927144350718145 0.015210648170749833 0.086815573946081748 -0.46005870333164484 -0.49007772232947283 0.18343272847201428 -0.13638518883435813 -0.020376524112093775 -0.75344573231023637 -0.39421985771408957 -0.17059828923768758 0.44824456982241556 -0.39477033549863988 1.0991920404864925 -0.3743750816425761 -0.27483140350490837 -0.05420986620985635 0.44126070505746789 -0.35778941762766786
decision_type=2 2 2 2 2 2 2 2 2 2 2 2 2 2 2 2 2 2 2 2 2 2 2 2 2 2 2 2 2 2
left_child=1 11 5 4 9 -3 27 8 -4 10 -2 -1 13 -13 15 -5 -14 20 21 -20 -9 -19 24 -24 26 -22 -21 -6 -23 -17
right_child=3 2 7 14 6 -7 -8 17 -10 -11 -12 12 16 -15 -16 29 -18 18 19 22 25 28 23 -25 -26 -27 -28 -29 -30 -31
leaf_value=0.00056266494124429306 0.0032189259612681095 0.00037582594707454253 -0.0043513274569530044 -0.0012076468489788197 0.0043932067096795679 0.0035791522775737877 -0.0012093295983171889 0.00045947543747301792 -0.00021098952705286584 -0.0022040421336346852 -0.00031752146424696549 0.00031936073533602453 -0.0049934236362266047 -0.0027726679834587549 0.0035359320877957063 0.0041741469560342059 -0.0013101509829260866 0.003207551998824909 0.0013491437070785506 -0.0034962777348189825 -0.00024837234988808634 -0.00019300236833728191 -0.002007095836421573 0.0027368250969289376 -0.0040244343690574169 -0.003149374127853662 -0.00048240348896704238 0.00070806492314053071 0.0025813385418483187 0.00058507496082823576
leaf_weight=62 35 122 48 52 51 64 33 82 51 89 398 93 58 72 66 35 47 56 112 39 68 167 36 53 40 98 232 46 47 71
leaf_count=62 35 122 48 52 51 64 33 82 51 89 398 93 58 72 66 35 47 56 112 39 68 167 36 53 40 98 232 46 47 71
internal_value=-0.000107391 -0.000406047 -0.000122962 0.000448074 1.68568e-05 0.00153099 0.00170076 -0.000402094 -0.00231434 -0.000397855 -6.6858e-06 -0.00150488 -0.00199868 -0.00101699 0.00166984 0.000824631 -0.00344676 -0.000209321 9.27402e-05 -0.000393381 -0.00117491 0.00102907 -0.000898011 0.000761052 -0.00139059 -0.00200788 -0.000956886 0.00274573 0.000411427 0.0018718
internal_weight=2523 1647 1315 876 652 186 130 1129 99 522 433 332 270 165 224 158 105 1030 782 512 248 270 400 89 311 166 271 97 214 106
internal_count=2523 1647 1315 876 652 186 130 1129 99 522 433 332 270 165 224 158 105 1030 782 512 248 270 400 89 311 166 271 97 214 106
is_linear=0
shrinkage=0.01


Tree=14
num_leaves=31
num_cat=0
split_feature=240 261 274 36 57 47 144 197 306 244 291 184 240 142 298 408 57 372 289 93 284 71 94 328 208 208 205 54 372 201
split_gain=4.27864 4.6409 4.32666 4.24043 4.23041 4.49216 4.66879 3.82939 3.51245 3.47289 3.44255 5.76119 3.39692 3.25498 3.37376 3.92716 3.07981 3.5511 3.60899 3.12261 3.14671 3.06451 3.01885 3.69784 3.01621 5.56061 4.46564 3.13993 3.50146 3.00786
threshold=-1.0845683522848333 1.7140461760636632 -1.0944319397293907 -1.2293186632429933 -0.19002261771545023 0.23318820558099598 0.69791132930887689 1.4137146503616835 0.2539222756426161 -0.18868582371345369 -0.68952103673674425 0.59025579267430606 1.965801769377453 0.10344271696106426 -0.018906949596082478 1.0000000180025095e-35 -1.0164129667990098 -0.20058085640900183 -0.30398349440134659 0.55478118899161533 0.62145432903978892 0.28494688985737138 -0.13586090820382066 -0.077108497101430487 0.26076351655924462 0.13490281269541912 0.045034992350113857 0.17737468654336286 0.80176803346531156 0.49576655126555452
decision_type=2 2 2 2 2 2 2 2 2 2 2 2 2 2 2 2 2 2 2 2 2 2 2 2 2 2 2 2 2 2
left_child=4 3 12 29 -1 6 21 -8 10 -7 11 22 -3 24 15 -15 -10 19 -19 20 -18 -6 -5 -24 25 27 -26 28 -12 -2
right_child=1 2 -4 8 5 9 7 -9 16 -11 13 -13 -14 14 -16 -17 17 18 -20 -21 -22 -23 23 -25 26 -27 -28 -29 -30 -31
leaf_value=0.0026295550603714613 -0.0024835697432760806 0.0047485145166736202 -0.0007482858079654927 -0.00020494703617360857 0.00038993890655951365 -0.0027877277555639172 -0.0021069061843994657 0.0021000141919487055 0.0021411246979018538 0.00077636783180589036 2.4624601695298529e-05 0.0016156575010093147 0.00073711859732866292 -0.0020748420311914135 -0.002012115137314537 0.0015820306959872443 -0.0023112236668390257 0.0018195278182297759 -0.00018648980088891212 0.0008587643641816534 0.0011147149818134495 0.0044684295703236966 -0.0045999048558733194 -0.0012067402854784211 0.00031951875533077788 -0.0041456894172089446 0.0041739444414561153 -0.0014178430888516543 0.0029116900743415149 0.00020882672871704453
leaf_weight=99 151 43 53 52 34 65 51 34 80 42 238 41 48 46 179 73 133 157 196 67 30 49 78 65 137 33 38 109 50 52
leaf_count=99 151 43 53 52 34 65 51 34 80 42 238 41 48 46 179 73 133 157 196 67 30 49 78 65 137 33 38 109 50 52
internal_value=-0.000106533 -0.000280254 0.00143413 -0.000407179 0.000874547 0.000210269 0.00124037 -0.000357075 -0.000248614 -0.00135429 -0.000586645 -0.0016615 0.00274773 -0.000297154 -0.00115044 0.000116197 0.000324605 6.03254e-05 0.000696845 -0.000892627 -0.00164451 0.00290503 -0.00238534 -0.00312996 0.000117313 -0.000324449 0.00122243 0 0.000559717 -0.00177419
internal_weight=2523 2149 144 2005 374 275 168 85 1802 107 1139 236 91 903 298 119 663 583 353 230 163 83 195 143 605 430 175 397 288 203
internal_count=2523 2149 144 2005 374 275 168 85 1802 107 1139 236 91 903 298 119 663 583 353 230 163 83 195 143 605 430 175 397 288 203
is_linear=0
shrinkage=0.01


Tree=15
num_leaves=31
num_cat=0
split_feature=240 261 274 246 122 164 388 98 310 32 56 244 194 240 140 71 160 215 382 251 246 132 103 33 370 404 228 179 274 242
split_gain=4.225 4.58514 4.27309 4.16788 4.70262 4.17154 3.73148 4.82236 4.41436 4.27391 3.61362 3.52195 3.38432 3.35493 3.28296 3.00792 2.97281 2.95997 2.78185 2.61531 3.474 6.66398 4.16922 4.01927 4.79392 4.2321 3.42333 3.22404 3.16363 2.84634
threshold=-1.0845683522848333 1.7140461760636632 -1.0944319397293907 0.12999573564688024 0.1717293932225768 -0.2853133155535777 0.25494703931245266 -0.67144002218394716 -0.994308711912128 -1.8025941554496401 -1.155540736034792 -0.41720975474868699 -0.094455437337594719 1.965801769377453 0.31009752784397793 -0.057130619528505393 -0.024868024110249291 1.0000000180025095e-35 0.79974712502770651 -0.41974960373867393 0.18835136275889708 -1.3922614536232449 -0.3495174782375895 0.25282618061006484 -0.57511117555047331 0.31974650151699924 -0.56668392540714951 0.31494859105599715 -0.7368166296220594 -1.0337039036076134
decision_type=2 2 2 2 2 2 2 2 2 2 2 2 2 2 2 2 2 2 2 2 2 2 2 2 2 2 2 2 2 2
left_child=3 6 13 4 5 17 8 18 15 -10 -11 -9 -5 -3 -14 16 -2 -1 -8 20 23 -22 27 24 -12 -26 -25 -23 -21 -30
right_child=1 2 -4 12 -6 -7 7 11 9 10 19 -13 14 -15 -16 -17 -18 -19 -20 28 21 22 -24 26 25 -27 -28 -29 29 -31
leaf_value=0.0011460124265233224 0.00060162608356525505 0.0047200234607896871 -0.00074243556403300981 0.0039056228530609002 -0.0024750124299598316 0.0033297008416718911 0.00018117849055367214 -0.00019294714132944745 -0.003428301985921531 0.0025611518493250892 -0.0039353911993933507 0.0024912227886975313 -0.000220006771851331 0.00073254846036434177 0.0028238308508145185 -0.00060283105820417408 0.0043811647560623654 -0.0027849897324587359 -0.0034019825516923051 -0.0028963864824852383 -0.0020594829053364018 -8.7126788760845869e-06 0.005054814275354147 -0.00091380480346202417 -0.0014125504180317722 0.002115640467132575 0.0021881598158096762 0.0036749656649772079 0.0008022061586380006 -0.0010618183752305744
leaf_weight=42 58 43 53 57 60 43 46 73 56 32 59 127 86 48 55 64 35 31 35 85 53 82 33 67 164 40 69 30 88 709
leaf_count=42 58 43 53 57 60 43 46 73 56 32 59 127 86 48 55 64 35 31 35 85 53 82 33 67 164 40 69 30 88 709
internal_value=-0.000105387 -0.000278028 0.00142599 0.000869508 -0.000225249 0.000918275 -0.000404202 0.000652721 -0.000579926 -0.000742108 -0.000634848 0.00149454 0.00186015 0.00273149 0.000955229 0.000996313 0.00213895 -0.000486402 -0.00135153 -0.000710739 -0.000188422 0.00087757 0.00199854 -0.000731617 -0.00145542 -0.000682653 0.000632658 0.00098129 -0.0010574 -0.000848253
internal_weight=2523 2149 144 374 176 116 2005 281 1724 1567 1511 200 198 91 141 157 93 73 81 1479 597 198 145 399 263 204 136 112 882 797
internal_count=2523 2149 144 374 176 116 2005 281 1724 1567 1511 200 198 91 141 157 93 73 81 1479 597 198 145 399 263 204 136 112 882 797
is_linear=0
shrinkage=0.01


Tree=16
num_leaves=31
num_cat=0
split_feature=240 193 57 47 144 310 229 167 32 245 197 82 187 228 198 419 203 45 136 120 141 2 412 71 374 230 293 416 245 329
split_gain=4.17469 4.20625 4.14304 4.41366 4.60575 3.96929 4.42422 5.29645 4.13024 3.9425 3.77625 3.57867 3.77249 5.57992 3.56828 3.55743 3.40225 3.27731 3.65849 3.30493 3.20381 3.05839 3.33979 3.02234 2.97472 5.13659 4.58279 4.43934 3.16986 3.21372
threshold=-1.0845683522848333 -0.22590478472405076 -0.19002261771545023 0.23318820558099598 0.69791132930887689 -1.0277362851690295 -1.388020775131755 -1.0576626432644771 -1.6587204469770755 -0.79066289574148352 1.4137146503616835 -0.37147585272925437 -0.7982147504818996 -0.77868506780296343 1.0059566149451127 -0.15695686529866201 -0.43710429796714162 -0.073756787657483974 0.25702977637744662 0.16473406025584586 0.2044203723679848 -0.1324570060420058 1.0153663123764132 0.28494688985737138 -0.12156124704267972 -0.59105075165835408 0.2608849676165701 -0.057823253050297695 -0.44281161709405875 -0.64350769660696816
decision_type=2 2 2 2 2 2 2 2 2 2 2 2 2 2 2 2 2 2 2 2 2 2 2 2 2 2 2 2 2 2
left_child=2 9 -1 4 23 16 7 -7 15 -2 -6 14 -13 -14 -11 -8 20 18 21 -19 -3 22 24 -4 25 28 -27 -26 -10 -30
right_child=1 5 3 -5 10 6 8 -9 17 11 -12 12 13 -15 -16 -17 -18 19 -20 -21 -22 -23 -24 -25 27 26 -28 -29 29 -31
leaf_value=0.0026018497441886086 -0.001542539642428729 0.0012450864479629971 0.00038364098200367557 -0.0013432018485330388 -0.0020954623512642566 -0.0018305126998893683 -0.0054394891602652417 0.0030907086512575355 -0.00020431856134814304 -0.0020626264557307749 0.0020818683753410974 0.0042907380411085095 -0.0018730374561908487 0.0023616428007279516 0.0011517277577271065 -0.00050236735376529395 0.0027009214123414052 -0.00049682363317883084 0.0017267061536475805 -0.0032734336487048278 -0.0028036431409418582 0.0018532030871332003 -0.0023396034148754552 0.0044347424998733348 -0.0032527956991774461 -0.00142318272083399 0.0009768564705822378 -0.00064022173029630006 -0.00031862800515123773 0.0031674366053293952
leaf_weight=99 65 47 34 107 51 30 33 63 89 55 34 51 42 99 85 30 67 92 69 89 30 46 112 49 80 278 107 366 33 91
leaf_count=99 65 47 34 107 51 30 33 63 89 55 34 51 42 99 85 30 67 92 69 89 30 46 112 49 80 278 107 366 33 91
internal_value=-0.000104039 -0.000275661 0.000865023 0.000207443 0.00122865 -0.000487884 -0.00063255 0.00144547 -0.000765145 0.00064612 -0.000357612 0.00109626 0.00197691 0.00105673 -8.71084e-05 -0.0032532 0.00107984 -0.000649427 -0.000463223 -0.00191029 -0.000300093 -0.000595747 -0.000700546 0.00288215 -0.000515792 -4.5312e-05 -0.000741638 -0.00113243 0.00118524 0.00220968
internal_weight=2523 2149 374 275 168 1752 1608 93 1515 397 85 332 192 141 140 63 144 1452 1271 181 77 1202 1156 83 1044 598 385 446 213 124
internal_count=2523 2149 374 275 168 1752 1608 93 1515 397 85 332 192 141 140 63 144 1452 1271 181 77 1202 1156 83 1044 598 385 446 213 124
is_linear=0
shrinkage=0.01


Tree=17
num_leaves=31
num_cat=0
split_feature=240 261 274 246 406 119 240 194 0 284 165 249 249 37 245 98 100 140 417 8 259 67 301 172 35 400 157 259 257 98
split_gain=4.11943 4.49343 4.20583 4.10642 3.60619 3.32819 3.32419 3.31856 3.3099 4.12047 4.05621 5.64162 4.04171 3.57802 3.40373 3.86201 3.26275 3.25382 3.19636 3.18929 3.42816 6.46639 5.22767 5.02364 4.95355 4.50601 4.65551 3.54102 4.58216 3.40151
threshold=-1.0845683522848333 1.7140461760636632 -1.0944319397293907 0.12999573564688024 0.16935449195592822 -0.64566622274292429 1.965801769377453 -0.094455437337594719 0.032553697747813262 -1.4085977860813261 0.45645382209282476 0.087622154617694847 0.67322555201095635 -0.6667146876650657 -0.82344074195066774 -0.67144002218394716 0.35323038997327144 0.31009752784397793 1.8691735526594846 -1.6832234537621229 -0.40562823775323248 0.040761520267041142 -0.13213708715433914 0.24432795353546752 -0.19312478468167119 -0.48371455183487094 -0.036548796881937379 -0.9613360967972957 -0.72510461391676917 0.074226866127914279
decision_type=2 2 2 2 2 2 2 2 2 2 2 2 2 2 2 2 2 2 2 2 2 2 2 2 2 2 2 2 2 2
left_child=3 8 6 4 -1 -6 -3 -5 9 -2 18 13 -13 -12 -10 -16 -17 -9 19 -11 21 27 25 -23 -24 -22 -27 -21 -29 -26
right_child=1 2 -4 7 5 -7 -8 17 14 10 11 12 -14 -15 15 16 -18 -19 -20 20 22 23 24 -25 29 26 -28 28 -30 -31
leaf_value=0.0020877200508645426 -0.00233323207642592 0.0046878371213873232 -0.00073731378313492656 0.0038688582125104083 0.0013945892493467075 -0.0020843610471863415 0.00071914671510457998 -0.00022328834102319724 -0.0013979259912157433 0.0028093611941475312 7.1911817183718083e-05 0.0011514034895909898 -0.0018870835152633284 -0.0032280196922106876 -0.00060112951342123505 0.0028463465690923236 -0.00015938353097560455 0.002806933787569665 0.0027387450496993353 -3.937202865842643e-05 -0.0049742441153039739 -0.0021724145346929116 0.00084182766731544516 0.001875484971341824 -0.00011078124728481301 -0.0026068807049076772 0.0016101898488245512 -9.6329390653409068e-05 0.0030076540764421224 -0.0026301120050797738
leaf_weight=46 123 43 53 57 35 95 48 86 68 31 38 107 71 151 85 118 47 55 35 170 47 142 203 36 120 77 36 70 128 102
leaf_count=46 123 43 53 57 35 95 48 86 68 31 38 107 71 151 85 118 47 55 35 170 47 142 203 36 120 77 36 70 128 102
internal_value=-0.00010294 -0.000273435 0.00141341 0.00085967 -0.000226813 -0.0011029 0.00270871 0.00184304 -0.000398364 -0.000576148 -0.000431967 -0.00135031 -4.03006e-05 -0.00254456 0.000526871 0.0010772 0.00196857 0.000946474 -0.00014445 -0.000240146 -0.000332955 0.000229431 -0.00086536 -0.00131422 -0.000268085 -0.00239811 -0.00121527 0.000992668 0.0018953 -0.00130378
internal_weight=2523 2149 144 374 176 130 91 198 2005 1687 1564 367 178 189 318 250 165 141 1197 1162 1131 546 585 178 425 160 113 368 198 222
internal_count=2523 2149 144 374 176 130 91 198 2005 1687 1564 367 178 189 318 250 165 141 1197 1162 1131 546 585 178 425 160 113 368 198 222
is_linear=0
shrinkage=0.01


Tree=18
num_leaves=31
num_cat=0
split_feature=240 261 274 36 57 122 293 260 393 240 388 245 225 221 262 374 57 114 60 250 394 330 329 371 133 266 410 200 309 11
split_gain=4.06808 4.43951 4.15379 4.10667 4.05441 4.61681 4.41366 3.35611 4.12876 3.28309 3.24344 3.67267 3.03721 3.39698 3.02432 3.98997 4.60135 4.32276 3.87935 3.69092 4.44473 3.37071 3.2285 5.2022 3.76829 3.20056 3.19418 3.4783 3.00495 2.96128
threshold=-1.0845683522848333 1.7140461760636632 -1.0944319397293907 -1.2293186632429933 -0.19002261771545023 0.1717293932225768 0.39478798165434892 1.4768131893348238 0.49753208468295901 1.965801769377453 0.25494703931245266 -0.83483266386588229 0.41992126977252042 -0.35050487920436252 -0.30372977074677759 -0.25357961971227677 -0.92265491591118087 0.50173051763440824 -1.1727367725989541 0.59133736027368733 -0.22464216348680902 0.3344422598077868 -0.698688345382244 -0.72075366816311526 -1.0722822295643526 -0.92379392086142975 -1.3235565490062948 1.0132588074850823 -0.39707291688598351 0.54756658841467043
decision_type=2 2 2 2 2 2 2 2 2 2 2 2 2 2 2 2 2 2 2 2 2 2 2 2 2 2 2 2 2 2
left_child=4 3 9 12 29 6 -6 8 -8 -3 14 -12 13 28 21 17 18 19 -17 20 25 -5 -18 -24 -25 -16 -26 -28 -2 -1
right_child=1 2 -4 10 5 -7 7 -9 -10 -11 11 -13 -14 -15 15 16 22 -19 -20 -21 -22 -23 23 24 26 -27 27 -29 -30 -31
leaf_value=0.0041243740194477144 0 0.0046597101079920928 -0.00073154932876456197 -0.002407164095838204 0.0043905617717121329 -0.0014703161863829283 -0.0023649966972880067 0.0023079968450058783 0.0020460868696682154 0.00071468801423907281 -0.0021019163793204606 0.0012638755069073933 -0.0036665655275185905 0.00064673041596903763 0.00095164937360419169 -0.0016898951440816746 -0.0031032129414851153 0.0014148197344937281 0.002049709561875918 0.0022047974710475726 0.00068769400525424212 0.00042784678259570353 0.001994416998868639 0.0019326731928617157 0.0011501375674025009 -0.0019399654009778586 -0.0023182509049526302 0.00028921356735130149 -0.0038964743367008244 0.00050850663670992603
leaf_weight=54 30 43 53 139 33 100 58 54 30 48 35 226 58 69 43 37 77 226 88 51 160 55 53 31 36 208 279 58 46 45
leaf_count=54 30 43 53 139 33 100 58 54 30 48 35 226 58 69 43 37 77 226 88 51 160 55 53 31 36 208 279 58 46 45
internal_value=-0.000101829 -0.000271271 0.00140538 -0.000395461 0.000854747 0.000204044 0.00119487 0.000366825 -0.000793611 0.0026927 -0.000239382 0.000780961 -0.00174071 -0.000896951 -0.000416226 -0.00024256 -0.000799524 0.000284451 0.000894236 -0.000261439 -0.00058877 -0.00158175 -0.00120719 -0.000864704 -0.00126008 -0.00142122 -0.00154765 -0.00185568 -0.0023432 0.00257292
internal_weight=2523 2149 144 2005 374 275 175 142 88 91 1802 261 203 145 1541 1347 659 688 125 462 411 194 534 457 404 251 373 337 76 99
internal_count=2523 2149 144 2005 374 275 175 142 88 91 1802 261 203 145 1541 1347 659 688 125 462 411 194 534 457 404 251 373 337 76 99
is_linear=0
shrinkage=0.01


Tree=19
num_leaves=31
num_cat=0
split_feature=240 261 274 54 244 258 388 310 32 240 372 158 372 242 71 272 74 11 289 305 366 330 261 220 41 71 337 151 394 377
split_gain=4.01763 4.38684 4.10241 3.85359 3.75814 3.65337 4.59401 4.05596 4.32998 3.24249 3.05579 3.0859 2.98818 3.4617 2.95982 2.7851 3.60776 3.7369 3.30786 2.75025 2.73595 3.14595 3.8206 3.16904 3.60035 5.094 2.9841 2.97594 4.28397 3.47536
threshold=-1.0845683522848333 1.7140461760636632 -1.0944319397293907 1.7436008935001477 -0.18128083880957521 1.7503378544569037 0.25494703931245266 -0.994308711912128 -1.8025941554496401 1.965801769377453 -0.27325781139112049 -0.32259362011852405 1.148977934666646 0.32448465335165277 -0.057130619528505393 1.7189683628878003 0.35265514406773818 0.28536153253428259 -0.14819444219352154 0.19162353463002643 1.9092982094742601 -0.40709636092415669 1.1979344897992747 0.24731166161717039 -0.45147422172152302 -1.1250160230158903 0.42320394145608264 -0.057330448199579991 0.45601938397284952 -0.23471767488695758
decision_type=2 2 2 2 2 2 2 2 2 2 2 2 2 2 2 2 2 2 2 2 2 2 2 2 2 2 2 2 2 2
left_child=3 5 9 4 15 6 7 14 -9 -3 -8 -12 20 -14 -2 16 18 -18 -1 -13 21 22 23 24 25 -10 -26 -23 29 -29
right_child=1 2 -4 -5 -6 -7 10 8 12 -11 11 19 13 -15 -16 -17 17 -19 -20 -21 -22 27 -24 -25 26 -27 -28 28 -30 -31
leaf_value=0.0029148061703080717 0.0021193792521953586 0.0046317518630789381 -0.00072582993101836613 -0.0022731368296912738 0.0024671659012236737 -0.0034787026907035497 -0.00096292974540230006 -0.0033820906551233656 -0.0017778550583284862 0.00071025695204734801 0.0031847194679455282 -0.00083734151772290905 -0.00023659966932877298 0.003195032037924542 -0.00060008791303544338 0.0024194252741290257 0.00023687016611036502 -0.0040987378588089578 -0.00085090949800279412 0.0019507296186223229 -0.0029025340812014683 -0.00010599800834111209 0.0033061572810744537 0.0026714909859001635 -0.0019495459612525864 0.0021084607603916086 0.00067494846248467054 -0.002912906059690299 0.00053469568519785848 -0.0010966648298305767
leaf_weight=44 93 43 53 33 135 36 64 56 49 48 69 67 85 41 64 46 36 37 43 68 54 291 32 33 165 94 54 169 95 326
leaf_count=44 93 43 53 33 135 36 64 56 49 48 69 67 85 41 64 46 36 37 43 68 54 291 32 33 165 94 54 169 95 326
internal_value=-0.000100837 -0.000269237 0.0013974 0.000849773 0.00117806 -0.0003927 -0.000330268 -0.000523955 -0.000681779 0.00267679 0.000875319 0.00148005 -0.000572395 0.000873455 0.000985756 0.00029362 -0.00030901 -0.00194466 0.00102011 0.0005385 -0.000710902 -0.000612312 8.12963e-05 -0.000182703 -0.000469878 0.000736149 -0.00127953 -0.000953573 -0.0013614 -0.00173604
internal_weight=2523 2149 144 374 341 2005 1969 1701 1544 91 268 204 1488 126 157 206 160 73 87 135 1362 1308 427 395 362 143 219 881 590 495
internal_count=2523 2149 144 374 341 2005 1969 1701 1544 91 268 204 1488 126 157 206 160 73 87 135 1362 1308 427 395 362 143 219 881 590 495
is_linear=0
shrinkage=0.01


Tree=20
num_leaves=31
num_cat=0
split_feature=246 32 404 17 57 285 116 246 329 56 101 118 11 188 26 258 15 314 164 100 329 139 279 18 188 136 305 171 83 71
split_gain=3.967 4.87327 4.41087 3.98611 4.36368 4.05923 3.88387 3.86093 3.8471 3.9321 3.66322 3.59903 3.53114 3.85478 3.4912 3.32326 3.38803 5.41258 3.31204 4.59689 3.87233 4.20316 4.50435 3.476 3.27941 3.25921 3.50438 3.11509 3.09486 4.55921
threshold=0.25401055568632952 -0.7081355516569201 0.2138182920975045 0.02277084301524478 -0.56967554805786047 -0.051661335457708756 0.099443706097636794 2.1995876410327457 1.1484091560897787 -0.38800974381817582 -0.45658148637000556 -0.60972661984766641 0.95466310970130197 -0.43164981405444319 -0.91667729212586957 -1.2927144350718145 0.074109654490744428 0.33516197695435695 -0.19770083091245322 0.35323038997327144 0.31049722351267045 -0.31376734078269408 -1.2623724516462675 -0.21964949849834658 -0.32840465042691153 -0.06932450105066941 0.37426015462850337 -0.36843804664037011 -0.72739174918542504 -0.90662246822501447
decision_type=2 2 2 2 2 2 2 2 2 2 2 2 2 2 2 2 2 2 2 2 2 2 2 2 2 2 2 2 2 2
left_child=1 15 -2 6 11 25 18 8 9 10 -4 -5 13 -7 -8 -1 17 -17 20 23 21 -3 -23 -20 -22 -6 -27 -18 29 -16
right_child=2 3 7 4 5 12 14 -9 -10 -11 -12 -13 -14 -15 28 16 27 -19 19 -21 24 22 -24 -25 -26 26 -28 -29 -30 -31
leaf_value=0.00054118033061968164 -6.1759193770081634e-05 -0.00037118597969412802 -0.0015474193020620281 0.0031145086412022755 0.0016602424767456557 -0.00075637869253246631 0.0019022317347979103 -0.0011665560600367631 -0.00031557030004352842 0.0038216863610120656 0.0025145778175104752 -0.00032745491629382513 0.00036589373754603521 -0.0042502162328893599 -0.0011193609974262388 -0.0018583963929159827 -0.00066888206979123549 0.0027349887698073874 0.0012302483773479859 4.9353268529687608e-05 0.00044450039326241527 -0.0010047423491692719 0.0031073033158804091 0.0060662610790668398 -0.0038722986352763005 -0.0025519021302332274 0.0013284279792710688 -0.0042982701660089556 -0.001355554448605022 0.003756049997878797
leaf_weight=62 578 123 34 39 55 53 52 45 56 110 53 109 33 99 42 119 39 30 31 54 31 32 107 37 33 70 31 82 253 31
leaf_count=62 578 123 34 39 55 53 52 45 56 110 53 109 33 99 42 119 39 30 31 54 31 32 107 37 33 70 31 82 253 31
internal_value=-0.000100011 -0.000390662 0.000440401 -0.000112385 -0.000828888 -0.00145286 0.00030673 0.00142497 0.00191106 0.00256595 0.00087185 0.000575649 -0.00244955 -0.00309008 -0.0004296 -0.00147063 -0.00195156 -0.000876466 0.000938268 0.00233828 0.000388032 0.000939911 0.00212436 0.00403118 -0.00175548 -0.000223196 -0.0013097 -0.00319902 -0.000826124 0.000929304
internal_weight=2523 1647 876 1315 489 341 826 298 253 197 87 148 185 152 378 332 270 149 448 122 326 262 139 68 64 156 101 121 326 73
internal_count=2523 1647 876 1315 489 341 826 298 253 197 87 148 185 152 378 332 270 149 448 122 326 262 139 68 64 156 101 121 326 73
is_linear=0
shrinkage=0.01


Tree=21
num_leaves=31
num_cat=0
split_feature=390 258 292 204 110 229 21 139 10 143 139 37 70 137 39 31 81 52 308 118 202 1 57 72 221 239 75 263 144 37
split_gain=3.93156 3.61883 3.87967 3.73426 3.87999 4.68837 4.36185 4.37615 5.06575 4.10188 4.06966 4.01655 3.70016 3.46928 3.28392 3.41201 3.26471 3.96678 3.83193 3.36717 3.23785 4.20262 3.87854 4.02942 3.90838 3.22346 3.09393 3.07531 4.20528 3.00233
threshold=1.519388440650068 1.7503378544569037 1.5110886683352589 2.383141228170802 0.40336063127303307 -1.388020775131755 0.030798143517260967 0.41055891782424903 0.27318200085399424 -0.61618816573797941 -0.75828578737695451 0.1462953341674573 -0.7659382990783874 -0.45461208220611055 -0.36266426499522342 0.23427859561587974 1.1671437858608409 0.13321191677453009 1.1164211829573834 -0.10014404389632688 -0.090398284721318486 -1.0314408266346773 0.39896573250201367 0.67825996081905271 0.36807905633123156 -0.46734493540534067 0.33413667680520531 0.16359579884102823 -0.42153785179805803 -0.35397629229081079
decision_type=2 2 2 2 2 2 2 2 2 2 2 2 2 2 2 2 2 2 2 2 2 2 2 2 2 2 2 2 2 2
left_child=1 2 3 4 5 -1 7 8 10 -8 13 -9 -11 -7 -2 29 17 18 19 20 21 -12 23 24 25 -22 -23 28 -21 -16
right_child=14 -3 -4 -5 -6 6 9 11 -10 12 16 -13 -14 -15 15 -17 -18 -19 -20 27 22 26 -24 -25 -26 -27 -28 -29 -30 -31
leaf_value=0.0018844393343846026 -0.00080055537245546772 -0.0031217563111290694 0.0014697501600881957 0.0030695613586541378 -0.0011022391341102774 -0.0013002353227313827 -0.00068653865651500349 0.0014757548244771265 -0.004632402128455314 0.0042019075406145084 0.003197101643499063 -0.0014801794546656312 0.00087186423150482223 0.0018102558384509345 0.0011196710628479027 -0.00021367089822888375 -0.0032808223265138542 0.0021697753834516993 -0.0033440753446581464 -0.00027720219672432747 -0.0043240470112703572 -0.00080092261277899576 -0.0037726181621705606 0.0026530823878505648 0.0013674688271971215 0 0.0017757806880399586 -0.00028063994235963673 -0.0038736566221648523 0.0051094639803404398
leaf_weight=111 46 40 136 31 478 49 97 182 31 47 47 58 128 111 41 36 53 42 58 56 42 156 42 32 34 30 64 112 89 44
leaf_count=111 46 40 136 31 478 49 97 182 31 47 47 58 128 111 41 36 53 42 58 56 42 156 42 32 34 30 64 112 89 44
internal_value=-9.90005e-05 -0.000206366 -0.000151207 -0.000255877 -0.000308981 -7.80298e-05 -0.000223102 -0.000468802 -0.000749983 0.000917038 -0.000617873 0.000734414 0.00183184 0.000822512 0.00137062 0.00223627 -0.0008939 -0.000722599 -0.000893828 -0.000675978 -0.000137342 0.000547635 -0.00117572 -0.000307037 -0.00127954 -0.00260026 -1.95687e-05 -0.00158523 -0.00254136 0.00331243
internal_weight=2523 2356 2316 2180 2149 1671 1560 1288 1048 272 1017 240 175 160 167 121 857 804 762 704 447 267 180 138 106 72 220 257 145 85
internal_count=2523 2356 2316 2180 2149 1671 1560 1288 1048 272 1017 240 175 160 167 121 857 804 762 704 447 267 180 138 106 72 220 257 145 85
is_linear=0
shrinkage=0.01


end of trees

feature_importances:
Column_240=19
Column_246=17
Column_57=16
Column_261=16
Column_36=9
Column_71=9
Column_122=9
Column_258=9
Column_274=9
Column_32=8
Column_200=8
Column_245=8
Column_15=7
Column_139=7
Column_225=7
Column_331=7
Column_388=7
Column_56=6
Column_244=6
Column_266=6
Column_310=6
Column_412=6
Column_11=5
Column_98=5
Column_118=5
Column_151=5
Column_293=5
Column_305=5
Column_317=5
Column_329=5
Column_368=5
Column_372=5
Column_100=4
Column_111=4
Column_114=4
Column_136=4
Column_144=4
Column_164=4
Column_175=4
Column_182=4
Column_242=4
Column_291=4
Column_292=4
Column_304=4
Column_306=4
Column_309=4
Column_320=4
Column_328=4
Column_341=4
Column_373=4
Column_12=3
Column_17=3
Column_26=3
Column_33=3
Column_37=3
Column_47=3
Column_54=3
Column_62=3
Column_74=3
Column_77=3
Column_81=3
Column_116=3
Column_119=3
Column_137=3
Column_156=3
Column_184=3
Column_194=3
Column_197=3
Column_198=3
Column_203=3
Column_205=3
Column_215=3
Column_218=3
Column_221=3
Column_228=3
Column_249=3
Column_250=3
Column_263=3
Column_265=3
Column_284=3
Column_289=3
Column_324=3
Column_350=3
Column_351=3
Column_354=3
Column_366=3
Column_374=3
Column_394=3
Column_404=3
Column_408=3
Column_414=3
Column_1=2
Column_16=2
Column_21=2
Column_31=2
Column_34=2
Column_35=2
Column_41=2
Column_55=2
Column_60=2
Column_66=2
Column_78=2
Column_82=2
Column_83=2
Column_89=2
Column_91=2
Column_93=2
Column_101=2
Column_120=2
Column_127=2
Column_140=2
Column_141=2
Column_143=2
Column_160=2
Column_176=2
Column_183=2
Column_187=2
Column_188=2
Column_193=2
Column_199=2
Column_204=2
Column_208=2
Column_212=2
Column_229=2
Column_239=2
Column_251=2
Column_253=2
Column_259=2
Column_262=2
Column_264=2
Column_279=2
Column_285=2
Column_297=2
Column_298=2
Column_330=2
Column_352=2
Column_370=2
Column_371=2
Column_382=2
Column_383=2
Column_390=2
Column_392=2
Column_393=2
Column_396=2
Column_400=2
Column_407=2
Column_409=2
Column_415=2
Column_419=2
Column_0=1
Column_2=1
Column_4=1
Column_5=1
Column_6=1
Column_8=1
Column_9=1
Column_10=1
Column_14=1
Column_18=1
Column_20=1
Column_22=1
Column_27=1
Column_39=1
Column_43=1
Column_45=1
Column_52=1
Column_67=1
Column_70=1
Column_72=1
Column_73=1
Column_75=1
Column_88=1
Column_90=1
Column_92=1
Column_94=1
Column_103=1
Column_106=1
Column_110=1
Column_115=1
Column_129=1
Column_130=1
Column_131=1
Column_132=1
Column_133=1
Column_138=1
Column_142=1
Column_155=1
Column_157=1
Column_158=1
Column_162=1
Column_165=1
Column_166=1
Column_167=1
Column_169=1
Column_171=1
Column_172=1
Column_179=1
Column_181=1
Column_185=1
Column_189=1
Column_201=1
Column_202=1
Column_206=1
Column_220=1
Column_223=1
Column_230=1
Column_235=1
Column_236=1
Column_241=1
Column_247=1
Column_257=1
Column_260=1
Column_267=1
Column_270=1
Column_271=1
Column_272=1
Column_278=1
Column_281=1
Column_286=1
Column_288=1
Column_295=1
Column_300=1
Column_301=1
Column_302=1
Column_307=1
Column_308=1
Column_311=1
Column_314=1
Column_316=1
Column_337=1
Column_339=1
Column_347=1
Column_363=1
Column_365=1
Column_375=1
Column_377=1
Column_384=1
Column_389=1
Column_395=1
Column_397=1
Column_405=1
Column_406=1
Column_410=1
Column_411=1
Column_416=1
Column_417=1

parameters:
[boosting: gbdt]
[objective: huber]
[metric: huber]
[tree_learner: serial]
[device_type: cpu]
[data_sample_strategy: bagging]
[data: ]
[valid: ]
[num_iterations: 500]
[learning_rate: 0.01]
[num_leaves: 31]
[num_threads: 16]
[seed: 42]
[deterministic: 0]
[force_col_wise: 0]
[force_row_wise: 0]
[histogram_pool_size: -1]
[max_depth: -1]
[min_data_in_leaf: 30]
[min_sum_hessian_in_leaf: 0.001]
[bagging_fraction: 0.8]
[pos_bagging_fraction: 1]
[neg_bagging_fraction: 1]
[bagging_freq: 0]
[bagging_seed: 400]
[bagging_by_query: 0]
[feature_fraction: 0.7]
[feature_fraction_bynode: 1]
[feature_fraction_seed: 30056]
[extra_trees: 0]
[extra_seed: 12879]
[early_stopping_round: 0]
[early_stopping_min_delta: 0]
[first_metric_only: 0]
[max_delta_step: 0]
[lambda_l1: 0.5]
[lambda_l2: 2]
[linear_lambda: 0]
[min_gain_to_split: 0]
[drop_rate: 0.1]
[max_drop: 50]
[skip_drop: 0.5]
[xgboost_dart_mode: 0]
[uniform_drop: 0]
[drop_seed: 17869]
[top_rate: 0.2]
[other_rate: 0.1]
[min_data_per_group: 100]
[max_cat_threshold: 32]
[cat_l2: 10]
[cat_smooth: 10]
[max_cat_to_onehot: 4]
[top_k: 20]
[monotone_constraints: ]
[monotone_constraints_method: basic]
[monotone_penalty: 0]
[feature_contri: ]
[forcedsplits_filename: ]
[refit_decay_rate: 0.9]
[cegb_tradeoff: 1]
[cegb_penalty_split: 0]
[cegb_penalty_feature_lazy: ]
[cegb_penalty_feature_coupled: ]
[path_smooth: 0]
[interaction_constraints: ]
[verbosity: -1]
[saved_feature_importance_type: 0]
[use_quantized_grad: 0]
[num_grad_quant_bins: 4]
[quant_train_renew_leaf: 0]
[stochastic_rounding: 1]
[linear_tree: 0]
[max_bin: 255]
[max_bin_by_feature: ]
[min_data_in_bin: 3]
[bin_construct_sample_cnt: 200000]
[data_random_seed: 175]
[is_enable_sparse: 1]
[enable_bundle: 1]
[use_missing: 1]
[zero_as_missing: 0]
[feature_pre_filter: 1]
[pre_partition: 0]
[two_round: 0]
[header: 0]
[label_column: ]
[weight_column: ]
[group_column: ]
[ignore_column: ]
[categorical_feature: ]
[forcedbins_filename: ]
[precise_float_parser: 0]
[parser_config_file: ]
[objective_seed: 16083]
[num_class: 1]
[is_unbalance: 0]
[scale_pos_weight: 1]
[sigmoid: 1]
[boost_from_average: 1]
[reg_sqrt: 0]
[alpha: 0.9]
[fair_c: 1]
[poisson_max_delta_step: 0.7]
[tweedie_variance_power: 1.5]
[lambdarank_truncation_level: 30]
[lambdarank_norm: 1]
[label_gain: ]
[lambdarank_position_bias_regularization: 0]
[eval_at: ]
[multi_error_top_k: 1]
[auc_mu_weights: ]
[num_machines: 1]
[local_listen_port: 12400]
[time_out: 120]
[machine_list_filename: ]
[machines: ]
[gpu_platform_id: -1]
[gpu_device_id: -1]
[gpu_use_dp: 0]
[num_gpu: 1]

end of parameters

pandas_categorical:null
