{"learner":{"attributes":{"best_iteration":"2","best_score":"0.3204516989844186","scikit_learn":"{\"_estimator_type\": \"regressor\"}"},"feature_names":[],"feature_types":[],"gradient_booster":{"model":{"gbtree_model_param":{"num_parallel_tree":"1","num_trees":"53"},"iteration_indptr":[0,1,2,3,4,5,6,7,8,9,10,11,12,13,14,15,16,17,18,19,20,21,22,23,24,25,26,27,28,29,30,31,32,33,34,35,36,37,38,39,40,41,42,43,44,45,46,47,48,49,50,51,52,53],"tree_info":[0,0,0,0,0,0,0,0,0,0,0,0,0,0,0,0,0,0,0,0,0,0,0,0,0,0,0,0,0,0,0,0,0,0,0,0,0,0,0,0,0,0,0,0,0,0,0,0,0,0,0,0,0],"trees":[{"base_weights":[-1.126492E-2,7.2868454E-1,-2.1033455E-2,-0E0,1.7417194E-2,-7.2756796E-3,-4.044294E-1,1.517456E-1,-4.534076E-2,2.4570501E-3,-6.1834216E-1,3.1871693E-3,2.081782E-4,-1.0292193E-4,-2.2651146E-3,-9.486945E-3,-2.0013605E-3],"categories":[],"categories_nodes":[],"categories_segments":[],"categories_sizes":[],"default_left":[0,0,0,0,0,0,0,0,0,0,0,0,0,0,0,0,0],"id":0,"left_children":[1,3,5,-1,-1,7,9,11,13,-1,15,-1,-1,-1,-1,-1,-1],"loss_changes":[9.2057705E0,1.2260093E1,6.627447E0,0E0,0E0,7.403069E0,6.3210826E0,5.116621E0,6.2495966E0,0E0,4.2018566E0,0E0,0E0,0E0,0E0,0E0,0E0],"parents":[2147483647,0,0,1,1,2,2,5,5,6,6,7,7,8,8,10,10],"right_children":[2,4,6,-1,-1,8,10,12,14,-1,16,-1,-1,-1,-1,-1,-1],"split_conditions":[-1.9608334E0,-4.6643105E-1,2.0523467E0,-0E0,1.7417194E-2,-7.743748E-1,-7.071293E-1,-4.067018E-1,7.045905E-1,2.4570501E-3,2.1815827E-1,3.1871693E-3,2.081782E-4,-1.0292193E-4,-2.2651146E-3,-9.486945E-3,-2.0013605E-3],"split_indices":[384,374,326,0,0,207,160,399,391,0,77,0,0,0,0,0,0],"split_type":[0,0,0,0,0,0,0,0,0,0,0,0,0,0,0,0,0],"sum_hessian":[1.2786968E3,1.5089166E1,1.2636075E3,9.644045E0,5.445121E0,1.2215624E3,4.2045235E1,2.3455885E2,9.8700354E2,1.023824E1,3.1806993E1,1.01808235E2,1.3275061E2,8.2880365E2,1.5819989E2,1.6573381E1,1.5233612E1],"tree_param":{"num_deleted":"0","num_feature":"420","num_nodes":"17","size_leaf_vector":"1"}},{"base_weights":[-1.2719356E-2,-4.2963014E-3,-6.6837674E-1,-2.3079567E-2,3.2156232E-1,-1.0475637E-2,-1.7543511E-3,3.1372085E-1,-3.8799744E-2,1.391167E-2,1.8906328E-1,1.403986E-3,1.4909308E-2,-2.4483225E-4,-4.4930875E-3,3.8412805E-3,-4.8055192E-3],"categories":[],"categories_nodes":[],"categories_segments":[],"categories_sizes":[],"default_left":[0,0,0,0,0,0,0,0,0,0,0,0,0,0,0,0,0],"id":1,"left_children":[1,3,5,7,9,-1,-1,11,13,-1,15,-1,-1,-1,-1,-1,-1],"loss_changes":[7.013997E0,7.7447166E0,2.6138396E0,6.3492875E0,9.21755E0,0E0,0E0,1.0425845E1,6.6889615E0,0E0,8.516997E0,0E0,0E0,0E0,0E0,0E0,0E0],"parents":[2147483647,0,0,1,1,2,2,3,3,4,4,7,7,8,8,10,10],"right_children":[2,4,6,8,10,-1,-1,12,14,-1,16,-1,-1,-1,-1,-1,-1],"split_conditions":[2.5113106E0,1.2962689E0,-1.2124153E-1,-1.5596608E0,-1.0528288E0,-1.0475637E-2,-1.7543511E-3,7.617027E-1,2.0523467E0,1.391167E-2,8.063386E-1,1.403986E-3,1.4909308E-2,-2.4483225E-4,-4.4930875E-3,3.8412805E-3,-4.8055192E-3],"split_indices":[346,304,372,390,175,0,0,26,326,0,197,0,0,0,0,0,0],"split_type":[0,0,0,0,0,0,0,0,0,0,0,0,0,0,0,0,0],"sum_hessian":[1.281505E3,1.2668918E3,1.4613073E1,1.1994532E3,6.743869E1,7.1909785E0,7.422095E0,5.19363E1,1.147517E3,5.779501E0,6.165919E1,4.6808468E1,5.127832E0,1.1106172E3,3.689975E1,4.8360275E1,1.3298916E1],"tree_param":{"num_deleted":"0","num_feature":"420","num_nodes":"17","size_leaf_vector":"1"}},{"base_weights":[2.6050063E-3,-6.147987E-2,1.15222305E-1,7.2417855E-3,-7.079618E-2,6.01196E-1,8.733598E-2,6.615761E-3,-8.052889E-2,1.2055361E0,-8.292638E-4,1.2866014E-1,-2.2982138E-1,-5.168449E-4,-3.7799918E-3,2.1195365E-3,1.78994E-2,4.3379646E-3,7.8766275E-4,-4.487335E-3,2.1620272E-3],"categories":[],"categories_nodes":[],"categories_segments":[],"categories_sizes":[],"default_left":[0,0,0,0,0,0,0,0,0,0,0,0,0,0,0,0,0,0,0,0,0],"id":2,"left_children":[1,3,5,-1,7,9,11,-1,13,15,-1,17,19,-1,-1,-1,-1,-1,-1,-1,-1],"loss_changes":[9.127454E0,5.9039354E0,6.0721707E0,0E0,5.703439E0,1.0373879E1,5.748553E0,0E0,6.6899633E0,6.872118E0,0E0,5.7890334E0,5.1015E0,0E0,0E0,0E0,0E0,0E0,0E0,0E0,0E0],"parents":[2147483647,0,0,1,1,2,2,4,4,5,5,6,6,8,8,9,9,11,11,12,12],"right_children":[2,4,6,-1,8,10,12,-1,14,16,-1,18,20,-1,-1,-1,-1,-1,-1,-1,-1],"split_conditions":[7.2939426E-2,-2.1304696E0,-1.4742798E0,7.2417855E-3,-1.138783E0,-1.7971495E-1,1.4135202E0,6.615761E-3,1.2172248E0,-5.133288E-1,-8.292638E-4,-7.9396015E-1,1.5250586E0,-5.168449E-4,-3.7799918E-3,2.1195365E-3,1.78994E-2,4.3379646E-3,7.8766275E-4,-4.487335E-3,2.1620272E-3],"split_indices":[37,66,393,0,412,265,197,0,263,325,0,72,211,0,0,0,0,0,0,0,0],"split_type":[0,0,0,0,0,0,0,0,0,0,0,0,0,0,0,0,0,0,0,0,0],"sum_hessian":[1.2609873E3,8.0353107E2,4.574562E2,7.941946E0,7.955891E2,2.2957237E1,4.3449896E2,8.9818535E0,7.8660724E2,1.1659974E1,1.1297264E1,3.8547955E2,4.9019424E1,7.18987E2,6.762025E1,5.1386185E0,6.5213556E0,5.2269386E1,3.3321017E2,3.3025394E1,1.599403E1],"tree_param":{"num_deleted":"0","num_feature":"420","num_nodes":"21","size_leaf_vector":"1"}},{"base_weights":[2.2095349E-3,3.7385136E-1,-1.7873699E-2,1.5098928E-2,1.6765673E-1,-3.1960472E-1,1.2784039E-3,-3.3442134E-1,3.6561963E-1,-7.10411E-1,-1.5002665E-1,-3.986322E-2,1.5346512E-1,-7.7358005E-3,7.0158136E-4,-1.1458732E-3,7.7185705E-3,-3.911506E-3,-1.1915408E-2,-5.420393E-3,5.622273E-4,3.500335E-3,-5.799178E-4,3.5167101E-3,1.590852E-4],"categories":[],"categories_nodes":[],"categories_segments":[],"categories_sizes":[],"default_left":[0,0,0,0,0,0,0,0,0,0,0,0,0,0,0,0,0,0,0,0,0,0,0,0,0],"id":3,"left_children":[1,3,5,-1,7,9,11,13,15,17,19,21,23,-1,-1,-1,-1,-1,-1,-1,-1,-1,-1,-1,-1],"loss_changes":[9.35496E0,1.4507419E1,6.877421E0,0E0,5.768269E0,4.460422E0,7.0016947E0,3.087199E0,8.223307E0,2.3545055E0,4.266708E0,6.2098856E0,6.4466248E0,0E0,0E0,0E0,0E0,0E0,0E0,0E0,0E0,0E0,0E0,0E0,0E0],"parents":[2147483647,0,0,1,1,2,2,4,4,5,5,6,6,7,7,8,8,9,9,10,10,11,11,12,12],"right_children":[2,4,6,-1,8,10,12,14,16,18,20,22,24,-1,-1,-1,-1,-1,-1,-1,-1,-1,-1,-1,-1],"split_conditions":[-1.4588388E0,-8.5223264E-1,-1.4735808E0,1.5098928E-2,-6.9523406E-1,-6.1103696E-1,4.7651756E-1,-1.6891101E-1,-3.9792842E-1,7.9999715E-1,-3.8558125E-1,-1.5602243E0,-1.4611702E-1,-7.7358005E-3,7.0158136E-4,-1.1458732E-3,7.7185705E-3,-3.911506E-3,-1.1915408E-2,-5.420393E-3,5.622273E-4,3.500335E-3,-5.799178E-4,3.5167101E-3,1.590852E-4],"split_indices":[389,414,225,0,79,42,14,137,385,289,95,414,74,0,0,0,0,0,0,0,0,0,0,0,0],"split_type":[0,0,0,0,0,0,0,0,0,0,0,0,0,0,0,0,0,0,0,0,0,0,0,0,0],"sum_hessian":[1.2457706E3,6.2769665E1,1.183001E3,8.111257E0,5.465841E1,6.951527E1,1.1134857E3,1.5021478E1,3.9636932E1,1.9409924E1,5.0105343E1,8.768824E2,2.3660332E2,6.665433E0,8.356045E0,1.8545418E1,2.1091515E1,1.3427342E1,5.982581E0,1.6598932E1,3.3506413E1,3.7494637E1,8.3938776E2,9.5678276E1,1.4092503E2],"tree_param":{"num_deleted":"0","num_feature":"420","num_nodes":"25","size_leaf_vector":"1"}},{"base_weights":[-6.0579227E-3,3.304269E-1,-2.479726E-2,1.8477316E-1,1.2373863E-2,-1.7539542E-2,-8.573991E-3,3.1336507E-1,-5.5640102E-3,-5.8407867E-3,-4.775137E-1,-7.328172E-5,6.0853204E-3,-3.0912305E-4,2.0207167E-3,-1.0478877E-2,-2.3230447E-3],"categories":[],"categories_nodes":[],"categories_segments":[],"categories_sizes":[],"default_left":[0,0,0,0,0,0,0,0,0,0,0,0,0,0,0,0,0],"id":4,"left_children":[1,3,5,7,-1,9,-1,11,-1,13,15,-1,-1,-1,-1,-1,-1],"loss_changes":[8.179996E0,8.552216E0,7.3423085E0,6.0324016E0,0E0,6.535364E0,0E0,5.073172E0,0E0,6.224657E0,3.721449E0,0E0,0E0,0E0,0E0,0E0,0E0],"parents":[2147483647,0,0,1,1,2,2,3,3,5,5,7,7,9,9,10,10],"right_children":[2,4,6,8,-1,10,-1,12,-1,14,16,-1,-1,-1,-1,-1,-1],"split_conditions":[-1.5169214E0,8.316984E-1,2.6417642E0,7.4400747E-1,1.2373863E-2,2.3128998E0,-8.573991E-3,-1.4838032E-1,-5.5640102E-3,1.1395261E0,-7.0927876E-1,-7.328172E-5,6.0853204E-3,-3.0912305E-4,2.0207167E-3,-1.0478877E-2,-2.3230447E-3],"split_indices":[393,118,252,401,0,330,0,242,0,204,229,0,0,0,0,0,0],"split_type":[0,0,0,0,0,0,0,0,0,0,0,0,0,0,0,0,0],"sum_hessian":[1.2986768E3,6.691215E1,1.2317646E3,5.9304028E1,7.6081176E0,1.2227576E3,9.006969E0,5.138891E1,7.915121E0,1.1941233E3,2.863429E1,2.516816E1,2.6220747E1,1.0671919E3,1.2693141E2,7.0101647E0,2.1624126E1],"tree_param":{"num_deleted":"0","num_feature":"420","num_nodes":"17","size_leaf_vector":"1"}},{"base_weights":[-6.190712E-3,6.001763E-1,-1.5672555E-2,-2.9078051E-3,1.2145225E0,-7.6094186E-3,-5.847673E-1,1.920674E-2,2.778569E-3,-6.4257973E-1,-5.0835876E-4,-8.858989E-3,8.827038E-4,-1.3701599E-2,2.0801043E-3,3.2741858E-3,-1.21367906E-4],"categories":[],"categories_nodes":[],"categories_segments":[],"categories_sizes":[],"default_left":[0,0,0,0,0,0,0,0,0,0,0,0,0,0,0,0,0],"id":5,"left_children":[1,3,5,-1,7,9,11,-1,-1,13,15,-1,-1,-1,-1,-1,-1],"loss_changes":[7.3580203E0,1.1404149E1,5.7584453E0,0E0,6.926857E0,5.586043E0,3.7518258E0,0E0,0E0,9.024439E0,4.7068725E0,0E0,0E0,0E0,0E0,0E0,0E0],"parents":[2147483647,0,0,1,1,2,2,4,4,5,5,6,6,9,9,10,10],"right_children":[2,4,6,-1,8,10,12,-1,-1,14,16,-1,-1,-1,-1,-1,-1],"split_conditions":[-1.9608334E0,-1.1220244E0,2.3311138E0,-2.9078051E-3,4.45038E-1,-1.9610682E0,3.0677778E-1,1.920674E-2,2.778569E-3,-2.0915265E-1,-1.5936154E0,-8.858989E-3,8.827038E-4,-1.3701599E-2,2.0801043E-3,3.2741858E-3,-1.21367906E-4],"split_indices":[384,320,346,0,74,405,287,0,0,287,44,0,0,0,0,0,0],"split_type":[0,0,0,0,0,0,0,0,0,0,0,0,0,0,0,0,0],"sum_hessian":[1.2859844E3,1.8198395E1,1.267786E3,7.6831474E0,1.0515248E1,1.2517466E3,1.6039417E1,5.0360193E0,5.479229E0,1.2203487E1,1.2395431E3,1.0856264E1,5.1831527E0,6.146872E0,6.0566154E0,4.075994E1,1.1987832E3],"tree_param":{"num_deleted":"0","num_feature":"420","num_nodes":"17","size_leaf_vector":"1"}},{"base_weights":[1.0522493E-2,2.076953E-2,-5.5773693E-1,3.336235E-1,4.612639E-3,-2.1200782E-1,-1.2239207E-2,1.5259759E-1,1.2998216E-2,1.0523461E-2,-9.777558E-3,2.1215193E-3,-7.409762E-3,-2.687163E-3,3.6043124E-3,7.792821E-6,5.14795E-3],"categories":[],"categories_nodes":[],"categories_segments":[],"categories_sizes":[],"default_left":[0,0,0,0,0,0,0,0,0,0,0,0,0,0,0,0,0],"id":6,"left_children":[1,3,5,7,9,11,-1,13,-1,15,-1,-1,-1,-1,-1,-1,-1],"loss_changes":[7.549211E0,6.4401855E0,4.7542615E0,1.05052185E1,7.003589E0,4.1086645E0,0E0,4.9269114E0,0E0,5.9151945E0,0E0,0E0,0E0,0E0,0E0,0E0,0E0],"parents":[2147483647,0,0,1,1,2,2,3,3,4,4,5,5,7,7,9,9],"right_children":[2,4,6,8,10,12,-1,14,-1,16,-1,-1,-1,-1,-1,-1,-1],"split_conditions":[2.538243E0,-1.5169214E0,-6.880328E-3,4.65117E-1,2.6086502E0,5.922517E-1,-1.2239207E-2,-4.666577E-1,1.2998216E-2,2.060152E0,-9.777558E-3,2.1215193E-3,-7.409762E-3,-2.687163E-3,3.6043124E-3,7.792821E-6,5.14795E-3],"split_indices":[330,393,412,118,325,289,0,101,0,241,0,0,0,0,0,0,0],"split_type":[0,0,0,0,0,0,0,0,0,0,0,0,0,0,0,0,0],"sum_hessian":[1.30119E3,1.2797345E3,2.1455431E1,6.1093212E1,1.2186414E3,1.5525593E1,5.9298387E0,5.300302E1,8.090192E0,1.212929E3,5.7123566E0,9.010092E0,6.5155005E0,1.7205008E1,3.5798016E1,1.1916039E3,2.1325068E1],"tree_param":{"num_deleted":"0","num_feature":"420","num_nodes":"17","size_leaf_vector":"1"}},{"base_weights":[9.04195E-3,-5.6460664E-2,1.0005317E-1,1.0953221E-1,-1.0381637E-1,2.3634206E-1,-1.2261597E-2,1.4576899E-1,-7.5032967E-3,-1.364153E-1,1.4021932E-1,3.994739E-1,7.7110216E-2,-4.4163443E-2,5.205243E-1,3.3605304E-3,-2.221822E-5,-7.429137E-4,-3.0940666E-3,4.2019114E-3,-1.1676538E-3,1.0509318E-2,2.6321774E-3,2.4453303E-4,8.077568E-3,1.927835E-3,-1.1491431E-3,9.47904E-3,-2.6448094E-3],"categories":[],"categories_nodes":[],"categories_segments":[],"categories_sizes":[],"default_left":[0,0,0,0,0,0,0,0,0,0,0,0,0,0,0,0,0,0,0,0,0,0,0,0,0,0,0,0,0],"id":7,"left_children":[1,3,5,7,9,11,13,15,-1,17,19,21,23,25,27,-1,-1,-1,-1,-1,-1,-1,-1,-1,-1,-1,-1,-1,-1],"loss_changes":[7.649586E0,5.8744354E0,8.251327E0,5.265747E0,4.6507087E0,6.2239275E0,5.0107837E0,4.549753E0,0E0,5.4477987E0,5.0575414E0,1.0058331E1,4.705949E0,4.726822E0,6.026685E0,0E0,0E0,0E0,0E0,0E0,0E0,0E0,0E0,0E0,0E0,0E0,0E0,0E0,0E0],"parents":[2147483647,0,0,1,1,2,2,3,3,4,4,5,5,6,6,7,7,9,9,10,10,11,11,12,12,13,13,14,14],"right_children":[2,4,6,8,10,12,14,16,-1,18,20,22,24,26,28,-1,-1,-1,-1,-1,-1,-1,-1,-1,-1,-1,-1,-1,-1],"split_conditions":[-7.152401E-2,-8.520931E-1,-6.667339E-2,2.3725612E0,1.5778384E0,-2.5232468E-2,2.0316718E0,-1.2728929E-2,-7.5032967E-3,4.082875E-1,1.7294781E-1,-3.536585E-1,1.3287232E0,-6.3964504E-1,7.6994693E-1,3.3605304E-3,-2.221822E-5,-7.429137E-4,-3.0940666E-3,4.2019114E-3,-1.1676538E-3,1.0509318E-2,2.6321774E-3,2.4453303E-4,8.077568E-3,1.927835E-3,-1.1491431E-3,9.47904E-3,-2.6448094E-3],"split_indices":[37,91,200,245,28,18,270,99,0,179,375,114,367,73,36,0,0,0,0,0,0,0,0,0,0,0,0,0,0],"split_type":[0,0,0,0,0,0,0,0,0,0,0,0,0,0,0,0,0,0,0,0,0,0,0,0,0,0,0,0,0],"sum_hessian":[1.279518E3,7.43719E2,5.3579895E2,1.6417299E2,5.79546E2,2.4171846E2,2.9408047E2,1.5884102E2,5.331957E0,5.121967E2,6.734931E1,1.1796897E2,1.2374948E2,2.7894156E2,1.5138944E1,6.895255E1,8.988847E1,3.7886322E2,1.3333351E2,3.1963356E1,3.538596E1,1.853716E1,9.943181E1,1.1700418E2,6.7452984E0,6.321887E1,2.1572267E2,9.683229E0,5.455714E0],"tree_param":{"num_deleted":"0","num_feature":"420","num_nodes":"29","size_leaf_vector":"1"}},{"base_weights":[-6.8245037E-3,-6.5476224E-2,8.842871E-2,-8.946064E-2,2.3615043E-1,4.1039842E-1,5.1936965E-2,-6.545999E-2,-4.1565755E-1,6.642053E-1,7.242529E-2,6.162334E-1,-2.0889338E-4,7.0275225E-2,-9.785308E-3,-7.7987043E-4,5.5978238E-3,-2.3665212E-3,-9.953064E-3,1.1905569E-2,2.144292E-3,-1.0673223E-3,4.6174265E-3,3.4222777E-3,1.30485175E-2,8.788685E-4,-7.306875E-3],"categories":[],"categories_nodes":[],"categories_segments":[],"categories_sizes":[],"default_left":[0,0,0,0,0,0,0,0,0,0,0,0,0,0,0,0,0,0,0,0,0,0,0,0,0,0,0],"id":8,"left_children":[1,3,5,7,9,11,13,15,17,19,21,23,-1,25,-1,-1,-1,-1,-1,-1,-1,-1,-1,-1,-1,-1,-1],"loss_changes":[7.1960216E0,5.789941E0,5.6838017E0,5.7092195E0,3.9810107E0,4.466814E0,8.373996E0,5.436675E0,4.731332E0,3.24992E0,3.2094843E0,5.5176983E0,0E0,6.18583E0,0E0,0E0,0E0,0E0,0E0,0E0,0E0,0E0,0E0,0E0,0E0,0E0,0E0],"parents":[2147483647,0,0,1,1,2,2,3,3,4,4,5,5,6,6,7,7,8,8,9,9,10,10,11,11,13,13],"right_children":[2,4,6,8,10,12,14,16,18,20,22,24,-1,26,-1,-1,-1,-1,-1,-1,-1,-1,-1,-1,-1,-1,-1],"split_conditions":[5.7576682E-2,1.6734842E0,-1.4175557E0,1.4137814E0,1.9148517E0,-1.1917859E-1,2.7011487E0,1.3032109E0,-6.694381E-2,1.24645546E-1,-2.504837E-1,-1.0369897E-2,-2.0889338E-4,2.4052444E0,-9.785308E-3,-7.7987043E-4,5.5978238E-3,-2.3665212E-3,-9.953064E-3,1.1905569E-2,2.144292E-3,-1.0673223E-3,4.6174265E-3,3.4222777E-3,1.30485175E-2,8.788685E-4,-7.306875E-3],"split_indices":[37,28,144,29,7,292,39,29,240,262,215,160,0,0,0,0,0,0,0,0,0,0,0,0,0,0,0],"split_type":[0,0,0,0,0,0,0,0,0,0,0,0,0,0,0,0,0,0,0,0,0,0,0,0,0,0,0],"sum_hessian":[1.2854043E3,7.964888E2,4.8891547E2,7.391041E2,5.738462E1,4.79285E1,4.4098697E2,6.904131E2,4.8691074E1,1.4438784E1,4.2945835E1,3.2165794E1,1.576271E1,4.3474496E2,6.241998E0,6.782959E2,1.2117167E1,3.8948147E1,9.74293E0,5.412252E0,9.026532E0,2.9980986E1,1.2964849E1,2.4720167E1,7.445626E0,4.2682028E2,7.924694E0],"tree_param":{"num_deleted":"0","num_feature":"420","num_nodes":"27","size_leaf_vector":"1"}},{"base_weights":[-9.409854E-3,5.6163645E-1,-1.8289728E-2,-2.7405689E-2,1.4379125E-2,-4.7872014E-2,1.3999851E-1,-5.3538512E-3,4.9132947E-3,-3.4960367E-2,-5.195408E-1,9.381564E-2,1.3251594E-2,1.2403276E-3,-7.703044E-4,3.9149034E-3,-7.7404683E-3,2.0744521E-3,-1.6646315E-3],"categories":[],"categories_nodes":[],"categories_segments":[],"categories_sizes":[],"default_left":[0,0,0,0,0,0,0,0,0,0,0,0,0,0,0,0,0,0,0],"id":9,"left_children":[1,3,5,7,-1,9,11,-1,-1,13,15,17,-1,-1,-1,-1,-1,-1,-1],"loss_changes":[6.5278926E0,1.0370823E1,5.9795694E0,3.8738735E0,0E0,6.4788017E0,1.0667643E1,0E0,0E0,7.0364375E0,7.076138E0,5.824849E0,0E0,0E0,0E0,0E0,0E0,0E0,0E0],"parents":[2147483647,0,0,1,1,2,2,3,3,5,5,6,6,9,9,10,10,11,11],"right_children":[2,4,6,8,-1,10,12,-1,-1,14,16,18,-1,-1,-1,-1,-1,-1,-1],"split_conditions":[-1.9608334E0,-3.5190842E-1,7.1149224E-1,-7.106345E-2,1.4379125E-2,2.3159041E0,1.9090483E0,-5.3538512E-3,4.9132947E-3,-8.520931E-1,-1.1269009E0,1.5972419E0,1.3251594E-2,1.2403276E-3,-7.703044E-4,3.9149034E-3,-7.7404683E-3,2.0744521E-3,-1.6646315E-3],"split_indices":[384,56,101,246,0,378,350,0,0,91,303,79,0,0,0,0,0,0,0],"split_type":[0,0,0,0,0,0,0,0,0,0,0,0,0,0,0,0,0,0,0],"sum_hessian":[1.293521E3,1.8204334E1,1.2753167E3,1.1687106E1,6.5172286E0,1.0759178E3,1.993988E2,5.977842E0,5.709264E0,1.0490247E3,2.6893219E1,1.9355937E2,5.839428E0,2.1838708E2,8.306376E2,5.6102977E0,2.1282923E1,1.3521669E2,5.8342693E1],"tree_param":{"num_deleted":"0","num_feature":"420","num_nodes":"19","size_leaf_vector":"1"}},{"base_weights":[3.66096E-4,-2.2557609E-2,2.5504485E-1,-5.4411273E-2,1.2272829E-1,5.168347E-1,4.287672E-2,-4.2107742E-2,-6.7941827E-1,5.2571017E-2,5.7526416E-1,2.7480695E-1,1.4170866E-2,2.0025751E-1,-5.2636606E-3,-6.372282E-4,2.1487148E-3,-1.2264993E-3,-9.923326E-3,2.697506E-3,-1.4425325E-3,1.351489E-3,1.3404456E-2,6.2113153E-3,-9.0267055E-4,8.572578E-3,8.509114E-4],"categories":[],"categories_nodes":[],"categories_segments":[],"categories_sizes":[],"default_left":[0,0,0,0,0,0,0,0,0,0,0,0,0,0,0,0,0,0,0,0,0,0,0,0,0,0,0],"id":10,"left_children":[1,3,5,7,9,11,13,15,17,19,21,23,-1,25,-1,-1,-1,-1,-1,-1,-1,-1,-1,-1,-1,-1,-1],"loss_changes":[7.5080786E0,5.444851E0,5.811079E0,7.313298E0,6.6015863E0,9.532333E0,5.547516E0,5.2773733E0,2.910389E0,7.9710445E0,9.01839E0,5.0874414E0,0E0,3.4764671E0,0E0,0E0,0E0,0E0,0E0,0E0,0E0,0E0,0E0,0E0,0E0,0E0,0E0],"parents":[2147483647,0,0,1,1,2,2,3,3,4,4,5,5,6,6,7,7,8,8,9,9,10,10,11,11,13,13],"right_children":[2,4,6,8,10,12,14,16,18,20,22,24,-1,26,-1,-1,-1,-1,-1,-1,-1,-1,-1,-1,-1,-1,-1],"split_conditions":[1.5975482E0,5.855966E-1,1.6589843E-1,2.2815359E0,7.296031E-1,5.147015E-1,4.3022767E-1,1.056869E0,4.8719412E-1,-2.2103226E-1,1.1551479E0,-2.209215E-2,1.4170866E-2,-4.7904512E-1,-5.2636606E-3,-6.372282E-4,2.1487148E-3,-1.2264993E-3,-9.923326E-3,2.697506E-3,-1.4425325E-3,1.351489E-3,1.3404456E-2,6.2113153E-3,-9.0267055E-4,8.572578E-3,8.509114E-4],"split_indices":[7,413,261,327,346,375,141,220,353,376,397,396,0,294,0,0,0,0,0,0,0,0,0,0,0,0,0],"split_type":[0,0,0,0,0,0,0,0,0,0,0,0,0,0,0,0,0,0,0,0,0,0,0,0,0,0,0],"sum_hessian":[1.2790703E3,1.1743419E3,1.04728355E2,9.645029E2,2.0983896E2,4.5706627E1,5.902173E1,9.476099E2,1.6893053E1,1.8331467E2,2.6524298E1,3.7652836E1,8.05379E0,4.7137436E1,1.18842945E1,8.754879E2,7.212199E1,6.944401E0,9.948653E0,8.712814E1,9.618652E1,1.8042358E1,8.481939E0,1.8923267E1,1.8729568E1,5.459326E0,4.167811E1],"tree_param":{"num_deleted":"0","num_feature":"420","num_nodes":"27","size_leaf_vector":"1"}},{"base_weights":[5.6732176E-3,1.9058248E-2,-4.6950376E-1,3.0790353E-1,2.7533898E-3,-9.0112966E-1,-2.2249443E-2,1.2290524E-2,1.8654446E-1,3.4829177E-2,-1.4913386E-1,-2.0826196E-3,-1.914617E-2,3.9503244E-3,-4.5698485E-3,-6.013083E-3,2.955423E-3,6.2077605E-5,3.0091887E-3,-4.78386E-3,-5.097205E-4],"categories":[],"categories_nodes":[],"categories_segments":[],"categories_sizes":[],"default_left":[0,0,0,0,0,0,0,0,0,0,0,0,0,0,0,0,0,0,0,0,0],"id":11,"left_children":[1,3,5,7,9,11,13,-1,15,17,19,-1,-1,-1,-1,-1,-1,-1,-1,-1,-1],"loss_changes":[8.154278E0,5.870766E0,6.6563315E0,6.963311E0,5.785607E0,1.1631217E1,3.705002E0,0E0,5.4519672E0,7.4518247E0,6.5984945E0,0E0,0E0,0E0,0E0,0E0,0E0,0E0,0E0,0E0,0E0],"parents":[2147483647,0,0,1,1,2,2,3,3,4,4,5,5,6,6,8,8,9,9,10,10],"right_children":[2,4,6,8,10,12,14,-1,16,18,20,-1,-1,-1,-1,-1,-1,-1,-1,-1,-1],"split_conditions":[2.3128998E0,-1.4742798E0,-3.9493043E-2,-9.412297E-1,5.6717175E-1,-3.2059252E-1,2.9333982E-1,1.2290524E-2,-7.087391E-1,1.164695E0,-4.0256226E-1,-2.0826196E-3,-1.914617E-2,3.9503244E-3,-4.5698485E-3,-6.013083E-3,2.955423E-3,6.2077605E-5,3.0091887E-3,-4.78386E-3,-5.097205E-4],"split_indices":[330,393,305,410,391,198,278,0,242,204,396,0,0,0,0,0,0,0,0,0,0],"split_type":[0,0,0,0,0,0,0,0,0,0,0,0,0,0,0,0,0,0,0,0,0],"sum_hessian":[1.285539E3,1.2519244E3,3.3614563E1,6.513204E1,1.1867924E3,1.6217735E1,1.739683E1,5.8923516E0,5.923969E1,9.813614E2,2.0543102E2,1.0765106E1,5.452629E0,8.82913E0,8.567699E0,6.264736E0,5.2974953E1,8.8777985E2,9.35815E1,4.561186E1,1.5981915E2],"tree_param":{"num_deleted":"0","num_feature":"420","num_nodes":"21","size_leaf_vector":"1"}},{"base_weights":[-2.0599882E-3,3.224732E-1,-1.8592458E-2,-1.8958679E-1,6.98798E-1,-9.690901E-3,-6.9647574E-1,-6.2528895E-3,1.3802236E-1,1.4353107E-2,3.7428743E-1,-4.533873E-2,1.5666564E-1,-1.1129558E-2,-1.1387529E-3,6.4968597E-3,-1.5442867E-3,-1.0633452E-3,7.2465506E-3,-3.881248E-4,-7.641274E-3,-5.6159934E-3,1.844565E-3],"categories":[],"categories_nodes":[],"categories_segments":[],"categories_sizes":[],"default_left":[0,0,0,0,0,0,0,0,0,0,0,0,0,0,0,0,0,0,0,0,0,0,0],"id":12,"left_children":[1,3,5,7,9,11,13,-1,15,-1,17,19,21,-1,-1,-1,-1,-1,-1,-1,-1,-1,-1],"loss_changes":[6.8866024E0,1.2235388E1,7.3221884E0,4.0914063E0,7.6852303E0,7.1904874E0,3.5050168E0,0E0,2.7058964E0,0E0,4.7762327E0,4.567445E0,4.3859406E0,0E0,0E0,0E0,0E0,0E0,0E0,0E0,0E0,0E0,0E0],"parents":[2147483647,0,0,1,1,2,2,3,3,4,4,5,5,6,6,8,8,10,10,11,11,12,12],"right_children":[2,4,6,8,10,12,14,-1,16,-1,18,20,22,-1,-1,-1,-1,-1,-1,-1,-1,-1,-1],"split_conditions":[-1.5169214E0,-3.6843282E-1,2.5113106E0,-3.725138E-1,-1.16931565E-1,6.8996596E-1,-1.2124153E-1,-6.2528895E-3,-3.3636793E-1,1.4353107E-2,2.7788225E-1,2.3965752E0,-1.4323305E0,-1.1129558E-2,-1.1387529E-3,6.4968597E-3,-1.5442867E-3,-1.0633452E-3,7.2465506E-3,-3.881248E-4,-7.641274E-3,-5.6159934E-3,1.844565E-3],"split_indices":[393,144,346,77,103,101,372,0,228,0,144,35,258,0,0,0,0,0,0,0,0,0,0],"split_type":[0,0,0,0,0,0,0,0,0,0,0,0,0,0,0,0,0,0,0,0,0,0,0],"sum_hessian":[1.2860238E3,6.0698692E1,1.2253251E3,2.5915045E1,3.478365E1,1.2110907E3,1.4234357E1,1.0668631E1,1.5246414E1,8.973847E0,2.5809801E1,9.987625E2,2.1232822E2,7.404218E0,6.8301387E0,5.00299E0,1.0243424E1,1.1202269E1,1.4607532E1,9.9148047E2,7.2820373E0,6.702008E0,2.0562622E2],"tree_param":{"num_deleted":"0","num_feature":"420","num_nodes":"23","size_leaf_vector":"1"}},{"base_weights":[-7.948415E-4,5.080518E-1,-1.4683773E-2,-8.7281816E-2,1.0745351E0,-3.9162594E-3,-4.6861696E-1,-8.195995E-3,4.492814E-3,2.3067187E-4,1.6223612E0,-1.3269973E-2,5.211662E-1,9.580998E-2,-8.521745E-1,6.2165386E-3,2.2307837E-2,-1.4113987E-5,-5.4246215E-3,8.78136E-3,-6.997503E-4,5.5715092E-3,-3.7132439E-3,-3.5735571E-3,-1.5177144E-2],"categories":[],"categories_nodes":[],"categories_segments":[],"categories_sizes":[],"default_left":[0,0,0,0,0,0,0,0,0,0,0,0,0,0,0,0,0,0,0,0,0,0,0,0,0],"id":13,"left_children":[1,3,5,7,9,11,13,-1,-1,-1,15,17,19,21,23,-1,-1,-1,-1,-1,-1,-1,-1,-1,-1],"loss_changes":[9.065909E0,1.1731963E1,6.087079E0,7.629565E0,9.952251E0,5.9920707E0,6.447256E0,0E0,0E0,0E0,4.6528263E0,7.527721E0,4.6776013E0,3.1137228E0,4.743519E0,0E0,0E0,0E0,0E0,0E0,0E0,0E0,0E0,0E0,0E0],"parents":[2147483647,0,0,1,1,2,2,3,3,4,4,5,5,6,6,10,10,11,11,12,12,13,13,14,14],"right_children":[2,4,6,8,10,12,14,-1,-1,-1,16,18,20,22,24,-1,-1,-1,-1,-1,-1,-1,-1,-1,-1],"split_conditions":[-1.9347419E0,-3.5712317E-1,2.3128998E0,-1.798592E-1,-4.527679E-1,2.187012E0,-3.7412077E-1,-8.195995E-3,4.492814E-3,2.3067187E-4,-4.367792E-1,2.3435807E0,7.01792E-1,-7.5572366E-3,-8.192777E-3,6.2165386E-3,2.2307837E-2,-1.4113987E-5,-5.4246215E-3,8.78136E-3,-6.997503E-4,5.5715092E-3,-3.7132439E-3,-3.5735571E-3,-1.5177144E-2],"split_indices":[417,55,330,8,289,241,51,0,0,0,343,357,121,15,225,0,0,0,0,0,0,0,0,0,0],"split_type":[0,0,0,0,0,0,0,0,0,0,0,0,0,0,0,0,0,0,0,0,0,0,0,0,0],"sum_hessian":[1.2866879E3,3.2577606E1,1.2541102E3,1.6416935E1,1.6160671E1,1.2267445E3,2.736573E1,6.68634E0,9.730595E0,6.1336913E0,1.0026979E1,1.2068976E3,1.9846895E1,1.142208E1,1.594365E1,5.0000653E0,5.026914E0,1.1821011E3,2.4796526E1,1.2025831E1,7.821063E0,5.708952E0,5.713128E0,1.0553184E1,5.3904667E0],"tree_param":{"num_deleted":"0","num_feature":"420","num_nodes":"25","size_leaf_vector":"1"}},{"base_weights":[-1.0038583E-2,-1.06071835E-4,-5.364761E-1,-2.6197122E-2,3.2274997E-1,-8.260145E-1,2.7499092E-3,5.126875E-1,-3.6371168E-2,1.2758864E-2,2.3781486E-1,-4.5831088E-4,-1.238066E-2,-1.1711176E-3,1.2062143E-2,-2.8136016E-3,-1.9178509E-4,3.9954935E-3,-8.231492E-4],"categories":[],"categories_nodes":[],"categories_segments":[],"categories_sizes":[],"default_left":[0,0,0,0,0,0,0,0,0,0,0,0,0,0,0,0,0,0,0],"id":14,"left_children":[1,3,5,7,9,11,-1,13,15,-1,17,-1,-1,-1,-1,-1,-1,-1,-1],"loss_changes":[6.6697674E0,1.0628211E1,5.9464574E0,6.4000106E0,7.028804E0,5.5336494E0,0E0,9.761494E0,4.809016E0,0E0,4.6652455E0,0E0,0E0,0E0,0E0,0E0,0E0,0E0,0E0],"parents":[2147483647,0,0,1,1,2,2,3,3,4,4,5,5,7,7,8,8,10,10],"right_children":[2,4,6,8,10,12,-1,14,16,-1,18,-1,-1,-1,-1,-1,-1,-1,-1],"split_conditions":[2.3871922E0,1.1422633E0,1.1627748E0,-1.9608334E0,-4.0105236E-1,-7.7841884E-1,2.7499092E-3,-5.2827805E-1,-9.5042E-1,1.2758864E-2,7.462498E-1,-4.5831088E-4,-1.238066E-2,-1.1711176E-3,1.2062143E-2,-2.8136016E-3,-1.9178509E-4,3.9954935E-3,-8.231492E-4],"split_indices":[336,241,174,384,399,179,0,247,76,0,144,0,0,0,0,0,0,0,0],"split_type":[0,0,0,0,0,0,0,0,0,0,0,0,0,0,0,0,0,0,0],"sum_hessian":[1.28435E3,1.2622253E3,2.2124662E1,1.1694095E3,9.281579E1,1.6377405E1,5.747257E0,2.0114162E1,1.1492954E3,5.7769527E0,8.703883E1,6.320195E0,1.0057209E1,1.1119204E1,8.994959E0,7.347269E1,1.0758228E3,5.7785137E1,2.9253696E1],"tree_param":{"num_deleted":"0","num_feature":"420","num_nodes":"19","size_leaf_vector":"1"}},{"base_weights":[-3.324862E-3,4.0028554E-1,-1.648988E-2,9.451477E-2,1.0974039E0,5.189017E-1,-2.5349777E-2,-1.3697706E-1,7.5676017E-3,1.8290037E-2,9.176008E-4,7.891021E-3,-7.021335E-4,-4.9234527E-1,-1.54557265E-2,-6.5378807E-3,1.5810491E-3,-1.6455262E-4,-8.995854E-3,-6.0907216E-4,7.246137E-4],"categories":[],"categories_nodes":[],"categories_segments":[],"categories_sizes":[],"default_left":[0,0,0,0,0,0,0,0,0,0,0,0,0,0,0,0,0,0,0,0,0],"id":15,"left_children":[1,3,5,7,9,11,13,15,-1,-1,-1,-1,-1,17,19,-1,-1,-1,-1,-1,-1],"loss_changes":[6.8898773E0,8.453527E0,5.959426E0,4.8478866E0,8.564005E0,3.4085674E0,5.684002E0,3.7943506E0,0E0,0E0,0E0,0E0,0E0,4.8365583E0,4.8789153E0,0E0,0E0,0E0,0E0,0E0,0E0],"parents":[2147483647,0,0,1,1,2,2,3,3,4,4,5,5,6,6,7,7,13,13,14,14],"right_children":[2,4,6,8,10,12,14,16,-1,-1,-1,-1,-1,18,20,-1,-1,-1,-1,-1,-1],"split_conditions":[-1.8117794E0,2.0834696E-1,-1.2596118E0,5.4429364E-1,3.660209E-1,-1.8224306E-1,-1.7743944E0,1.1502764E0,7.5676017E-3,1.8290037E-2,9.176008E-4,7.891021E-3,-7.021335E-4,-9.266638E-1,1.8954436E-1,-6.5378807E-3,1.5810491E-3,-1.6455262E-4,-8.995854E-3,-6.0907216E-4,7.246137E-4],"split_indices":[417,154,273,246,270,129,418,387,0,0,0,0,0,262,37,0,0,0,0,0,0],"split_type":[0,0,0,0,0,0,0,0,0,0,0,0,0,0,0,0,0,0,0,0,0],"sum_hessian":[1.3005242E3,3.9447487E1,1.2610767E3,2.8704088E1,1.0743401E1,1.8939674E1,1.242137E3,2.2038975E1,6.6651125E0,5.4505844E0,5.2928157E0,1.2751622E1,6.188052E0,2.404349E1,1.2180935E3,7.470498E0,1.4568478E1,1.192012E1,1.2123369E1,8.0402563E2,4.1406787E2],"tree_param":{"num_deleted":"0","num_feature":"420","num_nodes":"21","size_leaf_vector":"1"}},{"base_weights":[7.932367E-3,1.9377269E-2,-4.210341E-1,2.5174135E-2,-8.846362E-3,-1.2029351E-2,-1.7239693E-1,1.7457541E-2,6.648941E-1,1.0984677E-1,-6.0708937E-3,5.4212394E-3,9.9402285E-5,-1.1631752E-3,1.3634766E-2,5.7513095E-3,-1.3621406E-3],"categories":[],"categories_nodes":[],"categories_segments":[],"categories_sizes":[],"default_left":[0,0,0,0,0,0,0,0,0,0,0,0,0,0,0,0,0],"id":16,"left_children":[1,3,5,7,-1,-1,9,11,13,15,-1,-1,-1,-1,-1,-1,-1],"loss_changes":[6.3087463E0,6.5442424E0,6.0408254E0,6.0966234E0,0E0,0E0,3.4837794E0,4.823971E0,8.402296E0,2.1772149E0,0E0,0E0,0E0,0E0,0E0,0E0,0E0],"parents":[2147483647,0,0,1,1,2,2,3,3,6,6,7,7,8,8,9,9],"right_children":[2,4,6,8,-1,-1,10,12,14,16,-1,-1,-1,-1,-1,-1,-1],"split_conditions":[2.3128998E0,2.6086502E0,-3.8244674E-1,2.3495069E0,-8.846362E-3,-1.2029351E-2,-2.0351204E-1,-2.0960016E0,-1.0885744E0,9.8691046E-1,-6.0708937E-3,5.4212394E-3,9.9402285E-5,-1.1631752E-3,1.3634766E-2,5.7513095E-3,-1.3621406E-3],"split_indices":[330,325,178,292,0,0,51,419,324,43,0,0,0,0,0,0,0],"split_type":[0,0,0,0,0,0,0,0,0,0,0,0,0,0,0,0,0],"sum_hessian":[1.2892017E3,1.2573215E3,3.1880203E1,1.2508694E3,6.4521847E0,6.2056484E0,2.5674555E1,1.2376376E3,1.3231694E1,1.6107159E1,9.567397E0,1.5787406E1,1.2218502E3,6.7690682E0,6.462626E0,5.0182905E0,1.1088868E1],"tree_param":{"num_deleted":"0","num_feature":"420","num_nodes":"17","size_leaf_vector":"1"}},{"base_weights":[-1.6701766E-3,3.220058E-1,-1.8383183E-2,1.2343569E-2,1.9700907E-1,-4.5679994E-2,1.614025E-1,-1.7961831E-1,4.5145577E-1,-3.5644088E-2,-6.399999E-1,8.6928625E-3,1.0693072E-1,3.394383E-3,-5.5664424E-3,6.6306763E-3,-3.0969097E-3,-3.0421508E-3,-1.7156359E-4,-1.0491053E-2,-2.3695335E-3,8.536518E-3,5.5057334E-4],"categories":[],"categories_nodes":[],"categories_segments":[],"categories_sizes":[],"default_left":[0,0,0,0,0,0,0,0,0,0,0,0,0,0,0,0,0,0,0,0,0,0,0],"id":17,"left_children":[1,3,5,-1,7,9,11,13,15,17,19,-1,21,-1,-1,-1,-1,-1,-1,-1,-1,-1,-1],"loss_changes":[6.841311E0,6.571383E0,5.9281125E0,0E0,5.561194E0,6.1637654E0,5.8973784E0,4.9405017E0,5.8666377E0,5.0979767E0,2.3329554E0,0E0,5.6319656E0,0E0,0E0,0E0,0E0,0E0,0E0,0E0,0E0,0E0,0E0],"parents":[2147483647,0,0,1,1,2,2,4,4,5,5,6,6,7,7,8,8,9,9,10,10,12,12],"right_children":[2,4,6,-1,8,10,12,14,16,18,20,-1,22,-1,-1,-1,-1,-1,-1,-1,-1,-1,-1],"split_conditions":[-1.4588388E0,-9.412907E-1,8.710871E-1,1.2343569E-2,-2.8981394E-1,2.3435807E0,-6.6347027E-1,-5.315515E-1,6.7711747E-1,-1.4858766E0,1.278727E-1,8.6928625E-3,-1.032491E0,3.394383E-3,-5.5664424E-3,6.6306763E-3,-3.0969097E-3,-3.0421508E-3,-1.7156359E-4,-1.0491053E-2,-2.3695335E-3,8.536518E-3,5.5057334E-4],"split_indices":[389,411,241,0,243,357,207,314,328,293,222,0,224,0,0,0,0,0,0,0,0,0,0],"split_type":[0,0,0,0,0,0,0,0,0,0,0,0,0,0,0,0,0,0,0,0,0,0,0],"sum_hessian":[1.2671327E3,6.0576744E1,1.2065559E3,5.5987544E0,5.497799E1,1.0489667E3,1.5758922E2,2.218632E1,3.279167E1,1.0332766E3,1.5690065E1,9.525663E0,1.4806355E2,9.286198E0,1.2900122E1,2.591228E1,6.8793917E0,6.470575E1,9.6857086E2,6.470143E0,9.219922E0,7.986394E0,1.4007716E2],"tree_param":{"num_deleted":"0","num_feature":"420","num_nodes":"23","size_leaf_vector":"1"}},{"base_weights":[-9.490077E-3,3.2674137E-1,-2.4668848E-2,1.0257052E0,5.829811E-2,-1.6918635E-2,-6.8157143E-3,3.041128E-3,1.8465305E-2,7.271485E-1,-1.9163434E-1,-7.871339E-2,6.019336E-2,1.1778304E-3,1.1687917E-2,-4.6147583E-3,3.6789246E-3,-2.692802E-4,-2.4617927E-3,2.0258774E-3,-6.6366047E-4],"categories":[],"categories_nodes":[],"categories_segments":[],"categories_sizes":[],"default_left":[0,0,0,0,0,0,0,0,0,0,0,0,0,0,0,0,0,0,0,0,0],"id":18,"left_children":[1,3,5,7,9,11,-1,-1,-1,13,15,17,19,-1,-1,-1,-1,-1,-1,-1,-1],"loss_changes":[6.5278854E0,1.0163416E1,6.169386E0,7.9039917E0,7.2155156E0,5.8046083E0,0E0,0E0,0E0,2.8232589E0,4.9983683E0,5.830079E0,9.78702E0,0E0,0E0,0E0,0E0,0E0,0E0,0E0,0E0],"parents":[2147483647,0,0,1,1,2,2,3,3,4,4,5,5,9,9,10,10,11,11,12,12],"right_children":[2,4,6,8,10,12,-1,-1,-1,14,16,18,20,-1,-1,-1,-1,-1,-1,-1,-1],"split_conditions":[-1.5602243E0,-3.9976415E-1,2.5113106E0,-9.1827834E-1,-3.0498743E-1,-1.4533763E-1,-6.8157143E-3,3.041128E-3,1.8465305E-2,-6.2386465E-1,-3.360462E-1,2.7796036E-1,-6.667339E-2,1.1778304E-3,1.1687917E-2,-4.6147583E-3,3.6789246E-3,-2.692802E-4,-2.4617927E-3,2.0258774E-3,-6.6366047E-4],"split_indices":[414,71,346,111,353,37,0,0,0,17,417,160,200,0,0,0,0,0,0,0,0],"split_type":[0,0,0,0,0,0,0,0,0,0,0,0,0,0,0,0,0,0,0,0,0],"sum_hessian":[1.2811295E3,5.372248E1,1.227407E3,1.3629777E1,4.0092705E1,1.2147659E3,1.2641088E1,8.412165E0,5.2176123E0,1.0235981E1,2.9856722E1,6.7506165E2,5.397042E2,5.194811E0,5.0411706E0,2.0440512E1,9.41621E0,5.174036E2,1.5765805E2,2.5391203E2,2.857922E2],"tree_param":{"num_deleted":"0","num_feature":"420","num_nodes":"21","size_leaf_vector":"1"}},{"base_weights":[8.18602E-3,4.1132367E-1,-4.751493E-3,5.1498152E-2,1.2999008E-2,1.0302322E-1,-4.5141403E-2,4.3688977E-1,-5.299269E-1,-6.1816536E-2,2.1167068E-1,-1.18838504E-1,4.7606744E-2,-0E0,8.295068E-3,1.2379275E-3,-1.0874755E-2,-1.4734851E-3,3.770773E-3,1.7230277E-3,9.898347E-3,-1.7244685E-3,1.1479416E-3,1.0795258E-3,-1.6955814E-3],"categories":[],"categories_nodes":[],"categories_segments":[],"categories_sizes":[],"default_left":[0,0,0,0,0,0,0,0,0,0,0,0,0,0,0,0,0,0,0,0,0,0,0,0,0],"id":19,"left_children":[1,3,5,7,-1,9,11,13,15,17,19,21,23,-1,-1,-1,-1,-1,-1,-1,-1,-1,-1,-1,-1],"loss_changes":[6.7484794E0,1.262744E1,5.4285884E0,7.1223044E0,0E0,6.117831E0,6.226473E0,3.2162766E0,4.9065485E0,5.155728E0,5.921324E0,6.38992E0,5.2999053E0,0E0,0E0,0E0,0E0,0E0,0E0,0E0,0E0,0E0,0E0,0E0,0E0],"parents":[2147483647,0,0,1,1,2,2,3,3,5,5,6,6,7,7,8,8,9,9,10,10,11,11,12,12],"right_children":[2,4,6,8,-1,10,12,14,16,18,20,22,24,-1,-1,-1,-1,-1,-1,-1,-1,-1,-1,-1,-1],"split_conditions":[-1.8117794E0,2.0834696E-1,-4.7364306E-1,-1.927223E-1,1.2999008E-2,-1.1015332E0,-1.4533763E-1,-4.738409E-1,-1.6591486E-1,7.803659E-1,1.7112709E0,6.7299867E-1,4.2223918E-1,-0E0,8.295068E-3,1.2379275E-3,-1.0874755E-2,-1.4734851E-3,3.770773E-3,1.7230277E-3,9.898347E-3,-1.7244685E-3,1.1479416E-3,1.0795258E-3,-1.6955814E-3],"split_indices":[417,154,159,340,0,159,37,247,391,118,22,204,97,0,0,0,0,0,0,0,0,0,0,0,0],"split_type":[0,0,0,0,0,0,0,0,0,0,0,0,0,0,0,0,0,0,0,0,0,0,0,0,0],"sum_hessian":[1.2840458E3,3.8730457E1,1.2453153E3,2.8776863E1,9.953592E0,3.3816586E2,9.071494E2,1.7633532E1,1.1143332E1,1.3423337E2,2.0393251E2,5.0585577E2,4.0129364E2,9.151653E0,8.481878E0,5.5838857E0,5.559446E0,1.1336497E2,2.0868402E1,1.9597844E2,7.9540615E0,4.1211456E2,9.374121E1,3.1498135E2,8.631229E1],"tree_param":{"num_deleted":"0","num_feature":"420","num_nodes":"25","size_leaf_vector":"1"}},{"base_weights":[-9.846608E-3,4.168515E-1,-2.553268E-2,3.1253077E-2,1.2779768E0,-1.7455282E-2,-5.1179695E-1,6.7210513E-1,-3.187599E-1,4.1471706E-3,1.731903E-2,-4.3137595E-2,1.631078E-1,1.197295E-3,-7.959037E-1,1.1203141E-2,5.5383804E-4,3.7673844E-3,-7.140895E-3,-3.486775E-4,-5.5496446E-3,3.318059E-3,-1.2066402E-3,-1.1004639E-3,-1.160642E-2],"categories":[],"categories_nodes":[],"categories_segments":[],"categories_sizes":[],"default_left":[0,0,0,0,0,0,0,0,0,0,0,0,0,0,0,0,0,0,0,0,0,0,0,0,0],"id":20,"left_children":[1,3,5,7,9,11,13,15,17,-1,-1,19,21,-1,23,-1,-1,-1,-1,-1,-1,-1,-1,-1,-1],"loss_changes":[8.570194E0,1.4879115E1,4.804109E0,7.751085E0,4.1622963E0,5.6629925E0,3.8000665E0,3.1694841E0,6.5514536E0,0E0,0E0,4.445525E0,7.3545117E0,0E0,3.2095451E0,0E0,0E0,0E0,0E0,0E0,0E0,0E0,0E0,0E0,0E0],"parents":[2147483647,0,0,1,1,2,2,3,3,4,4,5,5,6,6,7,7,8,8,11,11,12,12,14,14],"right_children":[2,4,6,8,10,12,14,16,18,-1,-1,20,22,-1,24,-1,-1,-1,-1,-1,-1,-1,-1,-1,-1],"split_conditions":[-1.7365375E0,2.8903142E-1,2.122751E0,-7.655009E-1,1.3572462E-1,8.710871E-1,-6.742191E-1,7.5408393E-1,-5.4020166E-1,4.1471706E-3,1.731903E-2,2.3435807E0,2.683747E-1,1.197295E-3,-1.6827509E-1,1.1203141E-2,5.5383804E-4,3.7673844E-3,-7.140895E-3,-3.486775E-4,-5.5496446E-3,3.318059E-3,-1.2066402E-3,-1.1004639E-3,-1.160642E-2],"split_indices":[390,144,295,197,251,241,34,343,308,0,0,357,103,0,74,0,0,0,0,0,0,0,0,0,0],"split_type":[0,0,0,0,0,0,0,0,0,0,0,0,0,0,0,0,0,0,0,0,0,0,0,0,0],"sum_hessian":[1.2823911E3,4.3884773E1,1.2385062E3,3.1465559E1,1.2419216E1,1.2200002E3,1.8506084E1,1.0728217E1,2.073734E1,5.3450103E0,7.074206E0,1.0695663E3,1.5043385E2,5.9022207E0,1.2603864E1,5.4096785E0,5.318538E0,7.4493613E0,1.328798E1,1.0543286E3,1.5237753E1,9.440813E1,5.602573E1,5.148784E0,7.4550796E0],"tree_param":{"num_deleted":"0","num_feature":"420","num_nodes":"25","size_leaf_vector":"1"}},{"base_weights":[-4.4350717E-3,3.901649E-1,-1.8174903E-2,1.381543E-1,1.0472475E0,-2.7140321E-2,4.312687E-1,5.2851444E-1,-2.967372E-1,2.7405715E-4,1.7923458E-2,-4.5997295E-1,-1.5424756E-2,-2.0710656E-3,7.4323326E-1,1.2368923E-2,-0E0,-5.9674815E-3,1.6070309E-3,-1.1815139E-2,-1.820926E-3,-3.0462215E-5,-4.106906E-3,2.3492589E-3,1.2622082E-2],"categories":[],"categories_nodes":[],"categories_segments":[],"categories_sizes":[],"default_left":[0,0,0,0,0,0,0,0,0,0,0,0,0,0,0,0,0,0,0,0,0,0,0,0,0],"id":21,"left_children":[1,3,5,7,9,11,13,15,17,-1,-1,19,21,-1,23,-1,-1,-1,-1,-1,-1,-1,-1,-1,-1],"loss_changes":[7.0080075E0,6.864263E0,5.036101E0,5.905524E0,8.646366E0,6.1920323E0,5.1488037E0,6.8483214E0,2.462043E0,0E0,0E0,5.9982915E0,5.8372474E0,0E0,3.8477077E0,0E0,0E0,0E0,0E0,0E0,0E0,0E0,0E0,0E0,0E0],"parents":[2147483647,0,0,1,1,2,2,3,3,4,4,5,5,6,6,7,7,8,8,11,11,12,12,14,14],"right_children":[2,4,6,8,10,12,14,16,18,-1,-1,20,22,-1,24,-1,-1,-1,-1,-1,-1,-1,-1,-1,-1],"split_conditions":[-1.8117794E0,2.0834696E-1,2.5873463E0,-3.2448933E-1,-6.011976E-1,-1.7213548E0,-2.687229E-1,4.3095425E-1,1.6859542E-1,2.7405715E-4,1.7923458E-2,-1.1064818E0,1.9580001E0,-2.0710656E-3,-2.5287614E0,1.2368923E-2,-0E0,-5.9674815E-3,1.6070309E-3,-1.1815139E-2,-1.820926E-3,-3.0462215E-5,-4.106906E-3,2.3492589E-3,1.2622082E-2],"split_indices":[417,154,341,91,224,293,47,222,69,0,0,288,124,0,165,0,0,0,0,0,0,0,0,0,0],"split_type":[0,0,0,0,0,0,0,0,0,0,0,0,0,0,0,0,0,0,0,0,0,0,0,0,0],"sum_hessian":[1.2959752E3,4.1979362E1,1.2539958E3,3.176436E1,1.0215001E1,1.2310706E3,2.2925247E1,1.66902E1,1.507416E1,5.0256295E0,5.1893716E0,3.0706007E1,1.2003646E3,7.5858674E0,1.533938E1,6.297454E0,1.0392747E1,8.95974E0,6.11442E0,7.081244E0,2.3624763E1,1.1656252E3,3.4739315E1,8.947497E0,6.3918824E0],"tree_param":{"num_deleted":"0","num_feature":"420","num_nodes":"25","size_leaf_vector":"1"}},{"base_weights":[-1.1059182E-2,-2.1582432E-3,-5.5262077E-1,4.242848E-1,-1.5658814E-2,-1.0564985E-2,3.737411E-4,-0E0,9.991774E-1,2.925629E-1,-2.8611116E-2,-4.1351863E-3,3.7993353E-3,-1.5538132E-3,1.536805E-2,1.1117324E-2,1.2779001E-3,-1.8677149E-3,-3.3412143E-5],"categories":[],"categories_nodes":[],"categories_segments":[],"categories_sizes":[],"default_left":[0,0,0,0,0,0,0,0,0,0,0,0,0,0,0,0,0,0,0],"id":22,"left_children":[1,3,5,7,9,-1,-1,11,13,15,17,-1,-1,-1,-1,-1,-1,-1,-1],"loss_changes":[6.157812E0,7.281734E0,6.3032856E0,9.541875E0,4.9079695E0,0E0,0E0,3.9694905E0,1.0772055E1,6.349855E0,4.715424E0,0E0,0E0,0E0,0E0,0E0,0E0,0E0,0E0],"parents":[2147483647,0,0,1,1,2,2,3,3,4,4,7,7,8,8,9,9,10,10],"right_children":[2,4,6,8,10,-1,-1,12,14,16,18,-1,-1,-1,-1,-1,-1,-1,-1],"split_conditions":[2.4761465E0,-1.8117794E0,1.3050317E0,-5.693188E-1,-1.2104907E0,-1.0564985E-2,3.737411E-4,-9.848134E-2,-6.358377E-1,-3.8093776E-1,-9.351971E-1,-4.1351863E-3,3.7993353E-3,-1.5538132E-3,1.536805E-2,1.1117324E-2,1.2779001E-3,-1.8677149E-3,-3.3412143E-5],"split_indices":[357,417,316,322,409,0,0,62,199,85,225,0,0,0,0,0,0,0,0],"split_type":[0,0,0,0,0,0,0,0,0,0,0,0,0,0,0,0,0,0,0],"sum_hessian":[1.2878268E3,1.268666E3,1.9160772E1,3.7303734E1,1.2313622E3,9.786333E0,9.374439E0,2.2249279E1,1.5054453E1,4.8041122E1,1.1833212E3,1.0687313E1,1.1561967E1,5.0627165E0,9.991736E0,6.4998064E0,4.1541313E1,1.6115201E2,1.0221691E3],"tree_param":{"num_deleted":"0","num_feature":"420","num_nodes":"19","size_leaf_vector":"1"}},{"base_weights":[-3.8397075E-3,1.08517E-2,-2.898985E-1,-4.786429E-3,4.0287048E-1,-1.07079465E-2,-1.0223667E-1,2.6919046E-1,-2.0329276E-2,1.8814538E-1,1.5243523E-2,-0E0,-8.3177285E-3,5.382919E-3,-1.0396063E-3,4.931739E-4,-8.0551975E-4,-5.0023375E-3,3.1929093E-3,-4.0670456E-3,2.409791E-3],"categories":[],"categories_nodes":[],"categories_segments":[],"categories_sizes":[],"default_left":[0,0,0,0,0,0,0,0,0,0,0,0,0,0,0,0,0,0,0,0,0],"id":23,"left_children":[1,3,5,7,9,-1,11,13,15,17,-1,19,-1,-1,-1,-1,-1,-1,-1,-1,-1],"loss_changes":[5.401118E0,7.49813E0,8.919655E0,4.9686847E0,1.0696161E1,0E0,3.964707E0,6.414373E0,4.663123E0,3.937496E0,0E0,4.777329E0,0E0,0E0,0E0,0E0,0E0,0E0,0E0,0E0,0E0],"parents":[2147483647,0,0,1,1,2,2,3,3,4,4,6,6,7,7,8,8,9,9,11,11],"right_children":[2,4,6,8,10,-1,12,14,16,18,-1,20,-1,-1,-1,-1,-1,-1,-1,-1,-1],"split_conditions":[2.2432718E0,1.346989E0,-6.1266655E-1,-1.2104907E0,8.9080673E-1,-1.07079465E-2,9.581613E-1,1.5539333E0,6.353488E-2,-1.1766051E0,1.5243523E-2,-4.8599057E-2,-8.3177285E-3,5.382919E-3,-1.0396063E-3,4.931739E-4,-8.0551975E-4,-5.0023375E-3,3.1929093E-3,-4.0670456E-3,2.409791E-3],"split_indices":[399,283,372,409,371,0,183,387,178,324,0,169,0,0,0,0,0,0,0,0,0],"split_type":[0,0,0,0,0,0,0,0,0,0,0,0,0,0,0,0,0,0,0,0,0],"sum_hessian":[1.2759203E3,1.2146327E3,6.1287582E1,1.1692178E3,4.541499E1,1.0403756E1,5.0883823E1,6.1109825E1,1.1081079E3,3.966192E1,5.7530737E0,4.5861797E1,5.0220284E0,3.5275043E1,2.5834782E1,5.1320496E2,5.949029E2,5.549377E0,3.411254E1,1.657267E1,2.9289125E1],"tree_param":{"num_deleted":"0","num_feature":"420","num_nodes":"21","size_leaf_vector":"1"}},{"base_weights":[7.283112E-3,2.080541E-2,-4.387117E-1,-4.740366E-2,1.04995094E-1,-1.4179946E-1,-8.348086E-1,-7.438774E-2,2.540105E-1,2.3536082E-1,-4.2464477E-3,4.0958254E-3,-3.6140939E-3,-1.2153177E-2,-2.2210178E-3,-9.259941E-3,-6.314459E-4,-2.8872946E-3,3.686864E-3,1.0328524E-2,2.0126614E-3,-5.6042587E-3,2.4239047E-4],"categories":[],"categories_nodes":[],"categories_segments":[],"categories_sizes":[],"default_left":[0,0,0,0,0,0,0,0,0,0,0,0,0,0,0,0,0,0,0,0,0,0,0],"id":24,"left_children":[1,3,5,7,9,11,13,15,17,19,21,-1,-1,-1,-1,-1,-1,-1,-1,-1,-1,-1,-1],"loss_changes":[7.8537173E0,7.3067865E0,4.230148E0,5.7201796E0,8.13623E0,3.1048503E0,3.1727276E0,5.9967465E0,3.7600803E0,6.637682E0,5.000465E0,0E0,0E0,0E0,0E0,0E0,0E0,0E0,0E0,0E0,0E0,0E0,0E0],"parents":[2147483647,0,0,1,1,2,2,3,3,4,4,5,5,6,6,7,7,8,8,9,9,10,10],"right_children":[2,4,6,8,10,12,14,16,18,20,22,-1,-1,-1,-1,-1,-1,-1,-1,-1,-1,-1,-1],"split_conditions":[2.176607E0,-1.3161856E-1,2.7789307E-1,1.056869E0,-6.667339E-2,-1.814135E-1,3.8482022E-1,-1.9610682E0,-6.4460665E-1,-1.5826018E0,-1.2476515E0,4.0958254E-3,-3.6140939E-3,-1.2153177E-2,-2.2210178E-3,-9.259941E-3,-6.314459E-4,-2.8872946E-3,3.686864E-3,1.0328524E-2,2.0126614E-3,-5.6042587E-3,2.4239047E-4],"split_indices":[330,37,219,220,200,127,80,405,33,389,228,0,0,0,0,0,0,0,0,0,0,0,0],"split_type":[0,0,0,0,0,0,0,0,0,0,0,0,0,0,0,0,0,0,0,0,0,0,0],"sum_hessian":[1.3054113E3,1.2686022E3,3.6809017E1,7.005202E2,5.6808203E2,2.2347153E1,1.4461863E1,6.443008E2,5.621939E1,2.586273E2,3.094547E2,5.866077E0,1.6481077E1,7.910632E0,6.551231E0,6.6892753E0,6.376115E2,9.25735E0,4.696204E1,8.681807E0,2.499455E2,1.3883267E1,2.9557144E2],"tree_param":{"num_deleted":"0","num_feature":"420","num_nodes":"23","size_leaf_vector":"1"}},{"base_weights":[-8.2684485E-3,4.266114E-1,-2.0908145E-2,9.448181E-1,1.3676697E-1,-7.378171E-2,7.102707E-2,1.5963644E-2,1.0964598E-3,-3.3949813E-1,5.6626034E-1,-3.202663E-1,-4.2104963E-2,1.1745573E-1,-2.3047641E-1,-7.1841255E-3,1.2791599E-3,1.1026272E-2,-6.310491E-4,-1.9378068E-3,-1.1691159E-2,-5.275836E-4,7.5376127E-3,9.3604475E-3,9.5741655E-4,-5.973936E-3,-0E0],"categories":[],"categories_nodes":[],"categories_segments":[],"categories_sizes":[],"default_left":[0,0,0,0,0,0,0,0,0,0,0,0,0,0,0,0,0,0,0,0,0,0,0,0,0,0,0],"id":25,"left_children":[1,3,5,7,9,11,13,-1,-1,15,17,19,21,23,25,-1,-1,-1,-1,-1,-1,-1,-1,-1,-1,-1,-1],"loss_changes":[7.037795E0,5.127506E0,6.087494E0,6.4170284E0,5.437109E0,6.154142E0,6.4226685E0,0E0,0E0,2.4480114E0,4.883543E0,9.18657E0,5.9834385E0,6.8200297E0,5.182235E0,0E0,0E0,0E0,0E0,0E0,0E0,0E0,0E0,0E0,0E0,0E0,0E0],"parents":[2147483647,0,0,1,1,2,2,3,3,4,4,5,5,6,6,9,9,10,10,11,11,12,12,13,13,14,14],"right_children":[2,4,6,8,10,12,14,-1,-1,16,18,20,22,24,26,-1,-1,-1,-1,-1,-1,-1,-1,-1,-1,-1,-1],"split_conditions":[-1.7741029E0,-6.73365E-1,7.2939426E-2,1.257838E0,-3.107999E-1,-8.888755E-1,1.3201264E0,1.5963644E-2,1.0964598E-3,-1.0289869E-2,4.1279897E-1,6.555619E-1,1.9737155E0,-1.4102583E0,-2.7705066E-2,-7.1841255E-3,1.2791599E-3,1.1026272E-2,-6.310491E-4,-1.9378068E-3,-1.1691159E-2,-5.275836E-4,7.5376127E-3,9.3604475E-3,9.5741655E-4,-5.973936E-3,-0E0],"split_indices":[398,189,37,308,391,36,197,0,0,286,246,383,185,156,288,0,0,0,0,0,0,0,0,0,0,0,0],"split_type":[0,0,0,0,0,0,0,0,0,0,0,0,0,0,0,0,0,0,0,0,0,0,0,0,0,0,0],"sum_hessian":[1.2838027E3,3.4648586E1,1.249154E3,1.1088702E1,2.3559881E1,7.939331E2,4.5522098E2,5.393884E0,5.6948185E0,1.121028E1,1.2349602E1,8.84966E1,7.054365E2,3.955564E2,5.966458E1,5.864561E0,5.3457193E0,6.1442227E0,6.205379E0,7.8726006E1,9.77059E0,6.976244E2,7.8121266E0,8.470326E0,3.870861E2,2.212497E1,3.753961E1],"tree_param":{"num_deleted":"0","num_feature":"420","num_nodes":"27","size_leaf_vector":"1"}},{"base_weights":[-4.4574174E-3,2.4843025E-1,-2.5704063E-2,1.5015297E-1,9.9218935E-3,-2.7148044E-1,-5.198355E-3,2.7248964E-1,-4.183256E-3,-3.93891E-1,2.8122872E-1,-2.6891593E-2,2.4343261E-1,4.9698404E-3,-3.9104247E-4,-1.0891332E-2,-2.479018E-3,-1.0255356E-3,6.308727E-3,-6.2646955E-4,1.4676623E-3,8.866223E-3,1.4173897E-3],"categories":[],"categories_nodes":[],"categories_segments":[],"categories_sizes":[],"default_left":[0,0,0,0,0,0,0,0,0,0,0,0,0,0,0,0,0,0,0,0,0,0,0],"id":26,"left_children":[1,3,5,7,-1,9,11,13,-1,15,17,19,21,-1,-1,-1,-1,-1,-1,-1,-1,-1,-1],"loss_changes":[7.0332127E0,7.07493E0,6.0756507E0,6.517169E0,0E0,6.4617915E0,6.029302E0,5.4134474E0,0E0,7.2579994E0,2.5073683E0,6.4126015E0,5.573333E0,0E0,0E0,0E0,0E0,0E0,0E0,0E0,0E0,0E0,0E0],"parents":[2147483647,0,0,1,1,2,2,3,3,5,5,6,6,7,7,9,9,10,10,11,11,12,12],"right_children":[2,4,6,8,-1,10,12,14,-1,16,18,20,22,-1,-1,-1,-1,-1,-1,-1,-1,-1,-1],"split_conditions":[-1.2767445E0,8.316984E-1,-8.637623E-1,9.466043E-1,9.9218935E-3,8.8538677E-1,1.7113149E0,2.9155076E-1,-4.183256E-3,-1.4515663E0,-4.6812704E-1,6.9092846E-1,-7.3490864E-1,4.9698404E-3,-3.9104247E-4,-1.0891332E-2,-2.479018E-3,-1.0255356E-3,6.308727E-3,-6.2646955E-4,1.4676623E-3,8.866223E-3,1.4173897E-3],"split_indices":[389,118,389,98,0,160,28,73,0,405,309,122,414,0,0,0,0,0,0,0,0,0,0],"split_type":[0,0,0,0,0,0,0,0,0,0,0,0,0,0,0,0,0,0,0,0,0,0,0],"sum_hessian":[1.309851E3,9.9911476E1,1.2099395E3,8.996159E1,9.949878E0,9.1385056E1,1.1185544E3,7.481772E1,1.5143875E1,7.53164E1,1.606866E1,1.0303918E3,8.81625E1,4.3154568E1,3.1663153E1,1.1269983E1,6.404642E1,8.029364E0,8.039296E0,8.557347E2,1.746572E2,1.032131E1,7.784119E1],"tree_param":{"num_deleted":"0","num_feature":"420","num_nodes":"23","size_leaf_vector":"1"}},{"base_weights":[-8.160269E-3,2.0979774E-1,-2.7779547E-2,1.0991166E-2,1.2405797E-1,-2.6433545E-1,-3.9897645E-3,5.242623E-1,-1.9644354E-2,-1.6370279E-1,-9.6199197E-1,-1.3743569E-2,5.586793E-1,1.1558284E-2,2.1129965E-3,-1.4387177E-3,4.420668E-3,-2.8644612E-3,5.3114747E-3,-2.401838E-3,-1.4078563E-2,7.705943E-4,-7.1760727E-4,-1.3465526E-3,8.822304E-3],"categories":[],"categories_nodes":[],"categories_segments":[],"categories_sizes":[],"default_left":[0,0,0,0,0,0,0,0,0,0,0,0,0,0,0,0,0,0,0,0,0,0,0,0,0],"id":27,"left_children":[1,3,5,-1,7,9,11,13,15,17,19,21,23,-1,-1,-1,-1,-1,-1,-1,-1,-1,-1,-1,-1],"loss_changes":[5.444331E0,7.685263E0,6.56609E0,0E0,5.6806726E0,7.14022E0,5.810928E0,4.6424274E0,4.258285E0,8.319462E0,3.5162697E0,5.539858E0,4.2990355E0,0E0,0E0,0E0,0E0,0E0,0E0,0E0,0E0,0E0,0E0,0E0,0E0],"parents":[2147483647,0,0,1,1,2,2,4,4,5,5,6,6,7,7,8,8,9,9,10,10,11,11,12,12],"right_children":[2,4,6,-1,8,10,12,14,16,18,20,22,24,-1,-1,-1,-1,-1,-1,-1,-1,-1,-1,-1,-1],"split_conditions":[-1.2767445E0,-1.766012E0,-8.106713E-1,1.0991166E-2,-3.9234215E-1,8.5606366E-1,2.187012E0,-3.5340437E-1,9.792303E-3,8.581376E-1,2.1983165E-2,-3.146073E-1,-2.5551853E-1,1.1558284E-2,2.1129965E-3,-1.4387177E-3,4.420668E-3,-2.8644612E-3,5.3114747E-3,-2.401838E-3,-1.4078563E-2,7.705943E-4,-7.1760727E-4,-1.3465526E-3,8.822304E-3],"split_indices":[389,405,389,0,4,115,241,351,417,163,117,199,221,0,0,0,0,0,0,0,0,0,0,0,0],"split_type":[0,0,0,0,0,0,0,0,0,0,0,0,0,0,0,0,0,0,0,0,0,0,0,0,0],"sum_hessian":[1.2738888E3,1.03576866E2,1.170312E3,7.446312E0,9.6130554E1,1.0517036E2,1.0651416E3,2.4532413E1,7.159814E1,9.365632E1,1.1514041E1,1.0486052E3,1.6536367E1,6.6842117E0,1.7848202E1,5.7402637E1,1.4195503E1,8.046751E1,1.3188807E1,5.3634677E0,6.1505737E0,4.079322E2,6.4067303E2,5.441815E0,1.1094552E1],"tree_param":{"num_deleted":"0","num_feature":"420","num_nodes":"25","size_leaf_vector":"1"}},{"base_weights":[1.0355288E-2,1.5563522E-3,4.8360246E-1,3.5311315E-2,-1.18682005E-1,8.3298707E-1,-1.9004403E-3,1.1953942E-2,3.1689367E-1,-1.3975033E-1,7.6462906E-3,1.2406069E-2,-0E0,-1.2242692E-4,2.333905E-3,-4.0411702E-4,5.422487E-3,1.0376611E-3,-2.0454333E-3],"categories":[],"categories_nodes":[],"categories_segments":[],"categories_sizes":[],"default_left":[0,0,0,0,0,0,0,0,0,0,0,0,0,0,0,0,0,0,0],"id":28,"left_children":[1,3,5,7,9,11,-1,13,15,17,-1,-1,-1,-1,-1,-1,-1,-1,-1],"loss_changes":[5.452373E0,5.2697234E0,5.9282928E0,6.6436276E0,5.3906474E0,5.507328E0,0E0,5.0632396E0,6.318147E0,4.446605E0,0E0,0E0,0E0,0E0,0E0,0E0,0E0,0E0,0E0],"parents":[2147483647,0,0,1,1,2,2,3,3,4,4,5,5,7,7,8,8,9,9],"right_children":[2,4,6,8,10,12,-1,14,16,18,-1,-1,-1,-1,-1,-1,-1,-1,-1],"split_conditions":[2.3039439E0,8.4726846E-1,8.83303E-2,1.0185766E0,2.3712602E0,4.567399E-1,-1.9004403E-3,1.4242957E0,-5.8507722E-2,-6.6771734E-1,7.6462906E-3,1.2406069E-2,-0E0,-1.2242692E-4,2.333905E-3,-4.0411702E-4,5.422487E-3,1.0376611E-3,-2.0454333E-3],"split_indices":[41,358,160,241,415,329,0,7,221,160,0,0,0,0,0,0,0,0,0],"split_type":[0,0,0,0,0,0,0,0,0,0,0,0,0,0,0,0,0,0,0],"sum_hessian":[1.3198073E3,1.2974012E3,2.2405937E1,1.01449066E3,2.8291058E2,1.4618002E1,7.7879353E0,9.385559E2,7.5934784E1,2.776638E2,5.2468166E0,9.344665E0,5.273337E0,8.469718E2,9.158412E1,2.9673725E1,4.6261063E1,5.7838673E1,2.198251E2],"tree_param":{"num_deleted":"0","num_feature":"420","num_nodes":"19","size_leaf_vector":"1"}},{"base_weights":[-9.359074E-3,3.2026893E-1,-2.3839155E-2,-3.4217966E-1,5.876857E-1,-1.0437922E-2,-3.8747603E-1,-1.0043588E-2,1.6989844E-3,1.7250482E-2,2.535405E-1,1.0890264E-1,-5.506899E-2,-9.749989E-2,-7.903864E-1,-1.9033138E-3,5.528165E-3,1.738127E-3,-2.564038E-3,-1.8495859E-3,3.940212E-5,-7.2108144E-3,1.365725E-3,-1.6511505E-2,-2.108184E-3],"categories":[],"categories_nodes":[],"categories_segments":[],"categories_sizes":[],"default_left":[0,0,0,0,0,0,0,0,0,0,0,0,0,0,0,0,0,0,0,0,0,0,0,0,0],"id":29,"left_children":[1,3,5,7,9,11,13,-1,-1,-1,15,17,19,21,23,-1,-1,-1,-1,-1,-1,-1,-1,-1,-1],"loss_changes":[6.1110883E0,9.865747E0,5.956905E0,5.8757095E0,1.3976609E1,6.340946E0,4.875052E0,0E0,0E0,0E0,4.443408E0,7.7353306E0,6.6688566E0,4.167058E0,8.191178E0,0E0,0E0,0E0,0E0,0E0,0E0,0E0,0E0,0E0,0E0],"parents":[2147483647,0,0,1,1,2,2,3,3,4,4,5,5,6,6,10,10,11,11,12,12,13,13,14,14],"right_children":[2,4,6,8,10,12,14,-1,-1,-1,16,18,20,22,24,-1,-1,-1,-1,-1,-1,-1,-1,-1,-1],"split_conditions":[-1.5602243E0,-5.236483E-1,1.9253106E0,-2.8095815E-1,-5.351265E-1,-7.151115E-1,-5.058906E-3,-1.0043588E-2,1.6989844E-3,1.7250482E-2,-5.084048E-1,9.594394E-1,-5.384073E-1,-1.795098E-2,-2.796429E-1,-1.9033138E-3,5.528165E-3,1.738127E-3,-2.564038E-3,-1.8495859E-3,3.940212E-5,-7.2108144E-3,1.365725E-3,-1.6511505E-2,-2.108184E-3],"split_indices":[414,266,327,368,236,91,234,0,0,0,186,267,282,328,301,0,0,0,0,0,0,0,0,0,0],"split_type":[0,0,0,0,0,0,0,0,0,0,0,0,0,0,0,0,0,0,0,0,0,0,0,0,0],"sum_hessian":[1.2826456E3,5.235021E1,1.2302954E3,1.4827071E1,3.7523136E1,1.18832E3,4.1975502E1,5.9222093E0,8.904861E0,7.03484E0,3.0488297E1,3.222483E2,8.6607166E2,2.5636204E1,1.6339296E1,1.2363399E1,1.8124899E1,2.7452832E2,4.771996E1,2.7007724E2,5.959944E2,6.261516E0,1.9374687E1,5.389284E0,1.0950013E1],"tree_param":{"num_deleted":"0","num_feature":"420","num_nodes":"25","size_leaf_vector":"1"}},{"base_weights":[1.4784036E-2,2.5691068E-2,-5.007566E-1,5.743234E-1,1.3341538E-2,-9.374099E-1,4.0609173E-2,2.0331968E-1,1.5788617E-2,2.7184105E-2,-4.2391545E-1,-3.6723225E-3,-1.514784E-2,4.59998E-3,-3.0632496E-3,5.711693E-3,-7.5344834E-3,1.01840385E-4,2.7803916E-3,-1.1063595E-2,-1.9443212E-3],"categories":[],"categories_nodes":[],"categories_segments":[],"categories_sizes":[],"default_left":[0,0,0,0,0,0,0,0,0,0,0,0,0,0,0,0,0,0,0,0,0],"id":30,"left_children":[1,3,5,7,9,11,13,15,-1,17,19,-1,-1,-1,-1,-1,-1,-1,-1,-1,-1],"loss_changes":[7.2425346E0,8.519937E0,6.451873E0,9.662549E0,7.4930983E0,3.8919783E0,2.153717E0,8.377531E0,0E0,5.106535E0,5.4938297E0,0E0,0E0,0E0,0E0,0E0,0E0,0E0,0E0,0E0,0E0],"parents":[2147483647,0,0,1,1,2,2,3,3,4,4,5,5,6,6,7,7,9,9,10,10],"right_children":[2,4,6,8,10,12,14,16,-1,18,20,-1,-1,-1,-1,-1,-1,-1,-1,-1,-1],"split_conditions":[2.383987E0,-1.9347419E0,3.176196E-1,1.7153083E-1,2.176607E0,-8.314196E-3,2.2908247E0,-5.1931816E-1,1.5788617E-2,1.6622883E0,-3.8244674E-1,-3.6723225E-3,-1.514784E-2,4.59998E-3,-3.0632496E-3,5.711693E-3,-7.5344834E-3,1.01840385E-4,2.7803916E-3,-1.1063595E-2,-1.9443212E-3],"split_indices":[357,417,120,154,330,267,21,330,0,182,178,0,0,0,0,0,0,0,0,0,0],"split_type":[0,0,0,0,0,0,0,0,0,0,0,0,0,0,0,0,0,0,0,0,0],"sum_hessian":[1.2915322E3,1.2663596E3,2.5172508E1,2.61969E1,1.2401627E3,1.3428642E1,1.1743866E1,2.0521055E1,5.6758432E0,1.203692E3,3.6470722E1,8.078294E0,5.3503485E0,5.225932E0,6.517934E0,1.5334454E1,5.186602E0,1.129132E3,7.4560036E1,7.6257253E0,2.8845E1],"tree_param":{"num_deleted":"0","num_feature":"420","num_nodes":"21","size_leaf_vector":"1"}},{"base_weights":[-1.3310811E-3,4.794798E-1,-1.3600639E-2,1.9795236E-1,1.4293166E-2,-3.5405806E-3,-5.126102E-1,-3.8024217E-1,5.9498614E-1,-2.496815E-2,2.254828E-1,-8.216716E-1,1.2497784E-3,-8.36462E-3,1.4415283E-3,1.04209455E-2,-2.1767002E-3,4.500168E-3,-3.4152067E-4,-1.4851667E-3,3.7603911E-3,-3.2221256E-3,-1.2872214E-2],"categories":[],"categories_nodes":[],"categories_segments":[],"categories_sizes":[],"default_left":[0,0,0,0,0,0,0,0,0,0,0,0,0,0,0,0,0,0,0,0,0,0,0],"id":31,"left_children":[1,3,5,7,-1,9,11,13,15,17,19,21,-1,-1,-1,-1,-1,-1,-1,-1,-1,-1,-1],"loss_changes":[7.635675E0,8.023632E0,6.32047E0,6.48129E0,0E0,6.105376E0,5.1279383E0,3.0412936E0,6.4158626E0,4.9613113E0,6.097346E0,3.1851797E0,0E0,0E0,0E0,0E0,0E0,0E0,0E0,0E0,0E0,0E0,0E0],"parents":[2147483647,0,0,1,1,2,2,3,3,5,5,6,6,7,7,8,8,9,9,10,10,11,11],"right_children":[2,4,6,8,-1,10,12,14,16,18,20,22,-1,-1,-1,-1,-1,-1,-1,-1,-1,-1,-1],"split_conditions":[-1.9347419E0,3.505549E-1,2.352857E0,-2.476349E-1,1.4293166E-2,1.0441097E0,1.0386517E0,-4.2600903E-1,-2.513794E-1,-1.2596118E0,-1.1279374E0,-8.4720343E-1,1.2497784E-3,-8.36462E-3,1.4415283E-3,1.04209455E-2,-2.1767002E-3,4.500168E-3,-3.4152067E-4,-1.4851667E-3,3.7603911E-3,-3.2221256E-3,-1.2872214E-2],"split_indices":[417,110,294,179,0,241,237,119,361,273,387,259,0,0,0,0,0,0,0,0,0,0,0],"split_type":[0,0,0,0,0,0,0,0,0,0,0,0,0,0,0,0,0,0,0,0,0,0,0],"sum_hessian":[1.2990667E3,3.0701195E1,1.2683655E3,2.5161367E1,5.5398264E0,1.2449777E3,2.3387775E1,1.0166952E1,1.4994415E1,1.1400839E3,1.0489384E2,1.55661E1,7.821675E0,5.0615172E0,5.1054354E0,9.478871E0,5.515544E0,2.0053314E1,1.1200305E3,2.9921484E1,7.497235E1,8.837679E0,6.7284207E0],"tree_param":{"num_deleted":"0","num_feature":"420","num_nodes":"23","size_leaf_vector":"1"}},{"base_weights":[3.471638E-3,2.882464E-1,-1.25929145E-2,-9.3256906E-2,6.5142524E-1,-1.043492E-3,-4.7769323E-1,3.0910803E-3,-4.0694612E-1,-2.5905757E-3,8.6115813E-1,-7.1940892E-3,8.1053125E-3,-0E0,-7.4670684E-1,-9.060196E-4,-8.460072E-3,1.3887352E-2,4.2452654E-3,1.1906012E-4,-2.4557305E-3,-1.4626163E-2,-2.4336064E-3],"categories":[],"categories_nodes":[],"categories_segments":[],"categories_sizes":[],"default_left":[0,0,0,0,0,0,0,0,0,0,0,0,0,0,0,0,0,0,0,0,0,0,0],"id":32,"left_children":[1,3,5,7,9,11,13,-1,15,-1,17,19,-1,-1,21,-1,-1,-1,-1,-1,-1,-1,-1],"loss_changes":[6.0130773E0,9.873085E0,6.6040707E0,4.668206E0,7.3236847E0,5.9692726E0,3.836504E0,0E0,2.6645927E0,0E0,5.828308E0,5.5036964E0,0E0,0E0,6.169162E0,0E0,0E0,0E0,0E0,0E0,0E0,0E0,0E0],"parents":[2147483647,0,0,1,1,2,2,3,3,4,4,5,5,6,6,8,8,10,10,11,11,14,14],"right_children":[2,4,6,8,10,12,14,-1,16,-1,18,20,-1,-1,22,-1,-1,-1,-1,-1,-1,-1,-1],"split_conditions":[-1.4588388E0,-9.1664925E-2,2.3128998E0,-1.0032916E0,-5.967398E-1,3.4574206E0,-3.7412077E-1,3.0910803E-3,3.77104E-1,-2.5905757E-3,-2.1804698E-1,1.6259215E0,8.1053125E-3,-0E0,-5.7693392E-2,-9.060196E-4,-8.460072E-3,1.3887352E-2,4.2452654E-3,1.1906012E-4,-2.4557305E-3,-1.4626163E-2,-2.4336064E-3],"split_indices":[389,144,330,174,246,383,51,0,395,0,286,301,0,0,305,0,0,0,0,0,0,0,0],"split_type":[0,0,0,0,0,0,0,0,0,0,0,0,0,0,0,0,0,0,0,0,0,0,0],"sum_hessian":[1.3056816E3,6.869754E1,1.2369841E3,3.3912956E1,3.478458E1,1.2086882E3,2.8295908E1,1.4726541E1,1.9186417E1,6.357244E0,2.8427336E1,1.2011948E3,7.4934497E0,1.0720928E1,1.757498E1,1.2335767E1,6.8506494E0,1.1288134E1,1.7139202E1,1.1130198E3,8.8175064E1,5.993324E0,1.1581656E1],"tree_param":{"num_deleted":"0","num_feature":"420","num_nodes":"23","size_leaf_vector":"1"}},{"base_weights":[-7.5676013E-3,4.728442E-3,-3.944136E-1,2.4459993E-2,-2.1061201E-1,-5.69213E-1,1.4655917E-3,3.2474805E-2,-6.517157E-1,-9.553232E-3,-1.1458277E-1,-1.1664412E-2,-3.1884573E-3,1.9218888E-4,4.707843E-3,5.321663E-4,-1.1648776E-2,-4.4067283E-3,2.065624E-4],"categories":[],"categories_nodes":[],"categories_segments":[],"categories_sizes":[],"default_left":[0,0,0,0,0,0,0,0,0,0,0,0,0,0,0,0,0,0,0],"id":33,"left_children":[1,3,5,7,9,11,-1,13,15,-1,17,-1,-1,-1,-1,-1,-1,-1,-1],"loss_changes":[6.1539707E0,5.2860055E0,3.9360118E0,6.168289E0,7.192732E0,3.8642683E0,0E0,6.514148E0,5.0237746E0,0E0,4.213069E0,0E0,0E0,0E0,0E0,0E0,0E0,0E0,0E0],"parents":[2147483647,0,0,1,1,2,2,3,3,4,4,5,5,7,7,8,8,10,10],"right_children":[2,4,6,8,10,12,-1,14,16,-1,18,-1,-1,-1,-1,-1,-1,-1,-1],"split_conditions":[2.176607E0,1.6259215E0,2.487875E-1,2.4761465E0,-9.8282504E-1,-5.460426E-1,1.4655917E-3,1.9763602E0,-6.582416E-1,-9.553232E-3,-4.8590174E-1,-1.1664412E-2,-3.1884573E-3,1.9218888E-4,4.707843E-3,5.321663E-4,-1.1648776E-2,-4.4067283E-3,2.065624E-4],"split_indices":[330,301,204,357,99,347,0,270,224,0,330,0,0,0,0,0,0,0,0],"split_type":[0,0,0,0,0,0,0,0,0,0,0,0,0,0,0,0,0,0,0],"sum_hessian":[1.2834742E3,1.2451207E3,3.835346E1,1.1422507E3,1.0286994E2,2.9067654E1,9.285805E0,1.1304275E3,1.1823276E1,1.0097744E1,9.27722E1,6.8469887E0,2.2220665E1,1.0989845E3,3.1442976E1,5.4652367E0,6.358039E0,2.6419903E1,6.6352295E1],"tree_param":{"num_deleted":"0","num_feature":"420","num_nodes":"19","size_leaf_vector":"1"}},{"base_weights":[3.220865E-3,3.853369E-1,-1.45654455E-2,1.2894078E-2,1.9753745E-1,2.4239471E-2,-1.5050277E-1,4.4961524E-1,-2.0153509E-1,-3.078923E-3,2.324916E-1,-4.3930624E-2,-4.0545836E-1,-4.3985728E-4,1.0258909E-2,-7.714909E-3,9.327619E-4,-5.2374154E-3,8.9070636E-5,5.1323134E-3,3.414564E-4,-1.5030582E-3,2.404749E-3,1.5636043E-3,-6.3949474E-3],"categories":[],"categories_nodes":[],"categories_segments":[],"categories_sizes":[],"default_left":[0,0,0,0,0,0,0,0,0,0,0,0,0,0,0,0,0,0,0,0,0,0,0,0,0],"id":34,"left_children":[1,3,5,-1,7,9,11,13,15,17,19,21,23,-1,-1,-1,-1,-1,-1,-1,-1,-1,-1,-1,-1],"loss_changes":[8.907166E0,9.367054E0,6.5964594E0,0E0,5.2039275E0,5.547328E0,7.474246E0,9.081322E0,3.5850508E0,5.421232E0,6.2129674E0,6.0296817E0,1.0902243E1,0E0,0E0,0E0,0E0,0E0,0E0,0E0,0E0,0E0,0E0,0E0,0E0],"parents":[2147483647,0,0,1,1,2,2,4,4,5,5,6,6,7,7,8,8,9,9,10,10,11,11,12,12],"right_children":[2,4,6,-1,8,10,12,14,16,18,20,22,24,-1,-1,-1,-1,-1,-1,-1,-1,-1,-1,-1,-1],"split_conditions":[-1.5416973E0,-1.0059539E0,3.3461156E-1,1.2894078E-2,2.4806394E-1,1.0196272E0,2.3239018E-1,-3.8814336E-1,6.421913E-1,-2.0838442E0,-2.9240602E-1,6.2502205E-1,-6.621599E-1,-4.3985728E-4,1.0258909E-2,-7.714909E-3,9.327619E-4,-5.2374154E-3,8.9070636E-5,5.1323134E-3,3.414564E-4,-1.5030582E-3,2.404749E-3,1.5636043E-3,-6.3949474E-3],"split_indices":[389,414,391,0,113,185,263,79,43,312,137,418,98,0,0,0,0,0,0,0,0,0,0,0,0],"split_type":[0,0,0,0,0,0,0,0,0,0,0,0,0,0,0,0,0,0,0,0,0,0,0,0,0],"sum_hessian":[1.3023702E3,5.679645E1,1.2455739E3,8.163909E0,4.8632545E1,9.6935645E2,2.7621735E2,2.9842722E1,1.8789822E1,8.578251E2,1.11531364E2,1.9630994E2,7.9907425E1,1.6727228E1,1.3115495E1,5.6945176E0,1.3095304E1,1.8049887E1,8.397752E2,4.4980404E1,6.6550964E1,1.4364265E2,5.2667282E1,2.3519054E1,5.6388367E1],"tree_param":{"num_deleted":"0","num_feature":"420","num_nodes":"25","size_leaf_vector":"1"}},{"base_weights":[-7.9012085E-3,3.964718E-3,-5.1082003E-1,4.4346341E-1,-7.8147985E-3,-1.3023691E-2,-2.0122433E-1,1.1962317E-2,2.3295267E-1,-1.6885215E-2,5.4430974E-1,-5.155212E-1,2.002512E-3,8.863649E-3,-0E0,-6.476575E-5,-4.5883036E-3,-3.0445615E-3,1.0707978E-2,-2.110411E-4,-8.897736E-3],"categories":[],"categories_nodes":[],"categories_segments":[],"categories_sizes":[],"default_left":[0,0,0,0,0,0,0,0,0,0,0,0,0,0,0,0,0,0,0,0,0],"id":35,"left_children":[1,3,5,7,9,-1,11,-1,13,15,17,19,-1,-1,-1,-1,-1,-1,-1,-1,-1],"loss_changes":[7.7400594E0,6.5699043E0,6.7825713E0,4.688548E0,6.1108184E0,0E0,3.133318E0,0E0,4.1728497E0,5.514038E0,9.375399E0,2.4081464E0,0E0,0E0,0E0,0E0,0E0,0E0,0E0,0E0,0E0],"parents":[2147483647,0,0,1,1,2,2,3,3,4,4,6,6,8,8,9,9,10,10,11,11],"right_children":[2,4,6,8,10,-1,12,-1,14,16,18,20,-1,-1,-1,-1,-1,-1,-1,-1,-1],"split_conditions":[2.3128998E0,-1.8340564E0,-7.0927876E-1,-1.1955618E0,2.314593E0,-1.3023691E-2,6.7051374E-3,1.1962317E-2,-8.641188E-1,2.3435807E0,-8.215806E-1,2.8861824E-1,2.002512E-3,8.863649E-3,-0E0,-6.476575E-5,-4.5883036E-3,-3.0445615E-3,1.0707978E-2,-2.110411E-4,-8.897736E-3],"split_indices":[330,398,229,351,270,0,287,0,242,357,95,353,0,0,0,0,0,0,0,0,0],"split_type":[0,0,0,0,0,0,0,0,0,0,0,0,0,0,0,0,0,0,0,0,0],"sum_hessian":[1.2865118E3,1.2581171E3,2.8394829E1,3.1626799E1,1.2264902E3,6.5402446E0,2.1854584E1,5.272823E0,2.6353975E1,1.2082756E3,1.821456E1,1.215891E1,9.695675E0,5.735349E0,2.0618626E1,1.1821814E3,2.6094343E1,7.142533E0,1.1072027E1,6.0362835E0,6.122626E0],"tree_param":{"num_deleted":"0","num_feature":"420","num_nodes":"21","size_leaf_vector":"1"}},{"base_weights":[-8.8448515E-3,-2.007921E-2,3.6275315E-1,-1.3714856E-2,-9.924428E-3,-6.0101594E-3,1.1436956E0,-8.453474E-4,-4.2903584E-1,3.0676958E-1,-6.9878134E-3,2.0354742E-2,-6.548754E-4,-1.9556526E-4,2.122427E-3,1.2397413E-4,-7.924561E-3,8.388767E-3,-9.801015E-4],"categories":[],"categories_nodes":[],"categories_segments":[],"categories_sizes":[],"default_left":[0,0,0,0,0,0,0,0,0,0,0,0,0,0,0,0,0,0,0],"id":36,"left_children":[1,3,5,7,-1,9,11,13,15,17,-1,-1,-1,-1,-1,-1,-1,-1,-1],"loss_changes":[5.437195E0,7.746466E0,1.1125526E1,6.716112E0,0E0,6.2879157E0,1.37119465E1,4.884741E0,6.1526594E0,4.4595404E0,0E0,0E0,0E0,0E0,0E0,0E0,0E0,0E0,0E0],"parents":[2147483647,0,0,1,1,2,2,3,3,5,5,6,6,7,7,8,8,9,9],"right_children":[2,4,6,8,-1,10,12,14,16,18,-1,-1,-1,-1,-1,-1,-1,-1,-1],"split_conditions":[1.8330401E0,2.6324942E0,-8.060924E-1,1.6787151E0,-9.924428E-3,-2.171859E-1,9.5790666E-1,1.628076E0,-4.2706504E-1,-3.417797E-1,-6.9878134E-3,2.0354742E-2,-6.548754E-4,-1.9556526E-4,2.122427E-3,1.2397413E-4,-7.924561E-3,8.388767E-3,-9.801015E-4],"split_indices":[271,315,366,316,0,93,57,28,311,11,0,0,0,0,0,0,0,0,0],"split_type":[0,0,0,0,0,0,0,0,0,0,0,0,0,0,0,0,0,0,0],"sum_hessian":[1.3065178E3,1.2698162E3,3.6701736E1,1.2631724E3,6.64377E0,2.5853868E1,1.0847868E1,1.2268984E3,3.627394E1,1.8288301E1,7.565567E0,5.701018E0,5.1468496E0,1.1295452E3,9.735329E1,1.6908941E1,1.9365E1,7.3131433E0,1.0975158E1],"tree_param":{"num_deleted":"0","num_feature":"420","num_nodes":"19","size_leaf_vector":"1"}},{"base_weights":[-1.7323863E-2,2.7417013E-1,-3.9295617E-2,6.6048E-2,9.810292E-1,-2.97307E-1,-1.5783375E-2,-1.812527E-1,3.0155125E-1,2.0734216E-3,1.9993024E-2,-1.121708E-2,-1.9815747E-1,8.720595E-2,-8.158003E-2,-5.5543575E-3,1.9446326E-3,-1.8374399E-4,7.1196817E-3,-4.7226665E-3,3.492967E-4,2.088941E-3,-4.981081E-4,2.5020333E-3,-1.0782075E-3],"categories":[],"categories_nodes":[],"categories_segments":[],"categories_sizes":[],"default_left":[0,0,0,0,0,0,0,0,0,0,0,0,0,0,0,0,0,0,0,0,0,0,0,0,0],"id":37,"left_children":[1,3,5,7,9,11,13,15,17,-1,-1,-1,19,21,23,-1,-1,-1,-1,-1,-1,-1,-1,-1,-1],"loss_changes":[8.294036E0,1.3144196E1,7.2834E0,4.2757936E0,1.5243065E1,7.7379913E0,7.518772E0,5.2246013E0,5.0192337E0,0E0,0E0,0E0,5.9155865E0,7.235774E0,5.924575E0,0E0,0E0,0E0,0E0,0E0,0E0,0E0,0E0,0E0,0E0],"parents":[2147483647,0,0,1,1,2,2,3,3,4,4,5,5,6,6,7,7,8,8,12,12,13,13,14,14],"right_children":[2,4,6,8,10,12,14,16,18,-1,-1,-1,20,22,24,-1,-1,-1,-1,-1,-1,-1,-1,-1,-1],"split_conditions":[-1.2914666E0,3.47125E-1,-8.637623E-1,-1.9977558E-1,-2.660152E-1,-1.2696204E0,-2.3856278E-1,7.783848E-2,-2.007463E-1,2.0734216E-3,1.9993024E-2,-1.121708E-2,-5.768945E-2,4.0063627E-2,-1.0596763E0,-5.5543575E-3,1.9446326E-3,-1.8374399E-4,7.1196817E-3,-4.7226665E-3,3.492967E-4,2.088941E-3,-4.981081E-4,2.5020333E-3,-1.0782075E-3],"split_indices":[389,5,389,336,243,418,116,246,371,0,0,0,15,112,207,0,0,0,0,0,0,0,0,0,0],"split_type":[0,0,0,0,0,0,0,0,0,0,0,0,0,0,0,0,0,0,0,0,0,0,0,0,0],"sum_hessian":[1.2946493E3,8.922002E1,1.2054293E3,7.030236E1,1.8917658E1,9.88608E1,1.1065685E3,3.4253677E1,3.6048683E1,1.1831606E1,7.086051E0,8.844309E0,9.001649E1,4.305831E2,6.7598535E2,1.693571E1,1.7317965E1,2.0925869E1,1.5122813E1,4.0857784E1,4.9158707E1,2.2801765E2,2.0256544E2,4.832748E1,6.276579E2],"tree_param":{"num_deleted":"0","num_feature":"420","num_nodes":"25","size_leaf_vector":"1"}},{"base_weights":[-1.18180495E-2,3.786781E-1,-2.3360323E-2,6.546523E-1,-1.9830526E-3,2.67046E-1,-3.6916837E-2,1.12370335E-1,1.2319956E0,-1.2780192E-1,5.548704E-1,-2.4655508E-1,-1.2730031E-2,6.881833E-3,-4.0249513E-3,1.3204042E-3,2.0279182E-2,1.4457896E-3,-7.2847363E-3,7.564962E-3,-2.3788938E-3,-1.8515732E-3,-1.29876835E-2,-2.3029042E-6,-3.5696044E-3],"categories":[],"categories_nodes":[],"categories_segments":[],"categories_sizes":[],"default_left":[0,0,0,0,0,0,0,0,0,0,0,0,0,0,0,0,0,0,0,0,0,0,0,0,0],"id":38,"left_children":[1,3,5,7,-1,9,11,13,15,17,19,21,23,-1,-1,-1,-1,-1,-1,-1,-1,-1,-1,-1,-1],"loss_changes":[5.822885E0,6.1431127E0,4.957277E0,7.6546574E0,0E0,6.5252357E0,6.0877476E0,4.864595E0,1.0002966E1,4.2620554E0,5.576988E0,7.521634E0,4.6277804E0,0E0,0E0,0E0,0E0,0E0,0E0,0E0,0E0,0E0,0E0,0E0,0E0],"parents":[2147483647,0,0,1,1,2,2,3,3,5,5,6,6,7,7,8,8,9,9,10,10,11,11,12,12],"right_children":[2,4,6,8,-1,10,12,14,16,18,20,22,24,-1,-1,-1,-1,-1,-1,-1,-1,-1,-1,-1,-1],"split_conditions":[-1.8340564E0,4.8000646E-1,-1.5169214E0,4.2061865E-1,-1.9830526E-3,-1.3170858E-1,-8.637623E-1,-8.546736E-1,-1.1253426E0,3.362991E-1,-1.735285E-1,1.071699E0,2.3094094E0,6.881833E-3,-4.0249513E-3,1.3204042E-3,2.0279182E-2,1.4457896E-3,-7.2847363E-3,7.564962E-3,-2.3788938E-3,-1.8515732E-3,-1.29876835E-2,-2.3029042E-6,-3.5696044E-3],"split_indices":[398,139,393,350,0,144,389,256,33,103,396,412,0,0,0,0,0,0,0,0,0,0,0,0,0],"split_type":[0,0,0,0,0,0,0,0,0,0,0,0,0,0,0,0,0,0,0,0,0,0,0,0,0],"sum_hessian":[1.2953429E3,3.5569977E1,1.2597728E3,2.4041971E1,1.1528007E1,5.4605003E1,1.2051678E3,1.3410773E1,1.0631199E1,2.3227377E1,3.1377628E1,1.2280809E2,1.0823597E3,6.184011E0,7.2267623E0,5.2501054E0,5.3810935E0,1.6649818E1,6.577558E0,2.5170639E1,6.2069902E0,1.1779369E2,5.014394E0,1.0461628E3,3.61969E1],"tree_param":{"num_deleted":"0","num_feature":"420","num_nodes":"25","size_leaf_vector":"1"}},{"base_weights":[-1.4167535E-3,6.519231E-1,-8.843396E-3,1.18314875E-2,-1.5386373E-4,3.0436737E-3,-3.758667E-1,-5.9451917E-3,4.7142917E-1,-5.673064E-1,1.6190018E-1,-1.5242798E-4,4.3080263E-3,7.6115653E-3,-1.5652387E-3,-7.847254E-3,4.4257054E-4,-2.79827E-3,5.8850124E-3],"categories":[],"categories_nodes":[],"categories_segments":[],"categories_sizes":[],"default_left":[0,0,0,0,0,0,0,0,0,0,0,0,0,0,0,0,0,0,0],"id":39,"left_children":[1,3,5,-1,-1,7,9,11,13,15,17,-1,-1,-1,-1,-1,-1,-1,-1],"loss_changes":[6.2057776E0,5.239092E0,5.6128697E0,0E0,0E0,5.2661004E0,4.332945E0,4.9088454E0,4.524311E0,4.14587E0,2.4684248E0,0E0,0E0,0E0,0E0,0E0,0E0,0E0,0E0],"parents":[2147483647,0,0,1,1,2,2,5,5,6,6,7,7,8,8,9,9,10,10],"right_children":[2,4,6,-1,-1,8,10,12,14,16,18,-1,-1,-1,-1,-1,-1,-1,-1],"split_conditions":[-2.4565797E0,2.2785555E-1,2.176607E0,1.18314875E-2,-1.5386373E-4,2.5873463E0,5.6799835E-1,2.4721086E0,5.679185E-1,7.761605E-1,-3.38044E-1,-1.5242798E-4,4.3080263E-3,7.6115653E-3,-1.5652387E-3,-7.847254E-3,4.4257054E-4,-2.79827E-3,5.8850124E-3],"split_indices":[393,92,330,0,0,341,413,133,18,193,106,0,0,0,0,0,0,0,0],"split_type":[0,0,0,0,0,0,0,0,0,0,0,0,0,0,0,0,0,0,0],"sum_hessian":[1.2889537E3,1.2872707E1,1.276081E3,6.6049967E0,6.2677107E0,1.2372252E3,3.8855873E1,1.215172E3,2.2053112E1,2.8731356E1,1.0124518E1,1.191484E3,2.3688023E1,1.498181E1,7.071302E0,2.1003223E1,7.7281322E0,5.1124587E0,5.01206E0],"tree_param":{"num_deleted":"0","num_feature":"420","num_nodes":"19","size_leaf_vector":"1"}},{"base_weights":[1.612083E-3,1.8223492E-2,-2.9625648E-1,1.1571358E-2,7.5401226E-3,4.1784227E-2,-5.6643164E-1,-8.638695E-3,2.1617512E-1,-1.4603265E-3,5.862598E-3,-1.3694462E-2,-3.6646473E-1,-2.9564268E-4,2.302429E-3,4.7217906E-3,-7.673931E-4,-9.001821E-3,-1.6730014E-3],"categories":[],"categories_nodes":[],"categories_segments":[],"categories_sizes":[],"default_left":[0,0,0,0,0,0,0,0,0,0,0,0,0,0,0,0,0,0,0],"id":40,"left_children":[1,3,5,7,-1,9,11,13,15,-1,-1,-1,17,-1,-1,-1,-1,-1,-1],"loss_changes":[6.2735386E0,5.815258E0,6.2026653E0,4.9743266E0,0E0,3.3397977E0,5.091791E0,5.4419427E0,8.202505E0,0E0,0E0,0E0,3.0852542E0,0E0,0E0,0E0,0E0,0E0,0E0],"parents":[2147483647,0,0,1,1,2,2,3,3,5,5,6,6,7,7,8,8,12,12],"right_children":[2,4,6,8,-1,10,12,14,16,-1,-1,-1,18,-1,-1,-1,-1,-1,-1],"split_conditions":[2.2432718E0,2.293299E0,-6.006759E-1,1.3032749E0,7.5401226E-3,4.39276E-1,-5.497638E-1,1.628076E0,5.269839E-1,-1.4603265E-3,5.862598E-3,-1.3694462E-2,-2.590269E-1,-2.9564268E-4,2.302429E-3,4.7217906E-3,-7.673931E-4,-9.001821E-3,-1.6730014E-3],"split_indices":[399,336,350,142,0,59,246,28,157,0,0,0,148,0,0,0,0,0,0],"split_type":[0,0,0,0,0,0,0,0,0,0,0,0,0,0,0,0,0,0,0],"sum_hessian":[1.270372E3,1.2049204E3,6.545155E1,1.1957692E3,9.151237E0,2.9473038E1,3.597851E1,1.089136E3,1.0663317E2,2.259345E1,6.879587E0,5.324417E0,3.0654095E1,1.00300745E3,8.612857E1,5.659402E1,5.0039146E1,6.7591825E0,2.3894913E1],"tree_param":{"num_deleted":"0","num_feature":"420","num_nodes":"19","size_leaf_vector":"1"}},{"base_weights":[-1.46596385E-2,-2.71063E-2,3.9549074E-1,-3.7033327E-2,3.8017178E-1,1.1597918E-2,1.1606324E-1,-6.166229E-1,-3.0842602E-2,1.1358825E-2,5.3233616E-2,-4.518333E-3,3.5392758E-1,-1.222805E-2,1.1251378E-3,-7.9654314E-4,4.271928E-4,-2.0060122E-3,4.797019E-3,7.56267E-3,2.0206231E-5],"categories":[],"categories_nodes":[],"categories_segments":[],"categories_sizes":[],"default_left":[0,0,0,0,0,0,0,0,0,0,0,0,0,0,0,0,0,0,0,0,0],"id":41,"left_children":[1,3,5,7,9,-1,11,13,15,-1,17,-1,19,-1,-1,-1,-1,-1,-1,-1,-1],"loss_changes":[6.454375E0,4.9705753E0,7.618858E0,4.230178E0,7.010735E0,0E0,4.1496334E0,5.835472E0,4.2959433E0,0E0,2.560838E0,0E0,2.9540265E0,0E0,0E0,0E0,0E0,0E0,0E0,0E0,0E0],"parents":[2147483647,0,0,1,1,2,2,3,3,4,4,6,6,7,7,8,8,10,10,12,12],"right_children":[2,4,6,8,10,-1,12,14,16,-1,18,-1,20,-1,-1,-1,-1,-1,-1,-1,-1],"split_conditions":[2.0316718E0,2.3573596E0,-7.955663E-1,-2.051446E0,-4.8038462E-1,1.1597918E-2,2.161334E-1,-1.2192333E0,-3.1139802E-2,1.1358825E-2,-3.9551042E-2,-4.518333E-3,7.313678E-1,-1.222805E-2,1.1251378E-3,-7.9654314E-4,4.271928E-4,-2.0060122E-3,4.797019E-3,7.56267E-3,2.0206231E-5],"split_indices":[270,133,411,300,15,0,208,337,58,0,326,0,401,0,0,0,0,0,0,0,0],"split_type":[0,0,0,0,0,0,0,0,0,0,0,0,0,0,0,0,0,0,0,0,0],"sum_hessian":[1.2668899E3,1.2311726E3,3.57172E1,1.2034489E3,2.7723816E1,8.201194E0,2.7516006E1,1.0984614E1,1.1924642E3,7.158883E0,2.0564934E1,7.6004224E0,1.9915583E1,5.5183706E0,5.466244E0,7.1756305E2,4.7490112E2,1.3242763E1,7.322171E0,8.355217E0,1.1560367E1],"tree_param":{"num_deleted":"0","num_feature":"420","num_nodes":"21","size_leaf_vector":"1"}},{"base_weights":[2.55739E-3,1.4031116E-2,-4.6263283E-1,4.158417E-3,5.021964E-1,-5.821443E-2,-1.007396E0,5.4350364E-1,-3.5453418E-3,-3.7831368E-4,9.378841E-1,2.5965385E-3,-4.681027E-3,-1.6479729E-3,-1.5524745E-2,1.1343671E-2,5.236563E-4,1.543532E-4,-2.4638835E-3,2.059507E-3,1.5324926E-2],"categories":[],"categories_nodes":[],"categories_segments":[],"categories_sizes":[],"default_left":[0,0,0,0,0,0,0,0,0,0,0,0,0,0,0,0,0,0,0,0,0],"id":42,"left_children":[1,3,5,7,9,11,13,15,17,-1,19,-1,-1,-1,-1,-1,-1,-1,-1,-1,-1],"loss_changes":[6.8512144E0,6.0226603E0,6.610996E0,5.198759E0,5.9734893E0,2.7342153E0,5.3986998E0,4.9053946E0,5.65862E0,0E0,5.391513E0,0E0,0E0,0E0,0E0,0E0,0E0,0E0,0E0,0E0,0E0],"parents":[2147483647,0,0,1,1,2,2,3,3,4,4,5,5,6,6,7,7,8,8,10,10],"right_children":[2,4,6,8,10,12,14,16,18,-1,20,-1,-1,-1,-1,-1,-1,-1,-1,-1,-1],"split_conditions":[2.3128998E0,2.2311845E0,-3.1070203E-1,-2.0960016E0,-5.767487E-1,4.4978136E-1,-4.5646104E-1,-6.5920186E-1,1.6259215E0,-3.7831368E-4,-2.8348148E-1,2.5965385E-3,-4.681027E-3,-1.6479729E-3,-1.5524745E-2,1.1343671E-2,5.236563E-4,1.543532E-4,-2.4638835E-3,2.059507E-3,1.5324926E-2],"split_indices":[330,270,177,419,151,289,414,200,301,0,56,0,0,0,0,0,0,0,0,0,0],"split_type":[0,0,0,0,0,0,0,0,0,0,0,0,0,0,0,0,0,0,0,0,0],"sum_hessian":[1.2886887E3,1.2592983E3,2.9390356E1,1.2360187E3,2.327973E1,1.7926233E1,1.1464123E1,1.6119743E1,1.2198989E3,1.0904283E1,1.2375446E1,1.0268687E1,7.6575465E0,5.3424964E0,6.1216264E0,6.332871E0,9.786874E0,1.1323844E3,8.7514534E1,6.5277886E0,5.847658E0],"tree_param":{"num_deleted":"0","num_feature":"420","num_nodes":"21","size_leaf_vector":"1"}},{"base_weights":[1.6679803E-2,4.347795E-1,1.1238415E-3,1.0996079E-1,9.296524E-1,1.2865461E-2,-3.621945E-1,6.872105E-1,-2.687303E-1,1.36736E-2,2.7728074E-3,-7.1796607E-3,1.7613141E-1,-9.956962E-3,-1.9000964E-1,7.710545E-4,1.1483752E-2,2.683926E-3,-7.199539E-3,-4.9373116E-3,2.3774706E-5,-4.601266E-4,4.1696783E-3,-3.6198588E-3,2.7611544E-3],"categories":[],"categories_nodes":[],"categories_segments":[],"categories_sizes":[],"default_left":[0,0,0,0,0,0,0,0,0,0,0,0,0,0,0,0,0,0,0,0,0,0,0,0,0],"id":43,"left_children":[1,3,5,7,9,11,13,15,17,-1,-1,19,21,-1,23,-1,-1,-1,-1,-1,-1,-1,-1,-1,-1],"loss_changes":[8.367113E0,7.16228E0,5.298622E0,6.809087E0,4.397458E0,3.9828343E0,3.8380227E0,3.20193E0,4.9161897E0,0E0,0E0,5.0715203E0,7.184362E0,0E0,2.767337E0,0E0,0E0,0E0,0E0,0E0,0E0,0E0,0E0,0E0,0E0],"parents":[2147483647,0,0,1,1,2,2,3,3,4,4,5,5,6,6,7,7,8,8,11,11,12,12,14,14],"right_children":[2,4,6,8,10,12,14,16,18,-1,-1,20,22,-1,24,-1,-1,-1,-1,-1,-1,-1,-1,-1,-1],"split_conditions":[-1.7365375E0,2.681742E-1,2.176607E0,-1.4515663E0,8.3502793E-1,1.164695E0,8.937868E-2,-5.4514104E-1,-7.238866E-1,1.36736E-2,2.7728074E-3,-1.8546857E0,-2.6064712E-1,-9.956962E-3,6.2330335E-1,7.710545E-4,1.1483752E-2,2.683926E-3,-7.199539E-3,-4.9373116E-3,2.3774706E-5,-4.601266E-4,4.1696783E-3,-3.6198588E-3,2.7611544E-3],"split_indices":[390,144,330,405,387,204,367,35,178,0,0,407,21,0,413,0,0,0,0,0,0,0,0,0,0],"split_type":[0,0,0,0,0,0,0,0,0,0,0,0,0,0,0,0,0,0,0,0,0,0,0,0,0],"sum_hessian":[1.2917825E3,4.4657745E1,1.2471248E3,2.8190063E1,1.6467684E1,1.2097505E3,3.7374252E1,1.0787851E1,1.7402212E1,8.779698E0,7.687985E0,1.0781956E3,1.3155489E2,6.330021E0,3.1044231E1,5.4910374E0,5.296814E0,8.121175E0,9.281037E0,1.950822E1,1.0586874E3,6.884835E1,6.2706535E1,2.3078941E1,7.965289E0],"tree_param":{"num_deleted":"0","num_feature":"420","num_nodes":"25","size_leaf_vector":"1"}},{"base_weights":[6.9072642E-3,3.0600265E-1,-7.5896517E-3,-1.1515908E-1,6.397398E-1,1.106299E-1,-3.9955415E-2,1.3436793E-1,-5.9194528E-3,1.0400453E0,8.643152E-2,4.379882E-2,6.2293816E-1,-2.6663806E-2,-4.460564E-1,-2.6753773E-3,4.3693464E-3,3.2753008E-3,1.8569276E-2,-2.897617E-3,6.573012E-3,-1.8439264E-4,5.6010867E-3,1.6459465E-2,2.885495E-3,3.5952713E-4,-1.1067699E-3,-6.9929603E-3,2.7065347E-3],"categories":[],"categories_nodes":[],"categories_segments":[],"categories_sizes":[],"default_left":[0,0,0,0,0,0,0,0,0,0,0,0,0,0,0,0,0,0,0,0,0,0,0,0,0,0,0,0,0],"id":44,"left_children":[1,3,5,7,9,11,13,15,-1,17,19,21,23,25,27,-1,-1,-1,-1,-1,-1,-1,-1,-1,-1,-1,-1,-1,-1],"loss_changes":[5.6613913E0,8.646969E0,4.740834E0,3.4752507E0,7.2912846E0,9.001985E0,5.1953692E0,2.5452404E0,0E0,1.0223597E1,3.7646773E0,7.6902204E0,9.49931E0,4.9874535E0,5.872087E0,0E0,0E0,0E0,0E0,0E0,0E0,0E0,0E0,0E0,0E0,0E0,0E0,0E0,0E0],"parents":[2147483647,0,0,1,1,2,2,3,3,4,4,5,5,6,6,7,7,9,9,10,10,11,11,12,12,13,13,14,14],"right_children":[2,4,6,8,10,12,14,16,-1,18,20,22,24,26,28,-1,-1,-1,-1,-1,-1,-1,-1,-1,-1,-1,-1,-1,-1],"split_conditions":[-1.5007418E0,-3.8549492E-1,-6.353271E-1,1.0112544E0,2.2328092E-1,8.667056E-1,1.9580001E0,-6.319769E-1,-5.9194528E-3,4.449845E-2,-2.551587E-1,1.2221782E0,-6.942056E-1,-1.5832679E-1,1.8766129E0,-2.6753773E-3,4.3693464E-3,3.2753008E-3,1.8569276E-2,-2.897617E-3,6.573012E-3,-1.8439264E-4,5.6010867E-3,1.6459465E-2,2.885495E-3,3.5952713E-4,-1.1067699E-3,-6.9929603E-3,2.7065347E-3],"split_indices":[410,287,326,415,205,412,124,58,0,392,15,142,202,412,176,0,0,0,0,0,0,0,0,0,0,0,0,0,0],"split_type":[0,0,0,0,0,0,0,0,0,0,0,0,0,0,0,0,0,0,0,0,0,0,0,0,0,0,0,0,0],"sum_hessian":[1.2964976E3,5.885973E1,1.2376378E3,2.6323452E1,3.2536274E1,2.645656E2,9.7307227E2,1.7849443E1,8.474009E0,1.8007801E1,1.4528475E1,2.3564848E2,2.8917128E1,9.440194E2,2.9052843E1,7.5988655E0,1.0250578E1,1.0806133E1,7.2016673E0,9.097102E0,5.431372E0,2.1141626E2,2.4232227E1,5.6005883E0,2.331654E1,5.406965E2,4.033229E2,2.1597597E1,7.4552455E0],"tree_param":{"num_deleted":"0","num_feature":"420","num_nodes":"29","size_leaf_vector":"1"}},{"base_weights":[3.4475646E-3,4.1924742E-1,-6.6295452E-3,8.5543525E-1,-4.3642245E-2,7.9884555E-4,-5.307691E-1,8.54227E-4,1.3275345E-2,5.934648E-3,-6.7211133E-3,-5.260594E-2,7.139273E-2,9.989159E-4,-9.276766E-3,-8.284822E-3,-3.8680472E-4,2.015896E-3,-1.3744073E-4],"categories":[],"categories_nodes":[],"categories_segments":[],"categories_sizes":[],"default_left":[0,0,0,0,0,0,0,0,0,0,0,0,0,0,0,0,0,0,0],"id":45,"left_children":[1,3,5,7,9,11,13,-1,-1,-1,-1,15,17,-1,-1,-1,-1,-1,-1],"loss_changes":[5.429886E0,6.328681E0,4.9434543E0,5.49477E0,7.0899553E0,4.68105E0,4.6625466E0,0E0,0E0,0E0,0E0,7.4910235E0,5.956995E0,0E0,0E0,0E0,0E0,0E0,0E0],"parents":[2147483647,0,0,1,1,2,2,3,3,4,4,5,5,6,6,11,11,12,12],"right_children":[2,4,6,8,10,12,14,-1,-1,-1,-1,16,18,-1,-1,-1,-1,-1,-1],"split_conditions":[-1.9347419E0,2.5225157E-1,2.693382E0,-6.141424E-1,-6.445856E-1,-7.152401E-2,-2.0351204E-1,8.54227E-4,1.3275345E-2,5.934648E-3,-6.7211133E-3,-1.8177266E0,-2.4225438E-1,9.989159E-4,-9.276766E-3,-8.284822E-3,-3.8680472E-4,2.015896E-3,-1.3744073E-4],"split_indices":[417,263,330,226,351,37,51,0,0,0,0,60,141,0,0,0,0,0,0],"split_type":[0,0,0,0,0,0,0,0,0,0,0,0,0,0,0,0,0,0,0],"sum_hessian":[1.2835542E3,2.916514E1,1.254389E3,1.4471971E1,1.469317E1,1.2381483E3,1.6240786E1,6.2542596E0,8.2177105E0,7.2589145E0,7.4342546E0,7.0430334E2,5.338449E2,6.609405E0,9.631381E0,1.0744364E1,6.93559E2,2.1072029E2,3.2312463E2],"tree_param":{"num_deleted":"0","num_feature":"420","num_nodes":"19","size_leaf_vector":"1"}},{"base_weights":[-5.6615626E-3,-1.5358117E-2,4.3691722E-1,-3.1037163E-3,-4.7866365E-1,1.2969707E-2,1.0623747E-1,-1.0062602E-2,5.7018644E-1,-8.779337E-1,-2.1695955E-1,-6.126973E-3,3.954301E-1,-4.630124E-4,9.872059E-4,1.0526982E-2,2.460803E-4,-1.2749792E-2,-2.305718E-3,-4.689538E-3,2.1519423E-3,8.550684E-3,-0E0],"categories":[],"categories_nodes":[],"categories_segments":[],"categories_sizes":[],"default_left":[0,0,0,0,0,0,0,0,0,0,0,0,0,0,0,0,0,0,0,0,0,0,0],"id":46,"left_children":[1,3,5,7,9,-1,11,13,15,17,19,-1,21,-1,-1,-1,-1,-1,-1,-1,-1,-1,-1],"loss_changes":[5.5041375E0,7.126339E0,7.4705973E0,4.8724284E0,2.9853497E0,0E0,4.8267317E0,4.811297E0,3.708272E0,2.535531E0,2.5384407E0,0E0,3.0004551E0,0E0,0E0,0E0,0E0,0E0,0E0,0E0,0E0,0E0,0E0],"parents":[2147483647,0,0,1,1,2,2,3,3,4,4,6,6,7,7,8,8,9,9,10,10,12,12],"right_children":[2,4,6,8,10,-1,12,14,16,18,20,-1,22,-1,-1,-1,-1,-1,-1,-1,-1,-1,-1],"split_conditions":[2.2311845E0,2.070584E0,-7.985145E-1,2.1711762E0,7.845203E-1,1.2969707E-2,-8.119764E-1,6.9284534E-1,7.37049E-1,1.9714632E0,9.608741E-1,-6.126973E-3,7.313678E-1,-4.630124E-4,9.872059E-4,1.0526982E-2,2.460803E-4,-1.2749792E-2,-2.305718E-3,-4.689538E-3,2.1519423E-3,8.550684E-3,-0E0],"split_indices":[270,356,410,397,165,0,102,387,289,344,347,0,401,0,0,0,0,0,0,0,0,0,0],"split_type":[0,0,0,0,0,0,0,0,0,0,0,0,0,0,0,0,0,0,0,0,0,0,0],"sum_hessian":[1.2885483E3,1.2625605E3,2.5987818E1,1.2317078E3,3.0852701E1,5.9158573E0,2.007196E1,1.2185643E3,1.3143448E1,1.0665976E1,2.0186726E1,5.177327E0,1.4894632E1,9.154004E2,3.0316397E2,6.137692E0,7.0057564E0,5.614016E0,5.05196E0,1.28167715E1,7.369953E0,6.1100154E0,8.784617E0],"tree_param":{"num_deleted":"0","num_feature":"420","num_nodes":"23","size_leaf_vector":"1"}},{"base_weights":[2.1221382E-3,-4.8992867E-3,6.6141415E-1,-1.1291348E-1,3.415106E-2,1.4059045E-2,-4.1953908E-4,-1.5654355E-1,2.5153092E-1,4.3329236E-1,1.7309023E-2,-1.3156572E-3,-1.1223965E-2,-5.5952725E-4,6.901333E-3,8.5799275E-3,2.1019268E-4,-3.999657E-3,3.4207126E-4],"categories":[],"categories_nodes":[],"categories_segments":[],"categories_sizes":[],"default_left":[0,0,0,0,0,0,0,0,0,0,0,0,0,0,0,0,0,0,0],"id":47,"left_children":[1,3,5,7,9,-1,-1,11,13,15,17,-1,-1,-1,-1,-1,-1,-1,-1],"loss_changes":[6.055014E0,5.4147854E0,7.4429097E0,5.4723697E0,6.269125E0,0E0,0E0,7.029238E0,5.083419E0,6.5024824E0,6.3628535E0,0E0,0E0,0E0,0E0,0E0,0E0,0E0,0E0],"parents":[2147483647,0,0,1,1,2,2,3,3,4,4,7,7,8,8,9,9,10,10],"right_children":[2,4,6,8,10,-1,-1,12,14,16,18,-1,-1,-1,-1,-1,-1,-1,-1],"split_conditions":[3.3981528E0,-5.297798E-1,-4.252858E-1,6.6364825E-1,-1.4249661E0,1.4059045E-2,-4.1953908E-4,8.631447E-1,5.9041077E-1,2.4932496E-2,-1.3438156E0,-1.3156572E-3,-1.1223965E-2,-5.5952725E-4,6.901333E-3,8.5799275E-3,2.1019268E-4,-3.999657E-3,3.4207126E-4],"split_indices":[413,60,336,193,187,0,0,380,346,92,419,0,0,0,0,0,0,0,0],"split_type":[0,0,0,0,0,0,0,0,0,0,0,0,0,0,0,0,0,0,0],"sum_hessian":[1.291281E3,1.278997E3,1.2284074E1,3.3954126E2,9.394557E2,5.3088202E0,6.9752536E0,3.042478E2,3.5293453E1,3.629393E1,9.0316174E2,2.983403E2,5.9074874E0,2.1383282E1,1.391017E1,1.6959236E1,1.9334694E1,3.3597496E1,8.695642E2],"tree_param":{"num_deleted":"0","num_feature":"420","num_nodes":"19","size_leaf_vector":"1"}},{"base_weights":[1.7796129E-3,3.711799E-2,-1.5023679E-1,7.864374E-1,2.6976781E-2,2.2192435E-1,-2.0468754E-1,-3.7950557E-4,1.7330525E-2,-1.6449234E-3,2.58315E-1,-1.22667635E-2,1.1363933E-2,-7.9677545E-2,-4.848332E-1,-2.6443592E-4,3.134463E-3,3.9489837E-3,-5.7234254E-4,-5.1843124E-3,3.3824465E-3,-4.5220277E-4,-8.108522E-3,-1.6365079E-3,-8.451834E-3],"categories":[],"categories_nodes":[],"categories_segments":[],"categories_sizes":[],"default_left":[0,0,0,0,0,0,0,0,0,0,0,0,0,0,0,0,0,0,0,0,0,0,0,0,0],"id":48,"left_children":[1,3,5,7,9,11,13,-1,-1,15,17,19,-1,21,23,-1,-1,-1,-1,-1,-1,-1,-1,-1,-1],"loss_changes":[6.924019E0,7.850421E0,4.9902115E0,1.1044307E1,6.8837705E0,6.878895E0,7.344351E0,0E0,0E0,7.193932E0,4.9991074E0,4.977771E0,0E0,3.621068E0,7.2345934E0,0E0,0E0,0E0,0E0,0E0,0E0,0E0,0E0,0E0,0E0],"parents":[2147483647,0,0,1,1,2,2,3,3,4,4,5,5,6,6,9,9,10,10,11,11,13,13,14,14],"right_children":[2,4,6,8,10,12,14,-1,-1,16,18,20,-1,22,24,-1,-1,-1,-1,-1,-1,-1,-1,-1,-1],"split_conditions":[5.2502894E-1,-1.9608334E0,-1.084856E0,-1.5997632E0,1.164695E0,2.2983728E-1,1.9642611E-1,-3.7950557E-4,1.7330525E-2,1.5976217E0,4.4470915E-1,-3.9413098E-1,1.1363933E-2,1.5272617E0,2.4284218E-1,-2.6443592E-4,3.134463E-3,3.9489837E-3,-5.7234254E-4,-5.1843124E-3,3.3824465E-3,-4.5220277E-4,-8.108522E-3,-1.6365079E-3,-8.451834E-3],"split_indices":[391,384,230,375,204,413,263,0,0,122,413,3,0,99,392,0,0,0,0,0,0,0,0,0,0],"split_type":[0,0,0,0,0,0,0,0,0,0,0,0,0,0,0,0,0,0,0,0,0,0,0,0,0],"sum_hessian":[1.2879545E3,1.0464774E3,2.4147702E2,1.2308871E1,1.0341686E3,2.9997744E1,2.1147926E2,7.292342E0,5.0165286E0,9.212468E2,1.12921745E2,2.4972845E1,5.0249E0,1.4780673E2,6.3672535E1,8.555999E2,6.564691E1,7.876748E1,3.4154266E1,1.00404215E1,1.4932424E1,1.428064E2,5.000345E0,3.496592E1,2.8706617E1],"tree_param":{"num_deleted":"0","num_feature":"420","num_nodes":"25","size_leaf_vector":"1"}},{"base_weights":[3.809923E-3,2.5419396E-1,-1.7953187E-2,9.634768E-3,1.6673847E-1,-6.752547E-1,-6.616568E-3,-1.6469081E-1,2.9641283E-1,-1.7699729E-1,-1.3527877E-2,-2.7543655E-2,1.8738961E-1,-6.263563E-3,5.3658785E-4,4.10977E-3,-1.2721436E-3,2.7162319E-3,-5.2011064E-3,7.616785E-4,-7.259881E-4,6.1867264E-4,5.9493487E-3],"categories":[],"categories_nodes":[],"categories_segments":[],"categories_sizes":[],"default_left":[0,0,0,0,0,0,0,0,0,0,0,0,0,0,0,0,0,0,0,0,0,0,0],"id":49,"left_children":[1,3,5,-1,7,9,11,13,15,17,-1,19,21,-1,-1,-1,-1,-1,-1,-1,-1,-1,-1],"loss_changes":[7.217994E0,6.217915E0,8.97561E0,0E0,4.2232833E0,6.384223E0,4.8460636E0,2.9117744E0,3.5011168E0,2.327478E0,0E0,5.0591908E0,5.8204584E0,0E0,0E0,0E0,0E0,0E0,0E0,0E0,0E0,0E0,0E0],"parents":[2147483647,0,0,1,1,2,2,4,4,5,5,6,6,7,7,8,8,9,9,11,11,12,12],"right_children":[2,4,6,-1,8,10,12,14,16,18,-1,20,22,-1,-1,-1,-1,-1,-1,-1,-1,-1,-1],"split_conditions":[-1.2767445E0,-1.7303689E0,-1.9270487E0,9.634768E-3,-5.4012805E-1,-3.8617787E-1,1.2917771E0,-1.9191465E-1,9.6703607E-1,-4.5321754E-1,-1.3527877E-2,-4.3554407E-1,5.238532E-1,-6.263563E-3,5.3658785E-4,4.10977E-3,-1.2721436E-3,2.7162319E-3,-5.2011064E-3,7.616785E-4,-7.259881E-4,6.1867264E-4,5.9493487E-3],"split_indices":[389,405,400,0,266,392,366,11,310,97,0,3,16,0,0,0,0,0,0,0,0,0,0],"split_type":[0,0,0,0,0,0,0,0,0,0,0,0,0,0,0,0,0,0,0,0,0,0,0],"sum_hessian":[1.3175211E3,1.0444611E2,1.2130751E3,9.68995E0,9.4756165E1,1.8928465E1,1.1941466E3,2.6317123E1,6.843904E1,1.2082473E1,6.8459926E0,1.0795049E3,1.146417E2,7.6973634E0,1.861976E1,5.4091564E1,1.4347477E1,5.2453146E0,6.8371577E0,3.2595068E2,7.535542E2,8.9155304E1,2.5486403E1],"tree_param":{"num_deleted":"0","num_feature":"420","num_nodes":"23","size_leaf_vector":"1"}},{"base_weights":[-5.1826015E-3,2.9180312E-1,-2.2271933E-2,-1.473704E-1,5.340886E-1,-2.1142837E-1,1.988809E-3,2.4696927E-1,-5.0431234E-3,9.039908E-2,8.3438456E-1,-1.2839492E-1,-7.6281726E-1,-9.2462376E-2,4.6746515E-2,-2.1519626E-3,6.759091E-3,3.5767015E-3,-4.8207757E-3,1.8107515E-2,4.442037E-3,7.551232E-3,-1.8342313E-3,-2.2613904E-3,-1.5422897E-2,-4.1650278E-3,-2.511079E-4,1.9559666E-4,3.7674948E-3],"categories":[],"categories_nodes":[],"categories_segments":[],"categories_sizes":[],"default_left":[0,0,0,0,0,0,0,0,0,0,0,0,0,0,0,0,0,0,0,0,0,0,0,0,0,0,0,0,0],"id":50,"left_children":[1,3,5,7,9,11,13,15,-1,17,19,21,23,25,27,-1,-1,-1,-1,-1,-1,-1,-1,-1,-1,-1,-1,-1,-1],"loss_changes":[6.6185474E0,7.7039804E0,5.7030067E0,3.9069884E0,5.94761E0,6.2295094E0,4.6449485E0,2.9095852E0,0E0,3.3762887E0,8.93959E0,6.213192E0,6.838914E0,7.6422772E0,6.650356E0,0E0,0E0,0E0,0E0,0E0,0E0,0E0,0E0,0E0,0E0,0E0,0E0,0E0,0E0],"parents":[2147483647,0,0,1,1,2,2,3,3,4,4,5,5,6,6,7,7,9,9,10,10,11,11,12,12,13,13,14,14],"right_children":[2,4,6,8,10,12,14,16,-1,18,20,22,24,26,28,-1,-1,-1,-1,-1,-1,-1,-1,-1,-1,-1,-1,-1,-1],"split_conditions":[-1.4738231E0,-4.6400172E-1,-8.079607E-1,-7.165785E-1,-4.1001882E-2,8.5606366E-1,-5.384073E-1,-2.2887604E-1,-5.0431234E-3,5.2423054E-1,-3.4807146E-1,-8.9042777E-1,1.1693513E-1,-4.691725E-1,1.1141928E0,-2.1519626E-3,6.759091E-3,3.5767015E-3,-4.8207757E-3,1.8107515E-2,4.442037E-3,7.551232E-3,-1.8342313E-3,-2.2613904E-3,-1.5422897E-2,-4.1650278E-3,-2.511079E-4,1.9559666E-4,3.7674948E-3],"split_indices":[390,144,390,302,116,115,282,352,0,308,99,160,116,407,124,0,0,0,0,0,0,0,0,0,0,0,0,0,0],"split_type":[0,0,0,0,0,0,0,0,0,0,0,0,0,0,0,0,0,0,0,0,0,0,0,0,0,0,0,0,0],"sum_hessian":[1.3059634E3,6.942917E1,1.2365342E3,2.474698E1,4.4682186E1,1.3971924E2,1.096815E3,1.184402E1,1.2902961E1,1.8957254E1,2.5724934E1,1.231976E2,1.6521635E1,3.5140976E2,7.4540515E2,5.948777E0,5.895243E0,1.3426408E1,5.530847E0,5.712584E0,2.0012348E1,5.9977875E0,1.17199814E2,1.1006778E1,5.5148582E0,5.8877743E1,2.9253204E2,6.9041797E2,5.4987213E1],"tree_param":{"num_deleted":"0","num_feature":"420","num_nodes":"29","size_leaf_vector":"1"}},{"base_weights":[1.525829E-3,-5.189107E-3,7.02624E-1,3.3484756E-3,-4.9530557E-1,1.7817359E-4,1.2396098E-2,-1.7936751E-2,2.1752909E-1,1.1291801E-3,-7.8977305E-1,5.2784905E-3,-2.8126832E-4,4.0559075E-3,-5.526967E-4,-3.2958612E-3,-1.3122475E-2],"categories":[],"categories_nodes":[],"categories_segments":[],"categories_sizes":[],"default_left":[0,0,0,0,0,0,0,0,0,0,0,0,0,0,0,0,0],"id":51,"left_children":[1,3,5,7,9,-1,-1,11,13,-1,15,-1,-1,-1,-1,-1,-1],"loss_changes":[6.229952E0,5.4758763E0,4.457945E0,5.8401275E0,4.2141747E0,0E0,0E0,6.4296126E0,6.0110154E0,0E0,2.888444E0,0E0,0E0,0E0,0E0,0E0,0E0],"parents":[2147483647,0,0,1,1,2,2,3,3,4,4,7,7,8,8,10,10],"right_children":[2,4,6,8,10,-1,-1,12,14,-1,16,-1,-1,-1,-1,-1,-1],"split_conditions":[2.328897E0,2.383987E0,1.7634308E0,9.4095916E-1,-5.965579E-1,1.7817359E-4,1.2396098E-2,-1.8141135E0,1.8033864E-1,1.1291801E-3,2.1918698E-1,5.2784905E-3,-2.8126832E-4,4.0559075E-3,-5.526967E-4,-3.2958612E-3,-1.3122475E-2],"split_indices":[256,357,260,262,183,0,0,409,330,0,351,0,0,0,0,0,0],"split_type":[0,0,0,0,0,0,0,0,0,0,0,0,0,0,0,0,0],"sum_hessian":[1.3058412E3,1.2947864E3,1.1054862E1,1.2738817E3,2.090466E1,5.6216655E0,5.433196E0,1.159553E3,1.1432867E2,7.0102234E0,1.3894436E1,1.9676126E1,1.1398768E3,6.745975E1,4.6868916E1,8.789985E0,5.1044507E0],"tree_param":{"num_deleted":"0","num_feature":"420","num_nodes":"17","size_leaf_vector":"1"}},{"base_weights":[2.772616E-4,-1.24363616E-1,3.6287155E-2,-3.5339707E-1,-3.66045E-2,4.6840492E-1,1.9232223E-2,-1.4179496E-1,-8.200352E-1,-8.738894E-2,3.4279513E-1,1.398114E-2,2.0739304E-1,5.9422553E-2,-1.0110105E-1,-8.256506E-3,-3.8517945E-4,-1.5296108E-2,-3.1294497E-3,5.61914E-4,-3.0350205E-3,1.6084905E-6,1.1830071E-2,-0E0,9.658386E-3,1.6445647E-3,-1.3233507E-4,-2.3199804E-3,6.150489E-4],"categories":[],"categories_nodes":[],"categories_segments":[],"categories_sizes":[],"default_left":[0,0,0,0,0,0,0,0,0,0,0,0,0,0,0,0,0,0,0,0,0,0,0,0,0,0,0,0,0],"id":52,"left_children":[1,3,5,7,9,11,13,15,17,19,21,-1,23,25,27,-1,-1,-1,-1,-1,-1,-1,-1,-1,-1,-1,-1,-1,-1],"loss_changes":[5.7894983E0,5.7494497E0,7.3289137E0,7.585026E0,4.08281E0,8.575632E0,4.6796317E0,3.8702335E0,7.8628445E0,5.8660316E0,7.0695677E0,0E0,4.926817E0,5.560066E0,5.1881533E0,0E0,0E0,0E0,0E0,0E0,0E0,0E0,0E0,0E0,0E0,0E0,0E0,0E0,0E0],"parents":[2147483647,0,0,1,1,2,2,3,3,4,4,5,5,6,6,7,7,8,8,9,9,10,10,12,12,13,13,14,14],"right_children":[2,4,6,8,10,12,14,16,18,20,22,-1,24,26,28,-1,-1,-1,-1,-1,-1,-1,-1,-1,-1,-1,-1,-1,-1],"split_conditions":[-7.4218774E-1,-5.967002E-1,-1.6614997E0,-2.2587772E-1,4.0186042E-1,-6.6030014E-1,6.0003775E-1,-4.1908142E-1,8.449322E-2,-3.278741E-1,1.4509049E-1,1.398114E-2,5.933593E-1,-4.8809838E-1,1.2436674E0,-8.256506E-3,-3.8517945E-4,-1.5296108E-2,-3.1294497E-3,5.61914E-4,-3.0350205E-3,1.6084905E-6,1.1830071E-2,-0E0,9.658386E-3,1.6445647E-3,-1.3233507E-4,-2.3199804E-3,6.150489E-4],"split_indices":[119,239,384,157,182,84,15,409,36,392,16,0,87,112,12,0,0,0,0,0,0,0,0,0,0,0,0,0,0],"split_type":[0,0,0,0,0,0,0,0,0,0,0,0,0,0,0,0,0,0,0,0,0,0,0,0,0,0,0,0,0],"sum_hessian":[1.2888619E3,2.8745114E2,1.00141077E3,7.805738E1,2.0939377E2,3.6293316E1,9.6511743E2,5.519755E1,2.2859833E1,1.8592491E2,2.3468857E1,6.4392357E0,2.985408E1,7.246729E2,2.4044453E2,5.7386484E0,4.9458904E1,8.184841E0,1.4674992E1,1.1209738E2,7.382753E1,1.782089E1,5.647966E0,2.4626896E1,5.2271833E0,2.9610098E2,4.285719E2,1.3319669E2,1.0724785E2],"tree_param":{"num_deleted":"0","num_feature":"420","num_nodes":"29","size_leaf_vector":"1"}}]},"name":"gbtree"},"learner_model_param":{"base_score":"-1.9464048E-2","boost_from_average":"1","num_class":"0","num_feature":"420","num_target":"1"},"objective":{"name":"reg:pseudohubererror","pseudo_huber_param":{"huber_slope":"1"}}},"version":[2,1,0]}