{"learner":{"attributes":{"best_iteration":"41","best_score":"0.2120660047682505","scikit_learn":"{\"_estimator_type\": \"regressor\"}"},"feature_names":[],"feature_types":[],"gradient_booster":{"model":{"gbtree_model_param":{"num_parallel_tree":"1","num_trees":"92"},"iteration_indptr":[0,1,2,3,4,5,6,7,8,9,10,11,12,13,14,15,16,17,18,19,20,21,22,23,24,25,26,27,28,29,30,31,32,33,34,35,36,37,38,39,40,41,42,43,44,45,46,47,48,49,50,51,52,53,54,55,56,57,58,59,60,61,62,63,64,65,66,67,68,69,70,71,72,73,74,75,76,77,78,79,80,81,82,83,84,85,86,87,88,89,90,91,92],"tree_info":[0,0,0,0,0,0,0,0,0,0,0,0,0,0,0,0,0,0,0,0,0,0,0,0,0,0,0,0,0,0,0,0,0,0,0,0,0,0,0,0,0,0,0,0,0,0,0,0,0,0,0,0,0,0,0,0,0,0,0,0,0,0,0,0,0,0,0,0,0,0,0,0,0,0,0,0,0,0,0,0,0,0,0,0,0,0,0,0,0,0,0,0],"trees":[{"base_weights":[1.0717079E-2,6.523448E-1,-1.5866561E-3,1.1746714E-1,1.983847E-2,-3.4012303E-2,1.5904891E-1,5.0335447E-3,-3.3400336E-3,-1.3038213E-2,-3.285435E-1,-3.8727537E-1,2.267774E-1,-1.4703481E-3,3.434907E-4,-2.036414E-3,-1.26829995E-2,3.4223606E-3,-6.760696E-3,-6.7677646E-4,3.5212652E-3],"categories":[],"categories_nodes":[],"categories_segments":[],"categories_sizes":[],"default_left":[0,0,0,0,0,0,0,0,0,0,0,0,0,0,0,0,0,0,0,0,0],"id":0,"left_children":[1,3,5,7,-1,9,11,-1,-1,13,15,17,19,-1,-1,-1,-1,-1,-1,-1,-1],"loss_changes":[1.014876E1,1.6665096E1,6.529607E0,3.562227E0,0E0,6.4180207E0,7.90216E0,0E0,0E0,6.2281046E0,7.5789504E0,5.352806E0,7.0155334E0,0E0,0E0,0E0,0E0,0E0,0E0,0E0,0E0],"parents":[2147483647,0,0,1,1,2,2,3,3,5,5,6,6,9,9,10,10,11,11,12,12],"right_children":[2,4,6,8,-1,10,12,-1,-1,14,16,18,20,-1,-1,-1,-1,-1,-1,-1,-1],"split_conditions":[-1.8910433E0,1.5169999E-1,7.007516E-1,4.2413548E-1,1.983847E-2,1.0998428E0,-9.651287E-1,5.0335447E-3,-3.3400336E-3,-5.8968014E-1,1.8986043E-1,-7.893674E-1,-5.65467E-1,-1.4703481E-3,3.434907E-4,-2.036414E-3,-1.26829995E-2,3.4223606E-3,-6.760696E-3,-6.7677646E-4,3.5212652E-3],"split_indices":[108,11,248,351,0,5,30,0,0,230,177,13,13,0,0,0,0,0,0,0,0],"split_type":[0,0,0,0,0,0,0,0,0,0,0,0,0,0,0,0,0,0,0,0,0],"sum_hessian":[1.2756217E3,2.2685633E1,1.252936E3,1.7402365E1,5.2832685E0,1.0440006E3,2.0893542E2,9.409153E0,7.9932117E0,9.76377E2,6.762362E1,2.2101616E1,1.868338E2,2.5480977E2,7.215672E2,6.1395107E1,6.228509E0,6.091154E0,1.6010462E1,5.575448E1,1.3107933E2],"tree_param":{"num_deleted":"0","num_feature":"420","num_nodes":"21","size_leaf_vector":"1"}},{"base_weights":[-1.2221482E-2,-4.104935E-2,1.7448941E-1,-4.0433127E-1,-2.4790924E-2,1.0073864E-2,1.2643827E-1,-2.208682E-1,-1.1953232E-2,-3.35302E-2,7.4572945E-1,-7.117042E-3,1.8743819E-1,-6.66854E-3,-6.6968285E-5,-1.0349678E-3,4.8774842E-4,1.1921194E-2,8.893106E-4,3.5360141E-3,-1.5133139E-4],"categories":[],"categories_nodes":[],"categories_segments":[],"categories_sizes":[],"default_left":[0,0,0,0,0,0,0,0,0,0,0,0,0,0,0,0,0,0,0,0,0],"id":1,"left_children":[1,3,5,7,9,-1,11,13,-1,15,17,-1,19,-1,-1,-1,-1,-1,-1,-1,-1],"loss_changes":[6.9106264E0,6.5234737E0,6.563551E0,6.3368106E0,7.1607795E0,0E0,8.536299E0,3.784403E0,0E0,6.105634E0,3.2071886E0,0E0,5.2336683E0,0E0,0E0,0E0,0E0,0E0,0E0,0E0,0E0],"parents":[2147483647,0,0,1,1,2,2,3,3,4,4,6,6,7,7,9,9,10,10,12,12],"right_children":[2,4,6,8,10,-1,12,14,-1,16,18,-1,20,-1,-1,-1,-1,-1,-1,-1,-1],"split_conditions":[1.0156924E0,-1.4330252E0,-1.7849703E0,-2.9914623E-1,1.9683323E0,1.0073864E-2,-1.50849E0,-1.540558E0,-1.1953232E-2,-1.4569385E-1,8.363378E-1,-7.117042E-3,3.3317994E-2,-6.66854E-3,-6.6968285E-5,-1.0349678E-3,4.8774842E-4,1.1921194E-2,8.893106E-4,3.5360141E-3,-1.5133139E-4],"split_indices":[140,136,326,276,142,0,274,153,0,160,388,0,63,0,0,0,0,0,0,0,0],"split_type":[0,0,0,0,0,0,0,0,0,0,0,0,0,0,0,0,0,0,0,0,0],"sum_hessian":[1.2828949E3,1.112788E3,1.7010692E2,4.587147E1,1.0669165E3,7.5314617E0,1.6257547E2,3.8895336E1,6.9761353E0,1.0564982E3,1.0418342E1,9.832741E0,1.5274272E2,1.1438554E1,2.7456781E1,5.7150073E2,4.8499747E2,5.384183E0,5.034158E0,8.3568924E1,6.91738E1],"tree_param":{"num_deleted":"0","num_feature":"420","num_nodes":"21","size_leaf_vector":"1"}},{"base_weights":[4.5475136E-3,-3.9916407E-2,1.7702372E-1,-6.9950305E-2,1.7687473E-1,-2.1794051E-1,2.4325131E-1,-5.648913E-1,-5.524586E-2,-4.403348E-3,2.3492776E-1,-6.6878164E-1,1.908442E-2,1.0323337E-2,2.0269616E-1,-2.324921E-3,-1.4065406E-2,-6.5133866E-4,5.8869235E-3,1.20114484E-4,3.9958623E-3,-1.0297955E-2,-1.1877775E-3,2.457425E-3,-4.5766416E-3,5.4419367E-3,1.0241347E-3],"categories":[],"categories_nodes":[],"categories_segments":[],"categories_sizes":[],"default_left":[0,0,0,0,0,0,0,0,0,0,0,0,0,0,0,0,0,0,0,0,0,0,0,0,0,0,0],"id":2,"left_children":[1,3,5,7,9,11,13,15,17,-1,19,21,23,-1,25,-1,-1,-1,-1,-1,-1,-1,-1,-1,-1,-1,-1],"loss_changes":[9.74174E0,6.5721283E0,6.894602E0,6.346413E0,4.530889E0,4.1420617E0,6.729933E0,6.404686E0,5.50164E0,0E0,4.109324E0,2.3369732E0,2.9788759E0,0E0,7.2149563E0,0E0,0E0,0E0,0E0,0E0,0E0,0E0,0E0,0E0,0E0,0E0,0E0],"parents":[2147483647,0,0,1,1,2,2,3,3,4,4,5,5,6,6,7,7,8,8,10,10,11,11,12,12,14,14],"right_children":[2,4,6,8,10,12,14,16,18,-1,20,22,24,-1,26,-1,-1,-1,-1,-1,-1,-1,-1,-1,-1,-1,-1],"split_conditions":[5.28686E-1,1.0746882E0,-1.2753543E0,-1.8030657E0,-1.2518429E0,-5.236098E-1,-2.0672119E0,-4.3767652E-1,2.2736495E0,-4.403348E-3,-3.260548E-1,-1.1355913E-1,5.902062E-1,1.0323337E-2,-6.147666E-1,-2.324921E-3,-1.4065406E-2,-6.5133866E-4,5.8869235E-3,1.20114484E-4,3.9958623E-3,-1.0297955E-2,-1.1877775E-3,2.457425E-3,-4.5766416E-3,5.4419367E-3,1.0241347E-3],"split_indices":[371,140,210,306,367,286,396,379,184,0,35,66,32,0,410,0,0,0,0,0,0,0,0,0,0,0,0],"split_type":[0,0,0,0,0,0,0,0,0,0,0,0,0,0,0,0,0,0,0,0,0,0,0,0,0,0,0],"sum_hessian":[1.2656106E3,1.00666736E3,2.589432E2,8.8547266E2,1.21194695E2,3.647422E1,2.2246898E2,2.3732393E1,8.617403E2,9.42196E0,1.11772736E2,1.1772153E1,2.4702066E1,8.961254E0,2.1350772E2,1.8470758E1,5.261636E0,8.501888E2,1.1551522E1,4.842765E1,6.334509E1,6.2073894E0,5.564763E0,1.7377123E1,7.3249435E0,4.6731976E1,1.6677574E2],"tree_param":{"num_deleted":"0","num_feature":"420","num_nodes":"27","size_leaf_vector":"1"}},{"base_weights":[-9.501297E-3,-5.040294E-2,1.7013831E-1,1.9538052E-1,-7.733437E-2,-6.0334235E-1,2.1137771E-1,8.488234E-2,8.366944E-1,-9.3918275E-3,-6.849969E-2,-1.1708086E-4,-1.0426855E-2,1.7349118E-1,1.2134994E-2,-7.077403E-4,4.376042E-3,-1.9507904E-3,1.4972211E-2,5.144353E-3,-7.792784E-4,6.548379E-4,4.3166424E-3],"categories":[],"categories_nodes":[],"categories_segments":[],"categories_sizes":[],"default_left":[0,0,0,0,0,0,0,0,0,0,0,0,0,0,0,0,0,0,0,0,0,0,0],"id":3,"left_children":[1,3,5,7,9,11,13,15,17,-1,19,-1,-1,21,-1,-1,-1,-1,-1,-1,-1,-1,-1],"loss_changes":[9.187874E0,6.762989E0,7.5453577E0,6.9439373E0,6.813643E0,2.9950466E0,7.9468336E0,4.902648E0,1.0458339E1,0E0,5.03523E0,0E0,0E0,5.9049034E0,0E0,0E0,0E0,0E0,0E0,0E0,0E0,0E0,0E0],"parents":[2147483647,0,0,1,1,2,2,3,3,4,4,5,5,6,6,7,7,8,8,10,10,13,13],"right_children":[2,4,6,8,10,12,14,16,18,-1,20,-1,-1,22,-1,-1,-1,-1,-1,-1,-1,-1,-1],"split_conditions":[6.523311E-1,-1.119267E0,-2.0318153E0,7.446056E-1,-2.011323E0,-1.7494948E-1,3.525289E0,2.0170379E-1,-4.1490465E-2,-9.3918275E-3,-1.7004172E0,-1.1708086E-4,-1.0426855E-2,1.8547608E-1,1.2134994E-2,-7.077403E-4,4.376042E-3,-1.9507904E-3,1.4972211E-2,5.144353E-3,-7.792784E-4,6.548379E-4,4.3166424E-3],"split_indices":[332,368,372,99,109,198,373,17,277,0,87,0,0,244,0,0,0,0,0,0,0,0,0],"split_type":[0,0,0,0,0,0,0,0,0,0,0,0,0,0,0,0,0,0,0,0,0,0,0],"sum_hessian":[1.2488458E3,1.01856696E3,2.3027887E2,9.9293396E1,9.1927356E2,1.0498586E1,2.1978027E2,8.628158E1,1.3011825E1,7.6100755E0,9.1166345E2,5.227135E0,5.2714505E0,2.1356563E2,6.2146544E0,6.0498894E1,2.5782682E1,5.4321504E0,7.579674E0,1.3062588E1,8.986009E2,1.5217189E2,6.1393726E1],"tree_param":{"num_deleted":"0","num_feature":"420","num_nodes":"23","size_leaf_vector":"1"}},{"base_weights":[5.1253E-3,-3.1701475E-2,1.5745167E-1,-2.8324732E-1,-0E0,2.7821702E-1,-1.3661976E-1,-2.0538312E-1,-9.476078E-3,2.838182E-2,-2.819522E-1,1.920616E-1,8.4284544E-1,5.8366642E-3,-2.4131523E-1,-3.4825818E-3,4.3816856E-4,2.937048E-3,-4.0694573E-5,-5.1531885E-3,1.0819508E-3,9.6014765E-4,5.9873513E-3,2.1635431E-3,1.4366069E-2,-1.1121389E-2,-9.803929E-4],"categories":[],"categories_nodes":[],"categories_segments":[],"categories_sizes":[],"default_left":[0,0,0,0,0,0,0,0,0,0,0,0,0,0,0,0,0,0,0,0,0,0,0,0,0,0,0],"id":4,"left_children":[1,3,5,7,9,11,13,15,-1,17,19,21,23,-1,25,-1,-1,-1,-1,-1,-1,-1,-1,-1,-1,-1,-1],"loss_changes":[7.238787E0,8.275812E0,8.996357E0,5.6008043E0,7.387504E0,8.355932E0,5.7519374E0,3.8276958E0,0E0,7.2584805E0,7.81075E0,5.9885216E0,7.956291E0,0E0,7.9161654E0,0E0,0E0,0E0,0E0,0E0,0E0,0E0,0E0,0E0,0E0,0E0,0E0],"parents":[2147483647,0,0,1,1,2,2,3,3,4,4,5,5,6,6,7,7,9,9,10,10,11,11,12,12,14,14],"right_children":[2,4,6,8,10,12,14,16,-1,18,20,22,24,-1,26,-1,-1,-1,-1,-1,-1,-1,-1,-1,-1,-1,-1],"split_conditions":[6.034799E-1,-9.248469E-1,2.0306045E-1,7.3149955E-1,1.0066168E0,1.7526268E0,-1.7034514E0,1.4740331E-2,-9.476078E-3,-1.119267E0,7.596933E-1,4.5295063E-1,-9.0185516E-2,5.8366642E-3,-1.310134E0,-3.4825818E-3,4.3816856E-4,2.937048E-3,-4.0694573E-5,-5.1531885E-3,1.0819508E-3,9.6014765E-4,5.9873513E-3,2.1635431E-3,1.4366069E-2,-1.1121389E-2,-9.803929E-4],"split_indices":[332,130,370,331,308,203,116,349,0,368,331,244,368,0,148,0,0,0,0,0,0,0,0,0,0,0,0],"split_type":[0,0,0,0,0,0,0,0,0,0,0,0,0,0,0,0,0,0,0,0,0,0,0,0,0,0,0],"sum_hessian":[1.2853317E3,1.0355146E3,2.4981706E2,1.14642426E2,9.208722E2,1.7738986E2,7.242719E1,1.0450813E2,1.0134296E1,8.3795013E2,8.292205E1,1.558035E2,2.158637E1,8.199385E0,6.4227806E1,6.630067E1,3.8207466E1,9.033915E1,7.4761096E2,5.1745525E1,3.1176523E1,1.27735405E2,2.806809E1,1.1581478E1,1.0004893E1,7.5426555E0,5.668515E1],"tree_param":{"num_deleted":"0","num_feature":"420","num_nodes":"27","size_leaf_vector":"1"}},{"base_weights":[-5.2517825E-3,-4.096493E-2,1.524498E-1,1.6705263E-1,-6.691073E-2,9.6451625E-2,7.8069204E-1,-2.0981127E-1,3.5549545E-1,5.4870343E-1,-7.5860925E-2,3.1688544E-1,-7.762748E-2,1.835134E-1,1.7778378E-2,-9.474015E-3,3.2869924E-4,1.1559749E-3,7.173173E-3,6.318588E-5,9.530789E-3,-5.136944E-3,-6.2437594E-4,7.137969E-3,1.7906218E-3,1.6843973E-4,-5.245931E-3,-2.3316154E-3,5.043584E-3],"categories":[],"categories_nodes":[],"categories_segments":[],"categories_sizes":[],"default_left":[0,0,0,0,0,0,0,0,0,0,0,0,0,0,0,0,0,0,0,0,0,0,0,0,0,0,0,0,0],"id":5,"left_children":[1,3,5,7,9,11,13,15,17,19,21,23,25,27,-1,-1,-1,-1,-1,-1,-1,-1,-1,-1,-1,-1,-1,-1,-1],"loss_changes":[7.155428E0,5.6082573E0,8.047363E0,8.300306E0,5.107709E0,8.392338E0,1.0527093E1,7.14302E0,6.5161657E0,2.8048449E0,5.257169E0,4.9898405E0,5.2268047E0,2.0099273E0,0E0,0E0,0E0,0E0,0E0,0E0,0E0,0E0,0E0,0E0,0E0,0E0,0E0,0E0,0E0],"parents":[2147483647,0,0,1,1,2,2,3,3,4,4,5,5,6,6,7,7,8,8,9,9,10,10,11,11,12,12,13,13],"right_children":[2,4,6,8,10,12,14,16,18,20,22,24,26,28,-1,-1,-1,-1,-1,-1,-1,-1,-1,-1,-1,-1,-1,-1,-1],"split_conditions":[6.7135113E-1,-1.119267E0,1.6277803E0,-4.595313E-1,-1.9227389E0,-2.1464315E-1,5.234425E-1,-7.1567255E-1,-2.7631766E-1,-5.969484E-1,-1.5265708E0,-5.755535E-1,9.990718E-1,-3.0273718E-1,1.7778378E-2,-9.474015E-3,3.2869924E-4,1.1559749E-3,7.173173E-3,6.318588E-5,9.530789E-3,-5.136944E-3,-6.2437594E-4,7.137969E-3,1.7906218E-3,1.6843973E-4,-5.245931E-3,-2.3316154E-3,5.043584E-3],"split_indices":[206,368,326,202,323,49,184,26,98,79,115,139,171,259,0,0,0,0,0,0,0,0,0,0,0,0,0,0,0],"split_type":[0,0,0,0,0,0,0,0,0,0,0,0,0,0,0,0,0,0,0,0,0,0,0,0,0,0,0,0,0],"sum_hessian":[1.2693068E3,1.0363574E3,2.3294934E2,1.1359669E2,9.227607E2,2.1561961E2,1.7329723E1,3.7633427E1,7.596326E1,1.1767018E1,9.109937E2,9.485281E1,1.207668E2,1.2012141E1,5.3175826E0,8.340389E0,2.9293037E1,4.703401E1,2.8929249E1,5.7821765E0,5.9848423E0,2.5214382E1,8.857793E2,2.2644804E1,7.220801E1,1.0070199E2,2.006481E1,5.268414E0,6.743727E0],"tree_param":{"num_deleted":"0","num_feature":"420","num_nodes":"29","size_leaf_vector":"1"}},{"base_weights":[-8.7170774E-4,-3.8777217E-2,1.70995E-1,-2.5929245E-1,-1.5562359E-2,-5.8001447E-3,2.0611078E-1,-5.889909E-2,-4.8093918E-1,8.6169586E-2,-7.375676E-2,9.093429E-2,5.23348E-1,-2.4886637E-3,3.2788285E-3,-3.212923E-3,-1.1555618E-2,-1.2658709E-3,1.6778569E-3,-3.4849462E-3,-4.3041178E-4,1.8899512E-3,-3.860362E-3,1.5266621E-2,3.045393E-3],"categories":[],"categories_nodes":[],"categories_segments":[],"categories_sizes":[],"default_left":[0,0,0,0,0,0,0,0,0,0,0,0,0,0,0,0,0,0,0,0,0,0,0,0,0],"id":6,"left_children":[1,3,5,7,9,-1,11,13,15,17,19,21,23,-1,-1,-1,-1,-1,-1,-1,-1,-1,-1,-1,-1],"loss_changes":[8.364798E0,5.362568E0,6.257828E0,4.3404593E0,5.666208E0,0E0,8.007219E0,4.1122046E0,4.355789E0,6.0757604E0,5.0806236E0,7.82998E0,1.2026457E1,0E0,0E0,0E0,0E0,0E0,0E0,0E0,0E0,0E0,0E0,0E0,0E0],"parents":[2147483647,0,0,1,1,2,2,3,3,4,4,6,6,7,7,8,8,9,9,10,10,11,11,12,12],"right_children":[2,4,6,8,10,-1,12,14,16,18,20,22,24,-1,-1,-1,-1,-1,-1,-1,-1,-1,-1,-1,-1],"split_conditions":[6.523311E-1,-1.0733455E0,-2.0318153E0,-1.3537636E-1,-4.2736253E-1,-5.8001447E-3,1.025501E0,1.3733527E-1,9.2980134E-1,-7.9713774E-1,-8.6400366E-1,6.609873E-1,-1.0266108E-1,-2.4886637E-3,3.2788285E-3,-3.212923E-3,-1.1555618E-2,-1.2658709E-3,1.6778569E-3,-3.4849462E-3,-4.3041178E-4,1.8899512E-3,-3.860362E-3,1.5266621E-2,3.045393E-3],"split_indices":[332,130,372,410,283,0,156,34,259,235,328,198,16,0,0,0,0,0,0,0,0,0,0,0,0],"split_type":[0,0,0,0,0,0,0,0,0,0,0,0,0,0,0,0,0,0,0,0,0,0,0,0,0],"sum_hessian":[1.282992E3,1.0525857E3,2.3040625E2,9.839373E1,9.5419196E2,9.125195E0,2.2128105E2,5.2908405E1,4.5485325E1,3.4632608E2,6.0786584E2,1.6398842E2,5.729263E1,3.6013725E1,1.6894678E1,3.8691696E1,6.793628E0,9.545152E1,2.5087456E2,5.923746E1,5.4862836E2,1.3694836E2,2.7040052E1,8.570615E0,4.8722015E1],"tree_param":{"num_deleted":"0","num_feature":"420","num_nodes":"25","size_leaf_vector":"1"}},{"base_weights":[-3.386324E-3,-1.6597062E-2,4.5689073E-1,7.852708E-3,-1.8826705E-1,9.079322E-2,9.727882E-1,2.2466923E-1,-1.7766384E-2,-7.467095E-1,-1.04663864E-1,-5.3803944E-3,3.881211E-3,1.6804507E-2,2.8100396E-3,-1.8042994E-3,3.5507742E-3,-7.8831415E-4,6.953223E-4,6.3426717E-4,-1.15938885E-2,-3.560604E-4,-6.5448163E-3],"categories":[],"categories_nodes":[],"categories_segments":[],"categories_sizes":[],"default_left":[0,0,0,0,0,0,0,0,0,0,0,0,0,0,0,0,0,0,0,0,0,0,0],"id":7,"left_children":[1,3,5,7,9,11,13,15,17,19,21,-1,-1,-1,-1,-1,-1,-1,-1,-1,-1,-1,-1],"loss_changes":[7.7152305E0,5.22618E0,6.445722E0,6.0624027E0,7.043344E0,4.499392E0,6.1562862E0,6.207225E0,5.194834E0,6.8423557E0,5.093542E0,0E0,0E0,0E0,0E0,0E0,0E0,0E0,0E0,0E0,0E0,0E0,0E0],"parents":[2147483647,0,0,1,1,2,2,3,3,4,4,5,5,6,6,7,7,8,8,9,9,10,10],"right_children":[2,4,6,8,10,12,14,16,18,20,22,-1,-1,-1,-1,-1,-1,-1,-1,-1,-1,-1,-1],"split_conditions":[2.2770264E0,9.261322E-1,-1.1546125E-1,-1.119267E0,-6.072098E-1,-6.64153E-1,2.7260256E-1,-7.179778E-1,4.655768E-1,-4.900483E-1,1.1762518E0,-5.3803944E-3,3.881211E-3,1.6804507E-2,2.8100396E-3,-1.8042994E-3,3.5507742E-3,-7.8831415E-4,6.953223E-4,6.3426717E-4,-1.15938885E-2,-3.560604E-4,-6.5448163E-3],"split_indices":[331,308,347,368,383,241,78,97,237,200,250,0,0,0,0,0,0,0,0,0,0,0,0],"split_type":[0,0,0,0,0,0,0,0,0,0,0,0,0,0,0,0,0,0,0,0,0,0,0],"sum_hessian":[1.2726975E3,1.2388048E3,3.3892643E1,1.0851091E3,1.5369571E2,2.0969692E1,1.292295E1,1.1384851E2,9.712606E2,1.8308344E1,1.3538737E2,6.234132E0,1.473556E1,5.2570004E0,7.665949E0,2.7397842E1,8.645067E1,5.7225885E2,3.9900177E2,6.525395E0,1.17829485E1,1.2186055E2,1.3526824E1],"tree_param":{"num_deleted":"0","num_feature":"420","num_nodes":"23","size_leaf_vector":"1"}},{"base_weights":[-7.3598195E-3,-3.41315E-2,2.0843714E-1,1.4865793E-1,-5.5688675E-2,1.21079154E-1,7.0320827E-1,-1.3034773E-2,5.147281E-1,5.4674345E-1,-6.4695515E-2,2.564505E-1,-2.2179395E-1,1.5061493E-2,2.6542982E-1,-2.2693807E-3,4.617235E-3,1.5979579E-2,2.485193E-3,-0E0,1.0725543E-2,-2.1613196E-3,-3.393585E-4,-2.9576956E-3,3.630026E-3,-4.5237057E-3,6.8070176E-3,-1.9701675E-3,5.670753E-3],"categories":[],"categories_nodes":[],"categories_segments":[],"categories_sizes":[],"default_left":[0,0,0,0,0,0,0,0,0,0,0,0,0,0,0,0,0,0,0,0,0,0,0,0,0,0,0,0,0],"id":8,"left_children":[1,3,5,7,9,11,13,15,17,19,21,23,25,-1,27,-1,-1,-1,-1,-1,-1,-1,-1,-1,-1,-1,-1,-1,-1],"loss_changes":[7.4330244E0,4.5241494E0,5.924255E0,7.21976E0,5.5821877E0,5.779859E0,6.539755E0,8.783128E0,9.971209E0,4.397423E0,4.6885176E0,5.393401E0,7.785159E0,0E0,2.3488908E0,0E0,0E0,0E0,0E0,0E0,0E0,0E0,0E0,0E0,0E0,0E0,0E0,0E0,0E0],"parents":[2147483647,0,0,1,1,2,2,3,3,4,4,5,5,6,6,7,7,8,8,9,9,10,10,11,11,12,12,14,14],"right_children":[2,4,6,8,10,12,14,16,18,20,22,24,26,-1,28,-1,-1,-1,-1,-1,-1,-1,-1,-1,-1,-1,-1,-1,-1],"split_conditions":[1.0040131E0,-1.119267E0,1.4967704E0,1.559973E-1,-1.8121542E0,2.0596077E0,-4.842007E-1,-8.759855E-2,-5.973966E-1,-6.284355E-1,-8.0416036E-1,-1.5544908E0,9.5490956E-1,1.5061493E-2,-5.854195E-1,-2.2693807E-3,4.617235E-3,1.5979579E-2,2.485193E-3,-0E0,1.0725543E-2,-2.1613196E-3,-3.393585E-4,-2.9576956E-3,3.630026E-3,-4.5237057E-3,6.8070176E-3,-1.9701675E-3,5.670753E-3],"split_indices":[269,368,183,17,40,353,139,98,257,350,103,39,389,0,284,0,0,0,0,0,0,0,0,0,0,0,0,0,0],"split_type":[0,0,0,0,0,0,0,0,0,0,0,0,0,0,0,0,0,0,0,0,0,0,0,0,0,0,0,0,0],"sum_hessian":[1.2862728E3,1.1458458E3,1.40427E2,1.1945658E2,1.0263893E3,1.2111231E2,1.9314693E1,8.3672134E1,3.5784447E1,1.3636544E1,1.0127527E3,8.7310555E1,3.3801758E1,5.44281E0,1.3871884E1,5.8367958E1,2.5304176E1,5.504891E0,3.0279556E1,7.380654E0,6.2558904E0,1.6890521E2,8.438475E2,1.3539274E1,7.3771286E1,2.7607353E1,6.194403E0,5.550815E0,8.321069E0],"tree_param":{"num_deleted":"0","num_feature":"420","num_nodes":"29","size_leaf_vector":"1"}},{"base_weights":[-1.7561512E-3,-3.0273551E-2,2.1109655E-1,1.1723124E-1,-5.9829812E-2,1.12839624E-1,6.73963E-1,-3.330275E-1,1.7598888E-1,1.8973254E-1,-8.265216E-2,9.494321E-3,4.9427878E-2,-5.563937E-2,1.4997162E0,-5.564512E-4,-9.659695E-3,-1.5295532E-3,2.609476E-3,5.925298E-3,1.2749294E-4,-1.1654051E-3,1.0695234E-3,-8.2144765E-3,1.0858965E-3,2.5662573E-3,-5.3821206E-3,2.02822E-2,6.8651997E-3],"categories":[],"categories_nodes":[],"categories_segments":[],"categories_sizes":[],"default_left":[0,0,0,0,0,0,0,0,0,0,0,0,0,0,0,0,0,0,0,0,0,0,0,0,0,0,0,0,0],"id":9,"left_children":[1,3,5,7,9,11,13,15,17,19,21,-1,23,25,27,-1,-1,-1,-1,-1,-1,-1,-1,-1,-1,-1,-1,-1,-1],"loss_changes":[7.803915E0,4.9605074E0,6.7127414E0,5.0906887E0,5.41523E0,6.579172E0,1.5998806E1,3.7181044E0,4.7928667E0,5.6000037E0,5.612711E0,0E0,6.2430515E0,2.5323071E0,2.9540539E0,0E0,0E0,0E0,0E0,0E0,0E0,0E0,0E0,0E0,0E0,0E0,0E0,0E0,0E0],"parents":[2147483647,0,0,1,1,2,2,3,3,4,4,5,5,6,6,7,7,8,8,9,9,10,10,12,12,13,13,14,14],"right_children":[2,4,6,8,10,12,14,16,18,20,22,-1,24,26,28,-1,-1,-1,-1,-1,-1,-1,-1,-1,-1,-1,-1,-1,-1],"split_conditions":[1.1775436E0,-8.61861E-1,8.1429076E-1,-4.229743E-1,-1.280857E0,-1.9312499E0,-5.8095265E-2,1.8893148E-1,-1.2695037E0,-4.4508392E-1,7.28671E-1,9.494321E-3,-1.28825E0,7.465165E-1,9.017053E-1,-5.564512E-4,-9.659695E-3,-1.5295532E-3,2.609476E-3,5.925298E-3,1.2749294E-4,-1.1654051E-3,1.0695234E-3,-8.2144765E-3,1.0858965E-3,2.5662573E-3,-5.3821206E-3,2.02822E-2,6.8651997E-3],"split_indices":[140,14,36,15,351,326,277,224,80,66,248,0,361,393,220,0,0,0,0,0,0,0,0,0,0,0,0,0,0],"split_type":[0,0,0,0,0,0,0,0,0,0,0,0,0,0,0,0,0,0,0,0,0,0,0,0,0,0,0,0,0],"sum_hessian":[1.2855516E3,1.1352152E3,1.5033644E2,1.8819049E2,9.470248E2,1.2572859E2,2.4607847E1,2.071883E1,1.6747166E2,7.806224E1,8.689625E2,7.2706757E0,1.1845792E2,1.3742952E1,1.0864894E1,1.5650135E1,5.068696E0,3.388762E1,1.3358405E2,2.2581627E1,5.5480618E1,7.3813904E2,1.308235E2,6.1984086E0,1.1225951E2,8.644398E0,5.0985546E0,5.1522365E0,5.7126575E0],"tree_param":{"num_deleted":"0","num_feature":"420","num_nodes":"29","size_leaf_vector":"1"}},{"base_weights":[-4.6844687E-3,-4.279123E-2,1.6768773E-1,2.2915121E-2,-1.2215922E-1,7.638385E-1,1.0889179E-1,-4.8486856E-1,4.001928E-2,-2.0533496E-1,2.4468396E-2,1.0136352E0,6.437534E-4,5.993661E-2,6.41281E-1,1.3828466E-3,-9.206101E-3,-3.3905318E-3,6.207919E-4,3.090412E-4,-2.7004145E-3,5.7824695E-4,-7.18971E-3,4.0023234E-3,1.5716335E-2,-5.294982E-4,3.2754773E-3,-6.2699386E-5,1.1625584E-2],"categories":[],"categories_nodes":[],"categories_segments":[],"categories_sizes":[],"default_left":[0,0,0,0,0,0,0,0,0,0,0,0,0,0,0,0,0,0,0,0,0,0,0,0,0,0,0,0,0],"id":10,"left_children":[1,3,5,7,9,11,13,15,17,19,21,23,-1,25,27,-1,-1,-1,-1,-1,-1,-1,-1,-1,-1,-1,-1,-1,-1],"loss_changes":[8.367447E0,5.464407E0,7.867559E0,4.9555473E0,5.8098397E0,3.339654E0,5.3902473E0,5.3127723E0,4.647205E0,4.6713724E0,4.275616E0,3.9059896E0,0E0,5.9659557E0,6.034457E0,0E0,0E0,0E0,0E0,0E0,0E0,0E0,0E0,0E0,0E0,0E0,0E0,0E0,0E0],"parents":[2147483647,0,0,1,1,2,2,3,3,4,4,5,5,6,6,7,7,8,8,9,9,10,10,11,11,13,13,14,14],"right_children":[2,4,6,8,10,12,14,16,18,20,22,24,-1,26,28,-1,-1,-1,-1,-1,-1,-1,-1,-1,-1,-1,-1,-1,-1],"split_conditions":[6.531843E-1,5.1682003E-2,-6.950436E-1,-1.0316485E0,5.645189E-1,9.3434596E-1,1.6178145E0,-6.317774E-1,-1.7847743E0,-8.4855485E-1,1.3190471E0,-5.367665E-1,6.437534E-4,1.8547608E-1,1.1330577E0,1.3828466E-3,-9.206101E-3,-3.3905318E-3,6.207919E-4,3.090412E-4,-2.7004145E-3,5.7824695E-4,-7.18971E-3,4.0023234E-3,1.5716335E-2,-5.294982E-4,3.2754773E-3,-6.2699386E-5,1.1625584E-2],"split_indices":[206,375,245,223,347,300,327,376,305,14,125,371,0,244,329,0,0,0,0,0,0,0,0,0,0,0,0,0,0],"split_type":[0,0,0,0,0,0,0,0,0,0,0,0,0,0,0,0,0,0,0,0,0,0,0,0,0,0,0,0,0],"sum_hessian":[1.2726287E3,1.0436206E3,2.2900807E2,5.7084357E2,4.7277707E2,1.8791119E1,2.1021696E2,1.7074413E1,5.537691E2,3.0171063E2,1.7106644E2,1.3244465E1,5.546654E0,1.9421487E2,1.6002083E1,7.3531547E0,9.721259E0,2.9019371E1,5.2474976E2,6.47072E1,2.3700342E2,1.6517336E2,5.8930826E0,7.621416E0,5.6230483E0,1.3717842E2,5.703646E1,7.712027E0,8.290055E0],"tree_param":{"num_deleted":"0","num_feature":"420","num_nodes":"29","size_leaf_vector":"1"}},{"base_weights":[-5.166315E-3,-4.990963E-2,1.14300266E-1,-2.442964E-1,-1.0474567E-2,6.555574E-2,3.9080432E-1,-1.4503008E-1,-7.462369E-1,-3.4887162E-1,1.0756284E-2,2.9756176E-1,-8.09757E-3,-3.8779608E-3,5.2377284E-1,3.4218666E-3,-2.4321813E-3,-1.0001426E-2,1.9760379E-3,-5.3479397E-3,3.8525912E-3,9.2181115E-4,-8.584281E-4,1.0676788E-3,8.522203E-3,-3.5863294E-4,7.2434866E-3,2.7820377E-3,9.870266E-3],"categories":[],"categories_nodes":[],"categories_segments":[],"categories_sizes":[],"default_left":[0,0,0,0,0,0,0,0,0,0,0,0,0,0,0,0,0,0,0,0,0,0,0,0,0,0,0,0,0],"id":11,"left_children":[1,3,5,7,9,11,13,15,17,19,21,23,25,-1,27,-1,-1,-1,-1,-1,-1,-1,-1,-1,-1,-1,-1,-1,-1],"loss_changes":[6.8345113E0,7.1118E0,4.607996E0,7.5521917E0,5.61784E0,5.125856E0,5.6565895E0,6.4673405E0,6.4472933E0,6.6246276E0,5.7684646E0,7.407118E0,4.594177E0,0E0,4.556899E0,0E0,0E0,0E0,0E0,0E0,0E0,0E0,0E0,0E0,0E0,0E0,0E0,0E0,0E0],"parents":[2147483647,0,0,1,1,2,2,3,3,4,4,5,5,6,6,7,7,8,8,9,9,10,10,11,11,12,12,14,14],"right_children":[2,4,6,8,10,12,14,16,18,20,22,24,26,-1,28,-1,-1,-1,-1,-1,-1,-1,-1,-1,-1,-1,-1,-1,-1],"split_conditions":[3.4477946E-1,-7.123057E-1,6.6201127E-1,1.2939236E-1,-1.1085589E0,-5.7344127E-1,-1.5224801E0,-9.434938E-1,3.6943078E-1,7.401882E-1,8.513272E-2,3.8526708E-1,2.2881565E0,-3.8779608E-3,8.377784E-1,3.4218666E-3,-2.4321813E-3,-1.0001426E-2,1.9760379E-3,-5.3479397E-3,3.8525912E-3,9.2181115E-4,-8.584281E-4,1.0676788E-3,8.522203E-3,-3.5863294E-4,7.2434866E-3,2.7820377E-3,9.870266E-3],"split_indices":[164,57,97,101,73,305,41,266,328,277,228,385,270,0,165,0,0,0,0,0,0,0,0,0,0,0,0,0,0],"split_type":[0,0,0,0,0,0,0,0,0,0,0,0,0,0,0,0,0,0,0,0,0,0,0,0,0,0,0,0,0],"sum_hessian":[1.2766985E3,9.300727E2,3.466258E2,1.5511888E2,7.749538E2,2.965625E2,5.0063316E1,1.3128745E2,2.3831444E1,4.466135E1,7.302925E2,7.068963E1,2.2587286E2,6.7736006E0,4.3289715E1,2.122439E1,1.1006306E2,1.8792488E1,5.0389557E0,3.6069958E1,8.591393E0,3.9686923E2,3.3342325E2,5.406213E1,1.6627497E1,2.1912915E2,6.74371E0,3.0002295E1,1.3287423E1],"tree_param":{"num_deleted":"0","num_feature":"420","num_nodes":"29","size_leaf_vector":"1"}},{"base_weights":[-1.5717454E-3,-2.841109E-2,2.2266087E-1,5.375572E-1,-3.6668096E-2,4.652962E-1,4.5113796E-3,1.0720387E-2,6.122243E-4,-1.7570516E-2,-2.6614758E-1,2.3467873E-1,1.269049E0,1.546193E-1,-5.183565E-1,3.4498164E-4,-1.2788547E-3,-1.6443479E-3,-1.256802E-2,4.2518433E-3,-2.0928103E-3,2.152339E-3,1.9145874E-2,4.2999317E-3,-7.304188E-4,-1.0791144E-2,-1.051321E-3],"categories":[],"categories_nodes":[],"categories_segments":[],"categories_sizes":[],"default_left":[0,0,0,0,0,0,0,0,0,0,0,0,0,0,0,0,0,0,0,0,0,0,0,0,0,0,0],"id":12,"left_children":[1,3,5,7,9,11,13,-1,-1,15,17,19,21,23,25,-1,-1,-1,-1,-1,-1,-1,-1,-1,-1,-1,-1],"loss_changes":[7.6635084E0,5.3090644E0,7.152195E0,3.9433484E0,4.897718E0,1.1300799E1,5.8433833E0,0E0,0E0,5.9963593E0,8.210577E0,4.5373454E0,8.607113E0,3.7388964E0,3.5496058E0,0E0,0E0,0E0,0E0,0E0,0E0,0E0,0E0,0E0,0E0,0E0,0E0],"parents":[2147483647,0,0,1,1,2,2,3,3,4,4,5,5,6,6,9,9,10,10,11,11,12,12,13,13,14,14],"right_children":[2,4,6,8,10,12,14,-1,-1,16,18,20,22,24,26,-1,-1,-1,-1,-1,-1,-1,-1,-1,-1,-1,-1],"split_conditions":[1.0040131E0,-1.7869302E0,3.129713E-1,1.3124034E-1,1.4697261E0,1.9864358E-1,1.1819581E0,1.0720387E-2,6.122243E-4,3.081459E-1,1.0507567E0,1.2753805E0,-9.632821E-1,1.2929877E0,3.5076565E-1,3.4498164E-4,-1.2788547E-3,-1.6443479E-3,-1.256802E-2,4.2518433E-3,-2.0928103E-3,2.152339E-3,1.9145874E-2,4.2999317E-3,-7.304188E-4,-1.0791144E-2,-1.051321E-3],"split_indices":[269,198,337,98,29,256,158,0,0,284,308,16,120,37,246,0,0,0,0,0,0,0,0,0,0,0,0],"split_type":[0,0,0,0,0,0,0,0,0,0,0,0,0,0,0,0,0,0,0,0,0,0,0,0,0,0,0],"sum_hessian":[1.2735277E3,1.138957E3,1.3457065E2,1.4820704E1,1.1241364E3,6.268826E1,7.188239E1,6.0011497E0,8.819555E0,1.0396648E3,8.447162E1,5.03142E1,1.2374061E1,5.681834E1,1.50640545E1,7.063784E2,3.3328635E2,7.828394E1,6.1876726E0,3.540878E1,1.4905421E1,5.5192103E0,6.85485E0,2.531003E1,3.1508308E1,5.262928E0,9.8011265E0],"tree_param":{"num_deleted":"0","num_feature":"420","num_nodes":"27","size_leaf_vector":"1"}},{"base_weights":[-5.7428833E-3,-3.3488296E-2,2.2071658E-1,-2.7618667E-2,-8.202177E-3,2.9118583E-1,-3.6046675E-1,-1.9275951E-1,-1.2999632E-3,7.518056E-1,1.9439197E-1,2.3545719E-4,-7.2727706E-3,-7.924458E-3,-1.2324981E-3,-3.0037985E-4,1.5613654E-3,5.465331E-4,1.3928013E-2,2.5190818E-3,-7.034777E-3],"categories":[],"categories_nodes":[],"categories_segments":[],"categories_sizes":[],"default_left":[0,0,0,0,0,0,0,0,0,0,0,0,0,0,0,0,0,0,0,0,0],"id":13,"left_children":[1,3,5,7,-1,9,11,13,15,17,19,-1,-1,-1,-1,-1,-1,-1,-1,-1,-1],"loss_changes":[8.02243E0,5.1465755E0,5.8554087E0,4.9065647E0,0E0,5.268881E0,2.2906604E0,6.234489E0,4.4269137E0,9.143609E0,5.6778812E0,0E0,0E0,0E0,0E0,0E0,0E0,0E0,0E0,0E0,0E0],"parents":[2147483647,0,0,1,1,2,2,3,3,5,5,6,6,7,7,8,8,9,9,10,10],"right_children":[2,4,6,8,-1,10,12,14,16,18,20,-1,-1,-1,-1,-1,-1,-1,-1,-1,-1],"split_conditions":[1.0040131E0,2.4814143E0,1.4801906E0,-7.893288E-1,-8.202177E-3,-9.538131E-1,-9.841857E-1,-1.2156142E0,7.540147E-1,-4.0815812E-1,1.5378445E0,2.3545719E-4,-7.2727706E-3,-7.924458E-3,-1.2324981E-3,-3.0037985E-4,1.5613654E-3,5.465331E-4,1.3928013E-2,2.5190818E-3,-7.034777E-3],"split_indices":[269,198,338,55,0,246,9,418,371,13,301,0,0,0,0,0,0,0,0,0,0],"split_type":[0,0,0,0,0,0,0,0,0,0,0,0,0,0,0,0,0,0,0,0,0],"sum_hessian":[1.2765195E3,1.1387247E3,1.3779477E2,1.1319592E3,6.765549E0,1.2371473E2,1.4080043E1,1.537768E2,9.781824E2,1.9540796E1,1.0417393E2,7.431317E0,6.6487255E0,1.4202978E1,1.3957382E2,8.287531E2,1.4942929E2,1.0214894E1,9.325902E0,9.90213E1,5.152628E0],"tree_param":{"num_deleted":"0","num_feature":"420","num_nodes":"21","size_leaf_vector":"1"}},{"base_weights":[1.6226156E-2,4.6540317E-1,6.4675007E-3,9.665011E-1,-7.00086E-2,2.360678E-1,-8.598329E-3,1.2529909E-3,1.5611142E-2,5.215364E-3,-5.639207E-3,-1.7783292E-1,4.2106172E-1,-2.3417939E-3,-6.4137247E-3,1.3789207E-3,-5.703492E-3,2.6370473E-3,1.0382835E-2,-3.5132496E-3,8.0670005E-5],"categories":[],"categories_nodes":[],"categories_segments":[],"categories_sizes":[],"default_left":[0,0,0,0,0,0,0,0,0,0,0,0,0,0,0,0,0,0,0,0,0],"id":14,"left_children":[1,3,5,7,9,11,13,-1,-1,-1,-1,15,17,19,-1,-1,-1,-1,-1,-1,-1],"loss_changes":[5.594829E0,7.4759235E0,4.393002E0,6.6523275E0,4.661105E0,6.12464E0,4.6279945E0,0E0,0E0,0E0,0E0,3.2648706E0,4.767871E0,4.309916E0,0E0,0E0,0E0,0E0,0E0,0E0,0E0],"parents":[2147483647,0,0,1,1,2,2,3,3,4,4,5,5,6,6,11,11,12,12,13,13],"right_children":[2,4,6,8,10,12,14,-1,-1,-1,-1,16,18,20,-1,-1,-1,-1,-1,-1,-1],"split_conditions":[-1.9123238E0,-1.2964201E-1,-1.3323501E0,-2.6075718E-1,1.2666688E0,-6.11693E-1,2.4814143E0,1.2529909E-3,1.5611142E-2,5.215364E-3,-5.639207E-3,-2.7130795E-1,3.3918464E-1,-1.8307984E0,-6.4137247E-3,1.3789207E-3,-5.703492E-3,2.6370473E-3,1.0382835E-2,-3.5132496E-3,8.0670005E-5],"split_indices":[23,55,112,394,382,94,198,0,0,0,0,307,312,216,0,0,0,0,0,0,0],"split_type":[0,0,0,0,0,0,0,0,0,0,0,0,0,0,0,0,0,0,0,0,0],"sum_hessian":[1.2866733E3,2.5652252E1,1.2610211E3,1.2723357E1,1.2928894E1,7.670382E1,1.1843173E3,6.0908566E0,6.632501E0,5.752693E0,7.1762013E0,2.3544178E1,5.3159637E1,1.1743694E3,9.947954E0,1.3446561E1,1.0097617E1,4.4195217E1,8.964422E0,3.286772E1,1.1415016E3],"tree_param":{"num_deleted":"0","num_feature":"420","num_nodes":"21","size_leaf_vector":"1"}},{"base_weights":[1.781186E-3,-1.4719024E-2,3.7250683E-1,2.3880599E-3,-2.2760442E-1,3.4075074E-2,7.839933E-1,-1.4177176E-1,3.272761E-2,-3.8557017E-1,1.2042869E-1,-5.1664365E-3,4.1685948E-1,1.0432563E0,-1.1734196E-3,-9.170286E-3,-9.305164E-4,5.412681E-3,1.8401678E-4,-1.017344E-2,-2.693564E-3,8.858754E-3,-1.1947908E-3,-1.7964231E-3,7.1679233E-3,1.4842313E-2,2.740861E-3],"categories":[],"categories_nodes":[],"categories_segments":[],"categories_sizes":[],"default_left":[0,0,0,0,0,0,0,0,0,0,0,0,0,0,0,0,0,0,0,0,0,0,0,0,0,0,0],"id":15,"left_children":[1,3,5,7,9,11,13,15,17,19,21,-1,23,25,-1,-1,-1,-1,-1,-1,-1,-1,-1,-1,-1,-1,-1],"loss_changes":[7.8771224E0,4.4924593E0,7.5208135E0,4.968698E0,5.1391044E0,7.019888E0,6.0168047E0,7.2262344E0,6.7849264E0,4.1332436E0,5.667644E0,0E0,3.7725668E0,5.765602E0,0E0,0E0,0E0,0E0,0E0,0E0,0E0,0E0,0E0,0E0,0E0,0E0,0E0],"parents":[2147483647,0,0,1,1,2,2,3,3,4,4,5,5,6,6,7,7,8,8,9,9,10,10,12,12,13,13],"right_children":[2,4,6,8,10,12,14,16,18,20,22,-1,24,26,-1,-1,-1,-1,-1,-1,-1,-1,-1,-1,-1,-1,-1],"split_conditions":[1.8621211E0,1.4697261E0,7.5706655E-1,-1.0647678E0,2.0496441E-1,-5.755822E-1,6.827853E-1,-9.064378E-1,-1.7479048E0,-9.1831195E-1,9.000676E-1,-5.1664365E-3,-3.7697387E-1,1.1107544E0,-1.1734196E-3,-9.170286E-3,-9.305164E-4,5.412681E-3,1.8401678E-4,-1.017344E-2,-2.693564E-3,8.858754E-3,-1.1947908E-3,-1.7964231E-3,7.1679233E-3,1.4842313E-2,2.740861E-3],"split_indices":[205,29,245,90,284,179,139,299,40,326,19,0,93,381,0,0,0,0,0,0,0,0,0,0,0,0,0],"split_type":[0,0,0,0,0,0,0,0,0,0,0,0,0,0,0,0,0,0,0,0,0,0,0,0,0,0,0],"sum_hessian":[1.2790385E3,1.2256578E3,5.3380722E1,1.1354302E3,9.022767E1,3.0315022E1,2.30657E1,1.9588202E2,9.395481E2,6.214621E1,2.8081459E1,1.2108506E1,1.8206514E1,1.7815851E1,5.249848E0,9.88005E0,1.8600198E2,2.4039581E1,9.155085E2,7.714764E0,5.4431446E1,5.8367558E0,2.2244703E1,6.18134E0,1.2025174E1,1.0354815E1,7.461037E0],"tree_param":{"num_deleted":"0","num_feature":"420","num_nodes":"27","size_leaf_vector":"1"}},{"base_weights":[1.4194418E-2,-8.815921E-3,2.6094377E-1,5.9873E-1,-1.701651E-2,6.788627E-1,1.1205967E-1,-1.6325623E-3,1.17801605E-2,1.9290076E-3,-2.3339358E-1,-2.1909857E-3,1.09392E0,7.5915186E-3,2.3243587E-2,-3.2354852E-3,1.6881421E-4,-3.5532906E-3,2.8499274E-3,1.7393171E-3,1.3981927E-2,2.5357923E-3,-2.2188001E-3],"categories":[],"categories_nodes":[],"categories_segments":[],"categories_sizes":[],"default_left":[0,0,0,0,0,0,0,0,0,0,0,0,0,0,0,0,0,0,0,0,0,0,0],"id":16,"left_children":[1,3,5,7,9,11,13,-1,-1,15,17,-1,19,-1,21,-1,-1,-1,-1,-1,-1,-1,-1],"loss_changes":[7.334527E0,5.826515E0,6.6622567E0,7.2620964E0,4.7954874E0,1.1057148E1,4.677575E0,0E0,0E0,5.1914334E0,6.1100764E0,0E0,5.0192795E0,0E0,4.3137097E0,0E0,0E0,0E0,0E0,0E0,0E0,0E0,0E0],"parents":[2147483647,0,0,1,1,2,2,3,3,4,4,5,5,6,6,9,9,10,10,12,12,14,14],"right_children":[2,4,6,8,10,12,14,-1,-1,16,18,-1,20,-1,22,-1,-1,-1,-1,-1,-1,-1,-1],"split_conditions":[1.3153385E0,-2.0711915E0,-4.7039485E-1,-6.456378E-1,1.4053426E0,-1.01872E0,-8.8361305E-1,-1.6325623E-3,1.17801605E-2,-1.8030657E0,6.8636334E-1,-2.1909857E-3,-5.340085E-1,7.5915186E-3,1.1669563E-1,-3.2354852E-3,1.6881421E-4,-3.5532906E-3,2.8499274E-3,1.7393171E-3,1.3981927E-2,2.5357923E-3,-2.2188001E-3],"split_indices":[184,23,333,203,309,384,309,0,0,306,100,0,17,0,243,0,0,0,0,0,0,0,0],"split_type":[0,0,0,0,0,0,0,0,0,0,0,0,0,0,0,0,0,0,0,0,0,0,0],"sum_hessian":[1.2852451E3,1.1765669E3,1.08678314E2,1.4068688E1,1.1624982E3,2.696793E1,8.171038E1,6.466874E0,7.601814E0,1.069849E3,9.264922E1,8.672517E0,1.8295414E1,8.359319E0,7.335107E1,4.533658E1,1.0245123E3,7.554433E1,1.7104902E1,5.2146573E0,1.3080756E1,3.7999878E1,3.5351185E1],"tree_param":{"num_deleted":"0","num_feature":"420","num_nodes":"23","size_leaf_vector":"1"}},{"base_weights":[-3.6973131E-3,-3.0501787E-2,2.2116919E-1,2.0809245E-1,-5.5133894E-2,1.2089527E-2,1.6119777E-1,1.15521885E-1,8.1394434E-1,-4.2667556E-1,-4.014266E-2,3.0354193E-1,-1.8458231E-1,3.137939E-3,-2.1585955E-3,1.4076491E-2,5.808326E-4,-6.112732E-3,1.4096302E-3,-2.2603666E-4,-3.6982547E-3,-5.411637E-4,4.6871654E-3,-3.7172048E-3,4.5143813E-3],"categories":[],"categories_nodes":[],"categories_segments":[],"categories_sizes":[],"default_left":[0,0,0,0,0,0,0,0,0,0,0,0,0,0,0,0,0,0,0,0,0,0,0,0,0],"id":17,"left_children":[1,3,5,7,9,-1,11,13,15,17,19,21,23,-1,-1,-1,-1,-1,-1,-1,-1,-1,-1,-1,-1],"loss_changes":[7.634926E0,6.6713886E0,7.55922E0,5.7181478E0,5.665702E0,0E0,6.443365E0,6.2844915E0,5.8676834E0,4.3195343E0,5.685182E0,5.5219574E0,4.806492E0,0E0,0E0,0E0,0E0,0E0,0E0,0E0,0E0,0E0,0E0,0E0,0E0],"parents":[2147483647,0,0,1,1,2,2,3,3,4,4,6,6,7,7,8,8,9,9,10,10,11,11,12,12],"right_children":[2,4,6,8,10,-1,12,14,16,18,20,22,24,-1,-1,-1,-1,-1,-1,-1,-1,-1,-1,-1,-1],"split_conditions":[1.0040131E0,-1.1575184E0,-1.6151175E0,8.0124E-1,-1.7218932E0,1.2089527E-2,2.0596077E0,-1.4837261E-4,1.4010651E-1,7.922636E-1,1.61566E0,-5.7318866E-1,1.0456492E0,3.137939E-3,-2.1585955E-3,1.4076491E-2,5.808326E-4,-6.112732E-3,1.4096302E-3,-2.2603666E-4,-3.6982547E-3,-5.411637E-4,4.6871654E-3,-3.7172048E-3,4.5143813E-3],"split_indices":[269,368,411,96,309,0,353,181,41,374,62,13,200,0,0,0,0,0,0,0,0,0,0,0,0],"split_type":[0,0,0,0,0,0,0,0,0,0,0,0,0,0,0,0,0,0,0,0,0,0,0,0,0],"sum_hessian":[1.2666816E3,1.1333282E3,1.3335344E2,1.0462887E2,1.0286993E3,5.8925257E0,1.2746091E2,9.245358E1,1.2175283E1,3.8040615E1,9.9065875E2,9.062611E1,3.68348E1,5.8082848E1,3.437073E1,6.020559E0,6.154725E0,2.8751432E1,9.289184E0,9.424281E2,4.823063E1,2.8758175E1,6.186793E1,2.9063824E1,7.7709785E0],"tree_param":{"num_deleted":"0","num_feature":"420","num_nodes":"25","size_leaf_vector":"1"}},{"base_weights":[1.4185663E-2,6.311502E-3,7.330572E-1,-2.1437243E-2,1.4966631E-1,-3.026571E-4,1.3676926E-2,-4.4055097E-2,1.9188318E-1,2.1864355E-1,-2.2554204E-1,2.2542495E-3,-6.6407514E-4,-4.8358105E-3,2.7183497E-3,2.8372258E-3,-2.093518E-3,9.612952E-4,-1.0061017E-2],"categories":[],"categories_nodes":[],"categories_segments":[],"categories_sizes":[],"default_left":[0,0,0,0,0,0,0,0,0,0,0,0,0,0,0,0,0,0,0],"id":18,"left_children":[1,3,5,7,9,-1,-1,11,13,15,17,-1,-1,-1,-1,-1,-1,-1,-1],"loss_changes":[7.1967163E0,5.0831075E0,6.8710456E0,5.148968E0,5.438014E0,0E0,0E0,5.830774E0,5.6953425E0,5.0010786E0,8.447139E0,0E0,0E0,0E0,0E0,0E0,0E0,0E0,0E0],"parents":[2147483647,0,0,1,1,2,2,3,3,4,4,7,7,8,8,9,9,10,10],"right_children":[2,4,6,8,10,-1,-1,12,14,16,18,-1,-1,-1,-1,-1,-1,-1,-1],"split_conditions":[3.517804E0,7.4043447E-1,-1.6271147E-1,1.003632E0,6.6208804E-1,-3.026571E-4,1.3676926E-2,-1.280857E0,-1.3892965E0,1.5940645E0,1.3103549E-1,2.2542495E-3,-6.6407514E-4,-4.8358105E-3,2.7183497E-3,2.8372258E-3,-2.093518E-3,9.612952E-4,-1.0061017E-2],"split_indices":[329,248,286,140,139,0,0,351,115,398,259,0,0,0,0,0,0,0,0],"split_type":[0,0,0,0,0,0,0,0,0,0,0,0,0,0,0,0,0,0,0],"sum_hessian":[1.284178E3,1.2718986E3,1.2279467E1,1.0661125E3,2.0578596E2,6.151499E0,6.127968E0,9.6541125E2,1.0070126E2,1.7458347E2,3.1202497E1,7.2557625E1,8.9285364E2,9.724183E0,9.097708E1,1.5218256E2,2.2400908E1,2.2937162E1,8.265336E0],"tree_param":{"num_deleted":"0","num_feature":"420","num_nodes":"19","size_leaf_vector":"1"}},{"base_weights":[8.153607E-3,-2.4025783E-2,1.6832753E-1,-1.3773836E-1,1.579778E-2,9.574441E-2,5.656102E-1,4.4783828E-1,-1.7945811E-1,3.461871E-2,-3.1338912E-1,1.4476533E-1,-5.78143E-1,1.0964597E0,1.9628E-1,8.899751E-3,-4.491226E-3,-1.3664169E-3,-6.422015E-3,8.6747296E-4,-9.5104455E-4,-1.68107E-3,-9.709412E-3,5.509048E-5,3.627867E-3,3.2726646E-4,-9.9673625E-3,-3.3503558E-4,1.860719E-2,5.051403E-3,-1.3932352E-3],"categories":[],"categories_nodes":[],"categories_segments":[],"categories_sizes":[],"default_left":[0,0,0,0,0,0,0,0,0,0,0,0,0,0,0,0,0,0,0,0,0,0,0,0,0,0,0,0,0,0,0],"id":19,"left_children":[1,3,5,7,9,11,13,15,17,19,21,23,25,27,29,-1,-1,-1,-1,-1,-1,-1,-1,-1,-1,-1,-1,-1,-1,-1,-1],"loss_changes":[6.6427946E0,4.8638926E0,6.07104E0,6.897742E0,4.905559E0,6.1722407E0,5.977438E0,8.096418E0,4.965989E0,5.0992756E0,3.7284575E0,5.218373E0,3.383381E0,1.1517246E1,2.34763E0,0E0,0E0,0E0,0E0,0E0,0E0,0E0,0E0,0E0,0E0,0E0,0E0,0E0,0E0,0E0,0E0],"parents":[2147483647,0,0,1,1,2,2,3,3,4,4,5,5,6,6,7,7,8,8,9,9,10,10,11,11,12,12,13,13,14,14],"right_children":[2,4,6,8,10,12,14,16,18,20,22,24,26,28,30,-1,-1,-1,-1,-1,-1,-1,-1,-1,-1,-1,-1,-1,-1,-1,-1],"split_conditions":[7.4043447E-1,-4.5814472E-1,1.4480903E0,-9.1671425E-1,1.2726254E0,2.2446394E0,2.0367497E-1,1.7286405E-1,1.243842E0,2.0408677E-1,8.35979E-1,3.9324552E-1,-4.279454E-1,-5.529558E-1,1.0537218E0,8.899751E-3,-4.491226E-3,-1.3664169E-3,-6.422015E-3,8.6747296E-4,-9.5104455E-4,-1.68107E-3,-9.709412E-3,5.509048E-5,3.627867E-3,3.2726646E-4,-9.9673625E-3,-3.3503558E-4,1.860719E-2,5.051403E-3,-1.3932352E-3],"split_indices":[248,46,204,244,47,356,337,333,202,181,94,137,372,154,405,0,0,0,0,0,0,0,0,0,0,0,0,0,0,0,0],"split_type":[0,0,0,0,0,0,0,0,0,0,0,0,0,0,0,0,0,0,0,0,0,0,0,0,0,0,0,0,0,0,0],"sum_hessian":[1.2833107E3,1.0691633E3,2.1414725E2,2.7700986E2,7.921535E2,1.8285335E2,3.1293901E1,1.7292631E1,2.5971722E2,7.508694E2,4.1284164E1,1.7169017E2,1.1163182E1,1.1516686E1,1.9777214E1,1.1665536E1,5.6270957E0,2.3969766E2,2.0019558E1,5.365338E2,2.1433554E2,3.5480522E1,5.803642E0,1.0598878E2,6.570139E1,5.004195E0,6.1589875E0,5.1725006E0,6.344186E0,1.0059521E1,9.717693E0],"tree_param":{"num_deleted":"0","num_feature":"420","num_nodes":"31","size_leaf_vector":"1"}},{"base_weights":[-2.4592038E-3,-1.41232805E-2,3.5535708E-1,3.5602587E-1,-2.6234277E-2,-5.228884E-3,5.255255E-1,-9.9606976E-2,6.1567515E-1,-3.81706E-1,-1.3754166E-2,2.3035496E-1,1.3082441E-2,3.4212838E-3,-4.453213E-3,1.142406E-3,9.328488E-3,-1.4673732E-3,-1.2717952E-2,-2.5514375E-5,-4.050809E-3,8.937797E-3,-0E0],"categories":[],"categories_nodes":[],"categories_segments":[],"categories_sizes":[],"default_left":[0,0,0,0,0,0,0,0,0,0,0,0,0,0,0,0,0,0,0,0,0,0,0],"id":20,"left_children":[1,3,5,7,9,-1,11,13,15,17,19,21,-1,-1,-1,-1,-1,-1,-1,-1,-1,-1,-1],"loss_changes":[5.3383512E0,5.5693035E0,6.445265E0,4.797268E0,5.3149705E0,0E0,7.4014206E0,2.5953119E0,3.7760258E0,8.084095E0,5.085022E0,4.17821E0,0E0,0E0,0E0,0E0,0E0,0E0,0E0,0E0,0E0,0E0,0E0],"parents":[2147483647,0,0,1,1,2,2,3,3,4,4,6,6,7,7,8,8,9,9,10,10,11,11],"right_children":[2,4,6,8,10,-1,12,14,16,18,20,22,-1,-1,-1,-1,-1,-1,-1,-1,-1,-1,-1],"split_conditions":[2.147659E0,-1.7807671E0,-2.1202822E0,-7.1575403E-1,-1.7235233E0,-5.228884E-3,7.1079403E-1,-4.4832012E-1,-2.027607E-1,1.0854567E0,1.6720499E0,-1.0781568E0,1.3082441E-2,3.4212838E-3,-4.453213E-3,1.142406E-3,9.328488E-3,-1.4673732E-3,-1.2717952E-2,-2.5514375E-5,-4.050809E-3,8.937797E-3,-0E0],"split_indices":[205,342,199,5,306,0,91,34,141,393,405,11,0,0,0,0,0,0,0,0,0,0,0],"split_type":[0,0,0,0,0,0,0,0,0,0,0,0,0,0,0,0,0,0,0,0,0,0,0],"sum_hessian":[1.2839492E3,1.2450824E3,3.8866867E1,3.7836315E1,1.2072461E3,5.708464E0,3.31584E1,1.3930497E1,2.3905817E1,3.9170143E1,1.1680759E3,2.558084E1,7.5775623E0,5.9957504E0,7.934747E0,1.01750965E1,1.37307205E1,3.2460693E1,6.7094474E0,1.1372836E3,3.0792332E1,5.529188E0,2.0051651E1],"tree_param":{"num_deleted":"0","num_feature":"420","num_nodes":"23","size_leaf_vector":"1"}},{"base_weights":[-1.9746648E-2,-4.9898714E-2,1.2859726E-1,-4.872067E-1,-3.495676E-2,2.6500964E-1,-4.203292E-2,-1.239079E-2,-1.9876656E-1,-3.5929483E-1,-1.9593282E-2,3.330735E-1,-6.6987043E-3,4.041019E-1,-1.4307341E-1,-3.9731185E-3,3.0335367E-3,-8.599623E-3,-1.9459791E-3,-5.5265E-5,-3.8679945E-3,2.0700283E-3,8.106684E-3,7.98315E-3,-5.612738E-4,-2.4857153E-3,3.2942917E-3],"categories":[],"categories_nodes":[],"categories_segments":[],"categories_sizes":[],"default_left":[0,0,0,0,0,0,0,0,0,0,0,0,0,0,0,0,0,0,0,0,0,0,0,0,0,0,0],"id":21,"left_children":[1,3,5,7,9,11,13,-1,15,17,19,21,-1,23,25,-1,-1,-1,-1,-1,-1,-1,-1,-1,-1,-1,-1],"loss_changes":[5.793619E0,6.964777E0,5.1270394E0,7.136279E0,5.153856E0,8.064617E0,4.482113E0,0E0,2.9193244E0,3.505571E0,5.1161637E0,6.560545E0,0E0,3.4655364E0,4.1656117E0,0E0,0E0,0E0,0E0,0E0,0E0,0E0,0E0,0E0,0E0,0E0,0E0],"parents":[2147483647,0,0,1,1,2,2,3,3,4,4,5,5,6,6,8,8,9,9,10,10,11,11,13,13,14,14],"right_children":[2,4,6,8,10,12,14,-1,16,18,20,22,-1,24,26,-1,-1,-1,-1,-1,-1,-1,-1,-1,-1,-1,-1],"split_conditions":[7.295267E-1,-1.5265708E0,4.341025E-1,8.802746E-1,-1.5051452E0,1.810205E0,-3.1056595E-1,-1.239079E-2,4.9205622E-1,-6.1710775E-1,1.7245358E0,1.2282101E0,-6.6987043E-3,6.315044E-2,1.4092101E0,-3.9731185E-3,3.0335367E-3,-8.599623E-3,-1.9459791E-3,-5.5265E-5,-3.8679945E-3,2.0700283E-3,8.106684E-3,7.98315E-3,-5.612738E-4,-2.4857153E-3,3.2942917E-3],"split_indices":[185,115,312,114,183,50,140,0,347,95,251,247,0,163,331,0,0,0,0,0,0,0,0,0,0,0,0],"split_type":[0,0,0,0,0,0,0,0,0,0,0,0,0,0,0,0,0,0,0,0,0,0,0,0,0,0,0],"sum_hessian":[1.293386E3,1.0762909E3,2.1709505E2,3.377224E1,1.0425187E3,1.2050902E2,9.658604E1,7.8969655E0,2.5875275E1,4.533631E1,9.971824E2,1.1333055E2,7.1784654E0,1.6821863E1,7.976417E1,1.8910181E1,6.9650936E0,9.504346E0,3.5831966E1,9.621207E2,3.506162E1,9.152915E1,2.1801407E1,8.584295E0,8.237568E0,6.5959564E1,1.3804609E1],"tree_param":{"num_deleted":"0","num_feature":"420","num_nodes":"27","size_leaf_vector":"1"}},{"base_weights":[1.35378E-3,1.6118977E-2,-2.8554773E-1,-2.516732E-3,2.3140512E-1,-7.007926E-2,-6.6279936E-1,-2.3574908E-1,1.5322967E-2,1.0350474E-2,1.5412027E-1,-1.8713114E-1,5.0957724E-3,-9.454775E-1,3.638732E-4,-3.0635684E-3,5.4002753E-3,-3.4023367E-3,3.1014447E-4,-4.3922546E-3,2.3348816E-3,9.8792654E-5,-6.5553426E-3,-3.5724249E-3,-1.567869E-2],"categories":[],"categories_nodes":[],"categories_segments":[],"categories_sizes":[],"default_left":[0,0,0,0,0,0,0,0,0,0,0,0,0,0,0,0,0,0,0,0,0,0,0,0,0],"id":22,"left_children":[1,3,5,7,9,11,13,15,17,-1,19,21,-1,23,-1,-1,-1,-1,-1,-1,-1,-1,-1,-1,-1],"loss_changes":[5.435479E0,4.944746E0,4.96039E0,4.728758E0,5.7384257E0,2.9473073E0,4.584984E0,4.6492662E0,5.8465886E0,0E0,4.4386406E0,3.3984678E0,0E0,4.8849316E0,0E0,0E0,0E0,0E0,0E0,0E0,0E0,0E0,0E0,0E0,0E0],"parents":[2147483647,0,0,1,1,2,2,3,3,4,4,5,5,6,6,7,7,8,8,10,10,11,11,13,13],"right_children":[2,4,6,8,10,12,14,16,18,-1,20,22,-1,24,-1,-1,-1,-1,-1,-1,-1,-1,-1,-1,-1],"split_conditions":[1.9535013E0,1.426932E0,-3.0613092E-1,-9.1701686E-1,-3.3213916E-1,6.2294775E-1,5.854607E-1,1.3876528E0,-1.7847743E0,1.0350474E-2,-8.654458E-1,1.1762171E-1,5.0957724E-3,-4.8555303E-1,3.638732E-4,-3.0635684E-3,5.4002753E-3,-3.4023367E-3,3.1014447E-4,-4.3922546E-3,2.3348816E-3,9.8792654E-5,-6.5553426E-3,-3.5724249E-3,-1.567869E-2],"split_indices":[126,102,100,97,212,204,76,373,305,0,158,158,0,371,0,0,0,0,0,0,0,0,0,0,0],"split_type":[0,0,0,0,0,0,0,0,0,0,0,0,0,0,0,0,0,0,0,0,0,0,0,0,0],"sum_hessian":[1.2863458E3,1.225063E3,6.1282784E1,1.1284036E3,9.665948E1,4.0305744E1,2.097704E1,7.9274124E1,1.0491294E3,6.735711E0,8.992377E1,3.452273E1,5.7830153E0,1.4663353E1,6.3136864E0,7.361093E1,5.6631947E0,4.2762722E1,1.0063667E3,9.658306E0,8.0265465E1,2.518485E1,9.33788E0,8.8349285E0,5.8284245E0],"tree_param":{"num_deleted":"0","num_feature":"420","num_nodes":"25","size_leaf_vector":"1"}},{"base_weights":[8.349419E-3,-2.7807929E-2,1.6487384E-1,1.8227027E-1,-5.9552453E-2,8.830237E-1,1.1996424E-1,3.8108793E-1,-2.8610663E-2,-3.2551996E-2,-3.4209266E-1,6.0362474E-4,1.525047E-2,3.0640196E-2,4.0663612E-1,5.033108E-3,-1.7825952E-3,-2.486567E-3,3.1859975E-3,-0E0,-2.2547466E-3,-8.081023E-3,-9.0295164E-4,1.4956589E-3,-2.8135942E-3,2.8467763E-3,1.1357748E-2],"categories":[],"categories_nodes":[],"categories_segments":[],"categories_sizes":[],"default_left":[0,0,0,0,0,0,0,0,0,0,0,0,0,0,0,0,0,0,0,0,0,0,0,0,0,0,0],"id":23,"left_children":[1,3,5,7,9,11,13,15,17,19,21,-1,-1,23,25,-1,-1,-1,-1,-1,-1,-1,-1,-1,-1,-1,-1],"loss_changes":[7.2799935E0,6.9579754E0,7.5275817E0,5.78889E0,6.868246E0,7.014698E0,5.803924E0,5.006212E0,5.2733316E0,5.2149334E0,9.031944E0,0E0,0E0,6.6010575E0,4.178173E0,0E0,0E0,0E0,0E0,0E0,0E0,0E0,0E0,0E0,0E0,0E0,0E0],"parents":[2147483647,0,0,1,1,2,2,3,3,4,4,5,5,6,6,7,7,8,8,9,9,10,10,13,13,14,14],"right_children":[2,4,6,8,10,12,14,16,18,20,22,-1,-1,24,26,-1,-1,-1,-1,-1,-1,-1,-1,-1,-1,-1,-1],"split_conditions":[6.523311E-1,-9.7754544E-1,-1.7513804E0,1.2000608E-1,3.4831318E-1,5.2616036E-1,3.5748142E-1,8.004599E-1,5.643665E-1,1.0537938E0,-6.26159E-3,6.0362474E-4,1.525047E-2,1.5542667E0,1.5997887E0,5.033108E-3,-1.7825952E-3,-2.486567E-3,3.1859975E-3,-0E0,-2.2547466E-3,-8.081023E-3,-9.0295164E-4,1.4956589E-3,-2.8135942E-3,2.8467763E-3,1.1357748E-2],"split_indices":[332,372,414,336,332,215,244,18,262,19,316,0,0,37,14,0,0,0,0,0,0,0,0,0,0,0,0],"split_type":[0,0,0,0,0,0,0,0,0,0,0,0,0,0,0,0,0,0,0,0,0,0,0,0,0,0,0],"sum_hessian":[1.2811929E3,1.041256E3,2.3993687E2,1.3534041E2,9.059156E2,1.2342808E1,2.2759407E2,6.928362E1,6.6056786E1,8.287448E2,7.7170784E1,6.197887E0,6.144921E0,1.7505717E2,5.2536892E1,5.7129356E1,1.2154265E1,4.0869408E1,2.518738E1,7.1036224E2,1.1838254E2,2.5768694E1,5.1402092E1,1.2754281E2,4.7514374E1,4.691286E1,5.624028E0],"tree_param":{"num_deleted":"0","num_feature":"420","num_nodes":"27","size_leaf_vector":"1"}},{"base_weights":[3.2226262E-3,-1.2823036E-2,3.6540592E-1,2.6345438E-1,-2.5366703E-2,2.1883805E-1,1.0789087E-2,5.62245E-1,-7.4676424E-2,-3.671085E-1,-1.390214E-2,4.5777458E-1,-2.6090935E-1,2.8632137E-3,1.21566355E-2,1.800696E-3,-9.169455E-3,1.5894775E-4,-8.404187E-3,4.928536E-3,-2.1524636E-4,1.0910085E-2,2.5679907E-3,-6.398057E-3,2.7078267E-3],"categories":[],"categories_nodes":[],"categories_segments":[],"categories_sizes":[],"default_left":[0,0,0,0,0,0,0,0,0,0,0,0,0,0,0,0,0,0,0,0,0,0,0,0,0],"id":24,"left_children":[1,3,5,7,9,11,-1,13,15,17,19,21,23,-1,-1,-1,-1,-1,-1,-1,-1,-1,-1,-1,-1],"loss_changes":[7.638323E0,4.327872E0,5.347834E0,5.5871553E0,4.6561985E0,5.7308764E0,0E0,4.575054E0,6.0269113E0,7.102017E0,4.4611635E0,3.6318593E0,3.6935477E0,0E0,0E0,0E0,0E0,0E0,0E0,0E0,0E0,0E0,0E0,0E0,0E0],"parents":[2147483647,0,0,1,1,2,2,3,3,4,4,5,5,7,7,8,8,9,9,10,10,11,11,12,12],"right_children":[2,4,6,8,10,12,-1,14,16,18,20,22,24,-1,-1,-1,-1,-1,-1,-1,-1,-1,-1,-1,-1],"split_conditions":[1.8621211E0,-1.7285135E0,1.7563269E0,-1.8137667E-2,-1.7847743E0,2.3063838E0,1.0789087E-2,5.836592E-1,2.2725445E-1,1.9216368E-1,-1.9123238E0,-6.213878E-1,4.9204466E-1,2.8632137E-3,1.21566355E-2,1.800696E-3,-9.169455E-3,1.5894775E-4,-8.404187E-3,4.928536E-3,-2.1524636E-4,1.0910085E-2,2.5679907E-3,-6.398057E-3,2.7078267E-3],"split_indices":[205,342,331,207,305,248,0,282,160,389,23,397,263,0,0,0,0,0,0,0,0,0,0,0,0],"split_type":[0,0,0,0,0,0,0,0,0,0,0,0,0,0,0,0,0,0,0,0,0,0,0,0,0],"sum_hessian":[1.3055764E3,1.2513109E3,5.4265537E1,5.2695805E1,1.1986151E3,4.6760258E1,7.505282E0,2.760451E1,2.5091293E1,3.7111824E1,1.1615033E3,3.1399158E1,1.5361098E1,2.1033058E1,6.5714517E0,2.0078957E1,5.0123363E0,2.1197294E1,1.5914531E1,1.5602737E1,1.1459005E3,5.8443494E0,2.555481E1,8.90106E0,6.4600377E0],"tree_param":{"num_deleted":"0","num_feature":"420","num_nodes":"25","size_leaf_vector":"1"}},{"base_weights":[-9.888717E-3,-2.3755835E-2,3.603984E-1,5.273661E-1,-3.2550897E-2,6.398723E-1,-1.5789117E-1,-1.2702368E-4,1.0396441E-2,-5.2758086E-2,1.732613E-1,1.3178133E-2,2.3115356E-1,-6.0632E-3,1.0604843E-3,-1.0220914E-3,5.5805687E-4,7.152713E-4,7.5478535E-3,-1.5761307E-3,8.753477E-3],"categories":[],"categories_nodes":[],"categories_segments":[],"categories_sizes":[],"default_left":[0,0,0,0,0,0,0,0,0,0,0,0,0,0,0,0,0,0,0,0,0],"id":25,"left_children":[1,3,5,7,9,11,13,-1,-1,15,17,-1,19,-1,-1,-1,-1,-1,-1,-1,-1],"loss_changes":[6.5799747E0,5.99043E0,6.8969684E0,5.4893217E0,5.087413E0,7.828477E0,2.1911461E0,0E0,0E0,5.999857E0,6.2989674E0,0E0,5.516669E0,0E0,0E0,0E0,0E0,0E0,0E0,0E0,0E0],"parents":[2147483647,0,0,1,1,2,2,3,3,4,4,5,5,6,6,9,9,10,10,12,12],"right_children":[2,4,6,8,10,12,14,-1,-1,16,18,-1,20,-1,-1,-1,-1,-1,-1,-1,-1],"split_conditions":[2.0679595E0,-1.9129062E0,7.0778984E-1,-2.658293E-1,1.2651517E0,2.448822E-1,7.154127E-1,-1.2702368E-4,1.0396441E-2,4.2716107E-1,7.827504E-1,1.3178133E-2,1.2600977E0,-6.0632E-3,1.0604843E-3,-1.0220914E-3,5.5805687E-4,7.152713E-4,7.5478535E-3,-1.5761307E-3,8.753477E-3],"split_indices":[205,2,129,160,140,418,209,0,0,345,36,0,333,0,0,0,0,0,0,0,0],"split_type":[0,0,0,0,0,0,0,0,0,0,0,0,0,0,0,0,0,0,0,0,0],"sum_hessian":[1.2839983E3,1.2392622E3,4.473609E1,1.7898243E1,1.2213639E3,2.896081E1,1.5775282E1,9.329855E0,8.568388E0,1.1136265E3,1.07737434E2,9.545936E0,1.9414875E1,5.264342E0,1.0510941E1,7.6580804E2,3.4781848E2,9.327584E1,1.4461593E1,1.2717636E1,6.6972384E0],"tree_param":{"num_deleted":"0","num_feature":"420","num_nodes":"21","size_leaf_vector":"1"}},{"base_weights":[2.6359102E-3,-3.2295473E-2,1.6421686E-1,-8.314381E-3,-2.9774144E-1,8.5844845E-2,4.9369335E-1,1.2715791E-2,-2.5653967E-1,-1.9855076E-1,-1.0905562E-2,7.327692E-1,3.5893872E-2,7.07229E-1,-6.814248E-2,2.4635305E-3,-1.315493E-4,4.158746E-3,-3.3191934E-3,1.0726019E-3,-5.0968616E-3,1.021836E-4,1.41059635E-2,-8.7655254E-4,2.7620313E-3,-2.5965378E-4,9.796193E-3,-4.748719E-3,4.218035E-3],"categories":[],"categories_nodes":[],"categories_segments":[],"categories_sizes":[],"default_left":[0,0,0,0,0,0,0,0,0,0,0,0,0,0,0,0,0,0,0,0,0,0,0,0,0,0,0,0,0],"id":26,"left_children":[1,3,5,7,9,11,13,15,17,19,-1,21,23,25,27,-1,-1,-1,-1,-1,-1,-1,-1,-1,-1,-1,-1,-1,-1],"loss_changes":[7.368255E0,6.783695E0,5.8727584E0,5.1670237E0,6.494607E0,6.01031E0,5.4206285E0,5.5188103E0,4.117387E0,7.779518E0,0E0,6.3839817E0,5.331819E0,6.559849E0,2.970016E0,0E0,0E0,0E0,0E0,0E0,0E0,0E0,0E0,0E0,0E0,0E0,0E0,0E0,0E0],"parents":[2147483647,0,0,1,1,2,2,3,3,4,4,5,5,6,6,7,7,8,8,9,9,11,11,12,12,13,13,14,14],"right_children":[2,4,6,8,10,12,14,16,18,20,-1,22,24,26,28,-1,-1,-1,-1,-1,-1,-1,-1,-1,-1,-1,-1,-1,-1],"split_conditions":[6.523311E-1,1.0066168E0,4.0180835E-1,1.3134356E0,1.0882293E0,-1.543237E0,9.1320866E-1,-1.1575184E0,-8.7924397E-1,-2.004714E-1,-1.0905562E-2,-5.468669E-1,8.01384E-1,-3.852157E-1,1.0808318E0,2.4635305E-3,-1.315493E-4,4.158746E-3,-3.3191934E-3,1.0726019E-3,-5.0968616E-3,1.021836E-4,1.41059635E-2,-8.7655254E-4,2.7620313E-3,-2.5965378E-4,9.796193E-3,-4.748719E-3,4.218035E-3],"split_indices":[332,308,244,6,179,414,379,368,14,24,0,118,156,56,365,0,0,0,0,0,0,0,0,0,0,0,0,0,0],"split_type":[0,0,0,0,0,0,0,0,0,0,0,0,0,0,0,0,0,0,0,0,0,0,0,0,0,0,0,0,0],"sum_hessian":[1.3001985E3,1.0695575E3,2.3064102E2,9.8270135E2,8.685615E1,1.8809381E2,4.254722E1,9.068882E2,7.5813194E1,7.897697E1,7.8791795E0,1.18690405E1,1.7622476E2,3.0677505E1,1.1869714E1,8.95199E1,8.173683E2,6.825453E0,6.898774E1,4.0162884E1,3.8814083E1,6.553392E0,5.315648E0,1.1674164E2,5.948313E1,8.577985E0,2.209952E1,6.622385E0,5.2473283E0],"tree_param":{"num_deleted":"0","num_feature":"420","num_nodes":"29","size_leaf_vector":"1"}},{"base_weights":[1.9459307E-2,-3.4838416E-2,1.2819155E-1,5.5735367E-3,-2.241612E-1,3.7663925E-1,5.76503E-2,6.570429E-1,-6.1567225E-3,-4.6877384E-2,-4.454193E-1,2.5716344E-1,8.306361E-1,1.5372773E-2,5.6443304E-1,1.1252422E-2,-0E0,1.40357815E-5,-7.265613E-3,-4.3860055E-3,1.1411088E-3,-1.214507E-2,-2.8779402E-3,3.3522123E-3,-3.9117164E-3,1.7591994E-2,2.1000584E-3,-5.371079E-3,4.6510095E-4,1.4160165E-2,2.0984767E-3],"categories":[],"categories_nodes":[],"categories_segments":[],"categories_sizes":[],"default_left":[0,0,0,0,0,0,0,0,0,0,0,0,0,0,0,0,0,0,0,0,0,0,0,0,0,0,0,0,0,0,0],"id":27,"left_children":[1,3,5,7,9,11,13,15,17,19,21,23,25,27,29,-1,-1,-1,-1,-1,-1,-1,-1,-1,-1,-1,-1,-1,-1,-1,-1],"loss_changes":[7.5400877E0,6.531091E0,7.379192E0,5.4353757E0,5.8066726E0,4.641574E0,7.072248E0,3.8070402E0,3.836839E0,5.4836807E0,7.367222E0,4.0552626E0,9.984906E0,5.3118305E0,7.075797E0,0E0,0E0,0E0,0E0,0E0,0E0,0E0,0E0,0E0,0E0,0E0,0E0,0E0,0E0,0E0,0E0],"parents":[2147483647,0,0,1,1,2,2,3,3,4,4,5,5,6,6,7,7,8,8,9,9,10,10,11,11,12,12,13,13,14,14],"right_children":[2,4,6,8,10,12,14,16,18,20,22,24,26,28,30,-1,-1,-1,-1,-1,-1,-1,-1,-1,-1,-1,-1,-1,-1,-1,-1],"split_conditions":[1.8531452E-1,-7.166902E-2,-3.1755447E-1,-2.0636437E0,-1.3516036E-2,8.069652E-1,1.615854E0,3.366083E-1,2.4806242E0,-6.2248964E-2,-9.134751E-1,1.4133375E0,1.6196755E0,-9.4283146E-1,-1.0209535E0,1.1252422E-2,-0E0,1.40357815E-5,-7.265613E-3,-4.3860055E-3,1.1411088E-3,-1.214507E-2,-2.8779402E-3,3.3522123E-3,-3.9117164E-3,1.7591994E-2,2.1000584E-3,-5.371079E-3,4.6510095E-4,1.4160165E-2,2.0984767E-3],"split_indices":[185,185,79,368,263,97,201,393,177,227,365,163,97,404,141,0,0,0,0,0,0,0,0,0,0,0,0,0,0,0,0],"split_type":[0,0,0,0,0,0,0,0,0,0,0,0,0,0,0,0,0,0,0,0,0,0,0,0,0,0,0,0,0,0,0],"sum_hessian":[1.2729181E3,8.490346E2,4.2388354E2,7.0044794E2,1.4858669E2,9.198477E1,3.3189877E2,1.1080323E1,6.893676E2,8.375082E1,6.483587E1,7.485542E1,1.7129349E1,3.0795126E2,2.394751E1,5.796046E0,5.284278E0,6.835523E2,5.815287E0,2.3821619E1,5.99292E1,9.209375E0,5.562649E1,6.759574E1,7.2596755E0,5.6953106E0,1.1434038E1,1.4958112E1,2.9299316E2,5.637097E0,1.8310413E1],"tree_param":{"num_deleted":"0","num_feature":"420","num_nodes":"31","size_leaf_vector":"1"}},{"base_weights":[4.568799E-3,-3.122265E-2,1.5160836E-1,-4.3659317E-3,-2.8937587E-1,-4.613373E-1,1.8565266E-1,1.7841965E-2,-2.595769E-1,-8.56949E-2,-8.0144966E-1,1.2758046E-3,-1.0492712E-2,1.4773954E-1,1.111083E-2,-2.0594829E-5,3.3535634E-3,1.7540918E-3,-3.8765536E-3,4.3064378E-5,-9.382648E-3,-1.26795005E-2,-1.195154E-3,1.8981958E-3,-3.3436154E-3],"categories":[],"categories_nodes":[],"categories_segments":[],"categories_sizes":[],"default_left":[0,0,0,0,0,0,0,0,0,0,0,0,0,0,0,0,0,0,0,0,0,0,0,0,0],"id":28,"left_children":[1,3,5,7,9,11,13,15,17,19,21,-1,-1,23,-1,-1,-1,-1,-1,-1,-1,-1,-1,-1,-1],"loss_changes":[6.9324374E0,7.298207E0,5.48387E0,5.468828E0,1.0159343E1,5.0883474E0,8.245424E0,5.618212E0,4.427578E0,5.6872168E0,8.516647E0,0E0,0E0,4.904545E0,0E0,0E0,0E0,0E0,0E0,0E0,0E0,0E0,0E0,0E0,0E0],"parents":[2147483647,0,0,1,1,2,2,3,3,4,4,5,5,6,6,7,7,8,8,9,9,10,10,13,13],"right_children":[2,4,6,8,10,12,14,16,18,20,22,-1,-1,24,-1,-1,-1,-1,-1,-1,-1,-1,-1,-1,-1],"split_conditions":[6.034799E-1,9.261322E-1,-1.8114777E0,1.3134356E0,6.708934E-2,6.100558E-1,3.525289E0,1.474202E0,-6.08605E-1,1.270134E0,7.846425E-1,1.2758046E-3,-1.0492712E-2,1.8313338E0,1.111083E-2,-2.0594829E-5,3.3535634E-3,1.7540918E-3,-3.8765536E-3,4.3064378E-5,-9.382648E-3,-1.26795005E-2,-1.195154E-3,1.8981958E-3,-3.3436154E-3],"split_indices":[332,308,372,6,89,404,373,263,221,195,89,0,0,82,0,0,0,0,0,0,0,0,0,0,0],"split_type":[0,0,0,0,0,0,0,0,0,0,0,0,0,0,0,0,0,0,0,0,0,0,0,0,0],"sum_hessian":[1.312126E3,1.0556642E3,2.5646176E2,9.5792065E2,9.7743614E1,1.2349681E1,2.4411209E2,8.821603E2,7.5760345E1,7.132135E1,2.642226E1,6.6714664E0,5.678215E0,2.362797E2,7.8324027E0,8.3123474E2,5.092554E1,1.6929274E1,5.8831074E1,6.5755066E1,5.566286E0,1.483691E1,1.1585351E1,2.1833888E2,1.7940811E1],"tree_param":{"num_deleted":"0","num_feature":"420","num_nodes":"25","size_leaf_vector":"1"}},{"base_weights":[-6.5017003E-3,-3.1240555E-2,1.9260283E-1,-9.973967E-2,5.2140158E-2,6.558184E-2,6.8822914E-1,5.607965E-3,-1.1140977E-1,3.9740494E-1,1.8408189E-2,-4.527307E-1,1.6375229E-1,1.3235459E0,6.8370183E-3,1.1667603E-3,-1.4120123E-3,8.638016E-3,1.2841156E-3,-7.446369E-4,1.6826759E-3,-9.9443E-3,2.6366583E-3,1.063681E-2,9.2519616E-4,4.5236708E-3,1.97118E-2,4.985193E-3,-3.910173E-3],"categories":[],"categories_nodes":[],"categories_segments":[],"categories_sizes":[],"default_left":[0,0,0,0,0,0,0,0,0,0,0,0,0,0,0,0,0,0,0,0,0,0,0,0,0,0,0,0,0],"id":29,"left_children":[1,3,5,7,9,11,13,-1,15,17,19,21,23,25,27,-1,-1,-1,-1,-1,-1,-1,-1,-1,-1,-1,-1,-1,-1],"loss_changes":[6.2664223E0,6.4929996E0,8.703663E0,4.859473E0,5.9110637E0,5.866495E0,1.21255455E1,0E0,4.203653E0,5.4098225E0,6.546072E0,7.582967E0,5.9444942E0,6.649948E0,3.2886848E0,0E0,0E0,0E0,0E0,0E0,0E0,0E0,0E0,0E0,0E0,0E0,0E0,0E0,0E0],"parents":[2147483647,0,0,1,1,2,2,3,3,4,4,5,5,6,6,8,8,9,9,10,10,11,11,12,12,13,13,14,14],"right_children":[2,4,6,8,10,12,14,-1,16,18,20,22,24,26,28,-1,-1,-1,-1,-1,-1,-1,-1,-1,-1,-1,-1,-1,-1],"split_conditions":[1.1379596E0,-1.4097056E-1,7.9611737E-1,-1.2683945E0,-1.119267E0,-1.2755076E0,3.129713E-1,5.607965E-3,-1.0247496E0,-3.498928E-1,2.090929E-1,6.344993E-1,-1.3178387E0,-4.9076554E-1,9.3820494E-1,1.1667603E-3,-1.4120123E-3,8.638016E-3,1.2841156E-3,-7.446369E-4,1.6826759E-3,-9.9443E-3,2.6366583E-3,1.063681E-2,9.2519616E-4,4.5236708E-3,1.97118E-2,4.985193E-3,-3.910173E-3],"split_indices":[140,160,99,161,368,285,337,0,257,364,57,228,312,5,281,0,0,0,0,0,0,0,0,0,0,0,0,0,0],"split_type":[0,0,0,0,0,0,0,0,0,0,0,0,0,0,0,0,0,0,0,0,0,0,0,0,0,0,0,0,0],"sum_hessian":[1.2721539E3,1.1331289E3,1.3902504E2,6.225748E2,5.105541E2,1.1217632E2,2.6848724E1,9.434338E0,6.131405E2,4.3737804E1,4.6681628E2,1.6838356E1,9.533797E1,1.3086627E1,1.3762096E1,6.9940346E1,5.4320013E2,1.4649325E1,2.908848E1,2.8826077E2,1.7855554E2,9.336243E0,7.502113E0,5.356994E0,8.998097E1,6.732461E0,6.3541665E0,6.097908E0,7.6641884E0],"tree_param":{"num_deleted":"0","num_feature":"420","num_nodes":"29","size_leaf_vector":"1"}},{"base_weights":[-2.2012119E-4,-3.2825094E-2,1.429768E-1,-1.8972199E-1,-2.1132338E-3,2.0152672E-1,-2.5629264E-1,8.4912226E-2,-3.4740698E-1,4.573857E-2,-1.0595004E-1,8.871648E-3,1.722967E-1,1.4770783E-1,-6.339234E-1,8.948964E-3,-4.4087894E-4,-6.5906686E-3,-9.603209E-4,-1.7011615E-3,8.4649096E-4,-1.6969013E-3,1.9558184E-3,-1.7677277E-3,2.2931716E-3,-2.7057745E-3,8.04042E-3,-1.1728143E-2,-1.7523756E-3],"categories":[],"categories_nodes":[],"categories_segments":[],"categories_sizes":[],"default_left":[0,0,0,0,0,0,0,0,0,0,0,0,0,0,0,0,0,0,0,0,0,0,0,0,0,0,0,0,0],"id":30,"left_children":[1,3,5,7,9,11,13,15,17,19,21,-1,23,25,27,-1,-1,-1,-1,-1,-1,-1,-1,-1,-1,-1,-1,-1,-1],"loss_changes":[6.0347133E0,5.0652313E0,5.672856E0,7.527862E0,4.4086094E0,3.8735065E0,4.931076E0,6.808895E0,8.440998E0,5.1022177E0,5.4318566E0,0E0,4.1149297E0,4.8011794E0,3.629682E0,0E0,0E0,0E0,0E0,0E0,0E0,0E0,0E0,0E0,0E0,0E0,0E0,0E0,0E0],"parents":[2147483647,0,0,1,1,2,2,3,3,4,4,5,5,6,6,7,7,8,8,9,9,10,10,12,12,13,13,14,14],"right_children":[2,4,6,8,10,12,14,16,18,20,22,-1,24,26,28,-1,-1,-1,-1,-1,-1,-1,-1,-1,-1,-1,-1,-1,-1],"split_conditions":[6.523311E-1,-8.0416036E-1,1.2495353E0,-5.197986E-1,1.5594311E-1,-2.0653207E0,4.906572E-1,-1.6943969E0,-1.0355046E0,-8.498644E-1,6.9612867E-1,8.871648E-3,-1.3063586E0,1.3464744E-1,1.3450561E-1,8.948964E-3,-4.4087894E-4,-6.5906686E-3,-9.603209E-4,-1.7011615E-3,8.4649096E-4,-1.6969013E-3,1.9558184E-3,-1.7677277E-3,2.2931716E-3,-2.7057745E-3,8.04042E-3,-1.1728143E-2,-1.7523756E-3],"split_indices":[332,103,145,161,181,410,400,69,113,235,30,0,195,225,267,0,0,0,0,0,0,0,0,0,0,0,0,0,0],"split_type":[0,0,0,0,0,0,0,0,0,0,0,0,0,0,0,0,0,0,0,0,0,0,0,0,0,0,0,0,0],"sum_hessian":[1.2918768E3,1.0537903E3,2.3808644E2,1.7070284E2,8.830875E2,2.085042E2,2.9582247E1,6.2283684E1,1.0841914E2,6.0442334E2,2.7866418E2,6.585377E0,2.0191881E2,1.4605418E1,1.4976829E1,7.439697E0,5.4843987E1,4.7141518E1,6.127763E1,9.114911E1,5.1327423E2,2.3085236E2,4.7811813E1,2.7663515E1,1.742553E2,9.365799E0,5.2396193E0,5.712309E0,9.26452E0],"tree_param":{"num_deleted":"0","num_feature":"420","num_nodes":"29","size_leaf_vector":"1"}},{"base_weights":[1.5458639E-2,-4.3967688E-3,2.4214734E-1,2.193102E-1,-2.538896E-2,-6.043141E-3,3.0890638E-1,-1.3769567E-3,5.12567E-1,-3.8730666E-2,2.855674E-1,4.4042662E-1,-9.418222E-2,3.649877E-3,-2.449677E-3,2.5769824E-4,8.156514E-3,1.7122782E-3,-5.887995E-4,4.569866E-3,-1.9955176E-3,2.3055437E-3,8.121246E-3,2.2114834E-3,-6.247191E-3],"categories":[],"categories_nodes":[],"categories_segments":[],"categories_sizes":[],"default_left":[0,0,0,0,0,0,0,0,0,0,0,0,0,0,0,0,0,0,0,0,0,0,0,0,0],"id":31,"left_children":[1,3,5,7,9,-1,11,13,15,17,19,21,23,-1,-1,-1,-1,-1,-1,-1,-1,-1,-1,-1,-1],"loss_changes":[5.870721E0,5.6015377E0,6.185118E0,6.671332E0,4.5321517E0,0E0,5.315898E0,5.4464116E0,6.393259E0,4.450101E0,3.8958519E0,5.4404716E0,4.474725E0,0E0,0E0,0E0,0E0,0E0,0E0,0E0,0E0,0E0,0E0,0E0,0E0],"parents":[2147483647,0,0,1,1,2,2,3,3,4,4,6,6,7,7,8,8,9,9,10,10,11,11,12,12],"right_children":[2,4,6,8,10,-1,12,14,16,18,20,22,24,-1,-1,-1,-1,-1,-1,-1,-1,-1,-1,-1,-1],"split_conditions":[1.3153385E0,-1.219739E0,-1.5438963E0,1.3352232E-1,1.5746354E0,-6.043141E-3,-1.14329405E-1,-6.0969675E-1,-3.6536145E-1,-1.1293623E0,2.7814528E-1,7.017129E-1,3.543544E-1,3.649877E-3,-2.449677E-3,2.5769824E-4,8.156514E-3,1.7122782E-3,-5.887995E-4,4.569866E-3,-1.9955176E-3,2.3055437E-3,8.121246E-3,2.2114834E-3,-6.247191E-3],"split_indices":[184,351,393,57,258,0,202,343,118,205,416,220,305,0,0,0,0,0,0,0,0,0,0,0,0],"split_type":[0,0,0,0,0,0,0,0,0,0,0,0,0,0,0,0,0,0,0,0,0,0,0,0,0],"sum_hessian":[1.2971788E3,1.1936575E3,1.0352134E2,1.0077685E2,1.0928806E3,6.5752487E0,9.694609E1,5.8160652E1,4.261619E1,1.0494867E3,4.3393887E1,7.317847E1,2.3767622E1,2.2764456E1,3.53962E1,1.7103302E1,2.5512888E1,9.047841E1,9.590083E2,3.228053E1,1.1113359E1,4.8495716E1,2.4682749E1,1.5337727E1,8.429895E0],"tree_param":{"num_deleted":"0","num_feature":"420","num_nodes":"25","size_leaf_vector":"1"}},{"base_weights":[-8.894812E-3,-3.4592923E-2,1.6216044E-1,-5.2390687E-2,2.0966831E-1,5.9040442E-2,5.7019335E-1,-5.4275423E-1,-3.471727E-2,-3.3870651E-3,3.1542793E-1,-4.2498648E-1,1.23441085E-1,1.2594963E0,8.4036787E-4,-1.4469819E-2,-3.2816764E-3,-1.07758E-3,3.664933E-4,7.566198E-3,1.1208019E-3,1.8849099E-4,-8.689651E-3,-5.795335E-5,4.550015E-3,3.1967615E-3,1.8427158E-2],"categories":[],"categories_nodes":[],"categories_segments":[],"categories_sizes":[],"default_left":[0,0,0,0,0,0,0,0,0,0,0,0,0,0,0,0,0,0,0,0,0,0,0,0,0,0,0],"id":32,"left_children":[1,3,5,7,9,11,13,15,17,-1,19,21,23,25,-1,-1,-1,-1,-1,-1,-1,-1,-1,-1,-1,-1,-1],"loss_changes":[5.756503E0,4.9614983E0,7.0785007E0,9.145374E0,4.64779E0,4.359945E0,1.1138664E1,6.2422037E0,5.3817515E0,0E0,5.691868E0,3.3406558E0,5.337166E0,6.528185E0,0E0,0E0,0E0,0E0,0E0,0E0,0E0,0E0,0E0,0E0,0E0,0E0,0E0],"parents":[2147483647,0,0,1,1,2,2,3,3,4,4,5,5,6,6,7,7,8,8,10,10,11,11,12,12,13,13],"right_children":[2,4,6,8,10,12,14,16,18,-1,20,22,24,26,-1,-1,-1,-1,-1,-1,-1,-1,-1,-1,-1,-1,-1],"split_conditions":[1.0156924E0,1.0731279E0,8.5566396E-1,-1.7847743E0,-1.3485147E0,-1.2724836E0,3.129713E-1,-5.981842E-1,-3.412055E-2,-3.3870651E-3,1.9869913E-1,-6.006215E-1,3.96356E-1,-2.543168E-2,8.4036787E-4,-1.4469819E-2,-3.2816764E-3,-1.07758E-3,3.664933E-4,7.566198E-3,1.1208019E-3,1.8849099E-4,-8.689651E-3,-5.795335E-5,4.550015E-3,3.1967615E-3,1.8427158E-2],"split_indices":[140,164,99,305,136,337,337,114,53,0,397,246,36,415,0,0,0,0,0,0,0,0,0,0,0,0,0],"split_type":[0,0,0,0,0,0,0,0,0,0,0,0,0,0,0,0,0,0,0,0,0,0,0,0,0,0,0],"sum_hessian":[1.3090349E3,1.1396094E3,1.6942548E2,1.0636926E3,7.5916855E1,1.3681186E2,3.2613613E1,3.5256218E1,1.0284364E3,1.1587095E1,6.432976E1,1.4896941E1,1.21914925E2,1.2416686E1,2.0196926E1,5.0204215E0,3.0235798E1,5.0857126E2,5.198651E2,1.8852842E1,4.5476917E1,8.055309E0,6.8416314E0,8.8565735E1,3.334919E1,5.7096324E0,6.707054E0],"tree_param":{"num_deleted":"0","num_feature":"420","num_nodes":"27","size_leaf_vector":"1"}},{"base_weights":[1.3333763E-2,6.332774E-1,5.909614E-4,2.0909902E-1,1.4874737E-2,1.8805459E-1,-2.1410191E-2,6.061272E-1,-4.718635E-3,2.628061E-1,-6.4619128E-3,-5.6587595E-2,1.189818E-1,1.905176E-4,1.0589991E-2,5.340448E-4,5.9073805E-3,-2.5154045E-3,-2.6651178E-4,1.6200636E-4,3.7392734E-3],"categories":[],"categories_nodes":[],"categories_segments":[],"categories_sizes":[],"default_left":[0,0,0,0,0,0,0,0,0,0,0,0,0,0,0,0,0,0,0,0,0],"id":33,"left_children":[1,3,5,7,-1,9,11,13,-1,15,-1,17,19,-1,-1,-1,-1,-1,-1,-1,-1],"loss_changes":[1.0086581E1,8.682812E0,5.2223015E0,5.581769E0,0E0,8.513363E0,5.5802603E0,3.253724E0,0E0,8.353994E0,0E0,5.240898E0,5.8778563E0,0E0,0E0,0E0,0E0,0E0,0E0,0E0,0E0],"parents":[2147483647,0,0,1,1,2,2,3,3,5,5,6,6,7,7,9,9,11,11,12,12],"right_children":[2,4,6,8,-1,10,12,14,-1,16,-1,18,20,-1,-1,-1,-1,-1,-1,-1,-1],"split_conditions":[-1.9123238E0,3.0622208E-1,-1.1223903E0,1.0549678E0,1.4874737E-2,1.4412129E0,5.81803E-1,8.0215806E-1,-4.718635E-3,-1.5533254E-1,-6.4619128E-3,-8.478395E-1,1.8518625E-1,1.905176E-4,1.0589991E-2,5.340448E-4,5.9073805E-3,-2.5154045E-3,-2.6651178E-4,1.6200636E-4,3.7392734E-3],"split_indices":[23,200,369,397,0,308,206,114,0,286,0,57,118,0,0,0,0,0,0,0,0],"split_type":[0,0,0,0,0,0,0,0,0,0,0,0,0,0,0,0,0,0,0,0,0],"sum_hessian":[1.2834065E3,2.4219568E1,1.259187E3,1.7509113E1,6.7104545E0,1.3154709E2,1.1276399E3,1.1257337E1,6.2517776E0,1.2178229E2,9.764806E0,9.0298944E2,2.2465042E2,5.67915E0,5.5781865E0,7.5573746E1,4.6208546E1,1.1827984E2,7.8470966E2,1.615209E2,6.3129513E1],"tree_param":{"num_deleted":"0","num_feature":"420","num_nodes":"21","size_leaf_vector":"1"}},{"base_weights":[-2.228599E-3,-3.821392E-2,1.5996031E-1,1.8626142E-2,-1.18044145E-1,9.900603E-2,6.577644E-1,-1.342154E-2,4.7268823E-1,-2.3354416E-1,-7.122538E-3,-5.8180857E-3,1.3433993E-1,1.5358414E-3,1.3419054E-2,3.8593772E-3,-4.003493E-4,6.3144118E-3,-2.0674444E-3,-1.7391025E-3,-6.8766484E-3,6.911014E-3,-3.243586E-4,2.354961E-3,-1.3142542E-3],"categories":[],"categories_nodes":[],"categories_segments":[],"categories_sizes":[],"default_left":[0,0,0,0,0,0,0,0,0,0,0,0,0,0,0,0,0,0,0,0,0,0,0,0,0],"id":34,"left_children":[1,3,5,7,9,11,13,15,17,19,21,-1,23,-1,-1,-1,-1,-1,-1,-1,-1,-1,-1,-1,-1],"loss_changes":[7.558276E0,4.8321276E0,6.958321E0,9.090369E0,5.643959E0,5.156419E0,8.231744E0,6.1658316E0,4.6800747E0,5.593238E0,3.993461E0,0E0,5.49461E0,0E0,0E0,0E0,0E0,0E0,0E0,0E0,0E0,0E0,0E0,0E0,0E0],"parents":[2147483647,0,0,1,1,2,2,3,3,4,4,5,5,6,6,7,7,8,8,9,9,10,10,12,12],"right_children":[2,4,6,8,10,12,14,16,18,20,22,-1,24,-1,-1,-1,-1,-1,-1,-1,-1,-1,-1,-1,-1],"split_conditions":[6.531843E-1,1.224688E-1,1.6381423E0,1.0221175E0,-9.294695E-2,-1.4287148E0,9.172268E-1,-9.4366336E-1,8.623762E-1,7.0870566E-1,-1.4639844E0,-5.8180857E-3,6.005382E-1,1.5358414E-3,1.3419054E-2,3.8593772E-3,-4.003493E-4,6.3144118E-3,-2.0674444E-3,-1.7391025E-3,-6.8766484E-3,6.911014E-3,-3.243586E-4,2.354961E-3,-1.3142542E-3],"split_indices":[206,375,204,372,53,382,236,265,389,35,86,0,204,0,0,0,0,0,0,0,0,0,0,0,0],"split_type":[0,0,0,0,0,0,0,0,0,0,0,0,0,0,0,0,0,0,0,0,0,0,0,0,0],"sum_hessian":[1.2940343E3,1.060501E3,2.3353326E2,6.1938727E2,4.411137E2,2.0983853E2,2.3694746E1,5.7970703E2,3.968027E1,2.1484303E2,2.2627069E2,9.068933E0,2.0076959E2,1.4783154E1,8.911592E0,3.471815E1,5.449889E2,3.236999E1,7.310281E0,1.9193349E2,2.290954E1,6.397709E0,2.1987297E2,1.4581593E2,5.495366E1],"tree_param":{"num_deleted":"0","num_feature":"420","num_nodes":"25","size_leaf_vector":"1"}},{"base_weights":[8.346664E-3,-1.2658973E-2,2.6853484E-1,6.840245E-3,-1.9362332E-2,3.8656127E-1,-1.77621E-1,4.679534E-1,-2.7793277E-2,-2.9818553E-3,4.8594546E-1,-6.391734E-3,3.1034823E-3,7.5302506E-3,-1.149574E-3,-1.2855604E-5,-2.072438E-3,2.9726664E-4,7.051466E-3],"categories":[],"categories_nodes":[],"categories_segments":[],"categories_sizes":[],"default_left":[0,0,0,0,0,0,0,0,0,0,0,0,0,0,0,0,0,0,0],"id":35,"left_children":[1,3,5,-1,7,9,11,13,15,-1,17,-1,-1,-1,-1,-1,-1,-1,-1],"loss_changes":[7.056364E0,5.5133085E0,5.2027946E0,0E0,4.826777E0,5.4709444E0,5.066398E0,3.5110064E0,5.5076966E0,0E0,6.6824245E0,0E0,0E0,0E0,0E0,0E0,0E0,0E0,0E0],"parents":[2147483647,0,0,1,1,2,2,4,4,5,5,6,6,7,7,8,8,10,10],"right_children":[2,4,6,-1,8,10,12,14,16,-1,18,-1,-1,-1,-1,-1,-1,-1,-1],"split_conditions":[1.3153385E0,-2.4300208E0,1.116048E-3,6.840245E-3,-1.9129062E0,-1.2455121E0,1.1327252E-1,8.21721E-1,9.261322E-1,-2.9818553E-3,-7.8570104E-1,-6.391734E-3,3.1034823E-3,7.5302506E-3,-1.149574E-3,-1.2855604E-5,-2.072438E-3,2.9726664E-4,7.051466E-3],"split_indices":[184,396,202,0,2,177,129,384,308,0,220,0,0,0,0,0,0,0,0],"split_type":[0,0,0,0,0,0,0,0,0,0,0,0,0,0,0,0,0,0,0],"sum_hessian":[1.2839784E3,1.189028E3,9.495049E1,9.744993E0,1.179283E3,7.542262E1,1.9527863E1,1.8463432E1,1.1608196E3,9.051567E0,6.6371056E1,9.902029E0,9.625834E0,1.2220711E1,6.2427216E0,1.0132189E3,1.4760066E2,2.2240984E1,4.4130077E1],"tree_param":{"num_deleted":"0","num_feature":"420","num_nodes":"19","size_leaf_vector":"1"}},{"base_weights":[-7.7522784E-3,-4.0815666E-2,1.3626377E-1,-2.0702171E-1,-2.9610563E-3,8.745785E-1,9.160724E-2,-6.5831375E-1,-1.2501313E-1,-2.4236057E-2,2.9139176E-1,1.4515878E-3,1.4229028E-2,1.3049956E-1,-4.6939686E-1,-2.4909815E-3,-1.1926482E-2,-4.6779687E-4,-5.9048105E-3,-2.4300187E-3,3.1807816E-5,4.081008E-3,-4.311667E-3,1.6490936E-3,-5.213372E-3,-9.4911065E-3,-5.377414E-4],"categories":[],"categories_nodes":[],"categories_segments":[],"categories_sizes":[],"default_left":[0,0,0,0,0,0,0,0,0,0,0,0,0,0,0,0,0,0,0,0,0,0,0,0,0,0,0],"id":36,"left_children":[1,3,5,7,9,11,13,15,17,19,21,-1,-1,23,25,-1,-1,-1,-1,-1,-1,-1,-1,-1,-1,-1,-1],"loss_changes":[6.2801843E0,6.738926E0,7.896863E0,7.156823E0,5.4774876E0,5.025738E0,5.16043E0,5.977766E0,6.0960703E0,4.942277E0,5.2310815E0,0E0,0E0,5.0286036E0,2.8778286E0,0E0,0E0,0E0,0E0,0E0,0E0,0E0,0E0,0E0,0E0,0E0,0E0],"parents":[2147483647,0,0,1,1,2,2,3,3,4,4,5,5,6,6,7,7,8,8,9,9,10,10,13,13,14,14],"right_children":[2,4,6,8,10,12,14,16,18,20,22,-1,-1,24,26,-1,-1,-1,-1,-1,-1,-1,-1,-1,-1,-1,-1],"split_conditions":[6.523311E-1,-7.5307167E-1,-1.7191746E0,-7.059209E-1,1.1775436E0,-4.408611E-1,1.5484029E0,-1.0646194E0,6.1179334E-1,-8.478395E-1,1.0431985E0,1.4515878E-3,1.4229028E-2,2.5603065E0,-1.2447492E0,-2.4909815E-3,-1.1926482E-2,-4.6779687E-4,-5.9048105E-3,-2.4300187E-3,3.1807816E-5,4.081008E-3,-4.311667E-3,1.6490936E-3,-5.213372E-3,-9.4911065E-3,-5.377414E-4],"split_indices":[332,103,414,395,140,5,22,103,331,57,240,0,0,371,72,0,0,0,0,0,0,0,0,0,0,0,0],"split_type":[0,0,0,0,0,0,0,0,0,0,0,0,0,0,0,0,0,0,0,0,0,0,0,0,0,0,0],"sum_hessian":[1.3176594E3,1.0730715E3,2.4458788E2,1.9732835E2,8.7574316E2,1.2232331E1,2.3235553E2,2.8535805E1,1.6879254E2,8.1831396E2,5.7429226E1,6.1416917E0,6.0906396E0,2.1853467E2,1.3820868E1,1.7511328E1,1.1024477E1,1.4610205E2,2.2690487E1,9.022652E1,7.2808746E2,5.0124256E1,7.304969E0,2.0878694E2,9.747728E0,5.410295E0,8.410573E0],"tree_param":{"num_deleted":"0","num_feature":"420","num_nodes":"27","size_leaf_vector":"1"}},{"base_weights":[-5.1540476E-3,-3.4650516E-2,1.2068033E-1,1.544265E-1,-5.8749583E-2,-1.2022428E-1,2.4197398E-1,2.7243233E-1,-1.992435E-1,-4.5535013E-1,-4.5867182E-2,-1.0112679E-2,-1.2105836E-2,1.05433175E-2,1.8492386E-1,1.4460659E-4,5.2574915E-3,-4.243119E-3,1.5666209E-3,-9.704499E-3,-1.0241672E-3,1.0644663E-3,-8.625344E-4,8.824383E-3,-1.2212634E-3,4.0148376E-3,-0E0],"categories":[],"categories_nodes":[],"categories_segments":[],"categories_sizes":[],"default_left":[0,0,0,0,0,0,0,0,0,0,0,0,0,0,0,0,0,0,0,0,0,0,0,0,0,0,0],"id":37,"left_children":[1,3,5,7,9,11,13,15,17,19,21,23,-1,-1,25,-1,-1,-1,-1,-1,-1,-1,-1,-1,-1,-1,-1],"loss_changes":[4.7479124E0,4.736471E0,7.1481433E0,4.986558E0,4.632972E0,9.70562E0,7.1013317E0,5.74015E0,2.530746E0,4.946128E0,5.52106E0,7.6921825E0,0E0,0E0,6.1601295E0,0E0,0E0,0E0,0E0,0E0,0E0,0E0,0E0,0E0,0E0,0E0,0E0],"parents":[2147483647,0,0,1,1,2,2,3,3,4,4,5,5,6,6,7,7,8,8,9,9,10,10,11,11,14,14],"right_children":[2,4,6,8,10,12,14,16,18,20,22,24,-1,-1,26,-1,-1,-1,-1,-1,-1,-1,-1,-1,-1,-1,-1],"split_conditions":[6.119292E-1,-1.1905137E0,-4.3084797E-1,8.483784E-1,-1.4690635E0,1.2675731E0,-1.5032862E0,-1.297521E-1,1.0791285E0,-3.9571592E-1,-8.463318E-1,-7.0339715E-1,-1.2105836E-2,1.05433175E-2,-1.8321538E-2,1.4460659E-4,5.2574915E-3,-4.243119E-3,1.5666209E-3,-9.704499E-3,-1.0241672E-3,1.0644663E-3,-8.625344E-4,8.824383E-3,-1.2212634E-3,4.0148376E-3,-0E0],"split_indices":[371,126,202,417,301,29,141,32,375,139,280,370,0,0,418,0,0,0,0,0,0,0,0,0,0,0,0],"split_type":[0,0,0,0,0,0,0,0,0,0,0,0,0,0,0,0,0,0,0,0,0,0,0,0,0,0,0],"sum_hessian":[1.2783129E3,1.0370927E3,2.4122018E2,1.1585483E2,9.2123785E2,8.050861E1,1.6071158E2,8.734014E1,2.851469E1,2.7117258E1,8.941206E2,7.458242E1,5.9261947E0,8.710172E0,1.520014E2,4.425367E1,4.3086468E1,1.7463652E1,1.1051038E1,9.843301E0,1.7273956E1,1.8635745E2,7.077631E2,7.066357E0,6.751606E1,6.928261E1,8.2718796E1],"tree_param":{"num_deleted":"0","num_feature":"420","num_nodes":"27","size_leaf_vector":"1"}},{"base_weights":[-1.1411365E-2,1.7753892E-1,-3.386082E-2,6.170291E-1,8.2687035E-2,4.2715165E-1,-4.4865888E-2,2.610486E-4,1.0081908E0,1.5842836E-1,-4.5819664E-1,9.2366165E-1,-2.3060957E-1,2.2656627E-1,-5.930439E-2,1.4523286E-2,2.1595438E-3,9.0239727E-4,8.057717E-3,-8.335073E-3,1.3634549E-3,2.7253032E-3,1.7284067E-2,-8.487604E-3,5.270376E-3,7.333666E-3,1.0902238E-3,-4.10298E-3,-4.4703897E-4],"categories":[],"categories_nodes":[],"categories_segments":[],"categories_sizes":[],"default_left":[0,0,0,0,0,0,0,0,0,0,0,0,0,0,0,0,0,0,0,0,0,0,0,0,0,0,0,0,0],"id":38,"left_children":[1,3,5,7,9,11,13,-1,15,17,19,21,23,25,27,-1,-1,-1,-1,-1,-1,-1,-1,-1,-1,-1,-1,-1,-1],"loss_changes":[5.4796586E0,5.568069E0,5.8630195E0,5.3849297E0,4.7766123E0,9.179691E0,4.4401093E0,0E0,4.376026E0,4.297641E0,3.432917E0,7.333314E0,6.6474733E0,3.1996832E0,5.4433703E0,0E0,0E0,0E0,0E0,0E0,0E0,0E0,0E0,0E0,0E0,0E0,0E0,0E0,0E0],"parents":[2147483647,0,0,1,1,2,2,3,3,4,4,5,5,6,6,8,8,9,9,10,10,11,11,12,12,13,13,14,14],"right_children":[2,4,6,8,10,12,14,-1,16,18,20,22,24,26,28,-1,-1,-1,-1,-1,-1,-1,-1,-1,-1,-1,-1,-1,-1],"split_conditions":[-1.119267E0,-1.0820681E0,-1.792813E0,-7.9173213E-1,1.3451772E0,2.903276E-1,-1.6109872E0,2.610486E-4,6.9641566E-1,1.3523848E0,8.597383E-2,-8.9584076E-1,6.344993E-1,-1.0023491E0,-1.3125422E0,1.4523286E-2,2.1595438E-3,9.0239727E-4,8.057717E-3,-8.335073E-3,1.3634549E-3,2.7253032E-3,1.7284067E-2,-8.487604E-3,5.270376E-3,7.333666E-3,1.0902238E-3,-4.10298E-3,-4.4703897E-4],"split_indices":[368,294,41,322,309,242,284,0,362,36,232,242,228,389,288,0,0,0,0,0,0,0,0,0,0,0,0,0,0],"split_type":[0,0,0,0,0,0,0,0,0,0,0,0,0,0,0,0,0,0,0,0,0,0,0,0,0,0,0,0,0],"sum_hessian":[1.2915758E3,1.3558456E2,1.1559913E3,2.241483E1,1.1316973E2,2.5417578E1,1.1305737E3,9.666895E0,1.2747933E1,1.003614E2,1.2808338E1,1.4225293E1,1.1192286E1,5.563915E1,1.0749346E3,7.2868204E0,5.461113E0,9.2483154E1,7.8782363E0,7.5853252E0,5.223013E0,9.041736E0,5.183558E0,6.136899E0,5.055386E0,8.835362E0,4.6803787E1,4.1031925E1,1.0339026E3],"tree_param":{"num_deleted":"0","num_feature":"420","num_nodes":"29","size_leaf_vector":"1"}},{"base_weights":[-3.831877E-4,2.0084525E-2,-2.1447086E-1,-1.1030799E-2,1.585861E-1,-9.068384E-3,-1.554306E-1,-4.8240787E-1,2.8344437E-3,-6.1734836E-3,1.9791871E-1,6.549838E-3,-3.906455E-1,-3.3369142E-4,-9.426176E-3,1.2879931E-4,-7.137478E-3,8.093693E-3,1.5526103E-3,-2.1121309E-3,2.8711453E-3,2.420247E-3,-5.3138095E-3],"categories":[],"categories_nodes":[],"categories_segments":[],"categories_sizes":[],"default_left":[0,0,0,0,0,0,0,0,0,0,0,0,0,0,0,0,0,0,0,0,0,0,0],"id":39,"left_children":[1,3,5,7,9,-1,11,13,15,-1,17,19,21,-1,-1,-1,-1,-1,-1,-1,-1,-1,-1],"loss_changes":[5.682517E0,5.0992002E0,4.309762E0,6.348526E0,6.7642736E0,0E0,4.090417E0,5.5901217E0,6.6918564E0,0E0,5.134987E0,4.0175314E0,4.104541E0,0E0,0E0,0E0,0E0,0E0,0E0,0E0,0E0,0E0,0E0],"parents":[2147483647,0,0,1,1,2,2,3,3,4,4,6,6,7,7,8,8,10,10,11,11,12,12],"right_children":[2,4,6,8,10,-1,12,14,16,-1,18,20,22,-1,-1,-1,-1,-1,-1,-1,-1,-1,-1],"split_conditions":[1.3134356E0,6.523311E-1,2.5715053E-1,-1.7218932E0,-9.4334745E-1,-9.068384E-3,1.1249325E0,-2.9063112E-1,1.1208252E0,-6.1734836E-3,-1.543237E0,1.1383707E-1,-7.6670337E-1,-3.3369142E-4,-9.426176E-3,1.2879931E-4,-7.137478E-3,8.093693E-3,1.5526103E-3,-2.1121309E-3,2.8711453E-3,2.420247E-3,-5.3138095E-3],"split_indices":[6,332,40,309,181,0,8,269,416,0,414,326,263,0,0,0,0,0,0,0,0,0,0],"split_type":[0,0,0,0,0,0,0,0,0,0,0,0,0,0,0,0,0,0,0,0,0,0,0],"sum_hessian":[1.2894095E3,1.1777078E3,1.117018E2,9.622012E2,2.1550655E2,6.9512277E0,1.0475057E2,2.6251501E1,9.359497E2,9.210986E0,2.0629556E2,6.2643967E1,4.21066E1,1.4211258E1,1.2040243E1,9.2460065E2,1.1349026E1,1.1542468E1,1.947531E2,3.527742E1,2.7366547E1,7.336328E0,3.477027E1],"tree_param":{"num_deleted":"0","num_feature":"420","num_nodes":"23","size_leaf_vector":"1"}},{"base_weights":[2.731297E-3,-3.2328647E-2,1.3977797E-1,-5.4319862E-2,2.6753455E-1,3.3479515E-2,3.9813918E-1,-4.45114E-1,-3.602407E-2,3.237338E-2,6.1963016E-1,-5.7922002E-2,3.4306717E-1,1.1769791E0,2.290682E-1,-7.6869765E-4,-8.716827E-3,1.6358442E-4,-1.6353008E-3,2.6088995E-3,-3.8412188E-3,8.929788E-3,-9.627999E-5,1.1752814E-3,-3.3499931E-3,1.0650847E-2,1.1179287E-3,1.5161207E-3,1.9280005E-2,6.2612453E-3,1.0361057E-4],"categories":[],"categories_nodes":[],"categories_segments":[],"categories_sizes":[],"default_left":[0,0,0,0,0,0,0,0,0,0,0,0,0,0,0,0,0,0,0,0,0,0,0,0,0,0,0,0,0,0,0],"id":40,"left_children":[1,3,5,7,9,11,13,15,17,19,21,23,25,27,29,-1,-1,-1,-1,-1,-1,-1,-1,-1,-1,-1,-1,-1,-1,-1,-1],"loss_changes":[6.042713E0,6.589353E0,6.976043E0,6.5947957E0,5.552632E0,5.251032E0,9.239161E0,6.2961645E0,5.980686E0,4.197287E0,4.756075E0,7.018586E0,6.766318E0,9.198841E0,5.39907E0,0E0,0E0,0E0,0E0,0E0,0E0,0E0,0E0,0E0,0E0,0E0,0E0,0E0,0E0,0E0,0E0],"parents":[2147483647,0,0,1,1,2,2,3,3,4,4,5,5,6,6,7,7,8,8,9,9,10,10,11,11,12,12,13,13,14,14],"right_children":[2,4,6,8,10,12,14,16,18,20,22,24,26,28,30,-1,-1,-1,-1,-1,-1,-1,-1,-1,-1,-1,-1,-1,-1,-1,-1],"split_conditions":[6.034799E-1,1.1379596E0,1.1139729E-1,-1.3275901E0,3.4330904E-1,1.1843321E0,-6.2916154E-1,-1.6040388E0,3.6197284E-1,2.9680404E-1,1.1846738E0,4.3863767E-1,-6.033648E-1,-7.8587625E-3,-1.5148692E-1,-7.6869765E-4,-8.716827E-3,1.6358442E-4,-1.6353008E-3,2.6088995E-3,-3.8412188E-3,8.929788E-3,-9.627999E-5,1.1752814E-3,-3.3499931E-3,1.0650847E-2,1.1179287E-3,1.5161207E-3,1.9280005E-2,6.2612453E-3,1.0361057E-4],"split_indices":[332,140,328,136,302,156,312,94,389,7,358,288,305,287,245,0,0,0,0,0,0,0,0,0,0,0,0,0,0,0,0],"split_type":[0,0,0,0,0,0,0,0,0,0,0,0,0,0,0,0,0,0,0,0,0,0,0,0,0,0,0,0,0,0,0],"sum_hessian":[1.252481E3,9.97669E2,2.5481203E2,9.309567E2,6.6712265E1,1.8200888E2,7.280313E1,3.982587E1,8.9113086E2,4.1150314E1,2.5561953E1,1.4121379E2,4.0795094E1,1.1284852E1,6.1518284E1,2.24501E1,1.7375772E1,6.320095E2,2.5912134E2,2.7088371E1,1.4061944E1,1.7493204E1,8.0687475E0,8.6771454E1,5.4442345E1,8.480237E0,3.2314854E1,5.589496E0,5.695356E0,2.069522E1,4.0823063E1],"tree_param":{"num_deleted":"0","num_feature":"420","num_nodes":"31","size_leaf_vector":"1"}},{"base_weights":[8.32215E-3,-9.770598E-2,5.821326E-2,2.1586838E-1,-1.4004709E-1,7.720449E-2,-2.7767903E-1,-7.801078E-2,6.542271E-1,-9.285791E-2,-4.78465E-1,5.5006377E-2,3.7550157E-1,-7.332128E-1,-2.9805856E-4,9.814593E-4,-6.835947E-3,-2.1439783E-4,1.1022105E-2,7.987988E-4,-1.7796236E-3,-7.377408E-3,-3.209941E-4,3.6339387E-3,2.945525E-4,1.8047784E-3,1.278309E-2,-3.102881E-3,-1.2856267E-2,-4.516851E-3,3.4387058E-3],"categories":[],"categories_nodes":[],"categories_segments":[],"categories_sizes":[],"default_left":[0,0,0,0,0,0,0,0,0,0,0,0,0,0,0,0,0,0,0,0,0,0,0,0,0,0,0,0,0,0,0],"id":41,"left_children":[1,3,5,7,9,11,13,15,17,19,21,23,25,27,29,-1,-1,-1,-1,-1,-1,-1,-1,-1,-1,-1,-1,-1,-1,-1,-1],"loss_changes":[6.698211E0,5.412491E0,5.51118E0,6.377954E0,5.5908856E0,5.3383617E0,5.761039E0,3.3828628E0,6.121129E0,4.679122E0,4.8837757E0,5.955544E0,9.375647E0,3.292962E0,4.9568033E0,0E0,0E0,0E0,0E0,0E0,0E0,0E0,0E0,0E0,0E0,0E0,0E0,0E0,0E0,0E0,0E0],"parents":[2147483647,0,0,1,1,2,2,3,3,4,4,5,5,6,6,7,7,8,8,9,9,10,10,11,11,12,12,13,13,14,14],"right_children":[2,4,6,8,10,12,14,16,18,20,22,24,26,28,30,-1,-1,-1,-1,-1,-1,-1,-1,-1,-1,-1,-1,-1,-1,-1,-1],"split_conditions":[-5.7358146E-1,-9.084781E-1,1.7718841E0,-5.004114E-1,7.38241E-1,1.7355536E0,-6.637311E-1,-3.682843E-1,-6.4682275E-1,-7.403349E-1,1.4573896E-1,-1.3323501E0,1.0758791E0,-8.6534685E-1,-1.6461173E-1,9.814593E-4,-6.835947E-3,-2.1439783E-4,1.1022105E-2,7.987988E-4,-1.7796236E-3,-7.377408E-3,-3.209941E-4,3.6339387E-3,2.945525E-4,1.8047784E-3,1.278309E-2,-3.102881E-3,-1.2856267E-2,-4.516851E-3,3.4387058E-3],"split_indices":[404,347,83,152,285,7,199,140,272,161,326,112,203,250,387,0,0,0,0,0,0,0,0,0,0,0,0,0,0,0,0],"split_type":[0,0,0,0,0,0,0,0,0,0,0,0,0,0,0,0,0,0,0,0,0,0,0,0,0,0,0,0,0,0,0],"sum_hessian":[1.2638695E3,4.0331216E2,8.605574E2,4.696731E1,3.5634488E2,8.158807E2,4.4676662E1,2.871888E1,1.824843E1,3.1467368E2,4.1671196E1,7.613368E2,5.454389E1,1.5839096E1,2.8837566E1,2.3093143E1,5.625736E0,7.755803E0,1.0492627E1,1.0350501E2,2.1116866E2,2.559873E1,1.6072466E1,5.6436268E1,7.049005E2,4.642568E1,8.118212E0,1.0400275E1,5.4388213E0,1.2398517E1,1.6439049E1],"tree_param":{"num_deleted":"0","num_feature":"420","num_nodes":"31","size_leaf_vector":"1"}},{"base_weights":[-4.7790664E-3,-8.4375165E-2,4.462868E-2,-5.695589E-2,-5.343502E-1,3.468278E-1,1.2401369E-2,-6.589683E-1,-3.847075E-2,-8.446477E-4,-9.208982E-1,-9.392084E-2,5.634993E-1,-4.11876E-3,5.286377E-1,-1.3532908E-2,4.3408762E-4,-8.538123E-4,1.5750863E-3,-1.4445251E-2,-2.3425263E-3,-4.761653E-3,2.7434072E-3,-1.8111662E-3,6.9325035E-3,-1.6265135E-4,7.0180977E-3,1.1851613E-2,2.490992E-4],"categories":[],"categories_nodes":[],"categories_segments":[],"categories_sizes":[],"default_left":[0,0,0,0,0,0,0,0,0,0,0,0,0,0,0,0,0,0,0,0,0,0,0,0,0,0,0,0,0],"id":42,"left_children":[1,3,5,7,9,11,13,15,17,-1,19,21,23,25,27,-1,-1,-1,-1,-1,-1,-1,-1,-1,-1,-1,-1,-1,-1],"loss_changes":[5.0543146E0,5.972748E0,7.6678524E0,5.0800495E0,4.6352577E0,7.378092E0,6.172585E0,6.867999E0,4.187258E0,0E0,4.623233E0,3.8986492E0,5.193548E0,5.9190073E0,7.255879E0,0E0,0E0,0E0,0E0,0E0,0E0,0E0,0E0,0E0,0E0,0E0,0E0,0E0,0E0],"parents":[2147483647,0,0,1,1,2,2,3,3,4,4,5,5,6,6,7,7,8,8,10,10,11,11,12,12,13,13,14,14],"right_children":[2,4,6,8,10,12,14,16,18,-1,20,22,24,26,28,-1,-1,-1,-1,-1,-1,-1,-1,-1,-1,-1,-1,-1,-1],"split_conditions":[-4.031337E-1,1.7131009E0,-1.1223903E0,-1.6318073E0,1.3352232E-1,-4.7258195E-1,2.147659E0,3.8998264E-1,1.0156924E0,-8.446477E-4,2.034611E0,-2.1012226E-1,-1.7658535E0,2.9365547E0,-1.2483058E-2,-1.3532908E-2,4.3408762E-4,-8.538123E-4,1.5750863E-3,-1.4445251E-2,-2.3425263E-3,-4.761653E-3,2.7434072E-3,-1.8111662E-3,6.9325035E-3,-1.6265135E-4,7.0180977E-3,1.1851613E-2,2.490992E-4],"split_indices":[160,83,369,376,57,202,205,245,140,0,133,123,400,329,63,0,0,0,0,0,0,0,0,0,0,0,0,0,0],"split_type":[0,0,0,0,0,0,0,0,0,0,0,0,0,0,0,0,0,0,0,0,0,0,0,0,0,0,0,0,0],"sum_hessian":[1.2812672E3,4.910867E2,7.901805E2,4.646833E2,2.6403423E1,7.443637E1,7.157441E2,1.2133828E1,4.5254944E2,1.316627E1,1.3237152E1,2.4660587E1,4.9775787E1,6.9480396E2,2.0940165E1,5.4744434E0,6.659385E0,3.6624112E2,8.630833E1,6.488136E0,6.7490163E0,1.2018146E1,1.2642442E1,7.1839557E0,4.259183E1,6.846311E2,1.017283E1,8.124095E0,1.2816071E1],"tree_param":{"num_deleted":"0","num_feature":"420","num_nodes":"29","size_leaf_vector":"1"}},{"base_weights":[-3.9002236E-3,-2.717932E-2,1.8690033E-1,5.6252617E-1,-3.4960713E-2,1.0013039E-2,1.2677497E-1,-1.1152113E-3,1.0242721E-2,-1.9226426E-1,1.1252402E-4,1.7807938E-1,-7.211072E-3,-1.1911541E-2,-1.549052E-3,2.7164503E-4,-2.320163E-3,2.5793666E-3,-3.0493224E-3],"categories":[],"categories_nodes":[],"categories_segments":[],"categories_sizes":[],"default_left":[0,0,0,0,0,0,0,0,0,0,0,0,0,0,0,0,0,0,0],"id":43,"left_children":[1,3,5,7,9,-1,11,-1,-1,13,15,17,-1,-1,-1,-1,-1,-1,-1],"loss_changes":[5.7278943E0,5.266657E0,6.559776E0,4.910657E0,6.305326E0,0E0,5.8956957E0,0E0,0E0,7.3598437E0,5.8454356E0,4.9778156E0,0E0,0E0,0E0,0E0,0E0,0E0,0E0],"parents":[2147483647,0,0,1,1,2,2,3,3,4,4,6,6,9,9,10,10,11,11],"right_children":[2,4,6,8,10,-1,12,-1,-1,14,16,18,-1,-1,-1,-1,-1,-1,-1],"split_conditions":[1.0040131E0,-1.8121542E0,-1.7191746E0,-3.2025316E-1,-8.0416036E-1,1.0013039E-2,2.9345071E0,-1.1152113E-3,1.0242721E-2,-1.5944897E0,1.3134356E0,2.027945E0,-7.211072E-3,-1.1911541E-2,-1.549052E-3,2.7164503E-4,-2.320163E-3,2.5793666E-3,-3.0493224E-3],"split_indices":[269,40,414,352,103,0,371,0,0,321,6,293,0,0,0,0,0,0,0],"split_type":[0,0,0,0,0,0,0,0,0,0,0,0,0,0,0,0,0,0,0],"sum_hessian":[1.2899633E3,1.1513058E3,1.3865749E2,1.343401E1,1.1378717E3,7.804273E0,1.3085321E2,5.8359528E0,7.598057E0,2.0674562E2,9.3112616E2,1.2461575E2,6.2374625E0,5.686981E0,2.0105864E2,8.3551196E2,9.561417E1,1.077133E2,1.6902449E1],"tree_param":{"num_deleted":"0","num_feature":"420","num_nodes":"19","size_leaf_vector":"1"}},{"base_weights":[-8.032481E-3,-4.2726826E-2,1.23163834E-1,-3.328262E-2,-6.125312E-1,6.3681E-1,7.153841E-2,-4.4387838E-1,-2.1313097E-2,-1.2217055E-3,-1.2718341E-2,1.1324654E0,-7.1695197E-4,-4.2652184E-1,1.2365119E-1,-1.6039206E-3,-1.0927977E-2,-1.5287823E-4,-6.5232236E-3,-0E0,1.755139E-2,2.439091E-3,-8.008902E-3,3.4394658E-3,-3.11357E-5],"categories":[],"categories_nodes":[],"categories_segments":[],"categories_sizes":[],"default_left":[0,0,0,0,0,0,0,0,0,0,0,0,0,0,0,0,0,0,0,0,0,0,0,0,0],"id":44,"left_children":[1,3,5,7,9,11,13,15,17,-1,-1,19,-1,21,23,-1,-1,-1,-1,-1,-1,-1,-1,-1,-1],"loss_changes":[5.8772397E0,5.4094224E0,7.016007E0,4.89315E0,4.9356594E0,8.753177E0,6.4612083E0,4.8067207E0,3.6489646E0,0E0,0E0,1.0213345E1,0E0,6.261137E0,6.318923E0,0E0,0E0,0E0,0E0,0E0,0E0,0E0,0E0,0E0,0E0],"parents":[2147483647,0,0,1,1,2,2,3,3,4,4,5,5,6,6,7,7,8,8,11,11,13,13,14,14],"right_children":[2,4,6,8,10,12,14,16,18,-1,-1,20,-1,22,24,-1,-1,-1,-1,-1,-1,-1,-1,-1,-1],"split_conditions":[5.28686E-1,1.7687415E0,-8.707141E-1,-1.7847743E0,8.9798905E-2,1.6680518E-1,-1.314182E0,-3.8655636E-1,2.635642E0,-1.2217055E-3,-1.2718341E-2,-1.0337627E0,-7.1695197E-4,-6.3228345E-1,-1.3891377E-1,-1.6039206E-3,-1.0927977E-2,-1.5287823E-4,-6.5232236E-3,-0E0,1.755139E-2,2.439091E-3,-8.008902E-3,3.4394658E-3,-3.11357E-5],"split_indices":[371,279,244,305,144,379,189,400,65,0,0,305,0,355,370,0,0,0,0,0,0,0,0,0,0],"split_type":[0,0,0,0,0,0,0,0,0,0,0,0,0,0,0,0,0,0,0,0,0,0,0,0,0],"sum_hessian":[1.2897316E3,1.0214E3,2.6833148E2,1.00648126E3,1.4918784E1,2.2776571E1,2.455549E2,2.673962E1,9.7974164E2,9.662139E0,5.2566457E0,1.2956228E1,9.820343E0,2.205658E1,2.2349832E2,2.0018995E1,6.7206254E0,9.7215375E2,7.5879183E0,5.1223483E0,7.8338804E0,7.994813E0,1.4061767E1,8.098291E1,1.4251543E2],"tree_param":{"num_deleted":"0","num_feature":"420","num_nodes":"25","size_leaf_vector":"1"}},{"base_weights":[5.1336887E-4,1.067532E-2,-6.392352E-3,3.440838E-1,-1.9419866E-2,-3.6039075E-3,4.5295355E-1,-8.397346E-3,-3.8595963E-1,7.105338E-3,-4.4173695E-4,1.7983196E-3,-2.985218E-4,-9.244019E-3,-8.287742E-4],"categories":[],"categories_nodes":[],"categories_segments":[],"categories_sizes":[],"default_left":[0,0,0,0,0,0,0,0,0,0,0,0,0,0,0],"id":45,"left_children":[1,-1,3,5,7,-1,9,11,13,-1,-1,-1,-1,-1,-1],"loss_changes":[9.509518E0,0E0,5.766888E0,3.724413E0,4.9017897E0,0E0,5.2329645E0,4.7999125E0,5.5681467E0,0E0,0E0,0E0,0E0,0E0,0E0],"parents":[2147483647,0,0,2,2,3,3,4,4,6,6,7,7,8,8],"right_children":[2,-1,4,6,8,-1,10,12,14,-1,-1,-1,-1,-1,-1],"split_conditions":[-3.1009743E0,1.067532E-2,-1.8022766E0,-1.0829388E0,1.6720499E0,-3.6039075E-3,5.468903E-1,-1.1996195E0,-6.452089E-1,7.105338E-3,-4.4173695E-4,1.7983196E-3,-2.985218E-4,-9.244019E-3,-8.287742E-4],"split_indices":[66,0,285,40,405,0,22,91,119,0,0,0,0,0,0],"split_type":[0,0,0,0,0,0,0,0,0,0,0,0,0,0,0],"sum_hessian":[1.2732676E3,6.7992587E0,1.2664684E3,4.374743E1,1.222721E3,5.2689757E0,3.8478455E1,1.1887793E3,3.3941578E1,2.505418E1,1.34242735E1,1.2002576E2,1.0687535E3,1.0998026E1,2.2943552E1],"tree_param":{"num_deleted":"0","num_feature":"420","num_nodes":"15","size_leaf_vector":"1"}},{"base_weights":[9.107469E-3,1.9735654E-3,6.717654E-1,-3.5194E-1,1.5669638E-2,1.3153324E-2,-9.615409E-4,1.12557895E-1,-6.3458604E-1,1.03736274E-1,-4.0455367E-2,-3.6585021E-3,6.73981E-3,-1.4014183E-2,-2.7372276E-3,-3.1051217E-4,2.0277079E-3,5.9549045E-3,-5.0159707E-4],"categories":[],"categories_nodes":[],"categories_segments":[],"categories_sizes":[],"default_left":[0,0,0,0,0,0,0,0,0,0,0,0,0,0,0,0,0,0,0],"id":46,"left_children":[1,3,5,7,9,-1,-1,11,13,15,17,-1,-1,-1,-1,-1,-1,-1,-1],"loss_changes":[6.06076E0,6.2013006E0,7.0613947E0,6.415464E0,6.1338587E0,0E0,0E0,5.548705E0,7.5545235E0,6.476125E0,4.66063E0,0E0,0E0,0E0,0E0,0E0,0E0,0E0,0E0],"parents":[2147483647,0,0,1,1,2,2,3,3,4,4,7,7,8,8,9,9,10,10],"right_children":[2,4,6,8,10,-1,-1,12,14,16,18,-1,-1,-1,-1,-1,-1,-1,-1],"split_conditions":[3.6592135E0,-1.7847743E0,4.9944714E-1,-3.4976438E-1,-3.959368E-1,1.3153324E-2,-9.615409E-4,-4.0263753E-2,-2.8505108E-1,-6.3689464E-1,-1.509527E0,-3.6585021E-3,6.73981E-3,-1.4014183E-2,-2.7372276E-3,-3.1051217E-4,2.0277079E-3,5.9549045E-3,-5.0159707E-4],"split_indices":[416,305,418,390,283,0,0,64,135,235,305,0,0,0,0,0,0,0,0],"split_type":[0,0,0,0,0,0,0,0,0,0,0,0,0,0,0,0,0,0,0],"sum_hessian":[1.295239E3,1.2830813E3,1.2157751E1,4.6151695E1,1.2369296E3,6.1035333E0,6.0542183E0,1.766691E1,2.8484783E1,4.8165942E2,7.5527014E2,9.7246275E0,7.942283E0,7.642381E0,2.0842402E1,2.0401367E2,2.7764575E2,9.836164E0,7.4543396E2],"tree_param":{"num_deleted":"0","num_feature":"420","num_nodes":"19","size_leaf_vector":"1"}},{"base_weights":[-4.040631E-3,-3.5923865E-2,1.4898652E-1,-1.9888441E-1,-1.6505481E-3,2.1728742E-1,-2.5592533E-1,-2.684544E-2,-3.7984467E-1,-5.815962E-2,1.21691465E-1,1.0817142E-2,1.8079442E-1,9.587085E-2,-6.131636E-1,-2.371808E-3,3.1692418E-3,-6.3139442E-3,-9.869289E-4,-1.14065275E-4,-2.5565852E-3,-1.7847173E-4,3.0208586E-3,-3.1650274E-3,2.4223085E-3,-2.8750538E-3,4.3085264E-3,-9.421565E-3,-4.0964253E-4],"categories":[],"categories_nodes":[],"categories_segments":[],"categories_sizes":[],"default_left":[0,0,0,0,0,0,0,0,0,0,0,0,0,0,0,0,0,0,0,0,0,0,0,0,0,0,0,0,0],"id":47,"left_children":[1,3,5,7,9,11,13,15,17,19,21,-1,23,25,27,-1,-1,-1,-1,-1,-1,-1,-1,-1,-1,-1,-1,-1,-1],"loss_changes":[6.30414E0,5.9646187E0,6.237309E0,5.725112E0,6.189513E0,5.622698E0,4.2387314E0,7.125132E0,6.2059584E0,5.602969E0,7.053328E0,0E0,5.780975E0,2.4589353E0,2.9547944E0,0E0,0E0,0E0,0E0,0E0,0E0,0E0,0E0,0E0,0E0,0E0,0E0,0E0,0E0],"parents":[2147483647,0,0,1,1,2,2,3,3,4,4,5,5,6,6,7,7,8,8,9,9,10,10,12,12,13,13,14,14],"right_children":[2,4,6,8,10,12,14,16,18,20,22,-1,24,26,28,-1,-1,-1,-1,-1,-1,-1,-1,-1,-1,-1,-1,-1,-1],"split_conditions":[7.294061E-1,-7.238628E-1,6.6208804E-1,4.5454334E-2,3.3975843E-1,-2.0344017E0,-2.979511E-1,8.8076316E-2,-1.3087344E-1,4.052258E-1,-2.2163521E-1,1.0817142E-2,-1.2120926E0,-1.2657001E0,8.6492926E-1,-2.371808E-3,3.1692418E-3,-6.3139442E-3,-9.869289E-4,-1.14065275E-4,-2.5565852E-3,-1.7847173E-4,3.0208586E-3,-3.1650274E-3,2.4223085E-3,-2.8750538E-3,4.3085264E-3,-9.421565E-3,-4.0964253E-4],"split_indices":[227,57,139,403,99,267,60,142,385,205,240,0,367,60,106,0,0,0,0,0,0,0,0,0,0,0,0,0,0],"split_type":[0,0,0,0,0,0,0,0,0,0,0,0,0,0,0,0,0,0,0,0,0,0,0,0,0,0,0,0,0],"sum_hessian":[1.2912687E3,1.0701119E3,2.2115666E2,1.8419438E2,8.859176E2,1.9004219E2,3.111447E1,9.5591064E1,8.860332E1,6.086626E2,2.7725497E2,5.8466687E0,1.8419553E2,1.6088541E1,1.50259285E1,5.977421E1,3.5816856E1,4.5589535E1,4.301378E1,4.9384882E2,1.148138E2,1.5677989E2,1.2047508E2,1.9389778E1,1.6480574E2,7.462272E0,8.626269E0,8.813758E0,6.2121706E0],"tree_param":{"num_deleted":"0","num_feature":"420","num_nodes":"29","size_leaf_vector":"1"}},{"base_weights":[-1.2578496E-2,4.2442483E-1,-2.1587655E-2,7.0151424E-1,-4.191737E-3,2.6393065E-1,-3.4188125E-2,1.0316867E0,9.5960347E-4,3.7194398E-1,-4.7499654E-3,-5.857151E-2,1.2879029E-1,1.843457E-3,1.5928732E-2,8.302451E-4,6.6631036E-3,-4.053805E-3,-4.2756565E-4,3.5009806E-3,-5.5501703E-4],"categories":[],"categories_nodes":[],"categories_segments":[],"categories_sizes":[],"default_left":[0,0,0,0,0,0,0,0,0,0,0,0,0,0,0,0,0,0,0,0,0],"id":48,"left_children":[1,3,5,7,-1,9,11,13,-1,15,-1,17,19,-1,-1,-1,-1,-1,-1,-1,-1],"loss_changes":[5.077669E0,6.5553055E0,4.566521E0,3.7872496E0,0E0,4.5324583E0,4.8518496E0,5.4890556E0,0E0,3.9006286E0,0E0,5.757541E0,6.530592E0,0E0,0E0,0E0,0E0,0E0,0E0,0E0,0E0],"parents":[2147483647,0,0,1,1,2,2,3,3,5,5,6,6,7,7,9,9,11,11,12,12],"right_children":[2,4,6,8,-1,10,12,14,-1,16,-1,18,20,-1,-1,-1,-1,-1,-1,-1,-1],"split_conditions":[-1.9123238E0,1.2728378E0,-1.783969E0,1.9643256E-1,-4.191737E-3,1.1003487E0,1.0156924E0,-1.5057833E-1,9.5960347E-4,-4.3024388E-1,-4.7499654E-3,-1.3888295E0,-9.0333596E-2,1.843457E-3,1.5928732E-2,8.302451E-4,6.6631036E-3,-4.053805E-3,-4.2756565E-4,3.5009806E-3,-5.5501703E-4],"split_indices":[23,375,284,379,0,309,140,225,0,309,0,136,294,0,0,0,0,0,0,0,0],"split_type":[0,0,0,0,0,0,0,0,0,0,0,0,0,0,0,0,0,0,0,0,0],"sum_hessian":[1.294961E3,2.4536058E1,1.270425E3,1.8748938E1,5.7871203E0,5.209655E1,1.2183285E3,1.1343373E1,7.405565E0,4.622052E1,5.876029E0,1.061144E3,1.5718445E2,5.3843803E0,5.958993E0,2.4468029E1,2.1752493E1,4.4391953E1,1.01675214E3,7.1053116E1,8.613134E1],"tree_param":{"num_deleted":"0","num_feature":"420","num_nodes":"21","size_leaf_vector":"1"}},{"base_weights":[1.3405349E-2,-3.19026E-2,9.825441E-2,-5.605812E-1,-2.0761108E-2,6.94363E-2,6.024979E-1,-1.6540429E-3,-9.83046E-3,-3.2595206E-2,4.561141E-1,3.0202773E-1,1.2909809E-2,2.6878914E-1,1.2653195E-2,-5.089989E-4,2.4456105E-3,1.1422443E-2,1.4914463E-4,-2.1171959E-3,4.3461076E-3,-1.4228323E-4,8.334821E-3,-3.3471761E-3,5.7058083E-3],"categories":[],"categories_nodes":[],"categories_segments":[],"categories_sizes":[],"default_left":[0,0,0,0,0,0,0,0,0,0,0,0,0,0,0,0,0,0,0,0,0,0,0,0,0],"id":49,"left_children":[1,3,5,7,9,11,13,-1,-1,15,17,19,21,23,-1,-1,-1,-1,-1,-1,-1,-1,-1,-1,-1],"loss_changes":[5.0756354E0,4.9849443E0,6.5501857E0,2.5610104E0,4.7381477E0,5.7046723E0,4.7487946E0,0E0,0E0,4.1813655E0,6.00765E0,5.948307E0,7.9664054E0,3.6395001E0,0E0,0E0,0E0,0E0,0E0,0E0,0E0,0E0,0E0,0E0,0E0],"parents":[2147483647,0,0,1,1,2,2,3,3,4,4,5,5,6,6,9,9,10,10,11,11,12,12,13,13],"right_children":[2,4,6,8,10,12,14,-1,-1,16,18,20,22,24,-1,-1,-1,-1,-1,-1,-1,-1,-1,-1,-1],"split_conditions":[2.8535196E-1,-2.133617E0,1.8323761E0,-1.9197765E-1,2.9504745E0,-7.658375E-1,-4.912591E-2,-1.6540429E-3,-9.83046E-3,1.6023991E0,1.6120243E-1,-6.9717187E-1,1.7658073E0,-6.896954E-1,1.2653195E-2,-5.089989E-4,2.4456105E-3,1.1422443E-2,1.4914463E-4,-2.1171959E-3,4.3461076E-3,-1.4228323E-4,8.334821E-3,-3.3471761E-3,5.7058083E-3],"split_indices":[95,200,161,413,349,200,13,0,0,270,84,57,111,3,0,0,0,0,0,0,0,0,0,0,0],"split_type":[0,0,0,0,0,0,0,0,0,0,0,0,0,0,0,0,0,0,0,0,0,0,0,0,0],"sum_hessian":[1.3158398E3,8.576349E2,4.5820496E2,1.5988981E1,8.4164594E2,4.352356E2,2.2969357E1,9.462071E0,6.5269094E0,8.2283374E2,1.8812206E1,8.34749E1,3.5176068E2,1.6780224E1,6.189133E0,7.733438E2,4.9489902E1,6.3409758E0,1.247123E1,1.6784992E1,6.66899E1,3.4180847E2,9.952233E0,5.428865E0,1.1351358E1],"tree_param":{"num_deleted":"0","num_feature":"420","num_nodes":"25","size_leaf_vector":"1"}},{"base_weights":[-9.417088E-3,-4.35E-2,1.255972E-1,-6.061254E-5,-1.4562365E-1,6.4234716E-1,7.3087186E-2,1.8128599E-1,-4.0439785E-2,-2.4664113E-1,7.4906036E-2,1.1330193E0,-9.019051E-4,6.442155E-1,3.264754E-2,6.9884304E-3,1.0267117E-3,-2.4078954E-3,2.0805413E-4,3.6786732E-3,-2.8161013E-3,-1.3614135E-3,3.4851443E-3,2.8181025E-3,1.9224234E-2,1.555642E-3,1.2718069E-2,-2.2609711E-4,3.514626E-3],"categories":[],"categories_nodes":[],"categories_segments":[],"categories_sizes":[],"default_left":[0,0,0,0,0,0,0,0,0,0,0,0,0,0,0,0,0,0,0,0,0,0,0,0,0,0,0,0,0],"id":50,"left_children":[1,3,5,7,9,11,13,15,17,19,21,23,-1,25,27,-1,-1,-1,-1,-1,-1,-1,-1,-1,-1,-1,-1,-1,-1],"loss_changes":[6.0060725E0,4.616034E0,6.990813E0,5.375474E0,6.9690156E0,8.840635E0,5.4551253E0,5.247564E0,7.421555E0,4.7416945E0,5.7793794E0,8.7053585E0,0E0,4.362553E0,4.0320115E0,0E0,0E0,0E0,0E0,0E0,0E0,0E0,0E0,0E0,0E0,0E0,0E0,0E0,0E0],"parents":[2147483647,0,0,1,1,2,2,3,3,4,4,5,5,6,6,7,7,8,8,9,9,10,10,11,11,13,13,14,14],"right_children":[2,4,6,8,10,12,14,16,18,20,22,24,-1,26,28,-1,-1,-1,-1,-1,-1,-1,-1,-1,-1,-1,-1,-1,-1],"split_conditions":[7.5106484E-1,3.2210085E-1,-1.2605841E0,-8.4836257E-1,1.1009302E0,1.4387329E0,-1.2491633E0,-1.2535266E0,-5.8968014E-1,-1.1268939E0,-1.8011291E-1,-2.7770922E-1,-9.019051E-4,-7.673296E-1,6.1561686E-1,6.9884304E-3,1.0267117E-3,-2.4078954E-3,2.0805413E-4,3.6786732E-3,-2.8161013E-3,-1.3614135E-3,3.4851443E-3,2.8181025E-3,1.9224234E-2,1.555642E-3,1.2718069E-2,-2.2609711E-4,3.514626E-3],"split_indices":[264,291,261,39,291,380,338,246,230,35,13,330,0,358,244,0,0,0,0,0,0,0,0,0,0,0,0,0,0],"split_type":[0,0,0,0,0,0,0,0,0,0,0,0,0,0,0,0,0,0,0,0,0,0,0,0,0,0,0,0,0],"sum_hessian":[1.3036946E3,1.0423275E3,2.6136707E2,7.3301276E2,3.0931473E2,2.2379282E1,2.3898778E2,1.3208699E2,6.009258E2,2.1232938E2,9.698534E1,1.2992819E1,9.386462E0,1.4158552E1,2.2482922E2,1.5689522E1,1.1639747E2,1.4004285E2,4.6088293E2,1.0509376E1,2.0182E2,5.4971394E1,4.2013947E1,7.2920327E0,5.700786E0,9.102428E0,5.0561237E0,1.9253831E2,3.2290913E1],"tree_param":{"num_deleted":"0","num_feature":"420","num_nodes":"29","size_leaf_vector":"1"}},{"base_weights":[-8.834711E-3,2.837317E-1,-2.186294E-2,-5.6657293E-3,4.074306E-1,-5.1739607E-2,1.0830506E-1,7.226681E-1,-1.2519178E-3,-4.647329E-1,-3.955356E-2,8.727863E-3,6.794976E-2,1.00167245E-2,8.445378E-4,-1.1909627E-2,-1.8954203E-3,-3.7319087E-3,-2.3933257E-4,2.0663773E-3,-9.4457786E-4],"categories":[],"categories_nodes":[],"categories_segments":[],"categories_sizes":[],"default_left":[0,0,0,0,0,0,0,0,0,0,0,0,0,0,0,0,0,0,0,0,0],"id":51,"left_children":[1,3,5,-1,7,9,11,13,-1,15,17,-1,19,-1,-1,-1,-1,-1,-1,-1,-1],"loss_changes":[4.9201345E0,6.1153207E0,4.8319106E0,0E0,8.421007E0,5.0130653E0,6.964096E0,5.3049355E0,0E0,5.2427626E0,5.0774612E0,0E0,5.036355E0,0E0,0E0,0E0,0E0,0E0,0E0,0E0,0E0],"parents":[2147483647,0,0,1,1,2,2,4,4,5,5,6,6,7,7,9,9,10,10,12,12],"right_children":[2,4,6,-1,8,10,12,14,-1,16,18,-1,20,-1,-1,-1,-1,-1,-1,-1,-1],"split_conditions":[-1.783969E0,-1.1300509E0,6.119292E-1,-5.6657293E-3,5.468903E-1,-1.7847743E0,-1.5032862E0,-2.621194E-1,-1.2519178E-3,-2.8505108E-1,-1.3023261E0,8.727863E-3,-5.91025E-2,1.00167245E-2,8.445378E-4,-1.1909627E-2,-1.8954203E-3,-3.7319087E-3,-2.3933257E-4,2.0663773E-3,-9.4457786E-4],"split_indices":[284,40,371,0,22,305,141,367,0,135,388,0,77,0,0,0,0,0,0,0,0],"split_type":[0,0,0,0,0,0,0,0,0,0,0,0,0,0,0,0,0,0,0,0,0],"sum_hessian":[1.2937533E3,5.3499825E1,1.2402534E3,6.0097895E0,4.7490032E1,1.0100865E3,2.3016698E2,2.961478E1,1.7875254E1,2.7118303E1,9.829682E2,9.865122E0,2.2030185E2,1.9902985E1,9.711796E0,5.980554E0,2.1137749E1,4.214054E1,9.4082764E2,1.1894012E2,1.0136173E2],"tree_param":{"num_deleted":"0","num_feature":"420","num_nodes":"21","size_leaf_vector":"1"}},{"base_weights":[1.4310705E-3,5.147089E-2,-7.4468665E-2,2.0013588E-2,3.0996868E-1,6.278019E-3,-8.979238E-2,7.2680796E-3,9.514305E-3,4.521131E-1,-1.5626374E-1,-7.08521E-1,-7.214369E-2,-5.2346375E-5,6.9722002E-3,5.8936034E-3,-1.962301E-3,2.2012673E-3,-4.540159E-3,-1.2380119E-2,1.2824334E-3,3.1601044E-4,-1.595723E-3],"categories":[],"categories_nodes":[],"categories_segments":[],"categories_sizes":[],"default_left":[0,0,0,0,0,0,0,0,0,0,0,0,0,0,0,0,0,0,0,0,0,0,0],"id":52,"left_children":[1,3,5,7,9,-1,11,13,-1,15,17,19,21,-1,-1,-1,-1,-1,-1,-1,-1,-1,-1],"loss_changes":[4.902628E0,6.2929173E0,5.5443625E0,8.162269E0,5.707368E0,0E0,5.336381E0,6.015787E0,0E0,5.9949656E0,2.4812868E0,6.3830147E0,4.4715257E0,0E0,0E0,0E0,0E0,0E0,0E0,0E0,0E0,0E0,0E0],"parents":[2147483647,0,0,1,1,2,2,3,3,4,4,6,6,7,7,9,9,10,10,11,11,12,12],"right_children":[2,4,6,8,10,-1,12,14,-1,16,18,20,22,-1,-1,-1,-1,-1,-1,-1,-1,-1,-1],"split_conditions":[-7.038707E-2,1.2984425E0,-1.804621E0,1.8855087E0,9.8178226E-1,6.278019E-3,-1.7103263E0,1.8621211E0,9.514305E-3,9.895494E-1,-6.416929E-2,4.7535127E-1,-8.968083E-2,-5.2346375E-5,6.9722002E-3,5.8936034E-3,-1.962301E-3,2.2012673E-3,-4.540159E-3,-1.2380119E-2,1.2824334E-3,3.1601044E-4,-1.595723E-3],"split_indices":[370,140,44,388,14,0,256,205,0,337,54,100,120,0,0,0,0,0,0,0,0,0,0],"split_type":[0,0,0,0,0,0,0,0,0,0,0,0,0,0,0,0,0,0,0,0,0,0,0],"sum_hessian":[1.2884331E3,7.7758234E2,5.1085077E2,6.9500793E2,8.257443E1,9.489221E0,