{"learner":{"attributes":{"best_iteration":"1","best_score":"0.22932441537342374","scikit_learn":"{\"_estimator_type\": \"regressor\"}"},"feature_names":[],"feature_types":[],"gradient_booster":{"model":{"gbtree_model_param":{"num_parallel_tree":"1","num_trees":"52"},"iteration_indptr":[0,1,2,3,4,5,6,7,8,9,10,11,12,13,14,15,16,17,18,19,20,21,22,23,24,25,26,27,28,29,30,31,32,33,34,35,36,37,38,39,40,41,42,43,44,45,46,47,48,49,50,51,52],"tree_info":[0,0,0,0,0,0,0,0,0,0,0,0,0,0,0,0,0,0,0,0,0,0,0,0,0,0,0,0,0,0,0,0,0,0,0,0,0,0,0,0,0,0,0,0,0,0,0,0,0,0,0,0],"trees":[{"base_weights":[3.815433E-3,2.0629572E-2,-4.7549894E-1,1.0237275E0,1.0814766E-2,-2.632641E-3,-1.0954412E0,3.4762444E-3,1.44439405E-2,2.482595E-2,-3.4320453E-1,7.2340225E-3,-3.4832364E-1,-1.5668935E0,-1.0838284E-3,1.745937E-5,3.4638979E-3,-1.2466409E-2,-1.2729819E-3,2.4439334E-3,-1.20042395E-2,-2.1106655E-2,-5.9697446E-3],"categories":[],"categories_nodes":[],"categories_segments":[],"categories_sizes":[],"default_left":[0,0,0,0,0,0,0,0,0,0,0,0,0,0,0,0,0,0,0,0,0,0,0],"id":0,"left_children":[1,3,5,7,9,11,13,-1,-1,15,17,-1,19,21,-1,-1,-1,-1,-1,-1,-1,-1,-1],"loss_changes":[1.00458765E1,1.1788556E1,1.2267053E1,2.368476E0,5.9306326E0,6.7542806E0,8.037941E0,0E0,0E0,8.539936E0,8.4986105E0,0E0,9.837606E0,4.2333946E0,0E0,0E0,0E0,0E0,0E0,0E0,0E0,0E0,0E0],"parents":[2147483647,0,0,1,1,2,2,3,3,4,4,5,5,6,6,9,9,10,10,12,12,13,13],"right_children":[2,4,6,8,10,12,14,-1,-1,16,18,-1,20,22,-1,-1,-1,-1,-1,-1,-1,-1,-1],"split_conditions":[1.8736122E0,-2.3458838E0,1.2966543E0,-1.148647E0,1.6982719E0,-7.6201254E-1,1.6386471E0,3.4762444E-3,1.44439405E-2,1.274587E0,1.132878E-1,7.2340225E-3,4.255667E-1,6.151469E-1,-1.0838284E-3,1.745937E-5,3.4638979E-3,-1.2466409E-2,-1.2729819E-3,2.4439334E-3,-1.20042395E-2,-2.1106655E-2,-5.9697446E-3],"split_indices":[326,137,352,251,130,399,78,0,0,123,53,0,283,249,0,0,0,0,0,0,0,0,0],"split_type":[0,0,0,0,0,0,0,0,0,0,0,0,0,0,0,0,0,0,0,0,0,0,0],"sum_hessian":[1.2488197E3,1.2080847E3,4.073501E1,1.0105753E1,1.197979E3,2.405473E1,1.6680279E1,5.0179987E0,5.0877547E0,1.1539845E3,4.3994488E1,7.137027E0,1.6917704E1,1.0623616E1,6.0566626E0,1.0784021E3,7.55824E1,7.015355E0,3.697913E1,1.0539146E1,6.378557E0,5.610739E0,5.0128765E0],"tree_param":{"num_deleted":"0","num_feature":"420","num_nodes":"23","size_leaf_vector":"1"}},{"base_weights":[-5.521868E-3,8.123761E-1,-1.52235525E-2,-7.240097E-4,1.6093766E-2,4.973649E-3,-3.3855525E-1,1.9594433E-2,-3.5793698E-1,1.433005E-2,-7.107347E-1,-8.590803E-5,2.2495424E-3,-1.2835061E-2,-1.3571926E-3,-4.1901646E-3,4.6821046E-3,-3.1828107E-3,-1.6416717E-2],"categories":[],"categories_nodes":[],"categories_segments":[],"categories_sizes":[],"default_left":[0,0,0,0,0,0,0,0,0,0,0,0,0,0,0,0,0,0,0],"id":1,"left_children":[1,3,5,-1,-1,7,9,11,13,15,17,-1,-1,-1,-1,-1,-1,-1,-1],"loss_changes":[9.8296795E0,1.0566741E1,8.090904E0,0E0,0E0,6.143011E0,9.650478E0,6.500361E0,8.815123E0,7.914481E0,1.2032055E1,0E0,0E0,0E0,0E0,0E0,0E0,0E0,0E0],"parents":[2147483647,0,0,1,1,2,2,5,5,6,6,7,7,8,8,9,9,10,10],"right_children":[2,4,6,-1,-1,8,10,12,14,16,18,-1,-1,-1,-1,-1,-1,-1,-1],"split_conditions":[-2.39091E0,-1.4907387E-1,1.4877913E0,-7.240097E-4,1.6093766E-2,1.8082693E0,-3.9940793E-2,5.840752E-1,-1.0190392E0,-1.9485883E-1,3.8058874E-1,-8.590803E-5,2.2495424E-3,-1.2835061E-2,-1.3571926E-3,-4.1901646E-3,4.6821046E-3,-3.1828107E-3,-1.6416717E-2],"split_indices":[138,88,326,0,0,248,308,416,242,70,112,0,0,0,0,0,0,0,0],"split_type":[0,0,0,0,0,0,0,0,0,0,0,0,0,0,0,0,0,0,0],"sum_hessian":[1.2449849E3,1.3018904E1,1.231966E3,6.7565255E0,6.262378E0,1.1606337E3,7.133237E1,1.1173143E3,4.3319305E1,3.7217667E1,3.41147E1,9.8330756E2,1.3400676E2,6.9127684E0,3.640654E1,1.8985748E1,1.823192E1,2.5489424E1,8.6252775E0],"tree_param":{"num_deleted":"0","num_feature":"420","num_nodes":"19","size_leaf_vector":"1"}},{"base_weights":[7.7393097E-3,3.256184E-2,-3.7831664E-1,8.88575E-3,2.409924E-2,-6.565218E-2,-9.5688677E-1,3.8486564E-1,6.500928E-3,6.7068315E-1,-3.071999E-1,-5.350089E-1,-1.8938575E-2,6.062742E-3,2.194819E-4,2.0662375E-4,-5.260573E-3,9.079204E-4,1.1674585E-2,-4.504261E-4,-1.1381847E-2,-9.20333E-3,-0E0],"categories":[],"categories_nodes":[],"categories_segments":[],"categories_sizes":[],"default_left":[0,0,0,0,0,0,0,0,0,0,0,0,0,0,0,0,0,0,0,0,0,0,0],"id":2,"left_children":[1,3,5,-1,7,9,11,13,15,17,19,21,-1,-1,-1,-1,-1,-1,-1,-1,-1,-1,-1],"loss_changes":[1.177586E1,8.263878E0,1.3228965E1,0E0,7.2464533E0,9.148234E0,8.44109E0,4.1848645E0,8.235491E0,3.3723688E0,8.236941E0,4.0356846E0,0E0,0E0,0E0,0E0,0E0,0E0,0E0,0E0,0E0,0E0,0E0],"parents":[2147483647,0,0,1,1,2,2,4,4,5,5,6,6,7,7,8,8,9,9,10,10,11,11],"right_children":[2,4,6,-1,8,10,12,14,16,18,20,22,-1,-1,-1,-1,-1,-1,-1,-1,-1,-1,-1],"split_conditions":[1.4877913E0,-2.3458838E0,1.0764477E0,8.88575E-3,-1.5720066E0,-8.8259226E-1,3.4024924E-1,9.932229E-2,1.8152726E0,-3.1069177E-1,1.066677E0,2.9044838E0,-1.8938575E-2,6.062742E-3,2.194819E-4,2.0662375E-4,-5.260573E-3,9.079204E-4,1.1674585E-2,-4.504261E-4,-1.1381847E-2,-9.20333E-3,-0E0],"split_indices":[326,137,352,0,405,105,315,55,130,204,400,330,0,0,0,0,0,0,0,0,0,0,0],"split_type":[0,0,0,0,0,0,0,0,0,0,0,0,0,0,0,0,0,0,0,0,0,0,0],"sum_hessian":[1.2290227E3,1.1563073E3,7.271545E1,9.676612E0,1.1466306E3,4.8401756E1,2.431369E1,5.1611214E1,1.0950194E3,1.1195235E1,3.720652E1,1.8463562E1,5.8501277E0,3.1259222E1,2.0351992E1,1.0682429E3,2.6776455E1,6.076969E0,5.118266E0,2.9577211E1,7.6293097E0,1.0010976E1,8.452586E0],"tree_param":{"num_deleted":"0","num_feature":"420","num_nodes":"23","size_leaf_vector":"1"}},{"base_weights":[-0E0,2.2745611E-2,-2.9306284E-1,8.1176496E-1,1.4408643E-2,-1.1434307E-1,-8.82697E-1,-0E0,1.4215517E-2,2.887595E-2,-3.7611347E-1,2.6762327E-2,-6.7086357E-1,-1.5205432E-2,-1.7333844E-3,8.116855E-5,4.441755E-3,-2.2604495E-4,-9.732907E-3,1.4431094E-3,-8.27376E-3,-1.17471665E-2,-4.042534E-4],"categories":[],"categories_nodes":[],"categories_segments":[],"categories_sizes":[],"default_left":[0,0,0,0,0,0,0,0,0,0,0,0,0,0,0,0,0,0,0,0,0,0,0],"id":3,"left_children":[1,3,5,7,9,11,13,-1,-1,15,17,19,21,-1,-1,-1,-1,-1,-1,-1,-1,-1,-1],"loss_changes":[8.1420145E0,7.3440733E0,9.020527E0,5.757272E0,6.3178325E0,5.538969E0,8.535E0,0E0,0E0,9.286847E0,8.295471E0,5.7975426E0,4.3281407E0,0E0,0E0,0E0,0E0,0E0,0E0,0E0,0E0,0E0,0E0],"parents":[2147483647,0,0,1,1,2,2,3,3,4,4,5,5,6,6,9,9,10,10,11,11,12,12],"right_children":[2,4,6,8,10,12,14,-1,-1,16,18,20,22,-1,-1,-1,-1,-1,-1,-1,-1,-1,-1],"split_conditions":[1.3878384E0,-2.3458838E0,1.255403E0,-8.998458E-1,1.6982719E0,6.0188776E-1,1.1552773E0,-0E0,1.4215517E-2,1.4214817E0,3.1823567E-1,6.425277E-1,2.630003E-1,-1.5205432E-2,-1.7333844E-3,8.116855E-5,4.441755E-3,-2.2604495E-4,-9.732907E-3,1.4431094E-3,-8.27376E-3,-1.17471665E-2,-4.042534E-4],"split_indices":[326,137,373,314,130,74,375,0,0,123,5,244,389,0,0,0,0,0,0,0,0,0,0],"split_type":[0,0,0,0,0,0,0,0,0,0,0,0,0,0,0,0,0,0,0,0,0,0,0],"sum_hessian":[1.2166653E3,1.1301819E3,8.648338E1,1.0180076E1,1.1200018E3,6.787174E1,1.8611635E1,5.022346E0,5.1577296E0,1.0815787E3,3.842308E1,5.5139374E1,1.2732371E1,8.822375E0,9.78926E0,1.0317747E3,4.9804016E1,2.521869E1,1.320439E1,4.9667637E1,5.4717374E0,6.268721E0,6.4636507E0],"tree_param":{"num_deleted":"0","num_feature":"420","num_nodes":"23","size_leaf_vector":"1"}},{"base_weights":[-7.453251E-3,1.1623074E-2,-4.5507017E-1,8.3295774E-1,2.9052307E-3,-2.6343477E-1,-1.3695453E-2,-6.717511E-4,1.5128937E-2,3.8139448E-1,-1.4490247E-2,-4.6838614E-1,6.3871103E-3,1.2870967E-2,1.4479562E-3,-4.5875062E-5,-6.9013457E-3,3.5068823E-3,-6.633496E-3],"categories":[],"categories_nodes":[],"categories_segments":[],"categories_sizes":[],"default_left":[0,0,0,0,0,0,0,0,0,0,0,0,0,0,0,0,0,0,0],"id":4,"left_children":[1,3,5,7,9,11,-1,-1,-1,13,15,17,-1,-1,-1,-1,-1,-1,-1],"loss_changes":[1.0778764E1,8.548735E0,8.338058E0,7.9728737E0,7.9132023E0,8.6793995E0,0E0,0E0,0E0,1.0895742E1,7.5781865E0,6.337426E0,0E0,0E0,0E0,0E0,0E0,0E0,0E0],"parents":[2147483647,0,0,1,1,2,2,3,3,4,4,5,5,9,9,10,10,11,11],"right_children":[2,4,6,8,10,12,-1,-1,-1,14,16,18,-1,-1,-1,-1,-1,-1,-1],"split_conditions":[1.8517956E0,-2.39091E0,1.4034748E0,-5.506814E-1,-1.5720066E0,1.7647712E0,-1.3695453E-2,-6.717511E-4,1.5128937E-2,-5.650074E-1,2.588535E0,-1.2378993E0,6.3871103E-3,1.2870967E-2,1.4479562E-3,-4.5875062E-5,-6.9013457E-3,3.5068823E-3,-6.633496E-3],"split_indices":[330,138,409,281,405,121,0,0,0,202,259,221,0,0,0,0,0,0,0],"split_type":[0,0,0,0,0,0,0,0,0,0,0,0,0,0,0,0,0,0,0],"sum_hessian":[1.2546924E3,1.2045933E3,5.009914E1,1.1041586E1,1.1935518E3,4.310716E1,6.9919815E0,5.269842E0,5.7717443E0,5.131899E1,1.1422327E3,3.580497E1,7.3021884E0,9.16244E0,4.2156548E1,1.1273674E3,1.4865333E1,6.555056E0,2.9249914E1],"tree_param":{"num_deleted":"0","num_feature":"420","num_nodes":"19","size_leaf_vector":"1"}},{"base_weights":[-1.6306762E-2,-4.0710922E-3,-5.6366867E-1,5.374367E-1,-1.614959E-2,-1.2686833E0,7.956588E-2,1.3734613E-2,7.8340635E-2,-7.0399875E-3,-6.412234E-1,-1.9474206E-2,-1.9787194E-3,8.148144E-3,-4.28853E-3,-4.794197E-3,5.0755297E-3,3.183662E-3,-2.299524E-4,-1.1821555E-2,-9.948792E-4],"categories":[],"categories_nodes":[],"categories_segments":[],"categories_sizes":[],"default_left":[0,0,0,0,0,0,0,0,0,0,0,0,0,0,0,0,0,0,0,0,0],"id":5,"left_children":[1,3,5,7,9,11,13,-1,15,17,19,-1,-1,-1,-1,-1,-1,-1,-1,-1,-1],"loss_changes":[8.332244E0,7.9887853E0,1.2609627E1,9.91949E0,6.774226E0,8.760597E0,6.38137E0,0E0,4.884433E0,6.1424866E0,4.7050233E0,0E0,0E0,0E0,0E0,0E0,0E0,0E0,0E0,0E0,0E0],"parents":[2147483647,0,0,1,1,2,2,3,3,4,4,5,5,6,6,8,8,9,9,10,10],"right_children":[2,4,6,8,10,12,14,-1,16,18,20,-1,-1,-1,-1,-1,-1,-1,-1,-1,-1],"split_conditions":[2.1827238E0,-1.971267E0,9.592372E-1,5.3233224E-1,2.6194415E0,1.4137008E0,-2.3541857E-1,1.3734613E-2,-1.1386842E0,-1.5720066E0,1.4176737E0,-1.9474206E-2,-1.9787194E-3,8.148144E-3,-4.28853E-3,-4.794197E-3,5.0755297E-3,3.183662E-3,-2.299524E-4,-1.1821555E-2,-9.948792E-4],"split_indices":[326,137,328,156,124,78,50,0,178,405,184,0,0,0,0,0,0,0,0,0,0],"split_type":[0,0,0,0,0,0,0,0,0,0,0,0,0,0,0,0,0,0,0,0,0],"sum_hessian":[1.2516036E3,1.2258939E3,2.570965E1,2.5143179E1,1.2007507E3,1.1644111E1,1.4065539E1,7.7765636E0,1.7366615E1,1.1851556E3,1.55951605E1,6.3180475E0,5.326063E0,5.4609394E0,8.6046E0,7.3747272E0,9.991888E0,5.377245E1,1.1313832E3,6.823721E0,8.77144E0],"tree_param":{"num_deleted":"0","num_feature":"420","num_nodes":"21","size_leaf_vector":"1"}},{"base_weights":[3.888164E-3,1.8368434E-2,-6.2104017E-1,7.802062E-1,9.680786E-3,-1.951508E-1,-1.3789243E-2,1.4408338E-2,5.9686735E-4,1.7903116E-2,-7.663855E-1,-8.804751E-3,1.1667501E-1,-2.2741324E-4,1.976337E-3,-1.3212388E-2,-6.265117E-4,-3.5751043E-3,5.111859E-3],"categories":[],"categories_nodes":[],"categories_segments":[],"categories_sizes":[],"default_left":[0,0,0,0,0,0,0,0,0,0,0,0,0,0,0,0,0,0,0],"id":6,"left_children":[1,3,5,7,9,11,-1,-1,-1,13,15,-1,17,-1,-1,-1,-1,-1,-1],"loss_changes":[1.1383964E1,8.088937E0,8.632929E0,6.282542E0,7.753086E0,4.519068E0,0E0,0E0,0E0,8.88002E0,4.7096252E0,0E0,3.0986896E0,0E0,0E0,0E0,0E0,0E0,0E0],"parents":[2147483647,0,0,1,1,2,2,3,3,4,4,5,5,9,9,10,10,12,12],"right_children":[2,4,6,8,10,12,-1,-1,-1,14,16,-1,18,-1,-1,-1,-1,-1,-1],"split_conditions":[2.1827238E0,-2.3458838E0,6.761136E-1,-1.7830676E-1,2.6194415E0,-2.695993E-1,-1.3789243E-2,1.4408338E-2,5.9686735E-4,7.5335413E-1,1.1020334E0,-8.804751E-3,-2.374796E-1,-2.2741324E-4,1.976337E-3,-1.3212388E-2,-6.265117E-4,-3.5751043E-3,5.111859E-3],"split_indices":[326,137,266,403,124,419,0,0,0,36,182,0,58,0,0,0,0,0,0],"split_type":[0,0,0,0,0,0,0,0,0,0,0,0,0,0,0,0,0,0,0],"sum_hessian":[1.2612865E3,1.2343022E3,2.69842E1,1.2285002E1,1.2220172E3,1.8568121E1,8.416079E0,5.5541596E0,6.730842E0,1.2107834E3,1.1233854E1,5.0514417E0,1.351668E1,9.8808966E2,2.2269371E2,5.4659615E0,5.767893E0,6.0872574E0,7.429422E0],"tree_param":{"num_deleted":"0","num_feature":"420","num_nodes":"19","size_leaf_vector":"1"}},{"base_weights":[-3.029867E-3,8.597388E-1,-1.4535994E-2,1.8233545E-3,1.6326528E-2,5.9027195E-1,-2.5684193E-2,1.0461986E0,-2.3090467E-3,4.6827093E-1,-3.90004E-2,2.1629694E-3,1.7241502E-2,-3.7544628E-3,7.2364085E-3,-2.1305137E-4,-3.7186972E-3],"categories":[],"categories_nodes":[],"categories_segments":[],"categories_sizes":[],"default_left":[0,0,0,0,0,0,0,0,0,0,0,0,0,0,0,0,0],"id":7,"left_children":[1,3,5,-1,-1,7,9,11,-1,13,15,-1,-1,-1,-1,-1,-1],"loss_changes":[1.2210535E1,7.846401E0,8.20535E0,0E0,0E0,8.686752E0,7.8870745E0,7.408148E0,0E0,7.2200356E0,6.8490853E0,0E0,0E0,0E0,0E0,0E0,0E0],"parents":[2147483647,0,0,1,1,2,2,5,5,6,6,7,7,9,9,10,10],"right_children":[2,4,6,-1,-1,8,10,12,-1,14,16,-1,-1,-1,-1,-1,-1],"split_conditions":[-2.3458838E0,-3.0053943E-1,-2.0141244E0,1.8233545E-3,1.6326528E-2,7.2124416E-1,-1.954926E0,-1.7040861E0,-2.3090467E-3,-1.332992E0,1.4187642E0,2.1629694E-3,1.7241502E-2,-3.7544628E-3,7.2364085E-3,-2.1305137E-4,-3.7186972E-3],"split_indices":[137,104,417,0,0,284,210,384,0,176,24,0,0,0,0,0,0],"split_type":[0,0,0,0,0,0,0,0,0,0,0,0,0,0,0,0,0],"sum_hessian":[1.2351428E3,1.4685728E1,1.2204572E3,8.88335E0,5.8023767E0,2.0516417E1,1.1999407E3,1.3006049E1,7.510367E0,2.9956804E1,1.1699839E3,6.8036103E0,6.2024393E0,6.7055216E0,2.3251284E1,1.112728E3,5.725595E1],"tree_param":{"num_deleted":"0","num_feature":"420","num_nodes":"17","size_leaf_vector":"1"}},{"base_weights":[5.321094E-3,7.840944E-1,-3.3174085E-3,-9.3052286E-4,1.4945575E-2,2.2000093E-3,-8.80581E-3,9.526835E-3,-5.8205366E-1,2.9162102E-4,-2.091062E-3,-1.1312508E-2,-0E0],"categories":[],"categories_nodes":[],"categories_segments":[],"categories_sizes":[],"default_left":[0,0,0,0,0,0,0,0,0,0,0,0,0],"id":8,"left_children":[1,3,5,-1,-1,7,-1,9,11,-1,-1,-1,-1],"loss_changes":[8.582903E0,9.070908E0,6.146472E0,0E0,0E0,5.2792296E0,0E0,5.2753778E0,4.802143E0,0E0,0E0,0E0,0E0],"parents":[2147483647,0,0,1,1,2,2,5,5,7,7,8,8],"right_children":[2,4,6,-1,-1,8,-1,10,12,-1,-1,-1,-1],"split_conditions":[-2.3458838E0,-1.88431E-2,2.299143E0,-9.3052286E-4,1.4945575E-2,2.6908696E0,-8.80581E-3,1.2794665E0,-4.802891E-1,2.9162102E-4,-2.091062E-3,-1.1312508E-2,-0E0],"split_indices":[137,102,168,0,0,238,0,326,330,0,0,0,0],"split_type":[0,0,0,0,0,0,0,0,0,0,0,0,0],"sum_hessian":[1.2621202E3,1.2496187E1,1.2496241E3,6.1124573E0,6.3837304E0,1.2431875E3,6.436594E0,1.2294167E3,1.3770784E1,1.1297152E3,9.970155E1,6.2951517E0,7.4756327E0],"tree_param":{"num_deleted":"0","num_feature":"420","num_nodes":"13","size_leaf_vector":"1"}},{"base_weights":[-5.506723E-4,1.5219147E-2,-3.9909658E-1,8.875905E-1,6.4824424E-3,-1.1629096E-2,-1.816688E-1,-1.3857574E-3,1.738839E-2,2.200788E-2,-4.1989484E-1,-1.0100999E-2,1.731645E-2,4.284636E-4,-2.4275295E-3,-1.4271425E-2,-1.9971807E-3,-2.1219684E-3,8.076665E-3],"categories":[],"categories_nodes":[],"categories_segments":[],"categories_sizes":[],"default_left":[0,0,0,0,0,0,0,0,0,0,0,0,0,0,0,0,0,0,0],"id":9,"left_children":[1,3,5,7,9,-1,11,-1,-1,13,15,-1,17,-1,-1,-1,-1,-1,-1],"loss_changes":[7.855295E0,9.019059E0,7.450612E0,1.0773652E1,7.8248553E0,0E0,6.5408716E0,0E0,0E0,6.3181057E0,8.616753E0,0E0,6.258683E0,0E0,0E0,0E0,0E0,0E0,0E0],"parents":[2147483647,0,0,1,1,2,2,3,3,4,4,6,6,9,9,10,10,12,12],"right_children":[2,4,6,8,10,-1,12,-1,-1,14,16,-1,18,-1,-1,-1,-1,-1,-1],"split_conditions":[1.8736122E0,-2.350527E0,-8.633722E-3,-4.6270025E-1,1.6982719E0,-1.1629096E-2,-6.00407E-1,-1.3857574E-3,1.738839E-2,1.2500437E0,1.2214283E-1,-1.0100999E-2,2.9787174E-1,4.284636E-4,-2.4275295E-3,-1.4271425E-2,-1.9971807E-3,-2.1219684E-3,8.076665E-3],"split_indices":[326,141,358,123,130,0,35,0,0,399,54,0,286,0,0,0,0,0,0],"split_type":[0,0,0,0,0,0,0,0,0,0,0,0,0,0,0,0,0,0,0],"sum_hessian":[1.2407911E3,1.1947102E3,4.6080948E1,1.0236598E1,1.1844736E3,8.663577E0,3.741737E1,5.1575704E0,5.079028E0,1.1444583E3,4.001541E1,6.1599503E0,3.1257421E1,1.0624696E3,8.1988625E1,5.6215396E0,3.439387E1,2.4975437E1,6.2819834E0],"tree_param":{"num_deleted":"0","num_feature":"420","num_nodes":"19","size_leaf_vector":"1"}},{"base_weights":[3.3873797E-3,2.6796516E-2,-3.6182532E-1,8.1686795E-1,1.7453015E-2,-1.28901275E-2,-2.5422433E-1,-0E0,1.3277911E-2,4.2132014E-1,5.17652E-3,5.931229E-2,-5.8877057E-1,1.2369909E-2,8.7714166E-4,1.2265293E-4,-8.883161E-3,-5.2338317E-3,3.0943581E-3,-9.318409E-3,-6.173351E-4],"categories":[],"categories_nodes":[],"categories_segments":[],"categories_sizes":[],"default_left":[0,0,0,0,0,0,0,0,0,0,0,0,0,0,0,0,0,0,0,0,0],"id":10,"left_children":[1,3,5,7,9,-1,11,-1,-1,13,15,17,19,-1,-1,-1,-1,-1,-1,-1,-1],"loss_changes":[1.0581957E1,8.509536E0,6.790455E0,5.6739454E0,5.680425E0,0E0,7.316892E0,0E0,0E0,8.905694E0,7.039285E0,5.5702324E0,5.8811255E0,0E0,0E0,0E0,0E0,0E0,0E0,0E0,0E0],"parents":[2147483647,0,0,1,1,2,2,3,3,4,4,6,6,9,9,10,10,11,11,12,12],"right_children":[2,4,6,8,10,-1,12,-1,-1,14,16,18,20,-1,-1,-1,-1,-1,-1,-1,-1],"split_conditions":[1.5114927E0,-2.39091E0,-1.0802315E0,-3.8200793E-1,-1.7121553E0,-1.28901275E-2,-2.7995667E-1,-0E0,1.3277911E-2,1.4901093E0,2.156213E0,-5.7747823E-1,9.1942203E-1,1.2369909E-2,8.7714166E-4,1.2265293E-4,-8.883161E-3,-5.2338317E-3,3.0943581E-3,-9.318409E-3,-6.173351E-4],"split_indices":[417,138,93,85,400,0,370,0,0,408,63,202,347,0,0,0,0,0,0,0,0],"split_type":[0,0,0,0,0,0,0,0,0,0,0,0,0,0,0,0,0,0,0,0,0],"sum_hessian":[1.2384728E3,1.1654353E3,7.303746E1,1.1981211E1,1.1534541E3,5.785516E0,6.7251945E1,5.1605353E0,6.8206754E0,3.2312904E1,1.1211411E3,3.5198795E1,3.205315E1,8.113538E0,2.4199366E1,1.1138951E3,7.246068E0,9.959134E0,2.523966E1,1.8602293E1,1.3450858E1],"tree_param":{"num_deleted":"0","num_feature":"420","num_nodes":"21","size_leaf_vector":"1"}},{"base_weights":[9.496378E-3,8.4486395E-1,5.262207E-4,-1.8452739E-3,1.792423E-2,2.1761123E-2,-2.766195E-1,2.7319271E-2,-8.687129E-3,-6.6408736E-1,6.371618E-4,3.2363671E-3,1.0449463E-4,-5.897829E-4,-8.866759E-3,-3.363909E-3,3.1384917E-3],"categories":[],"categories_nodes":[],"categories_segments":[],"categories_sizes":[],"default_left":[0,0,0,0,0,0,0,0,0,0,0,0,0,0,0,0,0],"id":11,"left_children":[1,3,5,-1,-1,7,9,11,-1,13,15,-1,-1,-1,-1,-1,-1],"loss_changes":[9.104651E0,1.3249201E1,7.133941E0,0E0,0E0,5.545482E0,9.33173E0,5.5841923E0,0E0,4.692439E0,5.6049967E0,0E0,0E0,0E0,0E0,0E0,0E0],"parents":[2147483647,0,0,1,1,2,2,5,5,6,6,7,7,9,9,10,10],"right_children":[2,4,6,-1,-1,8,10,12,-1,14,16,-1,-1,-1,-1,-1,-1],"split_conditions":[-2.350527E0,3.5657205E-2,1.5185598E0,-1.8452739E-3,1.792423E-2,2.29874E0,-3.4171766E-1,-1.5223961E0,-8.687129E-3,-7.809991E-1,-2.6294884E-1,3.2363671E-3,1.0449463E-4,-5.897829E-4,-8.866759E-3,-3.363909E-3,3.1384917E-3],"split_indices":[141,32,330,0,0,189,55,279,0,55,118,0,0,0,0,0,0],"split_type":[0,0,0,0,0,0,0,0,0,0,0,0,0,0,0,0,0],"sum_hessian":[1.224897E3,1.1409745E1,1.2134873E3,5.9970927E0,5.412652E0,1.1287458E3,8.4741455E1,1.1233007E3,5.445121E0,3.4623196E1,5.011826E1,5.871796E1,1.0645828E3,9.942133E0,2.4681063E1,2.393404E1,2.618422E1],"tree_param":{"num_deleted":"0","num_feature":"420","num_nodes":"17","size_leaf_vector":"1"}},{"base_weights":[-3.734525E-3,2.0272657E-2,-3.994257E-1,1.0190429E-2,1.0731491E-2,-1.136486E-1,-9.554335E-1,1.8640777E-2,-5.5232067E-3,7.164557E-3,-3.4441724E-1,-2.122119E-2,-3.8793582E-1,-2.1620188E-5,3.0962743E-3,-1.20465355E-2,-1.4554065E-3,1.790411E-3,-8.296213E-3],"categories":[],"categories_nodes":[],"categories_segments":[],"categories_sizes":[],"default_left":[0,0,0,0,0,0,0,0,0,0,0,0,0,0,0,0,0,0,0],"id":12,"left_children":[1,3,5,-1,7,9,11,13,-1,-1,15,-1,17,-1,-1,-1,-1,-1,-1],"loss_changes":[1.1873944E1,1.1074706E1,1.109251E1,0E0,5.151041E0,9.7297125E0,1.4374575E1,6.9971466E0,0E0,0E0,6.3580213E0,0E0,4.797821E0,0E0,0E0,0E0,0E0,0E0,0E0],"parents":[2147483647,0,0,1,1,2,2,4,4,5,5,6,6,7,7,10,10,12,12],"right_children":[2,4,6,-1,8,10,12,14,-1,-1,16,-1,18,-1,-1,-1,-1,-1,-1],"split_conditions":[1.5178301E0,-2.39091E0,5.860147E-1,1.0190429E-2,2.6194415E0,-8.2415247E-1,9.2189056E-1,1.5297573E0,-5.5232067E-3,7.164557E-3,-3.1065184E-1,-2.122119E-2,-9.837074E-1,-2.1620188E-5,3.0962743E-3,-1.20465355E-2,-1.4554065E-3,1.790411E-3,-8.296213E-3],"split_indices":[326,138,311,0,124,252,164,35,0,0,189,0,73,0,0,0,0,0,0],"split_type":[0,0,0,0,0,0,0,0,0,0,0,0,0,0,0,0,0,0,0],"sum_hessian":[1.243194E3,1.1731855E3,7.0008514E1,9.500344E0,1.1636852E3,4.7553436E1,2.2455078E1,1.1491705E3,1.4514642E1,9.563174E0,3.7990265E1,5.945895E0,1.6509184E1,1.0735659E3,7.5604614E1,5.614802E0,3.237546E1,7.5206866E0,8.988497E0],"tree_param":{"num_deleted":"0","num_feature":"420","num_nodes":"19","size_leaf_vector":"1"}},{"base_weights":[1.0557659E-2,2.89565E-2,-2.8725332E-1,7.4230075E-1,1.9942863E-2,-8.7794966E-1,-4.3214668E-2,1.0702236E-3,1.2904623E-2,3.252308E-2,-4.8058018E-1,-1.0077679E-3,-1.4565325E0,7.300467E-1,-3.1844407E-1,2.6812172E-4,9.462696E-3,-1.2175795E-2,-1.8706425E-3,-5.289088E-3,-2.0695336E-2,1.2710595E-2,1.313528E-3,3.5810892E-3,-6.543551E-3],"categories":[],"categories_nodes":[],"categories_segments":[],"categories_sizes":[],"default_left":[0,0,0,0,0,0,0,0,0,0,0,0,0,0,0,0,0,0,0,0,0,0,0,0,0],"id":13,"left_children":[1,3,5,7,9,11,13,-1,-1,15,17,-1,19,21,23,-1,-1,-1,-1,-1,-1,-1,-1,-1,-1],"loss_changes":[6.817597E0,7.461801E0,1.0281723E1,4.699696E0,7.300519E0,9.047611E0,1.1566383E1,0E0,0E0,5.7921486E0,5.663557E0,0E0,4.8241577E0,4.22394E0,9.506805E0,0E0,0E0,0E0,0E0,0E0,0E0,0E0,0E0,0E0,0E0],"parents":[2147483647,0,0,1,1,2,2,3,3,4,4,5,5,6,6,9,9,10,10,12,12,13,13,14,14],"right_children":[2,4,6,8,10,12,14,-1,-1,16,18,-1,20,22,24,-1,-1,-1,-1,-1,-1,-1,-1,-1,-1],"split_conditions":[1.5178301E0,-2.3458838E0,-5.327423E-1,-1.1741613E0,2.1557884E0,3.7964496E-1,-8.960364E-1,1.0702236E-3,1.2904623E-2,2.9188194E0,-6.541797E-1,-1.0077679E-3,-6.208437E-1,-1.9929908E-1,-2.537728E-1,2.6812172E-4,9.462696E-3,-1.2175795E-2,-1.8706425E-3,-5.289088E-3,-2.0695336E-2,1.2710595E-2,1.313528E-3,3.5810892E-3,-6.543551E-3],"split_indices":[326,137,270,153,180,396,126,0,0,229,146,0,162,140,241,0,0,0,0,0,0,0,0,0,0],"split_type":[0,0,0,0,0,0,0,0,0,0,0,0,0,0,0,0,0,0,0,0,0,0,0,0,0],"sum_hessian":[1.2451653E3,1.1743063E3,7.085902E1,1.2991955E1,1.1613143E3,1.945704E1,5.1401978E1,6.9327264E0,6.059229E0,1.1344044E3,2.6909954E1,9.128894E0,1.0328148E1,1.2746999E1,3.865498E1,1.1290016E3,5.402795E0,6.2225237E0,2.0687431E1,5.2861867E0,5.0419607E0,5.7234044E0,7.0235944E0,1.269313E1,2.5961851E1],"tree_param":{"num_deleted":"0","num_feature":"420","num_nodes":"25","size_leaf_vector":"1"}},{"base_weights":[-6.7533352E-3,6.995283E-1,-1.587122E-2,6.098681E-4,1.5107941E-2,2.2981083E-4,-3.3181313E-1,-5.2516628E-2,8.4850326E-2,-8.047256E-1,-2.5209803E-2,-4.3910993E-3,-3.2367377E-4,-1.8449333E-5,2.4833467E-3,-2.1899363E-3,-1.682469E-2,-8.295791E-3,1.3158431E-3],"categories":[],"categories_nodes":[],"categories_segments":[],"categories_sizes":[],"default_left":[0,0,0,0,0,0,0,0,0,0,0,0,0,0,0,0,0,0,0],"id":14,"left_children":[1,3,5,-1,-1,7,9,11,13,15,17,-1,-1,-1,-1,-1,-1,-1,-1],"loss_changes":[8.0067425E0,7.9112964E0,6.325934E0,0E0,0E0,5.2688427E0,8.627815E0,5.5868073E0,6.4560337E0,1.1357131E1,5.057731E0,0E0,0E0,0E0,0E0,0E0,0E0,0E0,0E0],"parents":[2147483647,0,0,1,1,2,2,5,5,6,6,7,7,8,8,9,9,10,10],"right_children":[2,4,6,-1,-1,8,10,12,14,16,18,-1,-1,-1,-1,-1,-1,-1,-1],"split_conditions":[-2.3458838E0,1.6158456E-1,1.4468195E0,6.098681E-4,1.5107941E-2,-4.7030866E-2,-3.3455533E-1,-1.3795187E0,-2.2543095E-1,3.6247376E-2,-8.3890235E-1,-4.3910993E-3,-3.2367377E-4,-1.8449333E-5,2.4833467E-3,-2.1899363E-3,-1.682469E-2,-8.295791E-3,1.3158431E-3],"split_indices":[137,88,45,0,0,34,242,23,14,74,245,0,0,0,0,0,0,0,0],"split_type":[0,0,0,0,0,0,0,0,0,0,0,0,0,0,0,0,0,0,0],"sum_hessian":[1.2498528E3,1.4342195E1,1.2355106E3,8.996859E0,5.3453355E0,1.1767247E3,5.878585E1,7.245062E2,4.5221857E2,2.2035158E1,3.675069E1,3.4099743E1,6.904065E2,2.9607974E2,1.5613881E2,1.4408389E1,7.6267695E0,5.049208E0,3.1701483E1],"tree_param":{"num_deleted":"0","num_feature":"420","num_nodes":"19","size_leaf_vector":"1"}},{"base_weights":[-3.318152E-3,7.54246E-1,-1.3271165E-2,6.709831E-4,1.6906757E-2,4.258454E-3,-3.7320754E-1,6.117726E-1,-3.5698502E-3,-5.6721434E-2,-7.89192E-1,1.2505123E-2,-1.1660636E-3,9.800245E-5,-3.6672212E-3,-6.754775E-3,1.8240956E-3,-3.9094337E-3,-1.5764806E-2],"categories":[],"categories_nodes":[],"categories_segments":[],"categories_sizes":[],"default_left":[0,0,0,0,0,0,0,0,0,0,0,0,0,0,0,0,0,0,0],"id":15,"left_children":[1,3,5,-1,-1,7,9,11,13,15,17,-1,-1,-1,-1,-1,-1,-1,-1],"loss_changes":[9.418619E0,1.0075592E1,7.877542E0,0E0,0E0,5.7035885E0,7.4807234E0,7.4303327E0,5.731858E0,5.3651E0,6.6534624E0,0E0,0E0,0E0,0E0,0E0,0E0,0E0,0E0],"parents":[2147483647,0,0,1,1,2,2,5,5,6,6,7,7,8,8,9,9,10,10],"right_children":[2,4,6,-1,-1,8,10,12,14,16,18,-1,-1,-1,-1,-1,-1,-1,-1],"split_conditions":[-2.3458838E0,-6.1215276E-1,1.4465846E0,6.709831E-4,1.6906757E-2,-2.2835863E0,-4.6368328E-1,-6.0067123E-1,1.6982719E0,-9.019828E-1,3.7000644E-1,1.2505123E-2,-1.1660636E-3,9.800245E-5,-3.6672212E-3,-6.754775E-3,1.8240956E-3,-3.9094337E-3,-1.5764806E-2],"split_indices":[137,151,24,0,0,264,114,367,130,225,358,0,0,0,0,0,0,0,0],"split_type":[0,0,0,0,0,0,0,0,0,0,0,0,0,0,0,0,0,0,0],"sum_hessian":[1.255482E3,1.4695946E1,1.2407861E3,9.464909E0,5.2310367E0,1.1843121E3,5.6473938E1,1.3756956E1,1.1705552E3,3.3177227E1,2.3296713E1,6.8297486E0,6.9272075E0,1.1301316E3,4.0423645E1,8.601579E0,2.4575647E1,1.7045929E1,6.2507834E0],"tree_param":{"num_deleted":"0","num_feature":"420","num_nodes":"19","size_leaf_vector":"1"}},{"base_weights":[2.312459E-2,9.315785E-1,1.4037535E-2,9.586577E-5,1.6726594E-2,4.831032E-2,-1.6711628E-1,-1.5121952E-1,7.333083E-2,-9.292778E-2,-9.782981E-1,1.4823644E-3,-3.3992545E-3,-4.8608645E-3,8.3190884E-4,-1.4468605E-3,7.2615393E-3,-1.738259E-3,-1.7173221E-2],"categories":[],"categories_nodes":[],"categories_segments":[],"categories_sizes":[],"default_left":[0,0,0,0,0,0,0,0,0,0,0,0,0,0,0,0,0,0,0],"id":16,"left_children":[1,3,5,-1,-1,7,9,11,13,15,17,-1,-1,-1,-1,-1,-1,-1,-1],"loss_changes":[1.0244046E1,8.208395E0,7.723542E0,0E0,0E0,5.239235E0,1.1658815E1,6.6940336E0,5.1633883E0,7.856543E0,9.055112E0,0E0,0E0,0E0,0E0,0E0,0E0,0E0,0E0],"parents":[2147483647,0,0,1,1,2,2,5,5,6,6,7,7,8,8,9,9,10,10],"right_children":[2,4,6,-1,-1,8,10,12,14,16,18,-1,-1,-1,-1,-1,-1,-1,-1],"split_conditions":[-2.350527E0,-5.7985026E-1,1.0287548E0,9.586577E-5,1.6726594E-2,-1.0058521E0,1.2744503E0,-5.681384E-1,-1.6453412E0,2.620758E0,3.5834885E-1,1.4823644E-3,-3.3992545E-3,-4.8608645E-3,8.3190884E-4,-1.4468605E-3,7.2615393E-3,-1.738259E-3,-1.7173221E-2],"split_indices":[141,88,199,0,0,98,60,394,364,208,68,0,0,0,0,0,0,0,0],"split_type":[0,0,0,0,0,0,0,0,0,0,0,0,0,0,0,0,0,0,0],"sum_hessian":[1.2532556E3,1.0794794E1,1.2424608E3,5.547452E0,5.2473426E0,1.0461837E3,1.9627719E2,1.15282585E2,9.3090106E2,1.8147508E2,1.4802107E1,4.448363E1,7.079896E1,1.4693021E1,9.1620807E2,1.7196559E2,9.509489E0,8.039144E0,6.7629633E0],"tree_param":{"num_deleted":"0","num_feature":"420","num_nodes":"19","size_leaf_vector":"1"}},{"base_weights":[-4.1595306E-3,7.666883E-1,-1.8163566E-2,1.156505E0,1.8086771E-3,7.755015E-3,-3.096324E-1,1.7760426E-2,3.1455879E-3,8.5011303E-1,-1.3092961E-3,-1.294478E0,-1.6432247E-1,2.3819664E-3,1.2820153E-2,-7.089988E-4,6.969537E-4,-3.5956285E-3,-1.8384181E-2,4.4570785E-4,-6.356598E-3],"categories":[],"categories_nodes":[],"categories_segments":[],"categories_sizes":[],"default_left":[0,0,0,0,0,0,0,0,0,0,0,0,0,0,0,0,0,0,0,0,0],"id":17,"left_children":[1,3,5,7,-1,9,11,-1,-1,13,15,17,19,-1,-1,-1,-1,-1,-1,-1,-1],"loss_changes":[1.325384E1,4.55447E0,9.192614E0,5.6147423E0,0E0,8.596326E0,1.3753806E1,0E0,0E0,2.5574102E0,5.4628353E0,5.129238E0,8.804285E0,0E0,0E0,0E0,0E0,0E0,0E0,0E0,0E0],"parents":[2147483647,0,0,1,1,2,2,3,3,5,5,6,6,9,9,10,10,11,11,12,12],"right_children":[2,4,6,8,-1,10,12,-1,-1,14,16,18,20,-1,-1,-1,-1,-1,-1,-1,-1],"split_conditions":[-2.0141244E0,2.0637192E-1,1.2762461E0,6.344532E-1,1.8086771E-3,-2.3458838E0,-7.255192E-1,1.7760426E-2,3.1455879E-3,-3.8200793E-1,-7.6047457E-3,1.5863012E0,6.774077E-1,2.3819664E-3,1.2820153E-2,-7.089988E-4,6.969537E-4,-3.5956285E-3,-1.8384181E-2,4.4570785E-4,-6.356598E-3],"split_indices":[417,6,327,256,0,137,13,0,0,85,36,327,350,0,0,0,0,0,0,0,0],"split_type":[0,0,0,0,0,0,0,0,0,0,0,0,0,0,0,0,0,0,0,0,0],"sum_hessian":[1.2312771E3,2.0403625E1,1.2108735E3,1.127144E1,9.132185E0,1.1130166E3,9.785692E1,5.466225E0,5.805214E0,1.0484991E1,1.1025316E3,1.096825E1,8.688867E1,5.3971443E0,5.0878468E0,5.575227E2,5.450089E2,5.0182905E0,5.9499593E0,6.099994E1,2.588873E1],"tree_param":{"num_deleted":"0","num_feature":"420","num_nodes":"21","size_leaf_vector":"1"}},{"base_weights":[1.0892126E-3,9.6451586E-1,-8.907291E-3,1.2718566E-4,1.7212186E-2,5.681493E-4,-7.622326E-1,1.121557E-2,-5.139661E-1,-1.2283881E-2,5.6126615E-4,6.28803E-3,9.20255E-6,7.9091813E-4,-1.2060017E-2],"categories":[],"categories_nodes":[],"categories_segments":[],"categories_sizes":[],"default_left":[0,0,0,0,0,0,0,0,0,0,0,0,0,0,0],"id":18,"left_children":[1,3,5,-1,-1,7,9,11,13,-1,-1,-1,-1,-1,-1],"loss_changes":[1.2060333E1,9.05644E0,8.854046E0,0E0,0E0,6.6186843E0,6.0979958E0,7.519892E0,1.03064785E1,0E0,0E0,0E0,0E0,0E0,0E0],"parents":[2147483647,0,0,1,1,2,2,5,5,6,6,7,7,8,8],"right_children":[2,4,6,-1,-1,8,10,12,14,-1,-1,-1,-1,-1,-1],"split_conditions":[-2.350527E0,-4.0806956E-3,2.6194415E0,1.2718566E-4,1.7212186E-2,2.4529536E0,5.037409E-1,-2.0141244E0,-1.3399714E-1,-1.2283881E-2,5.6126615E-4,6.28803E-3,9.20255E-6,7.9091813E-4,-1.2060017E-2],"split_indices":[141,32,124,0,0,371,376,417,207,0,0,0,0,0,0],"split_type":[0,0,0,0,0,0,0,0,0,0,0,0,0,0,0],"sum_hessian":[1.2394939E3,1.1360759E1,1.228133E3,5.7657876E0,5.594971E0,1.2142264E3,1.3906602E1,1.1912374E3,2.2989004E1,8.458877E0,5.447725E0,1.7895704E1,1.1733418E3,1.3017439E1,9.971565E0],"tree_param":{"num_deleted":"0","num_feature":"420","num_nodes":"15","size_leaf_vector":"1"}},{"base_weights":[-1.08733615E-2,4.8640192E-1,-2.2714535E-2,1.0647813E-2,1.04863696E-1,-7.626499E-3,-4.3664187E-1,-3.5818869E-3,3.7456593E-3,5.1473775E-3,-4.1734937E-1,-1.8707104E-3,-9.8593915E-1,-3.8229363E-4,1.042759E-3,-9.504705E-3,-1.0870715E-3,7.0879105E-3,-3.5689722E-3,-1.5701897E-2,-2.6325616E-3],"categories":[],"categories_nodes":[],"categories_segments":[],"categories_sizes":[],"default_left":[0,0,0,0,0,0,0,0,0,0,0,0,0,0,0,0,0,0,0,0,0],"id":19,"left_children":[1,3,5,-1,7,9,11,-1,-1,13,15,17,19,-1,-1,-1,-1,-1,-1,-1,-1],"loss_changes":[7.4255595E0,6.185356E0,7.6842403E0,0E0,2.629834E0,6.306712E0,1.0236969E1,0E0,0E0,5.007256E0,5.733549E0,6.8457894E0,7.2280617E0,0E0,0E0,0E0,0E0,0E0,0E0,0E0,0E0],"parents":[2147483647,0,0,1,1,2,2,4,4,5,5,6,6,9,9,10,10,11,11,12,12],"right_children":[2,4,6,-1,8,10,12,-1,-1,14,16,18,20,-1,-1,-1,-1,-1,-1,-1,-1],"split_conditions":[-2.0593636E0,5.568153E-1,1.8736122E0,1.0647813E-2,-1.1002914E-1,1.7450764E0,1.2966543E0,-3.5818869E-3,3.7456593E-3,3.8781E-1,-3.6543983E-1,-7.6201254E-1,1.1404022E0,-3.8229363E-4,1.042759E-3,-9.504705E-3,-1.0870715E-3,7.0879105E-3,-3.5689722E-3,-1.5701897E-2,-2.6325616E-3],"split_indices":[137,156,326,0,15,130,352,0,0,36,270,399,328,0,0,0,0,0,0,0,0],"split_type":[0,0,0,0,0,0,0,0,0,0,0,0,0,0,0,0,0,0,0,0,0],"sum_hessian":[1.2646255E3,2.7818407E1,1.2368071E3,9.88514E0,1.7933268E1,1.1950168E3,4.179025E1,6.283021E0,1.1650247E1,1.1600862E3,3.4930767E1,2.426866E1,1.752159E1,8.0691034E2,3.5317578E2,1.1545248E1,2.3385519E1,7.4931583E0,1.6775501E1,8.639531E0,8.882058E0],"tree_param":{"num_deleted":"0","num_feature":"420","num_nodes":"21","size_leaf_vector":"1"}},{"base_weights":[6.8411957E-3,-1.0109228E-1,5.1952973E-2,-8.894578E-3,-7.744126E-2,-1.333976E-2,1.4331561E-1,7.689227E-3,-9.761954E-2,2.126928E-2,-3.129475E-1,7.0634097E-1,1.0426929E-1,-7.393838E-4,-1.2434636E-2,5.6217127E-3,-9.9589655E-5,1.8056031E-4,-7.1709817E-3,2.6958808E-3,1.4195618E-2,9.914721E-3,8.1662333E-4],"categories":[],"categories_nodes":[],"categories_segments":[],"categories_sizes":[],"default_left":[0,0,0,0,0,0,0,0,0,0,0,0,0,0,0,0,0,0,0,0,0,0,0],"id":20,"left_children":[1,3,5,-1,7,9,11,-1,13,15,17,19,21,-1,-1,-1,-1,-1,-1,-1,-1,-1,-1],"loss_changes":[6.0995007E0,6.678824E0,5.2932024E0,0E0,6.1926684E0,5.3966823E0,7.931351E0,0E0,9.309244E0,7.9060035E0,7.299588E0,6.588766E0,6.740082E0,0E0,0E0,0E0,0E0,0E0,0E0,0E0,0E0,0E0,0E0],"parents":[2147483647,0,0,1,1,2,2,4,4,5,5,6,6,8,8,9,9,10,10,11,11,12,12],"right_children":[2,4,6,-1,8,10,12,-1,14,16,18,20,22,-1,-1,-1,-1,-1,-1,-1,-1,-1,-1],"split_conditions":[-6.467121E-1,-1.3888034E0,-1.158018E-1,-8.894578E-3,-1.9581056E0,8.943321E-1,-1.5967617E0,7.689227E-3,2.3033125E0,-1.3030199E0,-9.521509E-1,-1.7246276E-1,-2.0008395E0,-7.393838E-4,-1.2434636E-2,5.6217127E-3,-9.9589655E-5,1.8056031E-4,-7.1709817E-3,2.6958808E-3,1.4195618E-2,9.914721E-3,8.1662333E-4],"split_indices":[324,78,97,0,393,341,84,0,373,230,199,419,138,0,0,0,0,0,0,0,0,0,0],"split_type":[0,0,0,0,0,0,0,0,0,0,0,0,0,0,0,0,0,0,0,0,0,0,0],"sum_hessian":[1.2505945E3,3.6742444E2,8.8317E2,8.979193E0,3.5844525E2,5.151804E2,3.679896E2,6.9352555E0,3.5150998E2,4.627821E2,5.23983E1,2.2036747E1,3.4595285E2,3.460424E2,5.467594E0,2.404253E1,4.3873956E2,2.9457695E1,2.2940603E1,1.5036241E1,7.0005074E0,6.888957E0,3.3906387E2],"tree_param":{"num_deleted":"0","num_feature":"420","num_nodes":"23","size_leaf_vector":"1"}},{"base_weights":[1.1597127E-2,4.4698608E-1,-9.1977994E-4,-5.659566E-3,6.555242E-1,7.137635E-1,-8.652287E-3,3.9910022E-4,9.3502253E-1,1.1811684E-2,4.4549757E-4,1.6916482E-3,-5.5575114E-1,1.3368797E-2,4.6514226E-3,-5.449298E-5,8.168746E-3,4.705306E-4,-1.083315E-2],"categories":[],"categories_nodes":[],"categories_segments":[],"categories_sizes":[],"default_left":[0,0,0,0,0,0,0,0,0,0,0,0,0,0,0,0,0,0,0],"id":21,"left_children":[1,3,5,-1,7,9,11,-1,13,-1,-1,15,17,-1,-1,-1,-1,-1,-1],"loss_changes":[6.9794793E0,8.124409E0,6.780971E0,0E0,5.0861626E0,3.9061036E0,6.997708E0,0E0,2.8079185E0,0E0,0E0,7.1026073E0,7.476282E0,0E0,0E0,0E0,0E0,0E0,0E0],"parents":[2147483647,0,0,1,1,2,2,4,4,5,5,6,6,8,8,11,11,12,12],"right_children":[2,4,6,-1,8,10,12,-1,14,-1,-1,16,18,-1,-1,-1,-1,-1,-1],"split_conditions":[-1.955442E0,-1.7121294E0,-2.39091E0,-5.659566E-3,-6.4882976E-1,5.756344E-1,2.588535E0,3.9910022E-4,-5.4312587E-1,1.1811684E-2,4.4549757E-4,2.6934376E0,-9.6256334E-1,1.3368797E-2,4.6514226E-3,-5.449298E-5,8.168746E-3,4.705306E-4,-1.083315E-2],"split_indices":[231,232,138,0,391,378,259,0,207,0,0,406,389,0,0,0,0,0,0],"split_type":[0,0,0,0,0,0,0,0,0,0,0,0,0,0,0,0,0,0,0],"sum_hessian":[1.2709053E3,3.4284206E1,1.236621E3,5.3324103E0,2.8951797E1,1.1631992E1,1.224989E3,9.687152E0,1.9264645E1,6.0850277E0,5.546964E0,1.2035463E3,2.144273E1,8.777387E0,1.0487259E1,1.1944503E3,9.096001E0,1.0556894E1,1.0885837E1],"tree_param":{"num_deleted":"0","num_feature":"420","num_nodes":"19","size_leaf_vector":"1"}},{"base_weights":[-2.1474212E-2,1.07476115E-1,-7.298157E-2,1.1302592E-2,3.9325914E-1,-7.742355E-1,-6.038205E-2,-3.2074805E-2,5.525217E-1,5.12584E-1,-1.3108498E-1,-1.4588178E-2,-2.1508625E-3,4.8730928E-1,-7.472207E-2,6.685639E-5,-9.466011E-3,8.186427E-3,-9.282269E-4,1.49727E-2,3.7696483E-3,2.0131147E-3,-6.299754E-3,1.1997099E-2,1.123215E-3,-8.047692E-3,-6.218272E-4],"categories":[],"categories_nodes":[],"categories_segments":[],"categories_sizes":[],"default_left":[0,0,0,0,0,0,0,0,0,0,0,0,0,0,0,0,0,0,0,0,0,0,0,0,0,0,0],"id":22,"left_children":[1,3,5,7,9,11,13,15,17,19,21,-1,-1,23,25,-1,-1,-1,-1,-1,-1,-1,-1,-1,-1,-1,-1],"loss_changes":[8.292828E0,9.739323E0,7.7342243E0,6.375526E0,5.729252E0,5.2912655E0,6.9150105E0,8.949888E0,3.6480436E0,8.747383E0,3.15217E0,0E0,0E0,5.6620107E0,7.690916E0,0E0,0E0,0E0,0E0,0E0,0E0,0E0,0E0,0E0,0E0,0E0,0E0],"parents":[2147483647,0,0,1,1,2,2,3,3,4,4,5,5,6,6,7,7,8,8,9,9,10,10,13,13,14,14],"right_children":[2,4,6,8,10,12,14,16,18,20,22,-1,-1,24,26,-1,-1,-1,-1,-1,-1,-1,-1,-1,-1,-1,-1],"split_conditions":[-6.750966E-1,3.4434474E-1,-1.5708569E0,9.0452063E-1,9.970143E-1,-1.1623857E0,-1.9955447E0,1.4380947E0,1.1763004E0,-1.2657716E0,2.1584214E-1,-1.4588178E-2,-2.1508625E-3,-1.6788931E-1,-1.8750165E0,6.685639E-5,-9.466011E-3,8.186427E-3,-9.282269E-4,1.49727E-2,3.7696483E-3,2.0131147E-3,-6.299754E-3,1.1997099E-2,1.123215E-3,-8.047692E-3,-6.218272E-4],"split_indices":[363,35,283,100,146,242,0,415,131,138,95,0,0,413,104,0,0,0,0,0,0,0,0,0,0,0,0],"split_type":[0,0,0,0,0,0,0,0,0,0,0,0,0,0,0,0,0,0,0,0,0,0,0,0,0,0,0],"sum_hessian":[1.2458123E3,3.5456815E2,8.912441E2,2.667193E2,8.784885E1,1.3989985E1,8.772541E2,2.4806392E2,1.8655384E1,7.174599E1,1.6102858E1,5.1240854E0,8.865899E0,2.0942577E1,8.563115E2,2.3930128E2,8.762637E0,1.3033079E1,5.622304E0,6.7728434E0,6.4973145E1,1.0080671E1,6.022186E0,5.992456E0,1.4950122E1,1.272477E1,8.4358673E2],"tree_param":{"num_deleted":"0","num_feature":"420","num_nodes":"27","size_leaf_vector":"1"}},{"base_weights":[8.963207E-3,7.148807E-1,5.933157E-4,-0E0,1.33224875E-2,1.695312E-2,-2.895953E-1,8.8148825E-2,-6.8966344E-2,-7.103576E-1,3.8547933E-2,1.0688847E-3,-5.063581E-3,-7.6990738E-3,-4.8349897E-4,-1.0249125E-2,2.487964E-3,7.546506E-3,-2.1600572E-3],"categories":[],"categories_nodes":[],"categories_segments":[],"categories_sizes":[],"default_left":[0,0,0,0,0,0,0,0,0,0,0,0,0,0,0,0,0,0,0],"id":23,"left_children":[1,3,5,-1,-1,7,9,11,13,15,17,-1,-1,-1,-1,-1,-1,-1,-1],"loss_changes":[7.3070283E0,6.47427E0,5.8475966E0,0E0,0E0,7.178535E0,9.181632E0,7.1942844E0,7.538087E0,9.211086E0,7.2636724E0,0E0,0E0,0E0,0E0,0E0,0E0,0E0,0E0],"parents":[2147483647,0,0,1,1,2,2,5,5,6,6,7,7,8,8,9,9,10,10],"right_children":[2,4,6,-1,-1,8,10,12,14,16,18,-1,-1,-1,-1,-1,-1,-1,-1],"split_conditions":[-2.3458838E0,-1.88431E-2,1.7210964E0,-0E0,1.33224875E-2,2.3609842E-1,8.078161E-1,1.2678243E0,-1.774468E0,8.183202E-1,-9.953572E-1,1.0688847E-3,-5.063581E-3,-7.6990738E-3,-4.8349897E-4,-1.0249125E-2,2.487964E-3,7.546506E-3,-2.1600572E-3],"split_indices":[137,102,101,0,0,283,163,178,74,148,288,0,0,0,0,0,0,0,0],"split_type":[0,0,0,0,0,0,0,0,0,0,0,0,0,0,0,0,0,0,0],"sum_hessian":[1.2474247E3,1.2993429E1,1.2344313E3,6.672535E0,6.320894E0,1.1702156E3,6.421563E1,6.405553E2,5.296603E2,2.7504942E1,3.671069E1,6.223369E2,1.8218382E1,1.3437286E1,5.16223E2,2.0713398E1,6.791545E0,8.957541E0,2.7753147E1],"tree_param":{"num_deleted":"0","num_feature":"420","num_nodes":"19","size_leaf_vector":"1"}},{"base_weights":[1.030648E-2,-5.7184007E-2,9.664985E-2,-9.0902895E-2,3.318733E-1,7.6647826E-2,1.072198E-2,-8.001945E-2,-8.9029E-3,1.5221069E-2,9.3197934E-2,-7.6970145E-2,1.751572E-1,-1.029192E-3,3.045098E-3,3.8079496E-3,-3.1817409E-3,-2.1525257E-4,-9.152635E-3,2.6721077E-3,-2.197015E-5],"categories":[],"categories_nodes":[],"categories_segments":[],"categories_sizes":[],"default_left":[0,0,0,0,0,0,0,0,0,0,0,0,0,0,0,0,0,0,0,0,0],"id":24,"left_children":[1,3,5,7,9,11,-1,13,-1,-1,15,17,19,-1,-1,-1,-1,-1,-1,-1,-1],"loss_changes":[7.3931665E0,9.351164E0,1.0628493E1,5.502464E0,1.5763902E1,8.31407E0,0E0,5.740454E0,0E0,0E0,5.9837017E0,9.847931E0,5.4866896E0,0E0,0E0,0E0,0E0,0E0,0E0,0E0,0E0],"parents":[2147483647,0,0,1,1,2,2,3,3,4,4,5,5,7,7,10,10,11,11,12,12],"right_children":[2,4,6,8,10,12,-1,14,-1,-1,16,18,20,-1,-1,-1,-1,-1,-1,-1,-1],"split_conditions":[-1.5697715E-1,1.3284538E0,2.556135E0,2.516306E0,-5.1315784E-1,-4.2995667E-1,1.072198E-2,1.3078201E0,-8.9029E-3,1.5221069E-2,7.975068E-2,1.7035973E0,1.1848187E-1,-1.029192E-3,3.045098E-3,3.8079496E-3,-3.1817409E-3,-2.1525257E-4,-9.152635E-3,2.6721077E-3,-2.197015E-5],"split_indices":[97,36,350,376,274,282,0,317,0,0,414,309,160,0,0,0,0,0,0,0,0],"split_type":[0,0,0,0,0,0,0,0,0,0,0,0,0,0,0,0,0,0,0,0,0],"sum_hessian":[1.2651002E3,7.097056E2,5.553946E2,6.543968E2,5.530882E1,5.459217E2,9.472875E0,6.4735846E2,7.038362E0,7.8211455E0,4.748767E1,2.130301E2,3.328916E2,6.1225555E2,3.5102882E1,2.8157135E1,1.9330538E1,2.0136931E2,1.1660799E1,2.1901721E2,1.13874374E2],"tree_param":{"num_deleted":"0","num_feature":"420","num_nodes":"21","size_leaf_vector":"1"}},{"base_weights":[1.7997483E-3,2.5353514E-2,-2.9125565E-1,7.311819E-1,1.6315293E-2,9.2892274E-2,-5.0292695E-1,2.1044412E-3,1.2746172E-2,6.1005694E-1,7.630358E-3,-1.5942936E-1,7.5371736E-3,-1.0516121E0,-2.5589195E-1,-0E0,1.1551798E-2,-6.8614515E-3,1.455269E-4,-5.3806305E-3,2.236729E-3,-4.284867E-3,-1.9029912E-2,-3.1885918E-4,-8.669054E-3],"categories":[],"categories_nodes":[],"categories_segments":[],"categories_sizes":[],"default_left":[0,0,0,0,0,0,0,0,0,0,0,0,0,0,0,0,0,0,0,0,0,0,0,0,0],"id":25,"left_children":[1,3,5,7,9,11,13,-1,-1,15,17,19,-1,21,23,-1,-1,-1,-1,-1,-1,-1,-1,-1,-1],"loss_changes":[8.609397E0,7.296415E0,7.653772E0,3.5439825E0,5.837073E0,5.9176383E0,7.6265154E0,0E0,0E0,5.5311327E0,5.3769336E0,3.9503067E0,0E0,8.137556E0,5.839572E0,0E0,0E0,0E0,0E0,0E0,0E0,0E0,0E0,0E0,0E0],"parents":[2147483647,0,0,1,1,2,2,3,3,4,4,5,5,6,6,9,9,10,10,11,11,13,13,14,14],"right_children":[2,4,6,8,10,12,14,-1,-1,16,18,20,-1,22,24,-1,-1,-1,-1,-1,-1,-1,-1,-1,-1],"split_conditions":[1.3823134E0,-2.3458838E0,-3.3731464E-1,-4.0806956E-3,-2.2429693E0,2.0162271E-1,2.62451E-1,2.1044412E-3,1.2746172E-2,-5.49167E-1,-2.2654135E0,-4.4096658E-1,7.5371736E-3,-5.3107053E-2,4.4987014E-1,-0E0,1.1551798E-2,-6.8614515E-3,1.455269E-4,-5.3806305E-3,2.236729E-3,-4.284867E-3,-1.9029912E-2,-3.1885918E-4,-8.669054E-3],"split_indices":[327,137,245,32,263,5,376,0,0,103,333,217,0,259,150,0,0,0,0,0,0,0,0,0,0],"split_type":[0,0,0,0,0,0,0,0,0,0,0,0,0,0,0,0,0,0,0,0,0,0,0,0,0],"sum_hessian":[1.2480238E3,1.1567627E3,9.1261116E1,1.29700575E1,1.1437926E3,3.25527E1,5.8708416E1,7.7799435E0,5.190114E0,1.4826216E1,1.1289664E3,2.4271822E1,8.280879E0,1.6583927E1,4.212449E1,7.6280003E0,7.1982155E0,9.556539E0,1.1194099E3,1.20332365E1,1.2238585E1,1.0945376E1,5.63855E0,3.2098625E1,1.0025863E1],"tree_param":{"num_deleted":"0","num_feature":"420","num_nodes":"25","size_leaf_vector":"1"}},{"base_weights":[1.5212766E-2,6.5807647E-1,5.249019E-3,-1.6183698E-1,1.713274E-2,1.4740479E-2,-6.482418E-1,-6.522336E-3,3.1399354E-3,1.6097779E-3,4.7403625E-1,-1.3910243E-2,-6.1173487E-4,1.5685265E-4,-4.373407E-3,6.3982597E-3,-2.761946E-3],"categories":[],"categories_nodes":[],"categories_segments":[],"categories_sizes":[],"default_left":[0,0,0,0,0,0,0,0,0,0,0,0,0,0,0,0,0],"id":26,"left_children":[1,3,5,7,-1,9,11,-1,-1,13,15,-1,-1,-1,-1,-1,-1],"loss_changes":[8.052219E0,1.7175209E1,7.70784E0,3.1685073E0,0E0,7.3951936E0,7.483098E0,0E0,0E0,7.392816E0,4.5415134E0,0E0,0E0,0E0,0E0,0E0,0E0],"parents":[2147483647,0,0,1,1,2,2,3,3,5,5,6,6,9,9,10,10],"right_children":[2,4,6,8,-1,10,12,-1,-1,14,16,-1,-1,-1,-1,-1,-1],"split_conditions":[-2.2399871E0,-8.5093725E-1,2.588535E0,-9.688151E-1,1.713274E-2,1.8295664E0,-3.417028E-1,-6.522336E-3,3.1399354E-3,1.9038479E0,3.0155122E-1,-1.3910243E-2,-6.1173487E-4,1.5685265E-4,-4.373407E-3,6.3982597E-3,-2.761946E-3],"split_indices":[141,151,259,90,0,384,286,0,0,327,205,0,0,0,0,0,0],"split_type":[0,0,0,0,0,0,0,0,0,0,0,0,0,0,0,0,0],"sum_hessian":[1.2667769E3,1.7691772E1,1.2490851E3,1.0617162E1,7.0746117E0,1.2327988E3,1.6286282E1,5.0581946E0,5.558967E0,1.2002094E3,3.2589527E1,6.207633E0,1.0078649E1,1.1645411E3,3.5668232E1,2.6981134E1,5.6083922E0],"tree_param":{"num_deleted":"0","num_feature":"420","num_nodes":"17","size_leaf_vector":"1"}},{"base_weights":[2.312844E-3,6.022359E-1,-7.3865345E-3,1.3028777E-1,1.3765536E-2,1.2774873E-3,-7.261468E-1,-5.4317773E-3,6.362305E-3,3.2241523E-1,-1.3344721E-2,-1.1923161E-2,-0E0,7.776834E-3,8.310656E-4,-5.444852E-3,-5.5100878E-5],"categories":[],"categories_nodes":[],"categories_segments":[],"categories_sizes":[],"default_left":[0,0,0,0,0,0,0,0,0,0,0,0,0,0,0,0,0],"id":27,"left_children":[1,3,5,7,-1,9,11,-1,-1,13,15,-1,-1,-1,-1,-1,-1],"loss_changes":[7.265894E0,6.840932E0,7.664635E0,5.3257265E0,0E0,5.6993904E0,4.932083E0,0E0,0E0,5.576994E0,4.7443385E0,0E0,0E0,0E0,0E0,0E0,0E0],"parents":[2147483647,0,0,1,1,2,2,3,3,5,5,6,6,9,9,10,10],"right_children":[2,4,6,8,-1,10,12,-1,-1,14,16,-1,-1,-1,-1,-1,-1],"split_conditions":[-2.2417026E0,9.556299E-2,2.6194415E0,-4.6613142E-1,1.3765536E-2,-1.5720066E0,3.4891403E-1,-5.4317773E-3,6.362305E-3,-3.9542565E-1,-1.8439977E0,-1.1923161E-2,-0E0,7.776834E-3,8.310656E-4,-5.444852E-3,-5.5100878E-5],"split_indices":[137,82,124,244,0,405,277,0,0,202,418,0,0,0,0,0,0],"split_type":[0,0,0,0,0,0,0,0,0,0,0,0,0,0,0,0,0],"sum_hessian":[1.2358059E3,1.8368326E1,1.2174376E3,1.2581448E1,5.786879E0,1.2042793E3,1.3158319E1,5.2650466E0,7.3164005E0,5.1368645E1,1.1529106E3,7.4062314E0,5.7520885E0,1.639185E1,3.4976795E1,1.5079836E1,1.1378308E3],"tree_param":{"num_deleted":"0","num_feature":"420","num_nodes":"17","size_leaf_vector":"1"}},{"base_weights":[-1.3070938E-2,6.85111E-1,-2.1948349E-2,1.1678555E-3,1.2703722E-2,-1.6386805E-2,-8.6158225E-3,-8.310055E-2,5.1604133E-2,1.273822E-3,-1.248298E-3,4.3905466E-3,7.647941E-5],"categories":[],"categories_nodes":[],"categories_segments":[],"categories_sizes":[],"default_left":[0,0,0,0,0,0,0,0,0,0,0,0,0],"id":28,"left_children":[1,3,5,-1,-1,7,-1,9,11,-1,-1,-1,-1],"loss_changes":[7.8889527E0,4.9521446E0,5.8000083E0,0E0,0E0,5.719045E0,0E0,5.615424E0,1.0570313E1,0E0,0E0,0E0,0E0],"parents":[2147483647,0,0,1,1,2,2,5,5,7,7,8,8],"right_children":[2,4,6,-1,-1,8,-1,10,12,-1,-1,-1,-1],"split_conditions":[-2.3458838E0,-6.1215276E-1,2.299143E0,1.1678555E-3,1.2703722E-2,-6.946233E-2,-8.6158225E-3,-1.0615721E0,-7.8821707E-1,1.273822E-3,-1.248298E-3,4.3905466E-3,7.647941E-5],"split_indices":[137,151,168,0,0,50,0,21,10,0,0,0,0],"split_type":[0,0,0,0,0,0,0,0,0,0,0,0,0],"sum_hessian":[1.278373E3,1.4474446E1,1.2638986E3,8.343026E0,6.1314206E0,1.2572194E3,6.679161E0,6.351439E2,6.220755E2,1.0418062E2,5.309633E2,6.1777943E1,5.6029755E2],"tree_param":{"num_deleted":"0","num_feature":"420","num_nodes":"13","size_leaf_vector":"1"}},{"base_weights":[-9.505117E-3,1.4617955E-3,-4.8445937E-1,1.17907204E-1,-4.1047335E-2,1.2290873E-1,-1.1159579E0,4.300199E-2,3.8404477E-1,-2.1222591E-2,-4.1756704E-1,4.7736154E-3,-3.5112659E-3,-2.6614752E-3,-1.877884E-2,-4.340308E-3,9.097371E-4,6.107326E-3,-5.5284647E-4,-4.2836327E-4,3.6365872E-3,-1.4544573E-2,-1.378133E-3],"categories":[],"categories_nodes":[],"categories_segments":[],"categories_sizes":[],"default_left":[0,0,0,0,0,0,0,0,0,0,0,0,0,0,0,0,0,0,0,0,0,0,0],"id":29,"left_children":[1,3,5,7,9,11,13,15,17,19,21,-1,-1,-1,-1,-1,-1,-1,-1,-1,-1,-1,-1],"loss_changes":[6.5086203E0,6.021134E0,1.1120398E1,6.421559E0,6.581408E0,2.892602E0,8.1356735E0,5.8831854E0,7.178212E0,7.03485E0,1.2347595E1,0E0,0E0,0E0,0E0,0E0,0E0,0E0,0E0,0E0,0E0,0E0,0E0],"parents":[2147483647,0,0,1,1,2,2,3,3,4,4,5,5,6,6,7,7,8,8,9,9,10,10],"right_children":[2,4,6,8,10,12,14,16,18,20,22,-1,-1,-1,-1,-1,-1,-1,-1,-1,-1,-1,-1],"split_conditions":[2.1543078E0,-6.2224954E-1,-4.7624978E-1,5.318294E-1,1.7210964E0,2.5461438E-1,-8.151025E-1,-1.1317747E0,1.7797422E-1,1.1440567E0,1.9048813E-1,4.7736154E-3,-3.5112659E-3,-2.6614752E-3,-1.877884E-2,-4.340308E-3,9.097371E-4,6.107326E-3,-5.5284647E-4,-4.2836327E-4,3.6365872E-3,-1.4544573E-2,-1.378133E-3],"split_indices":[327,286,265,79,101,368,229,309,229,80,247,0,0,0,0,0,0,0,0,0,0,0,0],"split_type":[0,0,0,0,0,0,0,0,0,0,0,0,0,0,0,0,0,0,0,0,0,0,0],"sum_hessian":[1.2385709E3,1.211873E3,2.669787E1,3.2400818E2,8.878648E2,1.4144017E1,1.2553854E1,2.5449728E2,6.95109E1,8.4521234E2,4.2652493E1,8.207449E0,5.936568E0,6.953507E0,5.600347E0,2.1960922E1,2.3253636E2,4.5616055E1,2.3894846E1,8.017798E2,4.3432583E1,7.648338E0,3.5004154E1],"tree_param":{"num_deleted":"0","num_feature":"420","num_nodes":"23","size_leaf_vector":"1"}},{"base_weights":[6.2644565E-3,1.5318383E-2,-6.086785E-1,5.144384E-1,4.5669037E-3,1.5948963E-3,-1.0840411E-2,8.4185606E-1,-3.581901E-3,1.9967694E-2,-3.1944066E-1,1.5884774E-2,3.2957485E-3,4.566899E-3,8.4262785E-5,-4.8832665E-3,4.9908417E-3],"categories":[],"categories_nodes":[],"categories_segments":[],"categories_sizes":[],"default_left":[0,0,0,0,0,0,0,0,0,0,0,0,0,0,0,0,0],"id":30,"left_children":[1,3,5,7,9,-1,-1,11,-1,13,15,-1,-1,-1,-1,-1,-1],"loss_changes":[6.993515E0,6.639135E0,7.0050545E0,7.956825E0,6.0819926E0,0E0,0E0,6.484131E0,0E0,5.8406544E0,8.006874E0,0E0,0E0,0E0,0E0,0E0,0E0],"parents":[2147483647,0,0,1,1,2,2,3,3,4,4,7,7,9,9,10,10],"right_children":[2,4,6,8,10,-1,-1,12,-1,14,16,-1,-1,-1,-1,-1,-1],"split_conditions":[2.588535E0,-2.0141244E0,-9.636703E-1,1.1766317E0,1.4187642E0,1.5948963E-3,-1.0840411E-2,-2.2930965E-1,-3.581901E-3,-1.663734E0,3.0524468E0,1.5884774E-2,3.2957485E-3,4.566899E-3,8.4262785E-5,-4.8832665E-3,4.9908417E-3],"split_indices":[259,417,390,285,24,0,0,90,0,172,122,0,0,0,0,0,0],"split_type":[0,0,0,0,0,0,0,0,0,0,0,0,0,0,0,0,0],"sum_hessian":[1.2627438E3,1.2460236E3,1.6720201E1,2.4596523E1,1.221427E3,6.6922092E0,1.0027991E1,1.8007463E1,6.5890613E0,1.1676426E3,5.3784424E1,5.965982E0,1.204148E1,2.8350561E1,1.139292E3,4.518806E1,8.596361E0],"tree_param":{"num_deleted":"0","num_feature":"420","num_nodes":"17","size_leaf_vector":"1"}},{"base_weights":[2.3277408E-2,4.6171832E-1,1.3686646E-2,7.013726E-2,9.614932E-1,2.5836028E-2,-3.1793565E-1,5.3287093E-3,-3.0792973E-3,1.4567607E-2,2.4324313E-3,3.173948E-2,-7.3787114E-3,-6.360848E-1,2.2030242E-1,1.8118969E-3,1.3175479E-5,-1.0069372E-2,6.7174435E-4,-4.3059387E-3,5.9701726E-3],"categories":[],"categories_nodes":[],"categories_segments":[],"categories_sizes":[],"default_left":[0,0,0,0,0,0,0,0,0,0,0,0,0,0,0,0,0,0,0,0,0],"id":31,"left_children":[1,3,5,7,9,11,13,-1,-1,-1,-1,15,-1,17,19,-1,-1,-1,-1,-1,-1],"loss_changes":[5.305428E0,5.08547E0,5.018284E0,3.222655E0,3.440627E0,5.4073744E0,7.78447E0,0E0,0E0,0E0,0E0,5.4352193E0,0E0,7.537037E0,4.653908E0,0E0,0E0,0E0,0E0,0E0,0E0],"parents":[2147483647,0,0,1,1,2,2,3,3,4,4,5,5,6,6,11,11,13,13,14,14],"right_children":[2,4,6,8,10,12,14,-1,-1,-1,-1,16,-1,18,20,-1,-1,-1,-1,-1,-1],"split_conditions":[-2.0141244E0,7.470476E-2,1.5809997E0,-2.7816541E-2,3.9450926E-1,2.8758075E0,7.244003E-1,5.3287093E-3,-3.0792973E-3,1.4567607E-2,2.4324313E-3,-8.5289246E-1,-7.3787114E-3,1.9326909E-1,-5.4539937E-1,1.8118969E-3,1.3175479E-5,-1.0069372E-2,6.7174435E-4,-4.3059387E-3,5.9701726E-3],"split_indices":[417,158,3,235,308,5,140,0,0,0,0,334,0,202,165,0,0,0,0,0,0],"split_type":[0,0,0,0,0,0,0,0,0,0,0,0,0,0,0,0,0,0,0,0,0],"sum_hessian":[1.2737604E3,2.552976E1,1.2482307E3,1.538555E1,1.0144211E1,1.2057416E3,4.2489113E1,6.760892E0,8.624658E0,5.0088387E0,5.1353726E0,1.1980492E3,7.6923113E0,2.6649729E1,1.5839384E1,2.0081386E2,9.972354E2,1.7117542E1,9.5321865E0,5.6306443E0,1.0208739E1],"tree_param":{"num_deleted":"0","num_feature":"420","num_nodes":"21","size_leaf_vector":"1"}},{"base_weights":[-1.1275496E-3,1.2684473E-2,-3.821475E-1,8.2445407E-1,3.7874612E-3,-1.6114506E-1,-1.228155E-2,2.230931E-3,1.2637157E-2,-4.2409593E-1,1.6846575E-2,-1.0074902E-2,1.372097E-2,-1.1224722E-2,-1.7312459E-3,3.3460383E-4,-3.0459776E-3,-5.3277044E-3,3.6205293E-3],"categories":[],"categories_nodes":[],"categories_segments":[],"categories_sizes":[],"default_left":[0,0,0,0,0,0,0,0,0,0,0,0,0,0,0,0,0,0,0],"id":32,"left_children":[1,3,5,7,9,11,-1,-1,-1,13,15,-1,17,-1,-1,-1,-1,-1,-1],"loss_changes":[6.7376924E0,8.785746E0,7.939411E0,2.9127855E0,6.7697396E0,5.64584E0,0E0,0E0,0E0,5.8660703E0,6.3033524E0,0E0,6.425733E0,0E0,0E0,0E0,0E0,0E0,0E0],"parents":[2147483647,0,0,1,1,2,2,3,3,4,4,5,5,9,9,10,10,12,12],"right_children":[2,4,6,8,10,12,-1,-1,-1,14,16,-1,18,-1,-1,-1,-1,-1,-1],"split_conditions":[1.8736122E0,-2.3458838E0,7.702091E-1,-1.0088689E-1,-1.8412445E0,-1.222306E0,-1.228155E-2,2.230931E-3,1.2637157E-2,-1.0740457E0,1.3383652E0,-1.0074902E-2,-2.6757434E-1,-1.1224722E-2,-1.7312459E-3,3.3460383E-4,-3.0459776E-3,-5.3277044E-3,3.6205293E-3],"split_indices":[326,137,410,61,74,285,0,0,0,237,24,0,35,0,0,0,0,0,0],"split_type":[0,0,0,0,0,0,0,0,0,0,0,0,0,0,0,0,0,0,0],"sum_hessian":[1.2703816E3,1.227087E3,4.329446E1,1.1690585E1,1.2153965E3,3.583675E1,7.45771E0,5.985607E0,5.7049785E0,3.4370575E1,1.1810259E3,5.0113964E0,3.0825352E1,7.603935E0,2.6766638E1,1.1245582E3,5.6467686E1,1.1578595E1,1.9246758E1],"tree_param":{"num_deleted":"0","num_feature":"420","num_nodes":"19","size_leaf_vector":"1"}},{"base_weights":[2.74421E-3,1.4578698E-2,-4.882514E-1,8.177711E-1,4.8822197E-3,4.285234E-3,-7.4987686E-1,1.4909034E-3,1.5032508E-2,1.6905066E-2,-4.1605875E-1,-2.5629458E-1,-1.4240844E-2,-3.4075874E-5,3.1041647E-3,-8.795466E-3,2.0343906E-3,2.0488065E-3,-5.6395554E-3],"categories":[],"categories_nodes":[],"categories_segments":[],"categories_sizes":[],"default_left":[0,0,0,0,0,0,0,0,0,0,0,0,0,0,0,0,0,0,0],"id":33,"left_children":[1,3,5,7,9,-1,11,-1,-1,13,15,17,-1,-1,-1,-1,-1,-1,-1],"loss_changes":[7.2498846E0,9.461079E0,7.555799E0,6.1420946E0,6.110247E0,0E0,7.0949717E0,0E0,0E0,7.074176E0,9.959181E0,2.4035249E0,0E0,0E0,0E0,0E0,0E0,0E0,0E0],"parents":[2147483647,0,0,1,1,2,2,3,3,4,4,6,6,9,9,10,10,11,11],"right_children":[2,4,6,8,10,-1,12,-1,-1,14,16,18,-1,-1,-1,-1,-1,-1,-1],"split_conditions":[2.1827238E0,-2.3458838E0,-5.654096E-1,-5.9425306E-1,1.7450764E0,4.285234E-3,-3.7871215E-1,1.4909034E-3,1.5032508E-2,1.274587E0,1.428143E0,-2.8831968E-1,-1.4240844E-2,-3.4075874E-5,3.1041647E-3,-8.795466E-3,2.0343906E-3,2.0488065E-3,-5.6395554E-3],"split_indices":[326,137,320,155,130,0,175,0,0,123,250,71,0,0,0,0,0,0,0],"split_type":[0,0,0,0,0,0,0,0,0,0,0,0,0,0,0,0,0,0,0],"sum_hessian":[1.2524966E3,1.2246382E3,2.7858377E1,1.2993863E1,1.2116443E3,5.8877387E0,2.1970638E1,7.575827E0,5.418036E0,1.1796293E3,3.2015053E1,1.396529E1,8.005347E0,1.1043442E3,7.5284996E1,1.804565E1,1.3969401E1,5.658871E0,8.306419E0],"tree_param":{"num_deleted":"0","num_feature":"420","num_nodes":"19","size_leaf_vector":"1"}},{"base_weights":[-8.2615334E-5,3.390297E-1,-1.53876785E-2,7.625871E-1,6.430501E-2,4.940167E-1,-2.5651941E-2,6.945892E-4,1.2884719E-2,-6.5863053E-3,2.5968644E-1,5.0102964E-2,1.1612452E-2,-5.559193E-1,-1.7075226E-2,6.942072E-3,9.519724E-5,-5.919088E-3,4.3380163E-3,-0E0,-1.1468053E-2,1.9850575E-3,-3.7814715E-4],"categories":[],"categories_nodes":[],"categories_segments":[],"categories_sizes":[],"default_left":[0,0,0,0,0,0,0,0,0,0,0,0,0,0,0,0,0,0,0,0,0,0,0],"id":34,"left_children":[1,3,5,7,9,11,13,-1,-1,-1,15,17,-1,19,21,-1,-1,-1,-1,-1,-1,-1,-1],"loss_changes":[6.5877976E0,6.2203617E0,6.3549027E0,7.4861135E0,5.163364E0,6.898044E0,5.377942E0,0E0,0E0,0E0,3.0454493E0,4.3267827E0,0E0,6.25698E0,5.274989E0,0E0,0E0,0E0,0E0,0E0,0E0,0E0,0E0],"parents":[2147483647,0,0,1,1,2,2,3,3,4,4,5,5,6,6,10,10,11,11,13,13,14,14],"right_children":[2,4,6,8,10,12,14,-1,-1,-1,16,18,-1,20,22,-1,-1,-1,-1,-1,-1,-1,-1],"split_conditions":[-1.5720066E0,-3.9542565E-1,-2.2417026E0,-9.868954E-1,-8.5384804E-1,3.8570142E-1,-1.8439977E0,6.945892E-4,1.2884719E-2,-6.5863053E-3,-4.5216742E-1,-4.165587E-1,1.1612452E-2,-1.2597353E0,-1.1285291E0,6.942072E-3,9.519724E-5,-5.919088E-3,4.3380163E-3,-0E0,-1.1468053E-2,1.9850575E-3,-3.7814715E-4],"split_indices":[405,202,137,205,194,109,418,0,0,0,194,391,0,242,346,0,0,0,0,0,0,0,0],"split_type":[0,0,0,0,0,0,0,0,0,0,0,0,0,0,0,0,0,0,0,0,0,0,0],"sum_hessian":[1.27252E3,5.3299904E1,1.2192201E3,1.9778551E1,3.3521355E1,2.249273E1,1.1967274E3,9.347116E0,1.0431434E1,6.266438E0,2.7254915E1,1.4565001E1,7.927728E0,1.7338923E1,1.1793884E3,8.839378E0,1.8415537E1,5.0465083E0,9.518492E0,9.654447E0,7.684477E0,1.0195165E2,1.0774368E3],"tree_param":{"num_deleted":"0","num_feature":"420","num_nodes":"23","size_leaf_vector":"1"}},{"base_weights":[-5.9025185E-3,7.339455E-1,-1.5858311E-2,-7.6680165E-4,1.1666814E-2,6.5210566E-4,-4.329109E-1,1.484121E-2,-4.2310584E-1,-2.6853E-1,-1.3157997E-2,-2.9594838E-3,3.191403E-4,-1.222478E-2,-1.5826264E-3,-5.035907E-3,1.7024955E-3],"categories":[],"categories_nodes":[],"categories_segments":[],"categories_sizes":[],"default_left":[0,0,0,0,0,0,0,0,0,0,0,0,0,0,0,0,0],"id":35,"left_children":[1,3,5,-1,-1,7,9,11,13,15,-1,-1,-1,-1,-1,-1,-1],"loss_changes":[9.222207E0,6.07351E0,8.611492E0,0E0,0E0,7.172923E0,6.2221622E0,6.148275E0,7.7526264E0,4.506465E0,0E0,0E0,0E0,0E0,0E0,0E0,0E0],"parents":[2147483647,0,0,1,1,2,2,5,5,6,6,7,7,8,8,9,9],"right_children":[2,4,6,-1,-1,8,10,12,14,16,-1,-1,-1,-1,-1,-1,-1],"split_conditions":[-2.3458838E0,-1.3725697E0,1.8517956E0,-7.6680165E-4,1.1666814E-2,1.7450764E0,1.3546474E0,-1.4382206E0,-5.592827E-1,5.1776963E-1,-1.3157997E-2,-2.9594838E-3,3.191403E-4,-1.222478E-2,-1.5826264E-3,-5.035907E-3,1.7024955E-3],"split_indices":[137,153,330,0,0,130,400,314,291,407,0,0,0,0,0,0,0],"split_type":[0,0,0,0,0,0,0,0,0,0,0,0,0,0,0,0,0],"sum_hessian":[1.2579137E3,1.5120681E1,1.242793E3,5.6116786E0,9.509002E0,1.1966765E3,4.6116554E1,1.159534E3,3.7142372E1,4.0622696E1,5.493858E0,5.8799675E1,1.1007344E3,7.7995973E0,2.9342775E1,2.645611E1,1.4166584E1],"tree_param":{"num_deleted":"0","num_feature":"420","num_nodes":"17","size_leaf_vector":"1"}},{"base_weights":[-2.4791285E-3,3.354107E-1,-1.7955605E-2,7.563477E-1,8.6468026E-2,-8.88308E-3,-5.618315E-1,-2.630862E-4,1.1705201E0,5.7815104E-3,-1.4609429E-1,5.256937E-1,-1.8486077E-2,1.3076181E-4,-9.352421E-1,3.2956488E-3,1.8226672E-2,-7.0829885E-3,5.9979083E-4,-9.5856737E-4,8.108292E-3,-6.216314E-4,1.0692609E-3,-1.320931E-2,-3.0221674E-3],"categories":[],"categories_nodes":[],"categories_segments":[],"categories_sizes":[],"default_left":[0,0,0,0,0,0,0,0,0,0,0,0,0,0,0,0,0,0,0,0,0,0,0,0,0],"id":36,"left_children":[1,3,5,7,9,11,13,-1,15,-1,17,19,21,-1,23,-1,-1,-1,-1,-1,-1,-1,-1,-1,-1],"loss_changes":[6.6630507E0,5.6636405E0,5.9761457E0,6.7699175E0,4.3891973E0,6.1540766E0,4.3786554E0,0E0,6.2600727E0,0E0,3.153512E0,3.935762E0,6.5030246E0,0E0,2.212407E0,0E0,0E0,0E0,0E0,0E0,0E0,0E0,0E0,0E0,0E0],"parents":[2147483647,0,0,1,1,2,2,3,3,4,4,5,5,6,6,8,8,10,10,11,11,12,12,14,14],"right_children":[2,4,6,8,10,12,14,-1,16,-1,18,20,22,-1,24,-1,-1,-1,-1,-1,-1,-1,-1,-1,-1],"split_conditions":[-1.5720066E0,-6.7005E-1,2.588535E0,-4.7534922E-1,-6.664002E-1,-1.8557231E0,1.242778E-2,-2.630862E-4,-2.2620082E0,5.7815104E-3,-1.8805946E-1,-9.9704593E-1,3.678631E-1,1.3076181E-4,4.456568E-1,3.2956488E-3,1.8226672E-2,-7.0829885E-3,5.9979083E-4,-9.5856737E-4,8.108292E-3,-6.216314E-4,1.0692609E-3,-1.320931E-2,-3.0221674E-3],"split_indices":[405,376,259,160,3,337,140,0,417,0,168,140,140,0,96,0,0,0,0,0,0,0,0,0,0],"split_type":[0,0,0,0,0,0,0,0,0,0,0,0,0,0,0,0,0,0,0,0,0,0,0,0,0],"sum_hessian":[1.2770088E3,5.4288414E1,1.2227205E3,1.8889355E1,3.539906E1,1.2043389E3,1.8381504E1,6.9393754E0,1.1949979E1,1.0789305E1,2.4609753E1,1.964631E1,1.1846926E3,7.7024255E0,1.0679078E1,6.272654E0,5.6773252E0,5.7506227E0,1.885913E1,6.381238E0,1.3265073E1,8.798298E2,3.0486282E2,5.5248747E0,5.1542034E0],"tree_param":{"num_deleted":"0","num_feature":"420","num_nodes":"25","size_leaf_vector":"1"}},{"base_weights":[-5.467325E-3,1.593457E-2,-3.286919E-1,1.0154291E-2,8.232395E-3,-4.5125816E-2,-6.5136325E-1,3.086249E-1,-6.7010894E-3,-1.0120884E-2,1.3304259E-1,-1.52959395E-2,-4.2370534E-1,3.978455E-3,-3.8496447E-3,-1.231744E-4,7.699143E-3,6.8113753E-3,-3.7377322E-4,-1.5030893E-3,-1.2288097E-2],"categories":[],"categories_nodes":[],"categories_segments":[],"categories_sizes":[],"default_left":[0,0,0,0,0,0,0,0,0,0,0,0,0,0,0,0,0,0,0,0,0],"id":37,"left_children":[1,3,5,-1,7,9,11,13,15,-1,17,-1,19,-1,-1,-1,-1,-1,-1,-1,-1],"loss_changes":[8.742703E0,8.978154E0,7.068388E0,0E0,5.298669E0,7.7937016E0,6.117983E0,3.6925383E0,4.820664E0,0E0,3.653603E0,0E0,6.4311438E0,0E0,0E0,0E0,0E0,0E0,0E0,0E0,0E0],"parents":[2147483647,0,0,1,1,2,2,4,4,5,5,6,6,7,7,8,8,10,10,12,12],"right_children":[2,4,6,-1,8,10,12,14,16,-1,18,-1,20,-1,-1,-1,-1,-1,-1,-1,-1],"split_conditions":[1.4799659E0,-2.350527E0,-3.0348443E-3,1.0154291E-2,-1.5720066E0,-9.040003E-1,-7.425859E-1,1.3099576E0,2.7770967E0,-1.0120884E-2,-7.697598E-1,-1.52959395E-2,1.078305E0,3.978455E-3,-3.8496447E-3,-1.231744E-4,7.699143E-3,6.8113753E-3,-3.7377322E-4,-1.5030893E-3,-1.2288097E-2],"split_indices":[327,141,74,0,405,256,215,287,354,0,136,0,157,0,0,0,0,0,0,0,0],"split_type":[0,0,0,0,0,0,0,0,0,0,0,0,0,0,0,0,0,0,0,0,0],"sum_hessian":[1.2566746E3,1.1796803E3,7.699433E1,7.4211054E0,1.1722592E3,4.205541E1,3.4938923E1,5.4436928E1,1.1178223E3,5.538287E0,3.651712E1,5.3361783E0,2.9602745E1,4.892693E1,5.509998E0,1.1113898E3,6.4324093E0,7.734242E0,2.8782877E1,2.3520075E1,6.0826697E0],"tree_param":{"num_deleted":"0","num_feature":"420","num_nodes":"21","size_leaf_vector":"1"}},{"base_weights":[-5.512615E-3,-1.1511412E-1,4.428405E-2,-6.8475866E-1,-8.117726E-2,-4.1241568E-2,1.5737672E-1,-1.5022424E-3,-1.097635E0,-7.8084758E-3,-6.113886E-2,6.893999E-3,-5.6340203E-2,1.3758066E-1,1.20880315E-2,-1.643058E-2,-3.097869E-3,-1.0110212E-3,2.5972067E-3,-3.5772263E-3,-1.6688897E-4,6.5618693E-3,1.0475599E-3],"categories":[],"categories_nodes":[],"categories_segments":[],"categories_sizes":[],"default_left":[0,0,0,0,0,0,0,0,0,0,0,0,0,0,0,0,0,0,0,0,0,0,0],"id":38,"left_children":[1,3,5,7,9,11,13,-1,15,-1,17,-1,19,21,-1,-1,-1,-1,-1,-1,-1,-1,-1],"loss_changes":[6.950347E0,7.5349026E0,8.477229E0,4.485999E0,5.1372175E0,5.4939413E0,7.468293E0,0E0,4.2305202E0,0E0,4.7522645E0,0E0,5.808014E0,6.154696E0,0E0,0E0,0E0,0E0,0E0,0E0,0E0,0E0,0E0],"parents":[2147483647,0,0,1,1,2,2,3,3,4,4,5,5,6,6,8,8,10,10,12,12,13,13],"right_children":[2,4,6,8,10,12,14,-1,16,-1,18,-1,20,22,-1,-1,-1,-1,-1,-1,-1,-1,-1],"split_conditions":[-6.109242E-1,-1.0542884E0,-1.6374221E-1,-6.649467E-2,-1.4183031E0,-2.2746847E0,1.8499024E0,-1.5022424E-3,8.720572E-1,-7.8084758E-3,1.7817947E0,6.893999E-3,-1.2089907E0,-1.7495394E0,1.20880315E-2,-1.643058E-2,-3.097869E-3,-1.0110212E-3,2.5972067E-3,-3.5772263E-3,-1.6688897E-4,6.5618693E-3,1.0475599E-3],"split_indices":[324,95,97,162,78,60,57,0,183,0,356,0,81,264,0,0,0,0,0,0,0,0,0],"split_type":[0,0,0,0,0,0,0,0,0,0,0,0,0,0,0,0,0,0,0,0,0,0,0],"sum_hessian":[1.2692742E3,3.9653934E2,8.7273486E2,2.0512672E1,3.7602664E2,4.9697183E2,3.7576303E2,9.936396E0,1.0576277E1,8.744868E0,3.6728177E2,8.571545E0,4.884003E2,3.7057724E2,5.185774E0,5.2125072E0,5.3637695E0,3.2779385E2,3.9487915E1,5.5093086E1,4.3330722E2,2.0182093E1,3.5039514E2],"tree_param":{"num_deleted":"0","num_feature":"420","num_nodes":"23","size_leaf_vector":"1"}},{"base_weights":[-2.9923103E-3,6.1145973E-1,-1.0563685E-2,-2.7076232E-3,1.3802848E-2,-1.8921152E-1,1.1426343E-2,-1.01302154E-1,-9.3765867E-1,5.637887E-1,1.1084508E-3,-5.6757634E-3,-5.8969938E-5,-1.520803E-3,-1.3814799E-2,-2.6731097E-4,8.788962E-3,-2.9504772E-3,2.0663129E-4],"categories":[],"categories_nodes":[],"categories_segments":[],"categories_sizes":[],"default_left":[0,0,0,0,0,0,0,0,0,0,0,0,0,0,0,0,0,0,0],"id":39,"left_children":[1,3,5,-1,-1,7,9,11,13,15,17,-1,-1,-1,-1,-1,-1,-1,-1],"loss_changes":[5.7773237E0,1.0921902E1,4.888619E0,0E0,0E0,8.727154E0,6.2354827E0,5.447138E0,4.4246073E0,3.8543854E0,6.2687025E0,0E0,0E0,0E0,0E0,0E0,0E0,0E0,0E0],"parents":[2147483647,0,0,1,1,2,2,5,5,6,6,7,7,8,8,9,9,10,10],"right_children":[2,4,6,-1,-1,8,10,12,14,16,18,-1,-1,-1,-1,-1,-1,-1,-1],"split_conditions":[-2.2399871E0,-8.923599E-1,-1.0058521E0,-2.7076232E-3,1.3802848E-2,1.1398951E0,-1.8519735E0,-2.097973E-1,-2.3026323E-1,-8.2117754E-1,-1.1777084E0,-5.6757634E-3,-5.8969938E-5,-1.520803E-3,-1.3814799E-2,-2.6731097E-4,8.788962E-3,-2.9504772E-3,2.0663129E-4],"split_indices":[141,151,98,0,0,369,384,273,53,267,107,0,0,0,0,0,0,0,0],"split_type":[0,0,0,0,0,0,0,0,0,0,0,0,0,0,0,0,0,0,0],"sum_hessian":[1.2511688E3,1.3612406E1,1.2375565E3,6.7306695E0,6.8817363E0,1.3488515E2,1.1026713E3,1.2235097E2,1.2534182E1,1.856656E1,1.0841047E3,1.9343166E1,1.03007805E2,5.333325E0,7.200856E0,6.8273406E0,1.173922E1,6.552223E1,1.0185825E3],"tree_param":{"num_deleted":"0","num_feature":"420","num_nodes":"19","size_leaf_vector":"1"}},{"base_weights":[9.373539E-3,-4.7537526E-1,2.0838792E-2,4.7202516E-2,-1.0194117E0,2.048821E-1,-6.729029E-3,6.2159686E-3,-3.1574904E-3,-2.4248112E-3,-1.4370987E-2,-6.8088565E-3,2.5154197E-1,2.3454872E-3,-7.6056254E-1,3.7607348E-3,-1.2785726E-3,-1.9463546E-4,2.479985E-3,-1.7055847E-2,4.0513757E-3],"categories":[],"categories_nodes":[],"categories_segments":[],"categories_sizes":[],"default_left":[0,0,0,0,0,0,0,0,0,0,0,0,0,0,0,0,0,0,0,0,0],"id":40,"left_children":[1,3,5,7,9,11,13,-1,-1,-1,-1,-1,15,17,19,-1,-1,-1,-1,-1,-1],"loss_changes":[6.822565E0,8.229994E0,6.141877E0,3.6191826E0,3.869111E0,6.7301245E0,7.261637E0,0E0,0E0,0E0,0E0,0E0,7.2301025E0,5.5961537E0,1.5075293E1,0E0,0E0,0E0,0E0,0E0,0E0],"parents":[2147483647,0,0,1,1,2,2,3,3,4,4,5,5,6,6,12,12,13,13,14,14],"right_children":[2,4,6,8,10,12,14,-1,-1,-1,-1,-1,16,18,20,-1,-1,-1,-1,-1,-1],"split_conditions":[-1.935657E0,-6.5864885E-1,-9.539853E-1,-1.1815091E0,-7.126743E-1,-1.5127629E0,2.5561278E0,6.2159686E-3,-3.1574904E-3,-2.4248112E-3,-1.4370987E-2,-6.8088565E-3,9.577948E-1,1.5362194E0,7.473809E-1,3.7607348E-3,-1.2785726E-3,-1.9463546E-4,2.479985E-3,-1.7055847E-2,4.0513757E-3],"split_indices":[312,238,334,284,372,94,371,0,0,0,0,0,18,139,291,0,0,0,0,0,0],"split_type":[0,0,0,0,0,0,0,0,0,0,0,0,0,0,0,0,0,0,0,0,0],"sum_hessian":[1.2315778E3,2.6852291E1,1.2047255E3,1.4301212E1,1.255108E1,1.5616231E2,1.0485631E3,5.2303843E0,9.0708275E0,5.301007E0,7.250073E0,6.687033E0,1.4947528E2,1.0374374E3,1.11258135E1,1.1274524E2,3.6730034E1,9.5373865E2,8.369869E1,5.808218E0,5.317595E0],"tree_param":{"num_deleted":"0","num_feature":"420","num_nodes":"21","size_leaf_vector":"1"}},{"base_weights":[1.1873568E-2,1.2986346E-1,-3.3544783E-2,1.05221964E-1,1.0319382E-2,-7.5735927E-1,-2.2408927E-2,5.3126156E-1,6.3023046E-2,5.0480943E-4,-1.3241475E-2,4.669487E-1,-3.7711184E-2,1.0967866E-2,1.137785E-3,4.7170315E-3,1.0993266E-4,-2.4648325E-3,7.21649E-3,-2.3188598E-4,-5.7707387E-3],"categories":[],"categories_nodes":[],"categories_segments":[],"categories_sizes":[],"default_left":[0,0,0,0,0,0,0,0,0,0,0,0,0,0,0,0,0,0,0,0,0],"id":41,"left_children":[1,3,5,7,-1,9,11,13,15,-1,-1,17,19,-1,-1,-1,-1,-1,-1,-1,-1],"loss_changes":[6.59703E0,7.330922E0,7.04832E0,5.9116745E0,0E0,6.3000374E0,6.539624E0,6.7199936E0,6.4644437E0,0E0,0E0,5.1226606E0,6.582275E0,0E0,0E0,0E0,0E0,0E0,0E0,0E0,0E0],"parents":[2147483647,0,0,1,1,2,2,3,3,5,5,6,6,7,7,8,8,11,11,12,12],"right_children":[2,4,6,8,-1,10,12,14,16,-1,-1,18,20,-1,-1,-1,-1,-1,-1,-1,-1],"split_conditions":[-6.9332576E-1,2.0468483E0,-8.91915E-1,-1.2919393E0,1.0319382E-2,-8.348014E-2,-1.9304101E0,1.11266494E-1,-1.5720066E0,5.0480943E-4,-1.3241475E-2,-5.501933E-1,2.3111117E0,1.0967866E-2,1.137785E-3,4.7170315E-3,1.0993266E-4,-2.4648325E-3,7.21649E-3,-2.3188598E-4,-5.7707387E-3],"split_indices":[363,163,358,162,0,161,252,6,405,0,0,241,287,0,0,0,0,0,0,0,0],"split_type":[0,0,0,0,0,0,0,0,0,0,0,0,0,0,0,0,0,0,0,0,0],"sum_hessian":[1.2265237E3,3.407418E2,8.857819E2,3.3341977E2,7.3220286E0,1.1762163E1,8.740198E2,2.8268412E1,3.0515137E2,5.340438E0,6.4217253E0,2.4961378E1,8.490584E2,1.0867284E1,1.7401129E1,3.2878498E1,2.7227286E2,6.4763837E0,1.8484995E1,8.2850055E2,2.0557861E1],"tree_param":{"num_deleted":"0","num_feature":"420","num_nodes":"21","size_leaf_vector":"1"}},{"base_weights":[-3.020537E-3,1.1529117E-1,-4.4892926E-2,6.136262E-2,5.8952004E-1,-6.345706E-2,3.2187518E-1,4.5334116E-1,1.188416E-2,-4.0238528E-3,7.962448E-1,-3.7103295E-2,-3.3577725E-1,5.845023E-1,-2.110377E-1,1.0635449E-2,1.255102E-3,4.1266627E-4,-6.3771037E-3,3.9033683E-3,1.5862016E-2,7.911832E-3,-4.8577346E-4,2.6094306E-3,-5.17743E-3,9.386128E-3,6.9532914E-5,-8.520761E-3,2.3392404E-3],"categories":[],"categories_nodes":[],"categories_segments":[],"categories_sizes":[],"default_left":[0,0,0,0,0,0,0,0,0,0,0,0,0,0,0,0,0,0,0,0,0,0,0,0,0,0,0,0,0],"id":42,"left_children":[1,3,5,7,9,11,13,15,17,-1,19,21,23,25,27,-1,-1,-1,-1,-1,-1,-1,-1,-1,-1,-1,-1,-1,-1],"loss_changes":[6.2049513E0,8.247786E0,6.314457E0,5.6788926E0,7.2953825E0,6.285095E0,6.4691124E0,6.255645E0,5.0236454E0,0E0,7.829586E0,7.6589184E0,8.637111E0,6.1175013E0,4.8421283E0,0E0,0E0,0E0,0E0,0E0,0E0,0E0,0E0,0E0,0E0,0E0,0E0,0E0,0E0],"parents":[2147483647,0,0,1,1,2,2,3,3,4,4,5,5,6,6,7,7,8,8,10,10,11,11,12,12,13,13,14,14],"right_children":[2,4,6,8,10,12,14,16,18,-1,20,22,24,26,28,-1,-1,-1,-1,-1,-1,-1,-1,-1,-1,-1,-1,-1,-1],"split_conditions":[-7.819839E-1,9.137683E-1,1.9826697E0,-1.0069622E0,-1.2395343E0,1.2823052E0,3.2958734E-1,1.05941966E-1,9.8410255E-1,-4.0238528E-3,-2.6258764E-1,-2.0141244E0,-4.4331032E-1,3.4733018E-1,3.1365222E-1,1.0635449E-2,1.255102E-3,4.1266627E-4,-6.3771037E-3,3.9033683E-3,1.5862016E-2,7.911832E-3,-4.8577346E-4,2.6094306E-3,-5.17743E-3,9.386128E-3,6.9532914E-5,-8.520761E-3,2.3392404E-3],"split_indices":[321,32,140,150,211,224,369,331,200,0,305,417,331,179,321,0,0,0,0,0,0,0,0,0,0,0,0,0,0],"split_type":[0,0,0,0,0,0,0,0,0,0,0,0,0,0,0,0,0,0,0,0,0,0,0,0,0,0,0,0,0],"sum_hessian":[1.2508689E3,3.2566742E2,9.252015E2,2.9412497E2,3.1542458E1,8.8206836E2,4.313315E1,3.1366716E1,2.6275824E2,5.111765E0,2.6430693E1,8.061271E2,7.594128E1,2.8922276E1,1.4210874E1,9.679184E0,2.1687532E1,2.528787E2,9.8795595E0,1.9023512E1,7.4071817E0,9.502685E0,7.966244E2,1.7465633E1,5.8475647E1,1.7240671E1,1.1681603E1,5.352323E0,8.858551E0],"tree_param":{"num_deleted":"0","num_feature":"420","num_nodes":"29","size_leaf_vector":"1"}},{"base_weights":[-1.2547607E-2,2.0200494E-3,-4.4758198E-1,7.4726576E-1,-6.7795175E-3,-2.0454088E-1,-1.0801716E-2,3.8624127E-4,1.3153843E-2,-6.1592106E-2,8.162494E-2,1.4111419E-1,-5.6884387E-3,-5.107895E-4,-7.105551E-3,4.7517574E-4,4.5045707E-3,-2.0588685E-3,6.4379703E-3],"categories":[],"categories_nodes":[],"categories_segments":[],"categories_sizes":[],"default_left":[0,0,0,0,0,0,0,0,0,0,0,0,0,0,0,0,0,0,0],"id":43,"left_children":[1,3,5,7,9,11,-1,-1,-1,13,15,17,-1,-1,-1,-1,-1,-1,-1],"loss_changes":[8.035653E0,8.089715E0,5.8556833E0,5.584363E0,5.860315E0,4.147517E0,0E0,0E0,0E0,4.9684734E0,5.734686E0,3.2597644E0,0E0,0E0,0E0,0E0,0E0,0E0,0E0],"parents":[2147483647,0,0,1,1,2,2,3,3,4,4,5,5,9,9,10,10,11,11],"right_children":[2,4,6,8,10,12,-1,-1,-1,14,16,18,-1,-1,-1,-1,-1,-1,-1],"split_conditions":[1.9038479E0,-2.3458838E0,-1.6262446E-1,-3.8200793E-1,-4.7030866E-2,1.5903795E-1,-1.0801716E-2,3.8624127E-4,1.3153843E-2,2.2393236E0,1.4176737E0,1.0209377E-2,-5.6884387E-3,-5.107895E-4,-7.105551E-3,4.7517574E-4,4.5045707E-3,-2.0588685E-3,6.4379703E-3],"split_indices":[327,137,265,85,34,121,0,0,0,78,184,14,0,0,0,0,0,0,0],"split_type":[0,0,0,0,0,0,0,0,0,0,0,0,0,0,0,0,0,0,0],"sum_hessian":[1.2592222E3,1.219644E3,3.95781E1,1.2896626E1,1.2067474E3,3.0141005E1,9.437095E0,6.529752E0,6.366875E0,7.458754E2,4.6087204E2,1.57970495E1,1.4343956E1,7.357288E2,1.0146597E1,4.23659E2,3.7213047E1,9.751979E0,6.04507E0],"tree_param":{"num_deleted":"0","num_feature":"420","num_nodes":"19","size_leaf_vector":"1"}},{"base_weights":[4.405526E-3,2.8759152E-1,-1.1433606E-2,4.008143E-1,-3.7504463E-3,-3.1702241E-3,-8.846528E-3,-4.863988E-3,5.0297153E-1,-1.9455624E-1,2.0465778E-2,1.291725E-2,3.6699048E-3,-3.5819288E-3,6.75298E-4,5.8018416E-3,6.944588E-5],"categories":[],"categories_nodes":[],"categories_segments":[],"categories_sizes":[],"default_left":[0,0,0,0,0,0,0,0,0,0,0,0,0,0,0,0,0],"id":44,"left_children":[1,3,5,7,-1,9,-1,-1,11,13,15,-1,-1,-1,-1,-1,-1],"loss_changes":[5.690099E0,5.2699947E0,8.534278E0,5.6481123E0,0E0,5.388497E0,0E0,0E0,4.815509E0,5.682687E0,7.931256E0,0E0,0E0,0E0,0E0,0E0,0E0],"parents":[2147483647,0,0,1,1,2,2,3,3,5,5,8,8,9,9,10,10],"right_children":[2,4,6,8,-1,10,-1,-1,12,14,16,-1,-1,-1,-1,-1,-1],"split_conditions":[-1.5428047E0,9.8397875E-1,3.3680918E0,-1.6641902E0,-3.7504463E-3,-1.1177284E0,-8.846528E-3,-4.863988E-3,-1.3160261E0,-6.7580625E-4,-1.971267E0,1.291725E-2,3.6699048E-3,-3.5819288E-3,6.75298E-4,5.8018416E-3,6.944588E-5],"split_indices":[237,244,308,193,0,253,0,0,254,412,137,0,0,0,0,0,0],"split_type":[0,0,0,0,0,0,0,0,0,0,0,0,0,0,0,0,0],"sum_hessian":[1.25982E3,6.570293E1,1.1941171E3,5.674984E1,8.953092E0,1.1845276E3,9.589369E0,5.176064E0,5.1573776E1,1.2948032E2,1.0550474E3,5.6010017E0,4.5972775E1,7.960774E1,4.9872574E1,2.3228512E1,1.0318188E3],"tree_param":{"num_deleted":"0","num_feature":"420","num_nodes":"17","size_leaf_vector":"1"}},{"base_weights":[-5.566761E-3,-2.6941097E-1,1.1483819E-2,-1.2293157E-1,-1.1186511E-2,2.721752E-3,6.015305E-1,-2.3854858E-1,4.374357E-3,-7.919778E-2,6.1017524E-2,9.8949516E-1,-2.0686334E-3,-6.6263676E-3,-9.80068E-4,-7.43683E-3,-5.329474E-4,4.901411E-4,1.0539917E-2,1.6270222E-3,1.5657842E-2],"categories":[],"categories_nodes":[],"categories_segments":[],"categories_sizes":[],"default_left":[0,0,0,0,0,0,0,0,0,0,0,0,0,0,0,0,0,0,0,0,0],"id":45,"left_children":[1,3,5,7,-1,9,11,13,-1,15,17,19,-1,-1,-1,-1,-1,-1,-1,-1,-1],"loss_changes":[5.626717E0,9.114723E0,5.9837303E0,4.447884E0,0E0,5.51696E0,5.6980443E0,3.180999E0,0E0,8.11877E0,7.867591E0,5.06227E0,0E0,0E0,0E0,0E0,0E0,0E0,0E0,0E0,0E0],"parents":[2147483647,0,0,1,1,2,2,3,3,5,5,6,6,7,7,9,9,10,10,11,11],"right_children":[2,4,6,8,-1,10,12,14,-1,16,18,20,-1,-1,-1,-1,-1,-1,-1,-1,-1],"split_conditions":[-9.821295E-1,6.3495713E-1,2.729977E0,1.3550339E0,-1.1186511E-2,-3.2279667E-1,5.483887E-1,-4.7378665E-1,4.374357E-3,-1.6467596E0,2.556135E0,-3.5642385E-1,-2.0686334E-3,-6.6263676E-3,-9.80068E-4,-7.43683E-3,-5.329474E-4,4.901411E-4,1.0539917E-2,1.6270222E-3,1.5657842E-2],"split_indices":[13,361,347,406,0,50,82,186,0,183,350,18,0,0,0,0,0,0,0,0,0],"split_type":[0,0,0,0,0,0,0,0,0,0,0,0,0,0,0,0,0,0,0,0,0],"sum_hessian":[1.2424789E3,7.4428024E1,1.1680508E3,6.5043945E1,9.384082E0,1.1526112E3,1.5439633E1,5.4781197E1,1.0262751E1,4.7827167E2,6.7433954E2,1.0289268E1,5.150366E0,1.2071452E1,4.2709743E1,1.6240162E1,4.620315E2,6.6794E2,6.399535E0,5.087428E0,5.201839E0],"tree_param":{"num_deleted":"0","num_feature":"420","num_nodes":"21","size_leaf_vector":"1"}},{"base_weights":[-1.2125625E-2,-5.663825E-1,-3.5314402E-4,1.8932358E-3,-9.62428E-1,7.6858824E-1,-9.661194E-3,-1.0608925E-3,-1.53597E-2,1.526142E-2,1.1273167E-3,7.024689E-1,-1.7576415E-2,-0E0,1.1889945E-2,-3.020445E-4,3.8171955E-3],"categories":[],"categories_nodes":[],"categories_segments":[],"categories_sizes":[],"default_left":[0,0,0,0,0,0,0,0,0,0,0,0,0,0,0,0,0],"id":46,"left_children":[1,3,5,-1,7,9,11,-1,-1,-1,-1,13,15,-1,-1,-1,-1],"loss_changes":[8.118115E0,8.096495E0,8.72812E0,0E0,8.095325E0,6.823763E0,6.80099E0,0E0,0E0,0E0,0E0,4.61602E0,6.0514297E0,0E0,0E0,0E0,0E0],"parents":[2147483647,0,0,1,1,2,2,4,4,5,5,6,6,11,11,12,12],"right_children":[2,4,6,-1,8,10,12,-1,-1,-1,-1,14,16,-1,-1,-1,-1],"split_conditions":[-1.8331257E0,-6.0362816E-1,-1.9045211E0,1.8932358E-3,5.0240237E-1,5.92629E-1,-2.39091E0,-1.0608925E-3,-1.53597E-2,1.526142E-2,1.1273167E-3,4.0849537E-2,1.8295664E0,-0E0,1.1889945E-2,-3.020445E-4,3.8171955E-3],"split_indices":[104,221,19,0,374,414,138,0,0,0,0,90,384,0,0,0,0],"split_type":[0,0,0,0,0,0,0,0,0,0,0,0,0,0,0,0,0],"sum_hessian":[1.2513911E3,2.4380472E1,1.2270106E3,8.565959E0,1.5814512E1,1.308341E1,1.2139272E3,7.126283E0,8.68823E0,5.076666E0,8.006744E0,1.1758527E1,1.2021687E3,5.365378E0,6.3931484E0,1.1669016E3,3.5267166E1],"tree_param":{"num_deleted":"0","num_feature":"420","num_nodes":"17","size_leaf_vector":"1"}},{"base_weights":[1.7677493E-3,2.249354E-2,-3.1621832E-1,6.8297726E-1,1.32994335E-2,-9.038344E-1,-1.1197005E-1,1.27039105E-2,1.7502713E-3,2.2140866E-2,-6.2932104E-1,1.29508E-4,-1.3678863E0,-7.995559E-3,2.8354788E-2,1.5279271E-4,8.573235E-3,-9.452723E-4,-1.1282372E-2,-1.8689608E-2,-5.44602E-3,2.1094007E-3,-4.8704217E-3],"categories":[],"categories_nodes":[],"categories_segments":[],"categories_sizes":[],"default_left":[0,0,0,0,0,0,0,0,0,0,0,0,0,0,0,0,0,0,0,0,0,0,0],"id":47,"left_children":[1,3,5,7,9,11,13,-1,-1,15,17,-1,19,-1,21,-1,-1,-1,-1,-1,-1,-1,-1],"loss_changes":[8.291773E0,7.115838E0,8.9837475E0,4.32489E0,6.6129546E0,8.463632E0,5.798983E0,0E0,0E0,6.5213532E0,3.9304676E0,0E0,3.6120129E0,0E0,4.858662E0,0E0,0E0,0E0,0E0,0E0,0E0,0E0,0E0],"parents":[2147483647,0,0,1,1,2,2,3,3,4,4,5,5,6,6,9,9,10,10,12,12,14,14],"right_children":[2,4,6,8,10,12,14,-1,-1,16,18,-1,20,-1,22,-1,-1,-1,-1,-1,-1,-1,-1],"split_conditions":[1.4877913E0,-2.39091E0,7.626934E-2,-2.2125898E-2,2.588535E0,-5.878475E-1,-7.429201E-1,1.27039105E-2,1.7502713E-3,2.6960723E0,-2.8867978E-1,1.29508E-4,2.0541087E-1,-7.995559E-3,6.625952E-1,1.5279271E-4,8.573235E-3,-9.452723E-4,-1.1282372E-2,-1.8689608E-2,-5.44602E-3,2.1094007E-3,-4.8704217E-3],"split_indices":[326,138,386,116,259,160,13,0,0,36,284,0,135,0,242,0,0,0,0,0,0,0,0],"split_type":[0,0,0,0,0,0,0,0,0,0,0,0,0,0,0,0,0,0,0,0,0,0,0],"sum_hessian":[1.2594758E3,1.1840123E3,7.546353E1,1.4596957E1,1.1694153E3,1.8013079E1,5.745045E1,5.6336207E0,8.963337E0,1.1551266E3,1.4288768E1,6.471187E0,1.1541892E1,8.663832E0,4.878662E1,1.1473475E3,7.7790647E0,7.8542953E0,6.4344726E0,5.9151216E0,5.626771E0,3.6822083E1,1.1964536E1],"tree_param":{"num_deleted":"0","num_feature":"420","num_nodes":"23","size_leaf_vector":"1"}},{"base_weights":[2.5274209E-3,1.6261688E-2,-3.9248538E-1,6.664862E-1,7.974102E-3,5.6216614E-3,-5.7052803E-1,1.2357211E-2,1.5716505E-3,2.561091E-2,-3.1518716E-1,2.3305311E-3,-8.1177366E-1,-4.474269E-3,3.9165473E-4,-1.0389894E-2,-4.4861317E-4,-4.3105586E-3,-1.6790573E-2],"categories":[],"categories_nodes":[],"categories_segments":[],"categories_sizes":[],"default_left":[0,0,0,0,0,0,0,0,0,0,0,0,0,0,0,0,0,0,0],"id":48,"left_children":[1,3,5,7,9,-1,11,-1,-1,13,15,-1,17,-1,-1,-1,-1,-1,-1],"loss_changes":[6.7203746E0,6.411552E0,7.554533E0,3.9124603E0,6.7673573E0,0E0,7.301879E0,0E0,0E0,7.2333164E0,1.1839205E1,0E0,7.963085E0,0E0,0E0,0E0,0E0,0E0,0E0],"parents":[2147483647,0,0,1,1,2,2,3,3,4,4,6,6,9,9,10,10,12,12],"right_children":[2,4,6,8,10,-1,12,-1,-1,14,16,-1,18,-1,-1,-1,-1,-1,-1],"split_conditions":[1.9038479E0,-2.3458838E0,-6.202502E-1,-1.3365959E-2,1.7210964E0,5.6216614E-3,-9.023738E-1,1.2357211E-2,1.5716505E-3,-1.8412445E0,-7.1245974E-1,2.3305311E-3,-1.6262446E-1,-4.474269E-3,3.9165473E-4,-1.0389894E-2,-4.4861317E-4,-4.3105586E-3,-1.6790573E-2],"split_indices":[327,137,310,117,101,0,166,0,0,74,246,0,265,0,0,0,0,0,0],"split_type":[0,0,0,0,0,0,0,0,0,0,0,0,0,0,0,0,0,0,0],"sum_hessian":[1.2424004E3,1.2022892E3,4.0111195E1,1.3480053E1,1.1888092E3,5.707911E0,3.4403282E1,5.2626624E0,8.217391E0,1.1288896E3,5.9919575E1,7.85961E0,2.6543673E1,2.9903463E1,1.0989861E3,1.5033088E1,4.4886486E1,2.008684E1,6.456835E0],"tree_param":{"num_deleted":"0","num_feature":"420","num_nodes":"19","size_leaf_vector":"1"}},{"base_weights":[5.9337164E-3,1.4063677E-1,-3.0969456E-2,6.766756E-1,7.845404E-2,-2.6544112E-1,-2.8897214E-3,1.2770748E0,1.4503235E-1,1.6824616E-1,-2.3767973E-1,-7.654379E-2,-5.222611E-1,3.9644726E-3,-9.485227E-3,1.9416701E-2,4.00593E-3,-2.757974E-3,8.472727E-3,2.0383303E-3,-7.949418E-3,-1.2268828E-3,-9.377389E-3,-6.5666422E-6,-6.7425584E-3,-7.47765E-3,-0E0,2.2167594E-3,-2.5296843E-4],"categories":[],"categories_nodes":[],"categories_segments":[],"categories_sizes":[],"default_left":[0,0,0,0,0,0,0,0,0,0,0,0,0,0,0,0,0,0,0,0,0,0,0,0,0,0,0,0,0],"id":49,"left_children":[1,3,5,7,9,11,13,15,17,19,21,23,25,27,-1,-1,-1,-1,-1,-1,-1,-1,-1,-1,-1,-1,-1,-1,-1],"loss_changes":[6.295951E0,8.926626E0,6.5036573E0,8.503901E0,7.0361814E0,5.0080905E0,5.8548017E0,6.0837517E0,5.3157763E0,6.7894864E0,4.1321993E0,2.7843397E0,5.2259035E0,5.652323E0,0E0,0E0,0E0,0E0,0E0,0E0,0E0,0E0,0E0,0E0,0E0,0E0,0E0,0E0,0E0],"parents":[2147483647,0,0,1,1,2,2,3,3,4,4,5,5,6,6,7,7,8,8,9,9,10,10,11,11,12,12,13,13],"right_children":[2,4,6,8,10,12,14,16,18,20,22,24,26,28,-1,-1,-1,-1,-1,-1,-1,-1,-1,-1,-1,-1,-1,-1,-1],"split_conditions":[-6.979519E-1,-1.1309198E0,-1.0058521E0,1.158375E0,1.5389688E0,1.6840822E-1,2.3010104E0,1.4937314E-1,-1.2669542E-2,2.078587E0,6.395657E-1,6.458963E-1,7.263595E-1,-1.1623845E0,-9.485227E-3,1.9416701E-2,4.00593E-3,-2.757974E-3,8.472727E-3,2.0383303E-3,-7.949418E-3,-1.2268828E-3,-9.377389E-3,-6.5666422E-6,-6.7425584E-3,-7.47765E-3,-0E0,2.2167594E-3,-2.5296843E-4],"split_indices":[76,377,98,303,55,241,42,4,329,331,116,125,293,263,0,0,0,0,0,0,0,0,0,0,0,0,0,0,0],"split_type":[0,0,0,0,0,0,0,0,0,0,0,0,0,0,0,0,0,0,0,0,0,0,0,0,0,0,0,0,0],"sum_hessian":[1.2615233E3,2.709611E2,9.9056226E2,2.645736E1,2.4450374E2,1.0420315E2,8.8635913E2,1.1349158E1,1.5108201E1,1.9121155E2,5.329219E1,6.138756E1,4.281559E1,8.8135876E2,5.000355E0,5.3531055E0,5.9960527E0,9.927478E0,5.1807237E0,1.8563913E2,5.572415E0,4.7410316E1,5.8818727E0,5.5952618E1,5.4349422E0,2.946342E1,1.335217E1,1.0365958E2,7.7769916E2],"tree_param":{"num_deleted":"0","num_feature":"420","num_nodes":"29","size_leaf_vector":"1"}},{"base_weights":[6.5585123E-3,1.2887906E-2,-8.378823E-3,2.092104E-3,4.445012E-1,1.5665708E-2,-4.029695E-1,-2.6426346E-3,6.264677E-1,-8.334652E-4,6.0403947E-4,3.9288326E-4,-8.235678E-3,1.0361838E-2,1.679433E-3],"categories":[],"categories_nodes":[],"categories_segments":[],"categories_sizes":[],"default_left":[0,0,0,0,0,0,0,0,0,0,0,0,0,0,0],"id":50,"left_children":[1,3,-1,5,7,9,11,-1,13,-1,-1,-1,-1,-1,-1],"loss_changes":[6.735902E0,5.84744E0,0E0,6.7646475E0,4.2350726E0,5.308816E0,7.5455384E0,0E0,4.302163E0,0E0,0E0,0E0,0E0,0E0,0E0],"parents":[2147483647,0,0,1,1,3,3,4,4,5,5,6,6,8,8],"right_children":[2,4,-1,6,8,10,12,-1,14,-1,-1,-1,-1,-1,-1],"split_conditions":[2.5373244E0,1.8295664E0,-8.378823E-3,1.9236541E0,-9.396335E-1,-6.016605E-1,1.2966543E0,-2.6426346E-3,3.0229505E-2,-8.334652E-4,6.0403947E-4,3.9288326E-4,-8.235678E-3,1.0361838E-2,1.679433E-3],"split_indices":[407,384,0,326,155,303,352,0,176,0,0,0,0,0,0],"split_type":[0,0,0,0,0,0,0,0,0,0,0,0,0,0,0],"sum_hessian":[1.2711771E3,1.2633037E3,7.8733964E0,1.2341727E3,2.9130999E1,1.1957906E3,3.838205E1,5.7002835E0,2.3430716E1,3.7105728E2,8.247334E2,1.9256268E1,1.912578E1,1.1260778E1,1.2169937E1],"tree_param":{"num_deleted":"0","num_feature":"420","num_nodes":"15","size_leaf_vector":"1"}},{"base_weights":[-3.3018054E-3,1.8510364E-1,-3.527029E-2,1.3271542E-1,1.0599021E-2,-4.308114E-1,-1.9287234E-2,5.932476E-1,5.247435E-2,-9.6054906E-1,-1.5296961E-1,2.6942176E-1,-4.1306958E-2,8.293803E-3,-1.4208831E-3,-8.280047E-4,3.595862E-3,-1.7696077E-2,-6.41051E-4,-4.6713892E-3,3.7627642E-3,1.0588745E-2,1.5635762E-3,-7.164048E-4,1.3005309E-3],"categories":[],"categories_nodes":[],"categories_segments":[],"categories_sizes":[],"default_left":[0,0,0,0,0,0,0,0,0,0,0,0,0,0,0,0,0,0,0,0,0,0,0,0,0],"id":51,"left_children":[1,3,5,7,-1,9,11,13,15,17,19,21,23,-1,-1,-1,-1,-1,-1,-1,-1,-1,-1,-1,-1],"loss_changes":[7.548234E0,7.9973683E0,6.7315392E0,6.2915297E0,0E0,5.7608542E0,6.56722E0,4.6522417E0,6.2785397E0,9.679643E0,5.1048226E0,6.1594687E0,5.0102997E0,0E0,0E0,0E0,0E0,0E0,0E0,0E0,0E0,0E0,0E0,0E0,0E0],"parents":[2147483647,0,0,1,1,2,2,3,3,5,5,6,6,7,7,8,8,9,9,10,10,11,11,12,12],"right_children":[2,4,6,8,-1,10,12,14,16,18,20,22,24,-1,-1,-1,-1,-1,-1,-1,-1,-1,-1,-1,-1],"split_conditions":[-9.539853E-1,4.123327E-1,-1.4356643E0,-7.7515614E-1,1.0599021E-2,-3.7446883E-1,-1.0177871E0,8.3904946E-1,5.527201E-1,-1.0949856E-2,1.1171476E0,-1.1300741E0,1.0798446E0,8.293803E-3,-1.4208831E-3,-8.280047E-4,3.595862E-3,-1.7696077E-2,-6.41051E-4,-4.6713892E-3,3.7627642E-3,1.0588745E-2,1.5635762E-3,-7.164048E-4,1.3005309E-3],"split_indices":[334,250,44,16,0,34,66,115,58,84,184,327,293,0,0,0,0,0,0,0,0,0,0,0,0],"split_type":[0,0,0,0,0,0,0,0,0,0,0,0,0,0,0,0,0,0,0,0,0,0,0,0,0],"sum_hessian":[1.2525891E3,1.8021037E2,1.0723787E3,1.7176587E2,8.444503E0,3.9894722E1,1.032484E3,2.387908E1,1.478868E2,1.2333599E1,2.7561125E1,7.165063E1,9.608333E2,1.8032572E1,5.846508E0,1.0319988E2,4.4686905E1,5.656183E0,6.6774163E0,1.7523724E1,1.0037402E1,7.293383E0,6.435725E1,8.175671E2,1.4326627E2],"tree_param":{"num_deleted":"0","num_feature":"420","num_nodes":"25","size_leaf_vector":"1"}}]},"name":"gbtree"},"learner_model_param":{"base_score":"-1.7708188E-2","boost_from_average":"1","num_class":"0","num_feature":"420","num_target":"1"},"objective":{"name":"reg:pseudohubererror","pseudo_huber_param":{"huber_slope":"1"}}},"version":[2,1,0]}