tree
version=v4
num_class=1
num_tree_per_iteration=1
label_index=0
max_feature_idx=419
objective=huber
feature_names=Column_0 Column_1 Column_2 Column_3 Column_4 Column_5 Column_6 Column_7 Column_8 Column_9 Column_10 Column_11 Column_12 Column_13 Column_14 Column_15 Column_16 Column_17 Column_18 Column_19 Column_20 Column_21 Column_22 Column_23 Column_24 Column_25 Column_26 Column_27 Column_28 Column_29 Column_30 Column_31 Column_32 Column_33 Column_34 Column_35 Column_36 Column_37 Column_38 Column_39 Column_40 Column_41 Column_42 Column_43 Column_44 Column_45 Column_46 Column_47 Column_48 Column_49 Column_50 Column_51 Column_52 Column_53 Column_54 Column_55 Column_56 Column_57 Column_58 Column_59 Column_60 Column_61 Column_62 Column_63 Column_64 Column_65 Column_66 Column_67 Column_68 Column_69 Column_70 Column_71 Column_72 Column_73 Column_74 Column_75 Column_76 Column_77 Column_78 Column_79 Column_80 Column_81 Column_82 Column_83 Column_84 Column_85 Column_86 Column_87 Column_88 Column_89 Column_90 Column_91 Column_92 Column_93 Column_94 Column_95 Column_96 Column_97 Column_98 Column_99 Column_100 Column_101 Column_102 Column_103 Column_104 Column_105 Column_106 Column_107 Column_108 Column_109 Column_110 Column_111 Column_112 Column_113 Column_114 Column_115 Column_116 Column_117 Column_118 Column_119 Column_120 Column_121 Column_122 Column_123 Column_124 Column_125 Column_126 Column_127 Column_128 Column_129 Column_130 Column_131 Column_132 Column_133 Column_134 Column_135 Column_136 Column_137 Column_138 Column_139 Column_140 Column_141 Column_142 Column_143 Column_144 Column_145 Column_146 Column_147 Column_148 Column_149 Column_150 Column_151 Column_152 Column_153 Column_154 Column_155 Column_156 Column_157 Column_158 Column_159 Column_160 Column_161 Column_162 Column_163 Column_164 Column_165 Column_166 Column_167 Column_168 Column_169 Column_170 Column_171 Column_172 Column_173 Column_174 Column_175 Column_176 Column_177 Column_178 Column_179 Column_180 Column_181 Column_182 Column_183 Column_184 Column_185 Column_186 Column_187 Column_188 Column_189 Column_190 Column_191 Column_192 Column_193 Column_194 Column_195 Column_196 Column_197 Column_198 Column_199 Column_200 Column_201 Column_202 Column_203 Column_204 Column_205 Column_206 Column_207 Column_208 Column_209 Column_210 Column_211 Column_212 Column_213 Column_214 Column_215 Column_216 Column_217 Column_218 Column_219 Column_220 Column_221 Column_222 Column_223 Column_224 Column_225 Column_226 Column_227 Column_228 Column_229 Column_230 Column_231 Column_232 Column_233 Column_234 Column_235 Column_236 Column_237 Column_238 Column_239 Column_240 Column_241 Column_242 Column_243 Column_244 Column_245 Column_246 Column_247 Column_248 Column_249 Column_250 Column_251 Column_252 Column_253 Column_254 Column_255 Column_256 Column_257 Column_258 Column_259 Column_260 Column_261 Column_262 Column_263 Column_264 Column_265 Column_266 Column_267 Column_268 Column_269 Column_270 Column_271 Column_272 Column_273 Column_274 Column_275 Column_276 Column_277 Column_278 Column_279 Column_280 Column_281 Column_282 Column_283 Column_284 Column_285 Column_286 Column_287 Column_288 Column_289 Column_290 Column_291 Column_292 Column_293 Column_294 Column_295 Column_296 Column_297 Column_298 Column_299 Column_300 Column_301 Column_302 Column_303 Column_304 Column_305 Column_306 Column_307 Column_308 Column_309 Column_310 Column_311 Column_312 Column_313 Column_314 Column_315 Column_316 Column_317 Column_318 Column_319 Column_320 Column_321 Column_322 Column_323 Column_324 Column_325 Column_326 Column_327 Column_328 Column_329 Column_330 Column_331 Column_332 Column_333 Column_334 Column_335 Column_336 Column_337 Column_338 Column_339 Column_340 Column_341 Column_342 Column_343 Column_344 Column_345 Column_346 Column_347 Column_348 Column_349 Column_350 Column_351 Column_352 Column_353 Column_354 Column_355 Column_356 Column_357 Column_358 Column_359 Column_360 Column_361 Column_362 Column_363 Column_364 Column_365 Column_366 Column_367 Column_368 Column_369 Column_370 Column_371 Column_372 Column_373 Column_374 Column_375 Column_376 Column_377 Column_378 Column_379 Column_380 Column_381 Column_382 Column_383 Column_384 Column_385 Column_386 Column_387 Column_388 Column_389 Column_390 Column_391 Column_392 Column_393 Column_394 Column_395 Column_396 Column_397 Column_398 Column_399 Column_400 Column_401 Column_402 Column_403 Column_404 Column_405 Column_406 Column_407 Column_408 Column_409 Column_410 Column_411 Column_412 Column_413 Column_414 Column_415 Column_416 Column_417 Column_418 Column_419
feature_infos=[-1.5193818529098166:2.5548324429009566] [-2.2860430699123269:2.2249142405080309] [-2.9676880982875171:3.0432334606847093] [-2.9400732973365775:3.1116188305657282] [-3.1074969518431375:3.0298263611084031] [-1.2053643519318546:4.2468184652761645] [-2.1770966757773929:1.930298556557331] [-1.6969995748784656:3.1434217154184707] [-1.922202230435343:2.4755961191027045] [-1.7373535100096507:2.9243161221793477] [-2.7428832603565332:2.7872875079277213] [-2.7966998206079965:2.9118860928985502] [-2.8526449206616222:2.8567236680906514] [-1.1727257907211524:5.2091458610365082] [-1.2943240412912322:3.8500211049102138] [-2.5020481615002379:2.8558551191256822] [-1.4424835052490146:3.7005433202016969] [-1.5636239980192626:3.6662215028782099] [-2.9777496686457039:2.56713439401218] [-2.996439560961309:2.6356335704332783] [-2.6228163695166704:2.4522093387749351] [-1.5206987491789279:2.5545496825316651] [-2.2842606932186902:2.224318096513672] [-2.965611216784513:3.0423842298449015] [-2.9389260875365832:3.1113931525058862] [-3.1051125976483882:3.0286297182737276] [-1.2061765456099047:4.2467242941565342] [-2.1772948271199732:1.9303812584428697] [-1.6972359719537049:3.1428698776803037] [-1.9218833618257574:2.4754166329538316] [-1.7366645488198478:2.922138399053444] [-2.7419343402750584:2.7873080359177638] [-2.7966770028922143:2.911881440866269] [-2.8526217872624513:2.8567193930814905] [-1.1726460158317031:5.2096476995335186] [-1.2942753516912266:3.850089820460787] [-2.502232605210982:2.8558346918357449] [-1.4413797085862863:3.7002757133080078] [-1.5634352387045201:3.6662074693698723] [-2.9779621646077197:2.5672080156340469] [-2.9951242907834836:2.6351783473831394] [-2.6204277222823356:2.4512840423213587] [-1.5219985395088893:2.5542578023971467] [-2.2823277777664241:2.2238037354690574] [-2.9633678942195072:3.0414085120323637] [-2.9375435868782214:3.1110111662827764] [-3.1031121846433596:3.0276891430387982] [-1.2069786791149064:4.2466285854365466] [-2.1766622952166852:1.9302012534913737] [-1.6974637765070666:3.141888975221574] [-1.9216684401655879:2.4752814791452971] [-1.7357012847110866:2.9192824558993533] [-2.7412394625647982:2.7874873069549753] [-2.7966027871839829:2.9123987240961005] [-2.8525573758553331:2.8572356878328242] [-1.1730833190256411:5.2100498090430083] [-1.2944656589407724:3.8498365106722718] [-2.5025969891460003:2.856994310322964] [-1.4403854959167017:3.6997238822839646] [-1.5632938016569613:3.6661821707232209] [-2.9774491687912104:2.567271542087298] [-2.9942491849366877:2.6349923886576683] [-2.6183928015594562:2.450493609276724] [-1.5233129308657771:2.5539262000543119] [-2.2812088219182627:2.2235433281939478] [-2.9611820102675424:3.0404460229822621] [-2.9359671649199681:3.1104880178485921] [-3.1018984699210481:3.0272079173837874] [-1.2077300177846984:4.2466128302077992] [-2.1770672730796519:1.9303354295692932] [-1.6976565985801828:3.1407661304810297] [-1.9221506913920565:2.4755077610374059] [-1.7354485015934411:2.9183248832241109] [-2.7412023157595118:2.7871234364540234] [-2.7971406099184573:2.9118381192786407] [-2.85308880074022:2.856668784377161] [-1.1726400050098682:5.2106304176878773] [-1.2946469160812319:3.8498371798286639] [-2.5034371033758878:2.856769329008412] [-1.4401977465159723:3.6995657560513471] [-1.5632019213381454:3.6661779477005645] [-2.978171737459864:2.5673450377946763] [-2.993494861338839:2.6347967324789949] [-2.6168349465409513:2.4498794523012566] [-1.5246295910108576:2.5536395843716688] [-2.2797600189627638:2.2231643334529241] [-2.9589682175748995:3.0394479271453991] [-2.9342210324916658:3.1098349004431411] [-3.1010387061006721:3.0269179035338243] [-1.208458055043603:4.2466036966172931] [-2.1769890204158617:1.9303120717900446] [-1.6978153166883143:3.1396307329034676] [-1.9226651737213309:2.47574215598519] [-1.7354261566260183:2.9182205502064242] [-2.7412039712300089:2.7869588354774399] [-2.7966319732073801:2.9119349342386593] [-2.8525793909833128:2.8567753395207411] [-1.1730229714966116:5.2110347313147738] [-1.2951410348014436:3.8499841509950499] [-2.5029955992600579:2.8569796267311856] [-1.4401455429950654:3.6995216100116295] [-1.5630838527059214:3.666167184378327] [-2.9783325744604618:2.5673251484509403] [-2.9924491396125492:2.6344497995996665] [-2.6154507103351889:2.4493646248870835] [-1.5259649052364546:2.5533507768102224] [-2.2787232364307308:2.2228534490939369] [-2.9568331568780106:3.0384773209430089] [-2.9323481432445133:3.1090755537721155] [-3.100601565981421:3.026806642554714] [-1.209121288808491:4.246600745204355] [-2.1777036785424317:1.9305607941330756] [-1.6979362168016503:3.1384777740844276] [-1.9232003924130237:2.4760006357290969] [-1.7354444889441101:2.9183016750494684] [-2.7412130193640274:2.7866766842933801] [-2.7972032276069601:2.9118095803902455] [-2.853151414557916:2.8566393536886006] [-1.1731915130157962:5.2110178676050181] [-1.2957196567499074:3.8505487979679369] [-2.5029811497684413:2.8569772624974266] [-1.4400863650602482:3.6994738761964223] [-1.5629839712328488:3.6661605727229691] [-2.9785635220806888:2.5672953295260279] [-2.9922522002704115:2.6343671516900127] [-2.6142259553179237:2.4489369294313268] [-1.5272906723850832:2.5530522596581502] [-2.2775920320422194:2.2225790768650553] [-2.9547987925058958:3.0375620437220445] [-2.9303915976354133:3.1082393900916561] [-3.1004362433360759:3.0267859619659361] [-1.2097547865880658:4.2465906107548159] [-2.1779338216181037:1.9306190542506638] [-1.6980648001018055:3.1375713298804131] [-1.9239518445177439:2.4762931016541616] [-1.7355282681264257:2.9188618369502484] [-2.7412168931616137:2.7864244925672592] [-2.7971305488578246:2.9120198856964441] [-2.8530831858923209:2.8568507916907864] [-1.173274948114098:5.2096755081708883] [-1.296655047140107:3.8510582545849164] [-2.5028623215614259:2.8572602886100475] [-1.4398915066311673:3.6993062100634129] [-1.5628423599870487:3.6661443499705264] [-2.9786345533658891:2.5672272350027883] [-2.992499437339371:2.6344201749492364] [-2.6133315881537107:2.4486933208745989] [-1.528612960479089:2.5527231772269272] [-2.2767812796478197:2.2224561448909643] [-2.9529476454441479:3.0367596642319192] [-2.9284066513799352:3.1073660010551829] [-3.1004953538566462:3.0267792456459492] [-1.2103328129441062:4.2467290041031234] [-2.1782006495011026:1.9306651479210153] [-1.6982232307976239:3.1368080477827083] [-1.9239103204798691:2.476286136983552] [-1.7356016624963888:2.9181567317599217] [-2.7412041785947245:2.7860815770236966] [-2.7971932339135281:2.9118152079179467] [-2.8531415558847186:2.8566452309685499] [-1.1722535473631259:5.1977621891307821] [-1.2964612212387669:3.8472170188006549] [-2.5028259495526912:2.8565930792704819] [-1.4399122565272517:3.6993265614438524] [-1.5626034855348045:3.6660655837770966] [-2.9789094359212074:2.5670049720005435] [-2.9924672113874684:2.6344275852850192] [-2.6122633856370445:2.4483186190695436] [-1.5298355461934863:2.5519036927287266] [-2.2767329850655962:2.221737326059908] [-2.9520375719183725:3.0365205782759959] [-2.9266345736189017:3.1066240016067082] [-3.1003438102099632:3.0256187811899888] [-1.210985379557153:4.247101163794162] [-2.1781241194299303:1.9292569702465416] [-1.6984051979881294:3.136201204240201] [-1.9242700218456759:2.4760808973256228] [-1.7356764147397261:2.9178816880127934] [-2.7393221308243874:2.7825775762594529] [-2.7935974507009971:2.9061183915512521] [-2.849612939511402:2.8512450269547793] [-1.1724996022768326:5.1975863890238303] [-1.294530714468326:3.8345052211043043] [-2.4998408794756197:2.8511257957897116] [-1.4394118982857256:3.692762415805944] [-1.562844923504322:3.6645269899065815] [-2.9769658888450015:2.5638431040514291] [-2.9921749613190292:2.6327433114163363] [-2.6125392521925357:2.4483486429221646] [-1.5310335364556542:2.5510296503439061] [-2.2765796965166438:2.2210444472379134] [-2.9516904342110024:3.0365226122547648] [-2.9252081769582872:3.1060992702325505] [-3.0988771202119012:3.0225750951715495] [-1.2116732156055476:4.2473985468262079] [-2.1777462171167583:1.9279586769365682] [-1.6985354441983416:3.1358765790912821] [-1.9249894829581469:2.4758711175892847] [-1.7356798750789224:2.9178732493847437] [-2.737286106317447:2.7789066771892807] [-2.7936138290244386:2.9062768072850775] [-2.8496321741071577:2.8514020083985367] [-1.171816516771627:5.1965988081335617] [-1.2946923162067363:3.8345412600039634] [-2.4998603054685336:2.8512682234802824] [-1.4391297844877406:3.6872724978622111] [-1.5633779541619104:3.6634745215469255] [-2.9740454809285195:2.5596630858405209] [-2.9912117952558761:2.6305994069007923] [-2.612628504729348:2.4482547915533339] [-1.5322073868323778:2.5500368589354436] [-2.2762588730956845:2.2199346510965339] [-2.9516843270001476:3.0365260329836561] [-2.9241932379868749:3.1058151690017226] [-3.0956782985050113:3.0173378798463508] [-1.212425060236958:4.2474327485178893] [-2.1772900660351895:1.926434325130544] [-1.6986279532468105:3.1357029066344464] [-1.9255760478442043:2.4752534004380928] [-1.7354531991391988:2.9180565833075014] [-2.7350052430857574:2.7748762065547323] [-2.793482815559686:2.9051877057603024] [-2.8494852506017927:2.8503269396564308] [-1.1722670914543831:5.1960171165020483] [-1.2952041534119212:3.8344576007354241] [-2.4996388604939268:2.8499151017409345] [-1.4393697490361104:3.6827447587734716] [-1.5639207181960899:3.6625014227293518] [-2.9711614479160735:2.5556881600196597] [-2.9896706796164314:2.6278187232050887] [-2.6127445091170736:2.4477719791589272] [-1.5334191324267432:2.5491321626852543] [-2.2762404114300989:2.2190488781139357] [-2.9517842541299268:3.036390875887192] [-2.9235494675316027:3.1057140794816562] [-3.0919149289515508:3.0113925844625622] [-1.2131928368569034:4.2472574645954069] [-2.1774723455931579:1.9252858086178615] [-1.6987690971076537:3.1355712091643504] [-1.9259673434604745:2.4743651411885428] [-1.735436779686965:2.9180558700834767] [-2.733765870954834:2.7722497530102759] [-2.7935493076880151:2.9052087171729677] [-2.8495530360438273:2.8503470390102423] [-1.1717845754576537:5.195560236377383] [-1.2951879971312097:3.8344750703931161] [-2.4984390268788768:2.8494850641493223] [-1.4389874574069366:3.6768859233457891] [-1.5644295006507842:3.6614742019317457] [-2.9683040610607518:2.5514177136921918] [-2.9882131022659255:2.6250974667806077] [-2.6129645604782921:2.4474962019696398] [-1.5346354800979916:2.5482370983390199] [-2.2762462599884272:2.218187657775105] [-2.951896520718142:3.0360796236941439] [-2.9232019813239183:3.1057174342582998] [-3.0882318479036384:3.0055407813150601] [-1.2139672283830409:4.2468290979154215] [-2.1777469682213204:1.9243346693588836] [-1.6989804999285922:3.1354746208600468] [-1.9262788494768779:2.4734017132334656] [-1.7351027831703776:2.9179712069102148] [-2.7330553138106355:2.7704331819304668] [-2.793545512342634:2.9052110846198995] [-2.8495492883189866:2.85034949227021] [-1.1720900278637989:5.1959541256570105] [-1.2949432703915404:3.8342714220407133] [-2.4984670933835944:2.8494741983021554] [-1.438492424284108:3.6706179066650719] [-1.5649579222583574:3.6606130420511573] [-2.9656405187091757:2.5473362776482533] [-2.986855587198832:2.6223096296759709] [-2.6131811870656736:2.4469942969808582] [-1.535816377882451:2.5471930768431084] [-2.2760246735622229:2.216853464291328] [-2.9519360516339122:3.0354577631200335] [-2.92308715310274:3.1057480067362309] [-3.0841509926410122:2.9992046143049529] [-1.2147304834521748:4.2459521117632901] [-2.1778525999379479:1.9231298596022528] [-1.6992174814139231:3.135402069748483] [-1.9266743014825165:2.4721536947204235] [-1.7345306602688171:2.9179035068342545] [-2.7321275864640127:2.7682600387676568] [-2.7931774789081105:2.9038117354865207] [-2.8491645682577778:2.8489769718195537] [-1.1718653601165965:5.196415694200839] [-1.295258854857368:3.8335876143911061] [-2.4982461128454223:2.8488894346871185] [-1.4390077414899851:3.6709771052504134] [-1.5654792491121192:3.6596714358876645] [-2.9656481569455426:2.5466259986073583] [-2.9850476328683024:2.6191449692265314] [-2.6133352452859895:2.4463627531344372] [-1.5369869047451759:2.5461704215096219] [-2.2757934656455663:2.2159494411819045] [-2.9518647731129186:3.0345850522035023] [-2.9231180234955199:3.1057273236636807] [-3.0804774472376666:2.9934212908997142] [-1.215479213382062:4.2447004981723149] [-2.177729627804657:1.9224014671985836] [-1.6995330479415849:3.1353637282748905] [-1.9267761109644341:2.4707915402804193] [-1.7339781738616176:2.917792868583438] [-2.7316785835101638:2.7669570010950895] [-2.7929692840440734:2.904406535746582] [-2.8489670502029618:2.8495731645770732] [-1.1722333470604507:5.1967206699283652] [-1.295534457942132:3.8338369080872905] [-2.4978829369859969:2.8493444191102149] [-1.4394973175318995:3.6712334277019094] [-1.5659727613499776:3.6586903920321947] [-2.9657388298463689:2.5462476024166869] [-2.9829937295825664:2.6158093402230151] [-2.6134814026596804:2.4458490948441054] [-1.5381660571827982:2.5451572743112965] [-2.2755931191917993:2.2149689402838533] [-2.9516922173905837:3.0335055564387741] [-2.9232181105828117:3.1055927216469938] [-3.0774882095567588:2.9885084340966572] [-1.2163216212917316:4.2432611893353442] [-2.1776714612863652:1.9217667935451093] [-1.6999500183462932:3.1353948251536217] [-1.9268452855345561:2.469350982598284] [-1.7336993561716854:2.9176390697301038] [-2.7314880938212349:2.7661261237698342] [-2.7930798749768559:2.9043608823793172] [-2.8490768928347063:2.8495250773587757] [-1.172981265865926:5.2067367891214955] [-1.2951289575767857:3.8337836922655946] [-2.4984314061115724:2.8491720392877355] [-1.4398364717219383:3.6714702619312312] [-1.566614476053374:3.6578340428729397] [-2.9658310031643542:2.546173873965639] [-2.9811162921030081:2.6127889083849745] [-2.6138615127674809:2.4452956298679158] [-1.5393390606377833:2.5442110809402907] [-2.2755724916594628:2.2148832974505166] [-2.951483097570935:3.0323986435286239] [-2.9233257311368344:3.1053183208623305] [-3.0755933610035577:2.9850868110930571] [-1.2171826461221265:4.2417046492591242] [-2.178072567251371:1.9227011891609975] [-1.7004750284933867:3.1355113078403902] [-1.9266904013825965:2.4678260691718306] [-1.7333080603527904:2.9173895135210008] [-2.7314842983924588:2.7659823902656675] [-2.7925520609619854:2.905202591129469] [-2.8485564962336074:2.8503670411722766] [-1.1730799857986209:5.2068634428370109] [-1.2944948796620852:3.8346882913066977] [-2.4987852060676912:2.8512911476285057] [-1.4401738671883977:3.671673895471657] [-1.5672118550310745:3.6572796435466199] [-2.9657863681015844:2.546535188608416] [-2.9797396616609433:2.6105254540075968] [-2.6138688364445666:2.4443980519673607] [-1.5404971109868943:2.5432343259494381] [-2.2755784053415851:2.2149020755551585] [-2.9512365896937927:3.0312657789817852] [-2.9234045643791582:3.1048977900083115] [-3.0743899332795857:2.9826829711948686] [-1.2179504070577136:4.2399113584012973] [-2.1785639045255816:1.9238079125539072] [-1.7010634527242865:3.1356382630767605] [-1.9266316983642182:2.4674969136484419] [-1.7330749680013371:2.9172409096675525] [-2.7314846862420454:2.7659712660028868] [-2.7925340007368447:2.9053078038476214] [-2.8485406219552245:2.8504723224722137] [-1.1727797662179049:5.2085816225805033] [-1.2939951704162413:3.8356440950906165] [-2.4987926795781279:2.8510388632339421] [-1.4405726243991646:3.6719342002232547] [-1.5681036629614291:3.6570482731105676] [-2.9658372311440386:2.5470260520395733] [-2.9784839856626761:2.6084796156759538] [-2.6135988578009712:2.4434674668737966] [-1.5416573485230434:2.542251186635013] [-2.2755454153053591:2.2147930542890597] [-2.9509674841916969:3.0301194898790396] [-2.9234365280750207:3.1043371626595104] [-3.0736637205452375:2.9810123789402945] [-1.2187079285630273:4.2381143471872891] [-2.1789291819292829:1.9247269903591004] [-1.7017403808741787:3.1357371224109776] [-1.9264764707567483:2.4668208204367645] [-1.7326600684779181:2.9169533923648627] [-2.73147598934136:2.7660216147045458] [-2.7926222579803492:2.905235641657185] [-2.8486273631636108:2.8503981727963077] [-1.1732788367177702:5.2093302206698127] [-1.2941615546374499:3.835770509540255] [-2.4988754083285492:2.8510340479444345] [-1.4403420537135014:3.6716928164699754] [-1.5693003654989683:3.6572249861169808] [-2.9655913152716953:2.5475811004832725] [-2.9784831915050178:2.6085175349816394] [-2.6133208832163484:2.4421492988950955] [-1.5428162656963729:2.5413157273579428] [-2.2756979451473662:2.2153094708505865] [-2.9507267893114948:3.0290719678809754] [-2.923419258601113:3.1036672937153118] [-3.0733728958114739:2.9801203460125212] [-1.2193858369255934:4.2363755785381114] [-2.1795108655889273:1.9261469172163799] [-1.7024580816885071:3.1358077089827772] [-1.9263453920956515:2.4662928169511473] [-1.7326874910467194:2.9169716305232796] [-2.7308523174324706:2.7662279756525487] [-2.7921909791497805:2.9056533702150165] [-2.8482024320051917:2.8508229791125506] [-1.1726958774219267:5.2086779318267933] [-1.2938637576236127:3.8360700853688363] [-2.4986670786626259:2.851779988191562] [-1.440208348887092:3.671553935437867] [-1.5706082899729705:3.6575319360117451] [-2.9652464310395663:2.5480709147585534] [-2.9784293742008003:2.6087048527953653] [-2.6129546684385043:2.4410097617326034]
tree_sizes=2917 2910 2862 2928 2892 2929 2900 2929 2945 2936 2919 2870 2897 2918 2920 2933 2916 2906 2913 2938 2928 2924 2892

Tree=0
num_leaves=31
num_cat=0
split_feature=161 333 385 136 105 76 388 36 244 153 134 300 125 244 392 346 34 246 139 246 163 76 389 309 277 43 320 6 205 289
split_gain=5.85989 6.96664 5.83888 5.56488 5.07206 5.04375 6.104 5.2516 4.77693 4.57282 5.40628 4.48672 4.42027 4.0995 4.08316 4.04002 4.01759 4.50628 3.86716 3.78093 3.75673 4.16118 3.53316 4.25811 3.83844 3.51681 3.48468 3.42694 3.62425 3.35577
threshold=1.9468995909471534 0.31698527858108044 1.3133604939990342 0.67066146652641978 -0.34942603122713267 1.0000000180025095e-35 0.31298989442427455 -0.36269532994138159 0.79847934158487344 -0.87751083682611708 0.05437013422338214 0.59353665725197857 0.53965891595424531 -0.35686195359795764 -0.098822222742238924 0.047663827889172707 -0.407599527791006 -0.11609556963716176 -0.064020159988555828 -0.44626745488854425 -0.97324557397798583 0.31466167617912527 0.37791637579482323 0.25997587344464362 0.06797484558381657 0.45729575658020433 0.68272906052373594 -0.064378148770003293 -0.2292914095447576 0.59746528195166237
decision_type=2 2 2 2 2 2 2 2 2 2 2 2 2 2 2 2 2 2 2 2 2 2 2 2 2 2 2 2 2 2
left_child=1 3 26 5 25 7 -7 11 13 -8 -11 -1 14 16 22 -15 17 -9 -18 -14 -16 27 23 24 -3 -5 -2 28 -22 -21
right_child=2 12 -4 4 -6 6 9 8 -10 10 -12 -13 19 15 20 -17 18 -19 -20 29 21 -23 -24 -25 -26 -27 -28 -29 -30 -31
leaf_value=-0.000631679686646754 0.001499428799899553 0.00058535317328241743 -0.0012883717790830166 0.002459943401763138 -0.001438902199818075 -0.0012056754277265317 -0.0012598603798314126 0.0014778635791345596 -0.00092421832088945084 0.005088426493657241 0.00016932665497276659 0.0029624594140713434 0.00047124422056346859 0.004113199378167399 -0.0046492630502464518 0.0010871571271024501 0.0036963328867049153 -0.0029534652408060185 7.5329281339467493e-05 -0.0037656456521365077 0.00094849362016712351 -0.0035531847009437375 0.0017597656396099151 0.00060306765911580988 -0.0028874665144771098 -0.001467779637880789 0.0054951264728866607 0.0014784168227517966 -0.0026880278074422263 4.5576390857928999e-11
leaf_weight=223 62 44 38 66 302 266 41 46 58 44 48 39 36 133 32 76 70 41 55 116 40 48 96 173 92 31 39 67 71 30
leaf_count=223 62 44 38 66 302 266 41 46 58 44 48 39 36 133 32 76 70 41 55 116 40 48 96 173 92 31 39 67 71 30
internal_value=-6.49278e-05 -0.000183852 0.00191297 0.000214134 -0.000794481 0.0005723 -0.000323594 0.00106101 0.0016819 0.00139526 0.00263334 -5.93451e-05 -0.000913402 0.00205543 -0.000521225 0.00305725 0.00102508 -0.000573725 0.00216874 -0.00229368 -0.00150043 -0.00099578 9.45903e-05 -0.000414658 -0.00173548 0.00114989 0.00316761 -0.000246547 -0.00133973 -0.00300638
internal_weight=2523 2384 139 1539 399 1140 399 741 479 133 92 262 845 421 663 209 212 87 125 182 258 226 405 309 136 97 101 178 111 146
internal_count=2523 2384 139 1539 399 1140 399 741 479 133 92 262 845 421 663 209 212 87 125 182 258 226 405 309 136 97 101 178 111 146
is_linear=0
shrinkage=1


Tree=1
num_leaves=31
num_cat=0
split_feature=161 330 385 136 7 321 113 92 350 29 330 287 410 396 2 350 327 98 392 186 362 225 28 67 61 16 264 322 182 205
split_gain=5.80954 6.22534 5.78473 4.88905 5.35268 4.96368 4.93313 5.82902 4.63502 4.5935 4.54794 4.34637 5.43584 5.27023 6.14938 4.3653 4.10647 3.8948 3.61937 3.64949 3.58474 3.51666 3.49185 3.4315 4.39172 3.62915 3.61639 3.28742 3.24103 3.43853
threshold=1.9468995909471534 1.5876090732879575 1.3133604939990342 0.67066146652641978 1.7508262680205537 0.99955864287485452 -1.3628187473257134 -1.0353198860792339 0.58349376311678436 -0.5640164727425897 -1.0630981951638441 -0.28119484881907214 0.85699014726011113 -0.90425774793230695 0.45665139920306214 -0.67879662504068572 0.61442695258333602 0.42414665454930928 -0.48112677369845175 -0.62971397979330812 0.25785899154646003 0.14675921020189595 0.8256346350059679 -0.59552269587788986 0.083664447974922548 0.22129793527695554 -0.079308023046720924 -0.64106570920617789 -0.10015338797832772 -0.23822173726375831
decision_type=2 2 2 2 2 2 2 2 2 2 2 2 2 2 2 2 2 2 2 2 2 2 2 2 2 2 2 2 2 2
left_child=1 3 20 4 5 6 -1 -8 10 -10 -9 15 13 -13 -15 -5 18 -18 -12 -20 -2 -7 27 -21 26 -26 -25 -11 29 -17
right_child=2 -3 -4 11 -6 21 7 8 9 22 16 12 -14 14 -16 28 17 -19 19 23 -22 -23 -24 24 25 -27 -28 -29 -30 -31
leaf_value=-0.0014542333762949348 0.0013379797348752618 -0.0022691073599788877 -0.0012806416184175759 3.2653131427901704e-05 0.0025050615149181492 0 0.002585195925235748 0.0027256987299567655 -0.0044237557297353361 -0.0016657721279905394 0.00090196258331306514 0.0033238065698080596 -0.0032590208724088206 0.00070917293522062056 -0.0035525197332161801 -0.0017363845104617732 0.0031553727502900628 -0.00054300384642556312 -0.0021778792802591472 0.002936253945077104 0.0053246828425261702 -0.0022193067165990842 -0.0032894848761233415 -0.0043658685027621689 0.0018278808701628199 -0.0015842343407372634 -0.00037789980156554116 0.0014655502350322661 -0.00091127884900886697 -0.0055548721013058515
leaf_weight=136 58 133 38 85 94 133 123 90 32 50 274 52 42 155 41 54 87 38 104 33 43 143 31 38 94 43 61 90 74 54
leaf_count=136 58 133 38 85 94 133 123 90 32 50 274 52 42 155 41 54 87 38 104 33 43 143 31 38 94 43 61 90 74 54
internal_value=-6.39616e-05 -0.000182383 0.00190542 -5.49656e-05 0.000210035 6.91217e-05 0.000326687 0.000536866 0.00029121 -0.00105244 0.000615129 -0.000867721 -1.12863e-06 0.000552269 -0.00018393 -0.00178337 0.000356211 0.00200085 2.55762e-05 -0.000606247 0.00315427 -0.00114192 -0.000348801 0 -0.000417044 0.000713568 -0.00201428 0.000304299 -0.00264982 -0.00375737
internal_weight=2523 2384 139 2251 1694 1600 1324 1188 1065 203 862 557 290 248 196 267 772 125 647 373 101 276 171 269 236 137 99 140 182 108
internal_count=2523 2384 139 2251 1694 1600 1324 1188 1065 203 862 557 290 248 196 267 772 125 647 373 101 276 171 269 236 137 99 140 182 108
is_linear=0
shrinkage=0.01


Tree=2
num_leaves=31
num_cat=0
split_feature=333 124 136 399 118 76 36 56 220 77 266 28 223 13 300 57 124 223 139 223 328 236 350 11 307 246 391 305 314 261
split_gain=5.73405 5.57149 5.50353 6.1141 4.57323 4.46011 5.0449 4.68407 4.21668 4.0923 6.07416 4.02059 3.99173 4.23635 4.9137 3.99056 4.04182 4.88928 3.82637 3.61706 4.72371 3.59107 3.55297 3.53721 3.40551 3.32794 3.22608 3.17916 3.08363 4.19144
threshold=0.31698527858108044 -1.4252983625758808 0.70075370995319164 0.0071774326999620277 -0.14121142586201904 1.0000000180025095e-35 -0.36269532994138159 0.48528390797601084 -0.52376787862187213 -0.48966821111943543 1.0000000180025095e-35 -0.41147929638255903 -0.87517654644166532 0.43457659113434638 0.59353665725197857 -0.35343448675320266 0.099000296157354881 -0.37597325550708821 -0.18599484823140597 0.028997213889155434 -0.59244539360607085 0.06294220001961276 0.74227291175454635 0.80310856951901377 0.67220378926757418 0.070035430482238634 -0.59154569520959055 0.39587985710256751 0.27248452453396405 0.95833184177976793
decision_type=2 2 2 2 2 2 2 2 2 2 2 2 2 2 2 2 2 2 2 2 2 2 2 2 2 2 2 2 2 2
left_child=2 -2 5 19 22 6 12 24 25 10 -5 -6 -1 14 -14 18 -17 -18 -13 20 -4 -21 23 28 -7 -8 -11 -25 29 -3
right_child=1 4 3 9 11 7 8 -9 -10 26 -12 15 13 -15 -16 16 17 -19 -20 21 -22 -23 -24 27 -26 -27 -28 -29 -30 -31
leaf_value=-0.0031231472810678597 0.0018339017284317658 0.00056455273043226313 0.0027912902888475046 -0.0022567292891363514 -0.0015665664379826169 -0.00024360464659000104 0.0038549736163914815 0.0023360127559111966 0.00095915165566358516 0 0.0033914103521965446 -0.0029834401593341127 -0.00092669007391117772 0.0029859887024101155 0.0031814814944352422 0.003295574625954032 0.0027208566564965891 -0.0022105886609378187 0.0014673188130109338 0 -0.001634770730595993 0.004914284794940613 -0.003434131773424217 -0.0014264029229858091 -0.0031527600544405746 0.00080647325967667539 -0.0036747861617001366 0.0025700731392399494 -0.0025240382140386593 -0.002871178037334735
leaf_weight=34 76 106 31 45 114 323 120 60 337 33 30 44 167 50 33 74 35 42 30 31 85 30 85 33 45 59 108 42 171 50
leaf_count=34 76 106 31 45 114 323 120 60 337 33 30 44 167 50 33 74 35 42 30 31 85 30 85 33 45 59 108 42 171 50
internal_value=-6.33545e-05 -0.000703197 0.000290031 -0.000731632 -0.00094654 0.000621719 0.00106264 -0.000191903 0.00164991 -0.00185928 0 -3.85228e-05 0 0.000436558 -0.000199301 0.000720641 0.00165928 0 -0.00112216 0.000621945 -0.000382309 0.00256255 -0.00156564 -0.00114314 -0.000627976 0.0028978 -0.00285162 0.000755313 -0.00159571 -0.000527402
internal_weight=2523 902 1621 393 826 1228 800 428 516 216 75 339 284 250 200 225 151 77 74 177 116 61 487 402 368 179 141 75 327 156
internal_count=2523 902 1621 393 826 1228 800 428 516 216 75 339 284 250 200 225 151 77 74 177 116 61 487 402 368 179 141 75 327 156
is_linear=0
shrinkage=0.01


Tree=3
num_leaves=31
num_cat=0
split_feature=161 333 385 136 294 76 388 36 408 396 414 300 77 331 179 136 346 237 383 407 407 135 326 350 24 137 139 415 368 245
split_gain=5.73973 6.75931 5.74362 5.35828 5.38473 4.89814 6.02173 5.091 6.12741 5.0425 4.47121 4.36553 4.31077 6.65074 4.30499 4.5683 3.93745 3.85592 3.7118 3.70915 4.73182 3.99961 3.87614 3.60828 3.47998 3.40132 3.35705 3.32666 3.30556 3.30232
threshold=1.9468995909471534 0.31698527858108044 1.3133604939990342 0.67066146652641978 0.013391700405277792 1.0000000180025095e-35 0.31298989442427455 -0.36269532994138159 -0.48068782812573335 0.75975653501911411 0.80020971456357326 0.59353665725197857 -0.48966821111943543 -0.25797232913961216 -1.7280422616641025 -1.1582766621544649 -0.3986674279164239 0.9363272062488549 0.23491928773568097 -0.09024578437774021 0.6522656137401891 0.25879149148834063 -0.33354092523936268 0.54914327878619773 0.19907824302081187 0.18396613124355762 -0.32340851917450686 -0.15963047637964042 -0.5047262998524874 -0.70218415424143044
decision_type=2 2 2 2 2 2 2 2 2 2 2 2 2 2 2 2 2 2 2 2 2 2 2 2 2 2 2 2 2 2
left_child=1 3 18 5 17 7 27 11 25 24 14 -1 13 -6 -3 -16 -17 -5 -2 21 -21 -18 -22 26 -8 -9 -10 28 -7 -28
right_child=2 10 -4 4 12 6 9 8 23 -11 -12 -13 -14 -15 15 16 19 -19 -20 20 22 -23 -24 -25 -26 -27 29 -29 -30 -31
leaf_value=-0.00062299773434901402 0.0011941750069851414 -0.0039958424129124199 -0.00127963802870363 -0.00030946760695907432 -0.0029092463422566652 0.0026229315181262791 0.0048700057670001927 -0.0014869647056912072 0.0042806297865391309 -0.00081297409412619691 -0.0025225119540250901 0.0029222382477870801 -0.002814173276637535 0.0026937204326192539 0.0016968789606631458 -0.0038810126120979722 0.0023225916990237991 0.0030591101152822376 0.0052140650343305119 -0.0022198561534640337 0.0025331058447308681 -0.0016713583932391235 -0.00062168106330662135 0.00038715716614387926 0.00042494782453609842 0.0016571869129159797 -0.0003398380568251014 -0.0025156125229217913 -0.00095859619827024292 0.0027855932395946833
leaf_weight=223 55 33 38 130 38 30 43 78 111 56 141 39 145 43 89 35 80 43 46 166 45 33 223 78 34 58 44 110 126 110
leaf_count=223 55 33 38 130 38 30 43 78 111 56 141 39 145 43 89 35 80 43 46 166 45 33 223 78 34 58 44 110 126 110
internal_value=-6.2771e-05 -0.000180492 0.00189473 0.000211489 -0.000778119 0.000562986 -0.000319749 0.00104462 0.00165595 0.00138738 -0.000899124 -5.81921e-05 -0.00179314 0 -0.000560679 -0.000372934 -0.000702741 0.00052463 0.00313925 -0.000476873 -0.000903115 0.00110396 -5.8601e-05 0.00236533 0.00303099 -0.000105261 0.00292159 -0.00119595 -0.000213712 0.00186765
internal_weight=2523 2384 139 1539 399 1140 399 741 479 133 845 262 226 81 704 671 582 173 101 547 434 113 268 343 77 136 265 266 156 154
internal_count=2523 2384 139 1539 399 1140 399 741 479 133 845 262 226 81 704 671 582 173 101 547 434 113 268 343 77 136 265 266 156 154
is_linear=0
shrinkage=0.01


Tree=4
num_leaves=31
num_cat=0
split_feature=161 385 358 283 358 246 32 326 181 181 160 220 289 235 383 383 394 356 392 98 10 145 405 407 324 292 415 8 115 20
split_gain=5.6854 5.68725 4.78301 5.10719 4.5527 4.66027 4.68698 4.50735 3.92698 4.32308 4.47716 3.81445 5.83373 5.27425 3.68662 3.56388 3.49129 4.5249 3.75219 3.52894 3.50455 3.48204 3.26005 3.29786 3.34955 3.40262 3.19155 3.17784 3.10565 2.92825
threshold=1.9468995909471534 1.3133604939990342 0.15148074321705035 -0.70418713308419634 -0.11076768775537287 0.96040801794867836 -1.3340479331355011 -0.59437141441972419 0.18435870436080234 -0.25172396514340195 -0.019960095955210769 -0.44547037789843963 0.4135016095412557 -2.2036274127560618 0.23491928773568097 0.021162648745076524 0.79890319511769536 -0.8699606839147932 0.44740416049649662 -0.64639895838459427 0.57099173736650644 1.7816644703440365 0.30351219237578281 -0.52905528833511473 -0.074708596017601228 -0.39507719315588308 -0.75658724590122739 0.39818934018494917 0.68646076223728969 -1.0667746914130543
decision_type=2 2 2 2 2 2 2 2 2 2 2 2 2 2 2 2 2 2 2 2 2 2 2 2 2 2 2 2 2 2
left_child=2 14 4 28 5 6 -1 8 9 10 -5 13 22 -8 -2 -14 17 -15 19 -19 -18 29 23 24 -13 -26 27 -6 -4 -9
right_child=1 -3 3 7 26 -7 11 21 -10 -11 -12 12 15 16 -16 -17 20 18 -20 -21 -22 -23 -24 -25 25 -27 -28 -29 -30 -31
leaf_value=-0.0022467645289848599 0.0011862138606477202 -0.001271960163488984 -0.00095768961699350789 -0.00056045721885230801 0.0046601167270073698 -0.0018055621344944507 -0.0023556196077261123 0.0011338813312698243 0.0033752206450912594 -0.0026830168894957751 0.0042761840997263788 0.0014317306337567667 0 0.0033152420418760317 0.0051925390279696634 0.003780206400721606 -0.0022826425967049663 0.0040000166892158713 -0.0017574698318328177 0.00057125528667759356 0.0019989168603206054 -0.0038516040827546801 0.0015259366012601691 -0.002713505595456809 0.00018436130065962954 -0.0033948142598150301 0.00058259114744954263 0.00038145756969849268 -0.0047882030668425493 -0.00079675328624822823
leaf_weight=69 55 38 49 43 49 129 38 84 49 37 30 58 53 130 46 46 44 42 40 112 30 33 42 108 51 48 147 31 44 748
leaf_count=69 55 38 49 43 49 129 38 84 49 37 30 58 53 130 46 46 44 42 40 112 30 33 42 108 51 48 147 31 44 748
internal_value=-6.18479e-05 0.00188637 -0.000179021 -0.000656694 0.000238532 -3.77763e-05 0.000210477 -0.000444192 0.00108147 0 0.00142156 0.000422614 -0.000264645 0.00107229 0.00312482 0.00180629 0.00142221 0.00187093 0.000853623 0.00157772 -0.000474161 -0.000732246 -0.00095602 -0.0013766 -0.000402929 -0.00153435 0.00151555 0.00311285 -0.00288526 -0.000593587
internal_weight=2523 139 2384 1117 1267 1040 911 1024 159 110 73 842 406 436 101 99 398 324 194 154 74 865 307 265 157 99 227 80 93 832
internal_count=2523 139 2384 1117 1267 1040 911 1024 159 110 73 842 406 436 101 99 398 324 194 154 74 865 307 265 157 99 227 80 93 832
is_linear=0
shrinkage=0.01


Tree=5
num_leaves=31
num_cat=0
split_feature=161 333 385 136 0 113 203 58 414 246 179 136 346 19 185 82 160 392 148 218 99 383 15 305 284 141 366 353 248 99
split_gain=5.6323 6.64126 5.63122 5.25592 5.18992 4.73016 4.61694 4.68487 4.42702 4.32805 4.24403 4.48727 3.87633 3.71597 4.45822 4.51084 4.93698 6.62826 4.50005 4.279 3.84581 3.6612 3.35205 3.11319 5.14269 4.24039 3.84126 3.6188 3.50501 3.28345
threshold=1.9468995909471534 0.31698527858108044 1.3133604939990342 0.67066146652641978 -0.081902880763410901 -1.5600492826583763 -0.76550902643264229 1.4198930622943708 0.80020971456357326 -0.73526700613070395 -1.7280422616641025 -1.1582766621544649 -0.3986674279164239 -0.85347526769711846 -1.1181761290226928 0.26575085786037517 -0.43878704662551399 0.080042053195053545 0.56822084064951273 0.20825952678157039 1.0869690084721482 0.23491928773568097 0.22509472836152736 0.4480205612268679 0.16962383398880201 0.96911454641768657 -1.0374347037763749 -0.55325501045889036 -0.87108587060954046 0.90348425967981483
decision_type=2 2 2 2 2 2 2 2 2 2 2 2 2 2 2 2 2 2 2 2 2 2 2 2 2 2 2 2 2 2
left_child=1 3 21 5 9 -1 -6 -8 10 -5 -3 -12 -13 -7 19 18 17 -17 20 -15 -16 -2 -20 25 27 26 -14 -25 -26 -28
right_child=2 8 -4 4 6 13 7 -9 -10 -11 11 12 23 14 15 16 -18 -19 22 -21 -22 -23 -24 24 28 -27 29 -29 -30 -31
leaf_value=-0.0023688388340479621 0.0011783057454515969 -0.0039640239458531143 -0.001264328409684822 -0.0020786094328477272 0.00089998272159751852 0.0021969653687707773 -0.0030840327018483377 0.00094210006686968402 -0.0025053905599125353 0.0016392111942876264 0.0016844124512767401 -0.0038472950941807514 -0.0038066376891219989 0.0044192172289948982 0.00031937990170964966 0.0013192885009468431 0.0019883046351501146 -0.0035222348793531246 -0.00075893394342115656 0.00031681359059324395 -0.0032833762146765367 0.0051709034487915544 -0.0049991404152277749 0.0009108975181976954 -0.0012594088647678934 0.0019675707013165162 -0.0015126105397939682 -0.0026467705984944351 0.0023224327629432083 0.0018762368610238328
leaf_weight=50 55 33 38 40 51 144 161 32 141 115 89 35 62 51 392 70 220 44 53 55 30 46 31 43 32 34 155 71 118 32
leaf_count=50 55 33 38 40 51 144 161 32 141 115 89 35 62 51 392 70 220 44 53 55 30 46 31 43 32 34 155 71 118 32
internal_value=-6.11171e-05 -0.000177751 0.00187797 0.000210771 -0.000769279 0.000558913 -0.00167873 -0.00238803 -0.000890097 0.00063367 -0.000553316 -0.000366865 -0.000693804 0.000701885 0.000464875 0.000211905 0.0011142 -0.000534776 -0.000375877 0.00238219 3.71878e-05 0.00311036 -0.00246178 -0.000469639 0.00029567 -0.00119818 -0.0016626 -0.00126917 0.00151889 -0.000892528
internal_weight=2523 2384 139 1539 399 1140 244 193 845 155 704 671 582 1090 946 840 334 114 506 106 422 101 84 547 264 283 249 114 150 187
internal_count=2523 2384 139 1539 399 1140 244 193 845 155 704 671 582 1090 946 840 334 114 506 106 422 101 84 547 264 283 249 114 150 187
is_linear=0
shrinkage=0.01


Tree=6
num_leaves=31
num_cat=0
split_feature=161 333 385 388 363 115 176 125 393 13 115 240 54 283 392 179 83 375 371 383 229 219 114 202 79 124 286 368 363 54
split_gain=5.58213 6.55675 5.57576 4.68229 5.72065 5.05327 4.52855 4.2788 4.20949 4.06334 5.18718 4.46246 4.17721 4.06157 3.98612 3.82466 3.84273 3.78382 3.69046 3.63592 3.53938 3.85868 3.78618 3.50851 3.50056 3.95191 3.80315 3.4981 3.44396 3.34169
threshold=1.9468995909471534 0.31698527858108044 1.3133604939990342 -0.61911954525846868 -1.1387237574902478 0.28088270102666407 1.0313018679773653 0.53965891595424531 -0.16892122688861427 0.41939366817300233 0.69394434962761897 -0.45080440985188325 0.62256890100850659 0.9215745284869109 -0.098822222742238924 0.18705025376001502 0.29256544511799465 0.58082231476945412 0.82495687657066041 0.23491928773568097 -0.034233677608161546 0.68334760297794861 0.062510899384569399 -0.25756089394580745 -0.2558404720183366 0.32175910939143698 -0.59848651163572752 -0.51717058967216889 0.85956925202181 0.11126204698230262
decision_type=2 2 2 2 2 2 2 2 2 2 2 2 2 2 2 2 2 2 2 2 2 2 2 2 2 2 2 2 2 2
left_child=1 3 19 4 6 -6 20 14 -7 10 12 -12 24 29 18 16 -16 27 -3 -2 21 23 -22 -1 -5 26 -26 -11 -17 -9
right_child=2 7 -4 9 5 8 -8 13 -10 17 11 -13 -14 -15 15 28 -18 -19 -20 -21 22 -23 -24 -25 25 -27 -28 -29 -30 -31
leaf_value=0.0038729650204857957 0.0011704503721966031 -0.00019536408864990771 -0.0012567424597218632 0.00099910800376888913 -0.0029689401102119257 0.00074375617446574744 0.0034956364543177187 -0.0047075101505315896 -0.0023159823881994403 -9.7599985531053022e-06 0 -0.0034864389155281044 0.0024496508972496603 0.0006261529808628104 -0.0031912886026737738 0.0019889668223201013 0.00061662537511438127 -0.0010897009636300936 0.0029627052496936992 0.0051493580491902922 -0.0031487933093510374 -0.0014232048576232046 0.00096983656792768412 3.553027460607244e-05 -0.0024749052653681826 -0.003335169033909386 0.00095317720908854838 0.0034474323025489805 -0.0016396677487812536 -0.0014968908241107352
leaf_weight=50 55 366 38 307 124 121 42 64 68 35 91 57 113 36 127 47 30 30 39 46 55 43 33 49 42 42 120 117 54 82
leaf_count=50 55 366 38 307 124 121 42 64 68 35 91 57 113 36 127 47 30 30 39 46 55 43 33 49 42 42 120 117 54 82
internal_value=-6.08079e-05 -0.00017693 0.00186961 0.000209095 -0.000489421 -0.00141182 0.000556325 -0.000884734 -0.000343648 0.000642788 0.000315881 -0.00134391 0.000720573 -0.00224261 -0.000498841 -0.00146656 -0.00243361 0.00198377 0.000109526 0.00309597 0 0.000966403 -0.00156152 0.00206145 0.000320407 -0.000676484 1.45841e-05 0.00262911 6.19398e-06 -0.00298267
internal_weight=2523 2384 139 1539 585 313 272 845 189 954 772 148 624 182 663 258 157 182 405 101 230 142 88 99 511 204 162 152 101 146
internal_count=2523 2384 139 1539 585 313 272 845 189 954 772 148 624 182 663 258 157 182 405 101 230 142 88 99 511 204 162 152 101 146
is_linear=0
shrinkage=0.01


Tree=7
num_leaves=31
num_cat=0
split_feature=330 195 371 235 383 179 400 16 148 244 350 35 225 271 250 157 187 267 16 216 418 244 326 410 221 123 114 267 212 81
split_gain=5.16533 5.28492 4.63009 4.30182 4.57934 4.16782 4.07157 3.96464 3.84239 3.51482 3.60419 3.42116 3.33633 3.77575 4.02 3.43058 3.39055 4.53186 4.34616 3.06508 3.06276 2.96667 5.16349 4.04027 4.57199 3.75259 3.61644 3.4023 4.06331 3.35107
threshold=1.5876090732879575 -0.45179306762647703 0.65020948117411159 -2.1291756875115007 0.26032526696049357 -0.14894987067045198 0.97220445147182566 0.079339982885556964 -0.84582788628003147 -0.323802825742247 -0.44836190231050682 -0.097684456604433104 1.3689099973236416 1.0541546443606145 0.1026784071184179 0.63687234333779619 0.2713729322388157 -0.39319080162759551 1.0000000180025095e-35 1.0000000180025095e-35 -0.14760461585256343 0.23043098061914438 -0.22880244925389862 0.8850358714161124 -1.0267264414508703 1.0321941365084013 0.094222553575836407 -0.20802982947567919 0.2622193689700833 0.87656885187033617
decision_type=2 2 2 2 2 2 2 2 2 2 2 2 2 2 2 2 2 2 2 2 2 2 2 2 2 2 2 2 2 2
left_child=1 3 -2 -1 6 12 8 11 9 20 -11 -6 13 14 15 19 18 -18 -16 -3 -5 22 29 24 -24 26 27 -23 -29 -7
right_child=2 5 -4 4 7 21 -8 -9 -10 10 -12 -13 -14 -15 16 -17 17 -19 -20 -21 -22 25 23 -25 -26 -27 -28 28 -30 -31
leaf_value=-0.0017170368379621364 -0.0029689281189995299 0.00036104972019338199 0.00083054750755598601 0.00058390050693306816 0.0023569311612638938 0.00082479886599137525 -0.0024750870232318721 0.0038444135186198932 0.0015063006540439749 0.0025327728169993835 -0.0004980705513608182 -0.0014069302325369791 0.0017577738811572394 -0.0036498796845632372 0.00027182803150233731 -0.0039755639130786315 0.0034840199746647661 -0.00028302140386732316 -0.0040423250806174782 -0.0024226020106998011 -0.0027140508940745444 0.0025171018110872324 0.003043124483145298 -0.0024920161275326144 -0.00028021829717737786 -0.0033776207471964883 -0.0020785583241134495 0.0015766895437679654 -0.0027429942000360991 0.0034565838568596519
leaf_weight=65 106 74 42 41 56 247 41 86 285 67 85 38 37 57 55 57 47 85 36 76 72 57 45 68 338 46 70 40 42 62
leaf_count=65 106 74 42 41 56 247 41 86 285 67 85 38 37 57 55 57 47 85 36 76 72 57 45 68 338 46 70 40 42 62
internal_value=-6.00233e-05 5.15529e-05 -0.00186067 0.000692444 0.000905964 -0.000293788 0.000466403 0.00230073 0.000702908 -0.000147202 0.000820969 0.000785675 -0.0010169 -0.00124426 -0.000898383 -0.00189513 1.32443e-05 0.00105294 -0.00143134 -0.00102976 -0.00148463 7.58742e-05 0.00039358 -0.000279666 0.000111046 -0.000847252 -0.000239896 0.000666938 -0.000588938 0.00138777
internal_weight=2523 2375 148 836 771 1539 591 180 550 265 152 94 524 487 430 207 223 132 91 150 113 1015 760 451 383 255 209 139 82 309
internal_count=2523 2375 148 836 771 1539 591 180 550 265 152 94 524 487 430 207 223 132 91 150 113 1015 760 451 383 255 209 139 82 309
is_linear=0
shrinkage=0.01


Tree=8
num_leaves=31
num_cat=0
split_feature=161 333 385 136 294 76 388 36 396 244 414 300 77 331 179 136 244 346 346 246 383 407 407 135 327 261 239 160 415 368
split_gain=5.52155 6.42402 5.50873 5.11031 5.22431 4.7913 5.9318 4.97891 4.97287 4.68052 4.34231 4.31518 4.22649 6.49373 4.18115 4.38806 4.01801 3.9465 3.81635 3.66311 3.61818 3.61167 4.62154 3.95072 3.7907 3.47631 3.33064 3.72458 3.25911 3.27747
threshold=1.9468995909471534 0.31698527858108044 1.3133604939990342 0.67066146652641978 0.013391700405277792 1.0000000180025095e-35 0.31298989442427455 -0.36269532994138159 0.75975653501911411 0.79847934158487344 0.80020971456357326 0.59353665725197857 -0.48966821111943543 -0.25797232913961216 -1.7280422616641025 -1.1582766621544649 -0.35686195359795764 0.047663827889172707 -0.3986674279164239 -0.11609556963716176 0.23491928773568097 -0.09024578437774021 0.6522656137401891 0.25879149148834063 -0.32676125354461572 -0.041743730348692672 1.5027845621889682 -0.44866801863916989 -0.15963047637964042 -0.5047262998524874
decision_type=2 2 2 2 2 2 2 2 2 2 2 2 2 2 2 2 2 2 2 2 2 2 2 2 2 2 2 2 2 2
left_child=1 3 20 5 26 7 28 11 -8 16 14 -1 13 -6 -3 -16 19 -18 -17 25 -2 23 -23 -20 -24 -9 27 -5 29 -7
right_child=2 10 -4 4 12 6 8 9 -10 -11 -12 -13 -14 -15 15 18 17 -19 21 -21 -22 22 24 -25 -26 -27 -28 -29 -30 -31
leaf_value=-0.00062527560009362378 0.0011588634485215472 -0.0039272429876561678 -0.0012466531558893621 0.0017532215117050023 -0.0028583916634670461 0.0026046847109682859 0.0030039455166345906 4.3434768129943635e-05 -0.00081311994461053666 -0.00094796772999688984 -0.0024754345280255056 0.0028992062080197218 -0.0027704723570559199 0.0026773634726802507 0.0016713664740078396 -0.0038091948427058553 0.0040359592157937756 0.0010461157557960505 0.002313054724392004 -0.00040449708775438446 0.0051274413499049843 -0.0021798954871926637 0.0025189456811789031 -0.0016559230711843287 -0.00060139620534868708 0.0036459140712395313 0.0033388884228599427 -0.0014952000182341127 -0.0024987432418856772 -0.0009612027881667018
leaf_weight=223 55 33 38 58 38 30 77 49 56 58 141 39 145 43 89 35 133 76 80 97 46 166 45 33 223 66 32 83 110 126
leaf_count=223 55 33 38 58 38 30 77 49 56 58 141 39 145 43 89 35 133 76 80 97 46 166 45 33 223 66 32 83 110 126
internal_value=-5.95841e-05 -0.000175086 0.00186033 0.000206985 -0.000759327 0.00055031 -0.000322675 0.00102671 0.00137149 0.00163132 -0.000875702 -6.37104e-05 -0.00175927 1.38035e-05 -0.000542114 -0.000357026 0.00200129 0.00299266 -0.000680434 0.000981739 0.00307934 -0.000457984 -0.000878776 0.00110185 -4.41618e-05 0.00218066 0.000523563 -0.000118173 -0.00119233 -0.000219519
internal_weight=2523 2384 139 1539 399 1140 399 741 133 479 845 262 226 81 704 671 421 209 582 212 101 547 434 113 268 115 173 141 266 156
internal_count=2523 2384 139 1539 399 1140 399 741 133 479 845 262 226 81 704 671 421 209 582 212 101 547 434 113 268 115 173 141 266 156
is_linear=0
shrinkage=0.01


Tree=9
num_leaves=31
num_cat=0
split_feature=333 136 357 145 413 57 113 92 116 85 120 99 179 203 393 224 223 328 204 207 264 74 368 35 194 371 206 308 262 308
split_gain=5.30376 5.13901 6.19799 5.12158 4.04223 3.92844 3.83904 6.16848 4.05317 3.79628 4.45748 4.26435 3.95306 3.73373 3.68973 3.90085 3.6174 4.58694 3.51245 3.68227 3.46829 3.46042 3.30154 4.9632 4.8426 4.5194 4.36555 3.77137 4.28513 3.49509
threshold=0.31698527858108044 0.70075370995319164 1.0000000180025095e-35 -1.5526618902088172 2.1616741581228784 1.5092730898443072 -1.3628187473257134 -1.0353198860792339 -0.5279239643672361 1.3689112551273896 -0.86112971931803928 0.21554677101797215 0.1756462207502438 -0.76550902643264229 0.085906496606183616 0.066305810829391229 0.028997213889155434 -0.59244539360607085 0.84324419816915464 -0.41844232281459726 0.038071118279060977 0.087888807088046958 0.40649606292879675 -0.68785604241619203 -0.2767486299923243 0.16917988829309802 0.014518524517073047 -0.69393717475615524 0.30687289420721336 0.26016974154978573
decision_type=2 2 2 2 2 2 2 2 2 2 2 2 2 2 2 2 2 2 2 2 2 2 2 2 2 2 2 2 2 2
left_child=1 5 16 -2 9 6 8 -8 -1 10 11 -5 18 -4 21 -16 17 -3 19 20 -12 -14 23 -9 -25 27 -26 -24 -29 -27
right_child=3 2 13 4 -6 -7 7 22 -10 -11 12 -13 14 -15 15 -17 -18 -19 -20 -21 -22 -23 25 24 26 29 -28 28 -30 -31
leaf_value=0.0010807686345651747 0.00201062757980365 0.0027161017906687716 0.00081336786327440114 -8.8893301805020663e-05 -0.0042989974441554621 0.0033092922654647666 0.0028196254164233048 0.0021080098135382798 -0.0029268619648792084 -0.0033161227013570843 0.0018641416174359621 0.003651345325210555 -0.0025151704469891754 -0.0024443153912045231 -5.4786146471374919e-05 0.0035407691134605557 0.0026324166835195594 -0.0016216305931725185 0.00091129002565746003 -0.0027953326419898959 -0.0016687505227652773 0.00058905484527349474 0.00059491329714013593 -0.00069332557448103279 0.0034627244830367837 0.0023312743296302471 0.0002873461449308063 -0.00362296510529187 0.00028723071305415573 -0.00094984130114661881
leaf_weight=38 63 32 40 91 32 50 116 197 62 52 38 42 74 179 74 46 60 82 46 196 85 63 56 257 65 75 135 88 37 52
leaf_count=38 63 32 40 91 32 50 116 197 62 52 38 42 74 179 74 46 60 82 46 196 85 63 56 257 65 75 135 88 37 52
internal_value=-5.88653e-05 0.000280924 -0.000706125 -0.000674308 -0.000886166 0.000601511 0.000476929 0.000654504 -0.00136361 -0.000734363 -0.00054165 0.00109179 -0.000901315 -0.0018247 3.06131e-05 0.00131798 0.00067807 -0.000335082 -0.00156771 -0.00194421 -0.000524925 -0.00106377 0.000382934 0.00078703 0.000199995 -0.000458526 0.00136816 -0.00147738 -0.00243988 0.000955168
internal_weight=2523 1621 393 902 839 1228 1178 1078 100 807 755 133 622 219 257 120 174 114 365 319 123 137 962 654 457 308 200 181 125 127
internal_count=2523 1621 393 902 839 1228 1178 1078 100 807 755 133 622 219 257 120 174 114 365 319 123 137 962 654 457 308 200 181 125 127
is_linear=0
shrinkage=0.01


Tree=10
num_leaves=31
num_cat=0
split_feature=161 333 385 136 76 388 36 105 270 244 244 153 134 414 32 12 264 388 344 142 112 383 267 392 346 55 118 409 67 34
split_gain=5.4678 6.26521 5.45034 4.97959 4.70818 5.84157 4.90092 4.70202 4.6038 5.04947 4.559 4.45919 5.3104 4.27389 3.98692 3.95278 3.79084 3.73358 3.60116 4.80373 3.94049 3.59219 3.57752 3.51665 3.43808 3.41504 3.60988 3.4074 3.26348 3.23182
threshold=1.9468995909471534 0.31698527858108044 1.3133604939990342 0.67066146652641978 1.0000000180025095e-35 0.31298989442427455 -0.36269532994138159 -0.34942603122713267 -0.69344884799613915 0.79847934158487344 -0.35686195359795764 -0.87751083682611708 0.05437013422338214 0.80020971456357326 1.5584556475221085 0.79564457847717962 0.45917093472636356 -0.59247294688579533 -0.41419768930796436 -0.52031530124072711 -0.80597252004502995 0.23491928773568097 1.2711057205973046 -0.19538271284481604 0.047663827889172707 -0.51070080146339214 0.22879957317132335 0.42671005429316661 0.16067644838544756 -0.56679966842157203
decision_type=2 2 2 2 2 2 2 2 2 2 2 2 2 2 2 2 2 2 2 2 2 2 2 2 2 2 2 2 2 2
left_child=1 3 21 4 6 -6 17 28 -8 10 18 -7 -13 14 15 22 -17 29 20 -20 -10 -2 23 -3 -12 26 -9 -19 -5 -1
right_child=2 13 -4 7 5 11 8 25 9 -11 24 12 -14 -15 -16 16 -18 27 19 -21 -22 -23 -24 -25 -26 -27 -28 -29 -30 -31
leaf_value=0.00082774896739107198 0.0011512901199360688 -0.00030846612138151559 -0.0012375391123350709 0.0035839461604399341 -0.0011851791152383076 -0.0012619504250239494 0.0033644442921842675 0.0017303735987904171 0.0016391884902259336 -0.0021109783141450449 0.0039976404634718262 0.005014773259425293 0.0001409028925932944 -0.0024520132991882578 -0.0032675654117017981 0.0028307884793196407 -0.00072745722504332657 0.0021545491016262937 -0.00037202201298180417 0.0042555251944719295 -0.0026969904418250447 0.0051057655798892173 0.00099423041868042022 -0.0021511277820894406 0.00083170157676534871 -0.0020656118356784533 -0.0022988362173948971 -0.00063514843303426284 -0.00014234095049852675 -0.0029481668222623948
leaf_weight=31 55 262 38 33 266 41 115 58 30 42 88 44 48 141 48 68 48 88 45 39 55 46 99 179 65 211 33 80 64 63
leaf_count=31 55 262 38 33 266 41 115 58 30 42 88 44 48 141 48 68 48 88 45 39 55 46 99 179 65 211 33 80 64 63
internal_value=-5.80772e-05 -0.000173028 0.00185247 0.000204258 0.000543197 -0.000322113 0.00101547 -0.000749548 0.00161535 0.00103373 0.00146984 0.00135897 0.00258218 -0.000864942 -0.000533949 -0.000317005 0.00132866 -6.6242e-05 0.000296591 0.00176734 -0.0011066 0.00306505 -0.000683343 -0.00107402 0.00271298 -0.00137043 0.000197453 0.000804866 0.00112165 -0.00165953
internal_weight=2523 2384 139 1539 1140 399 741 399 479 364 322 133 92 845 704 656 116 262 169 84 85 101 540 441 153 302 91 168 97 94
internal_count=2523 2384 139 1539 1140 399 741 399 479 364 322 133 92 845 704 656 116 262 169 84 85 101 540 441 153 302 91 168 97 94
is_linear=0
shrinkage=0.01


Tree=11
num_leaves=31
num_cat=0
split_feature=161 330 385 145 137 263 117 362 407 288 330 305 386 259 68 369 351 111 221 305 366 415 287 287 252 109 156 349 381 251
split_gain=5.41415 5.96976 5.39551 4.87035 4.41076 3.62811 3.50216 3.48442 3.23667 3.5016 3.40148 5.07584 4.76231 3.25111 3.94779 3.723 3.44184 4.87629 3.2063 4.01658 5.06397 5.39009 4.53469 3.93005 3.39489 3.32726 4.10806 4.1152 5.31035 3.73781
threshold=1.9468995909471534 1.4503594660332992 1.3133604939990342 1.7816644703440365 1.5273343240025989 0.028386200059686579 -0.38223711036935987 0.65579354504400122 -1.3546923828600026 -0.23856426176175385 -0.90202472487704866 1.9433979161802837 -1.0063531429827781 -0.96513918684091327 0.17017586881533478 0.11196826099714757 0.015044469490318657 0.31433722939195224 1.3943693656237406 -0.13278896684436572 0.69914239529136524 0.79891749806127654 0.9445783087984726 -0.21368032860590536 1.6920659268159288 -0.80638572115027296 0.23900127187227985 0.18166032190603451 0.15349669067214186 0.49866296917386771
decision_type=2 2 2 2 2 2 2 2 2 2 2 2 2 2 2 2 2 2 2 2 2 2 2 2 2 2 2 2 2 2
left_child=1 3 7 4 8 -3 -6 -2 9 -1 12 18 -10 -14 16 -16 17 -15 19 20 21 25 24 -20 -21 -12 27 28 -27 -29
right_child=2 5 -4 -5 6 -7 -8 -9 10 -11 11 -13 13 14 15 -17 -18 -19 23 22 -22 -23 -24 -25 -26 26 -28 29 -30 -31
leaf_value=0 0.0014204949745191978 -0.00056859498238942075 -0.0012301138860639185 -0.0025213267024312364 0.0003642055752646664 -0.0036232867249973905 -0.0030492182664243108 0.0054214602541178469 -0.001863932509688621 0.0028122952085433773 0.001917833918831437 -0.0032476309312544035 0.0039577185174372673 -0.0045013571402523671 0.0049095462430268529 6.8294876800791823e-05 0.0014877309144972124 0.00076843314373085427 -0.0002428707972701107 0.00078160272950413999 0.00085119026340959995 -0.0044030204612542602 -0.0020089190579079962 0.0034350410989371313 -0.0013508466301003406 0.0021302212822455458 -0.0031081866493566368 -0.004471998179267923 -0.0011017655003535793 0
leaf_weight=86 63 91 38 74 44 74 77 38 45 90 35 49 46 30 38 30 71 35 54 648 138 49 75 55 81 80 85 42 131 31
leaf_count=86 63 91 38 74 44 74 77 38 45 90 35 49 46 30 38 30 71 35 54 648 138 49 75 55 81 80 85 42 131 31
internal_value=-5.72742e-05 -0.00017167 0.00184387 -3.21271e-05 5.36872e-05 -0.0019955 -0.00178158 0.00305039 0.000167523 0.00145623 4.06445e-05 -0.00014388 0.00102332 0.00157353 0.000978448 0.0029081 0 -0.00165092 -3.52619e-05 -0.000168433 -0.00079517 -0.00130924 0.000286892 0.00159637 0.000534776 -0.000901843 -0.00119167 -0.000582853 0.000108654 -0.00259786
internal_weight=2523 2384 139 2219 2145 165 121 101 2024 176 1848 1553 295 250 204 68 136 65 1504 1395 591 453 804 109 729 404 369 284 211 73
internal_count=2523 2384 139 2219 2145 165 121 101 2024 176 1848 1553 295 250 204 68 136 65 1504 1395 591 453 804 109 729 404 369 284 211 73
is_linear=0
shrinkage=0.01


Tree=12
num_leaves=31
num_cat=0
split_feature=330 195 371 235 144 32 108 242 179 359 179 116 221 12 322 378 71 381 413 187 15 401 246 409 76 73 187 98 70 279
split_gain=4.99923 5.13145 4.50411 4.21068 4.60066 4.62568 4.8606 4.58494 4.03881 3.86746 3.95718 3.58739 3.70293 7.61381 3.53006 3.61424 3.31889 6.07617 3.57139 5.20603 4.81619 3.62685 3.28914 3.25088 4.52219 3.10678 4.03327 4.69726 3.95451 4.00687
threshold=1.5876090732879575 -0.45179306762647703 0.65020948117411159 -2.1291756875115007 -1.9725456005776587 -1.2287540578841762 -0.5436523543467241 -0.36766511293911264 -0.14894987067045198 -0.33488163454659164 0.21005347369138458 -1.3717848164189406 -0.84369113843098031 -0.24011184094719437 -1.2857346596850918 0.25471870774797095 0.85150742550038727 0.62082615530918028 -0.060771109265993953 0.16775664808594745 -0.61783385160270832 0.043112212778035404 0.18735108073419529 0.85344328129914804 -0.19164101978607243 1.49055698501331 0.2713729322388157 0.26219147666043618 -0.75635347584997425 0.60963100662757774
decision_type=2 2 2 2 2 2 2 2 2 2 2 2 2 2 2 2 2 2 2 2 2 2 2 2 2 2 2 2 2 2
left_child=1 3 -2 -1 -5 6 -6 9 25 10 -7 -10 13 -13 -9 23 18 -18 19 -14 -20 -21 -23 24 -16 26 -3 28 -28 -30
right_child=2 8 -4 4 5 7 -8 14 11 -11 -12 12 16 -15 15 -17 17 -19 20 21 -22 22 -24 -25 -26 -27 27 -29 29 -31
leaf_value=-0.001699025859472467 -0.002921580071075975 -0.0016126714403687332 0.00082485052397135981 0.0037063887822018429 -0.0044592793866553727 0.0037558255407214164 0.00042720460100099445 0.0027864996906159056 0.002871355656957762 -0.00042077604968230735 0 0.004584969758894295 -0.0014869419679594187 -0.00014698647597220308 0.00098492269915483001 0.001550135620200308 0.0028117409484395973 -0.00089244583087941904 0.00048096148246159294 0.0029507379457354545 -0.0025685274177795333 -0.00099962000275624152 0.001542232543958918 -0.0035307529150988117 -0.0017284404697053344 -0.0033258057076413676 -0.0014462146404687138 -0.0019489912758918777 0.0036121562020492437 0
leaf_weight=65 106 245 42 53 32 123 46 51 42 41 38 48 161 100 141 110 84 87 71 58 163 111 90 31 105 51 40 67 69 52
leaf_count=65 106 245 42 53 32 123 46 51 42 41 38 48 161 100 141 110 84 87 71 58 163 111 90 31 105 51 40 67 69 52
internal_value=-5.67344e-05 5.30008e-05 -0.00182825 0.000684529 0.000895821 0.000671692 -0.00157637 0.000957521 -0.00028725 0.00220119 0.00289654 7.65799e-05 -4.45722e-05 0.00139504 0.000365195 2.05685e-05 -0.000311625 0.000909723 -0.00064039 -7.4405e-05 -0.00162583 0.000789167 0.000117874 -0.000575678 -0.000157658 -0.000999114 -0.000724771 0.000213319 0.00115671 0.00206736
internal_weight=2523 2375 148 836 771 718 78 640 1539 202 161 1015 973 148 438 387 825 171 654 420 234 259 201 277 246 524 473 228 161 121
internal_count=2523 2375 148 836 771 718 78 640 1539 202 161 1015 973 148 438 387 825 171 654 420 234 259 201 277 246 524 473 228 161 121
is_linear=0
shrinkage=0.01


Tree=13
num_leaves=31
num_cat=0
split_feature=161 333 406 136 294 113 77 331 179 330 120 383 350 117 223 117 379 407 265 392 245 156 66 399 79 270 239 160 77 346
split_gain=5.34988 6.09627 4.98091 4.85297 5.009 4.54378 4.10205 6.38024 4.09824 4.60965 4.59457 4.04896 3.66175 4.80446 3.76441 3.7285 5.19162 3.72051 3.82976 3.60089 3.51236 3.37026 3.66933 4.63221 3.3689 4.03636 3.29795 3.66362 3.2374 3.22764
threshold=1.9468995909471534 0.31698527858108044 1.1147794617550633 0.67066146652641978 0.013391700405277792 -1.5600492826583763 -0.48966821111943543 -0.25797232913961216 0.1756462207502438 1.0870772763733179 -0.86112971931803928 0.23491928773568097 0.58349376311678436 0.90985403479650417 -0.13815994487909242 0.039480362683829574 0.81743023864904119 0.58474571633348671 -0.18440568173702537 -0.098822222742238924 0.64786931230925415 -0.67080637893893247 0.45703113123604627 -0.59697234429960189 -0.70410217991865498 -0.99707823272490614 1.5027845621889682 -0.44866801863916989 0.06164931549624534 0.59674674494319979
decision_type=2 2 2 2 2 2 2 2 2 2 2 2 2 2 2 2 2 2 2 2 2 2 2 2 2 2 2 2 2 2
left_child=1 3 11 5 26 -1 7 -6 10 29 19 -2 13 15 -15 17 21 24 -19 -3 -14 -17 23 -23 -7 -26 27 -5 -29 -10
right_child=2 8 -4 4 6 12 -8 -9 9 -11 -12 -13 20 14 -16 16 -18 18 -20 -21 -22 22 -24 -25 25 -27 -28 28 -30 -31
leaf_value=-0.0023324770452633789 0.0010631742903829686 0.001782072735425662 -0.00092368011616847726 0.0017336568357811 -0.0028192235718597657 0.0022367443208636136 -0.0027149941948666967 0.0026673541408446101 -0.00054905711421825458 -0.002097159196049548 -0.0018936536123031304 0.0053254370888074247 0.00016617310125953877 0.00085229353959827378 0.005019174131751061 0.0018935490353032948 -0.0037046973237365084 0.005161691896203492 0.00042069782174247153 -0.0018410632412203334 -0.0029047618207937859 -0.001949413330548189 -0.0032557846676852359 0.0018104126059915872 0.0028155370893906437 -0.00025821938010768628 0.00331811024040422 -0.003221462989264789 0.00059399624331257284 0.0016982651696084662
leaf_weight=50 54 69 42 58 38 120 145 43 111 76 408 43 167 46 48 86 35 43 32 42 45 53 36 78 49 252 32 46 37 139
leaf_count=50 54 69 42 58 38 120 145 43 111 76 408 43 167 46 48 86 35 43 32 42 45 53 36 78 49 252 32 46 37 139
internal_value=-5.62036e-05 -0.000169931 0.00183362 0.000202199 -0.00073933 0.000536831 -0.00171861 2.72529e-05 -0.000852472 1.16876e-05 -0.00140284 0.00307255 0.00067706 0.000963398 0.00309238 0.000694556 -0.000194986 0.00121981 0.00326727 0.000358587 -0.000483367 0.000296187 -0.000509494 0.000245228 0.000829521 0.00024094 0.000516405 -0.000121993 -0.00148782 0.000684174
internal_weight=2523 2384 139 1539 399 1140 226 81 845 326 519 97 1090 878 94 784 288 496 75 111 212 253 167 131 421 301 173 141 83 250
internal_count=2523 2384 139 1539 399 1140 226 81 845 326 519 97 1090 878 94 784 288 496 75 111 212 253 167 131 421 301 173 141 83 250
is_linear=0
shrinkage=0.01


Tree=14
num_leaves=31
num_cat=0
split_feature=330 144 366 371 34 237 32 34 154 57 288 372 71 379 182 164 226 389 37 387 372 115 397 390 112 90 388 50 13 205
split_gain=4.89673 4.93319 4.768 4.43212 3.82462 5.21408 5.45496 4.60625 4.37329 4.02569 3.9789 3.83526 5.34081 4.24936 3.64452 3.63381 3.92528 3.6065 4.15141 3.56576 3.54279 3.48619 3.4237 3.67656 3.67427 3.93003 3.48559 3.27338 3.27056 3.27776
threshold=1.5876090732879575 -1.5067445722002271 1.7146177327905976 0.65020948117411159 -0.42166900257790219 -0.8212369139746114 -1.2287540578841762 -0.76489596022838169 0.04710005874594695 0.33722187018397826 -0.43809608602950473 -0.086402991421864181 0.86457568992133704 -0.49398743881904006 -0.94307203649648685 -0.24463286864011663 0.38444572641430202 1.2071654489954031 -0.55231777591388154 -0.6723322174075167 -0.14630764751541964 -1.0608458729275785 -1.5129675089204444 0.66571397243082064 0.4062033793680056 1.617990473022048 0.90927038606239929 0.30969929503850457 0.32904978758829445 0.23490862544357202
decision_type=2 2 2 2 2 2 2 2 2 2 2 2 2 2 2 2 2 2 2 2 2 2 2 2 2 2 2 2 2 2
left_child=1 2 21 -2 7 6 -6 8 10 20 -3 12 13 -9 -13 16 -8 22 -19 -15 -10 -1 -7 24 25 26 -24 -25 29 -16
right_child=3 4 -4 -5 5 17 15 11 9 -11 -12 14 -14 19 28 -17 -18 18 -20 -21 -22 -23 23 27 -26 -27 -28 -29 -30 -31
leaf_value=0.0043524789710885246 -0.0028934679090269599 -0.003087713842384745 -0.0008167900879528713 0.00082233121745627037 -0.0020865705827447147 0.002751422117048122 0.0017117728181337275 -0.0027080087339634014 -0.0020184367754169413 0.0038829328200586559 0.0002421746774774602 0.0010112800425184625 0.0024114537714370367 -0.0018465698610569509 -0.0039823802242334935 0.0032662425548013328 -0.0020562286148113865 0.00055330628463520835 -0.0036053409289311745 0.0014999338969163881 0.0019809536252998645 7.8366356319747865e-05 0.00065586999756032298 0.0029766005408924279 -0.0012749059623879035 -0.0032132852077484133 -0.0020067568509667009 -0.00026061766816732978 -0.00019928239115203422 -0.0010483816007513609
leaf_weight=66 106 47 42 42 36 45 119 85 35 51 125 33 56 51 123 115 33 37 56 77 52 30 490 70 246 30 52 50 58 65
leaf_count=66 106 47 42 42 36 45 119 85 35 51 125 33 56 51 123 115 33 37 56 77 52 30 490 70 246 30 52 50 58 65
internal_value=-5.54657e-05 5.31178e-05 0.00187527 -0.00180875 -5.86317e-05 0.000264944 0.00141973 -0.000583912 0.00037674 0.00170061 -0.000664033 -0.00113583 -0.000258693 -0.000999861 -0.00195588 0.00192307 0.000845172 -5.7634e-05 -0.00192138 0.000120204 0.000306622 0.0030967 0.000117159 -9.48459e-06 -0.000255706 0.000176826 0.000384785 0.00160462 -0.00237902 -0.003016
internal_weight=2523 2375 138 148 2237 1379 303 858 310 138 172 548 269 213 279 267 152 1076 93 128 87 96 983 938 818 572 542 120 246 188
internal_count=2523 2375 138 148 2237 1379 303 858 310 138 172 548 269 213 279 267 152 1076 93 128 87 96 983 938 818 572 542 120 246 188
is_linear=0
shrinkage=0.01


Tree=15
num_leaves=31
num_cat=0
split_feature=330 195 371 235 144 32 87 242 179 116 244 327 410 221 119 102 350 215 322 34 217 228 226 391 217 225 338 165 272 245
split_gain=4.82659 4.99424 4.37293 4.12587 4.46387 4.51058 4.50949 4.4722 3.94523 3.51663 3.91172 4.43061 4.22073 4.70336 3.83318 3.93825 3.53326 3.49876 4.39779 3.44886 3.44339 3.37746 3.35199 3.74974 4.6544 3.20936 3.18059 3.17676 3.6444 3.15071
threshold=1.5876090732879575 -0.45179306762647703 0.65020948117411159 -2.1291756875115007 -1.9725456005776587 -1.2287540578841762 -0.49517477295329587 -0.36766511293911264 -0.14894987067045198 -1.3717848164189406 0.23043098061914438 -0.22151806850463224 0.8850358714161124 -1.0267264414508703 -0.91292497059656452 -0.2341087670921741 -0.42664475487301162 0.60761965552996877 -1.2857346596850918 -0.43794722187702267 -0.19180264113930329 -0.15945006840235856 -0.53508194067590953 -0.49351229532766955 -0.19180264113930329 1.3689099973236416 -0.37687847630766075 -0.21929794336918165 -1.0197576360504765 -0.38080314217311234
decision_type=2 2 2 2 2 2 2 2 2 2 2 2 2 2 2 2 2 2 2 2 2 2 2 2 2 2 2 2 2 2
left_child=1 3 -2 -1 -5 6 -6 26 25 -10 11 -11 13 -13 -12 -16 20 18 -9 -20 -15 -18 29 -24 -25 -3 27 28 -7 -21
right_child=2 8 -4 4 5 7 -8 17 9 10 14 12 -14 16 15 -17 21 -19 19 22 -22 -23 23 24 -26 -27 -28 -29 -30 -31
leaf_value=-0.0016832417880754864 -0.002873106467002934 -0.001209486005909918 0.00081728507574139672 0.0036540400722826069 -0.0043313261450213551 -0.00042909739870164134 0.00037158601606885591 0.0027653522213112636 0.0028438662911172618 0.0012720476599809313 0.0016995915572326154 0.0031365740961498685 -0.002622325765064556 -0.00067964787418140643 0.00031570415771001891 -0.0025858734112571007 -0.003999265214881381 0.0032239229423113359 -0.0015932446059339972 -0.0026945176170956272 0.0022354857207974419 -0.00052285899745142415 0.0039415593791220869 0.0024968613796134262 -0.0019655460923019312 0.001734280352218029 -0.00012639610748738049 0.0049012259928123006 0.0031927414647122815 0.00095574726616697654
leaf_weight=65 106 487 42 53 32 43 46 51 42 292 37 43 65 77 64 144 35 37 132 49 78 138 40 45 44 37 43 51 65 40
leaf_count=65 106 487 42 53 32 43 46 51 42 292 37 43 65 77 64 144 35 37 132 49 78 138 40 45 44 37 43 51 65 40
internal_value=-5.48771e-05 5.29113e-05 -0.00179557 0.000675958 0.000885162 0.000664248 -0.00155536 0.000946553 -0.000282727 7.68129e-05 -4.30886e-05 0.000319734 -0.000309535 9.4154e-05 -0.00113529 -0.00167477 -0.000306141 0.000361377 7.01557e-05 -0.000321849 0.000765265 -0.00129242 0.000432745 0.00146933 0.00024107 -0.000986315 0.00217491 0.00282217 0.00172368 -0.00101406
internal_weight=2523 2375 148 836 771 718 78 640 1539 1015 973 728 436 371 245 208 328 438 401 350 155 173 218 129 89 524 202 159 108 89
internal_count=2523 2375 148 836 771 718 78 640 1539 1015 973 728 436 371 245 208 328 438 401 350 155 173 218 129 89 524 202 159 108 89
is_linear=0
shrinkage=0.01


Tree=16
num_leaves=31
num_cat=0
split_feature=333 145 136 294 76 388 36 408 396 118 28 57 13 99 307 270 350 221 55 218 368 330 221 223 417 137 223 14 27 277
split_gain=4.96138 4.93731 4.85042 6.08618 4.12958 6.18047 5.11814 6.04575 4.64883 4.10162 3.90754 5.02784 3.84795 3.97881 4.15238 4.83386 3.80972 3.66355 3.60327 3.61227 3.49715 3.4333 4.29192 3.39132 3.38347 3.31834 3.26529 3.32563 3.22141 3.33616
threshold=0.31698527858108044 -1.5526618902088172 0.70075370995319164 0.013391700405277792 0.023238521044383325 0.31298989442427455 -0.36269532994138159 -0.48068782812573335 1.1553262021157147 -0.14121142586201904 -0.41147929638255903 -0.35343448675320266 -0.71170331451552948 0.93107190336162737 -0.38066285580423176 -0.32753154647676302 0.54914327878619773 -0.22865190343718964 -0.020809825445765932 0.27896349970610779 0.62775091444021658 1.4269479716202238 -0.99389218611613883 -0.62272024461648512 -1.2698739614468459 0.31248556007951406 0.028997213889155434 -0.04204653425393632 1.1004401961792676 0.1153886549674196
decision_type=2 2 2 2 2 2 2 2 2 2 2 2 2 2 2 2 2 2 2 2 2 2 2 2 2 2 2 2 2 2
left_child=2 -2 4 26 6 28 12 20 -7 21 -11 -12 -1 14 15 -14 17 -9 19 -13 25 22 -3 -24 -5 -8 27 -4 29 -6
right_child=1 9 3 24 5 8 7 16 -10 10 11 18 13 -15 -16 -17 -18 -19 -20 -21 -22 -23 23 -25 -26 -27 -28 -29 -30 -31
leaf_value=-0.0023220255227449044 0.0019864434247406628 0.0015593349617326036 -0.0015481392373456746 0.0010885654203593731 0.00017042490744003744 0.0025667046021137919 -0.00040749735725051784 0.0041313762720241107 -0.0014309958877782216 -0.0014783432251535174 -0.0013190728082478819 0.0021227477658270063 0 -0.0026700446596651366 -0.00018041900832853886 0.0045958356687553084 0.00040742835839805395 0.0017197276429774669 0.0040897974261315537 -0.0015653657879946487 -0.0026829823338163968 -0.0034667501278926394 -0.0032206065984356365 -0.00089555706330315444 -0.0022730342172249461 0.0030788450065727642 0.002610688252840191 0.0019887172892439839 -0.0036334547257527361 -0.0023645164018514177
leaf_weight=58 63 51 72 32 163 103 75 127 37 119 75 67 37 31 113 51 90 154 46 40 37 72 84 285 192 39 58 39 41 72
leaf_count=58 63 51 72 32 163 103 75 127 37 119 75 67 37 31 113 51 90 154 46 40 37 72 84 285 192 39 58 39 41 72
internal_value=-5.42249e-05 -0.000649543 0.000274349 -0.000684408 0.000585862 -0.00021387 0.00100124 0.00159146 0.00146968 -0.000857676 -9.78117e-06 0.000741156 -4.76719e-05 0.000514536 0.00105179 0.00265846 0.00227536 0.00284885 0.00178732 0.000694718 -6.39279e-05 -0.0014431 -0.00106956 -0.00145282 -0.0017653 0.000774615 0.000722903 -0.000248008 -0.00109026 -0.000598541
internal_weight=2523 902 1621 393 1228 416 812 522 140 839 347 228 290 232 201 88 371 281 153 107 151 492 420 369 224 114 169 111 276 235
internal_count=2523 902 1621 393 1228 416 812 522 140 839 347 228 290 232 201 88 371 281 153 107 151 492 420 369 224 114 169 111 276 235
is_linear=0
shrinkage=0.01


Tree=17
num_leaves=31
num_cat=0
split_feature=333 145 136 294 76 351 80 118 28 57 237 116 32 345 135 407 413 55 218 97 330 135 394 404 52 139 85 79 43 205
split_gain=4.89619 4.86908 4.78732 5.99606 4.07404 4.56075 4.38251 4.0467 3.84451 4.96148 3.70727 4.88995 3.69407 3.85759 5.16987 4.26174 3.68892 3.56073 3.5573 3.46401 3.39452 3.37582 3.28056 3.73866 3.25333 3.13634 3.08192 3.0509 3.81149 3.03562
threshold=0.31698527858108044 -1.5526618902088172 0.70075370995319164 0.013391700405277792 0.023238521044383325 -0.65887591509545418 -0.55863138945519963 -0.14121142586201904 -0.41147929638255903 -0.35343448675320266 0.54950510590137203 -0.70376535666799278 -0.51703403309241824 -0.12446632311525908 -0.91540668797903557 0.58474571633348671 -0.71708976697281945 -0.020809825445765932 0.27896349970610779 -0.1410674024107208 1.4269479716202238 -0.57754658090506017 1.0984723887383285 0.29725748439770922 -1.1982869568254149 -0.19874335024037079 -0.094276448287218664 -0.39082540600217408 0.45729575658020433 -0.9042360335242029
decision_type=2 2 2 2 2 2 2 2 2 2 2 2 2 2 2 2 2 2 2 2 2 2 2 2 2 2 2 2 2 2
left_child=2 -2 4 27 12 26 -7 20 -9 25 11 -8 24 14 -14 16 -15 18 -11 21 -3 -5 23 -18 -1 -10 -6 -4 -29 -16
right_child=1 7 3 19 5 6 10 8 9 17 -12 -13 13 15 29 -17 22 -19 -20 -21 -22 -23 -24 -25 -26 -27 -28 28 -30 -31
leaf_value=-0.002080954593140632 0.0019723855145275591 -0.001061864129316737 -0.00095675967791332655 -0.0045038273053923774 0 -0.0010904397641287279 0.0031411709254219504 -0.0014663698654313964 -0.0029596304011709515 0.0021055196425405101 0.0037274201368873421 -0.00066210206199504508 0.0030147700630394477 -0.00022154414306084315 0.0019097182243131101 0.0056442954402882604 0.0019076283545417275 0.0040633841766975817 -0.0015541846169868396 -0.00019494785205832624 -0.0034456685384282389 -0.0011513600020018752 -0.00024081158096946422 0.005113104390394356 0.00061294888302324002 0.0010356498829787598 -0.0037617923175248336 0.0033249855989384968 -0.00039183066793433997 -0.0012042513880533752
leaf_weight=58 63 420 63 61 36 129 46 119 45 67 45 109 54 73 38 30 160 46 40 92 72 71 40 52 174 30 51 62 44 133
leaf_count=58 63 420 63 61 36 129 46 119 45 67 45 109 54 73 38 30 160 46 40 92 72 71 40 52 174 30 51 62 44 133
internal_value=-5.37561e-05 -0.000645162 0.000272638 -0.000679823 0.000582132 -0.000212136 0.000316085 -0.00085188 -9.58465e-06 0.000735155 0.00124986 0.0004604 0.000994711 0.0014204 0.000364061 0.00207011 0.0016924 0.0017745 0.00068812 -0.00175272 -0.00143337 -0.00278202 0.0022639 0.00275768 -5.11892e-05 -0.00131119 -0.00222805 0.000716874 0.00175717 -0.000469279
internal_weight=2523 902 1621 393 1228 416 329 839 347 228 200 155 812 580 225 355 325 153 107 224 492 132 252 212 232 75 87 169 106 171
internal_count=2523 902 1621 393 1228 416 329 839 347 228 200 155 812 580 225 355 325 153 107 224 492 132 252 212 232 75 87 169 106 171
is_linear=0
shrinkage=0.01


Tree=18
num_leaves=31
num_cat=0
split_feature=333 124 136 294 77 266 76 388 36 408 396 388 34 350 221 414 32 370 61 54 369 137 330 392 52 26 3 347 393 283
split_gain=4.8312 5.12915 4.73403 5.91411 5.65702 5.37413 4.02018 6.07072 5.00711 5.92531 4.57655 3.84167 4.14919 3.75432 3.61141 3.54146 3.62501 3.59912 3.53893 3.52825 3.44545 3.2751 3.21674 3.96567 4.42858 3.20392 3.2023 3.16017 3.10481 3.4321
threshold=0.31698527858108044 -1.4252983625758808 0.70075370995319164 0.013391700405277792 -0.48966821111943543 0.006384181608374828 0.023238521044383325 0.31298989442427455 -0.36269532994138159 -0.48068782812573335 1.1553262021157147 -0.59247294688579533 -0.58533502700297324 0.54914327878619773 -0.22865190343718964 0.80020971456357326 1.5584556475221085 -0.67692726871501385 -0.96955863401261977 0.15541695373330897 0.63869079750466395 0.31248556007951406 -0.47552182579719643 -0.12524273393595906 0.74272795247016321 -0.3360134023440759 0.23438579009761382 0.86847441308408679 -1.1713594575734689 -1.0315843420165629
decision_type=2 2 2 2 2 2 2 2 2 2 2 2 2 2 2 2 2 2 2 2 2 2 2 2 2 2 2 2 2 2
left_child=2 -2 6 -4 5 -5 8 28 11 20 26 12 -1 14 -11 16 22 -17 -13 -16 21 -10 25 -24 -25 -3 -9 -20 -8 -30
right_child=1 15 3 4 -6 -7 7 10 9 13 -12 18 -14 -15 19 17 -18 -19 27 -21 -22 -23 23 24 -26 -27 -28 -29 29 -31
leaf_value=0.0011899184733629227 0.0017932346823792428 -0.00069665224403142937 0.00071083778271564607 -0.0017772678369851263 -0.0028947610310766521 0.0033808428442903926 -0.0039936055152705223 0.0041017034807700218 -0.00040802187764073732 0.0040920253571613812 -0.001419153092070841 -0.0015474939946719308 -0.0029428191574877257 0.00039515846003980741 0.00033941776157640248 0.00044125214910932953 -0.0031396067752411556 -0.0031685577656441768 0.0023698902288369372 0.0034636778214410177 -0.0026658068098223365 0.0030553853441393232 0 -0.0025218711600834389 0.0011451058636885137 0.0026118881213055417 0.00042535985684177526 -0.0011282622172439005 0.0015368793404626627 -0.0012878270292153151
leaf_weight=33 76 48 169 45 146 33 31 57 75 127 37 45 71 90 90 33 49 110 111 64 37 39 324 160 38 64 46 30 52 193
leaf_count=33 76 48 169 45 146 33 31 57 75 127 37 45 71 90 90 33 49 110 111 64 37 39 324 160 38 64 46 30 52 193
internal_value=-5.32289e-05 -0.000640708 0.000270978 -0.000676135 -0.00174171 0.000372474 0.000578757 -0.000210175 0.000988604 0.00157241 0.00145825 -4.86906e-05 -0.00158659 0.00224948 0.00281873 -0.000874484 -0.000561515 -0.00230645 0.000792346 0.00169762 -6.61003e-05 0.000765975 -0.000345154 -0.000681432 -0.00178869 0.00116274 0.00254684 0.00158527 -0.00107886 -0.000660465
internal_weight=2523 902 1621 393 224 78 1228 416 812 522 140 290 104 371 281 826 683 143 186 154 151 114 634 522 198 112 103 141 276 245
internal_count=2523 902 1621 393 224 78 1228 416 812 522 140 290 104 371 281 826 683 143 186 154 151 114 634 522 198 112 103 141 276 245
is_linear=0
shrinkage=0.01


Tree=19
num_leaves=31
num_cat=0
split_feature=161 330 385 145 137 383 263 116 77 279 247 123 78 349 305 120 221 54 148 62 9 139 382 34 366 205 74 50 158 363
split_gain=5.23899 5.53804 5.25917 4.64746 4.28185 3.50335 3.49284 3.41275 3.34627 3.49726 3.95464 4.59046 3.76091 3.45357 3.38451 4.85992 4.65106 3.98478 3.99773 4.82417 4.38648 3.53418 4.96329 4.00359 4.82459 3.86651 3.28726 3.21064 3.17002 4.06536
threshold=1.9468995909471534 1.4503594660332992 1.3133604939990342 1.7816644703440365 1.5273343240025989 0.23491928773568097 0.028386200059686579 -0.38868545145341299 1.3222607509349158 -1.1679834689689812 0.16071568490723084 0.10821955209583851 0.55658678861223643 -1.0362379788614084 -0.13278896684436572 -0.90176078158258088 1.6685364546094497 0.082843874053962638 1.357799161840805 -0.10819808981621258 -0.58339202731153372 -0.12313816333953732 -0.67723376137639868 -0.42166900257790219 0.573838963955001 0.20466032293746814 0.31824950266753255 -1.0269071269310988 0.32044719967897989 0.10340945588615645
decision_type=2 2 2 2 2 2 2 2 2 2 2 2 2 2 2 2 2 2 2 2 2 2 2 2 2 2 2 2 2 2
left_child=1 3 5 4 8 -2 -3 -6 9 10 12 -12 -1 -11 16 26 21 28 19 -19 -21 23 -23 -15 25 -25 -16 -10 -17 -30
right_child=2 6 -4 -5 7 -7 -8 -9 27 13 11 -13 -14 14 15 17 -18 18 -20 20 -22 22 -24 24 -26 -27 -28 -29 29 -31
leaf_value=0.0026114896501071359 0.0011186794433415983 -0.00052228336823323081 -0.0012163447535131126 -0.0024624499896737308 0.00036169745777126243 0.0050238125173685455 -0.0035184020992662561 -0.0030067655454755204 0.0041855246863431398 0.0024839451471537662 -0.0019487522926487743 0.0022473805244080723 -0.00096657102541731934 -0.002873914117449956 0.0031823909835799074 -0.0014651803597340424 0.0026046575929381346 0.0017567753104120493 0.0037364362013575275 0.00092919627559910482 -0.0022682904316063384 -0.0026992706196575329 0.00059077567146224082 -0.00049400606004447467 0.0021456458787028881 -0.0039054212257421269 -7.366429380279907e-05 0.00074226319185517579 0.0028461308842119967 -0.0007777463335609671
leaf_weight=150 55 91 38 74 44 46 74 77 34 46 71 38 33 149 80 257 36 123 36 74 93 56 215 125 44 46 45 139 44 90
leaf_count=150 55 91 38 74 44 46 74 77 34 46 71 38 33 149 80 257 36 123 36 74 93 56 215 125 44 46 45 139 44 90
internal_value=-5.27477e-05 -0.000165315 0.0018174 -3.08289e-05 5.29461e-05 0.00300881 -0.00192198 -0.00175526 0.000165139 3.7363e-05 0.00103998 -0.0004267 0.00193576 -0.000148315 -0.000234817 0.000182576 -0.000764997 -0.000129902 0.000675954 0.000255919 -0.000827625 -0.000971459 -8.55655e-05 -0.00161328 -0.000698153 -0.00147514 0.00198814 0.00148765 -0.000814535 0.000399775
internal_weight=2523 2384 139 2219 2145 101 165 121 2024 1851 292 109 183 1559 1513 842 671 717 326 290 167 635 271 364 215 171 125 173 391 134
internal_count=2523 2384 139 2219 2145 101 165 121 2024 1851 292 109 183 1559 1513 842 671 717 326 290 167 635 271 364 215 171 125 173 391 134
is_linear=0
shrinkage=0.01


Tree=20
num_leaves=31
num_cat=0
split_feature=333 124 136 378 118 283 57 32 223 226 297 61 137 152 407 346 394 355 193 281 223 51 61 3 121 164 203 55 354 326
split_gain=4.74519 5.04111 4.63348 5.72233 4.34903 3.98392 3.87557 4.5484 3.67287 3.40608 4.40729 4.23244 3.37164 3.23298 5.29505 3.82394 3.65663 3.22834 3.21188 4.11035 3.14937 3.16035 3.39967 3.16145 3.31774 3.82974 3.13047 3.01425 3.03417 3.83183
threshold=0.31698527858108044 -1.4252983625758808 0.70075370995319164 -0.02799605608256241 -0.14121142586201904 0.9215745284869109 1.5092730898443072 -1.3100520704669278 0.028997213889155434 0.82683607488770794 0.28794119589418993 0.019629730259962407 -2.0680955705720829 0.01746328651297737 -1.4039066739265931 -0.71180947809827411 -0.046500660948867595 1.0000000180025095e-35 0.12464827721985951 0.59832850546154048 -0.62272024461648512 0.23799820538222244 -0.38404561281539407 -0.58630911789944562 0.10405038765359471 -0.68254754239701743 -0.71799705866997365 -0.62748372081819836 -0.038917069464447632 -0.72584459510474286
decision_type=2 2 2 2 2 2 2 2 2 2 2 2 2 2 2 2 2 2 2 2 2 2 2 2 2 2 2 2 2 2
left_child=2 -2 6 8 20 9 7 17 -4 10 11 -6 -9 -14 -15 16 -16 -1 -17 -20 -3 22 -22 -24 25 -25 -5 -28 29 -29
right_child=1 4 3 26 5 -7 -8 12 -10 -11 -12 -13 13 14 15 18 -18 -19 19 -21 21 -23 23 24 -26 -27 27 28 -30 -31
leaf_value=-0.0031850678339001852 0.0017784336534066077 -0.0030248565028008633 -0.00036075419527805297 0.00060975264265752309 -0.0016620667073233375 0.001732923160258603 0.0032623321538826884 -0.0025297451531514528 0.0026389938460723047 0.0020498952602869586 -0.0033951134160752332 0.0017028623383778794 0.00038548224700882646 0.0053960037657388429 -0.0026063008898927365 0.0034278868962567123 0.0012247929988162857 0.00039575820897034441 -0.0013319223762179413 0.0031114219967275859 0.002505203753709793 -0.0023358161298371854 0.0013627565757371484 -0.002000724614746022 -0.0032450397764191485 0.0015920907582314509 6.4129896461963658e-05 -0.00073116465274131659 -0.00050792229036952167 -0.0052067687363744194
leaf_weight=54 76 104 112 42 85 94 50 30 60 36 61 63 763 32 42 82 54 41 46 34 33 123 48 64 64 51 38 31 41 69
leaf_count=54 76 104 112 42 85 94 50 30 60 36 61 63 763 32 42 82 54 41 46 34 33 123 48 64 64 51 38 31 41 69
internal_value=-5.21159e-05 -0.000634362 0.000269174 -0.000667756 -0.00086616 0 0.000573686 0.000449994 0.000675239 -0.000667651 -0.00117444 -0.000192758 0.0006381 0.000737716 0.00163834 0.00111513 -0.000419274 -0.00161182 0.00204891 0.000525353 -0.00146959 -0.00102077 -0.000366487 -0.000824025 -0.00144663 -0.000364675 -0.00173209 -0.00230986 -0.00297657 -0.00390989
internal_weight=2523 902 1621 393 826 339 1228 1178 172 245 209 148 1083 1053 290 258 96 95 162 80 487 383 260 227 179 115 221 179 141 100
internal_count=2523 902 1621 393 826 339 1228 1178 172 245 209 148 1083 1053 290 258 96 95 162 80 487 383 260 227 179 115 221 179 141 100
is_linear=0
shrinkage=0.01


Tree=21
num_leaves=31
num_cat=0
split_feature=333 124 312 118 388 13 115 36 14 76 404 337 350 57 120 330 350 34 116 271 115 72 11 312 308 247 148 338 228 287
split_gain=4.68086 4.96867 4.49537 4.29153 3.96745 4.99659 5.14205 4.64357 5.9585 5.29217 4.47429 4.02101 3.87149 3.68427 3.77851 3.63499 3.52586 3.46964 3.9773 3.43735 3.52101 3.43506 3.42044 3.40719 3.27907 3.20883 5.34637 4.37166 3.6827 3.11533
threshold=0.31698527858108044 -1.4252983625758808 0.78771903834376855 -0.14121142586201904 -0.61911954525846868 0.41939366817300233 0.69394434962761897 -0.53454292240107637 0.082407105148246548 0.0051364979686221524 -0.21566216752436698 -0.39218635369248317 -0.67879662504068572 0.67652447396055315 -0.74697400617703746 -0.34451013236115119 0.74227291175454635 -0.45127807843763046 0.48498351801189526 -0.67878183016410321 0.38056179407448881 -0.30339086356710038 0.80310856951901377 -0.71839907297945493 -0.057720388777302144 -0.20423972643208513 0.25143811337866623 -0.064657372821459655 0.14515060386683873 -0.098742223847529995
decision_type=2 2 2 2 2 2 2 2 2 2 2 2 2 2 2 2 2 2 2 2 2 2 2 2 2 2 2 2 2 2
left_child=4 2 -2 16 7 6 13 8 -1 10 24 -7 -13 14 15 -6 22 18 -16 -11 -21 -14 -3 -8 -9 -5 27 -27 -28 -12
right_child=1 3 -4 25 5 11 23 9 -10 19 29 12 21 -15 17 -17 -18 -19 -20 20 -22 -23 -24 -25 -26 26 28 -29 -30 -31
leaf_value=-0.0033736848834027746 -0.00067661625651740725 -0.0014857826519700541 0.0040094702992410887 -0.00091597930636877815 -0.0003655956308357418 0.003858613137603749 -0.0038120604588127716 0.00066732472258473874 0.00045814912641115155 0.00078716638460755344 0.00040624129822031715 0.0038273488497361542 0.0015917026408715175 0.0022373856129013891 -0.0026547521791524357 0.0033504933344998527 -0.0033174569819165375 0.00048319357367266474 0.0010229623720182904 -0.0049348253922330007 -0.00094473756711325942 -0.0022881951985804926 0.00082710241173188418 -0.00038274308451666282 -0.0025104623272063885 8.854491511980693e-05 -0.003197474479675293 0.0045261725324850814 0.0012809752725639985 0.0033437149168065424
leaf_weight=96 36 327 40 178 38 77 39 100 65 48 69 30 46 124 88 68 85 299 40 34 72 41 75 115 45 43 36 50 32 87
leaf_count=96 36 327 40 178 38 77 39 100 65 48 69 30 46 124 88 68 85 299 40 34 72 41 75 115 45 43 36 50 32 87
internal_value=-5.17358e-05 -0.000630033 0.00176521 -0.000860188 0.000267355 0.000655947 0.000301628 -0.000358612 -0.00180936 0.00014946 0.000929073 0.00209344 0.000844408 0.000692412 0.000316614 0.00198991 -0.00145962 -9.44569e-05 -0.00146895 -0.00133465 -0.00233856 -0.000190906 -0.00103994 -0.001321 -0.00030561 0 0.00102083 0.00257206 -0.00104216 0.00209768
internal_weight=2523 902 76 826 1621 1005 811 616 161 455 301 194 117 657 533 106 487 427 128 154 106 87 402 154 145 339 161 93 68 156
internal_count=2523 902 76 826 1621 1005 811 616 161 455 301 194 117 657 533 106 487 427 128 154 106 87 402 154 145 339 161 93 68 156
is_linear=0
shrinkage=0.01


Tree=22
num_leaves=31
num_cat=0
split_feature=333 124 136 294 77 331 312 118 76 388 36 408 349 283 223 13 295 350 221 350 54 368 223 368 226 234 61 204 277 394
split_gain=4.6118 4.90099 4.52557 5.74609 5.53961 4.96813 4.43527 4.23498 3.92257 5.94709 4.90173 5.82449 4.29311 3.89108 3.76659 4.08093 3.97584 3.69903 3.54477 3.48632 3.47979 3.38955 3.38316 3.64076 3.354 4.4741 4.37459 3.33071 4.24725 3.37067
threshold=0.31698527858108044 -1.4252983625758808 0.70075370995319164 0.013391700405277792 -0.48966821111943543 -0.25797232913961216 0.78771903834376855 -0.14121142586201904 0.023238521044383325 0.31298989442427455 -0.36269532994138159 -0.48068782812573335 0.6723174002425848 0.9215745284869109 -0.87517654644166532 0.43457659113434638 0.16533122146398332 0.54914327878619773 -0.22865190343718964 0.74227291175454635 0.15541695373330897 0.62775091444021658 -0.67126301550795386 -0.74241609302915801 0.82683607488770794 0.23353459990977848 0.019629730259962407 -0.45815087007454486 0.11162953098691117 -0.560112462817834
decision_type=2 2 2 2 2 2 2 2 2 2 2 2 2 2 2 2 2 2 2 2 2 2 2 2 2 2 2 2 2 2
left_child=2 6 8 -4 5 -5 -2 19 10 27 14 21 -11 24 -1 16 -16 18 -13 22 -20 -12 -3 -24 25 26 -9 -10 -29 -30
right_child=1 7 3 4 -6 -7 -8 13 9 12 11 17 -14 -15 15 -17 -18 -19 20 -21 -22 -23 23 -25 -26 -27 -28 28 29 -31
leaf_value=-0.0030991328862081803 -0.00067127456692488575 -0.0029830458820357016 0.00070638497599008455 -0.0022720578139824037 -0.0028521754972422749 0.0026557931159105564 0.0039827405253336544 -0.0016370802942316893 -0.0027449756115674974 0.0024927203293801064 0.00074973258230000219 0.0040468061113253587 -0.0013459346528785924 0.0017133905832270103 -0.0011189352168345496 0.0028044181172649759 0.0020054197690703652 0.0003798197116702795 0.00032552033956365095 -0.0032968658795473221 0.0034279166545038054 -0.0026535868226813205 0.001339059767064949 -0.0011452238799547453 0.0020373594025640111 -0.0033244235204024745 0.0018253776170904673 0.0006903388814746657 0 -0.0045982487514779407
leaf_weight=34 36 72 169 35 146 43 40 84 82 103 114 127 37 94 151 52 53 90 90 85 64 37 73 257 36 64 61 130 32 32
leaf_count=34 36 72 169 35 146 43 40 84 82 103 114 127 37 94 151 52 53 90 90 85 64 37 73 257 36 64 61 130 32 32
internal_value=-5.12895e-05 -0.000625317 0.000265422 -0.00066047 -0.00171096 0.000380557 0.00175342 -0.000853929 0.000566395 -0.000212812 0.00097128 0.00154895 0.00143834 0 -5.48945e-05 0.000350929 -0.000271354 0.0022203 0.00278526 -0.0014494 0.0016743 -7.53e-05 -0.001032 -0.000575854 -0.000659038 -0.0011621 -0.000141429 -0.00107266 -0.000319499 -0.00240525
internal_weight=2523 902 1621 393 224 78 76 826 1228 416 812 522 140 339 290 256 204 371 281 487 154 151 402 330 245 209 145 276 194 64
internal_count=2523 902 1621 393 224 78 76 826 1228 416 812 522 140 339 290 256 204 371 281 487 154 151 402 330 245 209 145 276 194 64
is_linear=0
shrinkage=0.01


end of trees

feature_importances:
Column_136=17
Column_333=15
Column_330=14
Column_350=13
Column_76=12
Column_388=12
Column_161=11
Column_223=11
Column_179=10
Column_383=10
Column_385=10
Column_36=9
Column_221=9
Column_244=9
Column_407=9
Column_32=8
Column_34=8
Column_77=8
Column_346=8
Column_392=8
Column_57=7
Column_118=7
Column_124=7
Column_246=7
Column_294=7
Column_368=7
Column_13=6
Column_115=6
Column_116=6
Column_137=6
Column_145=6
Column_371=6
Column_54=5
Column_61=5
Column_139=5
Column_205=5
Column_283=5
Column_305=5
Column_396=5
Column_414=5
Column_28=4
Column_55=4
Column_99=4
Column_113=4
Column_120=4
Column_135=4
Column_148=4
Column_160=4
Column_226=4
Column_235=4
Column_287=4
Column_300=4
Column_326=4
Column_331=4
Column_366=4
Column_394=4
Column_408=4
Column_415=4
Column_16=3
Column_79=3
Column_98=3
Column_117=3
Column_144=3
Column_187=3
Column_195=3
Column_203=3
Column_218=3
Column_225=3
Column_237=3
Column_245=3
Column_264=3
Column_267=3
Column_270=3
Column_277=3
Column_308=3
Column_312=3
Column_322=3
Column_327=3
Column_349=3
Column_363=3
Column_393=3
Column_410=3
Column_413=3
Column_3=2
Column_11=2
Column_12=2
Column_14=2
Column_15=2
Column_35=2
Column_43=2
Column_50=2
Column_52=2
Column_67=2
Column_71=2
Column_74=2
Column_85=2
Column_92=2
Column_105=2
Column_112=2
Column_114=2
Column_123=2
Column_125=2
Column_134=2
Column_153=2
Column_156=2
Column_164=2
Column_181=2
Column_182=2
Column_204=2
Column_217=2
Column_220=2
Column_228=2
Column_239=2
Column_242=2
Column_247=2
Column_261=2
Column_263=2
Column_266=2
Column_271=2
Column_279=2
Column_288=2
Column_289=2
Column_307=2
Column_328=2
Column_338=2
Column_351=2
Column_358=2
Column_362=2
Column_369=2
Column_372=2
Column_378=2
Column_379=2
Column_381=2
Column_389=2
Column_391=2
Column_399=2
Column_404=2
Column_409=2
Column_0=1
Column_2=1
Column_6=1
Column_7=1
Column_8=1
Column_9=1
Column_10=1
Column_19=1
Column_20=1
Column_24=1
Column_26=1
Column_27=1
Column_29=1
Column_37=1
Column_51=1
Column_56=1
Column_58=1
Column_62=1
Column_66=1
Column_68=1
Column_70=1
Column_72=1
Column_73=1
Column_78=1
Column_80=1
Column_81=1
Column_82=1
Column_83=1
Column_87=1
Column_90=1
Column_97=1
Column_102=1
Column_108=1
Column_109=1
Column_111=1
Column_119=1
Column_121=1
Column_141=1
Column_142=1
Column_152=1
Column_154=1
Column_157=1
Column_158=1
Column_163=1
Column_165=1
Column_176=1
Column_185=1
Column_186=1
Column_193=1
Column_194=1
Column_202=1
Column_206=1
Column_207=1
Column_212=1
Column_215=1
Column_216=1
Column_219=1
Column_224=1
Column_229=1
Column_234=1
Column_236=1
Column_240=1
Column_248=1
Column_250=1
Column_251=1
Column_252=1
Column_259=1
Column_262=1
Column_265=1
Column_272=1
Column_281=1
Column_284=1
Column_286=1
Column_292=1
Column_295=1
Column_297=1
Column_309=1
Column_314=1
Column_320=1
Column_321=1
Column_324=1
Column_337=1
Column_344=1
Column_345=1
Column_347=1
Column_353=1
Column_354=1
Column_355=1
Column_356=1
Column_357=1
Column_359=1
Column_370=1
Column_375=1
Column_382=1
Column_386=1
Column_387=1
Column_390=1
Column_397=1
Column_400=1
Column_401=1
Column_405=1
Column_406=1
Column_417=1
Column_418=1

parameters:
[boosting: gbdt]
[objective: huber]
[metric: huber]
[tree_learner: serial]
[device_type: cpu]
[data_sample_strategy: bagging]
[data: ]
[valid: ]
[num_iterations: 500]
[learning_rate: 0.01]
[num_leaves: 31]
[num_threads: 16]
[seed: 42]
[deterministic: 0]
[force_col_wise: 0]
[force_row_wise: 0]
[histogram_pool_size: -1]
[max_depth: -1]
[min_data_in_leaf: 30]
[min_sum_hessian_in_leaf: 0.001]
[bagging_fraction: 0.8]
[pos_bagging_fraction: 1]
[neg_bagging_fraction: 1]
[bagging_freq: 0]
[bagging_seed: 400]
[bagging_by_query: 0]
[feature_fraction: 0.7]
[feature_fraction_bynode: 1]
[feature_fraction_seed: 30056]
[extra_trees: 0]
[extra_seed: 12879]
[early_stopping_round: 0]
[early_stopping_min_delta: 0]
[first_metric_only: 0]
[max_delta_step: 0]
[lambda_l1: 0.5]
[lambda_l2: 2]
[linear_lambda: 0]
[min_gain_to_split: 0]
[drop_rate: 0.1]
[max_drop: 50]
[skip_drop: 0.5]
[xgboost_dart_mode: 0]
[uniform_drop: 0]
[drop_seed: 17869]
[top_rate: 0.2]
[other_rate: 0.1]
[min_data_per_group: 100]
[max_cat_threshold: 32]
[cat_l2: 10]
[cat_smooth: 10]
[max_cat_to_onehot: 4]
[top_k: 20]
[monotone_constraints: ]
[monotone_constraints_method: basic]
[monotone_penalty: 0]
[feature_contri: ]
[forcedsplits_filename: ]
[refit_decay_rate: 0.9]
[cegb_tradeoff: 1]
[cegb_penalty_split: 0]
[cegb_penalty_feature_lazy: ]
[cegb_penalty_feature_coupled: ]
[path_smooth: 0]
[interaction_constraints: ]
[verbosity: -1]
[saved_feature_importance_type: 0]
[use_quantized_grad: 0]
[num_grad_quant_bins: 4]
[quant_train_renew_leaf: 0]
[stochastic_rounding: 1]
[linear_tree: 0]
[max_bin: 255]
[max_bin_by_feature: ]
[min_data_in_bin: 3]
[bin_construct_sample_cnt: 200000]
[data_random_seed: 175]
[is_enable_sparse: 1]
[enable_bundle: 1]
[use_missing: 1]
[zero_as_missing: 0]
[feature_pre_filter: 1]
[pre_partition: 0]
[two_round: 0]
[header: 0]
[label_column: ]
[weight_column: ]
[group_column: ]
[ignore_column: ]
[categorical_feature: ]
[forcedbins_filename: ]
[precise_float_parser: 0]
[parser_config_file: ]
[objective_seed: 16083]
[num_class: 1]
[is_unbalance: 0]
[scale_pos_weight: 1]
[sigmoid: 1]
[boost_from_average: 1]
[reg_sqrt: 0]
[alpha: 0.9]
[fair_c: 1]
[poisson_max_delta_step: 0.7]
[tweedie_variance_power: 1.5]
[lambdarank_truncation_level: 30]
[lambdarank_norm: 1]
[label_gain: ]
[lambdarank_position_bias_regularization: 0]
[eval_at: ]
[multi_error_top_k: 1]
[auc_mu_weights: ]
[num_machines: 1]
[local_listen_port: 12400]
[time_out: 120]
[machine_list_filename: ]
[machines: ]
[gpu_platform_id: -1]
[gpu_device_id: -1]
[gpu_use_dp: 0]
[num_gpu: 1]

end of parameters

pandas_categorical:null
