{"learner":{"attributes":{"best_iteration":"10","best_score":"0.1945027820647709","scikit_learn":"{\"_estimator_type\": \"regressor\"}"},"feature_names":[],"feature_types":[],"gradient_booster":{"model":{"gbtree_model_param":{"num_parallel_tree":"1","num_trees":"61"},"iteration_indptr":[0,1,2,3,4,5,6,7,8,9,10,11,12,13,14,15,16,17,18,19,20,21,22,23,24,25,26,27,28,29,30,31,32,33,34,35,36,37,38,39,40,41,42,43,44,45,46,47,48,49,50,51,52,53,54,55,56,57,58,59,60,61],"tree_info":[0,0,0,0,0,0,0,0,0,0,0,0,0,0,0,0,0,0,0,0,0,0,0,0,0,0,0,0,0,0,0,0,0,0,0,0,0,0,0,0,0,0,0,0,0,0,0,0,0,0,0,0,0,0,0,0,0,0,0,0,0],"trees":[{"base_weights":[5.061893E-3,-3.885994E-1,1.7651029E-2,-6.1048764E-1,8.993082E-3,6.721618E-3,7.331664E-1,-1.5552859E-2,-2.1418463E-1,1.6883787E-2,-4.8049745E-1,1.2351177E-2,1.9773198E-2,-7.554938E-3,1.6371512E-3,2.8346265E-3,-6.3110624E-6,-1.2825413E-2,-1.8698118E-3,4.0733023E-3,-3.145398E-3],"categories":[],"categories_nodes":[],"categories_segments":[],"categories_sizes":[],"default_left":[0,0,0,0,0,0,0,0,0,0,0,0,0,0,0,0,0,0,0,0,0],"id":0,"left_children":[1,3,5,7,-1,9,11,-1,13,15,17,19,-1,-1,-1,-1,-1,-1,-1,-1,-1],"loss_changes":[6.8826756E0,1.308954E1,1.0496812E1,1.3424366E1,0E0,6.570624E0,1.7879549E1,0E0,6.043091E0,6.1374965E0,5.874179E0,2.054273E0,0E0,0E0,0E0,0E0,0E0,0E0,0E0,0E0,0E0],"parents":[2147483647,0,0,1,1,2,2,3,3,5,5,6,6,8,8,9,9,10,10,11,11],"right_children":[2,4,6,8,-1,10,12,-1,14,16,18,20,-1,-1,-1,-1,-1,-1,-1,-1,-1],"split_conditions":[-2.1211307E0,1.862349E0,2.3783631E0,-6.565092E-1,8.993082E-3,2.1766303E0,4.1820112E-1,-1.5552859E-2,-1.1052966E0,-1.2371585E0,-5.2687865E-1,2.8921196E-1,1.9773198E-2,-7.554938E-3,1.6371512E-3,2.8346265E-3,-6.3110624E-6,-1.2825413E-2,-1.8698118E-3,4.0733023E-3,-3.145398E-3],"split_indices":[276,175,59,368,0,162,113,0,123,229,71,258,0,0,0,0,0,0,0,0,0],"split_type":[0,0,0,0,0,0,0,0,0,0,0,0,0,0,0,0,0,0,0,0,0],"sum_hessian":[1.3927056E3,4.1523514E1,1.3511821E3,3.616024E1,5.363276E0,1.3324824E3,1.8699656E1,9.314686E0,2.6845552E1,1.3068776E3,2.5604921E1,1.2850078E1,5.849579E0,1.05292015E1,1.631635E1,7.9519165E1,1.2273584E3,5.414512E0,2.0190409E1,5.790399E0,7.059678E0],"tree_param":{"num_deleted":"0","num_feature":"420","num_nodes":"21","size_leaf_vector":"1"}},{"base_weights":[8.313898E-4,-9.008869E-3,8.3499225E-3,4.1975388E-1,-2.4071813E-3,1.3408822E-1,1.5732875E-2,5.8146346E-1,-1.0260185E-2,-7.3142E-3,3.7506528E-3,-8.350352E-4,1.0160627E-2,5.6673627E-5,-3.00705E-3],"categories":[],"categories_nodes":[],"categories_segments":[],"categories_sizes":[],"default_left":[0,0,0,0,0,0,0,0,0,0,0,0,0,0,0],"id":1,"left_children":[1,-1,3,5,7,9,-1,11,13,-1,-1,-1,-1,-1,-1],"loss_changes":[9.331936E0,0E0,6.142021E0,1.1165047E1,6.1153193E0,6.643567E0,0E0,5.334814E0,6.175649E0,0E0,0E0,0E0,0E0,0E0,0E0],"parents":[2147483647,0,0,2,2,3,3,4,4,5,5,7,7,8,8],"right_children":[2,-1,4,6,8,10,-1,12,14,-1,-1,-1,-1,-1,-1],"split_conditions":[-2.9544125E0,-9.008869E-3,-1.7538365E0,1.4711845E0,-2.4133692E0,-1.4897337E0,1.5732875E-2,-4.026744E-1,1.4277867E0,-7.3142E-3,3.7506528E-3,-8.350352E-4,1.0160627E-2,5.6673627E-5,-3.00705E-3],"split_indices":[382,0,335,143,288,22,0,235,140,0,0,0,0,0,0],"split_type":[0,0,0,0,0,0,0,0,0,0,0,0,0,0,0],"sum_hessian":[1.386474E3,9.881031E0,1.3765929E3,3.3860672E1,1.3427323E3,2.8551193E1,5.309479E0,1.6196861E1,1.3265354E3,5.4628096E0,2.3088385E1,6.7897577E0,9.407104E0,1.2586399E3,6.7895454E1],"tree_param":{"num_deleted":"0","num_feature":"420","num_nodes":"15","size_leaf_vector":"1"}},{"base_weights":[1.2735593E-2,6.0767275E-3,6.4973664E-1,-4.6842533E-1,1.9478606E-2,-7.1138446E-4,1.4338511E-2,-1.6145658E-2,-1.8304549E-1,1.1534204E-2,9.293286E-3,1.705579E-3,-6.349567E-3,3.7843813E-3,2.4055984E-5],"categories":[],"categories_nodes":[],"categories_segments":[],"categories_sizes":[],"default_left":[0,0,0,0,0,0,0,0,0,0,0,0,0,0,0],"id":2,"left_children":[1,3,5,7,9,-1,-1,-1,11,13,-1,-1,-1,-1,-1],"loss_changes":[5.8226595E0,8.724598E0,8.319231E0,1.169991E1,9.580651E0,0E0,0E0,0E0,5.3105874E0,4.4175453E0,0E0,0E0,0E0,0E0,0E0],"parents":[2147483647,0,0,1,1,2,2,3,3,4,4,8,8,9,9],"right_children":[2,4,6,8,10,-1,-1,-1,12,14,-1,-1,-1,-1,-1],"split_conditions":[3.8114748E0,-2.2364795E0,3.284227E-1,-1.0887657E0,2.4782996E0,-7.1138446E-4,1.4338511E-2,-1.6145658E-2,-1.6329206E0,-1.7983233E0,9.293286E-3,1.705579E-3,-6.349567E-3,3.7843813E-3,2.4055984E-5],"split_indices":[266,297,345,347,101,0,0,0,22,208,0,0,0,0,0],"split_type":[0,0,0,0,0,0,0,0,0,0,0,0,0,0,0],"sum_hessian":[1.3880743E3,1.3753683E3,1.2706062E1,3.6175117E1,1.3391931E3,7.2641506E0,5.441911E0,5.7490416E0,3.0426075E1,1.329216E3,9.977193E0,1.7469473E1,1.2956603E1,3.0529068E1,1.2986869E3],"tree_param":{"num_deleted":"0","num_feature":"420","num_nodes":"15","size_leaf_vector":"1"}},{"base_weights":[-2.9126538E-3,7.250048E-1,-1.1445381E-2,3.2827916E-4,1.4409076E-2,-3.8624385E-1,2.8210827E-3,-1.2181003E-2,-1.4376658E-1,-3.2304933E-3,1.1655848E-2,2.2426115E-4,-9.65536E-3,1.9484134E-4,-1.8533133E-3],"categories":[],"categories_nodes":[],"categories_segments":[],"categories_sizes":[],"default_left":[0,0,0,0,0,0,0,0,0,0,0,0,0,0,0],"id":3,"left_children":[1,3,5,-1,-1,7,9,-1,11,13,-1,-1,-1,-1,-1],"loss_changes":[8.400374E0,7.5454445E0,7.2466755E0,0E0,0E0,9.623809E0,9.266592E0,0E0,5.626325E0,5.3756094E0,0E0,0E0,0E0,0E0,0E0],"parents":[2147483647,0,0,1,1,2,2,5,5,6,6,8,8,9,9],"right_children":[2,4,6,-1,-1,8,10,-1,12,14,-1,-1,-1,-1,-1],"split_conditions":[-2.6997108E0,3.8127613E0,-1.8961817E0,3.2827916E-4,1.4409076E-2,-4.9353147E-1,2.6650574E0,-1.2181003E-2,-5.105099E-1,1.0054181E0,1.1655848E-2,2.2426115E-4,-9.65536E-3,1.9484134E-4,-1.8533133E-3],"split_indices":[288,287,149,0,0,382,206,0,272,347,0,0,0,0,0],"split_type":[0,0,0,0,0,0,0,0,0,0,0,0,0,0,0],"sum_hessian":[1.3604576E3,1.4167565E1,1.3462902E3,8.071772E0,6.095794E0,4.8189472E1,1.2981006E3,9.421109E0,3.876836E1,1.2927822E3,5.3184237E0,3.3359245E1,5.4091177E0,1.1501116E3,1.4267058E2],"tree_param":{"num_deleted":"0","num_feature":"420","num_nodes":"15","size_leaf_vector":"1"}},{"base_weights":[6.532957E-3,-1.0256196E-2,1.3431228E-2,6.246415E-1,2.513303E-3,1.3177566E-1,1.521232E-2,2.8682195E-2,-1.387272E-1,5.7728384E-3,-3.7773072E-3,1.2949923E-4,3.974073E-3,-6.2208674E-3,-8.6666754E-4],"categories":[],"categories_nodes":[],"categories_segments":[],"categories_sizes":[],"default_left":[0,0,0,0,0,0,0,0,0,0,0,0,0,0,0],"id":4,"left_children":[1,-1,3,5,7,9,-1,11,13,-1,-1,-1,-1,-1,-1],"loss_changes":[9.888749E0,0E0,9.226961E0,1.025879E1,5.057454E0,4.2909946E0,0E0,6.66529E0,5.227387E0,0E0,0E0,0E0,0E0,0E0,0E0],"parents":[2147483647,0,0,2,2,3,3,4,4,5,5,7,7,8,8],"right_children":[2,-1,4,6,8,10,-1,12,14,-1,-1,-1,-1,-1,-1],"split_conditions":[-2.5964978E0,-1.0256196E-2,-1.9297668E0,1.1730459E0,8.3024013E-1,-1.753017E0,1.521232E-2,1.5028412E0,-1.2761445E0,5.7728384E-3,-3.7773072E-3,1.2949923E-4,3.974073E-3,-6.2208674E-3,-8.6666754E-4],"split_indices":[356,0,335,184,347,398,0,248,107,0,0,0,0,0,0],"split_type":[0,0,0,0,0,0,0,0,0,0,0,0,0,0,0],"sum_hessian":[1.3986699E3,7.7188926E0,1.390951E3,2.2769766E1,1.3681813E3,1.5875062E1,6.894704E0,1.1559175E3,2.1226376E2,8.467702E0,7.4073596E0,1.1103658E3,4.5551723E1,1.8855307E1,1.9340846E2],"tree_param":{"num_deleted":"0","num_feature":"420","num_nodes":"15","size_leaf_vector":"1"}},{"base_weights":[1.2398718E-3,-7.711092E-1,8.279416E-3,-1.4011394E-2,5.4065575E-4,5.1995826E-1,-1.2336939E-3,1.2040397E0,-1.6126579E-1,-8.407662E-3,4.9175698E-1,-0E0,2.1477547E-2,-6.429391E-3,4.2380933E-3,5.5123714E-6,-3.7139314E-3,-3.690605E-3,1.3654144E-2],"categories":[],"categories_nodes":[],"categories_segments":[],"categories_sizes":[],"default_left":[0,0,0,0,0,0,0,0,0,0,0,0,0,0,0,0,0,0,0],"id":5,"left_children":[1,3,5,-1,-1,7,9,11,13,15,17,-1,-1,-1,-1,-1,-1,-1,-1],"loss_changes":[7.414266E0,6.6508875E0,6.6977997E0,0E0,0E0,1.20982895E1,4.7023973E0,1.4354969E1,4.3287387E0,4.3427997E0,1.5194958E1,0E0,0E0,0E0,0E0,0E0,0E0,0E0,0E0],"parents":[2147483647,0,0,1,1,2,2,5,5,6,6,7,7,8,8,9,9,10,10],"right_children":[2,4,6,-1,-1,8,10,12,14,16,18,-1,-1,-1,-1,-1,-1,-1,-1],"split_conditions":[-2.9544125E0,1.0141984E-1,-2.312666E0,-1.4011394E-2,5.4065575E-4,3.8760093E-1,2.4786522E0,-5.7531536E-1,-7.450944E-1,2.0045555E0,-3.830092E-1,-0E0,2.1477547E-2,-6.429391E-3,4.2380933E-3,5.5123714E-6,-3.7139314E-3,-3.690605E-3,1.3654144E-2],"split_indices":[382,60,33,0,0,292,80,328,1,15,41,0,0,0,0,0,0,0,0],"split_type":[0,0,0,0,0,0,0,0,0,0,0,0,0,0,0,0,0,0,0],"sum_hessian":[1.3744414E3,1.0815318E1,1.3636261E3,5.6078563E0,5.207462E0,2.3612522E1,1.3400135E3,1.1280401E1,1.2332121E1,1.3224467E3,1.7566895E1,5.6518655E0,5.6285357E0,6.7761254E0,5.5559955E0,1.2917861E3,3.0660538E1,9.227199E0,8.339697E0],"tree_param":{"num_deleted":"0","num_feature":"420","num_nodes":"19","size_leaf_vector":"1"}},{"base_weights":[-1.9577371E-3,8.54623E-3,-8.203934E-3,-5.3341156E-1,7.4058175E-3,-1.5941795E-2,-2.383682E-1,-1.4371048E-3,6.5113336E-1,5.105766E-3,-4.842692E-3,3.352015E-3,-1.3051897E-4,-1.8071267E-3,1.3694594E-2],"categories":[],"categories_nodes":[],"categories_segments":[],"categories_sizes":[],"default_left":[0,0,0,0,0,0,0,0,0,0,0,0,0,0,0],"id":6,"left_children":[1,-1,3,5,7,-1,9,11,13,-1,-1,-1,-1,-1,-1],"loss_changes":[7.473E0,0E0,1.1552378E1,1.1975602E1,7.8240128E0,0E0,6.5668836E0,5.235919E0,1.1618436E1,0E0,0E0,0E0,0E0,0E0,0E0],"parents":[2147483647,0,0,2,2,3,3,4,4,6,6,7,7,8,8],"right_children":[2,-1,4,6,8,-1,10,12,14,-1,-1,-1,-1,-1,-1],"split_conditions":[-2.514605E0,8.54623E-3,-1.8961817E0,-2.0535307E0,2.3783631E0,-1.5941795E-2,-1.6549695E0,-1.4162991E0,-1.2041453E0,5.105766E-3,-4.842692E-3,3.352015E-3,-1.3051897E-4,-1.8071267E-3,1.3694594E-2],"split_indices":[82,0,149,337,59,0,400,167,15,0,0,0,0,0,0],"split_type":[0,0,0,0,0,0,0,0,0,0,0,0,0,0,0],"sum_hessian":[1.4090793E3,8.609861E0,1.4004695E3,3.9170853E1,1.3612986E3,7.0130672E0,3.2157784E1,1.3441749E3,1.7123701E1,7.4490123E0,2.4708773E1,4.3149418E1,1.3010255E3,8.390566E0,8.733136E0],"tree_param":{"num_deleted":"0","num_feature":"420","num_nodes":"15","size_leaf_vector":"1"}},{"base_weights":[-5.3119836E-3,-1.7419973E-2,7.6434845E-1,-8.5780525E-1,-9.155634E-3,1.6724083E0,-4.496512E-3,2.922482E-3,-1.7561937E-2,5.614842E-1,-1.649946E-2,3.5642462E-3,2.690912E-2,1.2232326E-2,-0E0,5.933186E-4,-6.679289E-4],"categories":[],"categories_nodes":[],"categories_segments":[],"categories_sizes":[],"default_left":[0,0,0,0,0,0,0,0,0,0,0,0,0,0,0,0,0],"id":7,"left_children":[1,3,5,7,9,11,-1,-1,-1,13,15,-1,-1,-1,-1,-1,-1],"loss_changes":[1.2882384E1,9.404942E0,2.484854E1,1.45453E1,5.644669E0,1.5160034E1,0E0,0E0,0E0,6.350494E0,5.121169E0,0E0,0E0,0E0,0E0,0E0,0E0],"parents":[2147483647,0,0,1,1,2,2,3,3,4,4,5,5,9,9,10,10],"right_children":[2,4,6,8,10,12,-1,-1,-1,14,16,-1,-1,-1,-1,-1,-1],"split_conditions":[2.4782996E0,-2.2915795E0,7.446698E-1,-4.287137E-1,-2.2712173E0,4.948514E-1,-4.496512E-3,2.922482E-3,-1.7561937E-2,5.330679E-1,-1.477928E-1,3.5642462E-3,2.690912E-2,1.2232326E-2,-0E0,5.933186E-4,-6.679289E-4],"split_indices":[101,337,292,97,32,394,0,0,0,304,418,0,0,0,0,0,0],"split_type":[0,0,0,0,0,0,0,0,0,0,0,0,0,0,0,0,0],"sum_hessian":[1.3867443E3,1.3668376E3,1.9906565E1,1.1691161E1,1.3551465E3,1.1111352E1,8.795213E0,5.522448E0,6.1687126E0,1.5607274E1,1.3395393E3,5.774007E0,5.337345E0,6.3485775E0,9.258697E0,5.3325354E2,8.062857E2],"tree_param":{"num_deleted":"0","num_feature":"420","num_nodes":"17","size_leaf_vector":"1"}},{"base_weights":[-1.0176091E-2,-6.298126E-1,4.3784794E-3,-1.6633812E-2,-2.6219007E-1,-3.2082447E-3,9.710926E-3,3.1690922E-1,-7.034341E-1,3.0754414E-1,-1.5655296E-2,9.315461E-3,-3.1414512E-3,-1.2814961E-2,-1.153298E-3,-2.9600412E-4,6.4812778E-3,-4.760206E-6,-3.333799E-3],"categories":[],"categories_nodes":[],"categories_segments":[],"categories_sizes":[],"default_left":[0,0,0,0,0,0,0,0,0,0,0,0,0,0,0,0,0,0,0],"id":8,"left_children":[1,3,5,-1,7,9,-1,11,13,15,17,-1,-1,-1,-1,-1,-1,-1,-1],"loss_changes":[1.2602851E1,1.1338408E1,1.0072109E1,0E0,6.890821E0,5.2008533E0,0E0,5.142232E0,4.7518945E0,6.0346236E0,6.23613E0,0E0,0E0,0E0,0E0,0E0,0E0,0E0,0E0],"parents":[2147483647,0,0,1,1,2,2,4,4,5,5,7,7,8,8,9,9,10,10],"right_children":[2,4,6,-1,8,10,-1,12,14,16,18,-1,-1,-1,-1,-1,-1,-1,-1],"split_conditions":[-2.3262403E0,-1.8264222E0,2.5966547E0,-1.6633812E-2,-1.7569073E0,-1.4162991E0,9.710926E-3,-1.6698754E-1,5.683569E-1,-1.2143135E0,1.4998132E0,9.315461E-3,-3.1414512E-3,-1.2814961E-2,-1.153298E-3,-2.9600412E-4,6.4812778E-3,-4.760206E-6,-3.333799E-3],"split_indices":[276,377,101,0,22,167,0,36,312,212,163,0,0,0,0,0,0,0,0],"split_type":[0,0,0,0,0,0,0,0,0,0,0,0,0,0,0,0,0,0,0],"sum_hessian":[1.3885438E3,3.0569292E1,1.3579745E3,6.56179E0,2.4007502E1,1.3487809E3,9.193586E0,1.0466741E1,1.3540761E1,5.0265247E1,1.2985156E3,5.0207825E0,5.4459586E0,5.8510456E0,7.6897154E0,2.5800898E1,2.4464348E1,1.241042E3,5.747372E1],"tree_param":{"num_deleted":"0","num_feature":"420","num_nodes":"19","size_leaf_vector":"1"}},{"base_weights":[1.1413983E-3,-3.3332855E-1,1.2893342E-2,2.2574821E-1,-7.8105813E-1,4.195875E-3,6.8352544E-1,1.05789285E-2,-1.6297807E-1,-1.9562267E-2,-2.3800647E-1,5.7981664E-1,-3.0541136E-3,-2.8244483E-3,1.2974852E-2,4.3963017E-3,-5.15516E-3,-8.2506845E-3,1.965795E-3,1.220748E-2,-4.649338E-4,1.9353232E-5,-7.390855E-3],"categories":[],"categories_nodes":[],"categories_segments":[],"categories_sizes":[],"default_left":[0,0,0,0,0,0,0,0,0,0,0,0,0,0,0,0,0,0,0,0,0,0,0],"id":9,"left_children":[1,3,5,7,9,11,13,-1,15,-1,17,19,21,-1,-1,-1,-1,-1,-1,-1,-1,-1,-1],"loss_changes":[5.4351773E0,1.2065714E1,7.765328E0,7.44241E0,1.5988918E1,5.6036525E0,1.0762314E1,0E0,3.7819467E0,0E0,5.3794284E0,6.906854E0,4.8980594E0,0E0,0E0,0E0,0E0,0E0,0E0,0E0,0E0,0E0,0E0],"parents":[2147483647,0,0,1,1,2,2,3,3,4,4,5,5,6,6,8,8,10,10,11,11,12,12],"right_children":[2,4,6,8,10,12,14,-1,16,-1,18,20,22,-1,-1,-1,-1,-1,-1,-1,-1,-1,-1],"split_conditions":[-1.8961817E0,-1.7202023E0,2.4786522E0,-1.6119665E0,4.4563374E-1,-2.2712173E0,4.869442E-1,1.05789285E-2,-7.840787E-1,-1.9562267E-2,2.2170739E-1,-1.0942826E-1,2.3244553E0,-2.8244483E-3,1.2974852E-2,4.3963017E-3,-5.15516E-3,-8.2506845E-3,1.965795E-3,1.220748E-2,-4.649338E-4,1.9353232E-5,-7.390855E-3],"split_indices":[149,61,80,27,147,32,67,0,393,0,79,370,101,0,0,0,0,0,0,0,0,0,0],"split_type":[0,0,0,0,0,0,0,0,0,0,0,0,0,0,0,0,0,0,0,0,0,0,0],"sum_hessian":[1.3877723E3,4.542364E1,1.3423488E3,2.0431417E1,2.4992226E1,1.3267998E3,1.5548848E1,5.765129E0,1.4666288E1,6.6070147E0,1.838521E1,1.5201369E1,1.3115985E3,6.2937217E0,9.255127E0,5.171758E0,9.49453E0,7.3452215E0,1.10399885E1,6.888279E0,8.31309E0,1.3041183E3,7.4802136E0],"tree_param":{"num_deleted":"0","num_feature":"420","num_nodes":"23","size_leaf_vector":"1"}},{"base_weights":[4.163663E-3,-3.0657646E-1,2.2161353E-2,2.809689E-1,-5.2441734E-1,1.2987989E-2,6.768422E-1,1.159648E-2,-4.1119692E-1,-1.8038968E-2,-3.0890495E-1,4.0307377E-2,-1.3736077E-1,-1.5997935E-4,1.5363576E-2,1.2689618E-3,-8.144352E-3,-7.854767E-4,-1.0092692E-2,3.375871E-3,2.1956168E-4,-7.91982E-3,-5.5407936E-4],"categories":[],"categories_nodes":[],"categories_segments":[],"categories_sizes":[],"default_left":[0,0,0,0,0,0,0,0,0,0,0,0,0,0,0,0,0,0,0,0,0,0,0],"id":10,"left_children":[1,3,5,7,9,11,13,-1,15,-1,17,19,21,-1,-1,-1,-1,-1,-1,-1,-1,-1,-1],"loss_changes":[7.7457366E0,9.94726E0,7.808973E0,1.37781925E1,1.4379608E1,5.327923E0,1.089418E1,0E0,3.0421505E0,0E0,7.7999287E0,5.9522514E0,1.0540775E1,0E0,0E0,0E0,0E0,0E0,0E0,0E0,0E0,0E0,0E0],"parents":[2147483647,0,0,1,1,2,2,3,3,4,4,5,5,6,6,8,8,10,10,11,11,12,12],"right_children":[2,4,6,8,10,12,14,-1,16,-1,18,20,22,-1,-1,-1,-1,-1,-1,-1,-1,-1,-1],"split_conditions":[-1.5500728E0,-1.9916223E0,2.3783631E0,-4.689876E-1,-1.5975579E0,7.753286E-1,1.5726538E0,1.159648E-2,-5.5273384E-1,-1.8038968E-2,-3.9384025E-1,-1.1715082E0,-8.5237885E-1,-1.5997935E-4,1.5363576E-2,1.2689618E-3,-8.144352E-3,-7.854767E-4,-1.0092692E-2,3.375871E-3,2.1956168E-4,-7.91982E-3,-5.5407936E-4],"split_indices":[128,61,59,410,398,12,194,0,309,0,356,145,327,0,0,0,0,0,0,0,0,0,0],"split_type":[0,0,0,0,0,0,0,0,0,0,0,0,0,0,0,0,0,0,0,0,0,0,0],"sum_hessian":[1.3867596E3,7.430116E1,1.3124585E3,1.9855244E1,5.444592E1,1.2959817E3,1.6476746E1,8.366133E0,1.1489111E1,6.1881237E0,4.8257793E1,1.0981952E3,1.9778654E2,9.873571E0,6.6031737E0,5.2557073E0,6.2334037E0,3.767658E1,1.0581218E1,6.2016594E1,1.0361786E3,2.0424452E1,1.7736209E2],"tree_param":{"num_deleted":"0","num_feature":"420","num_nodes":"23","size_leaf_vector":"1"}},{"base_weights":[3.0560456E-3,-9.742884E-3,1.1212846E-2,6.305791E-1,5.3231296E-4,-7.610415E-2,1.2696351E0,-7.416813E-3,5.857824E-3,-5.2877194E-3,3.9395494E-3,3.3574875E-3,1.903178E-2,-2.9183386E-5,5.7614516E-3],"categories":[],"categories_nodes":[],"categories_segments":[],"categories_sizes":[],"default_left":[0,0,0,0,0,0,0,0,0,0,0,0,0,0,0],"id":11,"left_children":[1,-1,3,5,7,9,11,-1,13,-1,-1,-1,-1,-1,-1],"loss_changes":[1.0903099E1,0E0,8.985134E0,1.066409E1,5.254615E0,2.938126E0,6.0665436E0,0E0,6.758361E0,0E0,0E0,0E0,0E0,0E0,0E0],"parents":[2147483647,0,0,2,2,3,3,4,4,5,5,6,6,8,8],"right_children":[2,-1,4,6,8,10,12,-1,14,-1,-1,-1,-1,-1,-1],"split_conditions":[-2.2917056E0,-9.742884E-3,-1.9297668E0,-1.4515563E0,-1.9289393E0,1.4183415E0,-2.2821473E-1,-7.416813E-3,2.4551306E0,-5.2877194E-3,3.9395494E-3,3.3574875E-3,1.903178E-2,-2.9183386E-5,5.7614516E-3],"split_indices":[316,0,335,218,398,289,331,0,40,0,0,0,0,0,0],"split_type":[0,0,0,0,0,0,0,0,0,0,0,0,0,0,0],"sum_hessian":[1.3761986E3,9.818536E0,1.36638E3,2.1528273E1,1.3448518E3,1.07763815E1,1.0751892E1,7.9694676E0,1.3368823E3,5.502676E0,5.2737055E0,5.337226E0,5.414666E0,1.3179178E3,1.8964487E1],"tree_param":{"num_deleted":"0","num_feature":"420","num_nodes":"15","size_leaf_vector":"1"}},{"base_weights":[-4.0257745E-4,-8.475763E-1,7.3526073E-3,-2.197764E-4,-1.5676951E-2,4.1651803E-1,-1.5752178E-3,1.54832555E-2,7.555263E-2,-5.0245714E-1,9.991387E-3,4.416321E-3,-6.626811E-3,-1.4712628E-2,-2.1104547E-3,2.2468205E-4,-3.0396285E-3],"categories":[],"categories_nodes":[],"categories_segments":[],"categories_sizes":[],"default_left":[0,0,0,0,0,0,0,0,0,0,0,0,0,0,0,0,0],"id":12,"left_children":[1,3,5,-1,-1,7,9,-1,11,13,15,-1,-1,-1,-1,-1,-1],"loss_changes":[9.239005E0,7.3738766E0,5.08639E0,0E0,0E0,1.1134947E1,7.8927526E0,0E0,7.0357833E0,8.048248E0,5.165629E0,0E0,0E0,0E0,0E0,0E0,0E0],"parents":[2147483647,0,0,1,1,2,2,5,5,6,6,8,8,9,9,10,10],"right_children":[2,4,6,-1,-1,8,10,-1,12,14,16,-1,-1,-1,-1,-1,-1],"split_conditions":[-2.9544125E0,-3.377639E-1,-1.9307773E0,-2.197764E-4,-1.5676951E-2,1.0132073E0,-1.9339819E0,1.54832555E-2,4.7780313E-2,-6.326449E-1,1.5384002E0,4.416321E-3,-6.626811E-3,-1.4712628E-2,-2.1104547E-3,2.2468205E-4,-3.0396285E-3],"split_indices":[382,196,314,0,0,240,381,0,244,372,161,0,0,0,0,0,0],"split_type":[0,0,0,0,0,0,0,0,0,0,0,0,0,0,0,0,0],"sum_hessian":[1.3905321E3,1.1257194E1,1.3792749E3,6.0293436E0,5.2278504E0,2.8229443E1,1.3510454E3,5.2378902E0,2.2991552E1,2.925303E1,1.3217924E3,1.5863292E1,7.1282606E0,5.2807536E0,2.3972279E1,1.2729167E3,4.8875664E1],"tree_param":{"num_deleted":"0","num_feature":"420","num_nodes":"17","size_leaf_vector":"1"}},{"base_weights":[2.2461517E-4,-4.1725382E-1,1.5267771E-2,4.618061E-1,-6.960823E-1,6.3524083E-3,8.4338266E-1,9.449123E-3,-6.6849095E-4,-1.6440135E0,-1.3014923E-1,1.7434695E-1,-1.5865995E-2,-3.863402E-3,1.707727E-2,-3.8082132E-3,-2.548767E-2,-5.990768E-3,2.343551E-3,7.0325085E-3,9.969466E-4,-1.7545217E-3,1.9654846E-4],"categories":[],"categories_nodes":[],"categories_segments":[],"categories_sizes":[],"default_left":[0,0,0,0,0,0,0,0,0,0,0,0,0,0,0,0,0,0,0,0,0,0,0],"id":13,"left_children":[1,3,5,7,9,11,13,-1,-1,15,17,19,21,-1,-1,-1,-1,-1,-1,-1,-1,-1,-1],"loss_changes":[8.715833E0,1.2334545E1,9.8440485E0,3.3588827E0,1.9524391E1,4.99642E0,1.6220428E1,0E0,0E0,1.3974525E1,4.5314546E0,5.9892015E0,6.700436E0,0E0,0E0,0E0,0E0,0E0,0E0,0E0,0E0,0E0,0E0],"parents":[2147483647,0,0,1,1,2,2,3,3,4,4,5,5,6,6,9,9,10,10,11,11,12,12],"right_children":[2,4,6,8,10,12,14,-1,-1,16,18,20,22,-1,-1,-1,-1,-1,-1,-1,-1,-1,-1],"split_conditions":[-2.1211307E0,-1.5796149E0,2.4782996E0,-2.8909454E-2,-6.838115E-1,-1.0480242E0,-7.4148357E-1,9.449123E-3,-6.6849095E-4,-4.2081565E-1,8.54365E-1,-1.2683331E0,-5.502316E-1,-3.863402E-3,1.707727E-2,-3.8082132E-3,-2.548767E-2,-5.990768E-3,2.343551E-3,7.0325085E-3,9.969466E-4,-1.7545217E-3,1.9654846E-4],"split_indices":[276,29,101,414,376,169,19,0,0,97,126,126,141,0,0,0,0,0,0,0,0,0,0],"split_type":[0,0,0,0,0,0,0,0,0,0,0,0,0,0,0,0,0,0,0,0,0,0,0],"sum_hessian":[1.3912081E3,4.676031E1,1.3444479E3,1.0936839E1,3.582347E1,1.3317428E3,1.2705083E1,5.1963143E0,5.7405243E0,1.2257747E1,2.3565725E1,1.5488434E2,1.1768584E3,5.5387783E0,7.166304E0,6.051167E0,6.20658E0,1.0004357E1,1.3561367E1,1.7429317E1,1.3745502E2,2.1369353E2,9.631649E2],"tree_param":{"num_deleted":"0","num_feature":"420","num_nodes":"23","size_leaf_vector":"1"}},{"base_weights":[-2.8726662E-4,-7.1648765E-1,6.1480775E-3,1.1209018E-3,-1.3102765E-2,5.2767104E-1,-4.6307067E-3,-2.582261E-2,1.0289351E0,5.111246E-2,-8.122609E-2,3.327403E-3,-5.4291855E-3,1.2829972E-3,1.5738258E-2,3.1234504E-4,4.540856E-3,-9.167422E-3,-6.9728296E-4],"categories":[],"categories_nodes":[],"categories_segments":[],"categories_sizes":[],"default_left":[0,0,0,0,0,0,0,0,0,0,0,0,0,0,0,0,0,0,0],"id":14,"left_children":[1,3,5,-1,-1,7,9,11,13,15,17,-1,-1,-1,-1,-1,-1,-1,-1],"loss_changes":[6.527953E0,6.5463448E0,7.860644E0,0E0,0E0,7.996055E0,5.8227158E0,3.0407007E0,6.8832493E0,6.2440796E0,5.3278427E0,0E0,0E0,0E0,0E0,0E0,0E0,0E0,0E0],"parents":[2147483647,0,0,1,1,2,2,5,5,6,6,7,7,8,8,9,9,10,10],"right_children":[2,4,6,-1,-1,8,10,12,14,16,18,-1,-1,-1,-1,-1,-1,-1,-1],"split_conditions":[-2.9544125E0,-4.3475512E-1,-1.9307773E0,1.1209018E-3,-1.3102765E-2,-1.5599098E0,-2.2793192E-1,-9.66801E-1,-2.2707317E0,3.7776297E-1,-3.4521563E0,3.327403E-3,-5.4291855E-3,1.2829972E-3,1.5738258E-2,3.1234504E-4,4.540856E-3,-9.167422E-3,-6.9728296E-4],"split_indices":[382,244,314,0,0,228,373,136,109,395,44,0,0,0,0,0,0,0,0],"split_type":[0,0,0,0,0,0,0,0,0,0,0,0,0,0,0,0,0,0,0],"sum_hessian":[1.3980048E3,1.1114264E1,1.3868905E3,5.077505E0,6.036758E0,2.6814972E1,1.3600756E3,1.3324903E1,1.3490068E1,7.867226E2,5.733529E2,8.0702505E0,5.2546515E0,5.852817E0,7.6372514E0,7.5151605E2,3.5206543E1,6.0617943E0,5.6729114E2],"tree_param":{"num_deleted":"0","num_feature":"420","num_nodes":"19","size_leaf_vector":"1"}},{"base_weights":[-4.045033E-3,-7.498947E-1,2.6824677E-3,-1.377403E-2,-0E0,5.4993635E-1,-7.1994807E-3,-4.698338E-2,1.236939E0,3.769594E-2,-8.552561E-2,4.4157873E-3,-4.937753E-3,2.4676523E-3,1.914929E-2,3.0853724E-4,8.655853E-3,-3.5547602E-3,-5.414421E-4],"categories":[],"categories_nodes":[],"categories_segments":[],"categories_sizes":[],"default_left":[0,0,0,0,0,0,0,0,0,0,0,0,0,0,0,0,0,0,0],"id":15,"left_children":[1,3,5,-1,-1,7,9,11,13,15,17,-1,-1,-1,-1,-1,-1,-1,-1],"loss_changes":[7.0930123E0,5.9803247E0,7.5608444E0,0E0,0E0,1.0376122E1,4.804938E0,3.5273318E0,6.90444E0,4.781781E0,4.149945E0,0E0,0E0,0E0,0E0,0E0,0E0,0E0,0E0],"parents":[2147483647,0,0,1,1,2,2,5,5,6,6,7,7,8,8,9,9,10,10],"right_children":[2,4,6,-1,-1,8,10,12,14,16,18,-1,-1,-1,-1,-1,-1,-1,-1],"split_conditions":[-2.9544125E0,-1.6629407E0,-1.9898467E0,-1.377403E-2,-0E0,4.1912434E-1,-1.0155457E-1,-2.7418238E-1,-1.8833739E0,2.0212116E0,-1.4954101E0,4.4157873E-3,-4.937753E-3,2.4676523E-3,1.914929E-2,3.0853724E-4,8.655853E-3,-3.5547602E-3,-5.414421E-4],"split_indices":[382,321,397,0,0,173,331,116,361,59,107,0,0,0,0,0,0,0,0],"split_type":[0,0,0,0,0,0,0,0,0,0,0,0,0,0,0,0,0,0,0],"sum_hessian":[1.3966044E3,1.1136274E1,1.385468E3,5.397515E0,5.73876E0,2.32996E1,1.3621685E3,1.3137021E1,1.016258E1,8.655493E2,4.9661914E2,6.1766286E0,6.960392E0,5.0218463E0,5.140733E0,8.6011743E2,5.431879E0,4.9773907E1,4.468452E2],"tree_param":{"num_deleted":"0","num_feature":"420","num_nodes":"19","size_leaf_vector":"1"}},{"base_weights":[-1.4159686E-3,-1.0867711E-2,7.1647144E-3,5.6065154E-1,2.0379302E-4,-1.8316935E-3,1.0804294E-2,-9.170489E-3,4.1119644E-1,-8.783564E-3,-4.304524E-5,-1.7613611E-3,1.0482124E-2],"categories":[],"categories_nodes":[],"categories_segments":[],"categories_sizes":[],"default_left":[0,0,0,0,0,0,0,0,0,0,0,0,0],"id":16,"left_children":[1,-1,3,5,7,-1,-1,9,11,-1,-1,-1,-1],"loss_changes":[1.3235508E1,0E0,5.3325405E0,7.0337677E0,5.3741713E0,0E0,0E0,5.63006E0,1.2004217E1,0E0,0E0,0E0,0E0],"parents":[2147483647,0,0,2,2,3,3,4,4,7,7,8,8],"right_children":[2,-1,4,6,8,-1,-1,10,12,-1,-1,-1,-1],"split_conditions":[-2.9544125E0,-1.0867711E-2,-2.2752237E0,5.403046E-1,2.3240533E0,-1.8316935E-3,1.0804294E-2,-2.909961E0,-6.0979456E-1,-8.783564E-3,-4.304524E-5,-1.7613611E-3,1.0482124E-2],"split_indices":[382,0,417,371,122,0,0,326,41,0,0,0,0],"split_type":[0,0,0,0,0,0,0,0,0,0,0,0,0],"sum_hessian":[1.4068263E3,9.647956E0,1.3971783E3,1.5693012E1,1.3814854E3,6.7757215E0,8.917291E0,1.3518738E3,2.961151E1,5.9126186E0,1.3459612E3,1.5889531E1,1.3721978E1],"tree_param":{"num_deleted":"0","num_feature":"420","num_nodes":"13","size_leaf_vector":"1"}},{"base_weights":[-2.7814982E-3,-3.867865E-1,8.426603E-3,-6.881994E-1,5.252166E-3,-7.3569466E-4,5.373717E-1,-1.7491817E-1,-1.3435007E0,4.071118E-3,-7.7037327E-3,-4.213533E-4,1.5047052E-2,-6.2077343E-3,6.694764E-3,-2.4001661E-3,-2.0168547E-2,8.0286455E-4,-4.3657556E-4],"categories":[],"categories_nodes":[],"categories_segments":[],"categories_sizes":[],"default_left":[0,0,0,0,0,0,0,0,0,0,0,0,0,0,0,0,0,0,0],"id":17,"left_children":[1,3,5,7,-1,9,11,13,15,17,-1,-1,-1,-1,-1,-1,-1,-1,-1],"loss_changes":[5.990031E0,1.140917E1,6.567012E0,9.720647E0,0E0,4.973104E0,1.3173537E1,7.7178016E0,8.739159E0,4.794016E0,0E0,0E0,0E0,0E0,0E0,0E0,0E0,0E0,0E0],"parents":[2147483647,0,0,1,1,2,2,3,3,5,5,6,6,7,7,8,8,9,9],"right_children":[2,4,6,8,-1,10,12,14,16,18,-1,-1,-1,-1,-1,-1,-1,-1,-1],"split_conditions":[-2.2371042E0,3.6754435E-1,2.3783631E0,-6.5468913E-1,5.252166E-3,2.3244553E0,4.6494174E-1,5.189607E-1,1.6126579E-1,-1.4063391E-1,-7.7037327E-3,-4.213533E-4,1.5047052E-2,-6.2077343E-3,6.694764E-3,-2.4001661E-3,-2.0168547E-2,8.0286455E-4,-4.3657556E-4],"split_indices":[276,74,59,256,0,101,113,79,303,41,0,0,0,0,0,0,0,0,0],"split_type":[0,0,0,0,0,0,0,0,0,0,0,0,0,0,0,0,0,0,0],"sum_hessian":[1.3803197E3,3.797292E1,1.3423468E3,2.8899508E1,9.073412E0,1.3207773E3,2.1569424E1,1.735711E1,1.1542398E1,1.3139332E3,6.8441052E0,1.4321207E1,7.248217E0,1.1696712E1,5.6603975E0,5.2014728E0,6.3409257E0,5.063855E2,8.075477E2],"tree_param":{"num_deleted":"0","num_feature":"420","num_nodes":"19","size_leaf_vector":"1"}},{"base_weights":[6.1652153E-3,-2.008203E-3,6.7872727E-1,-5.793121E-1,1.1170226E-2,1.5860207E-2,-2.6400494E-3,-1.4235058E-2,-1.9671643E-1,3.144755E-2,-1.543652E-1,1.5900576E-3,-5.0737774E-3,2.2238414E-3,1.05037056E-4,-1.0934368E-3,-7.1800747E-3],"categories":[],"categories_nodes":[],"categories_segments":[],"categories_sizes":[],"default_left":[0,0,0,0,0,0,0,0,0,0,0,0,0,0,0,0,0],"id":18,"left_children":[1,3,5,7,9,-1,-1,-1,11,13,15,-1,-1,-1,-1,-1,-1],"loss_changes":[7.7002077E0,1.0510485E1,1.514506E1,9.377265E0,4.5043783E0,0E0,0E0,0E0,2.7020698E0,4.766391E0,3.512558E0,0E0,0E0,0E0,0E0,0E0,0E0],"parents":[2147483647,0,0,1,1,2,2,3,3,4,4,8,8,9,9,10,10],"right_children":[2,4,6,8,10,-1,-1,-1,12,14,16,-1,-1,-1,-1,-1,-1],"split_conditions":[2.596231E0,-1.9085897E0,7.4680177E-3,-1.587692E0,1.0768989E0,1.5860207E-2,-2.6400494E-3,-1.4235058E-2,-6.8837315E-1,-9.1097695E-1,1.334535E0,1.5900576E-3,-5.0737774E-3,2.2238414E-3,1.05037056E-4,-1.0934368E-3,-7.1800747E-3],"split_indices":[122,316,271,148,388,0,0,0,200,410,410,0,0,0,0,0,0],"split_type":[0,0,0,0,0,0,0,0,0,0,0,0,0,0,0,0,0],"sum_hessian":[1.386586E3,1.3712684E3,1.5317722E1,2.9335278E1,1.3419331E3,7.338049E0,7.979674E0,7.7944794E0,2.1540798E1,1.1971116E3,1.4482149E2,1.0233411E1,1.1307387E1,1.16433395E2,1.0806782E3,1.3593217E2,8.889312E0],"tree_param":{"num_deleted":"0","num_feature":"420","num_nodes":"17","size_leaf_vector":"1"}},{"base_weights":[-4.4007287E-3,3.355316E-3,-7.106659E-1,-9.252263E-3,3.9703274E-1,-1.3787035E-2,4.828472E-4,-4.5970506E-3,-9.199692E-3,6.131887E-1,-6.605459E-3,-1.07371015E-4,7.692217E-3,1.0650644E-2,3.3242753E-4],"categories":[],"categories_nodes":[],"categories_segments":[],"categories_sizes":[],"default_left":[0,0,0,0,0,0,0,0,0,0,0,0,0,0,0],"id":19,"left_children":[1,3,5,7,9,-1,-1,11,-1,13,-1,-1,-1,-1,-1],"loss_changes":[7.7417417E0,6.922808E0,8.016255E0,5.599558E0,1.049803E1,0E0,0E0,6.297879E0,0E0,9.480068E0,0E0,0E0,0E0,0E0,0E0],"parents":[2147483647,0,0,1,1,2,2,3,3,4,4,7,7,9,9],"right_children":[2,4,6,8,10,-1,-1,12,-1,14,-1,-1,-1,-1,-1],"split_conditions":[3.8172598E0,1.7955084E0,1.0686885E0,2.6657536E0,1.3528332E0,-1.3787035E-2,4.828472E-4,2.4786522E0,-9.199692E-3,7.007438E-1,-6.605459E-3,-1.07371015E-4,7.692217E-3,1.0650644E-2,3.3242753E-4],"split_indices":[392,392,196,311,410,0,0,80,0,7,0,0,0,0,0],"split_type":[0,0,0,0,0,0,0,0,0,0,0,0,0,0,0],"sum_hessian":[1.3982227E3,1.3843711E3,1.3851566E1,1.3425853E3,4.1785767E1,6.7856383E0,7.065928E0,1.3373666E3,5.2186956E0,3.529646E1,6.4893084E0,1.3284342E3,8.932364E0,1.9036583E1,1.6259874E1],"tree_param":{"num_deleted":"0","num_feature":"420","num_nodes":"15","size_leaf_vector":"1"}},{"base_weights":[8.436815E-3,-7.337546E-1,1.6025214E-2,-1.37853E-2,2.2683728E-3,2.9676638E-3,4.7037217E-1,-2.8793872E-3,7.492928E-3,9.8926413E-1,-2.1905232E-2,-4.422458E-3,6.358596E-5,1.5285313E-2,2.790355E-4,7.199149E-3,-3.3335562E-3],"categories":[],"categories_nodes":[],"categories_segments":[],"categories_sizes":[],"default_left":[0,0,0,0,0,0,0,0,0,0,0,0,0,0,0,0,0],"id":20,"left_children":[1,3,5,-1,-1,7,9,11,-1,13,15,-1,-1,-1,-1,-1,-1],"loss_changes":[7.7787232E0,9.239498E0,8.127508E0,0E0,0E0,5.931966E0,9.907667E0,5.4560113E0,0E0,9.510307E0,5.1761374E0,0E0,0E0,0E0,0E0,0E0,0E0],"parents":[2147483647,0,0,1,1,2,2,5,5,6,6,7,7,9,9,10,10],"right_children":[2,4,6,-1,-1,8,10,12,-1,14,16,-1,-1,-1,-1,-1,-1],"split_conditions":[-2.2915795E0,1.3998228E0,2.0504706E0,-1.37853E-2,2.2683728E-3,3.150959E0,1.2278646E0,-1.6571234E0,7.492928E-3,3.0886117E-1,-5.701548E-1,-4.422458E-3,6.358596E-5,1.5285313E-2,2.790355E-4,7.199149E-3,-3.3335562E-3],"split_indices":[337,133,341,0,0,35,228,377,0,307,414,0,0,0,0,0,0],"split_type":[0,0,0,0,0,0,0,0,0,0,0,0,0,0,0,0,0],"sum_hessian":[1.3892665E3,1.2474409E1,1.3767921E3,7.1360044E0,5.3384047E0,1.3400112E3,3.6780903E1,1.3309442E3,9.067E0,1.7268053E1,1.9512848E1,2.6182821E1,1.3047614E3,1.0429015E1,6.8390384E0,5.093267E0,1.441958E1],"tree_param":{"num_deleted":"0","num_feature":"420","num_nodes":"17","size_leaf_vector":"1"}},{"base_weights":[-9.8389415E-3,-1.9665312E-2,6.2732834E-1,-9.306517E-1,-1.1845288E-2,1.7525213E-3,1.5609231E-2,-1.602548E-2,-3.4232522E-4,5.016684E-1,-2.1053806E-2,1.2593938E-2,1.1580765E-3,-4.9872715E-3,-1.06392436E-4],"categories":[],"categories_nodes":[],"categories_segments":[],"categories_sizes":[],"default_left":[0,0,0,0,0,0,0,0,0,0,0,0,0,0,0],"id":21,"left_children":[1,3,5,7,9,-1,-1,-1,-1,11,13,-1,-1,-1,-1],"loss_changes":[8.771232E0,9.776536E0,8.393345E0,6.791525E0,6.4825935E0,0E0,0E0,0E0,0E0,6.7015657E0,6.6822886E0,0E0,0E0,0E0,0E0],"parents":[2147483647,0,0,1,1,2,2,3,3,4,4,9,9,10,10],"right_children":[2,4,6,8,10,-1,-1,-1,-1,12,14,-1,-1,-1,-1],"split_conditions":[2.4945838E0,-2.5962896E0,5.3071415E-1,2.2999103E-1,-1.8948847E0,1.7525213E-3,1.5609231E-2,-1.602548E-2,-3.4232522E-4,-9.5069635E-1,-1.8973906E0,1.2593938E-2,1.1580765E-3,-4.9872715E-3,-1.06392436E-4],"split_indices":[389,398,215,286,208,0,0,0,0,138,157,0,0,0,0],"split_type":[0,0,0,0,0,0,0,0,0,0,0,0,0,0,0],"sum_hessian":[1.4061719E3,1.3864015E3,1.9770388E1,1.0184351E1,1.3762172E3,1.4592786E1,5.1776004E0,5.082048E0,5.1023026E0,2.263962E1,1.3535775E3,6.4056745E0,1.6233946E1,2.7176353E1,1.3264012E3],"tree_param":{"num_deleted":"0","num_feature":"420","num_nodes":"15","size_leaf_vector":"1"}},{"base_weights":[-6.598212E-3,-4.6972582E-1,5.3804982E-3,-1.3073586E0,5.9627224E-2,-5.4811966E-3,6.6984093E-1,-1.3498451E-3,-2.458469E-2,1.0488653E-2,-3.6759976E-1,3.6968902E-1,-2.0953583E-2,-4.735012E-2,1.3750052E-2,9.079419E-4,-9.460559E-3,8.685384E-3,1.1669314E-3,-5.716076E-5,-3.187547E-3,-6.2691513E-3,5.0883596E-3],"categories":[],"categories_nodes":[],"categories_segments":[],"categories_sizes":[],"default_left":[0,0,0,0,0,0,0,0,0,0,0,0,0,0,0,0,0,0,0,0,0,0,0],"id":22,"left_children":[1,3,5,7,9,11,13,-1,-1,-1,15,17,19,21,-1,-1,-1,-1,-1,-1,-1,-1,-1],"loss_changes":[7.775909E0,1.5910985E1,9.878346E0,1.789767E1,1.0373489E1,7.7449703E0,1.1363826E1,0E0,0E0,0E0,4.7522793E0,6.416841E0,5.8045254E0,4.4531546E0,0E0,0E0,0E0,0E0,0E0,0E0,0E0,0E0,0E0],"parents":[2147483647,0,0,1,1,2,2,3,3,4,4,5,5,6,6,10,10,11,11,12,12,13,13],"right_children":[2,4,6,8,10,12,14,-1,-1,-1,16,18,20,22,-1,-1,-1,-1,-1,-1,-1,-1,-1],"split_conditions":[-2.3262403E0,8.2594115E-1,2.3783631E0,1.5423211E-1,-1.0720278E0,-1.5150355E0,-4.184729E-1,-1.3498451E-3,-2.458469E-2,1.0488653E-2,-2.072438E0,-4.088835E-1,1.328401E0,1.0751392E0,1.3750052E-2,9.079419E-4,-9.460559E-3,8.685384E-3,1.1669314E-3,-5.716076E-5,-3.187547E-3,-6.2691513E-3,5.0883596E-3],"split_indices":[276,49,59,35,414,144,11,0,0,0,199,414,415,161,0,0,0,0,0,0,0,0,0],"split_type":[0,0,0,0,0,0,0,0,0,0,0,0,0,0,0,0,0,0,0,0,0,0,0],"sum_hessian":[1.3910995E3,3.383865E1,1.3572609E3,1.2323159E1,2.1515491E1,1.3367466E3,2.0514185E1,6.9785104E0,5.344649E0,5.9016924E0,1.5613799E1,5.1329105E1,1.2854175E3,1.0793781E1,9.720405E0,9.31995E0,6.293849E0,1.591117E1,3.5417934E1,1.2246222E3,6.0795315E1,5.280432E0,5.5133486E0],"tree_param":{"num_deleted":"0","num_feature":"420","num_nodes":"23","size_leaf_vector":"1"}},{"base_weights":[9.096611E-3,-7.6167705E-4,3.9296302E-1,-8.432535E-3,5.8149938E-3,1.5229085E-2,5.6223623E-2,-7.1072564E-3,1.13274185E-2,-9.885096E-3,4.716163E-1,4.5506582E-5,5.1176553E-3,1.3380312E-2,8.8098604E-5],"categories":[],"categories_nodes":[],"categories_segments":[],"categories_sizes":[],"default_left":[0,0,0,0,0,0,0,0,0,0,0,0,0,0,0],"id":23,"left_children":[1,3,5,-1,7,-1,9,-1,11,-1,13,-1,-1,-1,-1],"loss_changes":[5.2938824E0,7.5984044E0,1.3039162E1,0E0,5.257851E0,0E0,1.3062044E1,0E0,4.4795623E0,0E0,8.489651E0,0E0,0E0,0E0,0E0],"parents":[2147483647,0,0,1,1,2,2,4,4,6,6,8,8,10,10],"right_children":[2,4,6,-1,8,-1,10,-1,12,-1,14,-1,-1,-1,-1],"split_conditions":[2.3236907E0,-2.2917056E0,-4.3557347E-3,-8.432535E-3,-2.3898518E0,1.5229085E-2,-1.2690451E0,-7.1072564E-3,2.3775177E0,-9.885096E-3,2.0590402E-1,4.5506582E-5,5.1176553E-3,1.3380312E-2,8.8098604E-5],"split_indices":[143,316,344,0,19,0,267,0,89,0,176,0,0,0,0],"split_type":[0,0,0,0,0,0,0,0,0,0,0,0,0,0,0],"sum_hessian":[1.3869369E3,1.3534155E3,3.352131E1,9.122884E0,1.3442927E3,6.4149365E0,2.710637E1,8.659326E0,1.3356334E3,7.054263E0,2.0052109E1,1.3194789E3,1.6154463E1,5.9188085E0,1.41333E1],"tree_param":{"num_deleted":"0","num_feature":"420","num_nodes":"15","size_leaf_vector":"1"}},{"base_weights":[6.583804E-4,-9.094659E-3,5.854986E-1,8.446285E-3,-1.4630242E-2,1.8014511E-2,9.825788E-2,-1.126613E-2,-7.602948E-3,6.002457E-1,-8.9217955E-3,-4.253107E-3,7.084878E-6,1.3517139E-2,-1.7318171E-3],"categories":[],"categories_nodes":[],"categories_segments":[],"categories_sizes":[],"default_left":[0,0,0,0,0,0,0,0,0,0,0,0,0,0,0],"id":24,"left_children":[1,3,5,-1,7,-1,9,-1,11,13,-1,-1,-1,-1,-1],"loss_changes":[8.146096E0,6.5267396E0,1.3424766E1,0E0,1.0714545E1,0E0,9.908007E0,0E0,4.8346395E0,8.115105E0,0E0,0E0,0E0,0E0,0E0],"parents":[2147483647,0,0,1,1,2,2,4,4,6,6,8,8,9,9],"right_children":[2,4,6,-1,8,-1,10,-1,12,14,-1,-1,-1,-1,-1],"split_conditions":[2.4786522E0,-2.514605E0,-4.1158397E-2,8.446285E-3,-2.5962896E0,1.8014511E-2,1.0358875E0,-1.126613E-2,-2.2799213E0,-1.2058338E0,-8.9217955E-3,-4.253107E-3,7.084878E-6,1.3517139E-2,-1.7318171E-3],"split_indices":[80,82,323,0,398,0,414,0,4,0,0,0,0,0,0],"split_type":[0,0,0,0,0,0,0,0,0,0,0,0,0,0,0],"sum_hessian":[1.4151396E3,1.3932115E3,2.1928091E1,7.394279E0,1.3858173E3,5.056937E0,1.6871153E1,7.112685E0,1.3787046E3,1.1655599E1,5.2155547E0,2.5664371E1,1.3530402E3,5.4084554E0,6.247143E0],"tree_param":{"num_deleted":"0","num_feature":"420","num_nodes":"15","size_leaf_vector":"1"}},{"base_weights":[-5.288722E-4,-7.949708E-1,6.707708E-3,1.4247859E-3,-1.4840012E-2,1.3432281E-2,-5.47121E-1,6.405919E-3,8.926514E-3,-1.0089272E-2,-2.1457879E-4,-5.9486215E-6,4.2531746E-3],"categories":[],"categories_nodes":[],"categories_segments":[],"categories_sizes":[],"default_left":[0,0,0,0,0,0,0,0,0,0,0,0,0],"id":25,"left_children":[1,3,5,-1,-1,7,9,11,-1,-1,-1,-1,-1],"loss_changes":[8.08608E0,8.652838E0,5.0979147E0,0E0,0E0,8.335911E0,3.8492947E0,4.0198784E0,0E0,0E0,0E0,0E0,0E0],"parents":[2147483647,0,0,1,1,2,2,5,5,6,6,7,7],"right_children":[2,4,6,-1,-1,8,10,12,-1,-1,-1,-1,-1],"split_conditions":[-2.9544125E0,-4.990663E-1,2.5542943E0,1.4247859E-3,-1.4840012E-2,3.4739258E0,2.1321534E-1,2.3783631E0,8.926514E-3,-1.0089272E-2,-2.1457879E-4,-5.9486215E-6,4.2531746E-3],"split_indices":[382,133,288,0,0,287,71,59,0,0,0,0,0],"split_type":[0,0,0,0,0,0,0,0,0,0,0,0,0],"sum_hessian":[1.3899064E3,1.1197216E1,1.3787092E3,5.1860776E0,6.011139E0,1.3637942E3,1.4914971E1,1.3545935E3,9.200695E0,7.1043763E0,7.810595E0,1.3335663E3,2.1027185E1],"tree_param":{"num_deleted":"0","num_feature":"420","num_nodes":"13","size_leaf_vector":"1"}},{"base_weights":[1.6956165E-3,-5.9704003E-3,5.606124E-1,4.6816085E-2,-7.5210676E-2,-1.3263095E-3,1.1145768E-2,2.6511114E-2,4.4477117E-1,2.1237029E-1,-1.07225396E-1,1.612889E-3,-6.663292E-5,-3.7531334E-4,9.280674E-3,-5.6636683E-3,3.484011E-3,-6.2472164E-3,-8.2850544E-4],"categories":[],"categories_nodes":[],"categories_segments":[],"categories_sizes":[],"default_left":[0,0,0,0,0,0,0,0,0,0,0,0,0,0,0,0,0,0,0],"id":26,"left_children":[1,3,5,7,9,-1,-1,11,13,15,17,-1,-1,-1,-1,-1,-1,-1,-1],"loss_changes":[6.1170373E0,5.109422E0,7.7386293E0,6.335438E0,5.595233E0,0E0,0E0,3.3948102E0,9.026331E0,6.7159967E0,6.736875E0,0E0,0E0,0E0,0E0,0E0,0E0,0E0,0E0],"parents":[2147483647,0,0,1,1,2,2,3,3,4,4,7,7,8,8,9,9,10,10],"right_children":[2,4,6,8,10,-1,-1,12,14,16,18,-1,-1,-1,-1,-1,-1,-1,-1],"split_conditions":[2.4945838E0,-2.2793192E-1,-1.8017066E-1,3.844305E-1,-1.3512629E0,-1.3263095E-3,1.1145768E-2,-5.4682606E-1,-1.4022043E-1,-5.522485E-1,-2.4332516E0,1.612889E-3,-6.663292E-5,-3.7531334E-4,9.280674E-3,-5.6636683E-3,3.484011E-3,-6.2472164E-3,-8.2850544E-4],"split_indices":[389,373,184,374,200,0,0,409,225,56,86,0,0,0,0,0,0,0,0],"split_type":[0,0,0,0,0,0,0,0,0,0,0,0,0,0,0,0,0,0,0],"sum_hessian":[1.4120416E3,1.3942236E3,1.7817898E1,7.905649E2,6.036588E2,8.340616E0,9.477282E0,7.539472E2,3.6617638E1,5.9310665E1,5.4434814E2,1.4837305E2,6.0557416E2,1.8916569E1,1.770107E1,8.004843E0,5.1305824E1,2.2639858E1,5.217083E2],"tree_param":{"num_deleted":"0","num_feature":"420","num_nodes":"19","size_leaf_vector":"1"}},{"base_weights":[2.2507576E-2,3.312295E-2,-3.8730577E-1,7.012294E-1,2.6212431E-2,-6.935825E-1,7.4836384E-3,-1.395544E-3,1.2466762E-2,4.136638E-1,1.7465187E-2,4.3107364E-3,-1.0498518E0,6.8669617E-3,-2.4381184E-3,4.581132E-3,9.5695556E-5,-2.3145106E-2,-4.547002E-3],"categories":[],"categories_nodes":[],"categories_segments":[],"categories_sizes":[],"default_left":[0,0,0,0,0,0,0,0,0,0,0,0,0,0,0,0,0,0,0],"id":27,"left_children":[1,3,5,7,9,11,-1,-1,-1,13,15,-1,17,-1,-1,-1,-1,-1,-1],"loss_changes":[6.0152626E0,6.146658E0,1.2907576E1,6.629548E0,4.490548E0,1.2089649E1,0E0,0E0,0E0,5.5525885E0,4.5152464E0,0E0,1.4713816E1,0E0,0E0,0E0,0E0,0E0,0E0],"parents":[2147483647,0,0,1,1,2,2,3,3,4,4,5,5,9,9,10,10,12,12],"right_children":[2,4,6,8,10,12,-1,-1,-1,14,16,-1,18,-1,-1,-1,-1,-1,-1],"split_conditions":[2.2871537E0,-2.2752237E0,1.7251793E0,-5.7424045E-1,-1.89112E0,-1.309098E0,7.4836384E-3,-1.395544E-3,1.2466762E-2,8.9130163E-1,-2.1560965E0,4.3107364E-3,-9.5271116E-1,6.8669617E-3,-2.4381184E-3,4.581132E-3,9.5695556E-5,-2.3145106E-2,-4.547002E-3],"split_indices":[329,417,291,228,96,378,0,0,0,137,288,0,108,0,0,0,0,0,0],"split_type":[0,0,0,0,0,0,0,0,0,0,0,0,0,0,0,0,0,0,0],"sum_hessian":[1.384935E3,1.3515487E3,3.3386314E1,1.2145505E1,1.3394032E3,2.6824127E1,6.5621853E0,5.1460166E0,6.9994884E0,2.7785841E1,1.3116173E3,6.3098435E0,2.0514284E1,1.9693203E1,8.092638E0,2.1359615E1,1.2902577E3,5.1242166E0,1.5390068E1],"tree_param":{"num_deleted":"0","num_feature":"420","num_nodes":"19","size_leaf_vector":"1"}},{"base_weights":[8.843032E-3,5.9521306E-1,-3.7603537E-4,1.7528804E-1,1.5344259E-2,-1.2025318E-2,5.2919295E-3,4.877156E-3,-2.8457849E-3,6.985874E-1,-4.8285415E-3,1.6823629E-3,1.7097235E-2,-6.8130456E-3,4.0904935E-5],"categories":[],"categories_nodes":[],"categories_segments":[],"categories_sizes":[],"default_left":[0,0,0,0,0,0,0,0,0,0,0,0,0,0,0],"id":28,"left_children":[1,3,5,7,-1,-1,9,-1,-1,11,13,-1,-1,-1,-1],"loss_changes":[7.7181544E0,8.14089E0,9.641948E0,2.6763425E0,0E0,0E0,9.834033E0,0E0,0E0,1.0194352E1,8.351625E0,0E0,0E0,0E0,0E0],"parents":[2147483647,0,0,1,1,2,2,3,3,6,6,9,9,10,10],"right_children":[2,4,6,8,-1,-1,10,-1,-1,12,14,-1,-1,-1,-1],"split_conditions":[-2.4133692E0,3.8127613E0,-2.5964978E0,1.9405187E0,1.5344259E-2,-1.2025318E-2,-1.9297668E0,4.877156E-3,-2.8457849E-3,-3.0490252E-1,-1.7065094E0,1.6823629E-3,1.7097235E-2,-6.8130456E-3,4.0904935E-5],"split_indices":[288,287,356,373,0,0,335,0,0,34,377,0,0,0,0],"split_type":[0,0,0,0,0,0,0,0,0,0,0,0,0,0,0],"sum_hessian":[1.4151926E3,2.05977E1,1.3945948E3,1.5537332E1,5.0603676E0,5.140832E0,1.3894541E3,9.327179E0,6.2101526E0,1.8664957E1,1.3707891E3,1.3455753E1,5.2092047E0,1.651243E1,1.3542766E3],"tree_param":{"num_deleted":"0","num_feature":"420","num_nodes":"15","size_leaf_vector":"1"}},{"base_weights":[-5.3122044E-3,3.3476015E-3,-4.9222976E-1,9.16346E-3,-2.112493E-3,-1.1509914E-2,-7.564568E-2,-6.677853E-1,7.7950465E-3,3.5034644E-3,-5.075481E-3,-1.8680094E-2,-2.5282495E-4,7.007205E-3,2.1019843E-5],"categories":[],"categories_nodes":[],"categories_segments":[],"categories_sizes":[],"default_left":[0,0,0,0,0,0,0,0,0,0,0,0,0,0,0],"id":29,"left_children":[1,3,5,-1,7,-1,9,11,13,-1,-1,-1,-1,-1,-1],"loss_changes":[5.9440875E0,6.945644E0,6.506521E0,0E0,9.093296E0,0E0,3.3712697E0,1.5333447E1,5.248609E0,0E0,0E0,0E0,0E0,0E0,0E0],"parents":[2147483647,0,0,1,1,2,2,4,4,6,6,7,7,8,8],"right_children":[2,4,6,-1,8,-1,10,12,14,-1,-1,-1,-1,-1,-1],"split_conditions":[2.3654552E0,-2.5166028E0,5.511657E-1,9.16346E-3,-2.1031106E0,-1.1509914E-2,-6.065393E-1,-1.5421267E-1,-2.0768113E0,3.5034644E-3,-5.075481E-3,-1.8680094E-2,-2.5282495E-4,7.007205E-3,2.1019843E-5],"split_indices":[319,61,264,0,327,0,8,167,146,0,0,0,0,0,0],"split_type":[0,0,0,0,0,0,0,0,0,0,0,0,0,0,0],"sum_hessian":[1.3960029E3,1.3728708E3,2.313213E1,6.7827516E0,1.3660881E3,7.8438644E0,1.5288265E1,1.872132E1,1.3473668E3,7.722829E0,7.565436E0,5.475711E0,1.3245608E1,9.344301E0,1.3380225E3],"tree_param":{"num_deleted":"0","num_feature":"420","num_nodes":"15","size_leaf_vector":"1"}},{"base_weights":[2.1481896E-3,-4.9171615E-3,6.173684E-1,-6.4551774E-3,3.5253182E-4,9.595518E-4,9.541528E-3,6.1092347E-1,-1.0111276E-2,1.8550629E-3,1.6015355E-2,-4.0536852E-5,-5.6243823E-3],"categories":[],"categories_nodes":[],"categories_segments":[],"categories_sizes":[],"default_left":[0,0,0,0,0,0,0,0,0,0,0,0,0],"id":30,"left_children":[1,3,5,-1,7,-1,-1,9,11,-1,-1,-1,-1],"loss_changes":[6.15012E0,4.740892E0,2.5787377E0,0E0,8.855478E0,0E0,0E0,9.218627E0,4.4679713E0,0E0,0E0,0E0,0E0],"parents":[2147483647,0,0,1,1,2,2,4,4,7,7,8,8],"right_children":[2,4,6,-1,8,-1,-1,10,12,-1,-1,-1,-1],"split_conditions":[4.0472307E0,-2.5964978E0,-1.3925304E-1,-6.4551774E-3,-1.9297668E0,9.595518E-4,9.541528E-3,6.208668E-1,2.5954204E0,1.8550629E-3,1.6015355E-2,-4.0536852E-5,-5.6243823E-3],"split_indices":[181,356,186,0,335,0,0,35,311,0,0,0,0],"split_type":[0,0,0,0,0,0,0,0,0,0,0,0,0],"sum_hessian":[1.3982413E3,1.3836763E3,1.4565035E1,9.957382E0,1.3737189E3,6.5886765E0,7.976359E0,2.1856491E1,1.3518624E3,1.6606636E1,5.2498555E0,1.3388705E3,1.2991867E1],"tree_param":{"num_deleted":"0","num_feature":"420","num_nodes":"13","size_leaf_vector":"1"}},{"base_weights":[1.0596739E-2,5.004144E-1,1.9313066E-3,1.3118044E-1,1.1615889E-2,-9.923217E-3,7.846292E-3,6.3712047E-3,-1.5849584E-3,4.601493E-1,-1.2601644E-3,1.19270515E-2,9.201729E-4,5.9874423E-5,-5.9665977E-3],"categories":[],"categories_nodes":[],"categories_segments":[],"categories_sizes":[],"default_left":[0,0,0,0,0,0,0,0,0,0,0,0,0,0,0],"id":31,"left_children":[1,3,5,7,-1,-1,9,-1,-1,11,13,-1,-1,-1,-1],"loss_changes":[5.90902E0,5.5515456E0,8.038621E0,2.737757E0,0E0,0E0,5.710433E0,0E0,0E0,7.0850315E0,5.8864985E0,0E0,0E0,0E0,0E0],"parents":[2147483647,0,0,1,1,2,2,3,3,6,6,9,9,10,10],"right_children":[2,4,6,8,-1,-1,10,-1,-1,12,14,-1,-1,-1,-1],"split_conditions":[-2.4133692E0,3.8127613E0,-2.5964978E0,5.510103E-1,1.1615889E-2,-9.923217E-3,-1.8948847E0,6.3712047E-3,-1.5849584E-3,-3.9180213E-1,3.0043492E0,1.19270515E-2,9.201729E-4,5.9874423E-5,-5.9665977E-3],"split_indices":[288,287,356,404,0,0,208,0,0,351,205,0,0,0,0],"split_type":[0,0,0,0,0,0,0,0,0,0,0,0,0,0,0],"sum_hessian":[1.4028419E3,2.2706104E1,1.3801359E3,1.5820163E1,6.885941E0,6.5827665E0,1.3735531E3,5.230611E0,1.0589551E1,2.5859108E1,1.347694E3,7.434174E0,1.8424934E1,1.3327874E3,1.4906629E1],"tree_param":{"num_deleted":"0","num_feature":"420","num_nodes":"15","size_leaf_vector":"1"}},{"base_weights":[3.6216038E-3,-3.9403546E-1,1.774052E-2,-1.364247E-2,-1.2367034E-1,7.4230926E-3,6.0575384E-1,7.409539E-3,-2.8759786E-1,3.0483246E-1,-6.064251E-3,1.6149413E-2,-9.1939874E-2,-6.374973E-3,-0E0,1.2111776E-2,1.3094874E-3,2.6330215E-5,-5.282762E-3,3.4052297E-3,-5.753788E-3],"categories":[],"categories_nodes":[],"categories_segments":[],"categories_sizes":[],"default_left":[0,0,0,0,0,0,0,0,0,0,0,0,0,0,0,0,0,0,0,0,0],"id":32,"left_children":[1,3,5,-1,7,9,11,-1,13,15,17,-1,19,-1,-1,-1,-1,-1,-1,-1,-1],"loss_changes":[7.9437165E0,1.232026E1,8.259785E0,0E0,5.8955984E0,5.450704E0,1.6910603E1,0E0,3.5121815E0,8.917937E0,5.928419E0,0E0,3.5048094E0,0E0,0E0,0E0,0E0,0E0,0E0,0E0,0E0],"parents":[2147483647,0,0,1,1,2,2,4,4,5,5,6,6,8,8,9,9,10,10,12,12],"right_children":[2,4,6,-1,8,10,12,-1,14,16,18,-1,20,-1,-1,-1,-1,-1,-1,-1,-1],"split_conditions":[-1.8961817E0,-1.3462591E0,2.3772707E0,-1.364247E-2,-1.6667315E0,-1.3205392E0,1.89459E-1,7.409539E-3,-2.2799213E0,5.977984E-1,2.2871537E0,1.6149413E-2,-2.8674456E-1,-6.374973E-3,-0E0,1.2111776E-2,1.3094874E-3,2.6330215E-5,-5.282762E-3,3.4052297E-3,-5.753788E-3],"split_indices":[149,323,68,0,69,167,400,0,4,72,329,0,244,0,0,0,0,0,0,0,0],"split_type":[0,0,0,0,0,0,0,0,0,0,0,0,0,0,0,0,0,0,0,0,0],"sum_hessian":[1.4181954E3,4.7000088E1,1.3711953E3,8.839727E0,3.816036E1,1.3492107E3,2.1984585E1,5.1431475E0,3.3017212E1,5.744754E1,1.2917632E3,8.23879E0,1.3745796E1,1.4167185E1,1.8850027E1,7.7143383E0,4.9733204E1,1.2718813E3,1.9881832E1,7.380297E0,6.365499E0],"tree_param":{"num_deleted":"0","num_feature":"420","num_nodes":"21","size_leaf_vector":"1"}},{"base_weights":[1.0379752E-2,1.8807733E-2,-4.933599E-1,9.289928E-3,4.269527E-1,-1.2739318E-2,-0E0,5.270993E-1,3.7568226E-3,1.4124898E-2,-4.2447295E-2,-5.7746475E-3,4.303006E-3,9.717266E-3,-1.1345848E-3,4.2960554E-4,-6.0199975E-4,8.184622E-3,-3.7268095E-3],"categories":[],"categories_nodes":[],"categories_segments":[],"categories_sizes":[],"default_left":[0,0,0,0,0,0,0,0,0,0,0,0,0,0,0,0,0,0,0],"id":33,"left_children":[1,3,5,7,9,-1,11,13,15,-1,17,-1,-1,-1,-1,-1,-1,-1,-1],"loss_changes":[5.879395E0,5.2781067E0,8.808442E0,3.788875E0,1.4558939E1,0E0,4.203697E0,4.2346983E0,3.3356826E0,0E0,6.773637E0,0E0,0E0,0E0,0E0,0E0,0E0,0E0,0E0],"parents":[2147483647,0,0,1,1,2,2,3,3,4,4,6,6,7,7,8,8,10,10],"right_children":[2,4,6,8,10,-1,12,14,16,-1,18,-1,-1,-1,-1,-1,-1,-1,-1],"split_conditions":[3.1732993E0,2.3236907E0,2.3606677E-1,-2.159927E0,4.9776512E-1,-1.2739318E-2,1.4754037E0,1.9297563E-1,-1.5136625E-1,1.4124898E-2,-8.9850247E-1,-5.7746475E-3,4.303006E-3,9.717266E-3,-1.1345848E-3,4.2960554E-4,-6.0199975E-4,8.184622E-3,-3.7268095E-3],"split_indices":[329,143,304,146,310,0,415,204,331,0,217,0,0,0,0,0,0,0,0],"split_type":[0,0,0,0,0,0,0,0,0,0,0,0,0,0,0,0,0,0,0],"sum_hessian":[1.3912501E3,1.3699719E3,2.1278254E1,1.3404912E3,2.948066E1,7.343883E0,1.393437E1,1.2486527E1,1.3280048E3,8.607647E0,2.0873013E1,5.7023125E0,8.232058E0,7.004878E0,5.4816494E0,8.246025E2,5.0340228E2,5.088077E0,1.5784935E1],"tree_param":{"num_deleted":"0","num_feature":"420","num_nodes":"19","size_leaf_vector":"1"}},{"base_weights":[2.0360232E-3,6.942248E-2,-5.03616E-2,1.6655847E-1,-4.0655077E-2,-3.0262426E-1,-2.8359165E-2,-7.3647676E-3,1.8771063E-1,-1.0036214E-2,-7.9963105E-3,-5.1324204E-2,-5.472364E-1,7.975914E-3,-3.7145566E-2,8.395386E-3,1.534587E-3,-4.0559494E-3,4.1134583E-4,5.138578E-3,-2.0373105E-3,-1.3253128E-2,-2.877033E-3,1.1273124E-3,-7.701535E-4],"categories":[],"categories_nodes":[],"categories_segments":[],"categories_sizes":[],"default_left":[0,0,0,0,0,0,0,0,0,0,0,0,0,0,0,0,0,0,0,0,0,0,0,0,0],"id":34,"left_children":[1,3,5,7,9,11,13,-1,15,-1,17,19,21,-1,23,-1,-1,-1,-1,-1,-1,-1,-1,-1,-1],"loss_changes":[4.9758196E0,6.620258E0,4.34815E0,6.4282913E0,9.006036E0,3.7701507E0,5.267454E0,0E0,6.904133E0,0E0,5.5714793E0,2.9623377E0,5.6405735E0,0E0,4.3360734E0,0E0,0E0,0E0,0E0,0E0,0E0,0E0,0E0,0E0,0E0],"parents":[2147483647,0,0,1,1,2,2,3,3,4,4,5,5,6,6,8,8,10,10,11,11,12,12,14,14],"right_children":[2,4,6,8,10,12,14,-1,16,-1,18,20,22,-1,24,-1,-1,-1,-1,-1,-1,-1,-1,-1,-1],"split_conditions":[-1.3903119E-1,1.13649555E-1,-1.2726055E0,-2.2085817E0,-7.8505933E-1,-4.2115855E-1,-1.9897666E0,-7.3647676E-3,-1.9297668E0,-1.0036214E-2,-1.0793316E0,-1.6663848E0,-5.8832973E-1,7.975914E-3,-5.059552E-1,8.395386E-3,1.534587E-3,-4.0559494E-3,4.1134583E-4,5.138578E-3,-2.0373105E-3,-1.3253128E-2,-2.877033E-3,1.1273124E-3,-7.701535E-4],"split_indices":[399,321,155,337,346,13,82,0,335,0,91,61,141,0,351,0,0,0,0,0,0,0,0,0,0],"split_type":[0,0,0,0,0,0,0,0,0,0,0,0,0,0,0,0,0,0,0,0,0,0,0,0,0],"sum_hessian":[1.4057002E3,6.1552264E2,7.9017755E2,3.2705634E2,2.8846628E2,6.1491226E1,7.2868634E2,6.2162275E0,3.2084012E2,7.8990664E0,2.805672E2,3.1427752E1,3.0063477E1,6.132858E0,7.2255347E2,1.4111279E1,3.0672882E2,2.9883457E1,2.5068376E2,5.7799506E0,2.56478E1,5.882558E0,2.418092E1,1.5072078E2,5.7183264E2],"tree_param":{"num_deleted":"0","num_feature":"420","num_nodes":"25","size_leaf_vector":"1"}},{"base_weights":[-1.0800091E-2,-6.7777896E-1,-2.5988452E-3,-6.0353585E-5,-1.4849903E-2,4.1490668E-1,-1.2210723E-2,1.4330742E-2,9.885103E-2,4.155224E-1,-2.013904E-2,3.922312E-3,-6.9082854E-3,8.393918E-3,-3.7865506E-3,-1.3246675E-4,-5.3237937E-3],"categories":[],"categories_nodes":[],"categories_segments":[],"categories_sizes":[],"default_left":[0,0,0,0,0,0,0,0,0,0,0,0,0,0,0,0,0],"id":35,"left_children":[1,3,5,-1,-1,7,9,-1,11,13,15,-1,-1,-1,-1,-1,-1],"loss_changes":[7.567536E0,8.951115E0,5.5095434E0,0E0,0E0,9.5740795E0,4.556812E0,0E0,6.2281303E0,8.749342E0,4.6260204E0,0E0,0E0,0E0,0E0,0E0,0E0],"parents":[2147483647,0,0,1,1,2,2,5,5,6,6,8,8,9,9,10,10],"right_children":[2,4,6,-1,-1,8,10,-1,12,14,16,-1,-1,-1,-1,-1,-1],"split_conditions":[-2.4144895E0,-1.2940918E-1,-1.7918222E0,-6.0353585E-5,-1.4849903E-2,-6.2515676E-1,-2.0740662E0,1.4330742E-2,7.5059664E-1,6.0972464E-1,2.4108455E0,3.922312E-3,-6.9082854E-3,8.393918E-3,-3.7865506E-3,-1.3246675E-4,-5.3237937E-3],"split_indices":[330,177,95,0,0,412,32,0,51,241,99,0,0,0,0,0,0],"split_type":[0,0,0,0,0,0,0,0,0,0,0,0,0,0,0,0,0],"sum_hessian":[1.3948684E3,1.5307458E1,1.3795609E3,9.247222E0,6.060237E0,2.938824E1,1.3501726E3,5.6308355E0,2.3757404E1,2.2938011E1,1.3272346E3,1.7964762E1,5.7926435E0,1.4982206E1,7.9558043E0,1.3113243E3,1.5910297E1],"tree_param":{"num_deleted":"0","num_feature":"420","num_nodes":"17","size_leaf_vector":"1"}},{"base_weights":[-5.0609576E-4,-5.8993566E-1,5.8989604E-3,1.1620886E-3,-1.2133842E-2,-1.5115109E-3,5.334756E-1,1.4806933E-2,-2.5671527E-1,1.2171857E-2,1.2741508E-2,6.655612E-5,7.792521E-3,-1.3898616E-3,-1.2312634E-2,5.9481272E-3,-5.745224E-3],"categories":[],"categories_nodes":[],"categories_segments":[],"categories_sizes":[],"default_left":[0,0,0,0,0,0,0,0,0,0,0,0,0,0,0,0,0],"id":36,"left_children":[1,3,5,-1,-1,7,9,11,13,-1,15,-1,-1,-1,-1,-1,-1],"loss_changes":[5.438946E0,7.1398077E0,5.5662026E0,0E0,0E0,5.825227E0,6.874485E0,8.070382E0,9.253548E0,0E0,4.8875723E0,0E0,0E0,0E0,0E0,0E0,0E0],"parents":[2147483647,0,0,1,1,2,2,5,5,6,6,7,7,8,8,10,10],"right_children":[2,4,6,-1,-1,8,10,12,14,-1,16,-1,-1,-1,-1,-1,-1],"split_conditions":[-2.6812766E0,-5.6545943E-1,2.8718066E0,1.1620886E-3,-1.2133842E-2,1.3281231E0,9.944324E-2,2.1139739E0,1.8448719E0,1.2171857E-2,5.3203776E-2,6.655612E-5,7.792521E-3,-1.3898616E-3,-1.2312634E-2,5.9481272E-3,-5.745224E-3],"split_indices":[361,196,383,0,0,394,411,331,100,0,344,0,0,0,0,0,0],"split_type":[0,0,0,0,0,0,0,0,0,0,0,0,0,0,0,0,0],"sum_hessian":[1.4223021E3,1.3988159E1,1.408314E3,7.0561123E0,6.932047E0,1.3900945E3,1.8219454E1,1.3075098E3,8.258472E1,6.926691E0,1.1292763E1,1.2953414E3,1.2168424E1,7.5304214E1,7.2805E0,5.7472906E0,5.5454726E0],"tree_param":{"num_deleted":"0","num_feature":"420","num_nodes":"17","size_leaf_vector":"1"}},{"base_weights":[-1.1391904E-2,-4.1774338E-1,-1.1328323E-3,-1.4452531E-2,6.990235E-2,2.1585344E-1,-2.0951953E-2,5.300552E-1,-5.405145E-3,1.4452202E-2,1.3408896E-1,3.1693205E-2,-9.644786E-2,1.0812053E-2,-5.5826E-4,5.4841507E-3,-1.8540207E-4,2.3415373E-4,7.873268E-3,-5.1557214E-4,-2.9748331E-3],"categories":[],"categories_nodes":[],"categories_segments":[],"categories_sizes":[],"default_left":[0,0,0,0,0,0,0,0,0,0,0,0,0,0,0,0,0,0,0,0,0],"id":37,"left_children":[1,3,5,-1,7,9,11,13,-1,-1,15,17,19,-1,-1,-1,-1,-1,-1,-1,-1],"loss_changes":[5.767637E0,1.736373E1,5.8409705E0,0E0,7.3031683E0,1.097348E1,4.9753523E0,4.973889E0,0E0,0E0,6.915369E0,4.4964256E0,4.583474E0,0E0,0E0,0E0,0E0,0E0,0E0,0E0,0E0],"parents":[2147483647,0,0,1,1,2,2,4,4,5,5,6,6,7,7,10,10,11,11,12,12],"right_children":[2,4,6,-1,8,10,12,14,-1,-1,16,18,20,-1,-1,-1,-1,-1,-1,-1,-1],"split_conditions":[-2.3262403E0,-5.760408E-1,-1.0349067E0,-1.4452531E-2,-1.6329206E0,-1.2115161E0,-2.2793192E-1,-7.911677E-1,-5.405145E-3,1.4452202E-2,-5.2785534E-1,2.0270917E0,7.3898727E-1,1.0812053E-2,-5.5826E-4,5.4841507E-3,-1.8540207E-4,2.3415373E-4,7.873268E-3,-5.1557214E-4,-2.9748331E-3],"split_indices":[276,369,123,0,22,175,373,32,0,0,414,250,12,0,0,0,0,0,0,0,0],"split_type":[0,0,0,0,0,0,0,0,0,0,0,0,0,0,0,0,0,0,0,0,0],"sum_hessian":[1.3922462E3,3.257701E1,1.3596692E3,9.602731E0,2.2974281E1,1.1213172E2,1.2475375E3,1.3305469E1,9.668814E0,5.3566017E0,1.06775116E2,7.347346E2,5.1280286E2,6.290449E0,7.015019E0,2.7874012E1,7.890111E1,7.284336E2,6.3010383E0,4.2114456E2,9.165827E1],"tree_param":{"num_deleted":"0","num_feature":"420","num_nodes":"21","size_leaf_vector":"1"}},{"base_weights":[2.783391E-3,-6.751933E-3,6.685856E-1,-8.078641E-3,-1.3653176E-3,1.7684055E-2,9.89614E-2,5.8755916E-1,-9.026288E-3,7.3128026E-3,-4.248212E-3,-0E0,1.1488367E-2,2.2931279E-4,-1.35024E-3],"categories":[],"categories_nodes":[],"categories_segments":[],"categories_sizes":[],"default_left":[0,0,0,0,0,0,0,0,0,0,0,0,0,0,0],"id":38,"left_children":[1,3,5,-1,7,-1,9,11,13,-1,-1,-1,-1,-1,-1],"loss_changes":[8.951197E0,5.872684E0,1.2022953E1,0E0,6.142225E0,0E0,5.3865247E0,5.769007E0,5.477787E0,0E0,0E0,0E0,0E0,0E0,0E0],"parents":[2147483647,0,0,1,1,2,2,4,4,6,6,7,7,8,8],"right_children":[2,4,6,-1,8,-1,10,12,14,-1,-1,-1,-1,-1,-1],"split_conditions":[2.4782996E0,-2.5964978E0,4.1769683E-1,-8.078641E-3,-1.9307773E0,1.7684055E-2,1.9222009E-1,-1.5151956E0,3.4046048E-1,7.3128026E-3,-4.248212E-3,-0E0,1.1488367E-2,2.2931279E-4,-1.35024E-3],"split_indices":[101,356,214,0,314,0,410,123,352,0,0,0,0,0,0],"split_type":[0,0,0,0,0,0,0,0,0,0,0,0,0,0,0],"sum_hessian":[1.3969479E3,1.3785396E3,1.840824E1,7.5907693E0,1.3709489E3,5.1439915E0,1.3264248E1,1.5979187E1,1.3549696E3,5.826769E0,7.437479E0,8.536133E0,7.4430547E0,1.0811774E3,2.7379227E2],"tree_param":{"num_deleted":"0","num_feature":"420","num_nodes":"15","size_leaf_vector":"1"}},{"base_weights":[-2.5275258E-2,-5.060545E-1,-9.378156E-3,-1.4654872E0,-1.4470315E-1,-1.5157335E-2,9.790482E-3,-2.8809034E-3,-2.313091E-2,3.852069E-1,-5.485444E-1,3.6473772E-3,-1.7908797E-1,1.0929688E-2,-1.6708223E-3,-1.2987049E-2,-1.1307974E-3,5.6193937E-3,-6.4818254E-5,2.1271524E-3,-3.5704917E-3],"categories":[],"categories_nodes":[],"categories_segments":[],"categories_sizes":[],"default_left":[0,0,0,0,0,0,0,0,0,0,0,0,0,0,0,0,0,0,0,0,0],"id":39,"left_children":[1,3,5,7,9,11,-1,-1,-1,13,15,17,19,-1,-1,-1,-1,-1,-1,-1,-1],"loss_changes":[1.0648339E1,1.4986345E1,7.6819186E0,1.0680323E1,7.640141E0,4.184648E0,0E0,0E0,0E0,6.441424E0,6.2055454E0,6.9223685E0,9.865725E0,0E0,0E0,0E0,0E0,0E0,0E0,0E0,0E0],"parents":[2147483647,0,0,1,1,2,2,3,3,4,4,5,5,9,9,10,10,11,11,12,12],"right_children":[2,4,6,8,10,12,-1,-1,-1,14,16,18,20,-1,-1,-1,-1,-1,-1,-1,-1],"split_conditions":[-2.1211307E0,-1.3462591E0,2.6654284E0,-4.3450376E-1,-1.7202023E0,8.656338E-1,9.790482E-3,-2.8809034E-3,-2.313091E-2,-3.4955856E-1,-5.521659E-1,-1.7964904E0,-5.1551366E-1,1.0929688E-2,-1.6708223E-3,-1.2987049E-2,-1.1307974E-3,5.6193937E-3,-6.4818254E-5,2.1271524E-3,-3.5704917E-3],"split_indices":[276,323,185,181,61,205,0,0,0,410,372,165,412,0,0,0,0,0,0,0,0],"split_type":[0,0,0,0,0,0,0,0,0,0,0,0,0,0,0,0,0,0,0,0,0],"sum_hessian":[1.3993905E3,4.310859E1,1.3562819E3,1.0464347E1,3.2644245E1,1.3499669E3,6.3148837E0,5.2706947E0,5.193652E0,1.4041259E1,1.8602985E1,1.2118146E3,1.3815234E2,5.5901027E0,8.451156E0,5.6561565E0,1.2946828E1,2.0314163E1,1.1915005E3,4.288373E1,9.5268616E1],"tree_param":{"num_deleted":"0","num_feature":"420","num_nodes":"21","size_leaf_vector":"1"}},{"base_weights":[3.8716376E-3,1.179536E-2,-6.8901044E-1,3.874511E-3,6.039775E-1,-1.1907569E-2,8.5069885E-4,9.739808E-3,-7.3662386E-3,-2.9933642E-4,1.4342608E-2,1.8852554E-6,7.3489994E-3],"categories":[],"categories_nodes":[],"categories_segments":[],"categories_sizes":[],"default_left":[0,0,0,0,0,0,0,0,0,0,0,0,0],"id":40,"left_children":[1,3,5,7,9,-1,-1,11,-1,-1,-1,-1,-1],"loss_changes":[7.4096637E0,6.249107E0,6.1880007E0,5.7140827E0,9.462577E0,0E0,0E0,9.076135E0,0E0,0E0,0E0,0E0,0E0],"parents":[2147483647,0,0,1,1,2,2,3,3,4,4,7,7],"right_children":[2,4,6,8,10,-1,-1,12,-1,-1,-1,-1,-1],"split_conditions":[3.8172598E0,2.4945838E0,1.1722991E0,3.719932E0,3.1880006E-1,-1.1907569E-2,8.5069885E-4,2.4789512E0,-7.3662386E-3,-2.9933642E-4,1.4342608E-2,1.8852554E-6,7.3489994E-3],"split_indices":[392,389,217,184,329,0,0,59,0,0,0,0,0],"split_type":[0,0,0,0,0,0,0,0,0,0,0,0,0],"sum_hessian":[1.3582297E3,1.3444733E3,1.3756455E1,1.3283839E3,1.6089378E1,7.9349227E0,5.8215327E0,1.3195474E3,8.83648E0,9.8752365E0,6.214141E0,1.3040103E3,1.5537185E1],"tree_param":{"num_deleted":"0","num_feature":"420","num_nodes":"13","size_leaf_vector":"1"}},{"base_weights":[-9.294177E-3,-1.7549109E-3,-7.219862E-1,-8.533652E-3,7.368871E-1,2.717628E-3,-1.3279349E-2,4.5693305E-1,-1.7495146E-2,1.2148671E-2,4.3492139E-4,-2.4603226E-3,8.203304E-3,-5.69471E-5,-3.7910473E-3],"categories":[],"categories_nodes":[],"categories_segments":[],"categories_sizes":[],"default_left":[0,0,0,0,0,0,0,0,0,0,0,0,0,0,0],"id":41,"left_children":[1,3,5,7,9,-1,-1,11,13,-1,-1,-1,-1,-1,-1],"loss_changes":[7.307181E0,6.751323E0,9.220392E0,5.600367E0,3.858211E0,0E0,0E0,6.8359E0,5.6182857E0,0E0,0E0,0E0,0E0,0E0,0E0],"parents":[2147483647,0,0,1,1,2,2,3,3,4,4,7,7,8,8],"right_children":[2,4,6,8,10,-1,-1,12,14,-1,-1,-1,-1,-1,-1],"split_conditions":[3.8172598E0,2.7789507E0,-1.1981089E0,-1.9307773E0,1.0005876E0,2.717628E-3,-1.3279349E-2,-1.7971816E0,2.0354667E0,1.2148671E-2,4.3492139E-4,-2.4603226E-3,8.203304E-3,-5.69471E-5,-3.7910473E-3],"split_indices":[392,392,378,314,375,0,0,60,205,0,0,0,0,0,0],"split_type":[0,0,0,0,0,0,0,0,0,0,0,0,0,0,0],"sum_hessian":[1.3722605E3,1.3595227E3,1.2737806E1,1.3487627E3,1.075995E1,5.075794E0,7.662012E0,2.3849703E1,1.324913E3,5.616209E0,5.1437407E0,8.19887E0,1.5650833E1,1.2847866E3,4.0126385E1],"tree_param":{"num_deleted":"0","num_feature":"420","num_nodes":"15","size_leaf_vector":"1"}},{"base_weights":[-2.060684E-3,5.002944E-1,-1.0322772E-2,9.8136795E-1,-9.1849326E-4,-6.667128E-1,-2.5527386E-3,2.2877345E-3,1.5880605E-2,-1.220443E-3,-1.2462178E-2,1.6455808E-1,-2.564247E-2,1.0188359E-3,9.392891E-3,-7.0968475E-3,-2.031508E-4],"categories":[],"categories_nodes":[],"categories_segments":[],"categories_sizes":[],"default_left":[0,0,0,0,0,0,0,0,0,0,0,0,0,0,0,0,0],"id":42,"left_children":[1,3,5,7,-1,9,11,-1,-1,-1,-1,13,15,-1,-1,-1,-1],"loss_changes":[5.759596E0,6.619053E0,6.9518065E0,5.0299253E0,0E0,4.669289E0,5.2486496E0,0E0,0E0,0E0,0E0,7.766306E0,4.2735567E0,0E0,0E0,0E0,0E0],"parents":[2147483647,0,0,1,1,2,2,3,3,5,5,6,6,11,11,12,12],"right_children":[2,4,6,8,-1,10,12,-1,-1,-1,-1,14,16,-1,-1,-1,-1],"split_conditions":[-2.2688088E0,-1.4835309E0,-2.2087085E0,-1.2335571E0,-9.1849326E-4,-5.309821E-1,-1.2282025E0,2.2877345E-3,1.5880605E-2,-1.220443E-3,-1.2462178E-2,1.7972158E0,-2.7010827E0,1.0188359E-3,9.392891E-3,-7.0968475E-3,-2.031508E-4],"split_indices":[186,190,316,336,0,349,321,0,0,0,0,413,330,0,0,0,0],"split_type":[0,0,0,0,0,0,0,0,0,0,0,0,0,0,0,0,0],"sum_hessian":[1.3961251E3,2.0948883E1,1.3751763E3,1.1107643E1,9.841241E0,1.4449455E1,1.3607268E3,5.9532123E0,5.1544313E0,8.473653E0,5.975803E0,1.6354639E2,1.1971804E3,1.5299564E2,1.0550758E1,7.574033E0,1.1896063E3],"tree_param":{"num_deleted":"0","num_feature":"420","num_nodes":"17","size_leaf_vector":"1"}},{"base_weights":[-4.3146145E-3,-3.9422354E-1,7.946135E-3,-1.0058582E0,5.6880496E-2,2.9109314E-3,9.697244E-3,5.327895E-4,-1.6900744E-2,3.7158474E-1,-8.246019E-3,-5.9598614E-3,4.9824E-1,-1.0081589E-3,1.18511915E-2,1.3548102E-4,-2.4621284E-3,7.978221E-3,-1.2710775E-3],"categories":[],"categories_nodes":[],"categories_segments":[],"categories_sizes":[],"default_left":[0,0,0,0,0,0,0,0,0,0,0,0,0,0,0,0,0,0,0],"id":43,"left_children":[1,3,5,7,9,11,-1,-1,-1,13,-1,15,17,-1,-1,-1,-1,-1,-1],"loss_changes":[6.7595396E0,1.2074867E1,6.5005617E0,1.3685633E1,7.6645513E0,6.019783E0,0E0,0E0,0E0,8.118969E0,0E0,6.286104E0,4.73506E0,0E0,0E0,0E0,0E0,0E0,0E0],"parents":[2147483647,0,0,1,1,2,2,3,3,4,4,5,5,9,9,11,11,12,12],"right_children":[2,4,6,8,10,12,-1,-1,-1,14,-1,16,18,-1,-1,-1,-1,-1,-1],"split_conditions":[-2.1211307E0,8.042615E-1,3.7189333E0,-1.7202023E0,1.2612606E0,2.3390539E0,9.697244E-3,5.327895E-4,-1.6900744E-2,1.4740262E0,-8.246019E-3,1.2524369E0,7.760112E-1,-1.0081589E-3,1.18511915E-2,1.3548102E-4,-2.4621284E-3,7.978221E-3,-1.2710775E-3],"split_indices":[276,49,121,61,285,40,0,0,0,352,0,327,132,0,0,0,0,0,0],"split_type":[0,0,0,0,0,0,0,0,0,0,0,0,0,0,0,0,0,0,0],"sum_hessian":[1.4033962E3,4.1608665E1,1.3617875E3,1.6972853E1,2.4635815E1,1.3562954E3,5.492108E0,7.146864E0,9.82599E0,1.887739E1,5.7584233E0,1.3336906E3,2.2604849E1,1.26961975E1,6.181194E0,1.234455E3,9.923559E1,1.5111609E1,7.4932394E0],"tree_param":{"num_deleted":"0","num_feature":"420","num_nodes":"19","size_leaf_vector":"1"}},{"base_weights":[-1.6100414E-3,5.7047325E-1,-1.0935641E-2,8.811391E-4,9.531577E-1,-1.2865898E-2,-3.8994832E-3,1.3283901E-2,3.2476867E-3,6.694206E-1,-1.5373658E-2,1.080891E-3,1.4407012E-2,-5.1851428E-5,-4.874843E-3],"categories":[],"categories_nodes":[],"categories_segments":[],"categories_sizes":[],"default_left":[0,0,0,0,0,0,0,0,0,0,0,0,0,0,0],"id":44,"left_children":[1,3,5,-1,7,-1,9,-1,-1,11,13,-1,-1,-1,-1],"loss_changes":[7.405773E0,3.8792043E0,1.2215035E1,0E0,2.0512447E0,0E0,1.0535525E1,0E0,0E0,9.502316E0,6.4348345E0,0E0,0E0,0E0,0E0],"parents":[2147483647,0,0,1,1,2,2,4,4,6,6,9,9,10,10],"right_children":[2,4,6,-1,8,-1,10,-1,-1,12,14,-1,-1,-1,-1],"split_conditions":[-2.4133692E0,-4.026744E-1,-2.5964978E0,8.811391E-4,1.41254E0,-1.2865898E-2,-1.9297668E0,1.3283901E-2,3.2476867E-3,1.7696934E0,2.2871537E0,1.080891E-3,1.4407012E-2,-5.1851428E-5,-4.874843E-3],"split_indices":[288,235,356,0,143,0,335,0,0,383,329,0,0,0,0],"split_type":[0,0,0,0,0,0,0,0,0,0,0,0,0,0,0],"sum_hessian":[1.3953776E3,2.0761652E1,1.3746158E3,1.0116666E1,1.0644986E1,5.9661183E0,1.3686498E3,5.519204E0,5.125782E0,2.1345398E1,1.3473043E3,1.3419018E1,7.9263806E0,1.3205344E3,2.6769873E1],"tree_param":{"num_deleted":"0","num_feature":"420","num_nodes":"15","size_leaf_vector":"1"}},{"base_weights":[1.4194498E-3,-7.210204E-3,7.1595083E-3,4.8199475E-1,-4.1945488E-4,8.032566E-1,-3.3902883E-4,2.7200356E-2,-1.1224649E-1,2.1907235E-3,1.159693E-2,2.3665985E-3,-1.5799793E-5,5.28087E-4,-2.4261724E-3],"categories":[],"categories_nodes":[],"categories_segments":[],"categories_sizes":[],"default_left":[0,0,0,0,0,0,0,0,0,0,0,0,0,0,0],"id":45,"left_children":[1,-1,3,5,7,9,-1,11,13,-1,-1,-1,-1,-1,-1],"loss_changes":[5.721021E0,0E0,5.0348334E0,3.7601724E0,4.2294025E0,2.3385715E0,0E0,6.626355E0,5.8781075E0,0E0,0E0,0E0,0E0,0E0,0E0],"parents":[2147483647,0,0,2,2,3,3,4,4,5,5,7,7,8,8],"right_children":[2,-1,4,6,8,10,-1,12,14,-1,-1,-1,-1,-1,-1],"split_conditions":[-2.9543092E0,-7.210204E-3,-2.4133692E0,9.1253035E-3,3.6154115E-1,3.114407E-1,-3.3902883E-4,-6.546906E-1,-2.9289997E-1,2.1907235E-3,1.159693E-2,2.3665985E-3,-1.5799793E-5,5.28087E-4,-2.4261724E-3],"split_indices":[361,0,288,414,352,247,0,417,258,0,0,0,0,0,0],"split_type":[0,0,0,0,0,0,0,0,0,0,0,0,0,0,0],"sum_hessian":[1.3934547E3,9.373495E0,1.3840813E3,2.0476753E1,1.3636045E3,1.2223323E1,8.25343E0,1.0937126E3,2.6989178E2,5.655947E0,6.567375E0,1.3123582E2,9.6247687E2,1.1915791E2,1.5073389E2],"tree_param":{"num_deleted":"0","num_feature":"420","num_nodes":"15","size_leaf_vector":"1"}},{"base_weights":[-1.3239728E-2,-9.714571E-3,-6.276413E-3,4.8411572E-1,-1.5447553E-2,3.894671E-2,1.3906769E-2,-1.8865506E-1,2.2730501E-3,4.7755376E-3,-2.7115454E-3,-2.3693691E-3,6.3528083E-3,-4.3995537E-5,8.893862E-3],"categories":[],"categories_nodes":[],"categories_segments":[],"categories_sizes":[],"default_left":[0,0,0,0,0,0,0,0,0,0,0,0,0,0,0],"id":46,"left_children":[1,-1,3,5,7,9,-1,11,13,-1,-1,-1,-1,-1,-1],"loss_changes":[9.249206E0,0E0,6.2325273E0,1.0039661E1,4.2236156E0,2.7547672E0,0E0,5.265021E0,7.4557285E0,0E0,0E0,0E0,0E0,0E0,0E0],"parents":[2147483647,0,0,2,2,3,3,4,4,5,5,7,7,8,8],"right_children":[2,-1,4,6,8,10,-1,12,14,-1,-1,-1,-1,-1,-1],"split_conditions":[-2.5964978E0,-9.714571E-3,-1.9297668E0,6.208668E-1,-9.677465E-1,-4.7701296E-1,1.3906769E-2,2.1824167E0,2.4782996E0,4.7755376E-3,-2.7115454E-3,-2.3693691E-3,6.3528083E-3,-4.3995537E-5,8.893862E-3],"split_indices":[356,0,335,35,86,76,0,267,101,0,0,0,0,0,0],"split_type":[0,0,0,0,0,0,0,0,0,0,0,0,0,0,0],"sum_hessian":[1.4007192E3,8.502976E0,1.3922163E3,2.3932493E1,1.3682838E3,1.7173939E1,6.758554E0,1.2617531E2,1.2421085E3,6.9112115E0,1.0262727E1,1.2031498E2,5.860327E0,1.234205E3,7.9034896E0],"tree_param":{"num_deleted":"0","num_feature":"420","num_nodes":"15","size_leaf_vector":"1"}},{"base_weights":[-7.840657E-3,-6.1968595E-1,1.4113846E-4,-1.3328496E-2,-2.0149352E-4,9.884272E-3,-4.2801133E-1,5.557989E-1,-2.6522286E-3,-8.870519E-1,-6.576448E-2,1.5513644E-2,1.0428373E-3,5.669754E-3,-1.0755902E-4,-1.1737159E-3,-1.3670126E-2,-3.4121682E-3,3.8080472E-3],"categories":[],"categories_nodes":[],"categories_segments":[],"categories_sizes":[],"default_left":[0,0,0,0,0,0,0,0,0,0,0,0,0,0,0,0,0,0,0],"id":47,"left_children":[1,3,5,-1,-1,7,9,11,13,15,17,-1,-1,-1,-1,-1,-1,-1,-1],"loss_changes":[6.90171E0,7.6047955E0,5.737225E0,0E0,0E0,9.329106E0,4.9048123E0,1.334601E1,6.0727425E0,4.5067377E0,2.5087402E0,0E0,0E0,0E0,0E0,0E0,0E0,0E0,0E0],"parents":[2147483647,0,0,1,1,2,2,5,5,6,6,7,7,8,8,9,9,10,10],"right_children":[2,4,6,-1,-1,8,10,12,14,16,18,-1,-1,-1,-1,-1,-1,-1,-1],"split_conditions":[-2.6815743E0,5.0962365E-1,2.1766303E0,-1.3328496E-2,-2.0149352E-4,-1.9897666E0,6.412242E-1,-3.672939E-1,-2.2784772E0,-4.2068875E-1,-2.3654694E-2,1.5513644E-2,1.0428373E-3,5.669754E-3,-1.0755902E-4,-1.1737159E-3,-1.3670126E-2,-3.4121682E-3,3.8080472E-3],"split_indices":[403,31,162,0,0,82,239,410,36,76,20,0,0,0,0,0,0,0,0],"split_type":[0,0,0,0,0,0,0,0,0,0,0,0,0,0,0,0,0,0,0],"sum_hessian":[1.3990222E3,1.6696838E1,1.3823253E3,6.711659E0,9.98518E0,1.3532299E3,2.9095472E1,2.9098114E1,1.3241318E3,1.1752932E1,1.734254E1,7.869959E0,2.1228155E1,1.6949097E1,1.3071827E3,5.3110805E0,6.441851E0,1.1083703E1,6.2588367E0],"tree_param":{"num_deleted":"0","num_feature":"420","num_nodes":"19","size_leaf_vector":"1"}},{"base_weights":[2.8982074E-3,7.486012E-1,-3.6298886E-3,-6.0089934E-4,1.3437136E-2,-5.29222E-1,8.373956E-3,-1.9926049E-1,-1.6668828E-2,-4.3052837E-4,4.0736714E-1,-5.899421E-3,4.8041474E-3,5.539424E-4,-7.9296925E-4,6.4565777E-3,-2.2362082E-3],"categories":[],"categories_nodes":[],"categories_segments":[],"categories_sizes":[],"default_left":[0,0,0,0,0,0,0,0,0,0,0,0,0,0,0,0,0],"id":48,"left_children":[1,3,5,-1,-1,7,9,11,-1,13,15,-1,-1,-1,-1,-1,-1],"loss_changes":[6.8078537E0,6.09036E0,8.71301E0,0E0,0E0,1.0891231E1,4.7566075E0,7.254126E0,0E0,5.796946E0,4.653607E0,0E0,0E0,0E0,0E0,0E0,0E0],"parents":[2147483647,0,0,1,1,2,2,5,5,6,6,7,7,9,9,10,10],"right_children":[2,4,6,-1,-1,8,10,12,-1,14,16,-1,-1,-1,-1,-1,-1],"split_conditions":[-2.9525542E0,-5.662657E-2,-2.4252317E0,-6.0089934E-4,1.3437136E-2,1.5935506E0,2.3390539E0,1.4883754E0,-1.6668828E-2,1.9200319E-1,1.9462173E0,-5.899421E-3,4.8041474E-3,5.539424E-4,-7.9296925E-4,6.4565777E-3,-2.2362082E-3],"split_indices":[193,392,380,0,0,413,40,91,0,398,332,0,0,0,0,0,0],"split_type":[0,0,0,0,0,0,0,0,0,0,0,0,0,0,0,0,0],"sum_hessian":[1.3808444E3,1.0636592E1,1.3702078E3,5.0096054E0,5.6269865E0,2.9337896E1,1.3408699E3,2.417649E1,5.1614056E0,1.3131409E3,2.7729006E1,1.5571219E1,8.60527E0,7.684089E2,5.4473193E2,2.021753E1,7.511478E0],"tree_param":{"num_deleted":"0","num_feature":"420","num_nodes":"17","size_leaf_vector":"1"}},{"base_weights":[-5.4308837E-3,-8.50582E-3,7.35105E-5,-7.01337E-3,4.4935042E-1,-1.5703537E-2,3.5869145E-1,9.0251476E-1,-7.975805E-4,-8.3540675E-5,-8.859715E-3,1.0004269E-2,-3.4473892E-3,1.46446545E-2,1.7503044E-3],"categories":[],"categories_nodes":[],"categories_segments":[],"categories_sizes":[],"default_left":[0,0,0,0,0,0,0,0,0,0,0,0,0,0,0],"id":49,"left_children":[1,-1,3,5,7,9,11,13,-1,-1,-1,-1,-1,-1,-1],"loss_changes":[6.658115E0,0E0,4.52295E0,4.3744497E0,5.4803476E0,8.560703E0,1.499843E1,4.4014206E0,0E0,0E0,0E0,0E0,0E0,0E0,0E0],"parents":[2147483647,0,0,2,2,3,3,4,4,5,5,6,6,7,7],"right_children":[2,-1,4,6,8,10,12,14,-1,-1,-1,-1,-1,-1,-1],"split_conditions":[-2.9544125E0,-8.50582E-3,2.4551306E0,2.2622554E0,6.465116E-1,2.262206E0,8.910496E-2,-2.2447038E-1,-7.975805E-4,-8.3540675E-5,-8.859715E-3,1.0004269E-2,-3.4473892E-3,1.46446545E-2,1.7503044E-3],"split_indices":[382,0,40,404,165,173,410,393,0,0,0,0,0,0,0],"split_type":[0,0,0,0,0,0,0,0,0,0,0,0,0,0,0],"sum_hessian":[1.4114204E3,7.7603655E0,1.40366E3,1.3830972E3,2.056293E1,1.3526632E3,3.0434013E1,1.0607959E1,9.954969E0,1.3429512E3,9.712001E0,1.565808E1,1.4775933E1,5.0500035E0,5.5579557E0],"tree_param":{"num_deleted":"0","num_feature":"420","num_nodes":"15","size_leaf_vector":"1"}},{"base_weights":[-1.2248358E-3,-3.888872E-1,1.1364227E-2,1.8477327E-1,-7.353043E-1,5.0938423E-3,1.0020976E-2,7.993718E-3,-5.927661E-3,-2.0210957E-2,-2.7595434E-1,5.3857374E-1,-1.7019814E-3,2.3276869E-3,-6.836624E-3,1.1449491E-2,1.2922109E-3,6.2802206E-3,-7.186651E-5],"categories":[],"categories_nodes":[],"categories_segments":[],"categories_sizes":[],"default_left":[0,0,0,0,0,0,0,0,0,0,0,0,0,0,0,0,0,0,0],"id":50,"left_children":[1,3,5,7,9,11,-1,-1,-1,-1,13,15,17,-1,-1,-1,-1,-1,-1],"loss_changes":[6.902071E0,9.100019E0,8.353911E0,9.257026E0,1.5559062E1,4.9683533E0,0E0,0E0,0E0,0E0,4.957564E0,3.9291134E0,4.5710597E0,0E0,0E0,0E0,0E0,0E0,0E0],"parents":[2147483647,0,0,1,1,2,2,3,3,4,4,5,5,10,10,11,11,12,12],"right_children":[2,4,6,8,10,12,-1,-1,-1,-1,14,16,18,-1,-1,-1,-1,-1,-1],"split_conditions":[-2.1211307E0,-1.7202023E0,2.6650574E0,-2.7301848E-2,-1.5976002E0,-2.0745242E0,1.0020976E-2,7.993718E-3,-5.927661E-3,-2.0210957E-2,7.732515E-1,-4.2787483E-1,-2.9045928E0,2.3276869E-3,-6.836624E-3,1.1449491E-2,1.2922109E-3,6.2802206E-3,-7.186651E-5],"split_indices":[276,61,206,221,419,115,0,0,0,0,131,347,242,0,0,0,0,0,0],"split_type":[0,0,0,0,0,0,0,0,0,0,0,0,0,0,0,0,0,0,0],"sum_hessian":[1.4036763E3,4.2989285E1,1.360687E3,1.6340675E1,2.6648607E1,1.3537278E3,6.9591417E0,9.174932E0,7.165744E0,5.614685E0,2.1033922E1,1.5736463E1,1.3379913E3,9.534933E0,1.1498989E1,5.157255E0,1.0579207E1,9.925296E0,1.328066E3],"tree_param":{"num_deleted":"0","num_feature":"420","num_nodes":"19","size_leaf_vector":"1"}},{"base_weights":[-5.289878E-3,-4.1986054E-1,5.2148346E-3,-1.0661103E0,7.811425E-2,-2.6973514E-2,1.6902629E-1,-1.1707746E-3,-1.7952343E-2,-3.4243047E-1,9.018839E-3,-1.9369671E-3,-2.566478E-1,5.086993E-1,7.8531995E-2,-6.910898E-3,2.3431457E-3,6.5894453E-3,-1.4511615E-4,-1.9170184E-3,-1.1742164E-2,6.962808E-4,9.24299E-3,-1.3527981E-4,3.6681597E-3],"categories":[],"categories_nodes":[],"categories_segments":[],"categories_sizes":[],"default_left":[0,0,0,0,0,0,0,0,0,0,0,0,0,0,0,0,0,0,0,0,0,0,0,0,0],"id":51,"left_children":[1,3,5,7,9,11,13,-1,-1,15,-1,17,19,21,23,-1,-1,-1,-1,-1,-1,-1,-1,-1,-1],"loss_changes":[6.1168313E0,1.13940525E1,7.197804E0,1.0077744E1,7.76459E0,6.5191517E0,6.774235E0,0E0,0E0,3.275268E0,0E0,8.495888E0,6.169609E0,8.319886E0,4.7953234E0,0E0,0E0,0E0,0E0,0E0,0E0,0E0,0E0,0E0,0E0],"parents":[2147483647,0,0,1,1,2,2,3,3,4,4,5,5,6,6,9,9,11,11,12,12,13,13,14,14],"right_children":[2,4,6,8,10,12,14,-1,-1,16,-1,18,20,22,24,-1,-1,-1,-1,-1,-1,-1,-1,-1,-1],"split_conditions":[-2.3256083E0,8.2594115E-1,4.8422912E-1,1.5423211E-1,3.5465278E-2,7.233722E-1,-7.380344E-1,-1.1707746E-3,-1.7952343E-2,2.00535E-1,9.018839E-3,-1.6991973E0,1.6561003E0,-3.4203023E-1,9.363844E-1,-6.910898E-3,2.3431457E-3,6.5894453E-3,-1.4511615E-4,-1.9170184E-3,-1.1742164E-2,6.962808E-4,9.24299E-3,-1.3527981E-4,3.6681597E-3],"split_indices":[297,49,392,35,57,205,144,0,0,74,0,99,372,34,78,0,0,0,0,0,0,0,0,0,0],"split_type":[0,0,0,0,0,0,0,0,0,0,0,0,0,0,0,0,0,0,0,0,0,0,0,0,0],"sum_hessian":[1.3927958E3,3.321031E1,1.3595854E3,1.3795978E1,1.9414335E1,1.1368427E3,2.2274284E2,6.810021E0,6.985957E0,1.33526945E1,6.061641E0,1.0268544E3,1.0998824E2,4.516766E1,1.775752E2,8.244594E0,5.1081004E0,1.7585075E1,1.0092693E3,1.0451312E2,5.47512E0,2.2932226E1,2.2235432E1,1.3541484E2,4.2160347E1],"tree_param":{"num_deleted":"0","num_feature":"420","num_nodes":"25","size_leaf_vector":"1"}},{"base_weights":[9.092282E-3,1.9692324E-2,-6.2460655E-1,2.651447E-2,-4.755249E-1,-2.0478955E-1,-1.5791757E-2,7.821898E-1,1.8217433E-2,-1.072861E-2,-5.4729816E-2,3.2812722E-3,-4.8709027E-3,1.112836E-3,1.51844155E-2,6.6884253E-3,1.2583402E-4,-4.4203717E-3,3.1632234E-3],"categories":[],"categories_nodes":[],"categories_segments":[],"categories_sizes":[],"default_left":[0,0,0,0,0,0,0,0,0,0,0,0,0,0,0,0,0,0,0],"id":52,"left_children":[1,3,5,7,9,11,-1,13,15,-1,17,-1,-1,-1,-1,-1,-1,-1,-1],"loss_changes":[9.292674E0,4.5971174E0,8.454845E0,8.371917E0,4.4430213E0,2.9033616E0,0E0,6.751094E0,4.8254275E0,0E0,2.0213213E0,0E0,0E0,0E0,0E0,0E0,0E0,0E0,0E0],"parents":[2147483647,0,0,1,1,2,2,3,3,4,4,5,5,7,7,8,8,10,10],"right_children":[2,4,6,8,10,12,-1,14,16,-1,18,-1,-1,-1,-1,-1,-1,-1,-1],"split_conditions":[3.1732993E0,3.1742308E0,1.9424745E0,-2.2752237E0,-3.146601E-1,-4.1695732E-1,-1.5791757E-2,-2.2837918E-1,-1.5222144E0,-1.072861E-2,-6.886053E-1,3.2812722E-3,-4.8709027E-3,1.112836E-3,1.51844155E-2,6.6884253E-3,1.2583402E-4,-4.4203717E-3,3.1632234E-3],"split_indices":[329,392,392,417,223,265,0,320,154,0,372,0,0,0,0,0,0,0,0],"split_type":[0,0,0,0,0,0,0,0,0,0,0,0,0,0,0,0,0,0,0],"sum_hessian":[1.3881663E3,1.3669128E3,2.1253508E1,1.3499376E3,1.697521E1,1.6099539E1,5.1539707E0,1.3010473E1,1.3369271E3,5.9569798E0,1.101823E1,5.368103E0,1.0731435E1,7.781846E0,5.2286267E0,9.80935E0,1.3271178E3,5.382488E0,5.6357427E0],"tree_param":{"num_deleted":"0","num_feature":"420","num_nodes":"19","size_leaf_vector":"1"}},{"base_weights":[-7.4496367E-3,-1.3354754E-2,5.254522E-1,-4.6485037E-1,9.524175E-5,1.1166561E-2,-7.9834025E-4,-9.389426E-1,-1.5262385E-3,7.181481E-3,-5.6581725E-3,-1.7936393E-3,-1.5388308E-2,3.9976216E-3,-6.253299E-3,-6.0946206E-3,-1.4100093E-6],"categories":[],"categories_nodes":[],"categories_segments":[],"categories_sizes":[],"default_left":[0,0,0,0,0,0,0,0,0,0,0,0,0,0,0,0,0],"id":53,"left_children":[1,3,5,7,9,-1,-1,11,13,-1,15,-1,-1,-1,-1,-1,-1],"loss_changes":[4.4246693E0,8.579107E0,5.7494006E0,8.879476E0,5.7195134E0,0E0,0E0,8.567129E0,5.973472E0,0E0,4.456877E0,0E0,0E0,0E0,0E0,0E0,0E0],"parents":[2147483647,0,0,1,1,2,2,3,3,4,4,7,7,8,8,10,10],"right_children":[2,4,6,8,10,-1,-1,12,14,-1,16,-1,-1,-1,-1,-1,-1],"split_conditions":[3.8114748E0,-2.1211307E0,8.774191E-2,-5.0379926E-1,-2.981395E0,1.1166561E-2,-7.9834025E-4,-1.8265486E-1,-1.5504278E0,7.181481E-3,-2.7010827E0,-1.7936393E-3,-1.5388308E-2,3.9976216E-3,-6.253299E-3,-6.0946206E-3,-1.4100093E-6],"split_indices":[266,276,162,162,243,0,0,35,83,0,330,0,0,0,0,0,0],"split_type":[0,0,0,0,0,0,0,0,0,0,0,0,0,0,0,0,0],"sum_hessian":[1.4174926E3,1.4035894E3,1.3903195E1,3.9361958E1,1.3642274E3,6.475906E0,7.42729E0,1.858717E1,2.0774788E1,9.505821E0,1.3547216E3,9.135275E0,9.451896E0,1.2872455E1,7.9023337E0,1.0615609E1,1.344106E3],"tree_param":{"num_deleted":"0","num_feature":"420","num_nodes":"17","size_leaf_vector":"1"}},{"base_weights":[1.2061713E-2,4.127466E-1,-1.2688299E-3,2.249571E-1,1.2619504E-2,7.433502E-3,-6.35835E-1,4.31573E-1,-4.128885E-3,1.3232007E-2,-6.7843455E-3,-1.7142847E-2,-1.820327E-5,6.8738954E-3,8.738624E-6,8.263777E-4,-3.484348E-4],"categories":[],"categories_nodes":[],"categories_segments":[],"categories_sizes":[],"default_left":[0,0,0,0,0,0,0,0,0,0,0,0,0,0,0,0,0],"id":54,"left_children":[1,3,5,7,-1,9,11,13,-1,15,-1,-1,-1,-1,-1,-1,-1],"loss_changes":[7.5872965E0,6.71817E0,7.6265287E0,5.457802E0,0E0,5.3207507E0,1.2599602E1,3.3006492E0,0E0,4.4853225E0,0E0,0E0,0E0,0E0,0E0,0E0,0E0],"parents":[2147483647,0,0,1,1,2,2,3,3,5,5,6,6,7,7,9,9],"right_children":[2,4,6,8,-1,10,12,14,-1,16,-1,-1,-1,-1,-1,-1,-1],"split_conditions":[-1.9100404E0,1.9498305E0,3.1732993E0,9.965407E-1,1.2619504E-2,2.6850116E0,-4.508054E-1,8.795181E-1,-4.128885E-3,-1.5705587E-1,-6.7843455E-3,-1.7142847E-2,-1.820327E-5,6.8738954E-3,8.738624E-6,8.263777E-4,-3.484348E-4],"split_indices":[99,182,329,287,0,9,291,137,0,399,0,0,0,0,0,0,0],"split_type":[0,0,0,0,0,0,0,0,0,0,0,0,0,0,0,0,0],"sum_hessian":[1.4111329E3,4.423034E1,1.3669026E3,3.7870846E1,6.3594947E0,1.3497177E3,1.7184958E1,2.9089735E1,8.78111E0,1.3400057E3,9.711891E0,5.357839E0,1.1827118E1,1.7543499E1,1.1546235E1,5.4876483E2,7.9124084E2],"tree_param":{"num_deleted":"0","num_feature":"420","num_nodes":"17","size_leaf_vector":"1"}},{"base_weights":[3.780685E-3,4.449578E-1,-4.026393E-3,-9.844922E-4,7.9762924E-1,-1.1075435E-2,2.488736E-3,1.2231302E-2,-0E0,6.389137E-1,-8.059899E-3,1.6041793E-3,1.5389158E-2,-7.094324E-3,9.549046E-6],"categories":[],"categories_nodes":[],"categories_segments":[],"categories_sizes":[],"default_left":[0,0,0,0,0,0,0,0,0,0,0,0,0,0,0],"id":55,"left_children":[1,3,5,-1,7,-1,9,-1,-1,11,13,-1,-1,-1,-1],"loss_changes":[4.865218E0,4.8948135E0,1.0006728E1,0E0,5.0507154E0,0E0,9.263001E0,0E0,0E0,9.1484375E0,8.596364E0,0E0,0E0,0E0,0E0],"parents":[2147483647,0,0,1,1,2,2,4,4,6,6,9,9,10,10],"right_children":[2,4,6,-1,8,-1,10,-1,-1,12,14,-1,-1,-1,-1],"split_conditions":[-2.4133692E0,-8.6251986E-1,-2.5964978E0,-9.844922E-4,1.2886125E0,-1.1075435E-2,-1.9297668E0,1.2231302E-2,-0E0,-1.0634292E0,-1.7065094E0,1.6041793E-3,1.5389158E-2,-7.094324E-3,9.549046E-6],"split_indices":[288,183,356,0,391,0,335,0,0,85,377,0,0,0,0],"split_type":[0,0,0,0,0,0,0,0,0,0,0,0,0,0,0],"sum_hessian":[1.3974583E3,2.3061703E1,1.3743966E3,9.390403E0,1.36713E1,6.6690207E0,1.3677275E3,8.327819E0,5.3434806E0,2.0997938E1,1.3467296E3,1.4935692E1,6.0622463E0,1.5751796E1,1.3309778E3],"tree_param":{"num_deleted":"0","num_feature":"420","num_nodes":"15","size_leaf_vector":"1"}},{"base_weights":[-6.4308364E-3,-1.4780742E-2,4.354266E-1,5.7897E-3,-2.0445149E-1,-1.2322275E-1,1.188637E-2,1.4706442E-2,-6.332699E-1,-9.1602814E-1,-9.7221084E-2,-7.129146E-3,5.685247E-3,8.4338084E-5,7.539829E-3,-1.2508471E-2,-1.3751321E-3,-6.4948556E-4,-1.5381891E-2,-1.4026627E-3,5.213397E-3],"categories":[],"categories_nodes":[],"categories_segments":[],"categories_sizes":[],"default_left":[0,0,0,0,0,0,0,0,0,0,0,0,0,0,0,0,0,0,0,0,0],"id":56,"left_children":[1,3,5,7,9,11,-1,13,15,17,19,-1,-1,-1,-1,-1,-1,-1,-1,-1,-1],"loss_changes":[5.0200934E0,5.2720942E0,1.094079E1,6.8757524E0,9.851114E0,7.053808E0,0E0,5.4785476E0,4.6854253E0,8.697063E0,3.1781495E0,0E0,0E0,0E0,0E0,0E0,0E0,0E0,0E0,0E0,0E0],"parents":[2147483647,0,0,1,1,2,2,3,3,4,4,5,5,7,7,8,8,9,9,10,10],"right_children":[2,4,6,8,10,12,-1,14,16,18,20,-1,-1,-1,-1,-1,-1,-1,-1,-1,-1],"split_conditions":[2.4782996E0,1.0513113E0,-8.478357E-1,2.0045555E0,1.6231833E-1,2.1166449E0,1.188637E-2,2.6745746E0,-1.8967922E-1,-4.1641292E-1,1.614359E0,-7.129146E-3,5.685247E-3,8.4338084E-5,7.539829E-3,-1.2508471E-2,-1.3751321E-3,-6.4948556E-4,-1.5381891E-2,-1.4026627E-3,5.213397E-3],"split_indices":[101,60,41,15,61,415,0,292,137,137,183,0,0,0,0,0,0,0,0,0,0],"split_type":[0,0,0,0,0,0,0,0,0,0,0,0,0,0,0,0,0,0,0,0,0],"sum_hessian":[1.3679398E3,1.344214E3,2.3725855E1,1.2135295E3,1.3068445E2,1.426642E1,9.459434E0,1.1984299E3,1.5099626E1,1.5510552E1,1.151739E2,7.754569E0,6.511852E0,1.1899855E3,8.444442E0,5.6165586E0,9.483067E0,7.317695E0,8.192858E0,1.0891603E2,6.2578645E0],"tree_param":{"num_deleted":"0","num_feature":"420","num_nodes":"21","size_leaf_vector":"1"}},{"base_weights":[2.6257883E-3,1.2009616E-2,-5.8197796E-1,4.4920495E-1,2.3974255E-3,-1.3799535E-1,-1.5459294E-2,1.1264932E0,-4.6215672E-2,-8.645322E-2,3.9675977E-2,4.575472E-3,-9.358853E-3,1.8477613E-2,6.6635717E-4,-4.6927873E-3,2.0184158E-3,3.0748008E-4,-2.253651E-3,4.2586154E-3,2.524699E-4],"categories":[],"categories_nodes":[],"categories_segments":[],"categories_sizes":[],"default_left":[0,0,0,0,0,0,0,0,0,0,0,0,0,0,0,0,0,0,0,0,0],"id":57,"left_children":[1,3,5,7,9,11,-1,13,15,17,19,-1,-1,-1,-1,-1,-1,-1,-1,-1,-1],"loss_changes":[7.6166744E0,5.737741E0,8.897314E0,1.0044483E1,4.467323E0,8.641205E0,0E0,9.222476E0,2.0918148E0,6.5139213E0,5.242606E0,0E0,0E0,0E0,0E0,0E0,0E0,0E0,0E0,0E0,0E0],"parents":[2147483647,0,0,1,1,2,2,3,3,4,4,5,5,7,7,8,8,9,9,10,10],"right_children":[2,4,6,8,10,12,-1,14,16,18,20,-1,-1,-1,-1,-1,-1,-1,-1,-1,-1],"split_conditions":[3.1732993E0,-1.9307773E0,3.0405857E-2,1.7042155E0,-3.2525685E-1,-1.8598928E-1,-1.5459294E-2,4.6321133E-1,-4.7240165E-1,-2.6760662E-1,-1.046656E0,4.575472E-3,-9.358853E-3,1.8477613E-2,6.6635717E-4,-4.6927873E-3,2.0184158E-3,3.0748008E-4,-2.253651E-3,4.2586154E-3,2.524699E-4],"split_indices":[329,314,307,198,46,54,0,141,139,373,167,0,0,0,0,0,0,0,0,0,0],"split_type":[0,0,0,0,0,0,0,0,0,0,0,0,0,0,0,0,0,0,0,0,0],"sum_hessian":[1.3954081E3,1.3749777E3,2.0430355E1,2.7880365E1,1.3470973E3,1.5232809E1,5.1975455E0,1.1056368E1,1.6823997E1,3.9676837E2,9.50329E2,9.017028E0,6.215781E0,5.8593946E0,5.196973E0,5.8729897E0,1.0951009E1,2.154442E2,1.8132416E2,3.2438E1,9.178909E2],"tree_param":{"num_deleted":"0","num_feature":"420","num_nodes":"21","size_leaf_vector":"1"}},{"base_weights":[1.751164E-3,6.0895437E-1,-4.598341E-3,1.2284862E-2,-9.939441E-4,-1.1392463E-2,2.125493E-3,-3.684616E-1,1.158621E-2,-7.247278E-3,7.590011E-4,5.3398227E-3,4.955443E-5],"categories":[],"categories_nodes":[],"categories_segments":[],"categories_sizes":[],"default_left":[0,0,0,0,0,0,0,0,0,0,0,0,0],"id":58,"left_children":[1,3,5,-1,-1,-1,7,9,11,-1,-1,-1,-1],"loss_changes":[5.426525E0,6.6885324E0,1.0627819E1,0E0,0E0,0E0,4.777332E0,5.5158167E0,4.5787225E0,0E0,0E0,0E0,0E0],"parents":[2147483647,0,0,1,1,2,2,6,6,7,7,8,8],"right_children":[2,4,6,-1,-1,-1,8,10,12,-1,-1,-1,-1],"split_conditions":[-2.514605E0,-6.387772E-2,-2.5962896E0,1.2284862E-2,-9.939441E-4,-1.1392463E-2,-2.010625E0,3.240987E-1,-1.9297668E0,-7.247278E-3,7.590011E-4,5.3398227E-3,4.955443E-5],"split_indices":[82,414,398,0,0,0,67,326,335,0,0,0,0],"split_type":[0,0,0,0,0,0,0,0,0,0,0,0,0],"sum_hessian":[1.3892335E3,1.3066585E1,1.376167E3,6.4580307E0,6.6085534E0,6.7062583E0,1.3694607E3,3.2410603E1,1.3370502E3,1.7588047E1,1.4822556E1,1.5074171E1,1.321976E3],"tree_param":{"num_deleted":"0","num_feature":"420","num_nodes":"13","size_leaf_vector":"1"}},{"base_weights":[1.0222501E-2,6.20587E-1,3.5892697E-3,-0E0,1.2376255E-2,-4.9824205E-1,1.2884175E-2,-9.209166E-4,-1.5212966E-2,-4.8029572E-1,1.9922635E-2,-0E0,-1.21600125E-2,7.6957564E-3,1.0786073E-4],"categories":[],"categories_nodes":[],"categories_segments":[],"categories_sizes":[],"default_left":[0,0,0,0,0,0,0,0,0,0,0,0,0,0,0],"id":59,"left_children":[1,3,5,-1,-1,7,9,-1,-1,11,13,-1,-1,-1,-1],"loss_changes":[5.5206065E0,5.545986E0,6.3357177E0,0E0,0E0,9.88946E0,4.6316943E0,0E0,0E0,6.7057066E0,8.99282E0,0E0,0E0,0E0,0E0],"parents":[2147483647,0,0,1,1,2,2,5,5,6,6,9,9,10,10],"right_children":[2,4,6,-1,-1,8,10,-1,-1,12,14,-1,-1,-1,-1],"split_conditions":[-2.514605E0,-4.2482108E-1,-2.2799213E0,-0E0,1.2376255E-2,1.5206857E-1,-2.2087085E0,-9.209166E-4,-1.5212966E-2,1.1417601E-1,-1.9297668E0,-0E0,-1.21600125E-2,7.6957564E-3,1.0786073E-4],"split_indices":[82,55,4,0,0,91,316,0,0,161,335,0,0,0,0],"split_type":[0,0,0,0,0,0,0,0,0,0,0,0,0,0,0],"sum_hessian":[1.378296E3,1.3163137E1,1.3651328E3,7.355539E0,5.807599E0,2.3194584E1,1.3419382E3,1.784352E1,5.3510656E0,1.7263046E1,1.3246752E3,1.1300854E1,5.962193E0,1.4315323E1,1.3103599E3],"tree_param":{"num_deleted":"0","num_feature":"420","num_nodes":"15","size_leaf_vector":"1"}},{"base_weights":[1.797965E-2,9.57322E-3,5.57171E-1,7.081509E-2,-3.6705803E-2,2.0625686E-2,-1.349372E-1,3.984109E-2,5.350507E-1,-2.469857E-2,-6.880797E-1,4.6866885E-3,-5.493524E-3,6.558175E-4,-3.66294E-3,2.7533188E-3,1.5843373E-2,8.072799E-3,-3.3727358E-4,-1.3564331E-3,-1.2400534E-2],"categories":[],"categories_nodes":[],"categories_segments":[],"categories_sizes":[],"default_left":[0,0,0,0,0,0,0,0,0,0,0,0,0,0,0,0,0,0,0,0,0],"id":60,"left_children":[1,3,5,7,9,-1,11,13,15,17,19,-1,-1,-1,-1,-1,-1,-1,-1,-1,-1],"loss_changes":[6.3302913E0,3.949445E0,2.2958878E1,8.5397415E0,6.099915E0,0E0,4.410725E0,5.906336E0,9.300966E0,5.820102E0,3.9199986E0,0E0,0E0,0E0,0E0,0E0,0E0,0E0,0E0,0E0,0E0],"parents":[2147483647,0,0,1,1,2,2,3,3,4,4,6,6,7,7,8,8,9,9,10,10],"right_children":[2,4,6,8,10,-1,12,14,16,18,20,-1,-1,-1,-1,-1,-1,-1,-1,-1,-1],"split_conditions":[2.4782996E0,-1.0717908E-1,4.5901933E-1,1.5727379E0,2.018938E0,2.0625686E-2,-1.1369513E0,1.2621785E0,2.749258E-1,-2.9045928E0,-7.4933755E-1,4.6866885E-3,-5.493524E-3,6.558175E-4,-3.66294E-3,2.7533188E-3,1.5843373E-2,8.072799E-3,-3.3727358E-4,-1.3564331E-3,-1.2400534E-2],"split_indices":[101,414,235,383,206,0,225,415,34,242,33,0,0,0,0,0,0,0,0,0,0],"split_type":[0,0,0,0,0,0,0,0,0,0,0,0,0,0,0,0,0,0,0,0,0],"sum_hessian":[1.4093595E3,1.3894097E3,1.9949926E1,5.986159E2,7.907937E2,5.3933034E0,1.45566225E1,5.6290295E2,3.5712982E1,7.781597E2,1.26339655E1,5.7475276E0,8.809094E0,5.3076715E2,3.2135777E1,3.0221481E1,5.4915023E0,6.8114314E0,7.713483E2,7.338798E0,5.2951674E0],"tree_param":{"num_deleted":"0","num_feature":"420","num_nodes":"21","size_leaf_vector":"1"}}]},"name":"gbtree"},"learner_model_param":{"base_score":"-3.8839022E-3","boost_from_average":"1","num_class":"0","num_feature":"420","num_target":"1"},"objective":{"name":"reg:pseudohubererror","pseudo_huber_param":{"huber_slope":"1"}}},"version":[2,1,0]}