tree
version=v4
num_class=1
num_tree_per_iteration=1
label_index=0
max_feature_idx=419
objective=huber
feature_names=Column_0 Column_1 Column_2 Column_3 Column_4 Column_5 Column_6 Column_7 Column_8 Column_9 Column_10 Column_11 Column_12 Column_13 Column_14 Column_15 Column_16 Column_17 Column_18 Column_19 Column_20 Column_21 Column_22 Column_23 Column_24 Column_25 Column_26 Column_27 Column_28 Column_29 Column_30 Column_31 Column_32 Column_33 Column_34 Column_35 Column_36 Column_37 Column_38 Column_39 Column_40 Column_41 Column_42 Column_43 Column_44 Column_45 Column_46 Column_47 Column_48 Column_49 Column_50 Column_51 Column_52 Column_53 Column_54 Column_55 Column_56 Column_57 Column_58 Column_59 Column_60 Column_61 Column_62 Column_63 Column_64 Column_65 Column_66 Column_67 Column_68 Column_69 Column_70 Column_71 Column_72 Column_73 Column_74 Column_75 Column_76 Column_77 Column_78 Column_79 Column_80 Column_81 Column_82 Column_83 Column_84 Column_85 Column_86 Column_87 Column_88 Column_89 Column_90 Column_91 Column_92 Column_93 Column_94 Column_95 Column_96 Column_97 Column_98 Column_99 Column_100 Column_101 Column_102 Column_103 Column_104 Column_105 Column_106 Column_107 Column_108 Column_109 Column_110 Column_111 Column_112 Column_113 Column_114 Column_115 Column_116 Column_117 Column_118 Column_119 Column_120 Column_121 Column_122 Column_123 Column_124 Column_125 Column_126 Column_127 Column_128 Column_129 Column_130 Column_131 Column_132 Column_133 Column_134 Column_135 Column_136 Column_137 Column_138 Column_139 Column_140 Column_141 Column_142 Column_143 Column_144 Column_145 Column_146 Column_147 Column_148 Column_149 Column_150 Column_151 Column_152 Column_153 Column_154 Column_155 Column_156 Column_157 Column_158 Column_159 Column_160 Column_161 Column_162 Column_163 Column_164 Column_165 Column_166 Column_167 Column_168 Column_169 Column_170 Column_171 Column_172 Column_173 Column_174 Column_175 Column_176 Column_177 Column_178 Column_179 Column_180 Column_181 Column_182 Column_183 Column_184 Column_185 Column_186 Column_187 Column_188 Column_189 Column_190 Column_191 Column_192 Column_193 Column_194 Column_195 Column_196 Column_197 Column_198 Column_199 Column_200 Column_201 Column_202 Column_203 Column_204 Column_205 Column_206 Column_207 Column_208 Column_209 Column_210 Column_211 Column_212 Column_213 Column_214 Column_215 Column_216 Column_217 Column_218 Column_219 Column_220 Column_221 Column_222 Column_223 Column_224 Column_225 Column_226 Column_227 Column_228 Column_229 Column_230 Column_231 Column_232 Column_233 Column_234 Column_235 Column_236 Column_237 Column_238 Column_239 Column_240 Column_241 Column_242 Column_243 Column_244 Column_245 Column_246 Column_247 Column_248 Column_249 Column_250 Column_251 Column_252 Column_253 Column_254 Column_255 Column_256 Column_257 Column_258 Column_259 Column_260 Column_261 Column_262 Column_263 Column_264 Column_265 Column_266 Column_267 Column_268 Column_269 Column_270 Column_271 Column_272 Column_273 Column_274 Column_275 Column_276 Column_277 Column_278 Column_279 Column_280 Column_281 Column_282 Column_283 Column_284 Column_285 Column_286 Column_287 Column_288 Column_289 Column_290 Column_291 Column_292 Column_293 Column_294 Column_295 Column_296 Column_297 Column_298 Column_299 Column_300 Column_301 Column_302 Column_303 Column_304 Column_305 Column_306 Column_307 Column_308 Column_309 Column_310 Column_311 Column_312 Column_313 Column_314 Column_315 Column_316 Column_317 Column_318 Column_319 Column_320 Column_321 Column_322 Column_323 Column_324 Column_325 Column_326 Column_327 Column_328 Column_329 Column_330 Column_331 Column_332 Column_333 Column_334 Column_335 Column_336 Column_337 Column_338 Column_339 Column_340 Column_341 Column_342 Column_343 Column_344 Column_345 Column_346 Column_347 Column_348 Column_349 Column_350 Column_351 Column_352 Column_353 Column_354 Column_355 Column_356 Column_357 Column_358 Column_359 Column_360 Column_361 Column_362 Column_363 Column_364 Column_365 Column_366 Column_367 Column_368 Column_369 Column_370 Column_371 Column_372 Column_373 Column_374 Column_375 Column_376 Column_377 Column_378 Column_379 Column_380 Column_381 Column_382 Column_383 Column_384 Column_385 Column_386 Column_387 Column_388 Column_389 Column_390 Column_391 Column_392 Column_393 Column_394 Column_395 Column_396 Column_397 Column_398 Column_399 Column_400 Column_401 Column_402 Column_403 Column_404 Column_405 Column_406 Column_407 Column_408 Column_409 Column_410 Column_411 Column_412 Column_413 Column_414 Column_415 Column_416 Column_417 Column_418 Column_419
feature_infos=[-2.5766798838553702:2.5784274162481982] [-2.1945523763335499:2.4047507361886926] [-3.028040802643531:2.8171349994737214] [-3.2339449462757477:2.837261696989291] [-3.1996539252920186:2.9981195553874067] [-1.2950285683739575:3.5796669385700945] [-1.9942102590065045:2.1257468710106404] [-1.6584231658565394:2.6427320133673251] [-1.8258664702727305:2.5083085788981481] [-1.9403268009895589:2.4364706982943662] [-2.7963093180920202:2.9952490978033715] [-2.6064439100578767:2.8443689041529603] [-2.6512367886110662:2.7964173074131011] [-1.3036389860207223:4.2180739126889248] [-1.3158011598347328:4.087511783351613] [-2.7080155109534374:2.8433197409984099] [-1.4016489887459993:4.3317560575865448] [-1.5810289971264095:3.6529164309252695] [-2.7757805648205154:2.6894451942232016] [-2.6426881292748465:2.6534596328185049] [-2.6993051341457388:2.5014610507379378] [-2.580284935329868:2.5787025885619221] [-2.1942393707580674:2.4050153431138761] [-3.0280955394544362:2.8166306119370423] [-3.2336076443290684:2.8360861116875196] [-3.1981788073938584:2.9976225735428073] [-1.2950509651856146:3.5796851111770289] [-1.9931155109937349:2.1255336209659235] [-1.6571602480354282:2.6419190293808761] [-1.8256993603906377:2.5082476904465731] [-1.940219622548512:2.4374109044475718] [-2.7952171666871966:2.9952242456015994] [-2.6055819170004435:2.8440260817287721] [-2.6503555775865824:2.7960822705413504] [-1.3036545934418298:4.2180763176960996] [-1.3156049249492938:4.0848369195401375] [-2.7075429593097557:2.8431608959273835] [-1.4018601001691862:4.3316287346982811] [-1.5810626031262378:3.6529133712484754] [-2.7753235076645577:2.6897025744469878] [-2.6426050803095413:2.6534671664002842] [-2.6986833657104001:2.5013786931429767] [-2.584021722787039:2.5791581094564973] [-2.1937195249843877:2.4051829803756495] [-3.0282009632595916:2.8163713689755507] [-3.2334107136561157:2.83513536271606] [-3.1958581547423153:2.996642171951343] [-1.2951256879468167:3.5797425493807755] [-1.9916425227652212:2.1250442288178251] [-1.6560287002720278:2.6411246118991474] [-1.825541938860102:2.5081851496276473] [-1.9402244263689656:2.4382609908627817] [-2.7937584966876345:2.9949585676829651] [-2.6050689383063488:2.8439284026858989] [-2.6498360669214396:2.7959920081612144] [-1.3040929571257249:4.2182194229085139] [-1.3161452614150468:4.08441737640453] [-2.7071058624505007:2.8432961172672893] [-1.4022560005484459:4.3317656102922397] [-1.5811236469355288:3.6529081306844633] [-2.7741581964802537:2.6899604895037328] [-2.6424779551071551:2.653463227056712] [-2.6978106711741612:2.5012468712847853] [-2.5875741392150604:2.5792992871632605] [-2.1936291581057246:2.4053085430934718] [-3.0283068538635689:2.8161579929478791] [-3.2333155701709093:2.8343646407625864] [-3.1939686925050204:2.9959377373908147] [-1.2951893098314378:3.5797920179733334] [-1.9914806716897404:2.1250626449744447] [-1.6548898525952525:2.6403172262898345] [-1.8255692841740825:2.5081870553623329] [-1.940209053440735:2.43826932653351] [-2.7931573212749599:2.9951245911755469] [-2.6045176314151282:2.8420073947241322] [-2.6492708290800686:2.7941119675845374] [-1.3034685928574201:4.2181806057977136] [-1.3166534096454279:4.0844243589308578] [-2.7068774867074699:2.8421871413177486] [-1.4027394407733476:4.3317212519989896] [-1.5812792585619118:3.6528591125067233] [-2.773168155319587:2.6900744263288656] [-2.6422729940354532:2.6535818619930791] [-2.6975918509843235:2.5012535304093682] [-2.591345614171757:2.5797407515135133] [-2.1933306180721264:2.4053898465232324] [-3.0283999043202394:2.8160508763265559] [-3.2333075893845931:2.8337675409605994] [-3.1918164726786182:2.9950630569453045] [-1.2952085730878404:3.5798080874754912] [-1.9906413928859557:2.1248095305761705] [-1.6537585615824304:2.6395137141450986] [-1.8255270259076724:2.5081890721436673] [-1.9399294060723109:2.4382595878111042] [-2.792098768118584:2.9950379483517588] [-2.6034510897844489:2.8415589585504648] [-2.6481787798372443:2.7936718985552531] [-1.3034640038799181:4.2181759217961705] [-1.3172797974729513:4.0842587945934659] [-2.7050423276724489:2.8413098640591676] [-1.4032426310087367:4.3316229041919092] [-1.5814353542191206:3.6528312361670361] [-2.7720978954459898:2.6898701273683185] [-2.6418680479745649:2.6536864707659844] [-2.6969119176078968:2.5010560608773478] [-2.5864270053331744:2.5795610725199141] [-2.1934406710413121:2.4051178905628614] [-3.0285185529591856:2.8158502695833501] [-3.2333414540694774:2.833260387766535] [-3.1909682979361524:2.9948940781383322] [-1.2951557584510804:3.5797569212823968] [-1.990902930692017:2.1238659475270119] [-1.6527096355400697:2.6387808515126236] [-1.8259742901219267:2.5082051233056464] [-1.9395229639072933:2.4382431794754766] [-2.7914897617644492:2.99340841626262] [-2.600486317788449:2.8358677068163161] [-2.6452608504115216:2.7882256604890463] [-1.303609190254964:4.2153041497469648] [-1.3180859333361474:4.0821130487054118] [-2.7018381931539461:2.8356663527179244] [-1.4042527951777781:4.3298230887900973] [-1.5817658658960949:3.6524100900936793] [-2.7725081447725874:2.6894805581405388] [-2.6420059576510786:2.653612602071922] [-2.6970831568219009:2.5010814864490967] [-2.5786249145028401:2.5792347510026854] [-2.1934980361062064:2.4047637814547578] [-3.0286314673282728:2.815520434502488] [-3.2333912002979526:2.8327839224174385] [-3.1907965302196968:2.9949297305026907] [-1.2952332560614577:3.5798310499110486] [-1.990864734706187:2.1225530175876872] [-1.6518167225738996:2.638169002444636] [-1.8264391276309699:2.5081184217027697] [-1.9390386345569033:2.4382060520384905] [-2.7906788768844426:2.9914470525849852] [-2.6005048307426915:2.8356038265376617] [-2.6452749639083533:2.7879625768713128] [-1.3038687551440022:4.2195563218537515] [-1.3186597087556899:4.0827195241531999] [-2.7018815842192425:2.8355474987328404] [-1.4053975200126845:4.3289444094215597] [-1.5820477594400253:3.6522376555969132] [-2.7723095132942701:2.6881187074760864] [-2.6420561416739097:2.6533390930734493] [-2.6975020107701453:2.5009371320018512] [-2.5634420239773963:2.5782780850146079] [-2.1933183345407992:2.4038203409304084] [-3.0286191757628398:2.8148151504916683] [-3.2334228172654105:2.8322509774043372] [-3.1908393912251225:2.994490154741047] [-1.2957034639748688:3.580215900024327] [-1.9898942047181611:2.1198657825724569] [-1.6511044107107311:2.637733681054713] [-1.8267311609695591:2.5077482437124039] [-1.93925110283133:2.4383107285370134] [-2.7885900018749821:2.9875395367541397] [-2.5987396424066054:2.8320104265275461] [-2.6435168449603568:2.7844977400632454] [-1.3011539753078631:4.2030582447428673] [-1.3174908557461402:4.072139578298879] [-2.6986501469825241:2.8300289791565509] [-1.4065176580360861:4.3282690221487536] [-1.5823819711988825:3.6518437549681249] [-2.7696191253939131:2.6834144383672593] [-2.6418651253351477:2.6526930953066592] [-2.6978866093858898:2.5002355824416451] [-2.5659868680017133:2.5769599114465502] [-2.1929594926244009:2.4027317748454] [-3.0283030251724421:2.8135616226612741] [-3.2333914095231893:2.831574911344982] [-3.1901902289970221:2.992842836004606] [-1.2965143440116238:3.5807115946472572] [-1.9890066446776737:2.1179306408600103] [-1.6505327755965182:2.6374417222580675] [-1.8268316548110526:2.50723069196399] [-1.9394175213965619:2.4383930409642147] [-2.7859731080376871:2.9829263023568529] [-2.5985198817042963:2.8312901970095541] [-2.643289785618546:2.7837909945605626] [-1.3003443692149843:4.2024901460512183] [-1.3178117226232959:4.0723401416727896] [-2.6985425495803033:2.829651017982274] [-1.4074696360643535:4.3273658881933414] [-1.5827033916974953:3.6513996338427961] [-2.7673682929502097:2.6794923776493325] [-2.6416975100704199:2.6520896735828186] [-2.6980117291890595:2.4992552141198892] [-2.5687472967487888:2.5759980282614632] [-2.1929792449843077:2.4028015577093935] [-3.0278204333574004:2.8120845665797436] [-3.2332702617517874:2.8307355419278166] [-3.1894340429809369:2.991132583834017] [-1.2973248155683599:3.5810613057239125] [-1.9891135932105282:2.1181855330323871] [-1.6499994928293895:2.6372074528030942] [-1.8268368186226449:2.507112340623054] [-1.9399248582055069:2.4385878540762862] [-2.7847979824853031:2.9805111609118016] [-2.5969111201643909:2.8311988684750475] [-2.6416532245268609:2.7837106243748364] [-1.3000712868716824:4.2022960509001051] [-1.3182417340669248:4.0720390357527156] [-2.6969649547290064:2.8297271549601342] [-1.4084795835708728:4.3263391954489849] [-1.5835062223212564:3.6511229014082116] [-2.7652980103302331:2.6761461247080183] [-2.6415980935046512:2.651670013850433] [-2.6979753285649473:2.4989743071846191] [-2.5716482010760289:2.5752668022667251] [-2.1931406615977069:2.4034609818263166] [-3.027324751949982:2.8106368206979133] [-3.2330591492055918:2.8297582822364631] [-3.1890239449279125:2.9900479236057231] [-1.2980432866090876:3.5813034610106476] [-1.9895022613357469:2.1192511073044518] [-1.6493812025203674:2.6369716989200942] [-1.8268367301539448:2.5072433251243988] [-1.940972948460046:2.4389587829133088] [-2.7843253377259134:2.9793108282242216] [-2.5959824826758711:2.8312611644202965] [-2.6407169914802076:2.783785553927093] [-1.2999414478252345:4.2021942978854927] [-1.3183878193074354:4.0721096526285141] [-2.6959088152903008:2.8299602751581894] [-1.4097135356470918:4.3262816145718919] [-1.5844189273422455:3.6510900005464939] [-2.7653707846696061:2.6763653328978605] [-2.6415257994266952:2.6511292902524088] [-2.6979094680725981:2.4984216669488482] [-2.5744700228181885:2.5744134725093613] [-2.1932969878961077:2.4040195281631331] [-3.0267847142126723:2.8091557356038477] [-3.2327582825691237:2.8286568082767727] [-3.1887570473532261:2.9892554325893013] [-1.2987156152714072:3.5814412044137449] [-1.9897586601906809:2.1199727056981241] [-1.6486855437980974:2.6367974881243943] [-1.8268504648859787:2.5074650896737127] [-1.9427874006838135:2.439838640615299] [-2.7838705135234383:2.9781239821866756] [-2.5960689442320093:2.8309794740288257] [-2.6407984667316913:2.783502828007387] [-1.299762732872026:4.2023544383826978] [-1.3178879135264694:4.0718450055276607] [-2.6959175432699416:2.8299527369325008] [-1.41089123183365:4.3261379968116938] [-1.5853493709782573:3.6511164457842198] [-2.7654154815681409:2.6765183721440571] [-2.6410910736552995:2.6499213948491533] [-2.6979200584992551:2.4979584848275032] [-2.5772455329687105:2.5735088828671127] [-2.1935303871949614:2.4047478874288619] [-3.0262128715402543:2.8076606055186764] [-3.232372345863272:2.8274476172326617] [-3.1885987800632147:2.9887097442796389] [-1.2993195271189952:3.5814851726203183] [-1.9900580745614962:2.1208131356516442] [-1.647928463756537:2.6367384215710081] [-1.8269462222826418:2.508120835262714] [-1.9449516500278872:2.4409410239292653] [-2.7835330486199528:2.9771640710064005] [-2.5960360465438215:2.831057228764434] [-2.6407670141509509:2.7835811539472735] [-1.3003717344348551:4.2026270413390723] [-1.3181415815115745:4.0720739787581239] [-2.6956237988188008:2.8302155790126982] [-1.4119728685671893:4.327154343410256] [-1.5862740834828841:3.6511607775761279] [-2.7652123585166803:2.6771510049915195] [-2.6403450479687653:2.6482868804829867] [-2.697868125638013:2.4973847239910167] [-2.5797850911832163:2.5723421930755141] [-2.194094238764277:2.4060553891397269] [-3.0255470553552954:2.8060798007966672] [-3.231893663825181:2.8261310091063434] [-3.1884506586263521:2.988255068841231] [-1.2998059857495627:3.5813415068798746] [-1.990602665280421:2.1220699705089667] [-1.6471328701477179:2.6368359191502173] [-1.8270051012884119:2.5084290214527369] [-1.9471241933200445:2.4420460895717913] [-2.7831383142735895:2.9761512635460297] [-2.5961536439170807:2.8314407851789452] [-2.6408886144315944:2.7839576381724478] [-1.299916752159906:4.2042536025752915] [-1.318152089138469:4.0720685136752994] [-2.6957099893464598:2.8309128002626807] [-1.4127157251240534:4.327854712872135] [-1.5874224348328874:3.6514907009801161] [-2.764945269180803:2.678021733597038] [-2.6399957884210048:2.6475267862139855] [-2.6978471410515548:2.4973167697560816] [-2.5824084546329318:2.5712427592348588] [-2.1942576302067573:2.4065301856114054] [-3.0248414237686698:2.8044616114288203] [-3.2313284553792916:2.8247176322569523] [-3.188354036704836:2.9879088880126945] [-1.3002641605515095:3.581133528848397] [-1.990754975439426:2.1225479265263645] [-1.6463978477717598:2.6372448283765193] [-1.8269578443773731:2.5079327603151427] [-1.9492654722223068:2.4431716553576037] [-2.7828691661681275:2.975292495323683] [-2.5965033743187331:2.8314239809270196] [-2.6412400246441368:2.7839346925650843] [-1.3000414064155945:4.2043366568586933] [-1.3179042987308207:4.0718424377069136] [-2.6957982086542405:2.8309178072495249] [-1.4128233816324387:4.3279708420078569] [-1.5885360540526274:3.6518012699292495] [-2.7648901237818904:2.6782448819627693] [-2.6391872489884292:2.64595708692269] [-2.6977775022964297:2.4971014735324983] [-2.5850846103774114:2.5701243012998236] [-2.1941645689750198:2.4059567627693976] [-3.0240807554841425:2.8027407847563186] [-3.2306804485023646:2.8232042418230296] [-3.188272741054031:2.9874991062756133] [-1.3007288503669401:3.5808413047305598] [-1.9907043864759457:2.12216140627012] [-1.6458245909948837:2.637809007477963] [-1.8268072877384858:2.5064856253309382] [-1.949714665400629:2.4434191524498887] [-2.7826116911616809:2.9742663629532968] [-2.5975492154725126:2.8313990798931501] [-2.6422964140150911:2.783896656159345] [-1.3002124302660041:4.2023981494577329] [-1.3179036135373412:4.0719345069282022] [-2.6969635800788927:2.830844180401249] [-1.412047525974349:4.3270197241029056] [-1.5895988362901468:3.6520878479435299] [-2.7650288476279496:2.6777281298088313] [-2.6390539840351148:2.6454544378610247] [-2.69776141093543:2.4966701873690904] [-2.5877406381245462:2.5689479398022192] [-2.1940609310965944:2.4051392320334264] [-3.0232611698784648:2.8009046898517718] [-3.2299512108180766:2.8215851227946156] [-3.1882204453701051:2.987031513140542] [-1.3012242257446915:3.5805191102289005] [-1.9906814941724684:2.1216118790833196] [-1.6453966575887973:2.6383974238915933] [-1.8266230474202141:2.5047790621772537] [-1.9493745521897701:2.4432416913451895] [-2.7825757197331074:2.9731184981018841] [-2.5977895812435068:2.8311883402856766] [-2.6425332970681379:2.7836812547539487] [-1.3002908022878681:4.2024921517055267] [-1.3174336063033469:4.0719705188324555] [-2.6971461418872669:2.8305575576733695] [-1.4112414503696804:4.326024389094175] [-1.5907460167719631:3.6525590238378718] [-2.7652701275420069:2.6772726269935729] [-2.6389629439233486:2.6449389516629767] [-2.69758653681036:2.4959672655588707] [-2.5688392525024137:2.5677027573284166] [-2.1940328178029791:2.4039998012005159] [-3.0223660371188905:2.798914653899085] [-3.2291378476602506:2.8198472259677998] [-3.1882075717980229:2.9864750509287989] [-1.301823930797041:3.5801908138022664] [-1.9908266528721357:2.1208412415980753] [-1.6451109429785002:2.6390663695254846] [-1.8266975252300435:2.503788907606681] [-1.9491036751836506:2.4431430915725012] [-2.7825577937593793:2.9719051226939137] [-2.5982660977948755:2.8309201164607898] [-2.6430071087782432:2.7834048802459628] [-1.3001764928416919:4.2025318636002744] [-1.3175686055768974:4.07182284764282] [-2.6975515508134973:2.8298374867587652] [-1.4104263667112862:4.3249933168168671] [-1.5919804382171117:3.653145685646066] [-2.7657981704341794:2.6767281560785539] [-2.6390171725571525:2.6448270348750826] [-2.6974322221669853:2.4953782650117176] [-2.5714589379383623:2.5664745128690996] [-2.1939231720427297:2.4031689558514762] [-3.0214667418568077:2.7969019834738029] [-3.2282529902901569:2.8180067866104745] [-3.1882587573600469:2.9860383464341536] [-1.302500109602541:3.5798402680418975] [-1.9908487969795807:2.1203821036910284] [-1.6449493226623695:2.6398168228385868] [-1.8266578748916229:2.5024278121782153] [-1.9487179249318991:2.4429796446501051] [-2.7825960723406951:2.9709763118559729] [-2.5980740306152921:2.8313640765448009] [-2.6428224035890255:2.7838512555117054] [-1.2998520342447064:4.202872676461471] [-1.317278991502282:4.0717213513586028] [-2.6971550462085796:2.8304689020026537] [-1.4098841245020046:4.324244909034598] [-1.5932016730351062:3.6537727146661991] [-2.7665687099461613:2.676589458307189] [-2.6389241321234831:2.6448975921773288] [-2.6974099212678997:2.4951700157112775] [-2.5738311792582493:2.564987882818162] [-2.1937225153711006:2.4025891792374541] [-3.0204965726488635:2.7948140426140191] [-3.2272932560272833:2.8160669247215031] [-3.1882790663404665:2.9856428487463922] [-1.3031766392000392:3.5794127744290871] [-1.9908981886130939:2.1205613377195465] [-1.6448463290728788:2.6406856675566761] [-1.8266364943489823:2.5020194712575732] [-1.9488228998095551:2.4430191947257343] [-2.7824854520358384:2.9699679765452625] [-2.5983227146374466:2.8321329073558892] [-2.643078411157445:2.784604868010947] [-1.2995854920542724:4.2029916775077343] [-1.3171364053459542:4.0725363229586762] [-2.6976415466602419:2.8315344302658905] [-1.4090142000865855:4.3233143845402262] [-1.5942830192811672:3.6543096863768216] [-2.7666759021457494:2.6761622684660078] [-2.6389404572518842:2.6447307841671646] [-2.6972457662180824:2.4946539472166918]
tree_sizes=2931 2943 2909 2882 2922 2939 2900 2907

Tree=0
num_leaves=31
num_cat=0
split_feature=142 351 387 226 410 230 170 100 303 388 405 196 29 140 50 394 142 379 161 136 407 43 208 333 412 181 78 51 135 74
split_gain=5.02444 6.68862 5.843 5.58859 4.63591 6.35326 6.21177 5.19999 4.46079 4.4456 4.19699 4.10502 4.04937 6.00571 5.93093 4.94718 5.90801 5.42648 3.73953 3.71054 3.6607 3.63079 3.61328 3.54154 4.28905 3.89414 3.51524 3.48894 3.46751 3.14842
threshold=-0.25494208352370401 1.9751196519309051 1.3439431128586738 0.69188802741388555 -0.42366374623736897 0.34862863611558936 -0.73470515177739404 -0.35841255930616839 -1.4788373448966039 1.1003547942256995 -1.1619684193597499 -0.044216800027646906 -0.152275014507807 -0.25138179336188143 1.0090908647166783 -0.72003607699594352 0.012179872107347918 0.53021296785866412 0.064172380878026666 -0.4552399532305697 0.22512244411082127 -1.7556385691571093 -0.20007817369279782 -0.63833974970731899 0.20959004355861552 -0.23740911731733219 0.97518441372561904 -0.39534750154584136 0.054700652413666215 -0.39171679552489302
decision_type=2 2 2 2 2 2 2 2 2 2 2 2 2 2 2 2 2 2 2 2 2 2 2 2 2 2 2 2 2 2
left_child=2 3 4 8 9 6 22 20 -2 29 -5 27 13 23 15 -14 17 -17 -18 -16 -8 -15 -6 -10 25 -25 28 -9 -23 -1
right_child=1 -3 -4 10 5 -7 7 11 12 -11 -12 -13 14 21 19 16 18 -19 -20 -21 -22 26 -24 24 -26 -27 -28 -29 -30 -31
leaf_value=0.0026399634869632839 -0.0022633558180005621 0.004152610271291989 -0.0030780284416661568 0.0024592081064535904 -0.00077224717042505611 -0.0020922890827731687 0.0024928216704344975 0.00052008318919135688 -0.0024997862704851997 -0.0026055601995134928 -0.0013347537121297739 0.0017600126603692339 0.0017211061362044245 -0.00062036570713942449 -0.00035379695233224971 0.0033716678503353955 -0.0010667872967447794 -0.0015053518141442308 -0.0041236457139404766 0.0025786816704986468 7.3626143513329546e-05 0.0057142532147511646 -0.0043798984609128479 -3.2299138041559403e-11 -0.0020472356116620757 0.0041651329142896381 0.00024546395227387896 -0.0034131689708762586 0.0024807925646572544 0.00038198476960309521
leaf_weight=87 48 44 80 30 95 237 133 30 40 35 270 34 70 30 60 43 118 43 66 127 125 54 41 45 33 42 44 66 125 228
leaf_count=87 48 44 80 30 95 237 133 30 40 35 270 34 70 30 60 43 118 43 66 127 125 54 41 45 33 42 44 66 125 228
internal_value=-2.1598e-05 0.000398027 -0.000494973 0.000259649 -0.000299285 -0.000739858 -0.000113031 0.000522536 0.000625561 0.000643203 -0.000925028 -0.00107646 0.000782881 0.00152356 0.000189406 -0.000586311 -0.00121117 0.000897548 -0.0022227 0.00161754 0.00134954 0.00247646 -0.00194379 -3.22991e-11 0.000866968 0.0020497 0.00291711 -0.00214748 0.00353624 0.00103411
internal_weight=2523 1332 1191 1288 1111 761 524 388 988 350 300 130 940 413 527 340 270 86 184 187 258 253 136 160 120 87 223 96 179 315
internal_count=2523 1332 1191 1288 1111 761 524 388 988 350 300 130 940 413 527 340 270 86 184 187 258 253 136 160 120 87 223 96 179 315
is_linear=0
shrinkage=1


Tree=1
num_leaves=31
num_cat=0
split_feature=142 351 290 387 419 244 122 264 267 212 78 162 365 17 324 99 158 77 141 35 202 191 30 265 21 373 221 139 123 31
split_gain=4.95975 6.60823 6.06179 5.7772 5.46144 5.69952 5.19608 5.63679 4.42278 5.86441 4.42256 4.04647 4.01983 4.77156 4.58092 4.01667 4.01462 5.27905 4.86752 5.14303 3.69961 3.56719 3.51808 3.47868 3.4585 3.40432 3.73267 3.34822 3.3248 3.20424
threshold=-0.25494208352370401 1.9751196519309051 3.0962922334084371 1.3439431128586738 -0.19882602470970001 -0.56868168166947541 0.46775032109116582 0.64886554573567967 -0.49779816900818102 -0.46628323615466843 -0.32201973877742113 0.72842491917065366 0.16376488119414331 0.33388284337056962 -0.91514139293180341 0.93658765469388217 0.84049951139708134 0.33227873684512682 -0.60738922857371136 -0.011452003272487552 -0.65057423191115926 -0.095843800492899325 -0.063392574174551033 -0.31331252042954499 -0.73860392581986434 0.31657328130963042 0.25283767256651252 -0.63072659677515908 0.23998145961317738 0.36638466446925555
decision_type=2 2 2 2 2 2 2 2 2 2 2 2 2 2 2 2 2 2 2 2 2 2 2 2 2 2 2 2 2 2
left_child=3 2 12 4 8 21 7 11 9 -1 -11 28 14 15 -2 27 17 24 -19 22 -10 -6 -20 -22 -16 -15 -27 -14 -7 -13
right_child=1 -3 -4 -5 5 6 -8 -9 20 10 -12 29 13 25 16 -17 -18 18 19 -21 23 -23 -24 -25 -26 26 -28 -29 -30 -31
leaf_value=-0.0035837499195342671 0.0036890221187948352 0.0041273336031514667 -0.0033371820501569244 -0.003060386048902462 -0.0001531887376040686 -0.00013216853028035345 -0.0039477808379701209 0.0018723569031638221 0.0030604403904389318 0.0034264714994600843 -0.0011076148312565272 0.0034272365036763642 0.0032579919045685598 -0.0031439856123803866 0.0036518137728174527 -0.0014501704476522594 0.0023795355208687955 0.00087645124751089642 0.0022073857260472844 -0.0041259493355314727 -0.00068231168633996783 -0.0031128801131974264 -0.0022468530178364173 0.0017550599176245621 0.00063890427218757405 0.0018328154190757507 -0.0023475147428966702 0.00039604364429292869 -0.0025224079206798288 -0.0006989959201642446
leaf_weight=50 52 44 43 80 62 129 33 121 80 33 52 36 51 80 43 87 109 85 31 64 112 143 36 115 318 41 40 208 112 33
leaf_count=50 52 44 43 80 62 129 33 121 80 33 52 36 51 80 43 87 109 85 31 64 112 143 36 115 318 41 40 208 112 33
internal_value=-2.15566e-05 0.000395344 0.000257776 -0.000491885 -0.000297276 -0.000869065 -0.000240281 4.89641e-05 0.000556925 -0.000921458 0.000633509 -0.000654162 0.000391102 -0.000286471 0.000862863 0.000364303 0.000631266 0.00028529 -0.000933936 -0.00214172 0.00122497 -0.00225204 -0.000109227 0.00053519 0.0010297 -0.00170301 -0.000178127 0.000999397 -0.00127518 0.0014193
internal_weight=2523 1332 1288 1191 1111 669 464 431 442 135 85 310 1245 507 738 346 686 577 216 131 307 205 67 227 361 161 81 259 241 69
internal_count=2523 1332 1288 1191 1111 669 464 431 442 135 85 310 1245 507 738 346 686 577 216 131 307 205 67 227 361 161 81 259 241 69
is_linear=0
shrinkage=0.01


Tree=2
num_leaves=31
num_cat=0
split_feature=142 351 290 414 230 213 100 262 282 153 409 172 17 363 325 3 383 17 384 310 57 35 94 125 335 37 73 245 53 209
split_gain=4.89513 6.52996 5.99226 5.41232 6.14991 7.9144 4.77864 4.63724 4.47343 4.21402 4.0566 5.35704 6.16395 3.98079 4.8393 4.35437 5.55836 5.45418 6.0463 4.13339 3.79869 3.74266 3.6109 3.52912 3.4704 3.46254 3.4319 3.96367 3.57816 3.33431
threshold=-0.25494208352370401 1.9751196519309051 3.0962922334084371 -0.24851487176852621 0.34862863611558936 -0.70670833923601262 -0.35841255930616839 -0.76489216436914087 -1.6638707765922798 -1.3203835420022054 0.28441138125716681 0.29835716300499721 0.15339359153655355 -0.85694192860726981 -0.76530906886437988 0.59946580533769123 -0.87175694589112129 1.1645593393194915 0.43113540414210111 -0.045017792392593618 0.010203638317873681 1.8905631433796215 0.53322207618232131 -0.52766326212781223 -0.94179725347390619 -0.25275902884242724 -0.90447520577694196 0.50795523699267975 0.18752614851857158 -0.30706380534641564
decision_type=2 2 2 2 2 2 2 2 2 2 2 2 2 2 2 2 2 2 2 2 2 2 2 2 2 2 2 2 2 2
left_child=3 2 8 7 5 -5 22 -1 -2 20 11 -9 -13 14 26 17 -17 21 -19 29 23 24 -7 -10 -15 -8 -11 28 -28 -18
right_child=1 -3 -4 4 -6 6 25 10 9 13 -12 12 -14 15 -16 16 19 18 -20 -21 -22 -23 -24 -25 -26 -27 27 -29 -30 -31
leaf_value=-0.0015346452423814431 -0.0032266803808990076 0.004102210706990698 -0.0033186421090116102 -0.0024116326448433904 -0.0023871285876398301 0.0018480968161816956 -0.0035166619199884647 0.0031314289864385505 -0.00053769804809878513 0.0034273079122332014 -0.00051675988021479156 -0.0012582555991442253 0.003585130353835789 -0.0018245677100494505 0.0033932542650524627 0.002063265549865636 -0.0001135111679181908 0.0013984380146105061 -0.0042214045837698951 -9.2767827406257551e-05 0.00069726690785451367 0.0045075422073855547 -0.0015208806938214884 -0.0051800622170170155 0.001217320444279308 0 -0.0037710056785080171 0.0026759344659170463 0.00022825023531913757 -0.0042701861248210524
leaf_weight=101 31 44 43 137 229 188 39 118 39 31 133 88 35 38 107 53 31 32 40 107 53 31 35 31 438 88 34 32 53 64
leaf_count=101 31 44 43 137 229 188 39 118 39 31 133 88 35 38 107 53 31 32 40 107 53 31 35 31 438 88 34 32 53 64
internal_value=-2.17965e-05 0.000392365 0.000255591 -0.000489062 -0.00103872 -0.000387262 0.00040013 0.000329868 0.000388173 0.000489747 0.000852169 0.00162625 0.000115255 0.000690915 0.00177894 0.000346202 -0.000728445 0.000828976 -0.00168584 -0.00149848 -0.0012371 0.00120115 0.00128829 -0.00274983 0.000957402 -0.00111643 0.000565003 -0.000183642 -0.00132812 -0.00299565
internal_weight=2523 1332 1288 1191 716 487 350 475 1245 1214 374 241 123 1091 257 834 255 579 72 202 123 507 223 70 476 127 150 119 87 95
internal_count=2523 1332 1288 1191 716 487 350 475 1245 1214 374 241 123 1091 257 834 255 579 72 202 123 507 223 70 476 127 150 119 87 95
is_linear=0
shrinkage=0.01


Tree=3
num_leaves=31
num_cat=0
split_feature=210 351 352 267 166 306 224 150 148 352 109 116 174 363 406 209 162 349 356 77 69 85 287 385 34 265 99 372 311 303
split_gain=4.84492 7.44696 5.97117 5.82887 4.61776 4.34602 4.70557 4.4181 5.36078 4.11924 3.97809 3.97107 4.40468 3.92511 3.85967 3.77081 5.60591 4.46885 4.06961 3.73855 3.71197 3.55672 4.18332 3.4055 3.39448 3.37034 3.71162 3.51098 3.21769 3.14216
threshold=-0.57279785640955094 1.6741512595904207 -0.38118368771209815 0.38170712895438691 0.74939569246358351 1.7774652070042241 -0.62779892734529108 0.71677305363454835 -1.4276854659467595 -0.96469112352263686 0.14305511151687603 0.01178847215818595 0.96872603957238679 0.83903075335502764 -0.61119457883171369 -0.11183007681698266 -0.58021107268242611 0.41486320077790889 1.4772476205356728 -0.80600558970777503 -1.0617200505846065 0.90165050128194346 -0.031569192941753157 0.64732405173998508 -0.30701744957695704 -0.28368425181583407 -0.012906705311617658 0.063756062652799497 -0.031998782204872296 -0.10025999839681968
decision_type=2 2 2 2 2 2 2 2 2 2 2 2 2 2 2 2 2 2 2 2 2 2 2 2 2 2 2 2 2 2
left_child=1 4 11 -4 5 6 10 8 -8 -10 -1 14 19 20 -2 17 -17 -5 28 -13 -11 -6 -23 -14 -21 27 -27 -16 -18 -15
right_child=2 -3 3 15 21 -7 7 -9 9 13 -12 12 23 29 25 16 18 -19 -20 24 -22 22 -24 -25 -26 26 -28 -29 -30 -31
leaf_value=0.0035635808586508412 0.00091191554188586865 0.0040901073851975899 -0.0013312637154164106 -0.0018900852671459964 -0.0027928158217990725 0.0040260525949691473 -0.0022837789306667314 -0.0035874890792183577 -0.0020784054186134154 0.0046847044185481289 0 -0.00028902322233638223 -0.0030239355318701349 -0.0016621921144443067 -0.0035126209329766562 -0.0017532357976448778 0.001075809134229938 0.0022979127666621934 -0.00079419972543190746 0.0011447072170956648 0.0012520739919312249 -0.0020695271901786326 0.0030190640734508636 0.0008522559023861375 0.0039976983021044145 0.0019667067336278004 -0.0015131820200335686 0 0.0045687914629732925 0.0020244201027921271
leaf_weight=77 156 56 691 113 72 36 65 30 40 42 49 55 35 64 77 47 56 30 34 93 147 30 30 54 89 55 64 42 61 33
leaf_count=77 156 56 691 113 72 36 65 30 40 42 49 55 35 64 77 47 56 30 34 93 147 30 30 54 89 55 64 42 61 33
internal_value=-2.22192e-05 0.00063524 -0.000314791 -0.000803347 0.000347021 0.000735209 0.000495642 -3.00195e-06 0.000276157 0.000812631 0.00217482 0.000378833 0.00119483 0.00124596 -0.00028633 0.000253366 0.00115366 -0.000957425 0.00210222 0.00190822 0.00208213 -0.00131555 0.000409438 -0.000650102 0.00259531 -0.00109362 5.97708e-05 -0.00227026 0.00298513 -0.000341919
internal_weight=2523 771 1752 1032 715 583 547 421 391 326 126 720 326 286 394 341 198 143 151 237 189 132 60 89 182 238 119 119 117 97
internal_count=2523 771 1752 1032 715 583 547 421 391 326 126 720 326 286 394 341 198 143 151 237 189 132 60 89 182 238 119 119 117 97
is_linear=0
shrinkage=0.01


Tree=4
num_leaves=31
num_cat=0
split_feature=273 351 117 152 368 153 385 318 182 116 281 263 248 368 263 312 307 224 323 70 246 160 93 245 263 58 28 353 353 98
split_gain=4.52019 6.89189 6.68126 6.12593 7.04115 5.54341 5.67441 5.42565 4.54386 4.51199 4.45307 4.37096 4.66634 4.27217 3.99684 3.99333 3.97685 4.18575 3.88073 4.13435 4.27471 3.83493 5.16961 3.70312 3.66233 3.51147 4.68 3.8487 3.64926 3.57965
threshold=-0.62521811547357931 1.6741512595904207 0.054661506147767151 -0.2975463086643278 -0.49062427176500245 1.0089472198917604 0.64732405173998508 -0.82389926548862868 -0.21278345815832531 0.71975183325161651 0.73446490238822082 0.057898227232235609 0.82960771160520141 1.4982633546010218 -0.27624225849200185 0.28639810422864703 -0.15412713309403139 -0.72797414075465028 -1.0745360388693379 -0.85757966215227854 -0.55659725847677743 -0.7594117180251837 0.14882128709789863 0.50795523699267975 0.022417011957308587 -0.7532568280697447 -1.2350227836184982 -0.87655432870704708 0.10047556330973235 -0.33719805590255775
decision_type=2 2 2 2 2 2 2 2 2 2 2 2 2 2 2 2 2 2 2 2 2 2 2 2 2 2 2 2 2 2
left_child=1 3 7 25 8 14 -7 -2 -5 11 13 12 -6 18 16 -8 -4 -18 24 -20 -21 -16 -23 -22 -9 27 -27 -1 29 -28
right_child=2 -3 5 4 9 6 15 10 -10 -11 -12 -13 -14 -15 21 -17 17 -19 19 20 23 22 -24 -25 -26 26 28 -29 -30 -31
leaf_value=0.00044743452481059139 -0.0023066205106989381 0.0040582728832960126 0.0010243041918813855 -0.0014937096072689577 -0.0035238541793078185 -0.0026981773562458101 0.0020648092598142759 -0.0032411326847172212 0.0028532398509253797 -0.0039998548130615284 -0.0016739624719701981 0.0011068245120448609 0.0010252599387604278 -0.0035309542766026425 -0.00062440569554878911 -0.001349158678490382 0.0013607759785019991 -0.0028408430932791201 -0.00096901936982960802 -0.00070127528093485948 0.0013668652670236214 0.0006167824531516788 0.0032852891827182423 0.0051444409950636332 0.00066124292649328707 -0.0027169599969472202 0.0019182759711168127 0.0046534143049003825 0.00343260442764784 -0.0011061246973725085
leaf_weight=41 203 53 129 32 68 101 69 54 74 57 215 71 30 30 64 63 31 75 113 81 208 149 153 30 38 33 75 54 53 76
leaf_count=41 203 53 129 32 68 101 69 54 74 57 215 71 30 30 64 63 31 75 113 81 208 149 153 30 38 33 75 54 53 76
internal_value=-2.15756e-05 0.000646969 -0.000290182 0.000355804 -0.000592798 0.00036182 -0.000931941 -0.000854344 0.0014913 -0.00159673 -0.000459499 -0.000719668 -0.00208861 7.15196e-06 0.000873114 0.000402285 -0.000125129 -0.00156333 0.000231876 0.000638297 0.00122573 0.00152485 0.00199787 0.00190277 -0.00159632 0.00131725 0.000628156 0.0029364 0.00121467 0.00036882
internal_weight=2523 717 1806 664 332 834 233 972 106 226 769 169 98 554 601 132 235 106 524 432 319 366 302 238 92 332 237 95 204 151
internal_count=2523 717 1806 664 332 834 233 972 106 226 769 169 98 554 601 132 235 106 524 432 319 366 302 238 92 332 237 95 204 151
is_linear=0
shrinkage=0.01


Tree=5
num_leaves=31
num_cat=0
split_feature=126 165 309 158 410 116 126 141 51 152 34 285 300 120 123 84 204 107 270 413 289 410 157 305 121 121 15 157 26 182
split_gain=4.88345 7.01546 4.52774 4.57958 4.3418 5.56092 5.29535 4.68692 4.50268 6.64925 4.28249 4.11673 5.36901 5.22427 5.31173 4.42869 4.65882 4.63418 4.15992 3.7339 5.14238 3.94857 3.78008 3.50767 3.94063 3.50309 3.42687 3.39107 3.23786 3.22617
threshold=-0.72241439568664334 0.38052410998939062 1.4028505834487217 -0.55034028445266669 1.0407627212032591 0.01178847215818595 -0.22919965544337706 -0.55412530428434559 0.63086580129584735 0.41517352331970919 -0.8108536031996294 0.25929982261367052 -1.0487992700678237 -0.71164745924425044 0.16624264460606888 -0.42128714743199869 0.2471832260382833 -1.0434024315576065 -0.15432321059012163 -0.3128596956151723 -0.7432569528288081 -0.29119995254735781 -0.50278527646596671 -0.092773959880123977 0.27567986002526618 0.043632229302127977 1.1413075417377134 0.49415040972896546 -0.15227987434669391 0.70156774224133944
decision_type=2 2 2 2 2 2 2 2 2 2 2 2 2 2 2 2 2 2 2 2 2 2 2 2 2 2 2 2 2 2
left_child=1 2 3 28 5 11 29 10 9 23 -8 15 -13 18 -15 16 -2 -17 -14 21 -21 22 -19 24 -9 -11 -3 -22 -1 -7
right_child=4 26 -4 -5 -6 6 7 8 -10 25 -12 12 13 14 -16 17 -18 19 -20 20 27 -23 -24 -25 -26 -27 -28 -29 -30 -31
leaf_value=0.0012670804027261008 0.0036469168299487955 -4.7901551704853773e-05 0.0046554155665878413 0.001990539944334679 -0.0015182655048001118 -0.0012865245784872891 -0.00044691310742416896 -0.00075998359556164003 0.0023402138282449876 0.0044880125259514894 0.0033691638492979112 -0.0050299548302800987 0.002942184074005733 -0.00066217968704538276 -0.0041968685354460298 -0.002948908818335357 -0.00091390260255762507 0.0034731732462258903 -0.00093622325568474705 -0.0024715700027916365 0.00068898498235514516 -0.0017599348615142791 -0.00084112778657678678 -0.0020149946551494026 0.0033528531515912619 0.00018226907090392223 -0.0034280105356715232 0.0040194766255444844 -0.0020855134334415199 0.0018339609958900091
leaf_weight=52 56 158 42 222 239 192 35 81 96 38 123 37 46 119 69 64 33 32 61 32 101 168 46 133 30 41 36 46 58 37
leaf_count=52 56 158 42 222 239 192 35 81 96 38 123 37 46 119 69 64 33 32 61 32 101 168 46 133 30 41 36 46 58 37
internal_value=-2.10347e-05 0.000791372 0.00159311 0.00116519 -0.000260191 -8.04963e-05 0.000520341 0.00103367 0.00046054 -9.37032e-05 0.00249756 -0.000618123 -0.00150307 -0.00101299 -0.00201632 -9.77614e-05 0.00191796 -0.000481133 0.000708649 -8.57335e-05 0.00099374 -0.000893045 0.000908922 -0.000926063 0.000347015 0.00237479 -0.000729228 0.0018047 -0.000461683 -0.000749183
internal_weight=2523 568 374 332 1955 1716 806 577 419 323 158 910 332 295 188 578 89 489 107 425 179 246 78 244 111 79 194 147 110 229
internal_count=2523 568 374 332 1955 1716 806 577 419 323 158 910 332 295 188 578 89 489 107 425 179 246 78 244 111 79 194 147 110 229
is_linear=0
shrinkage=0.01


Tree=6
num_leaves=31
num_cat=0
split_feature=126 165 309 410 116 252 363 331 101 285 300 102 252 192 413 289 265 310 284 289 149 392 224 15 165 378 399 286 236 139
split_gain=4.81536 6.93107 4.49538 4.283 5.48818 5.26646 4.25878 4.11809 4.35443 4.07281 5.3057 4.56726 4.46375 4.6265 4.35587 4.65007 4.02249 3.99843 3.98471 3.68983 3.65407 3.5974 3.52781 4.41212 3.83791 3.4969 3.70229 3.46813 3.36934 3.33267
threshold=-0.72241439568664334 0.38052410998939062 1.4028505834487217 1.0407627212032591 0.01178847215818595 0.034127819845332273 1.1529789920160145 -0.52090342113099475 -0.7963311946168895 0.25929982261367052 -1.0487992700678237 0.2773287371850961 -0.53832765742339961 -1.0854654211295443 -0.3128596956151723 -0.7432569528288081 -0.51829162987572974 0.24071005872188345 -0.23460576475518569 0.69620476440822376 -0.6780312330416719 -0.61262735175118499 -0.70290427483552509 -0.66419992865976007 -0.49829677958779028 -1.3757950134654935 -1.0241866894622251 -0.38711422507353155 0.30603340103052362 0.08561497292383595
decision_type=2 2 2 2 2 2 2 2 2 2 2 2 2 2 2 2 2 2 2 2 2 2 2 2 2 2 2 2 2 2
left_child=1 2 22 4 9 6 16 8 -7 12 -11 20 -2 -14 17 -16 28 18 -15 29 -12 -10 -1 24 -24 -3 -27 -25 -6 -9
right_child=3 25 -4 -5 5 7 -8 19 21 10 11 -13 13 14 15 -17 -18 -19 -20 -21 -22 -23 23 27 -26 26 -28 -29 -30 -31
leaf_value=0.0031356773473089562 0.0021528229154462583 0.001098350488316657 0.004634254587898878 -0.0015076817395006156 0 -0.00011200654059648515 -0.0033644292351197114 -0.00087374249968483967 0.001219133239681438 -0.005000194329290818 -0.0018622122559962529 -0.0026125518308306402 -0.0029360237584019513 -0.0013134222318128238 -0.0022557637451047249 0.0018445233838918795 0.000847260873213046 -0.0030596537944287635 0.0015743373494404248 0.0026975051381514744 0.0010113663545149999 0.0047372226712185071 0.00019954514331542528 -0.0017134698846534458 0.0048869626751145822 -0.0035163417685156067 -6.5222200363466195e-05 0.00097569891260327582 -0.003895825658692047 0.0015514139953025042
leaf_weight=70 74 65 42 239 54 48 42 171 57 37 68 109 63 120 31 151 182 63 76 57 118 75 37 84 36 58 71 105 38 82
leaf_count=70 74 65 42 239 54 48 42 171 57 37 68 109 63 120 31 151 182 63 76 57 118 75 37 84 36 58 71 105 38 82
internal_value=-2.06544e-05 0.000786056 0.00158299 -0.000258152 -7.96583e-05 0.000517216 -0.00047641 0.0011675 0.00236865 -0.000613776 -0.00149399 -0.00100668 -9.61583e-05 -0.000443451 -6.44353e-05 0.00110202 0 -0.000905428 -0.000163834 0.000443315 -2.12282e-05 0.00329623 0.00115658 0.000589122 0.00264649 -0.000725267 -0.00168505 -0.000198736 -0.00169531 -6.21125e-05
internal_weight=2523 568 374 1955 1716 806 316 490 180 910 332 295 578 504 441 182 274 259 196 310 186 132 332 262 73 194 129 189 92 253
internal_count=2523 568 374 1955 1716 806 316 490 180 910 332 295 578 504 441 182 274 259 196 310 186 132 332 262 73 194 129 189 92 253
is_linear=0
shrinkage=0.01


Tree=7
num_leaves=31
num_cat=0
split_feature=210 351 352 267 136 369 314 69 37 366 400 97 209 162 308 356 245 412 406 2 102 309 204 326 172 311 397 205 271 351
split_gain=4.63589 7.29172 5.82439 5.68205 4.45115 6.14132 3.98733 6.09276 5.11111 4.75232 4.18236 3.95459 3.72264 5.53497 4.79172 3.98413 3.61059 3.60465 3.91036 3.47427 3.25831 3.19868 3.6069 4.05749 3.72385 3.1578 3.14055 4.62667 6.35267 4.48715
threshold=-0.57279785640955094 1.6741512595904207 -0.38118368771209815 0.38170712895438691 0.94917482928789898 -0.15913164334107843 -1.242373970789991 -1.0842142828158454 -0.67654139840756533 -0.99920647151130282 0.28764135143746711 -0.51740712921073839 -0.11183007681698266 -0.58021107268242611 0.30491233885804975 1.4772476205356728 -0.75395183820376965 1.6385368749912943 -1.2763218885798386 0.98192666858956923 -0.81179408617849658 1.5003543366526995 0.77571552539865085 -0.87930412489982201 -0.40577738476950359 -0.031998782204872296 -0.417686843491264 0.1560025966695201 -0.88600990764730814 0.14295842830531572
decision_type=2 2 2 2 2 2 2 2 2 2 2 2 2 2 2 2 2 2 2 2 2 2 2 2 2 2 2 2 2 2
left_child=1 4 11 26 6 -6 20 9 10 -8 -9 16 14 -14 -5 25 -2 18 -13 -18 -1 22 23 -10 -25 -15 27 29 -29 -4
right_child=2 -3 3 12 5 -7 7 8 21 -11 -12 17 13 15 -16 -17 19 -19 -20 -21 -22 -23 -24 24 -26 -27 -28 28 -30 -31
leaf_value=-0.0030123387823136998 -0.00033575642370630668 0.0040410898140920649 -0.0028119432333518156 0.00020026601204485857 0.0012932181877620291 -0.0043311321809887888 0 0.0035747902825861784 -0.0033424915274372323 0.0046309191224408212 6.238879389403497e-05 0.0033677421159604014 -0.0017397088051906654 0.0010714676165913136 -0.0037100923180431972 -0.00077377810311089789 0.0028851006710439498 -0.0030258975126780567 -0.0001582281122179587 -0.00065479409852714249 0.00092116037054973496 0.0025540187116712331 -0.0027499770517978406 0.0029604055510556444 -0.00024060032397085849 0.0045338194956956804 -0.0019024127876841957 -0.0022266970523854806 0.0024806128065744094 0.00041627263170940915
leaf_weight=49 77 56 108 101 31 43 33 75 30 67 66 32 47 56 42 34 139 38 403 31 32 33 61 45 150 61 392 40 85 66
leaf_count=49 77 56 108 101 31 43 33 75 30 67 66 32 47 56 42 34 139 38 403 31 32 33 61 45 150 61 392 40 85 66
internal_value=-2.05801e-05 0.0006225 -0.000306817 -0.00078937 0.000337252 -0.00193717 0.000612806 0.000918761 0.000413964 0.00313816 0.00198952 0.000378187 0.000253811 0.00114837 -0.00094908 0.00209098 0.00140027 -0.000148663 0.000103938 0.00221041 -0.00141337 -0.000274922 -0.000634168 -1.93477e-05 0.000495268 0.0029645 -0.00131063 -0.000510682 0.000923559 -0.00156822
internal_weight=2523 771 1752 1032 715 74 641 560 460 100 141 720 341 198 143 151 247 473 435 170 81 319 286 225 195 117 691 299 125 174
internal_count=2523 771 1752 1032 715 74 641 560 460 100 141 720 341 198 143 151 247 473 435 170 81 319 286 225 195 117 691 299 125 174
is_linear=0
shrinkage=0.01


end of trees

feature_importances:
Column_351=7
Column_116=4
Column_142=4
Column_410=4
Column_17=3
Column_126=3
Column_162=3
Column_165=3
Column_209=3
Column_224=3
Column_245=3
Column_263=3
Column_265=3
Column_267=3
Column_289=3
Column_309=3
Column_352=3
Column_363=3
Column_15=2
Column_34=2
Column_35=2
Column_37=2
Column_51=2
Column_69=2
Column_77=2
Column_78=2
Column_99=2
Column_100=2
Column_102=2
Column_121=2
Column_123=2
Column_136=2
Column_139=2
Column_141=2
Column_152=2
Column_153=2
Column_157=2
Column_158=2
Column_172=2
Column_182=2
Column_204=2
Column_210=2
Column_230=2
Column_252=2
Column_285=2
Column_290=2
Column_300=2
Column_303=2
Column_310=2
Column_311=2
Column_353=2
Column_356=2
Column_368=2
Column_385=2
Column_387=2
Column_406=2
Column_412=2
Column_413=2
Column_2=1
Column_3=1
Column_21=1
Column_26=1
Column_28=1
Column_29=1
Column_30=1
Column_31=1
Column_43=1
Column_50=1
Column_53=1
Column_57=1
Column_58=1
Column_70=1
Column_73=1
Column_74=1
Column_84=1
Column_85=1
Column_93=1
Column_94=1
Column_97=1
Column_98=1
Column_101=1
Column_107=1
Column_109=1
Column_117=1
Column_120=1
Column_122=1
Column_125=1
Column_135=1
Column_140=1
Column_148=1
Column_149=1
Column_150=1
Column_160=1
Column_161=1
Column_166=1
Column_170=1
Column_174=1
Column_181=1
Column_191=1
Column_192=1
Column_196=1
Column_202=1
Column_205=1
Column_208=1
Column_212=1
Column_213=1
Column_221=1
Column_226=1
Column_236=1
Column_244=1
Column_246=1
Column_248=1
Column_262=1
Column_264=1
Column_270=1
Column_271=1
Column_273=1
Column_281=1
Column_282=1
Column_284=1
Column_286=1
Column_287=1
Column_305=1
Column_306=1
Column_307=1
Column_308=1
Column_312=1
Column_314=1
Column_318=1
Column_323=1
Column_324=1
Column_325=1
Column_326=1
Column_331=1
Column_333=1
Column_335=1
Column_349=1
Column_365=1
Column_366=1
Column_369=1
Column_372=1
Column_373=1
Column_378=1
Column_379=1
Column_383=1
Column_384=1
Column_388=1
Column_392=1
Column_394=1
Column_397=1
Column_399=1
Column_400=1
Column_405=1
Column_407=1
Column_409=1
Column_414=1
Column_419=1

parameters:
[boosting: gbdt]
[objective: huber]
[metric: huber]
[tree_learner: serial]
[device_type: cpu]
[data_sample_strategy: bagging]
[data: ]
[valid: ]
[num_iterations: 500]
[learning_rate: 0.01]
[num_leaves: 31]
[num_threads: 16]
[seed: 42]
[deterministic: 0]
[force_col_wise: 0]
[force_row_wise: 0]
[histogram_pool_size: -1]
[max_depth: -1]
[min_data_in_leaf: 30]
[min_sum_hessian_in_leaf: 0.001]
[bagging_fraction: 0.8]
[pos_bagging_fraction: 1]
[neg_bagging_fraction: 1]
[bagging_freq: 0]
[bagging_seed: 400]
[bagging_by_query: 0]
[feature_fraction: 0.7]
[feature_fraction_bynode: 1]
[feature_fraction_seed: 30056]
[extra_trees: 0]
[extra_seed: 12879]
[early_stopping_round: 0]
[early_stopping_min_delta: 0]
[first_metric_only: 0]
[max_delta_step: 0]
[lambda_l1: 0.5]
[lambda_l2: 2]
[linear_lambda: 0]
[min_gain_to_split: 0]
[drop_rate: 0.1]
[max_drop: 50]
[skip_drop: 0.5]
[xgboost_dart_mode: 0]
[uniform_drop: 0]
[drop_seed: 17869]
[top_rate: 0.2]
[other_rate: 0.1]
[min_data_per_group: 100]
[max_cat_threshold: 32]
[cat_l2: 10]
[cat_smooth: 10]
[max_cat_to_onehot: 4]
[top_k: 20]
[monotone_constraints: ]
[monotone_constraints_method: basic]
[monotone_penalty: 0]
[feature_contri: ]
[forcedsplits_filename: ]
[refit_decay_rate: 0.9]
[cegb_tradeoff: 1]
[cegb_penalty_split: 0]
[cegb_penalty_feature_lazy: ]
[cegb_penalty_feature_coupled: ]
[path_smooth: 0]
[interaction_constraints: ]
[verbosity: -1]
[saved_feature_importance_type: 0]
[use_quantized_grad: 0]
[num_grad_quant_bins: 4]
[quant_train_renew_leaf: 0]
[stochastic_rounding: 1]
[linear_tree: 0]
[max_bin: 255]
[max_bin_by_feature: ]
[min_data_in_bin: 3]
[bin_construct_sample_cnt: 200000]
[data_random_seed: 175]
[is_enable_sparse: 1]
[enable_bundle: 1]
[use_missing: 1]
[zero_as_missing: 0]
[feature_pre_filter: 1]
[pre_partition: 0]
[two_round: 0]
[header: 0]
[label_column: ]
[weight_column: ]
[group_column: ]
[ignore_column: ]
[categorical_feature: ]
[forcedbins_filename: ]
[precise_float_parser: 0]
[parser_config_file: ]
[objective_seed: 16083]
[num_class: 1]
[is_unbalance: 0]
[scale_pos_weight: 1]
[sigmoid: 1]
[boost_from_average: 1]
[reg_sqrt: 0]
[alpha: 0.9]
[fair_c: 1]
[poisson_max_delta_step: 0.7]
[tweedie_variance_power: 1.5]
[lambdarank_truncation_level: 30]
[lambdarank_norm: 1]
[label_gain: ]
[lambdarank_position_bias_regularization: 0]
[eval_at: ]
[multi_error_top_k: 1]
[auc_mu_weights: ]
[num_machines: 1]
[local_listen_port: 12400]
[time_out: 120]
[machine_list_filename: ]
[machines: ]
[gpu_platform_id: -1]
[gpu_device_id: -1]
[gpu_use_dp: 0]
[num_gpu: 1]

end of parameters

pandas_categorical:null
