tree
version=v4
num_class=1
num_tree_per_iteration=1
label_index=0
max_feature_idx=419
objective=huber
feature_names=Column_0 Column_1 Column_2 Column_3 Column_4 Column_5 Column_6 Column_7 Column_8 Column_9 Column_10 Column_11 Column_12 Column_13 Column_14 Column_15 Column_16 Column_17 Column_18 Column_19 Column_20 Column_21 Column_22 Column_23 Column_24 Column_25 Column_26 Column_27 Column_28 Column_29 Column_30 Column_31 Column_32 Column_33 Column_34 Column_35 Column_36 Column_37 Column_38 Column_39 Column_40 Column_41 Column_42 Column_43 Column_44 Column_45 Column_46 Column_47 Column_48 Column_49 Column_50 Column_51 Column_52 Column_53 Column_54 Column_55 Column_56 Column_57 Column_58 Column_59 Column_60 Column_61 Column_62 Column_63 Column_64 Column_65 Column_66 Column_67 Column_68 Column_69 Column_70 Column_71 Column_72 Column_73 Column_74 Column_75 Column_76 Column_77 Column_78 Column_79 Column_80 Column_81 Column_82 Column_83 Column_84 Column_85 Column_86 Column_87 Column_88 Column_89 Column_90 Column_91 Column_92 Column_93 Column_94 Column_95 Column_96 Column_97 Column_98 Column_99 Column_100 Column_101 Column_102 Column_103 Column_104 Column_105 Column_106 Column_107 Column_108 Column_109 Column_110 Column_111 Column_112 Column_113 Column_114 Column_115 Column_116 Column_117 Column_118 Column_119 Column_120 Column_121 Column_122 Column_123 Column_124 Column_125 Column_126 Column_127 Column_128 Column_129 Column_130 Column_131 Column_132 Column_133 Column_134 Column_135 Column_136 Column_137 Column_138 Column_139 Column_140 Column_141 Column_142 Column_143 Column_144 Column_145 Column_146 Column_147 Column_148 Column_149 Column_150 Column_151 Column_152 Column_153 Column_154 Column_155 Column_156 Column_157 Column_158 Column_159 Column_160 Column_161 Column_162 Column_163 Column_164 Column_165 Column_166 Column_167 Column_168 Column_169 Column_170 Column_171 Column_172 Column_173 Column_174 Column_175 Column_176 Column_177 Column_178 Column_179 Column_180 Column_181 Column_182 Column_183 Column_184 Column_185 Column_186 Column_187 Column_188 Column_189 Column_190 Column_191 Column_192 Column_193 Column_194 Column_195 Column_196 Column_197 Column_198 Column_199 Column_200 Column_201 Column_202 Column_203 Column_204 Column_205 Column_206 Column_207 Column_208 Column_209 Column_210 Column_211 Column_212 Column_213 Column_214 Column_215 Column_216 Column_217 Column_218 Column_219 Column_220 Column_221 Column_222 Column_223 Column_224 Column_225 Column_226 Column_227 Column_228 Column_229 Column_230 Column_231 Column_232 Column_233 Column_234 Column_235 Column_236 Column_237 Column_238 Column_239 Column_240 Column_241 Column_242 Column_243 Column_244 Column_245 Column_246 Column_247 Column_248 Column_249 Column_250 Column_251 Column_252 Column_253 Column_254 Column_255 Column_256 Column_257 Column_258 Column_259 Column_260 Column_261 Column_262 Column_263 Column_264 Column_265 Column_266 Column_267 Column_268 Column_269 Column_270 Column_271 Column_272 Column_273 Column_274 Column_275 Column_276 Column_277 Column_278 Column_279 Column_280 Column_281 Column_282 Column_283 Column_284 Column_285 Column_286 Column_287 Column_288 Column_289 Column_290 Column_291 Column_292 Column_293 Column_294 Column_295 Column_296 Column_297 Column_298 Column_299 Column_300 Column_301 Column_302 Column_303 Column_304 Column_305 Column_306 Column_307 Column_308 Column_309 Column_310 Column_311 Column_312 Column_313 Column_314 Column_315 Column_316 Column_317 Column_318 Column_319 Column_320 Column_321 Column_322 Column_323 Column_324 Column_325 Column_326 Column_327 Column_328 Column_329 Column_330 Column_331 Column_332 Column_333 Column_334 Column_335 Column_336 Column_337 Column_338 Column_339 Column_340 Column_341 Column_342 Column_343 Column_344 Column_345 Column_346 Column_347 Column_348 Column_349 Column_350 Column_351 Column_352 Column_353 Column_354 Column_355 Column_356 Column_357 Column_358 Column_359 Column_360 Column_361 Column_362 Column_363 Column_364 Column_365 Column_366 Column_367 Column_368 Column_369 Column_370 Column_371 Column_372 Column_373 Column_374 Column_375 Column_376 Column_377 Column_378 Column_379 Column_380 Column_381 Column_382 Column_383 Column_384 Column_385 Column_386 Column_387 Column_388 Column_389 Column_390 Column_391 Column_392 Column_393 Column_394 Column_395 Column_396 Column_397 Column_398 Column_399 Column_400 Column_401 Column_402 Column_403 Column_404 Column_405 Column_406 Column_407 Column_408 Column_409 Column_410 Column_411 Column_412 Column_413 Column_414 Column_415 Column_416 Column_417 Column_418 Column_419
feature_infos=[-2.0766237518719564:4.0734050708774925] [-2.1808860573201505:2.5339015876005293] [-4.5019134217528505:4.0778449733398077] [-4.0981366658779823:4.1166970513586865] [-4.2422281830241859:4.39602497299507] [-1.2277082979817626:4.0705359712772857] [-2.0247178443523843:2.1233855803578736] [-1.582384723099324:3.1291585872266596] [-1.787002240481842:3.0917913396932541] [-1.9042919694482714:2.3803783092778521] [-3.0135914848796754:3.6958352976378035] [-2.5996281587582053:2.6605413188385807] [-2.6474982239732463:2.6156773968299083] [-1.2184772005033195:4.5140966725143343] [-1.3633684976966323:3.8033235842798994] [-2.7233069278594222:2.7996049511503656] [-1.462866779704872:3.4460512198003519] [-1.5465126736714867:4.241673124261494] [-2.6161602042886458:2.8780287659910506] [-2.4282845479412853:2.9392121737490924] [-2.1663663089548404:3.1238237287625092] [-2.0731932312044763:4.0629389800984601] [-2.1813687176379193:2.5360732872122247] [-4.5016848968420522:4.0775665948332946] [-4.0949531249415898:4.1126155897393533] [-4.2368624329451983:4.3927894616081451] [-1.2273186557390354:4.0714251051086965] [-2.023608259924512:2.1240493576101813] [-1.5841532275881309:3.1355559876249779] [-1.7860881851604837:3.0924227447521342] [-1.9063210478916446:2.3809426010563386] [-3.0114351001416613:3.6950019659335505] [-2.5983241739352705:2.6605978623759801] [-2.646176416262298:2.6157463690064362] [-1.2181469545504677:4.513966564549861] [-1.3635739560047928:3.800777798659543] [-2.7228776193430657:2.8001986441524336] [-1.4627105671916449:3.4460611502839833] [-1.5465286199590373:4.2413409510465012] [-2.6151783778570548:2.8787368105503592] [-2.4277754183069242:2.9396585499892844] [-2.1671976921291898:3.1269473703816493] [-2.0703519549889955:4.0540635366705278] [-2.1816837166987559:2.538768640150296] [-4.5026427530872937:4.0787874417063357] [-4.0928354214100287:4.109862449952379] [-4.2279505638290038:4.3865200934122246] [-1.2270464191968067:4.072178244554892] [-2.021545333459978:2.1244206908389196] [-1.5860229356908959:3.1424700663983964] [-1.7850932929954859:3.0929526628111308] [-1.9083134341997845:2.3812388257730879] [-3.0073856323247217:3.6926140098916682] [-2.5962753974935469:2.6606349852695086] [-2.6440753191103026:2.6157803582923149] [-1.2177913389944779:4.5154223785343977] [-1.3637444592344563:3.800172085331472] [-2.722129825458433:2.8012064311196423] [-1.4626640075290473:3.4460845863014371] [-1.5465338186586721:4.2407848280252995] [-2.6131302521427395:2.8790571268698986] [-2.4269999243635669:2.9404333970793273] [-2.1678385434316456:3.1303204656349464] [-2.068102460353654:4.0467033576877913] [-2.1813819505280851:2.541218271666962] [-4.5043773272339012:4.0811979301710668] [-4.0918761886248287:4.1085882650233483] [-4.2138294156146969:4.3755094322794124] [-1.2269566342415494:4.072600127712632] [-2.0192067040897563:2.1245737320262408] [-1.58792478293339:3.1496601391739003] [-1.7839957717282986:3.092897714174724] [-1.9101338081901664:2.3808830314217264] [-3.0014181620120395:3.6882519498063417] [-2.593610490947369:2.6595181901313962] [-2.6413202436119287:2.6146643324822638] [-1.2183688228157152:4.5144809595349384] [-1.364193226597205:3.7978482554306989] [-2.7177271937255472:2.7988539689308416] [-1.4628500845718013:3.4461829628426637] [-1.5465103761818604:4.2398995782009683] [-2.6085032384030931:2.8765702315225816] [-2.4243888031943639:2.9400075888527923] [-2.1680184722911982:3.1332984637249841] [-2.0653348924511983:4.0380612962540479] [-2.1819955495925738:2.5441978635919362] [-4.5062957028172717:4.0840200914967202] [-4.0918660693281774:4.1085744818860119] [-4.2002901926706508:4.3649924749600268] [-1.2269096908990993:4.0729103119237084] [-2.0180570776948752:2.1253731459606953] [-1.589861062966742:3.1569935204886233] [-1.7828769446638375:3.0927380296181943] [-1.9120951069720935:2.3811425774217212] [-2.9988568959698521:3.6870541993980104] [-2.5926105113125875:2.6572229713155568] [-2.6403125494613118:2.6124378469254466] [-1.2181874985391623:4.5143595329889248] [-1.3643923055253973:3.7945325477369356] [-2.7158043958210851:2.7953911898818395] [-1.463327875735366:3.444775528849175] [-1.5464760234250152:4.2384276714290419] [-2.6056941038493999:2.8755071487425838] [-2.4238521504569155:2.9415940467733819] [-2.1679719945442137:3.1352551444219388] [-2.0622724432401704:4.0287156412463592] [-2.1829553339554684:2.5473503574319443] [-4.5082747833760823:4.087013717263992] [-4.0925473402021231:4.1095268642052236] [-4.1896562908901958:4.3570695696666411] [-1.2268919796898548:4.0729836567256266] [-2.0174913298738062:2.1264557604789491] [-1.5918036845309327:3.1644424246502791] [-1.7820417985655455:3.0930694306883799] [-1.914092828512058:2.3815022142898719] [-2.9979077012243738:3.68707164499724] [-2.592465573721118:2.6564823727896236] [-2.6401574286739922:2.6117076179382068] [-1.2180678149823454:4.5143246038159122] [-1.3648235320901239:3.7943562684215371] [-2.7152836590278371:2.7942254811991374] [-1.4642120465695121:3.4431721326754632] [-1.5465923167967084:4.2382156026041518] [-2.6049319339888908:2.8762059076866886] [-2.4231534567268063:2.9425010589787228] [-2.1677762833680236:3.1380160719994135] [-2.0595081403263324:4.0201337276545299] [-2.1837966407212415:2.5506266439740304] [-4.5102196967194512:4.0901316802665546] [-4.0937433394905014:4.1112486817173695] [-4.1802077919700533:4.3501412292911281] [-1.2269036891175504:4.0729334720708037] [-2.0166831541472083:2.1274031306634482] [-1.593641448767152:3.1716297501361574] [-1.7810657078317262:3.0934170661036369] [-1.9161154058026264:2.3818551072202179] [-2.9969463560876863:3.6870157362838345] [-2.5916915614602489:2.6564947120827096] [-2.6393764715466457:2.6117314006637664] [-1.2183093854400249:4.5189018599547035] [-1.3648030411543708:3.7943740383887024] [-2.7145509522404652:2.7942688557406128] [-1.4651095972842905:3.4417210194316108] [-1.5468202709585965:4.237992818520957] [-2.6042845814077928:2.8767605558502249] [-2.4220259778966775:2.9434264872590585] [-2.1671108629359668:3.1396070301951475] [-2.0568254740809886:4.0118396746982521] [-2.1848610263632686:2.554374146921742] [-4.5121509344667956:4.0933979073202114] [-4.0953166611492984:4.1135878443542886] [-4.1719251820432515:4.3442486956025634] [-1.22698303456623:4.0726719118050214] [-2.016060395033584:2.12868882678521] [-1.5953491342093624:3.1783841094220127] [-1.7800388520488133:3.0937448102557017] [-1.9180460556512537:2.3818317898186203] [-2.9962857922134241:3.687221378708756] [-2.5915236206919428:2.6570137824069122] [-2.6392177123120311:2.6122516723778344] [-1.2178854913199864:4.5188691413840791] [-1.3649590297421517:3.7944928576303179] [-2.7145940239276336:2.7941497661107433] [-1.4664061794277361:3.4414005532571381] [-1.5471505548969768:4.2378099016507162] [-2.6041608441865156:2.8772279498840558] [-2.4209178084759149:2.9444801430462717] [-2.166845892379099:3.1422159900216227] [-2.0539486869959265:4.0032296358740211] [-2.1865106570629145:2.5587735908763629] [-4.514350585190936:4.0970407474096762] [-4.0971831865416561:4.1164424494565601] [-4.1658864985625295:4.3404791266560734] [-1.2269968901706823:4.0726198648368843] [-2.0160292583691759:2.130600898907498] [-1.5972010722191792:3.1854885785223273] [-1.7796791175570641:3.0958471651890909] [-1.9202074360611465:2.381883824487701] [-2.9957367553938283:3.6860315406092741] [-2.5919574607706579:2.6580036288611764] [-2.6396574664605934:2.6132143547080893] [-1.2182562278369442:4.5185730389861707] [-1.3646993842779429:3.7948977681751699] [-2.7142250278719522:2.7947741617456212] [-1.4670867429777965:3.4415282950292734] [-1.547807635370777:4.2379460905988742] [-2.6042437900103708:2.8774151111691451] [-2.4199066855762914:2.9454067187796213] [-2.1661788162625153:3.1439690794819941] [-2.0510139833403773:3.9944025545299318] [-2.1875921502049951:2.5621070777326644] [-4.5165928833210414:4.1007549791585109] [-4.0992442404075105:4.119676804378364] [-4.1616687344770815:4.3381770067731846] [-1.2269731231355878:4.07271553241518] [-2.0158106720569267:2.1318502892668802] [-1.5991883205729167:3.1930304492369039] [-1.7796564208639265:3.0975462226005783] [-1.9224775829428551:2.3825133424811229] [-2.9949568929616208:3.6841383388748756] [-2.5924548594122521:2.6578495531476158] [-2.6401545327047096:2.6130515454564356] [-1.218792373664987:4.5185483143256358] [-1.3645620479309355:3.7922056860192828] [-2.7120702735130182:2.7937177242598938] [-1.4670926776343325:3.4415306096034479] [-1.5484452557940405:4.2380761170881005] [-2.6043166673604885:2.8778640375568401] [-2.4188190603537412:2.9459144257867016] [-2.1654927927388021:3.1450654987033393] [-2.04853269063516:3.9865660168026582] [-2.1873783463505507:2.563621386034741] [-4.5183818565942033:4.1041092269760506] [-4.1013710200633406:4.1231365287936868] [-4.1574622807627364:4.3355925589979067] [-1.2269708124033758:4.072726580022568] [-2.0149630668301683:2.1323432949991528] [-1.6010614835435126:3.2002476021496968] [-1.7790525471897529:3.0984505470459207] [-1.923992625405778:2.3823226277617988] [-2.9956322400471294:3.6835227239665209] [-2.5920565810479306:2.657627753184101] [-2.6397406300652624:2.6128290059487496] [-1.2187653327735799:4.5185180145703789] [-1.3645453066540616:3.7918253322705375] [-2.7113286976322053:2.7933252944716487] [-1.4669365146452149:3.4416274251285284] [-1.5489022988053569:4.2380895212372041] [-2.6037251316572947:2.8779230617863929] [-2.417690625200533:2.9462234300489971] [-2.1647334512291758:3.1456284630949267] [-2.0452877057268304:3.9769282183953689] [-2.1879256453331224:2.5654932946249289] [-4.5202306314533844:4.1073864489234913] [-4.1035016577199075:4.1266981440723338] [-4.1555837450340753:4.3347302264292509] [-1.2269574905710643:4.0727885020153032] [-2.0149227560943448:2.1330915051220574] [-1.6027647112009993:3.207051134679777] [-1.7785419848055666:3.0991881905935945] [-1.9253272124492238:2.3821635244276975] [-2.9949534994296698:3.6806397189414914] [-2.5898975460218931:2.6540438926963201] [-2.6376125104707109:2.6094089571332733] [-1.2187719617769133:4.5185113283304181] [-1.3645490132313285:3.7910735045429815] [-2.7103193974591386:2.7916193926067496] [-1.4669811509984771:3.4406900144773522] [-1.5494104827061073:4.2376305548530855] [-2.6036564292005377:2.8775703848678837] [-2.4176782070143346:2.9469758508419388] [-2.1644857104041102:3.1467037308101924] [-2.0418521480220702:3.9667670708694094] [-2.1882372575270863:2.5666587884611389] [-4.5220074100884116:4.110398859349722] [-4.10558726950691:4.1302480062377871] [-4.1551396363449715:4.3346266274402083] [-1.2269521863622259:4.0728102575701746] [-2.0149040632810613:2.1334521180989516] [-1.6042615483564278:3.2133282784661223] [-1.7782301900294581:3.0995030481955164] [-1.9266514923203768:2.3821387326979191] [-2.9940724781181327:3.6772664061972433] [-2.5902625692031078:2.6535439130430754] [-2.6379698666615847:2.6089040931147927] [-1.2186914158540085:4.5186107158840647] [-1.3645800284715277:3.7909874312224208] [-2.7106491922547398:2.7912351230916106] [-1.4670358700733104:3.4398851711417651] [-1.549898254572996:4.2371367958788619] [-2.6034757344147073:2.8763599290159099] [-2.4176378253403583:2.9466230864297143] [-2.1643884249181804:3.1476937511814143] [-2.0389776243966939:3.9578600830666906] [-2.1881048459210231:2.5672500523086024] [-4.5233680315011568:4.1129309640456482] [-4.1075421356509079:4.1336701910378153] [-4.1551060578015333:4.3346133512259204] [-1.2269532649985924:4.0728074175203197] [-2.0146621005422638:2.1336520402459001] [-1.6053361130668631:3.2182428193922932] [-1.7779777326521478:3.0995782213279131] [-1.9269017629943159:2.381635667387819] [-2.994610508493079:3.6760726280866174] [-2.5893405799019589:2.65303251930577] [-2.637011489533807:2.6083907569402425] [-1.2179809549765115:4.5186689338070698] [-1.3651328046808084:3.7944488702564252] [-2.7096807373460323:2.7906002215045844] [-1.4672003129010749:3.4378025982805416] [-1.5503011784791143:4.236672169062107] [-2.6045742272007848:2.8765559729837546] [-2.4176352497547033:2.9458952941008532] [-2.1636391681736078:3.1482266641493917] [-2.036068614107668:3.9488326030505601] [-2.1879804312932776:2.567660458940177] [-4.5243691757409348:4.1150099779850047] [-4.1093041447539109:4.1368728863829718] [-4.1556432783272692:4.3348640255208011] [-1.2270358104957551:4.0726862920276474] [-2.0145489389802607:2.1337309191512408] [-1.6060285261092346:3.2220227316928787] [-1.777786052058197:3.0996456341226701] [-1.9271572662046597:2.3811295585244614] [-2.9951436142151944:3.6748796409433409] [-2.5895596508011649:2.6528786256014265] [-2.6372278676779972:2.6082324779099149] [-1.2186911530669442:4.5192490677814305] [-1.3651777109833614:3.7944298400971732] [-2.7099117904224195:2.7902669020645794] [-1.4673646882128539:3.4357278510561566] [-1.5507537439126542:4.2363650305573257] [-2.6054723132327142:2.8766583332591051] [-2.4177858993805823:2.9456695510042321] [-2.1632776503022479:3.1491248574454169] [-2.0324480785689856:3.9381114045426759] [-2.1880019818781085:2.5678023664471965] [-4.525263179082871:4.1167238307328216] [-4.1108806000891205:4.1398079341907996] [-4.1567749155663893:4.3351067258177443] [-1.2271693074204897:4.072557855597231] [-2.0145840562673283:2.1333107611126669] [-1.6063716853139862:3.2248517376323931] [-1.7779208424924311:3.09934344083082] [-1.9272847090681391:2.3810815854154299] [-2.9941873135087906:3.6712909997505596] [-2.5880067650838741:2.6498478655837157] [-2.635679832933834:2.6053127841383659] [-1.2156803348689382:4.4992477660254435] [-1.3651305252089234:3.7909512861446562] [-2.7082253577182915:2.7868780278686964] [-1.4676443669382546:3.4338134569207011] [-1.5513429092557993:4.2357799127155458] [-2.604815277716992:2.8742495100695229] [-2.4178861894637227:2.9450865041013792] [-2.1630956199481917:3.1496938702290342] [-2.0287744365295954:3.9270537349583536] [-2.1881351603999106:2.567268476053814] [-4.5258122644103063:4.1177842890029464] [-4.1122268332636986:4.1423695847077191] [-4.158549921075176:4.3353339205884218] [-1.2273818686983193:4.0724693111603329] [-2.0152261607946649:2.1325971580678935] [-1.6064797958433248:3.2269908828016085] [-1.7782904339844805:3.0986215255159197] [-1.9269889962556437:2.3813600097801224] [-2.9938379206932524:3.6680967093792707] [-2.5901033662377957:2.6504374268643334] [-2.6378319667847805:2.6058930922155996] [-1.2148507191763027:4.4984053958377244] [-1.3651725857662564:3.7934959813357896] [-2.710638871519957:2.787789190039256] [-1.4680062861766805:3.4330862978615988] [-1.5517379788643755:4.2350463696067084] [-2.6063121571767143:2.8741675356600767] [-2.4182471246868835:2.9439882501810684] [-2.1628847646769844:3.1499953342812561] [-2.0247653347048189:3.9153112852685537] [-2.1880571752207936:2.5666113346517743] [-4.5261130778580059:4.1183196865577125] [-4.1133594004956482:4.1445349363831134] [-4.1598349510268822:4.3346057492578378] [-1.2277328885608541:4.0724415573648685] [-2.0153512614118152:2.131328022146239] [-1.6064165469417586:3.2285820624901751] [-1.7787290584984243:3.0978449738046416] [-1.9264101109696368:2.3815536869883882] [-2.9925288498665368:3.6638858693685754] [-2.5901067445310821:2.6504460908644902] [-2.6378354223501654:2.6059015536105616] [-1.2148890846714198:4.4983965604605798] [-1.3653262007735545:3.7930921218741425] [-2.7099107114656458:2.7861553997897386] [-1.4680902467466668:3.4324030473587537] [-1.5520958680890113:4.2342133515823335] [-2.6068776264026488:2.8734412600774886] [-2.418219237544347:2.9421582907240205] [-2.1627849822653662:3.1503594647617352] [-2.0214344478428066:3.9050515850792116] [-2.1882705575167045:2.5663865675598059] [-4.5262037879884618:4.1184988438243773] [-4.1142497253243882:4.1462738228914686] [-4.1619766053793601:4.3347590339309559] [-1.2280232010536769:4.0724543103391788] [-2.0164911911846759:2.1310595337317526] [-1.6062709355046847:3.22978210369173] [-1.7792755383621521:3.0969398514553754] [-1.925551544840209:2.3818372429270895] [-2.9931024517348503:3.6625679613945836] [-2.5893086330541109:2.6499733476673302] [-2.6370023674790897:2.6054244598324821] [-1.2151003670310885:4.4986203733182153] [-1.3655458565739622:3.7927534278246404] [-2.7085161046501205:2.7854041016201627] [-1.4681451035478503:3.4316595769502309] [-1.5525325861615338:4.2331824958357069] [-2.6075746669138846:2.8728218448371026] [-2.4197036643260748:2.9421734092967831] [-2.1626130688004377:3.1503645264472611] [-2.0181167795447821:3.8947746935490635] [-2.1885993745727355:2.5661367916772448] [-4.5261579560389524:4.1183944550867668] [-4.1148964171104225:4.1475850371741076] [-4.1647787277410773:4.3356052652299821] [-1.2282115020900815:4.0724724559625063] [-2.0177985053628191:2.1307622528216417] [-1.6060825437715387:3.2306099410727458] [-1.7798857896425808:3.0964255484401271] [-1.9247242809028031:2.382032884523746] [-2.9938221875330711:3.6615539419238168] [-2.5895878066843858:2.6498740746607403] [-2.6372805695504473:2.6053198076920139] [-1.2152233873995364:4.4985018066873552] [-1.3654452665451868:3.7939899028544501] [-2.7083907208682048:2.7854913422089669] [-1.4681995074036618:3.4308991566078655] [-1.5529683401443513:4.2321505005305884] [-2.6083595580084018:2.872298013629309] [-2.42110445870735:2.9421803071235288] [-2.162548338277364:3.1503585670183889]
tree_sizes=2932 2944 2932 2898 2921 2949 2926 2902 2944 2914 2923 2913 2939 2939 2932 2913 2911 2914 2930 2920 2925 2932 2925 2920 2948

Tree=0
num_leaves=31
num_cat=0
split_feature=336 391 357 246 316 235 141 161 34 7 270 226 270 7 388 309 13 351 370 307 160 246 98 394 274 289 74 319 227 127
split_gain=8.10949 6.21543 5.33687 4.77357 6.1322 7.37022 4.3568 4.10798 5.41288 6.09213 4.57195 4.76366 4.73342 4.5669 4.03671 4.09071 3.96835 4.24037 4.26281 3.90293 3.87994 4.25831 4.04066 4.17719 3.74983 3.55053 3.65936 3.54769 3.42359 3.24355
threshold=-1.2903431908728835 -0.16667820447390144 -0.60829473645111576 0.3825442737686699 -0.92430160582614995 -0.77468472163112223 -0.81958951363875565 1.093520009743816 -0.97303628844462386 -0.24532163172683333 -0.0432451490745848 -0.70720163427629235 0.20054489619996249 0.2206915591055599 0.86211013628836908 0.51404156998954631 -0.8482087845381957 -0.97960886796659075 -0.48926579808280707 0.21018702949949528 -0.92886864688793436 -0.59588852277283311 -0.26144781909826903 -0.16702363453019112 1.3704493176362058 1.1058832699640144 -0.37021765776685439 -1.3587105093118594 -0.95562441440766455 0.6738314898336869
decision_type=2 2 2 2 2 2 2 2 2 2 2 2 2 2 2 2 2 2 2 2 2 2 2 2 2 2 2 2 2 2
left_child=3 7 6 4 5 -1 -3 8 9 -2 11 13 -12 28 15 -8 -4 18 -18 24 -14 -22 29 -24 -19 26 -9 -13 -10 -23
right_child=1 2 16 -5 -6 -7 14 25 10 -11 12 27 20 -15 -16 -17 17 19 -20 -21 21 22 23 -25 -26 -27 -28 -29 -30 -31
leaf_value=-0.0010860071720018871 0.0052391064724302341 0.0038200222417184397 -0.0018753821056932967 0.0046693009022095496 -0.0024645990891406498 0.0048462785200619387 0.00054273547351049234 -0.00025123674584775032 -0.00069356892276206704 -0.00028742707154282297 0.0016945994160796941 0.00045982813593565625 -0.0036759350892891138 -0.0023408025216145106 -0.0021344403135186746 0.0040241170769515456 0.00021008830977913587 0.00067256071676704491 -0.0039509912238295747 -0.00077708382061393566 0.0026925957618547172 -0.0002402204171133707 5.0714549272986706e-10 -0.0031420712752555191 0.0036941333048759583 1.8302830640312614e-05 -0.0044252803861311489 -0.0023302692257141247 0.002789758695737297 0.0030137434644096775
leaf_weight=33 32 62 106 48 35 48 148 33 46 44 122 49 34 49 36 44 48 364 44 161 42 147 73 91 46 45 74 321 62 36
leaf_count=33 32 62 106 48 35 48 148 33 46 44 122 49 34 49 36 44 48 364 44 161 42 147 73 91 46 45 74 321 62 36
internal_value=-7.58108e-05 -0.00022787 0.000337343 0.0020577 0.000873843 0.00240125 0.00148936 -0.000691952 -0.000479711 0.0020501 -0.000667202 -0.00132959 -1.50307e-05 9.98259e-05 0.000806135 0.00139959 -9.33482e-05 0.000188827 -0.00176852 0.000517995 -0.000525534 -0.000219996 -0.000600266 -0.00173628 0.00103999 -0.00223542 -0.00321206 -0.00194684 0.00127503 0.000398537
internal_weight=2523 2359 1059 164 116 81 290 1300 1148 76 1072 527 545 157 228 192 769 663 92 571 423 389 347 164 410 152 107 370 108 183
internal_count=2523 2359 1059 164 116 81 290 1300 1148 76 1072 527 545 157 228 192 769 663 92 571 423 389 347 164 410 152 107 370 108 183
is_linear=0
shrinkage=1


Tree=1
num_leaves=31
num_cat=0
split_feature=399 148 36 34 371 243 288 84 247 270 270 334 323 298 35 243 329 347 285 116 410 273 205 264 53 366 175 330 55 265
split_gain=6.65242 5.02614 5.23557 4.96024 4.41941 4.3822 5.63661 4.02342 3.92001 4.59168 5.7114 5.46836 5.05865 4.77444 4.58218 4.98349 5.15829 5.15 4.17213 3.98445 3.79705 3.75332 3.713 3.90865 3.63379 3.63415 3.83425 3.50569 3.49584 3.93876
threshold=-1.0675639988263439 -1.6848391485381111 1.4977317775451227 -0.95805586168429069 -0.11351474256609738 0.72621514587309866 0.078793074168434937 -1.2192596972417964 -0.8412609935537253 -0.0092258539168757637 0.18636629405289859 -0.42904589844348118 -0.85883436371634347 -1.4987667096400921 -0.79992603179889843 -0.16040774880948447 0.49412433478073753 -0.35148193797647126 0.73265404063969541 -0.31671904219722952 -0.47682316622152487 -0.16404819191796979 0.19108480445570755 0.35632729903802973 -0.73298864533657848 -0.23566722820940292 -0.026280220365914129 0.12963388411592977 0.11370148149584837 0.093005203906172132
decision_type=2 2 2 2 2 2 2 2 2 2 2 2 2 2 2 2 2 2 2 2 2 2 2 2 2 2 2 2 2 2
left_child=4 -2 3 21 7 6 -6 -1 24 11 -11 12 13 -10 -12 16 -16 -17 -13 -20 -19 -3 23 -22 -5 26 -26 -27 29 -14
right_child=1 2 -4 8 5 -7 -8 -9 9 10 14 18 28 -15 15 17 -18 20 19 -21 22 -23 -24 -25 25 27 -28 -29 -30 -31
leaf_value=0.0016417882408378487 0.0024418932134237063 0.0036609315602703298 0.0014105561993595572 0.0022710114386346606 0.0028018820115729521 0.0049073089178030688 -0.0012332174399246772 -0.0019974510445289555 0.0014877646436562409 0.0016617677920317698 0.0011059524299447991 -0.0028535199295536048 0.0031194543801248077 -0.0024866947300145278 -0.00066509433355791 -0.0035017318048505392 0.0036807877525083118 0.0012738671579863876 -0.0026186034247279166 0.001140455591181914 -0.0019571286919231098 1.6666451723722277e-05 -0.0034431436945605506 0.0019639876137703791 -0.0001181113099645058 0.0018669546630800419 -0.0032153712506176996 -0.001189675982502565 -0.0010697711475522202 -0.00070925194653682412
leaf_weight=57 64 45 153 70 90 46 52 60 35 122 110 287 73 144 99 114 35 58 48 61 61 78 66 40 127 113 59 52 66 38
leaf_count=57 64 45 153 70 90 46 52 60 35 122 110 287 73 144 99 114 35 58 48 61 61 78 66 40 127 113 59 52 66 38
internal_value=-7.49069e-05 -0.00026752 -0.000352532 -0.000491111 0.00130213 0.00224595 0.00129291 -0.000184676 -0.000620794 -0.000866818 -0.000276908 -0.00141103 -0.000489289 -0.00167409 -0.000695441 -0.00112779 0.000470696 -0.00177336 -0.00222047 -0.00048722 -0.000852482 0.00142718 -0.0016269 -0.000347686 0.000218903 -0.000186733 -0.00115093 0.000871002 0.000686282 0.00177512
internal_weight=2523 2218 2154 2001 305 188 142 117 1878 1457 705 752 356 179 583 473 134 339 396 109 225 123 167 101 421 351 186 165 177 111
internal_count=2523 2218 2154 2001 305 188 142 117 1878 1457 705 752 356 179 583 473 134 339 396 109 225 123 167 101 421 351 186 165 177 111
is_linear=0
shrinkage=0.01


Tree=2
num_leaves=31
num_cat=0
split_feature=336 391 246 316 235 336 141 167 13 116 393 56 284 266 56 34 28 330 55 232 1 61 135 209 247 414 137 351 31 247
split_gain=7.96959 6.1208 4.71642 6.06333 7.26738 4.5488 4.80979 4.08497 3.92453 4.324 5.22143 3.88464 3.80477 3.7111 3.70451 4.09784 7.03489 4.30284 4.53519 4.92786 4.50885 4.58267 3.44439 5.28002 3.78978 3.4132 3.37541 3.3553 3.50692 3.65965
threshold=-1.2903431908728835 -0.16667820447390144 0.3825442737686699 -0.92430160582614995 -0.77468472163112223 -0.68899825228679956 -0.81958951363875565 -1.1400486921947885 -0.85764061222063825 0.090722290316506957 0.059787005927275559 0.1882280408011098 0.13084603994558799 -0.74837763367579535 -1.2291700265202941 -0.97303628844462386 -0.26509221783342996 1.1650295013936869 -0.72257670466772117 -0.55637197565061824 -0.70018356615187438 -0.907893801978786 0.93751334755106475 -0.29728130633818584 0.098981601336701086 -0.031469700111149655 0.27283877942411333 -0.73740852305319937 0.95289976186116687 -0.33403725804138423
decision_type=2 2 2 2 2 2 2 2 2 2 2 2 2 2 2 2 2 2 2 2 2 2 2 2 2 2 2 2 2 2
left_child=2 14 3 4 -1 6 -3 -7 -9 27 13 12 -12 -11 -2 16 -16 18 19 -17 22 -22 23 -20 -25 -21 -24 -10 -29 -30
right_child=1 5 -4 -5 -6 7 -8 8 9 10 11 -13 -14 -15 15 17 -18 -19 20 25 21 -23 26 24 -26 -27 -28 28 29 -31
leaf_value=-0.0010787780668054308 -0.003707811000291258 0.0041888366818117603 0.0046369541913270952 -0.0024551499020811674 0.0048112858403474091 0.002939699338749051 0.00074609998536785856 -0.0020216120414289773 -0.0027224391908026659 -0.00082447480364476874 -0.00086123034959802267 -0.0029294588436922903 0.0030012698940614741 0.0028438689368073459 0.0052425994770601394 -0.0017729143828425246 -0.0006294021986562896 -0.0024019031650922766 -0.0023264038330914143 0.0036056231348629807 -0.0045789444152838912 -0.00098941761707863497 0.0041360724853669725 0.0039940054963032408 -0.00072879669962055754 0.00028949339993830241 -8.1065459684892145e-05 -0.00078377205635217994 0.0041921850530938672 -0.00031563301835007765
leaf_weight=33 38 52 48 35 48 42 192 100 63 31 63 42 39 137 30 46 52 137 70 62 37 628 39 31 31 68 31 232 31 35
leaf_count=33 38 52 48 35 48 42 192 100 63 31 63 42 39 137 30 46 52 137 70 62 37 628 39 31 31 68 31 232 31 35
internal_value=-7.39678e-05 -0.000224728 0.00204105 0.000864123 0.00238322 0.000336146 0.00152821 -1.74898e-05 -0.000191788 7.78793e-05 0.000943522 -0.000423453 0.000596847 0.00213582 -0.00068528 -0.00058459 0.00153304 -0.000738323 -0.000510845 0.00093216 -0.000810998 -0.00120976 0.000476248 -0.000445889 0.0016055 0.00193958 0.00224866 -0.000657569 -0.00018913 0.00178917
internal_weight=2523 2359 164 116 81 1059 244 815 773 673 312 144 102 168 1300 1262 82 1180 1043 176 867 665 202 132 62 130 70 361 298 66
internal_count=2523 2359 164 116 81 1059 244 815 773 673 312 144 102 168 1300 1262 82 1180 1043 176 867 665 202 132 62 130 70 361 298 66
is_linear=0
shrinkage=0.01


Tree=3
num_leaves=31
num_cat=0
split_feature=336 391 246 316 214 336 161 34 167 13 116 329 103 76 79 266 328 349 247 77 289 75 96 284 266 144 52 352 340 19
split_gain=7.88664 6.04436 4.6778 5.99994 7.77157 4.49173 4.06121 5.2435 4.02231 3.86708 4.26294 5.03074 4.94834 4.7362 5.9031 4.13609 3.76378 3.61229 3.57549 3.54828 3.49303 3.61958 3.4199 3.34706 3.27846 3.23315 3.63568 3.15405 3.77184 4.92443
threshold=-1.2903431908728835 -0.16667820447390144 0.3825442737686699 -0.92430160582614995 -0.77483065881079938 -0.68899825228679956 1.093520009743816 -0.97303628844462386 -1.1400486921947885 -0.85764061222063825 0.090722290316506957 0.12816115895048372 0.74143981751459698 -0.27035483579587338 -0.90766743044175413 -0.60155444267496472 -0.19471215608486656 -0.39054591920527687 -0.20022608384421262 1.5064006495398268 1.1058832699640144 -0.36135446202216587 -0.46540807909712562 -0.20822223419453181 -0.073262249015128317 -0.2314673635016562 0.19037574401461652 -1.0198369519648174 -1.0077448546286143 -0.27512271668926608
decision_type=2 2 2 2 2 2 2 2 2 2 2 2 2 2 2 2 2 2 2 2 2 2 2 2 2 2 2 2 2 2
left_child=2 6 3 4 -1 16 7 22 -7 -10 11 12 25 14 -12 -15 -3 -18 -14 27 21 -8 -2 -16 -21 26 -11 -9 -29 -30
right_child=1 5 -4 -5 -6 8 20 19 9 10 13 -13 18 15 23 -17 17 -19 -20 24 -22 -23 -24 -25 -26 -27 -28 28 29 -31
leaf_value=-0.0013001415396437926 -0.00045488613686757163 0.0026056680349941302 0.0046165516100823882 -0.0024425423517823218 0.0048223405367895664 0.0029176515857265756 -0.00023917969848428453 0.00094115471920689958 -0.0020061526509622734 0.0027310645694120063 0.0030462616204451295 -0.0025241665056049351 0.0048829308245331047 -0.00028562662318411941 -0.0030926329403494798 0.0031570405872948671 -0.0015574147268974535 0.0020584029119973088 0 -0.00042178095970302822 1.9595617666206462e-05 -0.004390099450308633 0.0036905065780350318 0.00019601074978709221 -0.0046866683153117582 -0.0019111368275704223 -0.0010434233160330016 0.0010714457882116143 0 -0.0016203908593716006
leaf_weight=32 30 137 48 35 49 42 33 130 100 43 37 101 30 46 58 113 58 49 30 38 45 74 46 58 39 102 55 101 315 449
leaf_count=32 30 137 48 35 49 42 33 130 100 43 37 101 30 46 58 113 58 49 30 38 45 74 46 58 39 102 55 101 315 449
internal_value=-7.27237e-05 -0.000222709 0.00203125 0.000858987 0.0023703 0.000334635 -0.000680386 -0.000469361 -1.67369e-05 -0.000189743 7.78916e-05 -0.000652285 6.9502e-05 0.000937441 -0.000290278 0.00213882 0.00151919 5.99419e-05 0.00255718 -0.00065396 -0.00221492 -0.00318366 0.00202036 -0.00143049 -0.00270917 -0.000669977 0.000584228 -0.000484783 -0.000706529 -0.000950287
internal_weight=2523 2359 164 116 81 1059 1300 1148 815 773 673 361 260 312 153 159 244 107 60 1072 152 107 76 116 77 200 98 995 865 764
internal_count=2523 2359 164 116 81 1059 1300 1148 815 773 673 361 260 312 153 159 244 107 60 1072 152 107 76 116 77 200 98 995 865 764
is_linear=0
shrinkage=0.01


Tree=4
num_leaves=31
num_cat=0
split_feature=336 36 34 246 316 214 13 351 353 328 412 396 286 111 123 356 57 263 327 180 307 99 248 269 139 39 323 398 62 361
split_gain=7.80995 5.37706 5.6881 4.63862 5.93835 7.6879 4.62613 4.43782 5.48124 4.15306 5.61737 4.12535 4.17101 4.12303 5.24458 5.07194 4.4561 4.62874 4.29232 4.89638 4.37472 4.47719 4.23566 5.8647 3.95917 4.83612 3.90223 3.90187 3.8407 3.8332
threshold=-1.2903431908728835 1.6433494901686545 -0.95805586168429069 0.3825442737686699 -0.92430160582614995 -0.77483065881079938 -0.067564000642843208 -1.7788744419996012 0.80061108619845778 0.6419059042074643 0.3417320395785774 0.15446735348924565 -0.74182328711586354 -1.320147431433031 -0.73899944716148969 -0.76272431024897303 1.3368166909041637 0.39959202957140599 -0.038712461051064573 1.1120760193970405 -0.50456964888664035 -0.28511223210635367 0.29465212908735977 -0.21753220630022391 -0.16024598319096631 0.32670740500406192 -1.0014955129661076 0.46637598622684218 0.071754017892569522 0.41958892828214661
decision_type=2 2 2 2 2 2 2 2 2 2 2 2 2 2 2 2 2 2 2 2 2 2 2 2 2 2 2 2 2 2
left_child=3 2 6 4 5 -1 -2 8 -4 10 13 12 -12 -9 -15 26 18 -18 19 24 21 -20 23 27 25 28 -16 -22 -17 -14
right_child=1 -3 7 -5 -6 -7 -8 9 -10 -11 11 -13 29 14 15 16 17 -19 20 -21 22 -23 -24 -25 -26 -27 -28 -29 -30 -31
leaf_value=-0.0012921112337533167 -0.0017438824189594017 0.0017033394085078993 -0.00024248559772968294 0.0045962387761799622 -0.0024299995787441732 0.0047968105363714346 0.0025044907332883904 0.0019117402009853797 -0.0060211059357970957 -0.0013945171724673079 -0.0029539976364321777 -0.0025968433284318782 -0.00040532344068305756 -0.0017884571557554105 0 0.00080674315409236393 -0.0036173477732209546 0.00074309441833631017 0.0034721743584947384 -0.0020410607257818291 -8.6795167278563775e-05 -0.00038967663528326945 -0.0033814119937681203 0.0029426000476814808 0.0026713943231983913 0.0024781666066799614 0.0033462727360338684 -0.0031881887401817299 -0.0026174101054715782 0.0031824620559604633
leaf_weight=32 30 134 38 48 35 49 113 117 30 339 50 140 165 148 55 69 64 35 45 45 112 77 67 38 138 72 82 65 57 34
leaf_count=32 30 134 38 48 35 49 113 117 30 339 50 140 165 148 55 69 64 35 45 45 112 77 67 38 138 72 82 65 57 34
internal_value=-7.1981e-05 -0.000221245 -0.000340823 0.00202173 0.0008542 0.0023579 0.00156698 -0.000475636 -0.0029625 -0.000386335 -0.000177889 -0.00122885 -0.000425212 0.000137546 -3.87171e-05 0.000213031 -6.05623e-05 -0.00204208 0.000187538 0.000951178 -0.000521451 0.00102748 -0.00121168 -0.000487554 0.00137642 0.000431179 0.00198985 -0.00127655 -0.00071991 0.000208356
internal_weight=2523 2359 2225 164 116 81 143 2082 68 2014 1675 389 249 1286 1169 1021 884 99 785 381 404 122 282 215 336 198 137 177 126 199
internal_count=2523 2359 2225 164 116 81 143 2082 68 2014 1675 389 249 1286 1169 1021 884 99 785 381 404 122 282 215 336 198 137 177 126 199
is_linear=0
shrinkage=0.01


Tree=5
num_leaves=31
num_cat=0
split_feature=336 270 270 242 334 392 298 250 166 246 163 394 333 414 370 116 169 144 204 410 307 151 302 244 19 288 304 121 250 389
split_gain=7.73582 5.37386 8.90332 6.11399 5.77933 5.44428 5.07248 4.99303 4.71357 4.59976 5.32369 4.40555 4.3415 4.29934 4.32404 4.37357 4.16565 4.06175 3.89944 4.38666 3.83323 3.80107 3.77324 3.742 4.17975 6.20298 3.63616 3.60617 3.57326 3.35352
threshold=-1.2903431908728835 -0.048921008866380532 0.20054489619996249 -0.15824677833434911 -0.46986039316817912 0.38384708157562414 -0.63078095925263544 0.97473999087817875 0.25329412563896042 0.3825442737686699 -0.17045946840813062 -0.39269948548663519 0.03074035297605935 -0.83423998689851431 -0.10738060598759086 -0.84616930436812121 -0.053604785047467525 -0.70429167294212258 -0.045669462842143176 -0.13231392369895031 -0.26300463464334362 -0.48055359021432337 0.06891991099479898 1.4122663951650338 -0.53891570958520951 0.82229760718741851 0.85738782588660956 0.87705774967354644 -0.13105013208738611 -0.093412386507478892
decision_type=2 2 2 2 2 2 2 2 2 2 2 2 2 2 2 2 2 2 2 2 2 2 2 2 2 2 2 2 2 2
left_child=9 4 12 5 13 17 8 23 -6 10 -1 18 -3 16 15 -15 21 -4 22 -20 -12 -2 -5 24 25 -8 -21 29 -16 -26
right_child=1 2 3 11 6 -7 7 -9 -10 -11 20 -13 -14 14 28 -17 -18 -19 19 26 -22 -23 -24 -25 27 -27 -28 -29 -30 -31
leaf_value=-0.002027106737468119 0.0026017621104769844 0.00059055677385359319 0.0031413212414190639 -0.0038921553694416544 -0.0048638207693649854 0.0036357673155725935 -0.0039316305668104356 -0.0039072827833633011 -2.2183713700735207e-05 0.0045760153288953009 2.1453614732841165e-05 -0.0013714340415147202 0.0031472496756615531 -0.0025971191623248156 -0.0023824036551439868 0.00097533502185510271 0.0042908163599315145 -0.00051430630605200597 0.0028668868362728972 0.0013187893271970096 0.0045616313531063497 -0.0020814529944743428 0.00016695203750194716 0.0023336079539820697 -0.0018489302092418076 0.001189835668192245 -0.0023342518769997231 0.0028512088390010774 0.00062023883615181126 0.00035354838694052012
leaf_weight=39 32 149 36 35 69 62 82 50 31 48 39 408 129 38 138 223 40 146 78 62 38 33 54 37 123 30 45 31 51 147
leaf_count=39 32 149 36 35 69 62 82 50 31 48 39 408 129 38 138 223 40 146 78 62 38 33 54 37 123 30 45 31 51 147
internal_value=-7.14855e-05 -0.000220049 0.000244197 -0.00022302 -0.000707896 0.00112172 -0.00138665 -0.000953581 -0.0034418 0.00201225 0.000849436 -0.000713311 0.0018088 1.92551e-05 -0.000398447 0.000420402 0.00183012 0.000207896 0.000251388 0.00109114 0.00238411 0.000158344 -0.00142484 -0.000598494 -0.000883205 -0.00251914 -0.000186306 -0.000245372 -0.00154798 -0.000637638
internal_weight=2523 2359 1204 926 1155 244 600 500 100 164 116 682 278 555 450 261 105 182 274 185 77 65 89 450 413 112 107 301 189 270
internal_count=2523 2359 1204 926 1155 244 600 500 100 164 116 682 278 555 450 261 105 182 274 185 77 65 89 450 413 112 107 301 189 270
is_linear=0
shrinkage=0.01


Tree=6
num_leaves=31
num_cat=0
split_feature=336 391 357 141 161 388 309 13 204 309 20 57 184 141 27 77 139 289 74 100 270 226 7 270 16 248 160 181 183 370
split_gain=7.65848 5.93553 5.13969 4.27629 4.01404 3.95199 4.03653 3.78298 3.77826 3.63937 5.15485 5.11854 5.57784 3.97554 3.77122 3.53088 3.72893 3.44933 3.55419 3.33559 3.29346 5.27723 4.58665 4.51236 3.4187 3.36646 3.32107 3.21821 5.79714 4.13635
threshold=-1.2903431908728835 -0.16667820447390144 -0.60829473645111576 -0.81958951363875565 1.093520009743816 0.86211013628836908 0.51404156998954631 -0.8482087845381957 -0.22666850395806346 -0.32733004464452209 0.4736103470765794 0.71189519022599612 0.010203073711872216 0.3920832007034547 0.30300017148726804 0.50519311067807948 -0.47186140698871964 1.1058832699640144 -0.37021765776685439 -0.051868553992291226 -0.0432451490745848 -0.70720163427629235 0.2206915591055599 0.20054489619996249 1.3285727756536059 -0.90071492859092672 -0.92886864688793436 0.16343256369481454 0.4443775471577775 0.19644973013802766
decision_type=2 2 2 2 2 2 2 2 2 2 2 2 2 2 2 2 2 2 2 2 2 2 2 2 2 2 2 2 2 2
left_child=15 4 3 -3 20 6 8 -4 -5 11 13 12 -9 -11 -15 16 -1 18 -6 -12 21 22 25 -22 -23 -2 -25 29 -29 -28
right_child=1 2 7 5 17 -7 -8 9 -10 10 19 -13 -14 14 -16 -17 -18 -19 -20 -21 23 24 -24 26 -26 -27 27 28 -30 -31
leaf_value=-0.0017212613591471235 -0.0002623744625425725 0.0037729119777213781 -0.0018290477247770737 -0.0013902264932791392 -0.00024086208854402815 -0.0021220234644256141 0.0039812663377708068 0.00057553140616547018 0.0018147681853936419 0.0010917691802106279 -0.0035866526426295477 -0.0016784783782513471 0.0041771591319868873 -0.002708090356717915 0.0013275046035756961 0.003916973879207827 0.0021581974573118587 2.1969762412791556e-05 -0.004356168461595907 -9.4239911380803823e-05 0.0016866382059056481 -0.0019329097758144509 -0.0019371550737155808 -0.0032434987602755426 0.001097113287076354 0.003028182119185872 -0.0016223484941323683 0.0034194589998634136 -0.00075139484771619169 0.00087784959329292173
leaf_weight=35 52 62 106 58 33 36 44 124 90 210 66 47 68 65 32 60 69 45 74 51 131 362 52 36 38 66 185 59 69 98
leaf_count=35 52 62 106 58 33 36 44 124 90 210 66 47 68 65 32 60 69 45 74 51 131 362 52 36 38 66 185 59 69 98
internal_value=-7.08905e-05 -0.000218719 0.000333562 0.00146408 -0.000672278 0.000787158 0.00137466 -8.89798e-05 0.000523634 0.000186367 -0.000360889 0.00117292 0.00190679 0.000307923 -0.00132633 0.0020024 0.000797598 -0.00219783 -0.00316054 -0.00213351 -0.000462469 -0.00100097 0.000448499 6.15753e-05 -0.00162859 0.00155623 -0.000408929 -0.000134034 0.00115568 -0.000738927
internal_weight=2523 2359 1059 290 1300 228 192 769 148 663 424 239 192 307 97 164 104 152 107 117 1148 570 170 578 400 118 447 411 128 283
internal_count=2523 2359 1059 290 1300 228 192 769 148 663 424 239 192 307 97 164 104 152 107 117 1148 570 170 578 400 118 447 411 128 283
is_linear=0
shrinkage=0.01


Tree=7
num_leaves=31
num_cat=0
split_feature=336 36 34 287 374 351 35 246 316 214 120 392 78 371 148 281 123 417 247 310 280 236 300 308 202 300 321 34 7 72
split_gain=7.57171 5.27767 5.58973 5.11798 5.1618 7.04589 6.13628 4.558 5.84752 7.60408 3.94271 3.74938 4.36308 3.75901 3.62363 3.92028 5.0687 3.65783 3.86841 3.54494 3.42804 3.41873 3.4005 3.37239 4.03801 3.27047 4.38214 4.45201 4.03699 3.68707
threshold=-1.2903431908728835 1.6433494901686545 -0.95805586168429069 3.0021859551599479 0.71728574105452003 -1.6546706157369038 1.3294722426974628 0.3825442737686699 -0.92430160582614995 -0.77483065881079938 1.1201552422584 1.4396066535532832 0.21119896443868419 1.5728468300484169 -1.6848391485381111 -1.1033375490494193 -0.36535322551101546 -0.39096955512722653 0.77837292189533869 0.5604369603057795 0.44610288846267337 0.77238515207544511 -0.18878972662929924 0.053901854733362536 -0.44554766804356599 0.79088903530861343 -0.26201997065425447 0.34514875913833865 -0.18926263332375309 -0.27699252537011904
decision_type=2 2 2 2 2 2 2 2 2 2 2 2 2 2 2 2 2 2 2 2 2 2 2 2 2 2 2 2 2 2
left_child=7 2 23 4 11 -6 10 8 9 -1 19 13 -13 14 -4 16 20 18 25 -7 -16 -19 -3 24 -2 26 27 -17 -28 -27
right_child=1 22 3 -5 5 6 -8 -9 -10 -11 -12 12 -14 -15 15 17 -18 21 -20 -21 -22 -23 -24 -25 -26 29 28 -29 -30 -31
leaf_value=-0.001302318367011407 -1.7808123375289141e-05 -0.00075816735147665715 0.0022323725978360296 0.0031994518335606605 -0.0061703423975091988 -0.00081989017052864533 0.0017542837231673979 0.004543140518665314 -0.0024245260749012234 0.0047528486456904634 0.00064197043295611037 -0.00011195368520342387 0.0039444477717543759 -0.0028755397908389567 -0.0047479758708504965 0.0016368148372523262 0 -0.00046093836540262101 0.0033180140904997563 -0.0039235623388253534 -0.00046818837918566932 -0.0032546794601775548 0.0026701829255078779 -0.00053922071501764717 0.0041034544468857344 -4.8115463044662498e-05 6.943362727761269e-05 -0.0020422223206195567 -0.0037061720065100761 0.003330403329583548
leaf_weight=32 34 37 50 35 31 69 53 48 35 49 42 63 41 60 62 115 78 898 42 95 31 45 97 47 62 65 48 43 59 57
leaf_count=32 34 37 50 35 31 69 53 48 35 49 42 63 41 60 62 115 78 898 42 95 31 45 97 47 62 65 48 43 59 57
internal_value=-7.01333e-05 -0.000217134 -0.000335623 -0.000469285 -0.000537516 -0.0017729 -0.00118416 0.00199136 0.000833975 0.0023267 -0.0019738 -0.000328984 0.00148429 -0.000447745 -0.000349677 -0.000439364 -0.00186282 -0.000255858 0.000501775 -0.00267348 -0.0034139 -0.000606153 0.00168956 0.00155557 0.00262224 0.000167796 -0.000441938 0.000591296 -0.00199637 0.00151831
internal_weight=2523 2359 2225 2082 2047 290 259 164 116 81 206 1757 104 1653 1593 1543 171 1372 429 164 93 943 134 143 96 387 265 158 107 122
internal_count=2523 2359 2225 2082 2047 290 259 164 116 81 206 1757 104 1653 1593 1543 171 1372 429 164 93 943 134 143 96 387 265 158 107 122
is_linear=0
shrinkage=0.01


Tree=8
num_leaves=31
num_cat=0
split_feature=336 391 357 246 316 214 141 161 388 309 13 306 226 69 348 56 204 345 56 22 145 65 202 204 199 246 7 384 222 203
split_gain=7.49773 5.84056 5.07933 4.51748 5.78751 7.52219 4.22354 3.97405 3.90235 3.97985 3.72366 4.12755 5.3011 3.90325 3.79659 3.90218 3.71724 4.23459 3.61298 3.95903 5.51051 4.47404 5.7587 4.53195 4.68835 4.72812 4.38116 4.60416 3.96197 3.62656
threshold=-1.2903431908728835 -0.16667820447390144 -0.60829473645111576 0.3825442737686699 -0.92430160582614995 -0.77483065881079938 -0.81958951363875565 1.093520009743816 0.86211013628836908 0.51404156998954631 -0.8482087845381957 -0.34752128194342091 -0.42618528419200968 -0.26015374768506466 0.68733548945036438 0.14852421775010335 -0.22666850395806346 -0.052631972644130387 -1.2291700265202941 0.11443475458161669 -0.69796499811652446 0.58645773359615461 -0.63668941961962822 0.16733344757560561 -0.89314279956419551 -0.31267450619088671 -0.41505568697323647 -1.1388877510103856 -0.67790328042636772 -0.48842187436451273
decision_type=2 2 2 2 2 2 2 2 2 2 2 2 2 2 2 2 2 2 2 2 2 2 2 2 2 2 2 2 2 2
left_child=3 7 6 4 5 -1 -3 18 9 16 -4 14 13 -13 15 -12 -8 -18 -2 26 -21 29 -23 24 -24 -26 -20 -28 -29 -22
right_child=1 2 10 -5 -6 -7 8 -9 -10 -11 11 12 -14 -15 -16 -17 17 -19 19 20 21 22 23 -25 25 -27 27 28 -30 -31
leaf_value=-0.0012942746095359326 -0.0035472419992643028 0.0037504703763988801 -0.0018145225674810787 0.0045222420513629912 -0.0024120757978006798 0.0047276865359505314 -0.0013765501724556091 -0.0021837618570266803 -0.0021076647074599014 0.0039551652014336511 0.0015293860420316572 -0.00095807148259208425 -0.0013283105298192075 0.0020351506843353097 0.0037536757222699875 -0.0015621680575011474 -0.0010967495606746525 0.0033209418470130092 0.0012071596542503166 -0.0042128687697861877 -0.00021516027519246562 -0.0025640812170776455 -0.0027977133012744922 0.0029583527923872071 0.0041991603261593621 -0.00075564057188206451 -0.0032026861932266644 -0.0023442656284508607 0.0005140211161351689 -0.0028823637093369991
leaf_weight=32 35 62 106 48 35 49 58 152 36 44 130 66 251 113 47 56 30 60 249 47 98 53 41 76 31 42 52 58 250 116
leaf_count=32 35 62 106 48 35 49 58 152 36 44 130 66 251 113 47 56 30 60 249 47 98 53 41 76 31 42 52 58 250 116
internal_value=-6.96278e-05 -0.000215918 0.000331905 0.00198176 0.000829321 0.00231454 0.00145577 -0.000665848 0.000782851 0.00136674 -8.81118e-05 0.000185014 -0.000386966 0.000905489 0.00125618 0.000565283 0.000521396 0.0018022 -0.000457074 -0.000349226 -0.00100458 -0.000646809 0.000264284 0.00109778 -0.000129117 0.00133765 0.000186464 -0.000508474 -1.97504e-05 -0.00169738
internal_weight=2523 2359 1059 164 116 81 290 1300 228 192 769 663 430 179 233 186 148 90 1148 1113 504 457 243 190 114 73 609 360 308 214
internal_count=2523 2359 1059 164 116 81 290 1300 228 192 769 663 430 179 233 186 148 90 1148 1113 504 457 243 190 114 73 609 360 308 214
is_linear=0
shrinkage=0.01


Tree=9
num_leaves=31
num_cat=0
split_feature=357 121 157 148 36 321 34 391 257 116 300 270 252 141 184 349 137 98 371 85 281 324 15 278 265 99 230 247 319 400
split_gain=7.10482 6.82693 6.18599 5.74005 5.22426 4.99112 4.81319 4.44674 5.64307 4.48653 4.34295 4.19855 4.05264 4.03628 4.51366 4.26636 3.98191 4.6615 4.23467 3.97826 3.85381 4.54549 3.96095 5.099 3.56278 3.52947 4.20478 3.52342 3.72802 3.8684
threshold=-1.1834003691593284 0.43733568431443243 -0.9086857368769643 -1.6848391485381111 1.6433494901686545 -0.21412829705362879 -0.95805586168429069 -0.16667820447390144 1.3169074697408418 1.4131302274095507 -0.18878972662929924 -0.0432451490745848 -0.17283447342471414 -0.90985317150339862 -1.1665484133114812 -0.25177023563777173 0.21063266516633031 -0.30118007798760282 -0.010862379880091944 0.010800677003972557 -1.085771701356067 -0.54214379933916901 0.83507300305005161 1.0000000180025095e-35 0.85824106643809051 -0.23392131415833572 0.11824198565088824 -0.8412609935537253 -1.0078156250404442 -0.36869255830035425
decision_type=2 2 2 2 2 2 2 2 2 2 2 2 2 2 2 2 2 2 2 2 2 2 2 2 2 2 2 2 2 2
left_child=1 2 -1 -2 6 -4 12 8 9 11 -6 27 -5 15 19 -9 24 -18 -19 -15 -16 -22 23 -23 25 -13 -27 -8 29 -29
right_child=3 -3 5 4 10 -7 7 13 -10 -11 -12 16 -14 14 20 -17 17 18 -20 -21 21 22 -24 -25 -26 26 -28 28 -30 -31
leaf_value=-0.0027020276909267222 0.0026005241723623179 0.0037482371593692471 0.0037600472715555457 0.0035723013129944988 -0.0012759979320941745 -0.0012192478325596312 -2.7009736248210332e-05 -0.00011781673958258971 -0.0036679078718026481 0.0017036099201350502 0.0026944269349190348 -0.0019741851419682157 0 -0.00025382811896676244 -0.0027963768024670166 0.00339491173854241 0.0023304683977621609 0.0013015008890735252 -0.0031771125935199786 0.0039841560468207608 -0.0014581380881677514 4.2356636586338885e-05 -0.0018293511452086803 0.0029588033831505862 -0.0034576723013073208 0.0020759164119917382 -0.0012722749907989057 0.0023041606081339221 -0.0026196940041989191 -0.0020448833046124337
leaf_weight=46 67 89 49 50 35 30 112 68 73 64 96 94 78 41 70 63 98 40 39 41 226 245 68 79 48 77 68 34 290 45
leaf_count=46 67 89 49 50 35 30 112 68 73 64 96 94 78 41 70 63 98 40 39 41 226 245 68 79 48 77 68 34 290 45
internal_value=-6.89464e-05 0.00166268 0.000102749 -0.000232898 -0.000322043 0.00182403 -0.000444632 -0.000568142 -0.000999874 -0.000795025 0.0015928 -0.000972765 0.00140965 -4.30762e-05 -0.000325544 0.00155956 -0.000279011 0.000879599 -0.000871587 0.00185005 -0.000596701 -0.000331266 0.000309824 0.000782593 -0.001012 -0.000475451 0.00047577 -0.00162772 -0.00209733 -0.000100737
internal_weight=2523 214 125 2309 2242 79 2111 1983 1082 1009 131 945 128 901 770 131 464 177 79 82 688 618 392 324 287 239 145 481 369 79
internal_count=2523 214 125 2309 2242 79 2111 1983 1082 1009 131 945 128 901 770 131 464 177 79 82 688 618 392 324 287 239 145 481 369 79
is_linear=0
shrinkage=0.01


Tree=10
num_leaves=31
num_cat=0
split_feature=336 270 270 243 392 138 144 221 246 316 214 333 197 167 144 94 350 200 25 165 181 354 72 207 34 95 118 162 124 80
split_gain=7.37505 5.1533 8.68033 5.9906 5.3367 5.18517 5.44818 7.15103 4.49134 5.70053 7.45123 4.28369 4.01651 4.46302 3.99809 3.83288 3.72608 5.59625 6.45869 4.81366 5.53438 4.57843 4.42568 3.71337 3.41669 3.84597 5.04244 3.43226 3.36177 3.72044
threshold=-1.2903431908728835 -0.048921008866380532 0.20054489619996249 -0.15260355914192339 0.38384708157562414 -0.033688794009844585 -0.11439248259288444 0.59790262994975396 0.3825442737686699 -0.8636102771820291 -0.77483065881079938 0.03074035297605935 -0.86058155768983136 -0.87043245608946351 -0.70429167294212258 1.1628627108673248 -0.29391848186733166 -0.16941853347640573 1.1803317624291367 0.4038344784981508 0.20496727586621252 0.49482272529946564 -1.1114789977622952 0.55702920783102283 -0.89503411407230371 0.034084617130687431 -0.44590805159342539 0.33188415543910194 0.25780671396429727 -0.017996013985346785
decision_type=2 2 2 2 2 2 2 2 2 2 2 2 2 2 2 2 2 2 2 2 2 2 2 2 2 2 2 2 2 2
left_child=8 5 11 4 14 6 12 15 9 10 -1 23 13 -2 -4 -8 22 21 19 20 -19 -18 -5 -3 -7 27 -27 -26 29 -14
right_child=1 2 3 16 -6 24 7 -9 -10 -11 -12 -13 28 -15 -16 -17 17 18 -20 -21 -22 -23 -24 -25 25 26 -28 -29 -30 -31
leaf_value=-0.0012543242664209435 0.0031701844278723 0.001396889582315791 0.0031165782678382178 -0.0030684210075751736 0.0036002730764448645 0.00096658450763737944 0.0026136490150059006 -0.0030947656319899992 0.0044992771580815317 -0.0024634759153963795 0.0046872683634808033 0.0031156507146878894 -0.0011756471475222851 -0.0008163110854725043 -0.00051021239606131061 -0.00066963376519693575 -0.0051694231579701112 -0.0031567989455810355 0.0033301887319733699 0.00093684497723126243 0.00080705135228469017 -0.00073244947130265449 0.00057276157181031424 -0.0024067805058439261 -0.0015888533144063511 -0.00066175774143973623 -0.0035730026010714938 0.00062157373741134861 0 -0.0047936484290688648
leaf_weight=33 42 119 36 36 62 55 157 31 48 34 49 129 80 73 146 42 58 127 34 71 45 44 267 30 180 104 158 109 75 49
leaf_count=33 42 119 36 36 62 55 157 31 48 34 49 129 80 73 146 42 58 127 34 71 45 44 267 30 180 104 158 109 75 49
internal_value=-6.80893e-05 -0.000213195 0.000241367 -0.000219901 0.00111112 -0.000690961 4.47532e-06 0.00118094 0.00196643 0.000817493 0.00226368 0.00178627 -0.000830259 0.000626195 0.000206079 0.00189605 -0.00070527 -0.00136451 -0.000595051 -0.00118737 -0.00209365 -0.0033544 0.000106468 0.000576203 -0.00132715 -0.00156782 -0.0024501 -0.000739439 -0.00167368 -0.0026403
internal_weight=2523 2359 1204 926 244 1155 549 230 164 116 82 278 319 115 182 199 682 379 277 243 172 102 303 149 606 551 262 289 204 129
internal_count=2523 2359 1204 926 244 1155 549 230 164 116 82 278 319 115 182 199 682 379 277 243 172 102 303 149 606 551 262 289 204 129
is_linear=0
shrinkage=0.01


Tree=11
num_leaves=31
num_cat=0
split_feature=336 391 357 242 371 153 141 161 34 28 270 226 270 7 388 160 13 351 370 266 137 203 370 227 298 167 14 106 54 224
split_gain=7.30323 5.70285 4.98781 4.39045 8.33949 4.51275 4.1304 3.92806 4.98592 6.09852 4.22093 4.51013 4.43042 4.41157 3.83869 3.83019 3.65881 4.06331 4.17421 3.84676 3.50441 3.3781 3.4899 3.30943 3.20076 3.05685 3.47951 3.64649 4.00261 3.77728
threshold=-1.2903431908728835 -0.16667820447390144 -0.60829473645111576 -0.18286157669549058 -0.0043347571068774243 -0.80187782645054784 -0.81958951363875565 1.093520009743816 -0.97303628844462386 -0.26509221783342996 -0.0432451490745848 -0.70720163427629235 0.20054489619996249 0.2206915591055599 0.86211013628836908 -0.92886864688793436 -0.8482087845381957 -0.97960886796659075 -0.48926579808280707 -0.78617338238162326 -0.38707232517847506 0.58380020145031619 0.091316741057636833 -0.95562441440766455 -0.41083128036379563 -0.80132812131480391 -0.71658785130132296 -0.38176800574638864 0.44505185555688703 -0.43380681937690674
decision_type=2 2 2 2 2 2 2 2 2 2 2 2 2 2 2 2 2 2 2 2 2 2 2 2 2 2 2 2 2 2
left_child=3 7 6 5 -5 -1 -3 8 9 -2 11 13 -12 23 20 -14 -4 18 -18 24 -8 -13 -23 -10 -19 -21 -27 -28 29 -29
right_child=1 2 16 4 -6 -7 14 -9 10 -11 12 21 15 -15 -16 -17 17 19 -20 25 -22 22 -24 -25 -26 26 27 28 -30 -31
leaf_value=-0.0024905612660305839 0.0053396582929417496 0.0037125166435725988 -0.0017983005787418397 2.6338281431457119e-05 0.0063682907881175586 0.0022208502449211666 -0.0014590344913303851 -0.0021657281670290009 -0.00065472344402223832 -0.00024063830768379074 0.0016515018693086948 -0.0024222061073528134 -0.0036257480727767367 -0.0022732632504958734 -0.002089313965682921 -0.00019324549041805156 0.00022462328672409059 -0.0034184687231716354 -0.0038923232251292339 0.0028819910362100514 0.0019825543272916392 0.0012841936241214475 -0.0025786920107508959 0.0027682270974037238 0 0.0021497284116077367 -0.0025211245950777085 0.0036929880034316472 -0.0010137793264342085 0.00017398349550785497
leaf_weight=33 30 62 106 40 45 46 33 152 46 46 122 276 34 49 36 389 48 36 44 69 159 58 36 62 96 100 46 52 94 78
leaf_count=33 30 62 106 40 45 46 33 152 46 46 122 276 34 49 36 389 48 36 44 69 159 58 36 62 96 100 46 52 94 78
internal_value=-6.76695e-05 -0.000212077 0.000329217 0.00195691 0.00351053 0.000178163 0.00144292 -0.000656691 -0.000449122 0.00197844 -0.000629244 -0.00126561 -2.37602e-06 0.00012455 0.000777092 -0.000496673 -8.69427e-05 0.000183735 -0.00173208 0.000506107 0.00135631 -0.00186643 -0.000166028 0.00127945 -0.000961922 0.000961217 0.000576009 0 0.000513351 0.00165409
internal_weight=2523 2359 1059 164 85 79 290 1300 1148 76 1072 527 545 157 228 423 769 663 92 571 192 370 94 108 132 439 370 270 224 130
internal_count=2523 2359 1059 164 85 79 290 1300 1148 76 1072 527 545 157 228 423 769 663 92 571 192 370 94 108 132 439 370 270 224 130
is_linear=0
shrinkage=0.01


Tree=12
num_leaves=31
num_cat=0
split_feature=294 287 391 362 141 13 184 281 283 168 405 34 28 330 85 55 191 326 340 223 287 344 312 53 10 32 52 43 118 308
split_gain=6.06944 5.60455 5.21142 5.82155 5.27404 4.62485 5.11797 5.00334 4.50917 4.20186 4.76649 4.02426 6.14096 5.4236 3.88179 4.15392 4.72932 3.70234 3.59923 3.51495 3.50268 4.33102 4.48633 4.08729 3.58274 3.40815 3.79166 3.362 3.23287 4.51864
threshold=-1.4665656770363975 3.2239524483041966 -0.16667820447390144 2.0166662277930385 -0.90985317150339862 -0.83289783704014508 -1.1665484133114812 -1.085771701356067 1.6296176794846122 -0.89503158948229145 -0.92411710929715596 -0.97303628844462386 -0.26509221783342996 1.1650295013936869 -1.5803399126624191 -0.72257670466772117 0.21578045276087351 -0.045267828687529453 1.1824681136905093 -0.26318822036125106 0.12752119166317336 -0.12772116777726217 0.36141624835517905 -0.54238206961620827 0.502237028372717 -0.58555353072726302 0.83705908936522311 -0.10473460703949321 -0.45378010012757569 0.67354259469930844
decision_type=2 2 2 2 2 2 2 2 2 2 2 2 2 2 2 2 2 2 2 2 2 2 2 2 2 2 2 2 2 2
left_child=19 2 3 8 9 25 27 -8 11 -4 -11 12 -2 14 -13 16 -16 -12 28 -1 21 24 -23 -22 -9 -6 -27 -7 -17 -30
right_child=1 -3 4 -5 5 6 7 20 -10 10 17 13 -14 -15 15 18 -18 -19 -20 -21 23 22 -24 -25 -26 26 -28 -29 29 -31
leaf_value=0.0046800920258208015 0.0048701255429874765 0.0035932495158452257 0.0050554635120289675 -0.0041956144024928414 0.00066722957053925937 7.8025898763111663e-05 -0.002540905656616973 -0.00013002577528371944 0.0031709541292002544 0.0037873482721489534 -0.0023238186316771638 0.0021801337994635105 -0.00063940537758171558 -0.0027321480156203347 -0.00038921875559747959 -0.00024929914884901002 0.0030412278804233519 0.0016369625845239783 0.0016689295845571906 0.00044423610275692263 0.0036330755608726356 -0.0024085407683742234 0.00035249774326525984 0.00044215307290044922 0.0026026838627719396 -0.0040491797863992287 2.3610159528977945e-05 0.0044084140956599975 -0.0011846610038198861 -0.0039085795046761634
leaf_weight=39 31 37 33 43 39 33 67 127 30 41 43 48 48 124 119 285 57 47 46 44 56 126 103 148 72 65 31 45 423 73
leaf_count=39 31 37 33 43 39 33 67 127 30 41 43 48 48 124 119 285 57 47 46 44 56 126 103 148 72 65 31 45 423 73
internal_value=-6.67873e-05 -0.000160097 -0.000222908 -0.00064301 0.000290785 -2.15531e-06 0.000290359 8.93463e-06 -0.000513808 0.00193034 0.00104132 -0.00061085 0.0015277 -0.000761233 -0.000519203 -0.00065744 0.000715376 -0.000210442 -0.000956652 0.00255669 0.000294299 -0.000210362 -0.00115273 0.00136913 0.000849877 -0.00170189 -0.00270935 0.00268658 -0.00112155 -0.00160969
internal_weight=2523 2440 2403 1327 1076 912 777 699 1284 164 131 1254 79 1175 1051 1003 176 90 827 83 632 428 229 204 199 135 96 78 781 496
internal_count=2523 2440 2403 1327 1076 912 777 699 1284 164 131 1254 79 1175 1051 1003 176 90 827 83 632 428 229 204 199 135 96 78 781 496
is_linear=0
shrinkage=0.01


Tree=13
num_leaves=31
num_cat=0
split_feature=336 270 270 137 144 221 307 14 333 246 35 137 307 11 197 167 117 179 227 65 34 198 99 214 256 382 83 392 165 305
split_gain=7.19195 5.01659 8.49092 5.08864 5.34078 7.03732 4.48163 4.58644 4.22591 4.02588 4.89366 5.3896 6.30888 5.15079 3.96944 4.36371 3.80897 5.37975 3.73177 3.57278 3.57168 3.46632 3.37522 4.50661 5.92173 3.66644 3.59848 4.21534 3.29031 3.84705
threshold=-1.2903431908728835 -0.048921008866380532 0.20054489619996249 -0.041504239144963616 -0.11439248259288444 0.59790262994975396 -0.28892978274145681 -0.18147915081798829 0.03074035297605935 -0.5846437566309165 -0.74131594823759062 0.8843814456569975 -0.30499572807744318 0.22442846967668015 -0.86058155768983136 -0.87043245608946351 -0.41302806776266104 0.55072957541275647 0.75493648957169668 -0.11825883861489149 -0.39331971510368618 0.3014150740223413 -0.3900958787357236 -0.60772915081128809 -0.38608696060162928 -0.41076906576701872 -0.83601204894131242 -0.23836062025853622 0.50812959741300479 -0.59302246462782204
decision_type=2 2 2 2 2 2 2 2 2 2 2 2 2 2 2 2 2 2 2 2 2 2 2 2 2 2 2 2 2 2
left_child=6 3 8 4 14 28 18 -8 -3 20 13 16 -13 19 15 -2 17 -12 -1 -11 -4 -16 26 -24 25 -25 -5 -28 29 -6
right_child=1 2 9 22 5 -7 7 -9 -10 10 11 12 -14 -15 21 -17 -18 -19 -20 -21 -22 -23 23 24 -26 -27 27 -29 -30 -31
leaf_value=0.0020119118203098577 0.0031454448304562405 0.00056567814555759269 -0.00032739490617887445 0.0027571186291820864 2.5588374800707509e-05 -0.0030675917434873001 0.00034785852091671481 0.0051796503198382107 0.0030879605471739501 -0.0020474765753205558 0.0012141804306491002 0.0036431113164648054 -0.0011206167936325074 0.0030365455135082202 -0.00053194589108228687 -0.00079574739908178647 -0.001924014739434174 -0.0025204573825033287 -0.0023722389077439027 0.0014669339179440781 0.002975187142332341 -0.0032494324224675636 -0.0038859274422446658 0.0025754741640253496 -0.0020482312042984256 -0.0014532971022197525 0.00066275338083505639 -0.0025745425886801771 1.8106465094855853e-05 0.0038954123084066795
leaf_weight=43 42 149 57 32 39 31 34 55 129 59 109 50 56 70 123 73 349 57 32 52 67 81 84 53 247 35 83 72 68 92
leaf_count=43 42 149 57 32 39 31 34 55 129 59 109 50 56 70 123 73 349 57 32 52 67 81 84 53 247 35 83 72 68 92
internal_value=-6.54633e-05 -0.000208783 0.000239673 -0.000680193 8.67005e-06 0.00117351 0.00194363 0.00343696 0.00176764 -0.000216482 -0.000481177 -0.000906607 0.00110598 0.00094508 -0.000817687 0.000630073 -0.0013332 -5.31724e-05 6.33754e-05 -0.000360015 0.00143628 -0.00165629 -0.00131046 -0.00180836 -0.00125261 0.000920879 -0.000161059 -0.000822816 0.00188301 0.00279863
internal_weight=2523 2359 1204 1155 549 230 164 89 278 926 802 621 106 181 319 115 515 166 75 111 124 204 606 419 335 88 187 155 199 131
internal_count=2523 2359 1204 1155 549 230 164 89 278 926 802 621 106 181 319 115 515 166 75 111 124 204 606 419 335 88 187 155 199 131
is_linear=0
shrinkage=0.01


Tree=14
num_leaves=31
num_cat=0
split_feature=336 391 357 246 316 214 141 388 309 204 56 34 7 270 270 226 351 167 78 13 283 389 13 383 335 183 205 36 7 78
split_gain=7.12694 5.5571 4.91465 4.43527 5.62351 7.32738 4.05594 3.77068 3.90974 3.64812 3.59379 3.7181 6.52847 4.94633 5.51263 5.07587 3.58249 4.29546 4.7643 4.30321 4.62763 4.28254 4.17644 3.56022 4.61322 5.38178 4.45476 3.44723 3.2796 3.26622
threshold=-1.2903431908728835 -0.16667820447390144 -0.60829473645111576 0.3825442737686699 -0.8636102771820291 -0.77483065881079938 -0.81958951363875565 0.86211013628836908 0.51404156998954631 -0.22666850395806346 -1.2291700265202941 -0.97303628844462386 -0.24532163172683333 -0.0432451490745848 0.20054489619996249 -0.70052408526840093 -0.97960886796659075 -0.93029530676316308 0.83351312452919124 -0.83289783704014508 1.3641687318892142 -0.4766165358571664 -0.69158244802838353 -0.29128540818401616 -0.32809042721920351 0.83519103835838637 -0.47960445341239849 -0.68880367650860863 0.2206915591055599 -0.023891808242341005
decision_type=2 2 2 2 2 2 2 2 2 2 2 2 2 2 2 2 2 2 2 2 2 2 2 2 2 2 2 2 2 2
left_child=3 10 6 4 5 -1 -3 8 9 -8 -2 12 -12 15 -15 28 21 -18 19 -19 22 -4 -21 26 -25 -26 29 -24 -13 -16
right_child=1 2 16 -5 -6 -7 7 -9 -10 -11 11 13 -14 14 23 -17 17 18 -20 20 -22 -23 27 24 25 -27 -28 -29 -30 -31
leaf_value=-0.001256493930405538 -0.0036221969120670112 0.0036818017937184778 0.0012100604746603605 0.0044517810642719273 -0.0024644635801410507 0.0046348004795464812 -0.001371274493013819 -0.0020680199671340616 0.0039119234419954215 0.0017778338797633415 0.0048733242206713736 0.0011215788562706597 -0.00071676000952720649 0.0017691224573862328 0.00098394679041897385 -0.0019423083569854499 0.002529815866412329 -0.0027805432506969995 0.0019730299410529117 0.0025043198855073997 0.0032758432133374988 -0.0030216444050966866 -0.0029992335030840618 -0.0042883462532488413 0.00033371332540974702 -0.0026489083750335417 0.00200620469290345 -0.00032266034114225426 -0.0019772391865143972 -0.0027576530471845879
leaf_weight=33 38 62 31 48 34 49 58 36 44 90 32 109 50 127 39 413 68 68 92 41 35 77 57 41 169 90 96 300 47 49
leaf_count=33 38 62 31 48 34 49 58 36 44 90 32 109 50 127 39 413 68 68 92 41 35 77 57 41 169 90 96 300 47 49
internal_value=-6.46503e-05 -0.000207331 0.000326968 0.00193534 0.000793872 0.00223092 0.00143248 0.000772382 0.00134656 0.000508562 -0.000646253 -0.000547099 0.0014693 -0.000693701 -5.95548e-05 -0.00136331 -8.60833e-05 0.000184627 -8.34949e-05 -0.000477424 -9.31178e-05 -0.00176162 -0.000416781 -0.000554987 -0.00122859 -0.000695918 0.000517793 -0.000778268 0.000143105 -0.00105887
internal_weight=2523 2359 1059 164 116 82 290 228 192 148 1300 1262 82 1180 611 569 769 661 593 501 433 108 398 484 300 259 184 357 156 88
internal_count=2523 2359 1059 164 116 82 290 228 192 148 1300 1262 82 1180 611 569 769 661 593 501 433 108 398 484 300 259 184 357 156 88
is_linear=0
shrinkage=0.01


Tree=15
num_leaves=31
num_cat=0
split_feature=294 287 391 362 319 141 195 98 34 204 328 330 85 123 368 393 95 189 413 414 368 223 197 135 310 377 287 37 392 286
split_gain=5.93236 5.52878 5.08159 5.76858 5.62586 5.16884 4.33497 4.73626 4.59257 4.11455 4.15491 4.05766 4.20825 4.61232 4.53569 4.32349 3.90816 3.73217 4.99642 3.69202 3.53157 3.49563 3.47496 4.54059 3.61825 3.43953 3.97815 4.51991 3.35208 3.31293
threshold=-1.4665656770363975 3.2239524483041966 -0.16667820447390144 2.0166662277930385 1.6561392379295266 -0.90985317150339862 1.2782577211828228 -0.41735137280321832 -0.97303628844462386 -0.58490749017530785 -0.13244686173200534 1.1650295013936869 -1.5803399126624191 -0.26194018164485428 -1.1580952216147133 0.076733000322175907 -0.47126848281261702 -0.79712666520991959 0.33939956267232607 -0.63019429728651677 0.57248255733354025 -0.26318822036125106 -1.0032409039589536 0.1509756044060547 0.20716451299405556 -0.9614463394353373 0.12752119166317336 -0.60664188100649119 0.26809607262456497 -0.59683624311020667
decision_type=2 2 2 2 2 2 2 2 2 2 2 2 2 2 2 2 2 2 2 2 2 2 2 2 2 2 2 2 2 2
left_child=21 2 3 4 6 17 8 -8 16 20 25 12 -10 14 -14 -15 -2 -4 -19 -16 29 -1 -12 24 -24 -11 -27 -28 -29 -7
right_child=1 -3 5 -5 -6 9 7 -9 11 10 22 -13 13 15 19 -17 -18 18 -20 -21 -22 -23 23 -25 -26 26 27 28 -30 -31
leaf_value=0.0046466922687321182 -0.00071918670495506375 0.0035717389522454679 0.0045721564369230741 -0.0041696813313497443 0.0030338637701297984 -0.004201284689392815 0 -0.003901172108311631 0.0024852989668337007 0.003542996916672861 0.0022041197813665258 -0.0024633880105431913 -0.0045507522246667313 -0.00073757590415767318 0.0010504262093180682 0.0010672960595504389 0.0037424320156903977 -0.00044648964878126802 0.0036293234048492234 -0.0015491693848668365 0.000918975914025615 0.00042426593540965214 0.00093059005007023552 -0.0028252515181813433 -0.0023718063962524351 -2.4811466245145929e-05 0.0050019825813479918 0.002524462179704146 -0.0016186461027930766 -0.00097158916316749083
leaf_weight=39 30 37 39 43 41 45 51 77 46 47 37 104 40 304 66 232 45 81 44 248 56 44 117 85 44 246 37 42 32 124
leaf_count=39 30 37 39 43 41 45 51 77 46 47 37 104 40 304 66 232 45 81 44 248 56 44 117 85 44 246 37 42 32 124
internal_value=-6.39128e-05 -0.000156188 -0.00021859 -0.000633447 -0.000504833 0.00028863 -0.000630258 -0.00236755 -0.000422462 -1.31926e-06 0.000377902 -0.000599588 -0.000382358 -0.000541419 -0.00142414 3.54072e-05 0.00192052 0.00191174 0.000983388 -0.000983745 -0.00117436 0.00252977 -0.000537541 -0.000984515 0 0.00103097 0.00066843 0.0022223 0.00067161 -0.00189989
internal_weight=2523 2440 2403 1327 1284 1076 1243 128 1115 912 687 1040 936 890 354 536 75 164 125 314 225 83 283 246 161 404 357 111 74 169
internal_count=2523 2440 2403 1327 1284 1076 1243 128 1115 912 687 1040 936 890 354 536 75 164 125 314 225 83 283 246 161 404 357 111 74 169
is_linear=0
shrinkage=0.01


Tree=16
num_leaves=31
num_cat=0
split_feature=336 36 351 374 307 14 270 270 358 117 226 250 284 206 135 176 396 367 266 243 416 35 283 331 378 372 253 281 366 349
split_gain=7.00205 5.08175 4.58468 5.65133 4.43683 4.5767 4.38733 6.65462 5.56644 4.54681 3.9769 3.97859 4.28674 3.69333 3.6418 4.56194 4.00653 6.26822 3.64251 3.64046 4.16562 3.83443 4.00011 4.20586 3.8086 3.51085 3.45428 3.44241 4.52588 5.09396
threshold=-1.2903431908728835 1.6433494901686545 -1.7788744419996012 0.70470083597822686 -0.28892978274145681 -0.18147915081798829 -0.048921008866380532 0.18636629405289859 0.48673788807151147 1.8356570632357783 -0.71506286239643346 -0.3217626584846861 -0.321323791004476 0.89761273913103878 -0.39262525512640589 -1.0143631072103341 -0.66821078820699464 -1.1262239042984987 -0.25141324822665673 -0.15260355914192339 0.27421504411845216 -0.74131594823759062 1.6296176794846122 0.13059946027887109 -0.46720463877071078 -0.36526499050323236 -0.60762314854204524 0.045875311407495629 -0.18899184224419577 -0.014241680411702084
decision_type=2 2 2 2 2 2 2 2 2 2 2 2 2 2 2 2 2 2 2 2 2 2 2 2 2 2 2 2 2 2
left_child=4 2 3 -2 13 -6 8 27 9 10 11 12 -4 -1 -12 -16 17 -17 -18 20 -9 25 23 -23 -25 -21 -13 28 -8 -30
right_child=1 -3 6 -5 5 -7 7 19 -10 -11 14 26 -14 -15 15 16 18 -19 -20 21 -22 22 -24 24 -26 -27 -28 -29 29 -31
leaf_value=0.0019405552594537806 -5.9700903550880709e-05 0.0016667950321981849 0.0017594933224485277 -0.0057750905020272029 0.00032173497851343001 0.0051455019532065643 -0.001664436685818213 -0.00011893424148913997 -0.0022525849124101342 0.0032757738125369406 0.00013456655055747935 0.0046566228505210295 -0.0020044223226538703 -0.0024389138555323537 0.00047409947020011947 -0.0029406200111598562 -0.0040890146948326872 0.0026970037599889246 -0.0014953491087708114 -0.0011848222855478526 0.0027090026739751923 -0.00054217519530281081 0.001689754619282928 -0.00058206106628252508 -0.003819265537256119 0.0019595417317591216 0.00072298506871092973 0.0030840152029252359 0 0.0045018275064784424
leaf_weight=44 39 134 45 32 34 55 52 140 187 31 207 32 80 31 89 36 104 39 137 53 78 266 45 64 100 93 80 99 56 41
leaf_count=44 39 134 45 32 34 55 52 140 187 31 207 32 80 31 89 36 104 39 137 53 78 266 45 64 100 93 80 99 56 41
internal_value=-6.27538e-05 -0.000204198 -0.000320519 -0.00279179 0.00191962 0.00340523 -0.000234227 0.000209264 -0.000690255 -0.000348236 -0.000493824 0.000589722 -0.000603673 4.91089e-05 -0.00092213 -0.00147251 -0.00203602 0 -0.00265963 -0.000211704 0.000885598 -0.00060654 -0.00104584 -0.00135019 -0.00260832 0.000783725 0.00195272 0.00164373 0.000625469 0.00191238
internal_weight=2523 2359 2225 71 164 89 2154 1087 1067 880 849 237 125 75 612 405 316 75 241 839 218 621 475 430 164 146 112 248 149 97
internal_count=2523 2359 2225 71 164 89 2154 1087 1067 880 849 237 125 75 612 405 316 75 241 839 218 621 475 430 164 146 112 248 149 97
is_linear=0
shrinkage=0.01


Tree=17
num_leaves=31
num_cat=0
split_feature=336 270 270 243 334 76 13 373 140 326 246 316 214 383 333 231 21 416 44 1 411 207 291 284 288 231 353 138 120 74
split_gain=6.93709 4.82354 8.21409 5.7854 5.5244 5.55872 4.97992 4.42609 5.14913 4.4155 4.40953 5.53831 7.22321 4.22989 4.16929 4.12406 3.97616 3.97493 3.83162 5.3931 3.72421 3.60799 3.4998 3.43273 4.06765 3.65331 3.35619 3.31676 3.29557 3.8066
threshold=-1.2903431908728835 -0.048921008866380532 0.20054489619996249 -0.15260355914192339 -0.46986039316817912 -0.30519128976576532 -0.89875242789486887 -0.60848350525883677 -0.05277076944386707 -0.25162104740366797 0.3825442737686699 -0.8636102771820291 -0.77483065881079938 -1.0621043802077521 0.03074035297605935 -0.88181229702497677 -0.48382151145429303 0.27421504411845216 0.099601288949639127 -0.25252515486044397 0.077134096074742961 0.55702920783102283 -0.013001945572901056 0.083565380843005313 0.41581242793011569 -0.53655737923475411 0.93455514004440665 -0.80168725296847543 0.3061363298956466 0.0082100566019384213
decision_type=2 2 2 2 2 2 2 2 2 2 2 2 2 2 2 2 2 2 2 2 2 2 2 2 2 2 2 2 2 2
left_child=10 4 14 17 5 16 -7 8 -5 18 11 12 -1 -6 21 -8 -2 22 19 -9 -10 -3 -4 25 -25 -17 -19 -15 29 -29
right_child=1 2 3 7 13 6 15 9 20 -11 -12 -13 -14 27 -16 23 -18 26 -20 -21 -22 -23 -24 24 -26 -27 -28 28 -30 -31
leaf_value=-0.001261274170296799 0.00097084742285207751 0.0013558644070559419 -0.0027250775215881214 -0.00058671544350883266 0.0010490757340135483 -0.0026928880671039223 -0.0014676404828205705 -0.00033609486470619835 0.0046673189619238064 -0.0020663127577060583 0.0044196547098457814 -0.0024596736221832948 0.0045874091955449654 0.0007130954136966535 0.0030509492040092824 0.0055212068053462158 -0.0017547896045979131 0.0042351901470765209 -0.0015324727334082129 0.0042902210646787202 0 -0.002393884935299866 0.00088505077801401852 -0.0019544467462862774 0.0023398807672585578 0.0017895696688266028 0.00037470767108930484 -0.0013649852795607524 -0.00072186712479875006 -0.0036668743951776567
leaf_weight=33 70 119 33 138 63 30 38 73 39 268 48 34 49 51 129 39 191 55 98 35 31 30 113 39 45 103 43 163 174 149
leaf_count=33 70 119 33 138 63 30 38 73 39 268 48 34 49 51 129 39 191 55 98 35 31 30 113 39 45 103 43 163 174 149
internal_value=-6.20219e-05 -0.000202818 0.000236872 -0.000211705 -0.0006651 4.57181e-05 0.000994048 -0.000688791 0.000507084 -0.00122399 0.00191113 0.000773432 0.00220016 -0.00132888 0.00173975 0.00144891 -0.00100294 0.00109622 -9.47895e-05 0.00116846 0.00268927 0.000546061 9.48058e-06 0.00196981 0.000288861 0.00291163 0.00263268 -0.00161999 -0.00187699 -0.00249656
internal_weight=2523 2359 1204 926 1155 555 294 682 208 474 164 116 82 600 278 264 261 244 206 108 70 149 146 226 84 142 98 537 486 312
internal_count=2523 2359 1204 926 1155 555 294 682 208 474 164 116 82 600 278 264 261 244 206 108 70 149 146 226 84 142 98 537 486 312
is_linear=0
shrinkage=0.01


Tree=18
num_leaves=31
num_cat=0
split_feature=357 121 157 334 148 36 387 418 257 287 283 20 300 116 2 186 278 34 281 262 197 43 270 393 379 397 307 402 396 62
split_gain=6.60797 6.78128 5.95411 5.86837 5.52902 5.01157 4.70106 5.28063 6.13266 6.12104 5.8582 5.76327 4.21941 3.88011 3.79231 6.14212 5.13911 4.56291 4.22031 3.5211 3.16962 3.68497 3.41093 3.79793 3.39604 4.01353 3.3343 4.80528 3.29095 3.67248
threshold=-1.1834003691593284 0.43733568431443243 -0.9086857368769643 -0.54046156367292186 -1.6848391485381111 1.6433494901686545 2.0709913987966488 -0.89803745202507979 1.2750982146248686 1.2036501719548078 1.6296176794846122 -0.67390464259969329 -0.18878972662929924 2.2561441362942372 1.0009597822500413 -0.99587945548429191 -0.22939058467300449 -0.95805586168429069 -1.1143592643958165 1.3880342602321549 -1.0246080522412382 -0.85244765294672964 -0.27561101767448465 0.49232806289863656 1.4556207717735872 0.98557092862477524 -0.75921016017634935 -0.17779149891078211 0.02466774620614182 0.27142343277213965
decision_type=2 2 2 2 2 2 2 2 2 2 2 2 2 2 2 2 2 2 2 2 2 2 2 2 2 2 2 2 2 2
left_child=1 2 -1 -4 -2 6 7 11 10 -10 13 -6 -7 14 17 -16 -17 -9 -19 20 21 -20 23 -22 25 26 27 -24 29 -28
right_child=4 -3 3 -5 5 12 -8 8 9 -11 -12 -13 -14 -15 15 16 -18 18 19 -21 22 -23 24 -25 -26 -27 28 -29 -30 -31
leaf_value=-0.0026960043957903208 0.0025615323534694274 0.0036865841433569623 0.0041837424346142342 -0.001101241884998193 -0.0020992407790170267 -0.0012578766531235464 -0.0041874000159176908 0.0018010521519008552 -0.0044827220690902324 0.00043771668563823439 0.0030528915170183841 0.0015522026001380859 0.0026546149840103272 0.0029089684580685571 0.0020088098011910916 -0.0013167862306593112 -0.0052544174557340078 -0.0024290144430926522 -0.0011034777468523465 -0.0027932932035162534 -0.0020332723350793874 0.0027444510684082554 -0.0045233713619803129 0.00027489065265684737 -0.0017711771614849568 0.0025263618944741007 0.0016550833715621668 0 -0.00074940237603885558 -0.00064243623339571066
leaf_weight=46 67 89 43 36 50 35 31 85 73 35 45 236 96 30 30 101 53 109 35 56 216 68 36 100 98 65 212 61 188 98
leaf_count=46 67 89 43 36 50 35 31 85 73 35 45 236 96 30 30 101 53 109 35 56 216 68 36 100 98 65 212 61 188 98
internal_value=-6.1181e-05 0.00160876 5.52205e-05 0.00174594 -0.000219374 -0.000306916 -0.000427038 -0.000364624 -0.0005676 -0.00286371 -0.000414337 0.000886332 0.0015685 -0.000516061 -0.000586469 -0.00193731 -0.00275399 -0.000406322 -0.000552326 -0.000378709 -0.000255042 0.00139317 -0.000420053 -0.00128998 -4.8372e-05 0.000204464 -4.84276e-05 -0.00173201 0.000275116 0.000913283
internal_weight=2523 214 125 79 2309 2242 2111 2080 1794 108 1686 286 131 1641 1611 184 154 1427 1342 1233 1177 103 1074 316 758 660 595 97 498 310
internal_count=2523 214 125 79 2309 2242 2111 2080 1794 108 1686 286 131 1641 1611 184 154 1427 1342 1233 1177 103 1074 316 758 660 595 97 498 310
is_linear=0
shrinkage=0.01


Tree=19
num_leaves=31
num_cat=0
split_feature=336 351 270 270 334 242 392 298 76 166 395 307 307 14 80 157 76 120 177 122 116 389 257 77 361 372 373 326 330 257
split_gain=6.811 4.80159 5.16983 6.87663 5.71002 5.43089 5.4292 5.27005 5.258 4.95861 4.80905 4.56639 4.41729 4.52702 4.32954 4.23469 4.45457 4.25532 3.87566 3.80848 3.88887 3.78754 3.67983 3.64846 3.51616 3.50335 3.50114 3.81229 3.77317 3.59755
threshold=-1.2903431908728835 -1.7788744419996012 -0.048921008866380532 0.20054489619996249 -0.47714194617858757 -0.15824677833434911 0.38384708157562414 -0.63078095925263544 -0.32430179156982625 0.15111345723198497 0.73243792465224666 -0.019154385018558668 -0.28892978274145681 -0.18147915081798829 0.30612780600027384 0.94822237832125966 -0.33137946261173618 0.3061363298956466 -0.12899847080770374 -0.8773837367329842 -0.96111047617346312 -0.13211912230271838 0.54985199454688238 -0.042206135914796376 -0.50196975704022995 -0.75092288648797179 -0.60848350525883677 -0.25162104740366797 -0.34713949662601434 0.16149586848838035
decision_type=2 2 2 2 2 2 2 2 2 2 2 2 2 2 2 2 2 2 2 2 2 2 2 2 2 2 2 2 2 2
left_child=12 10 4 -4 8 6 14 9 19 -6 -2 -10 22 -14 18 16 21 -17 -5 -3 -21 -9 -1 24 -13 -18 28 -28 -7 -30
right_child=1 2 3 5 7 26 -8 15 11 -11 -12 23 13 -15 -16 17 25 -19 -20 20 -22 -23 -24 -25 -26 -27 27 -29 29 -31
leaf_value=0.0021673680374983744 -0.00014783569272946228 -0.0038484993616217061 0.0017368977501764078 -0.0022020516967001772 -0.0052149926669274775 -0.0015628868766648116 0.0037398130795548833 -0.00077420324113013019 0.0020928840200020666 -0.00041943175415508447 -0.0051948243252148757 0.0033321861558194671 0.00030965124282778965 0.005106870883650947 0.0032908402660273405 -0.003893932822075757 0.001767037371173501 -0.00042400952378908793 0.0010608295209051388 -0.0034125297223883016 0.00021939418036595913 0.0023868872801669767 -0.0021487417351454497 -0.0023513298816978932 -0.0011960283480584621 -0.0017970640347534401 0 -0.0018544224494982026 0.00044498629800370361 0.0041443878627615048
leaf_weight=39 42 36 272 68 58 59 61 61 172 38 36 33 34 55 36 75 30 73 72 33 175 88 36 53 30 165 192 252 115 34
leaf_count=39 42 36 272 68 58 59 61 61 172 38 36 33 34 55 36 75 30 73 72 33 175 88 36 53 30 165 192 252 115 34
internal_value=-6.08497e-05 -0.000200379 -0.000113529 0.000351075 -0.000599364 -7.02696e-05 0.00121346 -0.00127768 0.000142965 -0.00341507 -0.00261135 0.00106273 0.00189427 0.00337625 0.000277583 -0.000838366 -0.000209594 -0.00224422 -0.000497481 -0.000922149 -0.000360027 0.00106652 2.87e-05 -0.000431945 0.00112852 -0.00121099 -0.000546832 -0.00105057 0.000504406 0.00136597
internal_weight=2523 2359 2281 1161 1120 889 237 588 532 96 78 288 164 89 176 492 344 148 140 244 208 149 75 116 63 195 652 444 208 149
internal_count=2523 2359 2281 1161 1120 889 237 588 532 96 78 288 164 89 176 492 344 148 140 244 208 149 75 116 63 195 652 444 208 149
is_linear=0
shrinkage=0.01


Tree=20
num_leaves=31
num_cat=0
split_feature=336 391 242 308 153 336 141 56 34 28 270 270 160 226 139 203 287 346 285 51 66 78 13 289 7 376 220 13 116 348
split_gain=6.74777 5.37911 4.40044 4.98156 4.35145 4.13995 4.46263 3.54041 3.56427 6.55649 4.70473 5.24051 5.11063 4.95688 3.7503 3.68898 3.49252 3.48106 4.97836 3.42013 3.87707 3.46382 3.41073 3.24578 3.20608 3.20345 4.14675 3.07552 3.55927 4.39207
threshold=-1.2903431908728835 -0.16667820447390144 -0.18286157669549058 0.43257715943862468 -0.80187782645054784 -0.68899825228679956 -0.81958951363875565 -1.2291700265202941 -0.97303628844462386 -0.26509221783342996 -0.0432451490745848 0.20054489619996249 -0.91412627188284967 -0.70052408526840093 -0.012666309082697785 0.58380020145031619 -0.33769363546135339 0.64785375006623813 -0.12189963820805148 0.92316547124307802 -0.23799014843246311 -0.35374409724409511 -0.4724625760070274 0.71604046617456796 0.2206915591055599 -0.25535993385486833 -0.55260492852574095 -0.8482087845381957 0.090722290316506957 -0.52574309015430476
decision_type=2 2 2 2 2 2 2 2 2 2 2 2 2 2 2 2 2 2 2 2 2 2 2 2 2 2 2 2 2 2
left_child=2 7 4 -4 -1 6 -3 -2 9 -9 13 -12 -13 24 19 17 -17 18 22 20 -14 -22 -15 -18 -10 26 -8 -7 29 -29
right_child=1 5 3 -5 -6 27 25 8 10 -11 11 12 14 15 -16 16 23 -19 -20 -21 21 -23 -24 -25 -26 -27 -28 28 -30 -31
leaf_value=-0.0025114303907113416 -0.0035845087738707662 0.0040268252827916984 0.0013899155637149567 0.006558197976061793 0.0021180709697364362 -0.0015640462163902886 0 0.0050243487302213908 0.0011263332211387319 -0.00064288482932304896 0.0017251315153052295 -0.0037979849703101949 0.0014127873837796235 -0.00064838406909257173 0.0011444488236271918 -0.0026398197152629134 0.0030602117725893069 -0.0047091242869695031 -0.0004298095102971933 -0.002981389608544608 0.00099299194633352514 -0.0021279668743659002 -0.004468650793479312 -0.0010486754261561343 -0.0019366820316229548 -0.00051301093958318236 0.0042329119640505978 -0.0022350263796191701 0.0010026833277273302 0.00019479526553277222
leaf_weight=33 38 52 54 31 46 109 51 30 109 52 127 42 84 38 137 39 36 58 125 58 47 116 82 35 47 98 43 97 322 287
leaf_count=33 38 52 54 31 46 109 51 30 109 52 127 42 84 38 137 39 36 58 125 58 47 116 82 35 47 98 43 97 322 287
internal_value=-6.03315e-05 -0.000199221 0.00188568 0.00343972 0.000108239 0.000326419 0.00146358 -0.000631099 -0.000532682 0.00144123 -0.000676289 -5.76152e-05 -0.000540864 -0.00132934 -0.000204389 -0.00190164 -0.000274514 -0.00247028 -0.00188619 -0.000830056 -0.000284915 -0.00119663 -0.00333034 0.000992973 0.000159023 0.000709243 0.00201973 -1.06628e-05 0.000225844 -0.000414435
internal_weight=2523 2359 164 85 79 1059 244 1300 1262 82 1180 611 484 569 442 413 110 303 245 305 247 163 120 71 156 192 94 815 706 384
internal_count=2523 2359 164 85 79 1059 244 1300 1262 82 1180 611 484 569 442 413 110 303 245 305 247 163 120 71 156 192 94 815 706 384
is_linear=0
shrinkage=0.01


Tree=21
num_leaves=31
num_cat=0
split_feature=336 391 357 307 163 217 257 352 145 30 242 202 115 406 403 270 359 121 247 13 305 307 91 57 53 412 346 347 331 137
split_gain=6.68376 5.32198 4.7364 4.37891 4.61684 3.99963 3.62975 3.57301 3.65248 6.00537 6.01917 4.69848 4.62659 4.26188 3.90199 4.86947 3.78611 4.04427 3.67548 3.44696 3.79677 4.36525 3.63857 4.47544 3.33503 3.79403 3.32702 3.22784 3.18669 3.5997
threshold=-1.2903431908728835 -0.16667820447390144 -0.60829473645111576 -0.28892978274145681 -0.15042148375440448 -1.0874384293617949 0.54985199454688238 -1.0198369519648174 -0.057841419130054077 -0.59341540190833963 1.210825545171526 -0.88583479724098579 1.3650786471995422 1.2241482646631667 -0.91721245041516541 -0.40878439344484979 -0.12872538545062587 -0.17818124190067916 -0.72177141178758897 -0.8482087845381957 -0.35097138352675644 0.43579923843699181 0.81022929826437307 1.0380532089896881 0.99285412207713997 0.24630800229614888 0.54641357318153172 -0.88337647038080713 -1.1675442499181712 -0.18333225185556559
decision_type=2 2 2 2 2 2 2 2 2 2 2 2 2 2 2 2 2 2 2 2 2 2 2 2 2 2 2 2 2 2
left_child=3 7 5 6 -5 -3 -1 28 9 -9 13 -10 14 16 -13 18 -11 -18 -16 -4 22 27 23 -21 25 -7 -23 -22 29 -2
right_child=1 2 19 4 -6 24 -8 8 11 10 -12 12 -14 -15 15 -17 17 -19 -20 20 21 26 -24 -25 -26 -27 -28 -29 -30 -31
leaf_value=0.0021444598811383294 0.0014097979100188241 -0.001443091535531893 -0.0017420148086320195 0.00012280303135733394 0.0050148235899159467 0.0029312262705099758 -0.0021426596232738933 -0.0034203452987111166 -0.0027847865696601342 -0.0013794497980721173 -0.003855267696339509 0.0026321808148877346 -0.002152041035393874 0.0029328123033046721 0.00093583258072612804 0.00072243888056038226 -0.0011366472938486064 0.0028326766930942267 -0.0030724936700426042 0.0025357508728917266 -0.0020580455855707881 -0.0040789810212671146 -0.0011806852716420378 -0.0014602899263528261 -0.0007986141981458977 -0.00056134296270708239 -0.00026246782958361448 0.00060313804916356279 0.0018740040236618369 -0.0031801999131483693
leaf_weight=39 30 39 106 32 57 181 36 117 64 246 56 67 79 33 30 280 46 51 70 156 52 47 47 31 36 34 49 281 98 33
leaf_count=39 30 39 106 32 57 181 36 117 64 246 56 67 79 33 30 280 46 51 70 156 52 47 47 31 36 34 49 281 98 33
internal_value=-5.99322e-05 -0.00019817 0.000324654 0.00187682 0.0033522 0.0014099 1.95038e-05 -0.000627756 -0.000826946 -0.00141472 -0.000846746 -0.000268642 3.74243e-05 -0.000367414 0.000443375 3.26044e-05 -0.000714582 0.000914877 -0.0018262 -8.07191e-05 0.000181809 -0.000368219 0.00120596 0.00183841 0.00188086 0.00235579 -0.0022271 0.000162847 0.000743601 -0.000941438
internal_weight=2523 2359 1059 164 89 290 75 1300 1139 549 432 590 526 376 447 380 343 97 100 769 663 429 234 187 251 215 96 333 161 63
internal_count=2523 2359 1059 164 89 290 75 1300 1139 549 432 590 526 376 447 380 343 97 100 769 663 429 234 187 251 215 96 333 161 63
is_linear=0
shrinkage=0.01


Tree=22
num_leaves=31
num_cat=0
split_feature=336 391 246 316 84 336 141 167 77 287 112 195 145 23 180 361 270 140 287 246 135 292 294 315 308 328 13 117 329 76
split_gain=6.60901 5.24766 4.38449 5.44282 5.74434 4.03698 4.42393 3.68374 3.53942 5.04267 4.86202 3.85201 5.1594 5.3568 4.36628 5.61656 4.45808 4.09778 3.57721 3.52499 5.91058 5.52889 3.46865 4.301 3.46486 3.41079 3.40889 4.0275 4.74679 4.53941
threshold=-1.2903431908728835 -0.16667820447390144 0.3825442737686699 -0.8636102771820291 -1.2192596972417964 -0.68899825228679956 -0.81958951363875565 -1.1400486921947885 1.5064006495398268 1.6152421159293111 0.43847313099438096 1.2782577211828228 -0.0047831322771230119 0.23470912906673996 0.20540058186074286 -0.99657375877342236 -0.27561101767448465 -0.66619890347097244 -0.18885717692819481 0.77197963102243439 1.0315093447216184 -0.26606444373710775 -0.99544733740023494 -1.0999044039579293 -0.84319321095183986 -0.35500116729757203 -0.85764061222063825 0.098550918021175701 0.12816115895048372 -0.27035483579587338
decision_type=2 2 2 2 2 2 2 2 2 2 2 2 2 2 2 2 2 2 2 2 2 2 2 2 2 2 2 2 2 2
left_child=2 8 3 4 -1 6 -3 -7 9 11 -10 12 13 19 15 -14 18 -16 -17 20 21 -2 23 -8 -23 -24 -9 28 -28 -29
right_child=1 5 -4 -5 -6 7 22 26 10 -11 -12 -13 14 -15 17 16 -18 -19 -20 -21 -22 24 25 -25 -26 -27 27 29 -30 -31
leaf_value=0.0047734422720636114 -0.0021921007184972684 0.0039966666977852587 0.0043662264347076422 -0.0024718343344930973 -0.00034142136700790032 0.002797254616902633 0.0011803302662195387 -0.0018822158179611116 -0.00041167574172670189 0.0022817425939830995 -0.0047096869258248077 -0.0022205874586698452 0.0028062326278613537 -0.0024258040054827125 0.004752414856810828 -0.0037349910895064682 0.00026124053945144016 0.000780916282523389 0 -0.0024534643338276793 0.0022773906118753883 0.0036530551034957173 0.0036231334276611584 -0.0037349856738001109 -0.00020593124040980127 0.00022320293035213049 6.5270573742950302e-05 -0.00029149726516897639 -0.0024536099467082945 0.002086214229322808
leaf_weight=40 122 52 48 34 42 42 35 100 64 61 47 131 47 183 35 69 139 106 38 63 88 30 51 31 77 75 260 153 101 159
leaf_count=40 122 52 48 34 42 42 35 100 64 61 47 131 47 183 35 69 139 106 38 63 88 30 51 31 77 75 260 153 101 159
internal_value=-5.96834e-05 -0.000197157 0.00186619 0.000732847 0.00214836 0.00032198 0.00144492 -1.0807e-05 -0.00062374 -0.000456896 -0.00232695 -0.000613198 -0.000392968 -0.00102562 0.000417201 -0.000265351 -0.000890258 0.00185439 -0.00240935 -0.000329061 9.02002e-05 -0.000741088 0.000693971 -0.0010968 0.000877332 0.00167354 -0.000176656 7.41889e-05 -0.000635319 0.000909868
internal_weight=2523 2359 164 116 82 1059 244 815 1300 1189 111 1128 997 563 434 293 246 141 107 380 317 229 192 66 107 126 773 673 361 312
internal_count=2523 2359 164 116 82 1059 244 815 1300 1189 111 1128 997 563 434 293 246 141 107 380 317 229 192 66 107 126 773 673 361 312
is_linear=0
shrinkage=0.01


Tree=23
num_leaves=31
num_cat=0
split_feature=336 351 270 270 334 242 392 298 395 250 242 373 148 80 78 305 333 31 116 114 180 331 289 373 160 140 410 327 275 130
split_gain=6.53669 4.74342 5.0226 6.70711 5.57855 5.33951 5.35217 5.20447 4.77614 4.53281 4.34139 5.67998 5.53968 4.2753 3.80447 4.68682 3.77392 3.56059 3.4466 4.25958 4.16041 5.94756 4.7591 3.44416 5.94208 5.05645 3.68011 3.56726 3.9432 4.41356
threshold=-1.2903431908728835 -1.7788744419996012 -0.048921008866380532 0.20054489619996249 -0.47714194617858757 -0.15824677833434911 0.38384708157562414 -0.63078095925263544 0.73243792465224666 0.97473999087817875 -0.18286157669549058 0.087528058630785124 -0.88339554619726013 0.30612780600027384 0.7227559364347278 -0.80384018256537682 0.03074035297605935 -0.52900959383400359 -0.96111047617346312 0.92087418858595982 -0.39637333729065966 0.063078404717542003 0.70321231147600127 -0.60848350525883677 -0.81544535397024043 -0.05277076944386707 0.062344353848434876 -0.24876179418135921 -0.45594182152962875 -0.083612322107129725
decision_type=2 2 2 2 2 2 2 2 2 2 2 2 2 2 2 2 2 2 2 2 2 2 2 2 2 2 2 2 2 2
left_child=10 8 4 16 14 6 13 -6 -2 -9 12 -12 -1 17 18 -16 -4 -5 -3 20 21 -20 -22 25 -25 -7 -27 28 -26 -30
right_child=1 2 3 5 7 23 -8 9 -10 -11 11 -13 -14 -15 15 -17 -18 -19 19 -21 22 -23 -24 24 27 26 -28 -29 29 -31
leaf_value=-0.0027995893369532295 -0.0001372236487540332 -0.0028367788794430647 0.00057486680764454927 0.0016534292460324204 -0.0033826589825734195 -0.00058123325200618383 0.0037137424718174674 -0.00048184685738694467 -0.0051663158579092275 -0.0036620640992095659 0.00046698668650129718 0.0057691717397500867 0.0024078059281678276 0.0032703057547884165 -0.0011164639648553487 0.0031432377766888544 0.0029908814142626805 -0.0016440404417547767 -0.0029167564311848139 0.0027243659212527905 0.0015964494927424883 0.001142406537425968 -0.0023095300076529384 -0.00401199806134327 0.0036064120585268195 0.0046311953091403334 0 -0.0014210897515802563 -0.0029612284774581596 0.00088651124044496687
leaf_weight=34 42 45 147 47 96 138 61 443 36 49 40 45 45 36 35 77 125 93 105 49 132 51 38 57 31 39 31 217 40 99
leaf_count=34 42 45 147 47 96 138 61 443 36 49 40 45 45 36 35 77 125 93 105 49 132 51 38 57 31 39 31 217 40 99
internal_value=-5.8992e-05 -0.000195723 -0.000109393 0.000348518 -0.000588297 -6.75318e-05 0.00120532 -0.00125879 -0.00259197 -0.000822241 0.0018563 0.00339959 9.11316e-05 0.000275875 0.000145353 0.00177199 0.00171714 -0.000494125 -0.000282911 2.37143e-05 -0.000381105 -0.00156041 0.000677576 -0.000540126 -0.0010398 0.000502412 0.00266499 -0.0005708 0.000489405 -0.000211588
internal_weight=2523 2359 2281 1161 1120 889 237 588 78 492 164 85 79 176 532 112 272 140 420 375 326 156 170 652 444 208 70 387 170 139
internal_count=2523 2359 2281 1161 1120 889 237 588 78 492 164 85 79 176 532 112 272 140 420 375 326 156 170 652 444 208 70 387 170 139
is_linear=0
shrinkage=0.01


Tree=24
num_leaves=31
num_cat=0
split_feature=336 391 357 246 163 217 56 34 7 270 270 160 226 139 203 346 285 287 351 389 167 78 13 283 13 267 13 289 53 412
split_gain=6.46865 5.16391 4.60348 4.31891 5.0402 3.93836 3.49105 3.51393 6.28225 4.55444 5.1058 5.0285 4.85116 3.67974 3.6305 3.44565 4.90598 3.43921 3.40301 4.20123 4.09261 4.62776 4.09275 4.47581 4.10308 4.09213 3.36458 3.33278 3.26681 3.73357
threshold=-1.2903431908728835 -0.16667820447390144 -0.60829473645111576 0.3825442737686699 -0.17045946840813062 -1.0874384293617949 -1.2291700265202941 -0.97303628844462386 -0.24532163172683333 -0.0432451490745848 0.20054489619996249 -0.91412627188284967 -0.70052408526840093 -0.012666309082697785 0.58380020145031619 0.64785375006623813 -0.12189963820805148 -0.33769363546135339 -0.97960886796659075 -0.4766165358571664 -0.93029530676316308 0.83351312452919124 -0.83289783704014508 1.3641687318892142 -0.69158244802838353 0.74370684486445537 -0.4724625760070274 -0.33294757199392916 0.99285412207713997 0.24630800229614888
decision_type=2 2 2 2 2 2 2 2 2 2 2 2 2 2 2 2 2 2 2 2 2 2 2 2 2 2 2 2 2 2
left_child=3 6 5 4 -1 -3 -2 8 -8 12 -11 -12 -9 -13 15 16 26 -16 19 -4 -20 22 -22 24 -24 -26 -14 -6 29 -7
right_child=1 2 18 -5 27 28 7 9 -10 10 11 13 14 -15 17 -17 -18 -19 20 -21 21 -23 23 -25 25 -27 -28 -29 -30 -31
leaf_value=-0.0020756872583510035 -0.0035501961775589734 -0.0014402904502320579 0.0012296625500488462 0.0043279840081930157 0.0046594235571947966 0.0028989033134513577 0.0047795861696495728 0.00016696344115005077 -0.00070286032654201763 0.0017057838487301686 -0.0037616497257047079 -0.00081703886801546817 -0.00062501172721385963 0.0011388802785667585 -0.0026055860655700286 -0.004661967449511091 -0.00040906788531954835 0.00099994441902596649 0.0024735919730072575 -0.0029613214369297405 -0.002711549180626337 0.0019497837623620921 0.0024863739956040368 0.0032227060692133131 -0.0012341785678903474 0.0016622427562986942 -0.0044182086457675773 0.00034384160748838133 -0.00079312040274472616 -0.00056486129243340762
leaf_weight=39 38 39 31 48 31 181 32 156 50 127 42 305 38 137 39 58 125 71 68 77 68 92 41 35 302 55 82 46 36 34
leaf_count=39 38 39 31 48 31 181 32 156 50 127 42 305 38 137 39 58 125 71 68 77 68 92 41 35 302 55 82 46 36 34
internal_value=-5.85315e-05 -0.000194559 0.000320398 0.00184676 0.000721714 0.00139032 -0.000617739 -0.000520007 0.00143997 -0.000662644 -5.38223e-05 -0.000530945 -0.00130517 -0.000197132 -0.0018714 -0.00243541 -0.00185458 -0.000257438 -7.91584e-05 -0.00171241 0.000184516 -7.70034e-05 -0.000465401 -9.03178e-05 -0.000408821 -0.000767249 -0.00328795 0.00221855 0.00185781 0.00232795
internal_weight=2523 2359 1059 164 116 290 1300 1262 82 1180 611 484 569 442 413 303 245 110 769 108 661 593 501 433 398 357 120 77 251 215
internal_count=2523 2359 1059 164 116 290 1300 1262 82 1180 611 484 569 442 413 303 245 110 769 108 661 593 501 433 398 357 120 77 251 215
is_linear=0
shrinkage=0.01


end of trees

feature_importances:
Column_270=32
Column_336=24
Column_13=18
Column_34=17
Column_246=16
Column_391=14
Column_141=12
Column_307=11
Column_7=10
Column_287=10
Column_316=10
Column_351=10
Column_116=9
Column_357=9
Column_167=8
Column_214=8
Column_226=8
Column_36=7
Column_56=7
Column_242=7
Column_247=7
Column_392=7
Column_78=6
Column_137=6
Column_160=6
Column_204=6
Column_289=6
Column_334=6
Column_76=5
Column_144=5
Column_148=5
Column_161=5
Column_243=5
Column_257=5
Column_266=5
Column_281=5
Column_283=5
Column_298=5
Column_309=5
Column_330=5
Column_333=5
Column_370=5
Column_388=5
Column_14=4
Column_28=4
Column_35=4
Column_53=4
Column_77=4
Column_121=4
Column_135=4
Column_139=4
Column_197=4
Column_203=4
Column_250=4
Column_284=4
Column_300=4
Column_308=4
Column_328=4
Column_371=4
Column_373=4
Column_389=4
Column_55=3
Column_57=3
Column_74=3
Column_80=3
Column_85=3
Column_98=3
Column_99=3
Column_117=3
Column_120=3
Column_123=3
Column_140=3
Column_145=3
Column_157=3
Column_163=3
Column_180=3
Column_184=3
Column_202=3
Column_227=3
Column_285=3
Column_288=3
Column_294=3
Column_305=3
Column_319=3
Column_326=3
Column_329=3
Column_331=3
Column_346=3
Column_349=3
Column_361=3
Column_393=3
Column_396=3
Column_410=3
Column_412=3
Column_414=3
Column_1=2
Column_19=2
Column_20=2
Column_31=2
Column_43=2
Column_52=2
Column_62=2
Column_65=2
Column_72=2
Column_84=2
Column_95=2
Column_118=2
Column_138=2
Column_153=2
Column_165=2
Column_166=2
Column_181=2
Column_183=2
Column_195=2
Column_205=2
Column_207=2
Column_217=2
Column_221=2
Column_223=2
Column_231=2
Column_235=2
Column_248=2
Column_265=2
Column_278=2
Column_286=2
Column_310=2
Column_321=2
Column_323=2
Column_327=2
Column_340=2
Column_347=2
Column_348=2
Column_352=2
Column_353=2
Column_362=2
Column_366=2
Column_368=2
Column_372=2
Column_374=2
Column_383=2
Column_394=2
Column_395=2
Column_416=2
Column_2=1
Column_10=1
Column_11=1
Column_15=1
Column_16=1
Column_21=1
Column_22=1
Column_23=1
Column_25=1
Column_27=1
Column_30=1
Column_32=1
Column_37=1
Column_39=1
Column_44=1
Column_51=1
Column_54=1
Column_61=1
Column_66=1
Column_69=1
Column_75=1
Column_79=1
Column_83=1
Column_91=1
Column_94=1
Column_96=1
Column_100=1
Column_103=1
Column_106=1
Column_111=1
Column_112=1
Column_114=1
Column_115=1
Column_122=1
Column_124=1
Column_127=1
Column_130=1
Column_151=1
Column_162=1
Column_168=1
Column_169=1
Column_175=1
Column_176=1
Column_177=1
Column_179=1
Column_186=1
Column_189=1
Column_191=1
Column_198=1
Column_199=1
Column_200=1
Column_206=1
Column_209=1
Column_220=1
Column_222=1
Column_224=1
Column_230=1
Column_232=1
Column_236=1
Column_244=1
Column_252=1
Column_253=1
Column_256=1
Column_262=1
Column_263=1
Column_264=1
Column_267=1
Column_269=1
Column_273=1
Column_274=1
Column_275=1
Column_280=1
Column_291=1
Column_292=1
Column_302=1
Column_304=1
Column_306=1
Column_312=1
Column_315=1
Column_324=1
Column_335=1
Column_344=1
Column_345=1
Column_350=1
Column_354=1
Column_356=1
Column_358=1
Column_359=1
Column_367=1
Column_376=1
Column_377=1
Column_378=1
Column_379=1
Column_382=1
Column_384=1
Column_387=1
Column_397=1
Column_398=1
Column_399=1
Column_400=1
Column_402=1
Column_403=1
Column_405=1
Column_406=1
Column_411=1
Column_413=1
Column_417=1
Column_418=1

parameters:
[boosting: gbdt]
[objective: huber]
[metric: huber]
[tree_learner: serial]
[device_type: cpu]
[data_sample_strategy: bagging]
[data: ]
[valid: ]
[num_iterations: 500]
[learning_rate: 0.01]
[num_leaves: 31]
[num_threads: 16]
[seed: 42]
[deterministic: 0]
[force_col_wise: 0]
[force_row_wise: 0]
[histogram_pool_size: -1]
[max_depth: -1]
[min_data_in_leaf: 30]
[min_sum_hessian_in_leaf: 0.001]
[bagging_fraction: 0.8]
[pos_bagging_fraction: 1]
[neg_bagging_fraction: 1]
[bagging_freq: 0]
[bagging_seed: 400]
[bagging_by_query: 0]
[feature_fraction: 0.7]
[feature_fraction_bynode: 1]
[feature_fraction_seed: 30056]
[extra_trees: 0]
[extra_seed: 12879]
[early_stopping_round: 0]
[early_stopping_min_delta: 0]
[first_metric_only: 0]
[max_delta_step: 0]
[lambda_l1: 0.5]
[lambda_l2: 2]
[linear_lambda: 0]
[min_gain_to_split: 0]
[drop_rate: 0.1]
[max_drop: 50]
[skip_drop: 0.5]
[xgboost_dart_mode: 0]
[uniform_drop: 0]
[drop_seed: 17869]
[top_rate: 0.2]
[other_rate: 0.1]
[min_data_per_group: 100]
[max_cat_threshold: 32]
[cat_l2: 10]
[cat_smooth: 10]
[max_cat_to_onehot: 4]
[top_k: 20]
[monotone_constraints: ]
[monotone_constraints_method: basic]
[monotone_penalty: 0]
[feature_contri: ]
[forcedsplits_filename: ]
[refit_decay_rate: 0.9]
[cegb_tradeoff: 1]
[cegb_penalty_split: 0]
[cegb_penalty_feature_lazy: ]
[cegb_penalty_feature_coupled: ]
[path_smooth: 0]
[interaction_constraints: ]
[verbosity: -1]
[saved_feature_importance_type: 0]
[use_quantized_grad: 0]
[num_grad_quant_bins: 4]
[quant_train_renew_leaf: 0]
[stochastic_rounding: 1]
[linear_tree: 0]
[max_bin: 255]
[max_bin_by_feature: ]
[min_data_in_bin: 3]
[bin_construct_sample_cnt: 200000]
[data_random_seed: 175]
