{"learner":{"attributes":{"best_iteration":"0","best_score":"0.23915678924984402","scikit_learn":"{\"_estimator_type\": \"regressor\"}"},"feature_names":[],"feature_types":[],"gradient_booster":{"model":{"gbtree_model_param":{"num_parallel_tree":"1","num_trees":"51"},"iteration_indptr":[0,1,2,3,4,5,6,7,8,9,10,11,12,13,14,15,16,17,18,19,20,21,22,23,24,25,26,27,28,29,30,31,32,33,34,35,36,37,38,39,40,41,42,43,44,45,46,47,48,49,50,51],"tree_info":[0,0,0,0,0,0,0,0,0,0,0,0,0,0,0,0,0,0,0,0,0,0,0,0,0,0,0,0,0,0,0,0,0,0,0,0,0,0,0,0,0,0,0,0,0,0,0,0,0,0,0],"trees":[{"base_weights":[1.2085442E-2,3.527227E-1,-1.4681359E-2,1.2277138E-1,9.777848E-1,4.813186E-1,-2.8910674E-2,-3.7853622E-1,3.2905248E-1,1.7932452E-3,1.5046473E0,1.135833E-2,1.7888092E-1,-5.7476693E-1,-1.5817838E-2,7.145853E-4,-1.3199945E-2,6.1982237E-3,-9.013437E-4,4.3635056E-3,2.0507932E-2,-2.3392802E-3,5.994178E-3,-1.3498615E-2,-1.990446E-3,-8.3794247E-4,6.76621E-4],"categories":[],"categories_nodes":[],"categories_segments":[],"categories_sizes":[],"default_left":[0,0,0,0,0,0,0,0,0,0,0,0,0,0,0,0,0,0,0,0,0,0,0,0,0,0,0],"id":0,"left_children":[1,3,5,7,9,11,13,15,17,-1,19,-1,21,23,25,-1,-1,-1,-1,-1,-1,-1,-1,-1,-1,-1,-1],"loss_changes":[1.1438418E1,1.2846648E1,8.163057E0,7.280823E0,9.627598E0,5.945849E0,7.998354E0,8.980438E0,6.1798277E0,0E0,6.769951E0,0E0,4.402258E0,7.081353E0,6.2782993E0,0E0,0E0,0E0,0E0,0E0,0E0,0E0,0E0,0E0,0E0,0E0,0E0],"parents":[2147483647,0,0,1,1,2,2,3,3,4,4,5,5,6,6,7,7,8,8,10,10,12,12,13,13,14,14],"right_children":[2,4,6,8,10,12,14,16,18,-1,20,-1,22,24,26,-1,-1,-1,-1,-1,-1,-1,-1,-1,-1,-1,-1],"split_conditions":[-1.1604917E0,9.084309E-1,-1.655307E0,-9.77825E-1,3.501462E-1,-7.448205E-1,-1.7905141E0,-1.3922404E0,-7.877562E-1,1.7932452E-3,-6.300804E-1,1.135833E-2,-1.0211908E-1,-2.2744165E-1,-1.657377E-1,7.145853E-4,-1.3199945E-2,6.1982237E-3,-9.013437E-4,4.3635056E-3,2.0507932E-2,-2.3392802E-3,5.994178E-3,-1.3498615E-2,-1.990446E-3,-8.3794247E-4,6.76621E-4],"split_indices":[357,142,148,166,352,36,351,145,316,0,307,0,349,195,391,0,0,0,0,0,0,0,0,0,0,0,0],"split_type":[0,0,0,0,0,0,0,0,0,0,0,0,0,0,0,0,0,0,0,0,0,0,0,0,0,0,0],"sum_hessian":[1.2484597E3,8.98965E1,1.1585632E3,6.714824E1,2.2748262E1,3.0740944E1,1.1278223E3,1.906903E1,4.807921E1,9.91795E0,1.2830312E1,8.304624E0,2.243632E1,2.4731916E1,1.1030905E3,1.3768123E1,5.300907E0,2.8104837E1,1.9974373E1,5.3151274E0,7.5151844E0,1.1538083E1,1.0898237E1,6.7179456E0,1.8013971E1,6.0866016E2,4.9443027E2],"tree_param":{"num_deleted":"0","num_feature":"420","num_nodes":"27","size_leaf_vector":"1"}},{"base_weights":[-1.6112508E-2,9.306292E-1,-2.5495285E-2,1.4919917E-2,9.913322E-4,-3.3443306E-2,7.117436E-1,-6.941952E-3,-2.5189248E-1,-5.2313745E-4,1.2210522E-2,-3.991194E-4,1.9662036E-3,-4.9278704E-3,-2.703804E-4],"categories":[],"categories_nodes":[],"categories_segments":[],"categories_sizes":[],"default_left":[0,0,0,0,0,0,0,0,0,0,0,0,0,0,0],"id":1,"left_children":[1,3,5,-1,-1,7,9,11,13,-1,-1,-1,-1,-1,-1],"loss_changes":[1.1128276E1,5.3555307E0,7.281492E0,0E0,0E0,7.1292543E0,5.3670955E0,7.409452E0,7.1492567E0,0E0,0E0,0E0,0E0,0E0,0E0],"parents":[2147483647,0,0,1,1,2,2,5,5,6,6,7,7,8,8],"right_children":[2,4,6,-1,-1,8,10,12,14,-1,-1,-1,-1,-1,-1],"split_conditions":[-1.701977E0,7.5402245E-2,3.5326633E0,1.4919917E-2,9.913322E-4,1.2339338E0,-1.0711561E0,8.371885E-1,-6.1032183E-2,-5.2313745E-4,1.2210522E-2,-3.991194E-4,1.9662036E-3,-4.9278704E-3,-2.703804E-4],"split_indices":[336,158,287,0,0,112,84,25,200,0,0,0,0,0,0],"split_type":[0,0,0,0,0,0,0,0,0,0,0,0,0,0,0],"sum_hessian":[1.2574346E3,1.0789764E1,1.2466448E3,5.6580777E0,5.131687E0,1.2348992E3,1.1745599E1,1.1030831E3,1.3181607E2,5.15769E0,6.5879087E0,9.507861E2,1.5229701E2,6.2560585E1,6.9255486E1],"tree_param":{"num_deleted":"0","num_feature":"420","num_nodes":"15","size_leaf_vector":"1"}},{"base_weights":[1.065212E-2,3.9943486E-1,-1.6953753E-2,1.65762E-2,2.8332004E-1,-4.44949E-3,-5.526023E-1,4.1057226E-1,-6.2660896E-3,-6.7823805E-2,7.5304925E-2,-1.4316101E-2,1.5168844E-2,7.678291E-3,1.0682504E-3,6.71683E-3,-7.925442E-4,3.2718142E-3,2.6449148E-4,-3.803827E-3,5.459332E-3],"categories":[],"categories_nodes":[],"categories_segments":[],"categories_sizes":[],"default_left":[0,0,0,0,0,0,0,0,0,0,0,0,0,0,0,0,0,0,0,0,0],"id":2,"left_children":[1,3,5,-1,7,9,11,13,-1,15,17,-1,19,-1,-1,-1,-1,-1,-1,-1,-1],"loss_changes":[1.3497562E1,1.1282742E1,7.785327E0,0E0,9.421089E0,5.800243E0,1.3411138E1,7.344718E0,0E0,5.4320226E0,6.1970615E0,0E0,4.0082655E0,0E0,0E0,0E0,0E0,0E0,0E0,0E0,0E0],"parents":[2147483647,0,0,1,1,2,2,4,4,5,5,6,6,7,7,9,9,10,10,12,12],"right_children":[2,4,6,-1,8,10,12,14,-1,16,18,-1,20,-1,-1,-1,-1,-1,-1,-1,-1],"split_conditions":[-1.1604917E0,-1.6066682E0,2.2291381E0,1.65762E-2,2.9082087E-1,-1.657377E-1,1.1070055E0,-4.9743766E-1,-6.2660896E-3,-1.8484082E0,-8.127736E-1,-1.4316101E-2,3.9214724E-1,7.678291E-3,1.0682504E-3,6.71683E-3,-7.925442E-4,3.2718142E-3,2.6449148E-4,-3.803827E-3,5.459332E-3],"split_indices":[357,53,249,0,3,391,397,354,0,393,141,0,162,0,0,0,0,0,0,0,0],"split_type":[0,0,0,0,0,0,0,0,0,0,0,0,0,0,0,0,0,0,0,0,0],"sum_hessian":[1.2516023E3,8.187983E1,1.1697224E3,5.162777E0,7.671706E1,1.1446996E3,2.5022896E1,6.812321E1,8.593851E0,6.38675E2,5.0602454E2,8.993441E0,1.6029455E1,3.009983E1,3.8023373E1,8.269761E0,6.304052E2,8.0485985E1,4.2553854E2,9.320185E0,6.70927E0],"tree_param":{"num_deleted":"0","num_feature":"420","num_nodes":"21","size_leaf_vector":"1"}},{"base_weights":[-1.0688271E-4,6.2270355E-1,-1.2637654E-2,1.2953207E-2,1.269703E-1,-6.826986E-2,9.407506E-2,-3.8944222E-3,8.479177E-3,-7.325694E-3,-1.9223017E-1,4.207681E-1,4.688415E-2,1.0466061E-3,-1.1436547E-3,6.8380404E-3,-2.341993E-3,1.1566826E-2,1.9891164E-3,-2.5516283E-3,1.0657785E-3],"categories":[],"categories_nodes":[],"categories_segments":[],"categories_sizes":[],"default_left":[0,0,0,0,0,0,0,0,0,0,0,0,0,0,0,0,0,0,0,0,0],"id":3,"left_children":[1,3,5,-1,7,9,11,-1,-1,13,15,17,19,-1,-1,-1,-1,-1,-1,-1,-1],"loss_changes":[9.5766735E0,7.6798916E0,7.194624E0,0E0,6.378864E0,6.0013323E0,6.3201222E0,0E0,0E0,6.451358E0,9.83509E0,7.9949007E0,6.597747E0,0E0,0E0,0E0,0E0,0E0,0E0,0E0,0E0],"parents":[2147483647,0,0,1,1,2,2,4,4,5,5,6,6,9,9,10,10,11,11,12,12],"right_children":[2,4,6,-1,8,10,12,-1,-1,14,16,18,20,-1,-1,-1,-1,-1,-1,-1,-1],"split_conditions":[-1.5343963E0,-1.161006E0,8.502327E-3,1.2953207E-2,7.2366005E-1,2.3213504E-1,-9.6373785E-1,-3.8944222E-3,8.479177E-3,-2.795599E-1,-1.7917159E0,-8.851482E-1,-9.183647E-1,1.0466061E-3,-1.1436547E-3,6.8380404E-3,-2.341993E-3,1.1566826E-2,1.9891164E-3,-2.5516283E-3,1.0657785E-3],"split_indices":[336,61,391,0,67,7,137,0,0,373,410,231,200,0,0,0,0,0,0,0,0],"split_type":[0,0,0,0,0,0,0,0,0,0,0,0,0,0,0,0,0,0,0,0,0],"sum_hessian":[1.2319075E3,2.2698816E1,1.2092087E3,8.518999E0,1.4179816E1,7.958093E2,4.1339935E2,8.582919E0,5.596898E0,5.351179E2,2.606914E2,5.041223E1,3.6298712E2,2.6107608E2,2.7404187E2,1.0760569E1,2.4993085E2,1.0108932E1,4.03033E1,5.8812416E1,3.041747E2],"tree_param":{"num_deleted":"0","num_feature":"420","num_nodes":"21","size_leaf_vector":"1"}},{"base_weights":[-6.0026427E-3,-8.800475E-2,1.01099014E-1,1.16839865E-2,-2.0464745E-1,4.2101964E-1,4.7881093E-2,-9.904727E-3,2.9625423E-2,-2.2923315E-1,7.7838735E-3,1.3266526E0,2.4392259E-1,2.1748567E-1,-5.9662912E-2,-6.1664027E-3,5.4446113E-4,-1.6584946E-3,-6.3800607E-3,4.073694E-3,1.8917087E-2,6.591759E-3,8.0347183E-4,9.881182E-4,6.1614704E-3,-2.9512052E-4,-1.0201835E-2],"categories":[],"categories_nodes":[],"categories_segments":[],"categories_sizes":[],"default_left":[0,0,0,0,0,0,0,0,0,0,0,0,0,0,0,0,0,0,0,0,0,0,0,0,0,0,0],"id":4,"left_children":[1,3,5,7,9,11,13,-1,15,17,-1,19,21,23,25,-1,-1,-1,-1,-1,-1,-1,-1,-1,-1,-1,-1],"loss_changes":[1.1151439E1,8.391316E0,9.289846E0,6.942174E0,8.241135E0,1.186861E1,8.674899E0,0E0,6.1491604E0,8.190203E0,0E0,5.0183487E0,4.4096613E0,8.565241E0,8.268183E0,0E0,0E0,0E0,0E0,0E0,0E0,0E0,0E0,0E0,0E0,0E0,0E0],"parents":[2147483647,0,0,1,1,2,2,3,3,4,4,5,5,6,6,8,8,9,9,11,11,12,12,13,13,14,14],"right_children":[2,4,6,8,10,12,14,-1,16,18,-1,20,22,24,26,-1,-1,-1,-1,-1,-1,-1,-1,-1,-1,-1,-1],"split_conditions":[-1.4752917E-1,7.509292E-2,-9.6373993E-1,-2.0178015E0,2.5209255E0,-8.693667E-1,-2.0661202E-1,-9.904727E-3,-1.2327671E0,1.0083361E0,7.7838735E-3,-4.1089857E-1,-8.558606E-1,3.749704E-1,2.0086436E0,-6.1664027E-3,5.4446113E-4,-1.6584946E-3,-6.3800607E-3,4.073694E-3,1.8917087E-2,6.591759E-3,8.0347183E-4,9.881182E-4,6.1614704E-3,-2.9512052E-4,-1.0201835E-2],"split_indices":[391,1,138,65,36,84,330,0,56,266,0,240,409,404,282,0,0,0,0,0,0,0,0,0,0,0,0],"split_type":[0,0,0,0,0,0,0,0,0,0,0,0,0,0,0,0,0,0,0,0,0,0,0,0,0,0,0],"sum_hessian":[1.2668546E3,7.1818176E2,5.4867285E2,3.8749847E2,3.306833E2,7.650651E1,4.7216635E2,5.287219E0,3.8221124E2,3.2383612E2,6.847196E0,1.0828872E1,6.567764E1,1.8298396E2,2.8918237E2,1.2664564E1,3.695467E2,2.8240073E2,4.1435383E1,5.172374E0,5.6564975E0,1.7103237E1,4.85744E1,1.4264417E2,4.03398E1,2.8198114E2,7.2012243E0],"tree_param":{"num_deleted":"0","num_feature":"420","num_nodes":"27","size_leaf_vector":"1"}},{"base_weights":[6.135849E-3,6.3086855E-1,-1.1280436E-2,8.912931E-1,-3.465512E-3,-5.2033156E-2,1.5534602E-1,3.5404228E-4,1.4340665E0,-3.8108032E-2,-6.4426094E-1,4.0639493E-1,6.1171092E-2,1.3923382E-3,1.9652277E-2,-4.7000076E-4,6.6693733E-3,6.1544956E-4,-1.2213515E-2,-2.9287753E-3,5.122817E-3,8.848263E-3,9.867958E-5],"categories":[],"categories_nodes":[],"categories_segments":[],"categories_sizes":[],"default_left":[0,0,0,0,0,0,0,0,0,0,0,0,0,0,0,0,0,0,0,0,0,0,0],"id":5,"left_children":[1,3,5,7,-1,9,11,-1,13,15,17,19,21,-1,-1,-1,-1,-1,-1,-1,-1,-1,-1],"loss_changes":[1.3747781E1,9.241047E0,8.31386E0,1.2580414E1,0E0,8.019194E0,5.6005874E0,0E0,1.0903297E1,6.0302734E0,9.341237E0,5.062456E0,7.3727794E0,0E0,0E0,0E0,0E0,0E0,0E0,0E0,0E0,0E0,0E0],"parents":[2147483647,0,0,1,1,2,2,3,3,5,5,6,6,8,8,9,9,10,10,11,11,12,12],"right_children":[2,4,6,8,-1,10,12,-1,14,16,18,20,22,-1,-1,-1,-1,-1,-1,-1,-1,-1,-1],"split_conditions":[-1.441866E0,2.2933862E0,4.805778E-1,-4.737048E-1,-3.465512E-3,2.899392E0,-5.447564E-1,3.5404228E-4,-4.1967338E-1,3.5326633E0,-1.1775552E0,-1.085795E0,-1.546154E0,1.3923382E-3,1.9652277E-2,-4.7000076E-4,6.6693733E-3,6.1544956E-4,-1.2213515E-2,-2.9287753E-3,5.122817E-3,8.848263E-3,9.867958E-5],"split_indices":[294,240,391,240,0,152,53,0,368,287,418,302,153,0,0,0,0,0,0,0,0,0,0],"split_type":[0,0,0,0,0,0,0,0,0,0,0,0,0,0,0,0,0,0,0,0,0,0,0],"sum_hessian":[1.2553464E3,3.2770107E1,1.2225763E3,2.6060904E1,6.709205E0,9.8363513E2,2.3894116E2,1.0804918E1,1.5255986E1,9.6276294E2,2.0872187E1,6.3535404E1,1.7540575E2,5.043271E0,1.0212715E1,9.5229443E2,1.0468511E1,9.913864E0,1.09583235E1,7.883003E0,5.56524E1,8.741651E0,1.6666411E2],"tree_param":{"num_deleted":"0","num_feature":"420","num_nodes":"23","size_leaf_vector":"1"}},{"base_weights":[-7.685713E-3,1.5564986E-1,-5.8547772E-2,1.0603736E-1,6.070199E-1,-8.367129E-2,1.5890786E-1,1.3892812E-1,-7.528706E-3,1.023933E0,-3.987331E-3,-7.284181E-2,-7.2281325E-1,5.440057E-1,3.1779796E-2,6.785598E-4,4.653426E-3,1.295587E-3,1.8759578E-2,1.9739817E-3,-9.806445E-4,5.6906464E-4,-1.5097586E-2,8.164689E-3,1.4068022E-3,9.6375326E-4,-6.4427354E-3],"categories":[],"categories_nodes":[],"categories_segments":[],"categories_sizes":[],"default_left":[0,0,0,0,0,0,0,0,0,0,0,0,0,0,0,0,0,0,0,0,0,0,0,0,0,0,0],"id":6,"left_children":[1,3,5,7,9,11,13,15,-1,17,-1,19,21,23,25,-1,-1,-1,-1,-1,-1,-1,-1,-1,-1,-1,-1],"loss_changes":[1.06452465E1,6.6420546E0,5.3571806E0,7.8926096E0,1.3085772E1,5.921261E0,4.8820353E0,6.098121E0,0E0,1.5753792E1,0E0,5.918981E0,9.056704E0,2.4666047E0,3.4464686E0,0E0,0E0,0E0,0E0,0E0,0E0,0E0,0E0,0E0,0E0,0E0,0E0],"parents":[2147483647,0,0,1,1,2,2,3,3,4,4,5,5,6,6,7,7,9,9,11,11,12,12,13,13,14,14],"right_children":[2,4,6,8,10,12,14,16,-1,18,-1,20,22,24,26,-1,-1,-1,-1,-1,-1,-1,-1,-1,-1,-1,-1],"split_conditions":[-7.574838E-1,1.4222373E0,1.2452049E0,1.3964022E0,3.319933E-1,2.343494E0,-7.653565E-1,4.0757143E-1,-7.528706E-3,-7.641683E-1,-3.987331E-3,-8.982656E-1,-8.536303E-1,9.891264E-1,1.6499541E0,6.785598E-4,4.653426E-3,1.295587E-3,1.8759578E-2,1.9739817E-3,-9.806445E-4,5.6906464E-4,-1.5097586E-2,8.164689E-3,1.4068022E-3,9.6375326E-4,-6.4427354E-3],"split_indices":[336,392,36,73,160,124,387,349,0,74,0,34,389,291,387,0,0,0,0,0,0,0,0,0,0,0,0],"split_type":[0,0,0,0,0,0,0,0,0,0,0,0,0,0,0,0,0,0,0,0,0,0,0,0,0,0,0],"sum_hessian":[1.2794125E3,3.0260077E2,9.7681165E2,2.7450266E2,2.8098122E1,8.768844E2,9.992723E1,2.6570175E2,8.800897E0,1.9915073E1,8.183049E0,8.6407117E2,1.2813217E1,2.338468E1,7.654255E1,2.1993271E2,4.5769047E1,1.0616422E1,9.298651E0,7.255029E1,7.915209E2,7.071301E0,5.741916E0,1.2891487E1,1.0493194E1,7.117592E1,5.366632E0],"tree_param":{"num_deleted":"0","num_feature":"420","num_nodes":"27","size_leaf_vector":"1"}},{"base_weights":[-5.103031E-3,6.2105423E-1,-1.8869834E-2,1.6390795E-2,2.6031005E-1,-2.7411904E-2,6.8734854E-1,-2.4126968E-3,6.40911E-1,-8.396799E-3,-4.2679718E-1,-3.528795E-4,1.253723E-2,3.1168968E-4,1.1093306E-2,9.879264E-5,-2.7125105E-3,-1.5001408E-2,-2.564967E-3],"categories":[],"categories_nodes":[],"categories_segments":[],"categories_sizes":[],"default_left":[0,0,0,0,0,0,0,0,0,0,0,0,0,0,0,0,0,0,0],"id":7,"left_children":[1,3,5,-1,7,9,11,-1,13,15,17,-1,-1,-1,-1,-1,-1,-1,-1],"loss_changes":[1.0705816E1,8.980179E0,7.332145E0,0E0,4.3914185E0,9.130124E0,6.130126E0,0E0,3.4879136E0,5.5811214E0,9.238736E0,0E0,0E0,0E0,0E0,0E0,0E0,0E0,0E0],"parents":[2147483647,0,0,1,1,2,2,4,4,5,5,6,6,8,8,9,9,10,10],"right_children":[2,4,6,-1,8,10,12,-1,14,16,18,-1,-1,-1,-1,-1,-1,-1,-1],"split_conditions":[-1.5343963E0,-9.3747157E-1,3.5326633E0,1.6390795E-2,-9.6459377E-1,1.7009406E0,-1.1585958E0,-2.4126968E-3,-3.309767E-1,1.5144175E0,-2.0063355E0,-3.528795E-4,1.253723E-2,3.1168968E-4,1.1093306E-2,9.879264E-5,-2.7125105E-3,-1.5001408E-2,-2.564967E-3],"split_indices":[336,8,287,0,127,394,393,0,206,69,351,0,0,0,0,0,0,0,0],"split_type":[0,0,0,0,0,0,0,0,0,0,0,0,0,0,0,0,0,0,0],"sum_hessian":[1.245394E3,2.5212618E1,1.2201814E3,5.1334195E0,2.0079199E1,1.2071636E3,1.3017882E1,8.786362E0,1.1292837E1,1.1540023E3,5.316121E1,6.260324E0,6.757559E0,5.694109E0,5.598728E0,1.0799756E3,7.4026726E1,5.595346E0,4.756586E1],"tree_param":{"num_deleted":"0","num_feature":"420","num_nodes":"19","size_leaf_vector":"1"}},{"base_weights":[-1.3633275E-2,-2.733326E-2,7.3119956E-1,4.525669E-1,-3.846514E-2,5.2890505E-6,1.3468162E0,1.3646454E-2,1.2738334E-1,-2.1867411E-2,-3.7361726E-1,1.9328006E-2,4.5609996E-3,-2.5853403E-3,7.440832E-3,-4.0741428E-4,3.2632847E-3,-5.7264767E-3,3.4190826E-3],"categories":[],"categories_nodes":[],"categories_segments":[],"categories_sizes":[],"default_left":[0,0,0,0,0,0,0,0,0,0,0,0,0,0,0,0,0,0,0],"id":8,"left_children":[1,3,5,7,9,-1,11,-1,13,15,17,-1,-1,-1,-1,-1,-1,-1,-1],"loss_changes":[1.2851036E1,6.6202774E0,1.0092828E1,7.9162693E0,6.7099276E0,0E0,4.841322E0,0E0,5.6753173E0,7.615101E0,8.4312E0,0E0,0E0,0E0,0E0,0E0,0E0,0E0,0E0],"parents":[2147483647,0,0,1,1,2,2,3,3,4,4,6,6,8,8,9,9,10,10],"right_children":[2,4,6,8,10,-1,12,-1,14,16,18,-1,-1,-1,-1,-1,-1,-1,-1],"split_conditions":[3.1801019E0,-1.4803718E0,-1.07316874E-1,-7.297663E-1,1.8021526E0,5.2890505E-6,7.295385E-1,1.3646454E-2,-1.0930159E0,1.6607441E0,1.2971858E0,1.9328006E-2,4.5609996E-3,-2.5853403E-3,7.440832E-3,-4.0741428E-4,3.2632847E-3,-5.7264767E-3,3.4190826E-3],"split_indices":[287,273,119,117,394,0,38,0,232,312,81,0,0,0,0,0,0,0,0],"split_type":[0,0,0,0,0,0,0,0,0,0,0,0,0,0,0,0,0,0,0],"sum_hessian":[1.2618472E3,1.2406074E3,2.1239733E1,2.6572893E1,1.2140345E3,1.04730625E1,1.076667E1,5.643004E0,2.092989E1,1.1585557E3,5.547887E1,5.367995E0,5.398676E0,1.3309873E1,7.6200156E0,1.1005138E3,5.804185E1,4.3748955E1,1.1729918E1],"tree_param":{"num_deleted":"0","num_feature":"420","num_nodes":"19","size_leaf_vector":"1"}},{"base_weights":[-2.0661983E-3,-1.4725054E-2,9.1942817E-1,3.6474648E-1,-4.0789153E-2,1.769348E-2,1.5093834E-3,1.563754E-1,1.0372943E0,-2.372263E-2,-3.907543E-1,2.556269E-3,-6.6771447E-3,3.156512E-3,1.797006E-2,9.025439E-3,-3.146732E-4,-1.4098675E-3,-1.2511543E-2],"categories":[],"categories_nodes":[],"categories_segments":[],"categories_sizes":[],"default_left":[0,0,0,0,0,0,0,0,0,0,0,0,0,0,0,0,0,0,0],"id":9,"left_children":[1,3,5,7,9,-1,-1,11,13,15,17,-1,-1,-1,-1,-1,-1,-1,-1],"loss_changes":[1.4672424E1,1.2336147E1,1.0539012E1,1.0867024E1,6.9305944E0,0E0,0E0,5.372448E0,9.121229E0,7.9693956E0,1.120462E1,0E0,0E0,0E0,0E0,0E0,0E0,0E0,0E0],"parents":[2147483647,0,0,1,1,2,2,3,3,4,4,7,7,8,8,9,9,10,10],"right_children":[2,4,6,8,10,-1,-1,12,14,16,18,-1,-1,-1,-1,-1,-1,-1,-1],"split_conditions":[3.1801019E0,-1.2051812E0,7.116984E-2,1.6363288E-1,1.5441093E0,1.769348E-2,1.5093834E-3,1.7111745E0,7.829646E-2,-1.6300089E0,6.494733E-1,2.556269E-3,-6.6771447E-3,3.156512E-3,1.797006E-2,9.025439E-3,-3.146732E-4,-1.4098675E-3,-1.2511543E-2],"split_indices":[287,149,183,408,135,0,0,347,394,252,332,0,0,0,0,0,0,0,0],"split_type":[0,0,0,0,0,0,0,0,0,0,0,0,0,0,0,0,0,0,0],"sum_hessian":[1.2623239E3,1.246781E3,1.5542869E1,7.86323E1,1.1681487E3,6.3909955E0,9.151874E0,6.1557728E1,1.7074572E1,1.1156309E3,5.251782E1,5.5972572E1,5.585153E0,9.913087E0,7.1614857E0,7.7065644E0,1.1079243E3,4.214536E1,1.0372458E1],"tree_param":{"num_deleted":"0","num_feature":"420","num_nodes":"19","size_leaf_vector":"1"}},{"base_weights":[1.1345228E-3,2.7913946E-1,-2.2755396E-2,1.1675541E-1,9.9957436E-1,-6.2543553E-1,-1.40116075E-2,-3.2095574E-2,6.463584E-1,1.7384855E-2,4.7980478E-1,-1.0927171E-5,-1.0789601E-2,-8.550718E-2,5.4585528E-2,7.583302E-3,-1.6216014E-3,1.7842656E-2,6.589869E-5,9.666365E-3,-1.2165819E-3,-6.582102E-4,-7.702091E-3,1.2998736E-3,-8.295966E-4],"categories":[],"categories_nodes":[],"categories_segments":[],"categories_sizes":[],"default_left":[0,0,0,0,0,0,0,0,0,0,0,0,0,0,0,0,0,0,0,0,0,0,0,0,0],"id":10,"left_children":[1,3,5,7,9,11,13,15,17,-1,19,-1,-1,21,23,-1,-1,-1,-1,-1,-1,-1,-1,-1,-1],"loss_changes":[8.299544E0,1.1284954E1,5.966934E0,6.598659E0,5.3949413E0,4.478488E0,5.5630083E0,6.8798294E0,1.3144218E1,0E0,3.9647036E0,0E0,0E0,7.3307457E0,6.01573E0,0E0,0E0,0E0,0E0,0E0,0E0,0E0,0E0,0E0,0E0],"parents":[2147483647,0,0,1,1,2,2,3,3,4,4,5,5,6,6,7,7,8,8,10,10,13,13,14,14],"right_children":[2,4,6,8,10,12,14,16,18,-1,20,-1,-1,22,24,-1,-1,-1,-1,-1,-1,-1,-1,-1,-1],"split_conditions":[-1.1604917E0,-1.1409383E0,-1.318264E0,7.381919E-1,-2.7471545E-1,9.608689E-1,-3.898107E-2,-4.9479312E-1,-2.939314E-1,1.7384855E-2,-6.671604E-2,-1.0927171E-5,-1.0789601E-2,1.9386715E0,5.28584E-1,7.583302E-3,-1.6216014E-3,1.7842656E-2,6.589869E-5,9.666365E-3,-1.2165819E-3,-6.582102E-4,-7.702091E-3,1.2998736E-3,-8.295966E-4],"split_indices":[357,273,231,396,120,342,270,395,116,0,198,0,0,182,246,0,0,0,0,0,0,0,0,0,0],"split_type":[0,0,0,0,0,0,0,0,0,0,0,0,0,0,0,0,0,0,0,0,0,0,0,0,0],"sum_hessian":[1.2428512E3,9.741385E1,1.1454374E3,8.103148E1,1.6382374E1,1.4704075E1,1.1307333E3,6.420594E1,1.682554E1,5.2332444E0,1.1149129E1,6.9123397E0,7.7917356E0,5.5420233E2,5.76531E2,7.9398108E0,5.6266125E1,5.033373E0,1.1792168E1,5.7503066E0,5.398822E0,5.4045374E2,1.3748569E1,3.7291153E2,2.0361946E2],"tree_param":{"num_deleted":"0","num_feature":"420","num_nodes":"25","size_leaf_vector":"1"}},{"base_weights":[6.1809984E-3,4.1099986E-1,-1.6258825E-2,7.8844294E-2,9.0863204E-1,-8.6232156E-1,-4.796618E-3,-2.7842402E-1,4.9292672E-1,3.4663138E-1,1.6738571E-2,2.9640384E-3,-1.5170576E-2,3.3572072E-1,-2.6063701E-2,-8.725166E-3,-0E0,-1.9567013E-3,7.7061206E-3,-1.4739612E-3,8.589267E-3,4.424992E-3,-6.274683E-3,-4.0902884E-4,4.4887178E-3],"categories":[],"categories_nodes":[],"categories_segments":[],"categories_sizes":[],"default_left":[0,0,0,0,0,0,0,0,0,0,0,0,0,0,0,0,0,0,0,0,0,0,0,0,0],"id":11,"left_children":[1,3,5,7,9,11,13,15,17,19,-1,-1,-1,21,23,-1,-1,-1,-1,-1,-1,-1,-1,-1,-1],"loss_changes":[1.1304494E1,1.0597741E1,1.1303094E1,6.2871637E0,1.0066595E1,1.2618264E1,8.390171E0,3.74012E0,4.0397744E0,4.5384083E0,0E0,0E0,0E0,7.4000616E0,7.7000885E0,0E0,0E0,0E0,0E0,0E0,0E0,0E0,0E0,0E0,0E0],"parents":[2147483647,0,0,1,1,2,2,3,3,4,4,5,5,6,6,7,7,8,8,9,9,13,13,14,14],"right_children":[2,4,6,8,10,12,14,16,18,20,-1,-1,-1,22,24,-1,-1,-1,-1,-1,-1,-1,-1,-1,-1],"split_conditions":[-1.3097653E0,3.1446517E-1,-2.1114166E0,-1.7164363E-1,-5.259956E-2,-4.6544632E-1,-9.640432E-1,-1.2451153E0,-4.1460165E-1,-3.1809387E-1,1.6738571E-2,2.9640384E-3,-1.5170576E-2,1.0912795E0,2.0911367E0,-8.725166E-3,-0E0,-1.9567013E-3,7.7061206E-3,-1.4739612E-3,8.589267E-3,4.424992E-3,-6.274683E-3,-4.0902884E-4,4.4887178E-3],"split_indices":[336,142,351,15,162,80,34,295,413,307,0,0,0,161,287,0,0,0,0,0,0,0,0,0,0],"split_type":[0,0,0,0,0,0,0,0,0,0,0,0,0,0,0,0,0,0,0,0,0,0,0,0,0],"sum_hessian":[1.2374827E3,6.386307E1,1.1736196E3,3.946194E1,2.440113E1,1.4082367E1,1.1595372E3,2.1318426E1,1.8143515E1,1.5400651E1,9.00048E0,5.3255787E0,8.756788E0,6.65819E1,1.0929553E3,5.73645E0,1.5581976E1,5.2378187E0,1.2905696E1,8.284648E0,7.116003E0,6.0760715E1,5.821185E0,1.0613745E3,3.1580889E1],"tree_param":{"num_deleted":"0","num_feature":"420","num_nodes":"25","size_leaf_vector":"1"}},{"base_weights":[1.9350942E-3,9.580894E-3,-6.502261E-3,-1.5104691E-2,6.3428444E-1,-6.756942E-3,-7.335173E-1,-5.550831E-4,1.1515048E-2,-4.5429394E-3,4.5671648E-5,3.9912635E-4,-1.3714106E-2],"categories":[],"categories_nodes":[],"categories_segments":[],"categories_sizes":[],"default_left":[0,0,0,0,0,0,0,0,0,0,0,0,0],"id":12,"left_children":[1,-1,3,5,7,9,11,-1,-1,-1,-1,-1,-1],"loss_changes":[1.0167922E1,0E0,6.7761054E0,7.2536936E0,6.0134816E0,6.183931E0,7.0717645E0,0E0,0E0,0E0,0E0,0E0,0E0],"parents":[2147483647,0,0,2,2,3,3,4,4,5,5,6,6],"right_children":[2,-1,4,6,8,10,12,-1,-1,-1,-1,-1,-1],"split_conditions":[-1.701977E0,9.580894E-3,3.1801019E0,2.924446E0,-1.07316874E-1,-1.2327671E0,-6.061563E-1,-5.550831E-4,1.1515048E-2,-4.5429394E-3,4.5671648E-5,3.9912635E-4,-1.3714106E-2],"split_indices":[336,0,287,415,119,56,141,0,0,0,0,0,0],"split_type":[0,0,0,0,0,0,0,0,0,0,0,0,0],"sum_hessian":[1.2459156E3,9.525019E0,1.2363906E3,1.2216115E3,1.47791815E1,1.209214E3,1.2397417E1,6.824004E0,7.9551773E0,2.8611736E1,1.1806023E3,6.1681123E0,6.229305E0],"tree_param":{"num_deleted":"0","num_feature":"420","num_nodes":"13","size_leaf_vector":"1"}},{"base_weights":[9.112565E-3,8.514656E-1,-1.5926539E-4,-3.4855213E-4,1.4806214E-2,-9.445607E-3,8.085304E-1,-2.3140032E-4,-7.18935E-1,1.3705103E-2,2.4585398E-3,3.5638479E-3,-1.581368E-4,-1.4326106E-2,-1.4807044E-3],"categories":[],"categories_nodes":[],"categories_segments":[],"categories_sizes":[],"default_left":[0,0,0,0,0,0,0,0,0,0,0,0,0,0,0],"id":13,"left_children":[1,3,5,-1,-1,7,9,11,13,-1,-1,-1,-1,-1,-1],"loss_changes":[9.929118E0,7.939517E0,9.304061E0,0E0,0E0,8.004634E0,3.7801275E0,6.7609153E0,5.9200935E0,0E0,0E0,0E0,0E0,0E0,0E0],"parents":[2147483647,0,0,1,1,2,2,5,5,6,6,7,7,8,8],"right_children":[2,4,6,-1,-1,8,10,12,14,-1,-1,-1,-1,-1,-1],"split_conditions":[-1.701977E0,-1.8128022E0,3.5326633E0,-3.4855213E-4,1.4806214E-2,3.0579162E0,-1.3691863E-1,-1.6554624E0,1.4825248E0,1.3705103E-2,2.4585398E-3,3.5638479E-3,-1.581368E-4,-1.4326106E-2,-1.4807044E-3],"split_indices":[336,283,287,0,0,383,2,411,301,0,0,0,0,0,0],"split_type":[0,0,0,0,0,0,0,0,0,0,0,0,0,0,0],"sum_hessian":[1.2588829E3,1.2339774E1,1.2465431E3,5.645149E0,6.6946244E0,1.2339792E3,1.2563889E1,1.2197793E3,1.4199953E1,5.1194773E0,7.444411E0,4.942454E1,1.1703547E3,5.2264857E0,8.973467E0],"tree_param":{"num_deleted":"0","num_feature":"420","num_nodes":"15","size_leaf_vector":"1"}},{"base_weights":[-3.711254E-3,6.021994E-1,-1.8327177E-2,1.0391428E0,-4.7635272E-2,1.4076664E-1,-5.0957624E-2,4.6312604E-3,1.6645353E-2,3.4318687E-3,-4.327829E-3,7.4957633E-1,7.090437E-2,-2.779854E-1,-1.7338103E-2,1.5689734E-2,2.6622862E-3,2.8128095E-4,1.0044389E-2,-5.287622E-3,-6.334203E-4,-8.2224935E-5,-7.649642E-3],"categories":[],"categories_nodes":[],"categories_segments":[],"categories_sizes":[],"default_left":[0,0,0,0,0,0,0,0,0,0,0,0,0,0,0,0,0,0,0,0,0,0,0],"id":14,"left_children":[1,3,5,7,9,11,13,-1,-1,-1,-1,15,17,19,21,-1,-1,-1,-1,-1,-1,-1,-1],"loss_changes":[1.107896E1,8.53859E0,6.375569E0,5.0336933E0,2.216734E0,8.720747E0,7.7518387E0,0E0,0E0,0E0,0E0,7.5837936E0,7.4075294E0,6.949402E0,5.9841447E0,0E0,0E0,0E0,0E0,0E0,0E0,0E0,0E0],"parents":[2147483647,0,0,1,1,2,2,3,3,4,4,5,5,6,6,11,11,12,12,13,13,14,14],"right_children":[2,4,6,8,10,12,14,-1,-1,-1,-1,16,18,20,22,-1,-1,-1,-1,-1,-1,-1,-1],"split_conditions":[-1.5343963E0,2.221057E0,-8.127736E-1,1.028949E0,-2.0819959E-1,-1.3311927E0,-8.614431E-1,4.6312604E-3,1.6645353E-2,3.4318687E-3,-4.327829E-3,2.0492326E-1,1.8581852E0,-9.4049436E-1,1.9630806E0,1.5689734E-2,2.6622862E-3,2.8128095E-4,1.0044389E-2,-5.287622E-3,-6.334203E-4,-8.2224935E-5,-7.649642E-3],"split_indices":[336,303,141,345,326,411,235,0,0,0,0,43,411,281,408,0,0,0,0,0,0,0,0],"split_type":[0,0,0,0,0,0,0,0,0,0,0,0,0,0,0,0,0,0,0,0,0,0,0],"sum_hessian":[1.2542435E3,2.7961012E1,1.2262825E3,1.6273857E1,1.1687155E1,2.0733913E2,1.01894336E3,9.913628E0,6.360229E0,5.753086E0,5.9340687E0,1.9693773E1,1.8764536E2,1.2963817E2,8.893052E2,5.9800663E0,1.3713707E1,1.8100375E2,6.6416078E0,5.8559544E1,7.107862E1,8.802231E2,9.082076E0],"tree_param":{"num_deleted":"0","num_feature":"420","num_nodes":"23","size_leaf_vector":"1"}},{"base_weights":[-6.481248E-3,6.2178695E-1,-2.2394406E-2,1.4837687E-2,2.1673633E-1,-6.4841084E-2,1.5810184E-1,-3.1434277E-1,7.0275766E-1,3.197916E-1,-8.235585E-2,2.6937068E-1,-9.270267E-2,-7.175622E-3,1.5153919E-3,1.476568E-3,1.0546776E-2,1.1046443E-2,9.1182324E-4,-7.2905765E-4,-1.346317E-2,2.1176399E-3,1.5959533E-2,2.629365E-3,-2.954713E-3],"categories":[],"categories_nodes":[],"categories_segments":[],"categories_sizes":[],"default_left":[0,0,0,0,0,0,0,0,0,0,0,0,0,0,0,0,0,0,0,0,0,0,0,0,0],"id":15,"left_children":[1,3,5,-1,7,9,11,13,15,17,19,21,23,-1,-1,-1,-1,-1,-1,-1,-1,-1,-1,-1,-1],"loss_changes":[1.2639831E1,1.0249505E1,9.494407E0,0E0,6.327013E0,6.7806163E0,6.634963E0,2.4675448E0,2.1099615E0,7.586926E0,1.1200041E1,1.18438225E1,5.4054365E0,0E0,0E0,0E0,0E0,0E0,0E0,0E0,0E0,0E0,0E0,0E0,0E0],"parents":[2147483647,0,0,1,1,2,2,4,4,5,5,6,6,7,7,8,8,9,9,10,10,11,11,12,12],"right_children":[2,4,6,-1,8,10,12,14,16,18,20,22,24,-1,-1,-1,-1,-1,-1,-1,-1,-1,-1,-1,-1],"split_conditions":[-1.4803718E0,-7.8569865E-1,4.805778E-1,1.4837687E-2,-3.5475588E-1,-1.5886512E0,3.5530406E-1,-4.9481168E-1,-3.2430622E-1,3.3093098E-1,2.602906E0,1.707728E0,-4.069119E-1,-7.175622E-3,1.5153919E-3,1.476568E-3,1.0546776E-2,1.1046443E-2,9.1182324E-4,-7.2905765E-4,-1.346317E-2,2.1176399E-3,1.5959533E-2,2.629365E-3,-2.954713E-3],"split_indices":[273,207,391,0,97,361,326,27,58,65,112,224,188,0,0,0,0,0,0,0,0,0,0,0,0],"split_type":[0,0,0,0,0,0,0,0,0,0,0,0,0,0,0,0,0,0,0,0,0,0,0,0,0],"sum_hessian":[1.266676E3,2.9724556E1,1.2369514E3,8.146495E0,2.1578062E1,1.00267175E3,2.342797E2,1.0465943E1,1.1112118E1,4.22933E1,9.603785E2,1.6248242E2,7.179727E1,5.290952E0,5.1749916E0,5.2478857E0,5.8642325E0,8.144941E0,3.414836E1,9.5490466E2,5.4737673E0,1.574596E2,5.022835E0,2.5730268E1,4.6067E1],"tree_param":{"num_deleted":"0","num_feature":"420","num_nodes":"25","size_leaf_vector":"1"}},{"base_weights":[2.4675874E-3,3.5595924E-1,-2.6591416E-2,1.42859705E-2,2.4810463E-1,-1.760963E-2,-6.6267645E-1,7.1805704E-1,4.9793545E-2,2.6899776E-1,-3.6803223E-2,-1.235922E-2,-8.7633765E-5,1.30735915E-2,1.2887999E-3,-3.5683815E-3,2.6001525E-3,4.9928E-3,-1.5751469E-3,-4.5188068E-4,6.169973E-3],"categories":[],"categories_nodes":[],"categories_segments":[],"categories_sizes":[],"default_left":[0,0,0,0,0,0,0,0,0,0,0,0,0,0,0,0,0,0,0,0,0],"id":16,"left_children":[1,3,5,-1,7,9,11,13,15,17,19,-1,-1,-1,-1,-1,-1,-1,-1,-1,-1],"loss_changes":[1.3115267E1,1.0522857E1,6.6371202E0,0E0,8.2610655E0,6.3838425E0,5.9274235E0,8.790159E0,5.692872E0,7.3011203E0,5.9639673E0,0E0,0E0,0E0,0E0,0E0,0E0,0E0,0E0,0E0,0E0],"parents":[2147483647,0,0,1,1,2,2,4,4,5,5,6,6,7,7,8,8,9,9,10,10],"right_children":[2,4,6,-1,8,10,12,14,16,18,20,-1,-1,-1,-1,-1,-1,-1,-1,-1,-1],"split_conditions":[-1.1604917E0,-1.0765582E0,2.3197248E0,1.42859705E-2,-3.339037E-1,-9.4935143E-1,1.9402501E-1,2.3135327E-1,-4.06568E-1,4.2081392E-1,2.341141E0,-1.235922E-2,-8.7633765E-5,1.30735915E-2,1.2887999E-3,-3.5683815E-3,2.6001525E-3,4.9928E-3,-1.5751469E-3,-4.5188068E-4,6.169973E-3],"split_indices":[357,411,130,0,226,34,415,248,58,415,82,0,0,0,0,0,0,0,0,0,0],"split_type":[0,0,0,0,0,0,0,0,0,0,0,0,0,0,0,0,0,0,0,0,0],"sum_hessian":[1.2706948E3,9.550311E1,1.1751918E3,6.962634E0,8.8540474E1,1.1605037E3,1.468806E1,2.4958626E1,6.358185E1,7.128667E1,1.089217E3,7.0338917E0,7.6541677E0,1.1479012E1,1.3479615E1,2.1149855E1,4.2431995E1,4.6278538E1,2.5008125E1,1.0769546E3,1.2262423E1],"tree_param":{"num_deleted":"0","num_feature":"420","num_nodes":"21","size_leaf_vector":"1"}},{"base_weights":[-8.0164627E-4,3.6453006E-1,-2.9258935E-2,2.4317677E-1,1.6331963E-2,-4.921166E-3,-3.763496E-1,1.5208259E-1,1.1969739E-2,3.126825E-2,-1.7186931E-1,-1.3675449E-2,-2.5264984E-1,4.011878E-3,-1.9926445E-3,1.0059602E-4,3.418132E-3,-2.2847021E-3,3.3665812E-3,-3.6519868E-3,3.1263402E-3],"categories":[],"categories_nodes":[],"categories_segments":[],"categories_sizes":[],"default_left":[0,0,0,0,0,0,0,0,0,0,0,0,0,0,0,0,0,0,0,0,0],"id":17,"left_children":[1,3,5,7,-1,9,11,13,-1,15,17,-1,19,-1,-1,-1,-1,-1,-1,-1,-1],"loss_changes":[1.2926476E1,1.3046824E1,9.730395E0,6.8750653E0,0E0,6.5636296E0,8.577406E0,6.9957056E0,0E0,5.825391E0,5.677297E0,0E0,4.5700655E0,0E0,0E0,0E0,0E0,0E0,0E0,0E0,0E0],"parents":[2147483647,0,0,1,1,2,2,3,3,5,5,6,6,7,7,9,9,10,10,12,12],"right_children":[2,4,6,8,-1,10,12,14,-1,16,18,-1,20,-1,-1,-1,-1,-1,-1,-1,-1],"split_conditions":[-1.1604917E0,-1.03506E0,1.5005357E0,1.0564827E0,1.6331963E-2,5.853341E-1,-1.0246861E0,-8.9316016E-1,1.1969739E-2,1.4690555E0,1.0832553E0,-1.3675449E-2,1.6742324E0,4.011878E-3,-1.9926445E-3,1.0059602E-4,3.418132E-3,-2.2847021E-3,3.3665812E-3,-3.6519868E-3,3.1263402E-3],"split_indices":[357,231,77,241,0,328,309,316,0,392,135,0,306,0,0,0,0,0,0,0,0],"split_type":[0,0,0,0,0,0,0,0,0,0,0,0,0,0,0,0,0,0,0,0,0],"sum_hessian":[1.2435529E3,8.833166E1,1.1552212E3,8.232342E1,6.00824E0,1.0812164E3,7.400481E1,7.682967E1,5.4937425E0,8.8910486E2,1.9211154E2,6.447788E0,6.7557014E1,4.4997944E1,3.1831728E1,8.3401636E2,5.508849E1,1.7379076E2,1.8320795E1,5.6930004E1,1.0627013E1],"tree_param":{"num_deleted":"0","num_feature":"420","num_nodes":"21","size_leaf_vector":"1"}},{"base_weights":[2.1985078E-2,2.6735854E-1,-4.169957E-4,1.2021985E-2,1.6503237E-1,1.3235919E-2,-3.6511427E-1,2.6001564E-1,-7.255467E-3,3.367133E-2,-2.929296E-1,-8.3919066E-1,-3.2829028E-2,1.633534E-3,1.0225992E-2,1.0110131E-2,2.482364E-4,-5.3850736E-4,-7.473246E-3,-1.912476E-3,-1.4620605E-2,-2.6221147E-3,4.1750954E-3],"categories":[],"categories_nodes":[],"categories_segments":[],"categories_sizes":[],"default_left":[0,0,0,0,0,0,0,0,0,0,0,0,0,0,0,0,0,0,0,0,0,0,0],"id":18,"left_children":[1,3,5,-1,7,9,11,13,-1,15,17,19,21,-1,-1,-1,-1,-1,-1,-1,-1,-1,-1],"loss_changes":[6.910224E0,9.62297E0,5.7614975E0,0E0,8.407806E0,6.9232693E0,6.450539E0,6.1541224E0,0E0,8.857356E0,7.3767824E0,6.2863207E0,2.8591812E0,0E0,0E0,0E0,0E0,0E0,0E0,0E0,0E0,0E0,0E0],"parents":[2147483647,0,0,1,1,2,2,4,4,5,5,6,6,7,7,9,9,10,10,11,11,12,12],"right_children":[2,4,6,-1,8,10,12,14,-1,16,18,20,22,-1,-1,-1,-1,-1,-1,-1,-1,-1,-1],"split_conditions":[-1.1455231E0,-1.2563163E0,1.9287115E0,1.2021985E-2,1.3241929E0,1.5842483E0,1.2796962E-2,1.4324799E0,-7.255467E-3,-1.4803718E0,-1.0204711E0,-8.5440934E-1,-6.888245E-1,1.633534E-3,1.0225992E-2,1.0110131E-2,2.482364E-4,-5.3850736E-4,-7.473246E-3,-1.912476E-3,-1.4620605E-2,-2.6221147E-3,4.1750954E-3],"split_indices":[128,410,158,0,342,261,252,305,0,273,258,304,303,0,0,0,0,0,0,0,0,0,0],"split_type":[0,0,0,0,0,0,0,0,0,0,0,0,0,0,0,0,0,0,0,0,0,0,0],"sum_hessian":[1.250732E3,1.0363739E2,1.1470946E3,8.537695E0,9.509969E1,1.1068303E3,4.026427E1,8.699566E1,8.104037E0,1.0391337E3,6.769667E1,1.5525125E1,2.4739145E1,7.894175E1,8.053909E0,7.696985E0,1.0314368E3,4.560143E1,2.2095242E1,8.649038E0,6.8760867E0,1.695281E1,7.786335E0],"tree_param":{"num_deleted":"0","num_feature":"420","num_nodes":"23","size_leaf_vector":"1"}},{"base_weights":[9.516456E-3,3.5816762E-1,-1.0899448E-2,1.0559641E-2,2.2828697E-1,-5.4651743E-1,2.781586E-3,-2.6792386E-1,3.8921803E-1,1.8687278E-1,-1.038552E0,1.2855472E-2,-5.9640276E-1,7.7632186E-4,-7.778854E-3,6.644067E-3,-2.7206875E-3,7.181799E-3,-3.0408779E-3,-1.5535841E-2,-1.9017573E-3,1.3902491E-3,-3.2994314E-4,-1.8222871E-3,-1.0681408E-2],"categories":[],"categories_nodes":[],"categories_segments":[],"categories_sizes":[],"default_left":[0,0,0,0,0,0,0,0,0,0,0,0,0,0,0,0,0,0,0,0,0,0,0,0,0],"id":19,"left_children":[1,3,5,-1,7,9,11,13,15,17,19,21,23,-1,-1,-1,-1,-1,-1,-1,-1,-1,-1,-1,-1],"loss_changes":[9.065953E0,5.895402E0,8.842722E0,0E0,5.0744247E0,1.1220812E1,7.0181236E0,2.9415803E0,8.89122E0,3.8269272E0,7.3767567E0,6.685848E0,3.338337E0,0E0,0E0,0E0,0E0,0E0,0E0,0E0,0E0,0E0,0E0,0E0,0E0],"parents":[2147483647,0,0,1,1,2,2,4,4,5,5,6,6,7,7,8,8,9,9,10,10,11,11,12,12],"right_children":[2,4,6,-1,8,10,12,14,16,18,20,22,24,-1,-1,-1,-1,-1,-1,-1,-1,-1,-1,-1,-1],"split_conditions":[-1.3298484E0,-1.4388219E0,-1.7905141E0,1.0559641E-2,-6.631744E-1,-2.6921514E-1,2.3732457E0,-4.6034067E-4,1.9635487E0,2.713187E-2,8.091906E-1,-5.079938E-1,3.197437E-1,7.7632186E-4,-7.778854E-3,6.644067E-3,-2.7206875E-3,7.181799E-3,-3.0408779E-3,-1.5535841E-2,-1.9017573E-3,1.3902491E-3,-3.2994314E-4,-1.8222871E-3,-1.0681408E-2],"split_indices":[336,117,351,0,139,38,162,179,156,229,52,333,393,0,0,0,0,0,0,0,0,0,0,0,0],"split_type":[0,0,0,0,0,0,0,0,0,0,0,0,0,0,0,0,0,0,0,0,0,0,0,0,0],"sum_hessian":[1.2664594E3,6.895572E1,1.1975037E3,9.0215E0,5.9934216E1,2.8552452E1,1.1689512E3,1.428122E1,4.5652996E1,1.1756362E1,1.679609E1,1.1512306E3,1.7720545E1,9.153953E0,5.127268E0,3.2339386E1,1.3313608E1,5.410599E0,6.3457623E0,9.602106E0,7.193983E0,3.066164E2,8.446142E2,1.0656142E1,7.064402E0],"tree_param":{"num_deleted":"0","num_feature":"420","num_nodes":"25","size_leaf_vector":"1"}},{"base_weights":[4.0258253E-3,2.7361745E-1,-2.4802346E-2,1.5510812E-1,9.511954E-1,2.7650252E-1,-4.357864E-2,2.2979738E-1,-6.7944173E-3,2.5653964E-1,1.8575992E-2,-2.4206936E-1,4.3766347E-1,-6.565888E-2,2.3642294E-1,4.549453E-3,-4.2655427E-4,-1.904366E-3,6.6992706E-3,-7.934463E-3,2.2188236E-3,6.2568835E-3,-1.5772142E-3,-5.405801E-4,-7.123614E-3,3.2715378E-3,-6.46244E-3],"categories":[],"categories_nodes":[],"categories_segments":[],"categories_sizes":[],"default_left":[0,0,0,0,0,0,0,0,0,0,0,0,0,0,0,0,0,0,0,0,0,0,0,0,0,0,0],"id":20,"left_children":[1,3,5,7,9,11,13,15,-1,17,-1,19,21,23,25,-1,-1,-1,-1,-1,-1,-1,-1,-1,-1,-1,-1],"loss_changes":[9.835149E0,9.486533E0,6.445346E0,6.795738E0,1.0271467E1,5.7592845E0,6.651931E0,6.1133714E0,0E0,2.432774E0,0E0,4.580819E0,5.97421E0,7.3518457E0,6.577116E0,0E0,0E0,0E0,0E0,0E0,0E0,0E0,0E0,0E0,0E0,0E0,0E0],"parents":[2147483647,0,0,1,1,2,2,3,3,4,4,5,5,6,6,7,7,9,9,11,11,12,12,13,13,14,14],"right_children":[2,4,6,8,10,12,14,16,-1,18,-1,20,22,24,26,-1,-1,-1,-1,-1,-1,-1,-1,-1,-1,-1,-1],"split_conditions":[-1.093685E0,6.157105E-1,-9.4935143E-1,1.0106815E0,9.6420735E-1,-5.8270615E-1,1.5563241E0,-2.1439159E-1,-6.7944173E-3,-3.2822594E-1,1.8575992E-2,-4.173576E-1,8.06223E-1,2.2901428E0,7.018516E-1,4.549453E-3,-4.2655427E-4,-1.904366E-3,6.6992706E-3,-7.934463E-3,2.2188236E-3,6.2568835E-3,-1.5772142E-3,-5.405801E-4,-7.123614E-3,3.2715378E-3,-6.46244E-3],"split_indices":[378,349,34,208,30,180,36,223,0,188,0,139,112,246,198,0,0,0,0,0,0,0,0,0,0,0,0],"split_type":[0,0,0,0,0,0,0,0,0,0,0,0,0,0,0,0,0,0,0,0,0,0,0,0,0,0,0],"sum_hessian":[1.259475E3,1.2077341E2,1.1387015E3,1.04489075E2,1.6284328E1,6.527722E1,1.0734243E3,9.7013504E1,7.4755726E0,1.0371002E1,5.9133263E0,1.5151211E1,5.0126007E1,9.963593E2,7.7065056E1,5.276894E1,4.4244564E1,5.2555313E0,5.1154704E0,6.535015E0,8.616196E0,3.816497E1,1.1961037E1,9.8054974E2,1.5809566E1,7.084056E1,6.2244954E0],"tree_param":{"num_deleted":"0","num_feature":"420","num_nodes":"27","size_leaf_vector":"1"}},{"base_weights":[6.0175858E-3,5.073081E-1,-6.770022E-3,-6.144961E-3,7.9157E-1,-1.5419239E-2,7.488118E-1,1.6343975E-2,1.9803019E-1,-7.752259E-3,-7.93894E-1,1.3184208E-2,6.0283707E-4,-3.3106103E-3,8.714726E-3,1.961585E-5,-6.5058405E-3,-0E0,-1.4246462E-2],"categories":[],"categories_nodes":[],"categories_segments":[],"categories_sizes":[],"default_left":[0,0,0,0,0,0,0,0,0,0,0,0,0,0,0,0,0,0,0],"id":21,"left_children":[1,3,5,-1,7,9,11,-1,13,15,17,-1,-1,-1,-1,-1,-1,-1,-1],"loss_changes":[8.190014E0,1.0881838E1,8.039379E0,0E0,1.2379089E1,7.2299595E0,5.2017894E0,0E0,6.572997E0,7.659943E0,5.9990745E0,0E0,0E0,0E0,0E0,0E0,0E0,0E0,0E0],"parents":[2147483647,0,0,1,1,2,2,4,4,5,5,6,6,8,8,9,9,10,10],"right_children":[2,4,6,-1,8,10,12,-1,14,16,18,-1,-1,-1,-1,-1,-1,-1,-1],"split_conditions":[-1.4803718E0,-1.2772278E0,3.5326633E0,-6.144961E-3,-7.038946E-1,2.8012064E0,-4.603482E-2,1.6343975E-2,-3.794727E-1,2.4377673E0,6.6148055E-1,1.3184208E-2,6.0283707E-4,-3.3106103E-3,8.714726E-3,1.961585E-5,-6.5058405E-3,-0E0,-1.4246462E-2],"split_indices":[273,242,287,0,207,57,183,0,97,354,61,0,0,0,0,0,0,0,0],"split_type":[0,0,0,0,0,0,0,0,0,0,0,0,0,0,0,0,0,0,0],"sum_hessian":[1.2675201E3,3.0280943E1,1.2372393E3,5.698428E0,2.4582514E1,1.2248203E3,1.2418898E1,9.001468E0,1.5581047E1,1.2145024E3,1.0317902E1,5.9659E0,6.452998E0,9.069609E0,6.5114384E0,1.1977432E3,1.675926E1,5.1922593E0,5.1256423E0],"tree_param":{"num_deleted":"0","num_feature":"420","num_nodes":"19","size_leaf_vector":"1"}},{"base_weights":[9.107712E-3,7.461172E-2,-8.107161E-2,5.509156E-1,5.1657338E-2,-6.257224E-2,-7.8353554E-1,1.2175559E0,-0E0,6.440345E-2,-1.0612733E-2,-3.3452934E-1,-2.1743143E-2,-1.3200489E-2,-0E0,1.7488036E-2,2.3222517E-3,5.9391623E-3,-5.470762E-3,8.0148113E-4,-5.505483E-3,-3.0818228E-5,-7.814499E-3,6.132857E-3,-4.88815E-4],"categories":[],"categories_nodes":[],"categories_segments":[],"categories_sizes":[],"default_left":[0,0,0,0,0,0,0,0,0,0,0,0,0,0,0,0,0,0,0,0,0,0,0,0,0],"id":22,"left_children":[1,3,5,7,9,11,13,15,17,19,-1,21,23,-1,-1,-1,-1,-1,-1,-1,-1,-1,-1,-1,-1],"loss_changes":[7.352873E0,7.786679E0,6.640996E0,1.1937535E1,9.795036E0,5.6335993E0,5.622079E0,6.9254456E0,6.843933E0,6.641595E0,0E0,9.746489E0,7.6867976E0,0E0,0E0,0E0,0E0,0E0,0E0,0E0,0E0,0E0,0E0,0E0,0E0],"parents":[2147483647,0,0,1,1,2,2,3,3,4,4,5,5,6,6,7,7,8,8,9,9,11,11,12,12],"right_children":[2,4,6,8,10,12,14,16,18,20,-1,22,24,-1,-1,-1,-1,-1,-1,-1,-1,-1,-1,-1,-1],"split_conditions":[1.8060751E-1,-1.2742251E0,2.1549366E0,-3.9122882E-1,2.508248E0,-1.0618602E0,2.7658367E-1,2.1182048E-1,-1.144113E0,2.1086087E0,-1.0612733E-2,-8.1737745E-1,-1.1627617E0,-1.3200489E-2,-0E0,1.7488036E-2,2.3222517E-3,5.9391623E-3,-5.470762E-3,8.0148113E-4,-5.505483E-3,-3.0818228E-5,-7.814499E-3,6.132857E-3,-4.88815E-4],"split_indices":[326,212,127,15,372,241,35,53,111,53,0,334,292,0,0,0,0,0,0,0,0,0,0,0,0],"split_type":[0,0,0,0,0,0,0,0,0,0,0,0,0,0,0,0,0,0,0,0,0,0,0,0,0],"sum_hessian":[1.2418235E3,7.201166E2,5.217069E2,3.132225E1,6.887943E2,5.100507E2,1.1656204E1,1.327248E1,1.804977E1,6.824811E2,6.313233E0,6.4850555E1,4.4520013E2,6.3615847E0,5.2946196E0,7.8021502E0,5.4703298E0,8.6769285E0,9.372842E0,6.6687415E2,1.5606919E1,3.823133E1,2.6619223E1,1.6767336E1,4.284328E2],"tree_param":{"num_deleted":"0","num_feature":"420","num_nodes":"25","size_leaf_vector":"1"}},{"base_weights":[4.9370993E-3,3.1104797E-1,-1.764415E-2,5.3103524E-1,-1.1874365E-1,1.3018231E-1,-5.8366954E-2,3.759856E-1,1.3433584E-2,2.1375957E-1,-6.231865E-1,9.617555E-2,1.24022085E-2,-1.2925021E-1,3.269588E-2,5.0254785E-3,-3.732394E-3,-1.2963002E-3,6.7109065E-3,-1.0021287E-2,-1.0579472E-3,4.616414E-3,3.043027E-4,3.8269802E-3,-1.4843384E-3,2.8298642E-3,-4.079811E-4],"categories":[],"categories_nodes":[],"categories_segments":[],"categories_sizes":[],"default_left":[0,0,0,0,0,0,0,0,0,0,0,0,0,0,0,0,0,0,0,0,0,0,0,0,0,0,0],"id":23,"left_children":[1,3,5,7,9,11,13,15,-1,17,19,21,-1,23,25,-1,-1,-1,-1,-1,-1,-1,-1,-1,-1,-1,-1],"loss_changes":[8.7255335E0,8.336234E0,7.05738E0,6.349926E0,5.345724E0,9.237301E0,5.9554415E0,5.1036716E0,0E0,3.2220995E0,2.1994104E0,5.8688273E0,0E0,5.1522875E0,7.4607067E0,0E0,0E0,0E0,0E0,0E0,0E0,0E0,0E0,0E0,0E0,0E0,0E0],"parents":[2147483647,0,0,1,1,2,2,3,3,4,4,5,5,6,6,7,7,9,9,10,10,11,11,13,13,14,14],"right_children":[2,4,6,8,10,12,14,16,-1,18,20,22,-1,24,26,-1,-1,-1,-1,-1,-1,-1,-1,-1,-1,-1,-1],"split_conditions":[-1.1904738E0,5.89274E-1,-8.406241E-1,1.1191267E0,2.3909992E-1,1.4500985E0,-1.4752917E-1,-6.527501E-1,1.3433584E-2,-8.713561E-1,1.9288287E-1,-7.319868E-1,1.24022085E-2,-1.6976643E0,-7.486102E-1,5.0254785E-3,-3.732394E-3,-1.2963002E-3,6.7109065E-3,-1.0021287E-2,-1.0579472E-3,4.616414E-3,3.043027E-4,3.8269802E-3,-1.4843384E-3,2.8298642E-3,-4.079811E-4],"split_indices":[149,263,247,56,288,283,391,6,0,4,389,53,0,389,294,0,0,0,0,0,0,0,0,0,0,0,0],"split_type":[0,0,0,0,0,0,0,0,0,0,0,0,0,0,0,0,0,0,0,0,0,0,0,0,0,0,0],"sum_hessian":[1.2553722E3,8.523226E1,1.1701399E3,5.6296455E1,2.8935804E1,2.5148434E2,9.186556E2,4.9219265E1,7.0771894E0,1.7841633E1,1.1094171E1,2.4567789E2,5.806453E0,5.168269E2,4.0182864E2,4.264314E1,6.576125E0,1.0679236E1,7.162397E0,5.4811354E0,5.613035E0,3.5848602E1,2.0982928E2,1.745207E1,4.9937485E2,9.0547104E1,3.1128156E2],"tree_param":{"num_deleted":"0","num_feature":"420","num_nodes":"27","size_leaf_vector":"1"}},{"base_weights":[1.2416144E-2,7.247272E-1,-1.6195028E-3,-1.5068811E-3,9.731681E-1,-1.0326805E-2,7.2419125E-1,6.3595636E-4,1.4737195E0,-6.3122965E-2,9.200206E-2,4.5204003E-4,1.2159573E-2,6.9026756E-3,1.9655159E-2,-4.9253216E-4,-5.4775714E-3,7.6560065E-4,9.91809E-3],"categories":[],"categories_nodes":[],"categories_segments":[],"categories_sizes":[],"default_left":[0,0,0,0,0,0,0,0,0,0,0,0,0,0,0,0,0,0,0],"id":24,"left_children":[1,3,5,-1,7,9,11,-1,13,15,17,-1,-1,-1,-1,-1,-1,-1,-1],"loss_changes":[1.2823264E1,5.6921616E0,7.851807E0,0E0,8.626709E0,6.697978E0,4.708422E0,0E0,2.5156841E0,5.4025726E0,5.6366434E0,0E0,0E0,0E0,0E0,0E0,0E0,0E0,0E0],"parents":[2147483647,0,0,1,1,2,2,4,4,5,5,6,6,8,8,9,9,10,10],"right_children":[2,4,6,-1,8,10,12,-1,14,16,18,-1,-1,-1,-1,-1,-1,-1,-1],"split_conditions":[-1.6205497E0,-7.73066E-1,3.5326633E0,-1.5068811E-3,-6.6348094E-1,8.502327E-3,-1.1585958E0,6.3595636E-4,-1.3157208E-1,2.110327E0,2.1182833E0,4.5204003E-4,1.2159573E-2,6.9026756E-3,1.9655159E-2,-4.9253216E-4,-5.4775714E-3,7.6560065E-4,9.91809E-3],"split_indices":[336,97,287,0,55,391,393,0,389,362,144,0,0,0,0,0,0,0,0],"split_type":[0,0,0,0,0,0,0,0,0,0,0,0,0,0,0,0,0,0,0],"sum_hessian":[1.2737065E3,2.3282625E1,1.250424E3,5.188372E0,1.8094254E1,1.2371981E3,1.3225805E1,7.093934E0,1.10003195E1,8.171466E2,4.2005154E2,6.328795E0,6.8970103E0,5.711055E0,5.2892647E0,7.9621844E2,2.0928194E1,4.1467392E2,5.3776426E0],"tree_param":{"num_deleted":"0","num_feature":"420","num_nodes":"19","size_leaf_vector":"1"}},{"base_weights":[-8.1411E-3,5.784982E-1,-1.9765638E-2,2.1775812E-1,1.2266244E-2,-4.692708E-3,-3.5240316E-1,-8.845894E-2,7.5833937E-3,2.9682478E-1,-2.6022986E-2,-1.5658878E-1,-9.0420747E-1,3.629463E-3,-4.7383774E-3,6.910709E-5,6.099874E-3,-4.7153927E-4,2.3352315E-3,-4.0532197E-3,3.1841286E-3,-1.488399E-2,-1.6686583E-3],"categories":[],"categories_nodes":[],"categories_segments":[],"categories_sizes":[],"default_left":[0,0,0,0,0,0,0,0,0,0,0,0,0,0,0,0,0,0,0,0,0,0,0],"id":25,"left_children":[1,3,5,7,-1,9,11,13,-1,15,17,19,21,-1,-1,-1,-1,-1,-1,-1,-1,-1,-1],"loss_changes":[8.629218E0,5.2017946E0,6.2190046E0,3.0998564E0,0E0,7.6745777E0,5.493757E0,2.449382E0,0E0,7.0871587E0,6.1316266E0,5.123217E0,5.3377542E0,0E0,0E0,0E0,0E0,0E0,0E0,0E0,0E0,0E0,0E0],"parents":[2147483647,0,0,1,1,2,2,3,3,5,5,6,6,7,7,9,9,10,10,11,11,12,12],"right_children":[2,4,6,8,-1,10,12,14,-1,16,18,20,22,-1,-1,-1,-1,-1,-1,-1,-1,-1,-1],"split_conditions":[-1.8592927E0,5.736702E-1,1.8293773E0,9.35957E-2,1.2266244E-2,-1.2060611E0,2.0773466E0,-7.2289765E-1,7.5833937E-3,2.6768053E-1,1.4229177E0,1.9758607E0,1.6903976E0,3.629463E-3,-4.7383774E-3,6.910709E-5,6.099874E-3,-4.7153927E-4,2.3352315E-3,-4.0532197E-3,3.1841286E-3,-1.488399E-2,-1.6686583E-3],"split_indices":[169,35,341,309,0,147,184,363,0,79,36,310,90,0,0,0,0,0,0,0,0,0,0],"split_type":[0,0,0,0,0,0,0,0,0,0,0,0,0,0,0,0,0,0,0,0,0,0,0],"sum_hessian":[1.2695688E3,2.307985E1,1.246489E3,1.6213726E1,6.866123E0,1.1941976E3,5.2291336E1,1.1033348E1,5.1803784E0,7.730989E1,1.1168877E3,4.015038E1,1.2140956E1,5.0020876E0,6.03126E0,4.110701E1,3.620288E1,1.0342936E3,8.259421E1,2.6634087E1,1.3516293E1,5.845821E0,6.2951355E0],"tree_param":{"num_deleted":"0","num_feature":"420","num_nodes":"23","size_leaf_vector":"1"}},{"base_weights":[3.740317E-3,2.5528333E-1,-2.2343108E-2,1.1212106E-1,7.205724E-1,-4.9581796E-1,-1.0235377E-2,7.459362E-1,-2.1488681E-2,-1.494948E-3,1.0408987E0,-6.897282E-2,-1.1549409E-2,2.064377E-1,-4.3016933E-2,-2.053979E-3,1.3301948E-2,8.718036E-4,-7.621217E-3,2.762831E-3,1.9506106E-2,6.7571984E-3,-4.797276E-3,2.7060977E-3,-5.33515E-3,-3.4443758E-4,-8.73172E-3],"categories":[],"categories_nodes":[],"categories_segments":[],"categories_sizes":[],"default_left":[0,0,0,0,0,0,0,0,0,0,0,0,0,0,0,0,0,0,0,0,0,0,0,0,0,0,0],"id":26,"left_children":[1,3,5,7,9,11,13,15,17,-1,19,21,-1,23,25,-1,-1,-1,-1,-1,-1,-1,-1,-1,-1,-1,-1],"loss_changes":[8.468439E0,7.8747864E0,6.6264668E0,8.115314E0,8.153378E0,7.871366E0,8.085196E0,9.781351E0,6.5682893E0,0E0,1.3443102E1,6.3366413E0,0E0,7.2892056E0,6.915162E0,0E0,0E0,0E0,0E0,0E0,0E0,0E0,0E0,0E0,0E0,0E0,0E0],"parents":[2147483647,0,0,1,1,2,2,3,3,4,4,5,5,6,6,7,7,8,8,10,10,11,11,13,13,14,14],"right_children":[2,4,6,8,10,12,14,16,18,-1,20,22,-1,24,26,-1,-1,-1,-1,-1,-1,-1,-1,-1,-1,-1,-1],"split_conditions":[-1.093685E0,5.8734226E-1,-1.7905141E0,-1.2677109E0,-1.2779981E0,-2.3324111E-1,-9.6373785E-1,-3.2679132E-1,1.3100438E0,-1.494948E-3,-7.4445915E-1,-3.401283E-1,-1.1549409E-2,1.6048745E0,2.0519829E0,-2.053979E-3,1.3301948E-2,8.718036E-4,-7.621217E-3,2.762831E-3,1.9506106E-2,6.7571984E-3,-4.797276E-3,2.7060977E-3,-5.33515E-3,-3.4443758E-4,-8.73172E-3],"split_indices":[378,393,351,393,298,337,137,203,28,0,4,38,0,246,387,0,0,0,0,0,0,0,0,0,0,0,0],"split_type":[0,0,0,0,0,0,0,0,0,0,0,0,0,0,0,0,0,0,0,0,0,0,0,0,0,0,0],"sum_hessian":[1.2843494E3,1.1978842E2,1.1645609E3,9.3191284E1,2.659714E1,2.7337524E1,1.1372234E3,1.5158191E1,7.803309E1,7.2883534E0,1.9308784E1,1.7690144E1,9.64738E0,1.4800073E2,9.8922266E2,6.0723095E0,9.085881E0,6.908504E1,8.948055E0,1.1613276E1,7.69551E0,5.8582187E0,1.1831925E1,1.371896E2,1.0811129E1,9.8077673E2,8.445978E0],"tree_param":{"num_deleted":"0","num_feature":"420","num_nodes":"27","size_leaf_vector":"1"}},{"base_weights":[1.1738056E-3,3.3912677E-1,-2.0515002E-2,2.3132065E-1,1.2528262E-2,-5.987869E-1,-1.0649965E-2,-7.106872E-3,3.2287556E-1,-5.8955364E-2,-1.6237522E-2,-8.4742196E-2,6.450557E-2,1.8820983E-3,1.1366274E-2,3.9005908E-3,-5.309567E-3,-1.0829623E-3,4.668048E-3,1.3046365E-3,-1.1844472E-3],"categories":[],"categories_nodes":[],"categories_segments":[],"categories_sizes":[],"default_left":[0,0,0,0,0,0,0,0,0,0,0,0,0,0,0,0,0,0,0,0,0],"id":27,"left_children":[1,3,5,7,-1,9,11,-1,13,15,-1,17,19,-1,-1,-1,-1,-1,-1,-1,-1],"loss_changes":[9.198283E0,6.873066E0,6.6322E0,6.311928E0,0E0,1.0483564E1,6.4525747E0,0E0,6.6261544E0,3.3766608E0,0E0,7.625639E0,6.9572673E0,0E0,0E0,0E0,0E0,0E0,0E0,0E0,0E0],"parents":[2147483647,0,0,1,1,2,2,3,3,5,5,6,6,8,8,9,9,11,11,12,12],"right_children":[2,4,6,8,-1,10,12,-1,14,16,-1,18,20,-1,-1,-1,-1,-1,-1,-1,-1],"split_conditions":[-1.2788029E0,5.718675E-1,-2.1114166E0,-4.9348077E-1,1.2528262E-2,1.5734403E0,-2.0502431E-2,-7.106872E-3,-4.7202826E-1,-4.4685918E-1,-1.6237522E-2,1.8454536E0,9.8545784E-1,1.8820983E-3,1.1366274E-2,3.9005908E-3,-5.309567E-3,-1.0829623E-3,4.668048E-3,1.3046365E-3,-1.1844472E-3],"split_indices":[315,181,351,185,0,415,270,0,339,139,0,117,249,0,0,0,0,0,0,0,0],"split_type":[0,0,0,0,0,0,0,0,0,0,0,0,0,0,0,0,0,0,0,0,0],"sum_hessian":[1.247646E3,7.419549E1,1.1734506E3,6.8144424E1,6.051066E0,1.8010685E1,1.1554398E3,5.041065E0,6.3103355E1,1.290021E1,5.110475E0,5.824095E2,5.7303033E2,5.583344E1,7.2699156E0,6.635967E0,6.264244E0,5.598861E2,2.2523375E1,4.2190143E2,1.511289E2],"tree_param":{"num_deleted":"0","num_feature":"420","num_nodes":"21","size_leaf_vector":"1"}},{"base_weights":[9.079035E-3,-9.2144385E-3,3.0674478E-1,2.7124277E-1,-3.145352E-2,2.0847903E-1,8.550731E-3,-4.417083E-3,3.5461453E-1,-1.9475343E-2,-7.1084267E-1,-5.146095E-3,2.8471118E-1,6.3746393E-4,6.4327396E-3,-4.6820585E-3,-7.070001E-5,-0E0,-1.335071E-2,-5.6911644E-4,4.48927E-3],"categories":[],"categories_nodes":[],"categories_segments":[],"categories_sizes":[],"default_left":[0,0,0,0,0,0,0,0,0,0,0,0,0,0,0,0,0,0,0,0,0],"id":28,"left_children":[1,3,5,7,9,11,-1,-1,13,15,17,-1,19,-1,-1,-1,-1,-1,-1,-1,-1],"loss_changes":[7.084804E0,7.604361E0,3.6851068E0,5.5480657E0,9.126154E0,3.835924E0,0E0,0E0,6.678486E0,6.1544943E0,8.74221E0,0E0,3.4891582E0,0E0,0E0,0E0,0E0,0E0,0E0,0E0,0E0],"parents":[2147483647,0,0,1,1,2,2,3,3,4,4,5,5,8,8,9,9,10,10,12,12],"right_children":[2,4,6,8,10,12,-1,-1,14,16,18,-1,20,-1,-1,-1,-1,-1,-1,-1,-1],"split_conditions":[1.6437837E0,-1.2330904E0,8.4618336E-1,-6.8424E-1,2.6603482E0,-1.1398169E0,8.550731E-3,-4.417083E-3,-5.2323107E-2,-1.2327671E0,-1.2381563E-1,-5.146095E-3,-6.6785276E-1,6.3746393E-4,6.4327396E-3,-4.6820585E-3,-7.070001E-5,-0E0,-1.335071E-2,-5.6911644E-4,4.48927E-3],"split_indices":[36,147,410,142,161,294,0,0,371,56,224,0,95,0,0,0,0,0,0,0,0],"split_type":[0,0,0,0,0,0,0,0,0,0,0,0,0,0,0,0,0,0,0,0,0],"sum_hessian":[1.2933337E3,1.219505E3,7.38288E1,8.803268E1,1.1314723E3,6.451904E1,9.309754E0,8.416102E0,7.961658E1,1.11353E3,1.7942242E1,5.2054944E0,5.931355E1,4.0741264E1,3.8875313E1,2.8256357E1,1.0852737E3,9.025854E0,8.9163885E0,1.93761E1,3.993745E1],"tree_param":{"num_deleted":"0","num_feature":"420","num_nodes":"21","size_leaf_vector":"1"}},{"base_weights":[-1.4756257E-2,7.3206747E-1,-2.3074482E-2,1.1217849E-3,1.2700047E-2,-1.2601182E-2,-5.805338E-1,1.2314281E-1,-4.8860054E-2,-1.6799344E-1,-1.4715197E-2,7.898402E-4,1.1285263E-2,-6.763006E-4,2.2910135E-3,2.924336E-3,-5.102435E-3],"categories":[],"categories_nodes":[],"categories_segments":[],"categories_sizes":[],"default_left":[0,0,0,0,0,0,0,0,0,0,0,0,0,0,0,0,0],"id":29,"left_children":[1,3,5,-1,-1,7,9,11,13,15,-1,-1,-1,-1,-1,-1,-1],"loss_changes":[7.7504907E0,4.228916E0,7.1852083E0,0E0,0E0,6.0137453E0,7.8118196E0,1.1170652E1,5.0452743E0,2.9703548E0,0E0,0E0,0E0,0E0,0E0,0E0,0E0],"parents":[2147483647,0,0,1,1,2,2,5,5,6,6,7,7,8,8,9,9],"right_children":[2,4,6,-1,-1,8,10,12,14,16,-1,-1,-1,-1,-1,-1,-1],"split_conditions":[-1.6988322E0,-3.6628497E-1,2.478359E0,1.1217849E-3,1.2700047E-2,-6.646517E-1,3.0502394E-1,2.7099612E0,1.6437837E0,-1.8312526E-1,-1.4715197E-2,7.898402E-4,1.1285263E-2,-6.763006E-4,2.2910135E-3,2.924336E-3,-5.102435E-3],"split_indices":[357,99,53,0,0,411,14,13,36,389,0,0,0,0,0,0,0],"split_type":[0,0,0,0,0,0,0,0,0,0,0,0,0,0,0,0,0],"sum_hessian":[1.2534485E3,1.2237227E1,1.2412113E3,6.614148E0,5.623079E0,1.2200037E3,2.12076E1,2.5584245E2,9.6416125E2,1.5791121E1,5.416479E0,2.467231E2,9.119347E0,9.0457263E2,5.958861E1,6.7016206E0,9.0895E0],"tree_param":{"num_deleted":"0","num_feature":"420","num_nodes":"17","size_leaf_vector":"1"}},{"base_weights":[1.2592966E-3,4.5172444E-1,-1.2216953E-2,6.719988E-1,-4.6191895E-3,2.7029437E-1,-3.0090788E-2,1.9053156E-2,2.9186577E-1,-3.326083E-1,4.192216E-1,-1.9963982E-2,-6.173405E-1,7.630786E-3,-4.008476E-3,4.8280586E-3,-8.807733E-3,2.798884E-3,1.1484185E-2,-5.0935414E-5,-2.6862465E-3,-7.032294E-5,-1.2699538E-2],"categories":[],"categories_nodes":[],"categories_segments":[],"categories_sizes":[],"default_left":[0,0,0,0,0,0,0,0,0,0,0,0,0,0,0,0,0,0,0,0,0,0,0],"id":30,"left_children":[1,3,5,7,-1,9,11,-1,13,15,17,19,21,-1,-1,-1,-1,-1,-1,-1,-1,-1,-1],"loss_changes":[7.8236017E0,8.021612E0,6.27099E0,1.3417149E1,0E0,6.8489594E0,6.8868885E0,0E0,8.795021E0,7.5310593E0,5.473156E0,4.2367086E0,7.6847215E0,0E0,0E0,0E0,0E0,0E0,0E0,0E0,0E0,0E0,0E0],"parents":[2147483647,0,0,1,1,2,2,3,3,5,5,6,6,8,8,9,9,10,10,11,11,12,12],"right_children":[2,4,6,8,-1,10,12,-1,14,16,18,20,22,-1,-1,-1,-1,-1,-1,-1,-1,-1,-1],"split_conditions":[-1.441866E0,2.2933862E0,-1.429283E0,-9.028894E-1,-4.6191895E-3,-1.6035777E0,2.4278045E0,1.9053156E-2,9.601585E-2,-6.2201375E-1,1.2442777E0,1.580532E0,-5.2627724E-1,7.630786E-3,-4.008476E-3,4.8280586E-3,-8.807733E-3,2.798884E-3,1.1484185E-2,-5.0935414E-5,-2.6862465E-3,-7.032294E-5,-1.2699538E-2],"split_indices":[294,240,417,207,0,347,152,0,379,21,31,195,312,0,0,0,0,0,0,0,0,0,0],"split_type":[0,0,0,0,0,0,0,0,0,0,0,0,0,0,0,0,0,0,0,0,0,0,0],"sum_hessian":[1.2786696E3,3.5940525E1,1.2427291E3,2.9366585E1,6.5739427E0,7.23528E1,1.1703762E3,5.4389267E0,2.3927658E1,1.3832626E1,5.852017E1,1.152228E3,1.8148275E1,1.4235834E1,9.691824E0,5.5593395E0,8.273287E0,5.099E1,7.5301666E0,1.0890343E3,6.3193703E1,1.024076E1,7.9075155E0],"tree_param":{"num_deleted":"0","num_feature":"420","num_nodes":"23","size_leaf_vector":"1"}},{"base_weights":[1.1660849E-2,6.4519745E-1,-0E0,1.1774416E0,3.199124E-2,-1.3902492E-2,4.7840866E-1,1.913346E-2,1.3872184E-3,-3.5325643E-3,4.618407E-3,-9.598624E-3,-7.296656E-3,7.114594E-1,-1.5463872E-3,1.701114E-6,-6.160501E-3,1.1484825E-2,1.8542404E-3],"categories":[],"categories_nodes":[],"categories_segments":[],"categories_sizes":[],"default_left":[0,0,0,0,0,0,0,0,0,0,0,0,0,0,0,0,0,0,0],"id":31,"left_children":[1,3,5,7,9,11,13,-1,-1,-1,-1,-1,15,17,-1,-1,-1,-1,-1],"loss_changes":[9.397025E0,7.3259535E0,8.355858E0,8.705763E0,2.294389E0,7.509673E0,5.455014E0,0E0,0E0,0E0,0E0,0E0,5.5712013E0,5.596859E0,0E0,0E0,0E0,0E0,0E0],"parents":[2147483647,0,0,1,1,2,2,3,3,4,4,5,5,6,6,12,12,13,13],"right_children":[2,4,6,8,10,12,14,-1,-1,-1,-1,-1,16,18,-1,-1,-1,-1,-1],"split_conditions":[-1.6205497E0,2.0511522E0,2.4508166E0,2.0147932E-1,-7.2257257E-1,-1.7391706E0,3.862867E-1,1.913346E-2,1.3872184E-3,-3.5325643E-3,4.618407E-3,-9.598624E-3,2.1123743E0,4.8140094E-1,-1.5463872E-3,1.701114E-6,-6.160501E-3,1.1484825E-2,1.8542404E-3],"split_indices":[336,324,287,256,132,0,181,0,0,0,0,0,387,53,0,0,0,0,0],"split_type":[0,0,0,0,0,0,0,0,0,0,0,0,0,0,0,0,0,0,0],"sum_hessian":[1.2728953E3,2.1490093E1,1.2514052E3,1.0678339E1,1.0811755E1,1.2174261E3,3.3979065E1,5.4545984E0,5.22374E0,5.7199526E0,5.0918026E0,6.8365183E0,1.2105896E3,2.4815594E1,9.16347E0,1.19724E3,1.3349635E1,1.2481285E1,1.2334308E1],"tree_param":{"num_deleted":"0","num_feature":"420","num_nodes":"19","size_leaf_vector":"1"}},{"base_weights":[2.9800811E-3,2.2542801E-1,-2.017452E-2,9.159428E-2,7.6967674E-1,1.2302315E-1,-5.5581972E-2,-1.3966683E-1,4.9037582E-1,2.582934E-1,1.7918915E-2,6.375823E-2,6.61376E-1,-4.6561785E-2,-9.728007E-3,-3.575987E-3,1.9755177E-3,-9.3424733E-4,1.012119E-2,6.512153E-3,-3.6807272E-3,-3.1169774E-3,1.256572E-3,8.044869E-4,1.0369719E-2,3.0820714E-3,-6.3818664E-4],"categories":[],"categories_nodes":[],"categories_segments":[],"categories_sizes":[],"default_left":[0,0,0,0,0,0,0,0,0,0,0,0,0,0,0,0,0,0,0,0,0,0,0,0,0,0,0],"id":32,"left_children":[1,3,5,7,9,11,13,15,17,19,-1,21,23,25,-1,-1,-1,-1,-1,-1,-1,-1,-1,-1,-1,-1,-1],"loss_changes":[6.5935364E0,8.600931E0,5.862713E0,9.243887E0,1.1372506E1,7.1705217E0,7.5087614E0,4.789051E0,1.1422794E1,4.686342E0,0E0,4.8768353E0,4.6467543E0,5.642068E0,0E0,0E0,0E0,0E0,0E0,0E0,0E0,0E0,0E0,0E0,0E0,0E0,0E0],"parents":[2147483647,0,0,1,1,2,2,3,3,4,4,5,5,6,6,7,7,8,8,9,9,11,11,12,12,13,13],"right_children":[2,4,6,8,10,12,14,16,18,20,-1,22,24,26,-1,-1,-1,-1,-1,-1,-1,-1,-1,-1,-1,-1,-1],"split_conditions":[-1.093685E0,6.8771863E-1,-8.883008E-1,4.269016E-1,1.1394459E-1,1.2320012E0,2.513415E0,-2.9471243E-2,-4.3852244E-2,7.3640853E-1,1.7918915E-2,-8.7037086E-1,-7.586683E-1,-1.6409345E0,-9.728007E-3,-3.575987E-3,1.9755177E-3,-9.3424733E-4,1.012119E-2,6.512153E-3,-3.6807272E-3,-3.1169774E-3,1.256572E-3,8.044869E-4,1.0369719E-2,3.0820714E-3,-6.3818664E-4],"split_indices":[378,78,226,121,57,262,246,76,200,165,0,39,257,410,0,0,0,0,0,0,0,0,0,0,0,0,0],"split_type":[0,0,0,0,0,0,0,0,0,0,0,0,0,0,0,0,0,0,0,0,0,0,0,0,0,0,0],"sum_hessian":[1.2733165E3,1.192159E2,1.1541006E3,9.724019E1,2.197571E1,2.2749818E2,9.266025E2,6.2005745E1,3.5234444E1,1.5965498E1,6.010213E0,2.066161E2,2.0882067E1,9.192475E2,7.3549657E0,3.778961E1,2.4216131E1,1.7119005E1,1.8115438E1,9.872551E0,6.0929475E0,2.8157051E1,1.7845906E2,9.019423E0,1.1862645E1,4.119852E1,8.7804895E2],"tree_param":{"num_deleted":"0","num_feature":"420","num_nodes":"27","size_leaf_vector":"1"}},{"base_weights":[4.40432E-3,2.8169453E-1,-2.0058671E-2,1.570921E-2,1.6541708E-1,-4.965884E-2,1.9219753E-1,9.868206E-3,8.6528145E-2,-2.4009973E-2,-2.7036354E-1,3.8780838E-1,-1.31707E-1,3.906298E-3,-1.5129981E-3,3.408913E-3,-4.6196743E-4,-1.0726845E-2,-1.7034041E-3,2.8010875E-3,1.2543708E-2,5.900737E-3,-2.625767E-3],"categories":[],"categories_nodes":[],"categories_segments":[],"categories_sizes":[],"default_left":[0,0,0,0,0,0,0,0,0,0,0,0,0,0,0,0,0,0,0,0,0,0,0],"id":33,"left_children":[1,3,5,-1,7,9,11,-1,13,15,17,19,21,-1,-1,-1,-1,-1,-1,-1,-1,-1,-1],"loss_changes":[8.560398E0,1.4775859E1,7.263261E0,0E0,5.9598837E0,5.7131395E0,9.0599165E0,0E0,6.5482974E0,7.3810663E0,8.047564E0,7.599537E0,5.315591E0,0E0,0E0,0E0,0E0,0E0,0E0,0E0,0E0,0E0,0E0],"parents":[2147483647,0,0,1,1,2,2,4,4,5,5,6,6,8,8,9,9,10,10,11,11,12,12],"right_children":[2,4,6,-1,8,10,12,-1,14,16,18,20,22,-1,-1,-1,-1,-1,-1,-1,-1,-1,-1],"split_conditions":[-1.1604917E0,-1.0746846E0,8.750375E-1,1.570921E-2,-1.6066682E0,1.0912795E0,4.0138093E-1,9.868206E-3,-3.912756E-1,-9.640432E-1,-1.031971E0,9.8965627E-1,-8.911488E-1,3.906298E-3,-1.5129981E-3,3.408913E-3,-4.6196743E-4,-1.0726845E-2,-1.7034041E-3,2.8010875E-3,1.2543708E-2,5.900737E-3,-2.625767E-3],"split_indices":[357,410,391,0,53,161,330,0,36,34,169,157,167,0,0,0,0,0,0,0,0,0,0],"split_type":[0,0,0,0,0,0,0,0,0,0,0,0,0,0,0,0,0,0,0,0,0,0,0],"sum_hessian":[1.255366E3,1.00824646E2,1.1545414E3,6.7176375E0,9.4107E1,1.0146619E3,1.398794E2,6.6224065E0,8.74846E1,9.109173E2,1.0374461E2,8.721919E1,5.26602E1,3.8154552E1,4.9330048E1,5.0717808E1,8.601995E2,9.772177E0,9.3972435E1,7.944565E1,7.7735443E0,7.157469E0,4.550273E1],"tree_param":{"num_deleted":"0","num_feature":"420","num_nodes":"23","size_leaf_vector":"1"}},{"base_weights":[1.3127598E-3,4.7770375E-1,-1.41782295E-2,7.492815E-1,-2.8792303E-3,-2.3999372E-2,7.908039E-1,1.58221E-2,3.2000396E-1,-7.202811E-1,-1.6025195E-2,1.8494193E-3,1.2405665E-2,8.543823E-3,-2.2567514E-5,-6.557661E-4,-1.3965771E-2,4.525085E-3,-2.8093907E-4],"categories":[],"categories_nodes":[],"categories_segments":[],"categories_sizes":[],"default_left":[0,0,0,0,0,0,0,0,0,0,0,0,0,0,0,0,0,0,0],"id":34,"left_children":[1,3,5,7,-1,9,11,-1,13,15,17,-1,-1,-1,-1,-1,-1,-1,-1],"loss_changes":[9.517381E0,8.815946E0,9.777804E0,9.955008E0,0E0,6.7354527E0,3.5741081E0,0E0,3.8913345E0,5.8023634E0,6.8595896E0,0E0,0E0,0E0,0E0,0E0,0E0,0E0,0E0],"parents":[2147483647,0,0,1,1,2,2,3,3,5,5,6,6,8,8,9,9,10,10],"right_children":[2,4,6,8,-1,10,12,-1,14,16,18,-1,-1,-1,-1,-1,-1,-1,-1],"split_conditions":[-1.441866E0,2.221057E0,3.5326633E0,-3.192463E-1,-2.8792303E-3,-1.4525702E0,-1.440888E-1,1.58221E-2,-1.6338186E-1,-5.7005554E-1,-1.6915367E0,1.8494193E-3,1.2405665E-2,8.543823E-3,-2.2567514E-5,-6.557661E-4,-1.3965771E-2,4.525085E-3,-2.8093907E-4],"split_indices":[294,303,287,256,0,168,329,0,32,137,148,0,0,0,0,0,0,0,0],"split_type":[0,0,0,0,0,0,0,0,0,0,0,0,0,0,0,0,0,0,0],"sum_hessian":[1.280501E3,3.9120983E1,1.24138E3,2.8997744E1,1.012324E1,1.2279775E3,1.3402372E1,8.412795E0,2.0584948E1,1.2245054E1,1.2157325E3,6.706876E0,6.6954966E0,6.9288664E0,1.3656082E1,7.1330476E0,5.1120067E0,2.894631E1,1.1867863E3],"tree_param":{"num_deleted":"0","num_feature":"420","num_nodes":"19","size_leaf_vector":"1"}},{"base_weights":[8.504134E-3,1.9377813E-4,6.2470293E-1,2.7365407E-1,-1.9862805E-2,-7.725215E-4,1.0680506E-2,8.5138656E-2,9.5356804E-1,-3.8631245E-1,-3.1649256E-3,1.7418219E-3,-6.811098E-3,2.6975693E-3,1.6416706E-2,-1.9225207E-3,-1.3078662E-2,2.2295865E-3,-3.1999307E-4],"categories":[],"categories_nodes":[],"categories_segments":[],"categories_sizes":[],"default_left":[0,0,0,0,0,0,0,0,0,0,0,0,0,0,0,0,0,0,0],"id":35,"left_children":[1,3,5,7,9,-1,-1,11,13,15,17,-1,-1,-1,-1,-1,-1,-1,-1],"loss_changes":[6.3843956E0,6.855901E0,5.3866887E0,1.0725563E1,7.0569077E0,0E0,0E0,4.811574E0,7.7481613E0,8.464474E0,7.23663E0,0E0,0E0,0E0,0E0,0E0,0E0,0E0,0E0],"parents":[2147483647,0,0,1,1,2,2,3,3,4,4,7,7,8,8,9,9,10,10],"right_children":[2,4,6,8,10,-1,-1,12,14,16,18,-1,-1,-1,-1,-1,-1,-1,-1],"split_conditions":[3.5326633E0,-1.1904738E0,-4.5105428E-1,1.6363288E-1,-1.140059E0,-7.725215E-4,1.0680506E-2,1.4481336E0,-4.7715798E-1,-4.4056523E-1,-1.0261294E0,1.7418219E-3,-6.811098E-3,2.6975693E-3,1.6416706E-2,-1.9225207E-3,-1.3078662E-2,2.2295865E-3,-3.1999307E-4],"split_indices":[287,149,204,408,381,0,0,342,256,291,418,0,0,0,0,0,0,0,0],"split_type":[0,0,0,0,0,0,0,0,0,0,0,0,0,0,0,0,0,0,0],"sum_hessian":[1.2574885E3,1.2423956E3,1.50927925E1,8.3940025E1,1.1584557E3,6.2345943E0,8.858198E0,6.7155235E1,1.6784796E1,4.8778416E1,1.1096772E3,6.131905E1,5.8361816E0,9.538829E0,7.245967E0,4.1880642E1,6.89777E0,1.2396425E2,9.85713E2],"tree_param":{"num_deleted":"0","num_feature":"420","num_nodes":"19","size_leaf_vector":"1"}},{"base_weights":[5.0153094E-3,2.6082975E-1,-2.1165002E-2,4.7156566E-1,6.367499E-2,-1.0522849E-2,-5.327297E-1,2.1379969E-1,1.1009024E0,-1.8668526E-1,3.8348043E-1,3.1421894E-1,-3.017964E-2,-8.4982395E-1,-0E0,-8.619396E-4,6.160019E-3,4.9441173E-3,1.8394496E-2,2.909406E-3,-4.568881E-3,-2.1244478E-3,5.3115087E-3,4.6032653E-3,-2.009228E-3,-2.0564189E-4,-5.7124523E-3,-1.9112416E-3,-1.210252E-2],"categories":[],"categories_nodes":[],"categories_segments":[],"categories_sizes":[],"default_left":[0,0,0,0,0,0,0,0,0,0,0,0,0,0,0,0,0,0,0,0,0,0,0,0,0,0,0,0,0],"id":36,"left_children":[1,3,5,7,9,11,13,15,17,19,21,23,25,27,-1,-1,-1,-1,-1,-1,-1,-1,-1,-1,-1,-1,-1,-1,-1],"loss_changes":[8.673019E0,4.897441E0,6.3147573E0,8.866361E0,5.259742E0,7.3221645E0,3.9127917E0,5.3049545E0,5.6923923E0,4.9639482E0,2.7368774E0,5.0899024E0,5.5698323E0,3.0057411E0,0E0,0E0,0E0,0E0,0E0,0E0,0E0,0E0,0E0,0E0,0E0,0E0,0E0,0E0,0E0],"parents":[2147483647,0,0,1,1,2,2,3,3,4,4,5,5,6,6,7,7,8,8,9,9,10,10,11,11,12,12,13,13],"right_children":[2,4,6,8,10,12,14,16,18,20,22,24,26,28,-1,-1,-1,-1,-1,-1,-1,-1,-1,-1,-1,-1,-1,-1,-1],"split_conditions":[-1.2647505E0,-2.6207373E-1,2.3732457E0,1.982798E-1,-2.9471243E-2,-9.640432E-1,1.6359672E-1,-1.5226103E-1,-1.4399849E0,-1.1531941E0,-1.6966053E0,3.5723683E-1,1.9379E0,-8.4773785E-1,-0E0,-8.619396E-4,6.160019E-3,4.9441173E-3,1.8394496E-2,2.909406E-3,-4.568881E-3,-2.1244478E-3,5.3115087E-3,4.6032653E-3,-2.009228E-3,-2.0564189E-4,-5.7124523E-3,-1.9112416E-3,-1.210252E-2],"split_indices":[316,370,162,162,76,34,349,371,321,216,326,160,345,393,0,0,0,0,0,0,0,0,0,0,0,0,0,0,0],"split_type":[0,0,0,0,0,0,0,0,0,0,0,0,0,0,0,0,0,0,0,0,0,0,0,0,0,0,0,0,0],"sum_hessian":[1.2886871E3,1.18747795E2,1.1699393E3,5.614269E1,6.260511E1,1.1477881E3,2.2151266E1,4.1367657E1,1.4775029E1,3.5289978E1,2.7315132E1,6.393751E1,1.0838506E3,1.3212036E1,8.939231E0,2.422711E1,1.7140549E1,9.5621805E0,5.2128487E0,1.2575533E1,2.2714445E1,5.159358E0,2.2155775E1,5.0085655E1,1.3851858E1,1.0666368E3,1.7213718E1,5.5825357E0,7.6295004E0],"tree_param":{"num_deleted":"0","num_feature":"420","num_nodes":"29","size_leaf_vector":"1"}},{"base_weights":[-1.7606203E-3,2.8369644E-1,-2.1686798E-2,9.634177E-2,7.6182485E-1,-4.0828552E-2,2.718061E-1,2.2388788E-1,-9.803171E-3,2.3598294E-1,1.2577053E-2,2.587991E-1,-6.2274802E-2,-5.1776256E-2,4.8641214E-1,4.5802933E-3,-2.5874656E-3,-2.0360851E-3,6.1046025E-3,5.4771393E-3,-0E0,-1.4556115E-3,-2.3700193E-6,1.6694332E-3,-5.181412E-3,1.4520092E-3,7.854223E-3],"categories":[],"categories_nodes":[],"categories_segments":[],"categories_sizes":[],"default_left":[0,0,0,0,0,0,0,0,0,0,0,0,0,0,0,0,0,0,0,0,0,0,0,0,0,0,0],"id":37,"left_children":[1,3,5,7,9,11,13,15,-1,17,-1,19,21,23,25,-1,-1,-1,-1,-1,-1,-1,-1,-1,-1,-1,-1],"loss_changes":[7.1551676E0,7.154372E0,6.624755E0,8.6055975E0,5.333209E0,7.1353993E0,5.091256E0,6.4900556E0,0E0,2.3634574E0,0E0,5.5945625E0,5.3440022E0,3.218698E0,4.1951485E0,0E0,0E0,0E0,0E0,0E0,0E0,0E0,0E0,0E0,0E0,0E0,0E0],"parents":[2147483647,0,0,1,1,2,2,3,3,4,4,5,5,6,6,7,7,9,9,11,11,12,12,13,13,14,14],"right_children":[2,4,6,8,10,12,14,16,-1,18,-1,20,22,24,26,-1,-1,-1,-1,-1,-1,-1,-1,-1,-1,-1,-1],"split_conditions":[-1.2769887E0,3.5944808E-1,1.6437837E0,1.1853429E0,3.2021898E-1,-9.640432E-1,-5.0242436E-1,-3.441795E-1,-9.803171E-3,1.1454604E-1,1.2577053E-2,-4.170357E-1,-1.7636967E-1,5.752977E-1,-8.291829E-2,4.5802933E-3,-2.5874656E-3,-2.0360851E-3,6.1046025E-3,5.4771393E-3,-0E0,-1.4556115E-3,-2.3700193E-6,1.6694332E-3,-5.181412E-3,1.4520092E-3,7.854223E-3],"split_indices":[336,246,36,388,371,34,96,334,0,419,0,160,270,57,221,0,0,0,0,0,0,0,0,0,0,0,0],"split_type":[0,0,0,0,0,0,0,0,0,0,0,0,0,0,0,0,0,0,0,0,0,0,0,0,0,0,0],"sum_hessian":[1.2594097E3,8.055309E1,1.1788566E3,5.9319958E1,2.1233137E1,1.1082106E3,7.0646E1,5.4182236E1,5.137724E0,1.1477572E1,9.755565E0,7.2603004E1,1.0356075E3,2.8438562E1,4.220744E1,3.667411E1,1.7508123E1,5.471766E0,6.0058064E0,3.3693634E1,3.890937E1,4.405429E2,5.9506464E2,1.9868906E1,8.569654E0,2.0909595E1,2.1297844E1],"tree_param":{"num_deleted":"0","num_feature":"420","num_nodes":"27","size_leaf_vector":"1"}},{"base_weights":[3.7390543E-3,3.9450234E-1,-1.2115974E-2,1.0755926E-2,1.990584E-1,-8.8673085E-2,6.273377E-2,-1.97187E-1,5.719477E-1,-6.732613E-2,-5.908328E-1,2.4963501E-1,7.845717E-3,2.646013E-3,-5.1561976E-3,1.4163826E-3,1.15282135E-2,-4.5472113E-3,-4.3327952E-4,-1.079915E-2,7.268474E-4,1.9015123E-3,1.1299847E-2,-8.5123954E-4,1.1874472E-3],"categories":[],"categories_nodes":[],"categories_segments":[],"categories_sizes":[],"default_left":[0,0,0,0,0,0,0,0,0,0,0,0,0,0,0,0,0,0,0,0,0,0,0,0,0],"id":38,"left_children":[1,3,5,-1,7,9,11,13,15,17,19,21,23,-1,-1,-1,-1,-1,-1,-1,-1,-1,-1,-1,-1],"loss_changes":[7.8698783E0,6.1451902E0,6.972544E0,0E0,6.182556E0,6.326338E0,6.2753334E0,3.2580113E0,4.9624085E0,5.3054595E0,8.058263E0,6.8265114E0,4.936225E0,0E0,0E0,0E0,0E0,0E0,0E0,0E0,0E0,0E0,0E0,0E0,0E0],"parents":[2147483647,0,0,1,1,2,2,4,4,5,5,6,6,7,7,8,8,9,9,10,10,11,11,12,12],"right_children":[2,4,6,-1,8,10,12,14,16,18,20,22,24,-1,-1,-1,-1,-1,-1,-1,-1,-1,-1,-1,-1],"split_conditions":[-1.4022086E0,-3.5248536E-1,-3.898107E-2,1.0755926E-2,4.8027533E-1,1.0799112E0,1.8560997E-1,-5.843612E-1,-2.0141572E-1,-1.4710603E0,-2.3628673E-1,1.1817305E0,1.1376066E-1,2.646013E-3,-5.1561976E-3,1.4163826E-3,1.15282135E-2,-4.5472113E-3,-4.3327952E-4,-1.079915E-2,7.268474E-4,1.9015123E-3,1.1299847E-2,-8.5123954E-4,1.1874472E-3],"split_indices":[294,410,270,0,410,232,270,12,99,120,223,312,36,0,0,0,0,0,0,0,0,0,0,0,0],"split_type":[0,0,0,0,0,0,0,0,0,0,0,0,0,0,0,0,0,0,0,0,0,0,0,0,0],"sum_hessian":[1.2614152E3,4.8034733E1,1.2133804E3,9.090203E0,3.894453E1,6.0037225E2,6.130081E2,1.9093603E1,1.9850927E1,5.7771375E2,2.2658535E1,1.3753589E2,4.7547226E2,7.768024E0,1.1325579E1,1.2574032E1,7.2768946E0,3.1886745E1,5.4582697E2,1.2588706E1,1.0069829E1,1.3064594E2,6.889946E0,2.583431E2,2.1712917E2],"tree_param":{"num_deleted":"0","num_feature":"420","num_nodes":"25","size_leaf_vector":"1"}},{"base_weights":[-5.5049052E-3,3.0447733E-1,-2.9801523E-2,1.0888972E-2,7.4220467E-1,-1.968262E-2,-6.849303E-1,4.8241168E-1,-2.4486531E-1,-1.9124154E-3,9.59963E-1,-7.6796473E-3,-4.6421313E-1,6.640554E-4,-1.3476297E-2,1.1035371E-2,-1.2171642E-3,-4.2116255E-3,4.977021E-3,-7.5656455E-4,1.2328605E-2,-4.3090104E-4,1.5311701E-3,2.713461E-3,-7.504276E-3],"categories":[],"categories_nodes":[],"categories_segments":[],"categories_sizes":[],"default_left":[0,0,0,0,0,0,0,0,0,0,0,0,0,0,0,0,0,0,0,0,0,0,0,0,0],"id":39,"left_children":[1,3,5,7,9,11,13,15,17,-1,19,21,23,-1,-1,-1,-1,-1,-1,-1,-1,-1,-1,-1,-1],"loss_changes":[9.545014E0,1.1746359E1,7.7224674E0,7.0477123E0,7.834059E0,6.149486E0,9.091616E0,8.032656E0,5.2378807E0,0E0,8.785488E0,6.4531965E0,6.7357316E0,0E0,0E0,0E0,0E0,0E0,0E0,0E0,0E0,0E0,0E0,0E0,0E0],"parents":[2147483647,0,0,1,1,2,2,3,3,4,4,5,5,6,6,7,7,8,8,10,10,11,11,12,12],"right_children":[2,4,6,8,10,12,14,16,18,-1,20,22,24,-1,-1,-1,-1,-1,-1,-1,-1,-1,-1,-1,-1],"split_conditions":[-1.1604917E0,4.269016E-1,2.2291381E0,-2.9401004E-1,-1.3992567E0,2.4535754E0,-2.3502682E-1,1.0519036E0,1.2790159E0,-1.9124154E-3,-6.081339E-1,9.88182E-1,-9.1816413E-1,6.640554E-4,-1.3476297E-2,1.1035371E-2,-1.2171642E-3,-4.2116255E-3,4.977021E-3,-7.5656455E-4,1.2328605E-2,-4.3090104E-4,1.5311701E-3,2.713461E-3,-7.504276E-3],"split_indices":[357,121,249,332,204,77,4,59,414,0,394,31,221,0,0,0,0,0,0,0,0,0,0,0,0],"split_type":[0,0,0,0,0,0,0,0,0,0,0,0,0,0,0,0,0,0,0,0,0,0,0,0,0],"sum_hessian":[1.2676821E3,9.058341E1,1.1770988E3,5.527539E1,3.530802E1,1.1608661E3,1.6232647E1,1.910817E1,3.616722E1,6.626443E0,2.8681578E1,1.13205E3,2.8816132E1,8.169391E0,8.063257E0,8.8917675E0,1.0216401E1,2.9861532E1,6.305688E0,6.131365E0,2.2550213E1,9.2915295E2,2.0289706E2,7.995799E0,2.0820333E1],"tree_param":{"num_deleted":"0","num_feature":"420","num_nodes":"25","size_leaf_vector":"1"}},{"base_weights":[4.376724E-3,-5.3460248E-2,1.1185077E-1,-6.495526E-2,5.3806794E-1,2.0098671E-2,3.212898E-1,-5.1674493E-2,-6.275802E-1,-9.949687E-4,9.586898E-3,-9.192094E-3,4.4807877E-2,1.2720045E0,2.1690358E-1,-8.6223544E-4,1.4845751E-3,-5.1198695E-5,-1.1900157E-2,2.5327927E-3,-3.72724E-4,3.97174E-3,1.849002E-2,1.4003909E-3,8.318045E-3],"categories":[],"categories_nodes":[],"categories_segments":[],"categories_sizes":[],"default_left":[0,0,0,0,0,0,0,0,0,0,0,0,0,0,0,0,0,0,0,0,0,0,0,0,0],"id":40,"left_children":[1,3,5,7,9,11,13,15,17,-1,-1,-1,19,21,23,-1,-1,-1,-1,-1,-1,-1,-1,-1,-1],"loss_changes":[7.7304E0,5.4950476E0,8.322334E0,5.8125463E0,4.355232E0,7.045617E0,1.2556309E1,5.385523E0,6.1696873E0,0E0,0E0,0E0,5.1417255E0,5.072031E0,5.4478807E0,0E0,0E0,0E0,0E0,0E0,0E0,0E0,0E0,0E0,0E0],"parents":[2147483647,0,0,1,1,2,2,3,3,4,4,5,5,6,6,7,7,8,8,12,12,13,13,14,14],"right_children":[2,4,6,8,10,12,14,16,18,-1,-1,-1,20,22,24,-1,-1,-1,-1,-1,-1,-1,-1,-1,-1],"split_conditions":[8.502327E-3,2.9805088E0,-9.8745756E-2,2.1549366E0,-3.4061646E-1,-1.8362892E0,-1.1456999E0,1.0489548E0,-9.226319E-1,-9.949687E-4,9.586898E-3,-9.192094E-3,-3.9230192E-1,-1.1797476E0,1.4740944E0,-8.6223544E-4,1.4845751E-3,-5.1198695E-5,-1.1900157E-2,2.5327927E-3,-3.72724E-4,3.97174E-3,1.849002E-2,1.4003909E-3,8.318045E-3],"split_indices":[391,287,371,127,7,186,189,31,312,0,0,0,242,103,366,0,0,0,0,0,0,0,0,0,0],"split_type":[0,0,0,0,0,0,0,0,0,0,0,0,0,0,0,0,0,0,0,0,0,0,0,0,0],"sum_hessian":[1.2397523E3,8.0588837E2,4.33864E2,7.9200195E2,1.38864155E1,3.0317084E2,1.3069319E2,7.755115E2,1.649044E1,5.880453E0,8.005962E0,6.2751575E0,2.9689566E2,1.1175366E1,1.1951782E2,6.624972E2,1.1301433E2,8.630414E0,7.860027E0,8.3332794E1,2.1356288E2,5.5167804E0,5.658586E0,1.0801932E2,1.1498506E1],"tree_param":{"num_deleted":"0","num_feature":"420","num_nodes":"25","size_leaf_vector":"1"}},{"base_weights":[6.9537736E-3,-2.7545916E-3,6.0579336E-1,4.5608798E-1,-1.4737099E-2,1.5226838E-2,8.038869E-3,6.640919E-2,1.1825657E-2,-4.1088476E-3,-6.2013215E-1,6.2202667E-3,-4.628798E-3,8.150366E-3,-2.4201437E-3,-8.211626E-4,7.021688E-4,-1.2553037E-2,-1.1277613E-3],"categories":[],"categories_nodes":[],"categories_segments":[],"categories_sizes":[],"default_left":[0,0,0,0,0,0,0,0,0,0,0,0,0,0,0,0,0,0,0],"id":41,"left_children":[1,3,5,7,9,-1,11,13,-1,15,17,-1,-1,-1,-1,-1,-1,-1,-1],"loss_changes":[7.3201594E0,6.7270617E0,1.0837086E1,8.570272E0,7.6554875E0,0E0,4.418511E0,5.4192805E0,0E0,6.8575635E0,6.267711E0,0E0,0E0,0E0,0E0,0E0,0E0,0E0,0E0],"parents":[2147483647,0,0,1,1,2,2,3,3,4,4,6,6,7,7,9,9,10,10],"right_children":[2,4,6,8,10,-1,12,14,-1,16,18,-1,-1,-1,-1,-1,-1,-1,-1],"split_conditions":[3.1801019E0,-1.4803718E0,-5.3124413E-2,6.030968E-1,2.8989923E0,1.5226838E-2,3.128328E-1,-6.115699E-1,1.1825657E-2,-6.4445816E-2,9.7767603E-1,6.2202667E-3,-4.628798E-3,8.150366E-3,-2.4201437E-3,-8.211626E-4,7.021688E-4,-1.2553037E-2,-1.1277613E-3],"split_indices":[287,273,183,389,383,0,322,224,0,270,94,0,0,0,0,0,0,0,0],"split_type":[0,0,0,0,0,0,0,0,0,0,0,0,0,0,0,0,0,0,0],"sum_hessian":[1.2468076E3,1.2282218E3,1.8585775E1,2.9631002E1,1.1985908E3,6.352866E0,1.223291E1,2.0441216E1,9.189788E0,1.179558E3,1.9032835E1,5.1931148E0,7.0397954E0,5.339982E0,1.51012335E1,5.7610455E2,6.034534E2,7.382317E0,1.1650517E1],"tree_param":{"num_deleted":"0","num_feature":"420","num_nodes":"19","size_leaf_vector":"1"}},{"base_weights":[-9.436724E-3,2.644344E-1,-3.06716E-2,1.0171698E-2,1.501455E-1,-1.9569408E-2,-7.181099E-1,-2.9205305E-3,6.4460886E-1,-4.277087E-2,2.4782094E-1,-1.450178E-2,-1.3095397E-1,-1.6617147E-3,5.394588E-3,6.281717E-4,1.3041591E-2,-1.4759839E-4,-3.0235362E-3,1.53443E-3,9.860087E-3,4.1533434E-3,-6.4430684E-3],"categories":[],"categories_nodes":[],"categories_segments":[],"categories_sizes":[],"default_left":[0,0,0,0,0,0,0,0,0,0,0,0,0,0,0,0,0,0,0,0,0,0,0],"id":42,"left_children":[1,3,5,-1,7,9,11,13,15,17,19,-1,21,-1,-1,-1,-1,-1,-1,-1,-1,-1,-1],"loss_changes":[7.3143926E0,7.4361258E0,8.839911E0,0E0,6.1527286E0,7.153175E0,7.4750834E0,5.6523566E0,7.0957556E0,7.6928167E0,6.0683236E0,0E0,3.7746885E0,0E0,0E0,0E0,0E0,0E0,0E0,0E0,0E0,0E0,0E0],"parents":[2147483647,0,0,1,1,2,2,4,4,5,5,6,6,7,7,8,8,9,9,10,10,12,12],"right_children":[2,4,6,-1,8,10,12,14,16,18,20,-1,22,-1,-1,-1,-1,-1,-1,-1,-1,-1,-1],"split_conditions":[-1.2060611E0,-1.1555866E0,2.2291381E0,1.0171698E-2,-3.640679E-1,1.4229177E0,-2.4227901E-1,4.476507E-1,4.0934693E-2,1.1559954E0,7.751091E-1,-1.450178E-2,-5.8475707E-2,-1.6617147E-3,5.394588E-3,6.281717E-4,1.3041591E-2,-1.4759839E-4,-3.0235362E-3,1.53443E-3,9.860087E-3,4.1533434E-3,-6.4430684E-3],"split_indices":[147,337,249,0,192,36,263,162,70,97,308,0,57,0,0,0,0,0,0,0,0,0,0],"split_type":[0,0,0,0,0,0,0,0,0,0,0,0,0,0,0,0,0,0,0,0,0,0,0],"sum_hessian":[1.2581427E3,8.895686E1,1.1691858E3,1.0048694E1,7.890817E1,1.1522648E3,1.6921015E1,6.123971E1,1.7668459E1,1.0617692E3,9.049567E1,6.4740644E0,1.0446951E1,4.8013058E1,1.3226656E1,1.0341058E1,7.327401E0,9.601336E2,1.0163549E2,8.196378E1,8.531879E0,5.1055017E0,5.341449E0],"tree_param":{"num_deleted":"0","num_feature":"420","num_nodes":"23","size_leaf_vector":"1"}},{"base_weights":[-1.2935547E-2,1.5996239E-1,-4.2497307E-2,-4.5150167E-1,2.3173887E-1,-2.7009515E-2,-4.9250454E-1,-9.600068E-3,-1.0252458E-3,1.3082331E-1,6.6026574E-1,-5.053528E-2,2.4767287E-1,-6.452313E-2,-8.884606E-1,-8.950197E-3,1.8572804E-3,9.941928E-3,1.401482E-3,-4.028545E-4,-6.303232E-3,1.2855642E-3,8.744273E-3,3.3925103E-3,-4.8545897E-3,-1.3356588E-3,-1.4089745E-2],"categories":[],"categories_nodes":[],"categories_segments":[],"categories_sizes":[],"default_left":[0,0,0,0,0,0,0,0,0,0,0,0,0,0,0,0,0,0,0,0,0,0,0,0,0,0,0],"id":43,"left_children":[1,3,5,7,9,11,13,-1,-1,15,17,19,21,23,25,-1,-1,-1,-1,-1,-1,-1,-1,-1,-1,-1,-1],"loss_changes":[6.48437E0,8.259089E0,7.4926624E0,3.2612553E0,7.0045385E0,6.7910852E0,5.8871365E0,0E0,0E0,7.898427E0,5.1022444E0,5.65761E0,5.915416E0,3.4820988E0,6.778537E0,0E0,0E0,0E0,0E0,0E0,0E0,0E0,0E0,0E0,0E0,0E0,0E0],"parents":[2147483647,0,0,1,1,2,2,3,3,4,4,5,5,6,6,9,9,10,10,11,11,12,12,13,13,14,14],"right_children":[2,4,6,8,10,12,14,-1,-1,16,18,20,22,24,26,-1,-1,-1,-1,-1,-1,-1,-1,-1,-1,-1,-1],"split_conditions":[-9.6373785E-1,-8.624122E-1,1.9093144E0,5.544057E-1,6.514686E-1,1.4229177E0,-3.8926706E-1,-9.600068E-3,-1.0252458E-3,-1.6075565E0,1.0216241E0,2.3732457E0,8.4618336E-1,-3.8557586E-1,-9.4071954E-1,-8.950197E-3,1.8572804E-3,9.941928E-3,1.401482E-3,-4.028545E-4,-6.303232E-3,1.2855642E-3,8.744273E-3,3.3925103E-3,-4.8545897E-3,-1.3356588E-3,-1.4089745E-2],"split_indices":[137,261,240,78,196,36,181,0,0,116,43,162,410,286,49,0,0,0,0,0,0,0,0,0,0,0,0],"split_type":[0,0,0,0,0,0,0,0,0,0,0,0,0,0,0,0,0,0,0,0,0,0,0,0,0,0,0],"sum_hessian":[1.2674703E3,1.8360718E2,1.0838632E3,1.830847E1,1.652987E2,1.0495532E3,3.430998E1,6.2656603E0,1.204281E1,1.3556519E2,2.973352E1,9.682163E2,8.1336876E1,1.744788E1,1.6862097E1,5.6285095E0,1.2993668E2,1.7158134E1,1.2575386E1,9.5314276E2,1.5073512E1,7.000034E1,1.1336537E1,8.932795E0,8.515085E0,7.729348E0,9.13275E0],"tree_param":{"num_deleted":"0","num_feature":"420","num_nodes":"27","size_leaf_vector":"1"}},{"base_weights":[-8.226015E-3,-1.935325E-2,5.237485E-1,-6.352163E-1,-1.0315181E-2,9.9335694E-1,-3.3249536E-3,-1.1466095E-2,2.2564104E-3,1.5796682E-1,-3.8563535E-2,1.3511475E-2,2.2049567E-3,-3.7995162E-3,2.4426386E-3,2.3240254E-3,-6.3173956E-4],"categories":[],"categories_nodes":[],"categories_segments":[],"categories_sizes":[],"default_left":[0,0,0,0,0,0,0,0,0,0,0,0,0,0,0,0,0],"id":44,"left_children":[1,3,5,7,9,11,-1,-1,-1,13,15,-1,-1,-1,-1,-1,-1],"loss_changes":[7.5137186E0,6.887789E0,1.1015228E1,8.362906E0,5.8650823E0,4.163521E0,0E0,0E0,0E0,8.351883E0,7.06497E0,0E0,0E0,0E0,0E0,0E0,0E0],"parents":[2147483647,0,0,1,1,2,2,3,3,4,4,5,5,9,9,10,10],"right_children":[2,4,6,8,10,12,-1,-1,-1,14,16,-1,-1,-1,-1,-1,-1],"split_conditions":[2.9804795E0,-2.1114166E0,8.0969393E-1,5.1250413E-2,-9.6373785E-1,7.0781076E-1,-3.3249536E-3,-1.1466095E-2,2.2564104E-3,-1.3328934E0,-9.181442E-1,1.3511475E-2,2.2049567E-3,-3.7995162E-3,2.4426386E-3,2.3240254E-3,-6.3173956E-4],"split_indices":[119,351,94,391,137,405,0,0,0,193,55,0,0,0,0,0,0],"split_type":[0,0,0,0,0,0,0,0,0,0,0,0,0,0,0,0,0],"sum_hessian":[1.273789E3,1.2492911E3,2.4497837E1,1.6405657E1,1.2328855E3,1.574116E1,8.756678E0,1.005232E1,6.353337E0,1.757103E2,1.0571752E3,9.90429E0,5.8368697E0,2.3425882E1,1.5228441E2,8.6630165E1,9.7054504E2],"tree_param":{"num_deleted":"0","num_feature":"420","num_nodes":"17","size_leaf_vector":"1"}},{"base_weights":[8.711551E-3,1.1872838E-2,1.1507203E-3,9.906582E-3,-5.2100635E-1,1.685875E-1,-1.7511267E-2,3.9297323E-5,-8.8528126E-1,8.843153E-3,1.0183452E-3,2.1656755E-4,-1.3203041E-3,-1.4509614E-2,-7.0497644E-4],"categories":[],"categories_nodes":[],"categories_segments":[],"categories_sizes":[],"default_left":[0,0,0,0,0,0,0,0,0,0,0,0,0,0,0],"id":45,"left_children":[1,-1,3,5,7,9,11,-1,13,-1,-1,-1,-1,-1,-1],"loss_changes":[1.1065839E1,0E0,5.6668406E0,5.3710237E0,4.0014815E0,8.456865E0,4.723446E0,0E0,5.3102455E0,0E0,0E0,0E0,0E0,0E0,0E0],"parents":[2147483647,0,0,2,2,3,3,4,4,5,5,6,6,8,8],"right_children":[2,-1,4,6,8,10,12,-1,14,-1,-1,-1,-1,-1,-1],"split_conditions":[-2.1265612E0,1.1872838E-2,2.440475E0,-9.01896E-1,-3.9921355E-1,-1.0676917E0,3.713989E-1,3.9297323E-5,2.466865E-1,8.843153E-3,1.0183452E-3,2.1656755E-4,-1.3203041E-3,-1.4509614E-2,-7.0497644E-4],"split_indices":[402,0,54,414,14,149,7,0,376,0,0,0,0,0,0],"split_type":[0,0,0,0,0,0,0,0,0,0,0,0,0,0,0],"sum_hessian":[1.2538865E3,6.416513E0,1.24747E3,1.2285321E3,1.8937752E1,1.8039857E2,1.0481335E3,8.253457E0,1.0684294E1,1.369465E1,1.6670393E2,7.8126666E2,2.6686694E2,5.542428E0,5.141866E0],"tree_param":{"num_deleted":"0","num_feature":"420","num_nodes":"15","size_leaf_vector":"1"}},{"base_weights":[-1.0453713E-2,5.362666E-1,-1.9098341E-2,9.809715E-3,-6.9585565E-4,-7.2471304E-3,-5.332724E-1,1.3373537E-1,-3.8604632E-2,-0E0,-1.0829217E0,3.6603117E-3,6.693763E-5,-2.956587E-4,-7.3527857E-3,-4.084306E-3,4.9879104E-3,-1.5877477E-3,-1.8466387E-2],"categories":[],"categories_nodes":[],"categories_segments":[],"categories_sizes":[],"default_left":[0,0,0,0,0,0,0,0,0,0,0,0,0,0,0,0,0,0,0],"id":46,"left_children":[1,3,5,-1,-1,7,9,11,13,15,17,-1,-1,-1,-1,-1,-1,-1,-1],"loss_changes":[5.971245E0,5.489755E0,7.5752344E0,0E0,0E0,5.420204E0,8.128662E0,6.5374136E0,6.219726E0,3.5158658E0,9.047138E0,0E0,0E0,0E0,0E0,0E0,0E0,0E0,0E0],"parents":[2147483647,0,0,1,1,2,2,5,5,6,6,7,7,8,8,9,9,10,10],"right_children":[2,4,6,-1,-1,8,10,12,14,16,18,-1,-1,-1,-1,-1,-1,-1,-1],"split_conditions":[-1.6783649E0,-1.8965071E-1,1.9629886E0,9.809715E-3,-6.9585565E-4,-8.4629023E-1,-1.1097836E0,-8.7440574E-1,1.938476E0,2.599243E-1,-4.9850404E-1,3.6603117E-3,6.693763E-5,-2.956587E-4,-7.3527857E-3,-4.084306E-3,4.9879104E-3,-1.5877477E-3,-1.8466387E-2],"split_indices":[318,117,261,0,0,357,294,316,387,371,77,0,0,0,0,0,0,0,0],"split_type":[0,0,0,0,0,0,0,0,0,0,0,0,0,0,0,0,0,0,0],"sum_hessian":[1.2696282E3,1.8157484E1,1.2514707E3,1.0030939E1,8.126545E0,1.2249523E3,2.6518332E1,2.2141046E2,1.0035419E3,1.4292545E1,1.2225785E1,7.700244E1,1.4440802E2,9.9237384E2,1.1168025E1,8.092823E0,6.199723E0,6.4109297E0,5.814856E0],"tree_param":{"num_deleted":"0","num_feature":"420","num_nodes":"19","size_leaf_vector":"1"}},{"base_weights":[3.4359037E-3,4.3848265E-2,-1.3429062E-1,3.0239241E-2,7.453192E-1,-9.952191E-2,-9.4044113E-1,2.8825486E-1,3.6208373E-3,3.6071686E-4,1.341928E-2,2.2488032E-1,-1.7185369E-1,-1.5766054E-2,-9.591189E-4,1.673782E-3,1.0966182E-2,2.8192622E-4,-2.5284807E-3,1.6109602E-4,6.898112E-3,-4.5691743E-3,-7.6131534E-4],"categories":[],"categories_nodes":[],"categories_segments":[],"categories_sizes":[],"default_left":[0,0,0,0,0,0,0,0,0,0,0,0,0,0,0,0,0,0,0,0,0,0,0],"id":47,"left_children":[1,3,5,7,9,11,13,15,17,-1,-1,19,21,-1,-1,-1,-1,-1,-1,-1,-1,-1,-1],"loss_changes":[7.1279464E0,9.357166E0,7.893624E0,6.663291E0,7.690983E0,6.625952E0,5.89625E0,8.468536E0,5.5679107E0,0E0,0E0,4.908777E0,6.1750026E0,0E0,0E0,0E0,0E0,0E0,0E0,0E0,0E0,0E0,0E0],"parents":[2147483647,0,0,1,1,2,2,3,3,4,4,5,5,6,6,7,7,8,8,11,11,12,12],"right_children":[2,4,6,8,10,12,14,16,18,-1,-1,20,22,-1,-1,-1,-1,-1,-1,-1,-1,-1,-1],"split_conditions":[6.740641E-1,2.2908645E0,2.450791E0,-1.1433309E0,2.6926327E-1,-1.0511411E0,-1.9230619E-1,4.2082617E-1,1.3264482E0,3.6071686E-4,1.341928E-2,7.0430487E-3,-5.9061205E-1,-1.5766054E-2,-9.591189E-4,1.673782E-3,1.0966182E-2,2.8192622E-4,-2.5284807E-3,1.6109602E-4,6.898112E-3,-4.5691743E-3,-7.6131534E-4],"split_indices":[326,352,308,414,119,153,106,418,57,0,0,78,216,0,0,0,0,0,0,0,0,0,0],"split_type":[0,0,0,0,0,0,0,0,0,0,0,0,0,0,0,0,0,0,0,0,0,0,0],"sum_hessian":[1.2791942E3,9.903497E2,2.888445E2,9.7317664E2,1.7173084E1,2.7863635E2,1.0208166E1,8.9279396E1,8.838972E2,8.649217E0,8.523869E0,4.9971615E1,2.2866473E2,5.0131774E0,5.1949887E0,7.93485E1,9.930892E0,8.0819104E2,7.570617E1,3.570558E1,1.4266033E1,5.5796417E1,1.7286832E2],"tree_param":{"num_deleted":"0","num_feature":"420","num_nodes":"23","size_leaf_vector":"1"}},{"base_weights":[-7.214427E-3,4.7256163E-1,-2.1292832E-2,9.5830655E-1,5.301755E-2,-1.3121697E-2,-6.553481E-1,1.8093934E-2,2.921387E-3,3.8622257E-1,-5.1030754E-3,-2.4566572E-2,4.1215584E-1,1.2790216E-3,-1.4573519E-2,8.514368E-3,-6.2791054E-4,-3.5377932E-4,4.1462127E-3,5.388816E-4,6.5182108E-3],"categories":[],"categories_nodes":[],"categories_segments":[],"categories_sizes":[],"default_left":[0,0,0,0,0,0,0,0,0,0,0,0,0,0,0,0,0,0,0,0,0],"id":48,"left_children":[1,3,5,7,9,11,13,-1,-1,15,-1,17,19,-1,-1,-1,-1,-1,-1,-1,-1],"loss_changes":[8.516186E0,7.1451654E0,6.297152E0,8.325607E0,4.2208157E0,5.899196E0,1.0132671E1,0E0,0E0,3.1140869E0,0E0,5.6183934E0,2.6024885E0,0E0,0E0,0E0,0E0,0E0,0E0,0E0,0E0],"parents":[2147483647,0,0,1,1,2,2,3,3,4,4,5,5,6,6,9,9,11,11,12,12],"right_children":[2,4,6,8,10,12,14,-1,-1,16,-1,18,20,-1,-1,-1,-1,-1,-1,-1,-1],"split_conditions":[-1.4803718E0,-3.1375983E-1,2.5219202E0,1.421201E-1,8.927077E-1,2.3934898E0,6.74507E-1,1.8093934E-2,2.921387E-3,-4.2808056E-1,-5.1030754E-3,2.6602714E0,-2.0186453E-1,1.2790216E-3,-1.4573519E-2,8.514368E-3,-6.2791054E-4,-3.5377932E-4,4.1462127E-3,5.388816E-4,6.5182108E-3],"split_indices":[273,223,57,406,327,32,172,0,0,225,0,119,413,0,0,0,0,0,0,0,0],"split_type":[0,0,0,0,0,0,0,0,0,0,0,0,0,0,0,0,0,0,0,0,0],"sum_hessian":[1.2637666E3,3.443139E1,1.2293353E3,1.4953613E1,1.9477774E1,1.2153616E3,1.3973731E1,5.3694196E0,9.584193E0,1.2646505E1,6.831269E0,1.1851167E3,3.024483E1,7.644287E0,6.3294435E0,5.660316E0,6.9861894E0,1.1582122E3,2.6904516E1,1.30264845E1,1.7218346E1],"tree_param":{"num_deleted":"0","num_feature":"420","num_nodes":"21","size_leaf_vector":"1"}},{"base_weights":[9.561248E-3,7.4457824E-2,-8.695643E-2,6.391392E-2,8.946098E-3,-2.0073E-1,4.303944E-2,9.9546075E-2,-1.566168E-1,-2.675094E-1,1.9761993E-1,5.120526E-1,-2.9091122E-2,6.789971E-4,4.3855486E-3,-6.776178E-4,-1.0553225E-2,-2.0066435E-3,-9.092628E-3,-1.0024522E-4,1.1748031E-2,1.2065496E-2,1.1504691E-3,4.5042625E-4,-6.1756447E-3],"categories":[],"categories_nodes":[],"categories_segments":[],"categories_sizes":[],"default_left":[0,0,0,0,0,0,0,0,0,0,0,0,0,0,0,0,0,0,0,0,0,0,0,0,0],"id":49,"left_children":[1,3,5,7,-1,9,11,13,15,17,19,21,23,-1,-1,-1,-1,-1,-1,-1,-1,-1,-1,-1,-1],"loss_changes":[7.9598703E0,6.394843E0,7.578396E0,5.931427E0,0E0,7.3455114E0,8.158333E0,6.8695865E0,8.155237E0,9.677507E0,8.215215E0,8.518868E0,9.192149E0,0E0,0E0,0E0,0E0,0E0,0E0,0E0,0E0,0E0,0E0,0E0,0E0],"parents":[2147483647,0,0,1,1,2,2,3,3,5,5,6,6,7,7,8,8,9,9,10,10,11,11,12,12],"right_children":[2,4,6,8,-1,10,12,14,16,18,20,22,24,-1,-1,-1,-1,-1,-1,-1,-1,-1,-1,-1,-1],"split_conditions":[1.8060751E-1,2.799605E0,-3.898107E-2,1.0107228E0,8.946098E-3,1.0704408E0,-8.874671E-1,1.2339208E0,1.6351403E0,9.1378486E-1,7.8968227E-1,1.0176725E-1,1.8991169E0,6.789971E-4,4.3855486E-3,-6.776178E-4,-1.0553225E-2,-2.0066435E-3,-9.092628E-3,-1.0024522E-4,1.1748031E-2,1.2065496E-2,1.1504691E-3,4.5042625E-4,-6.1756447E-3],"split_indices":[326,15,270,53,0,120,336,293,235,215,352,289,397,0,0,0,0,0,0,0,0,0,0,0,0],"split_type":[0,0,0,0,0,0,0,0,0,0,0,0,0,0,0,0,0,0,0,0,0,0,0,0,0],"sum_hessian":[1.2679496E3,7.589952E2,5.089544E2,7.5107806E2,7.917064E0,2.7138705E2,2.3756735E2,6.477023E2,1.0337585E2,2.330605E2,3.832655E1,3.063139E1,2.0693596E2,5.9431824E2,5.3384014E1,9.5643906E1,7.7319417E0,2.1299933E2,2.0061169E1,3.274974E1,5.576809E0,9.937235E0,2.0694155E1,1.8486285E2,2.20731E1],"tree_param":{"num_deleted":"0","num_feature":"420","num_nodes":"25","size_leaf_vector":"1"}},{"base_weights":[-3.7983896E-3,5.661556E-1,-1.4936489E-2,1.00750085E-2,-4.8673194E-4,-4.220857E-1,-2.7406807E-3,-7.7510057E-3,-1.288981E-1,1.8762954E-2,-2.2501217E-1,3.5373867E-3,-5.508875E-3,-5.2405284E-3,3.0363206E-4,-1.5503363E-3,-1.2111341E-2],"categories":[],"categories_nodes":[],"categories_segments":[],"categories_sizes":[],"default_left":[0,0,0,0,0,0,0,0,0,0,0,0,0,0,0,0,0],"id":50,"left_children":[1,3,5,-1,-1,7,9,-1,11,13,15,-1,-1,-1,-1,-1,-1],"loss_changes":[8.088168E0,6.794686E0,6.2016873E0,0E0,0E0,3.520289E0,5.8725715E0,0E0,4.7525635E0,7.002441E0,7.0627985E0,0E0,0E0,0E0,0E0,0E0,0E0],"parents":[2147483647,0,0,1,1,2,2,5,5,6,6,8,8,9,9,10,10],"right_children":[2,4,6,-1,-1,8,10,-1,12,14,16,-1,-1,-1,-1,-1,-1],"split_conditions":[-1.6205497E0,2.221057E0,-1.2327671E0,1.00750085E-2,-4.8673194E-4,-2.977736E-1,1.3264482E0,-7.7510057E-3,-4.260427E-1,-1.1215332E0,1.65944E0,3.5373867E-3,-5.508875E-3,-5.2405284E-3,3.0363206E-4,-1.5503363E-3,-1.2111341E-2],"split_indices":[336,303,56,0,0,286,57,0,160,244,18,0,0,0,0,0,0],"split_type":[0,0,0,0,0,0,0,0,0,0,0,0,0,0,0,0,0],"sum_hessian":[1.2792725E3,2.291571E1,1.2563567E3,1.28768835E1,1.0038826E1,3.483397E1,1.2215227E3,1.4531077E1,2.030289E1,1.114613E3,1.0690966E2,9.473506E0,1.0829385E1,2.1754631E1,1.0928585E3,1.0154118E2,5.368474E0],"tree_param":{"num_deleted":"0","num_feature":"420","num_nodes":"17","size_leaf_vector":"1"}}]},"name":"gbtree"},"learner_model_param":{"base_score":"-9.917465E-3","boost_from_average":"1","num_class":"0","num_feature":"420","num_target":"1"},"objective":{"name":"reg:pseudohubererror","pseudo_huber_param":{"huber_slope":"1"}}},"version":[2,1,0]}