tree
version=v4
num_class=1
num_tree_per_iteration=1
label_index=0
max_feature_idx=419
objective=huber
feature_names=Column_0 Column_1 Column_2 Column_3 Column_4 Column_5 Column_6 Column_7 Column_8 Column_9 Column_10 Column_11 Column_12 Column_13 Column_14 Column_15 Column_16 Column_17 Column_18 Column_19 Column_20 Column_21 Column_22 Column_23 Column_24 Column_25 Column_26 Column_27 Column_28 Column_29 Column_30 Column_31 Column_32 Column_33 Column_34 Column_35 Column_36 Column_37 Column_38 Column_39 Column_40 Column_41 Column_42 Column_43 Column_44 Column_45 Column_46 Column_47 Column_48 Column_49 Column_50 Column_51 Column_52 Column_53 Column_54 Column_55 Column_56 Column_57 Column_58 Column_59 Column_60 Column_61 Column_62 Column_63 Column_64 Column_65 Column_66 Column_67 Column_68 Column_69 Column_70 Column_71 Column_72 Column_73 Column_74 Column_75 Column_76 Column_77 Column_78 Column_79 Column_80 Column_81 Column_82 Column_83 Column_84 Column_85 Column_86 Column_87 Column_88 Column_89 Column_90 Column_91 Column_92 Column_93 Column_94 Column_95 Column_96 Column_97 Column_98 Column_99 Column_100 Column_101 Column_102 Column_103 Column_104 Column_105 Column_106 Column_107 Column_108 Column_109 Column_110 Column_111 Column_112 Column_113 Column_114 Column_115 Column_116 Column_117 Column_118 Column_119 Column_120 Column_121 Column_122 Column_123 Column_124 Column_125 Column_126 Column_127 Column_128 Column_129 Column_130 Column_131 Column_132 Column_133 Column_134 Column_135 Column_136 Column_137 Column_138 Column_139 Column_140 Column_141 Column_142 Column_143 Column_144 Column_145 Column_146 Column_147 Column_148 Column_149 Column_150 Column_151 Column_152 Column_153 Column_154 Column_155 Column_156 Column_157 Column_158 Column_159 Column_160 Column_161 Column_162 Column_163 Column_164 Column_165 Column_166 Column_167 Column_168 Column_169 Column_170 Column_171 Column_172 Column_173 Column_174 Column_175 Column_176 Column_177 Column_178 Column_179 Column_180 Column_181 Column_182 Column_183 Column_184 Column_185 Column_186 Column_187 Column_188 Column_189 Column_190 Column_191 Column_192 Column_193 Column_194 Column_195 Column_196 Column_197 Column_198 Column_199 Column_200 Column_201 Column_202 Column_203 Column_204 Column_205 Column_206 Column_207 Column_208 Column_209 Column_210 Column_211 Column_212 Column_213 Column_214 Column_215 Column_216 Column_217 Column_218 Column_219 Column_220 Column_221 Column_222 Column_223 Column_224 Column_225 Column_226 Column_227 Column_228 Column_229 Column_230 Column_231 Column_232 Column_233 Column_234 Column_235 Column_236 Column_237 Column_238 Column_239 Column_240 Column_241 Column_242 Column_243 Column_244 Column_245 Column_246 Column_247 Column_248 Column_249 Column_250 Column_251 Column_252 Column_253 Column_254 Column_255 Column_256 Column_257 Column_258 Column_259 Column_260 Column_261 Column_262 Column_263 Column_264 Column_265 Column_266 Column_267 Column_268 Column_269 Column_270 Column_271 Column_272 Column_273 Column_274 Column_275 Column_276 Column_277 Column_278 Column_279 Column_280 Column_281 Column_282 Column_283 Column_284 Column_285 Column_286 Column_287 Column_288 Column_289 Column_290 Column_291 Column_292 Column_293 Column_294 Column_295 Column_296 Column_297 Column_298 Column_299 Column_300 Column_301 Column_302 Column_303 Column_304 Column_305 Column_306 Column_307 Column_308 Column_309 Column_310 Column_311 Column_312 Column_313 Column_314 Column_315 Column_316 Column_317 Column_318 Column_319 Column_320 Column_321 Column_322 Column_323 Column_324 Column_325 Column_326 Column_327 Column_328 Column_329 Column_330 Column_331 Column_332 Column_333 Column_334 Column_335 Column_336 Column_337 Column_338 Column_339 Column_340 Column_341 Column_342 Column_343 Column_344 Column_345 Column_346 Column_347 Column_348 Column_349 Column_350 Column_351 Column_352 Column_353 Column_354 Column_355 Column_356 Column_357 Column_358 Column_359 Column_360 Column_361 Column_362 Column_363 Column_364 Column_365 Column_366 Column_367 Column_368 Column_369 Column_370 Column_371 Column_372 Column_373 Column_374 Column_375 Column_376 Column_377 Column_378 Column_379 Column_380 Column_381 Column_382 Column_383 Column_384 Column_385 Column_386 Column_387 Column_388 Column_389 Column_390 Column_391 Column_392 Column_393 Column_394 Column_395 Column_396 Column_397 Column_398 Column_399 Column_400 Column_401 Column_402 Column_403 Column_404 Column_405 Column_406 Column_407 Column_408 Column_409 Column_410 Column_411 Column_412 Column_413 Column_414 Column_415 Column_416 Column_417 Column_418 Column_419
feature_infos=[-1.4472860177431448:2.8668970239318918] [-2.1679595626448389:2.2444915684747229] [-3.4057296011334302:3.8523409521293344] [-3.4671800432325304:3.6653554406136171] [-3.2823807300987924:3.4253901973514127] [-1.3960270873727703:3.246559986822847] [-2.1007052277186711:1.926513216585555] [-1.6207166206308565:2.6545326656692003] [-1.8589827116599065:2.4551928114593999] [-1.8416676535529415:2.6455254249741662] [-2.8933891006231498:3.2072466172757257] [-2.5464581932555057:2.7958376697701208] [-2.5950532974105762:2.7446685042935268] [-1.2090161404496291:4.6247230894126359] [-1.4010113789814358:4.031431884076861] [-2.4952996477850102:2.7565220970349706] [-1.6131746821314727:3.6254566358454858] [-1.8598653540578955:3.2822585172426439] [-2.6312002901848888:2.6360160160807142] [-2.4284002133189433:2.6217980357060884] [-2.4967445384251796:2.4634873366933983] [-1.4482930656869739:2.8651963484809162] [-2.1684367238660176:2.2474942756934628] [-3.4040920243774115:3.8519163966901613] [-3.4665578173149778:3.6653968154448253] [-3.279194140870362:3.424254802595958] [-1.3962903009717365:3.2496663889431288] [-2.1001868122999747:1.928063186902063] [-1.6200735576532999:2.655173158481146] [-1.8585266253377932:2.4561770112277101] [-1.8426101814980187:2.6444972318123741] [-2.8916272759242094:3.207073708403597] [-2.5464923839149098:2.7970728796705422] [-2.5951031167173104:2.7458890894582439] [-1.2088114459280708:4.6245205011614194] [-1.401009439197745:4.0313543318499381] [-2.4954292514542478:2.7579155978360048] [-1.6134605063441385:3.6272705245409003] [-1.8597453839492111:3.2829671300664134] [-2.633080268587475:2.6406636380407624] [-2.4292689781641124:2.6255532808787065] [-2.4972230288328299:2.466644505856364] [-1.4493450354489315:2.8637094759458996] [-2.1684446642865978:2.2503853118228516] [-3.401987628557702:3.8512127012143877] [-3.4656681886043139:3.6653599534364227] [-3.2756249092724308:3.4228655548388009] [-1.396814637632706:3.2536526532361978] [-2.0989462493234479:1.9291636056463624] [-1.6194921067504353:2.655854058848516] [-1.8576303229764497:2.4565602645361078] [-1.8433428847634932:2.6428723574040691] [-2.8888643090827304:3.2061605858615079] [-2.5446071340144707:2.7967463139462869] [-2.5931726240313635:2.7455728974035685] [-1.2088150890119804:4.6245025627802763] [-1.4010160736533726:4.0308988073380236] [-2.4944606754350942:2.7585914982666959] [-1.6138032968956699:3.6293719849553479] [-1.8596552334466094:3.2832738575453115] [-2.6350101625883218:2.6453454598448678] [-2.4296454083532462:2.6287550853938706] [-2.4975674652108313:2.4701059645380847] [-1.450408398512387:2.8622249476890658] [-2.1679780533319417:2.2524236701377021] [-3.39954250320082:3.850271890174108] [-3.4644835216597669:3.6652052929854815] [-3.2722348740094898:3.4215446984396802] [-1.3974580061593485:3.2579403812152186] [-2.0977869405710918:1.9299357103266594] [-1.6190260830232359:2.6565994116407534] [-1.8567462245818021:2.4570819094766079] [-1.8443328167454973:2.6420247028285329] [-2.8868100644805081:3.2056488244767314] [-2.5453044215252847:2.7967729808072734] [-2.5938770555471704:2.7455879530012579] [-1.2091656509415085:4.6248077973504937] [-1.4008346754073515:4.0314008281191418] [-2.4947929417589547:2.758730300958578] [-1.6145219308469574:3.6335181454734977] [-1.8595632049801309:3.2837406475293376] [-2.6364687323087854:2.6485913836868056] [-2.4296248255472443:2.6315719745950319] [-2.4981678624524002:2.4736772323817435] [-1.4515199646620924:2.8609811584028755] [-2.1669233194690758:2.2542838495089819] [-3.3962766687769217:3.8486819769018061] [-3.4629074562139537:3.6648496952496035] [-3.2677559633800066:3.4192999179696955] [-1.3982748659988031:3.2624750717615791] [-2.096013119624407:1.9304017311051787] [-1.618707482194341:2.6572317583249032] [-1.8557792371710655:2.457013582383432] [-1.8446903179989544:2.6401654113842308] [-2.8833624857646081:3.2040336703567114] [-2.54274216479355:2.795971947196735] [-2.5912327000646571:2.7447880758710568] [-1.209809542724865:4.6233245680880737] [-1.3994938362402596:4.0238531375261015] [-2.4935331672319374:2.7604774119948927] [-1.6148438867758474:3.632742269180556] [-1.859528291847798:3.2840889839927994] [-2.6354789723863967:2.6488211163695374] [-2.4295268447798595:2.6351733900371559] [-2.4981040765270972:2.4767453197180971] [-1.4525963436323361:2.8596070067980683] [-2.1666638830299214:2.2567229761828167] [-3.392695100987051:3.8468499254457558] [-3.4609286378395652:3.664262294537163] [-3.2639302133101809:3.4175248311901099] [-1.3991653308038741:3.267085150430185] [-2.0949478281043268:1.9311536703377663] [-1.6184952308209786:2.6576379363086953] [-1.8549347107141665:2.4567804571076652] [-1.8443526735788798:2.6386207564277515] [-2.8819429430749035:3.2034222972748929] [-2.5426071317071495:2.7954583310149803] [-2.5910912434597946:2.7442838198304664] [-1.2095378091628353:4.6236475842653411] [-1.4023461791905725:4.0384729019354806] [-2.4960924462983156:2.7647547657728628] [-1.61521963241953:3.6323859453558258] [-1.8595121032007784:3.2842971173064655] [-2.6343149534108674:2.649249933952289] [-2.4297321770942442:2.6389942507248509] [-2.4988845505956667:2.4804682973286467] [-1.453611573524032:2.8580422826656475] [-2.167339892782179:2.2599190828330236] [-3.3893752453367934:3.8452881870937574] [-3.4586409798043714:3.6634981172702465] [-3.2618093727678104:3.4170319809286736] [-1.4002310833396987:3.2722696285955006] [-2.0944922160278763:1.9321994642443772] [-1.6183244636116287:2.6578419498079509] [-1.8544554385268734:2.4570471623359986] [-1.8442258690344111:2.637679448934227] [-2.8817345173991415:3.2042281257801513] [-2.542668810823637:2.7955855892948418] [-2.5911531930642799:2.7444066236801654] [-1.2090209099451825:4.6258490155408554] [-1.4021661450006893:4.0396624371554593] [-2.4962893911261106:2.7652824093074306] [-1.6154959364895762:3.6312113368445025] [-1.8595114726094746:3.2843832828143293] [-2.6340069386030196:2.6500885003826431] [-2.4312239922925509:2.6435922823113409] [-2.5001831897101208:2.4844375928068323] [-1.4546557941554408:2.8566772061660708] [-2.1675102018484624:2.2629203625664336] [-3.3857855613854029:3.8435558505033049] [-3.4560404498814137:3.66255058311839] [-3.2598459511198223:3.4166825315245188] [-1.401535393229028:3.278298769953603] [-2.0936220152531457:1.9332260602400675] [-1.6182109366088138:2.6579504716326268] [-1.8539019833574863:2.4574386564351283] [-1.8440479719615117:2.6362850436170597] [-2.8809204316994617:3.2049572288073485] [-2.5410700860800999:2.7963158389756648] [-2.589508928900937:2.7451135421325783] [-1.2092115468749369:4.6260939143172379] [-1.4018371921739996:4.0405603097699823] [-2.496434802715553:2.7671436436530947] [-1.6156201572233084:3.6299568972869092] [-1.8594726341069496:3.2847322724880321] [-2.6339233912681279:2.6514694213650651] [-2.4327192983299897:2.6482066431111231] [-2.5003234570568238:2.4878206339244184] [-1.4556817804266213:2.8552385761293584] [-2.167969107542929:2.2660584626352227] [-3.3822452271784935:3.8419088919301547] [-3.4531853727336452:3.6614577538297928] [-3.2585162315565865:3.4167317527606977] [-1.4030233421385763:3.2851670079714279] [-2.0929725728824273:1.9341775002810393] [-1.6181911232528845:2.657979254114645] [-1.8528575940579193:2.4579041500973515] [-1.8438290632267067:2.6343701331195448] [-2.8804267890878243:3.2058178499745815] [-2.5411006124032478:2.7960173342630257] [-2.589533925296454:2.7448157002735249] [-1.2091767839025676:4.6262957211094777] [-1.4017308562445425:4.0404682646854937] [-2.4962136808105284:2.7672568912640791] [-1.6162541624394697:3.6287837547164901] [-1.8594408185442957:3.2850800604264765] [-2.6345163775758542:2.6537255568986726] [-2.4348542558624966:2.6530223347725772] [-2.5005506337485266:2.4912633278017347] [-1.4567677147255125:2.8540766555724395] [-2.1677246375415251:2.26885468300613] [-3.3780384427164099:3.8397033722150611] [-3.4499909624840583:3.6601454764870223] [-3.2565757750868398:3.4163262961811593] [-1.4046646867407853:3.2924666539887992] [-2.0915214405809435:1.9347195093991738] [-1.6182264665254376:2.6578972630881808] [-1.8517793618191138:2.4584827813683723] [-1.8431957029702668:2.6315093023531846] [-2.8805904391010602:3.2064807365734187] [-2.5378321804449953:2.7943274730808216] [-2.586130759923682:2.7431120101328839] [-1.2093949511125626:4.6260710953593067] [-1.4015744736974505:4.0353038675449451] [-2.4920793063630433:2.7649824361586806] [-1.6166678745286924:3.6270584821203555] [-1.8594408848894426:3.2852601476374601] [-2.6347407729112247:2.6555610524912687] [-2.4343182040221389:2.6544968323819718] [-2.5003023589527427:2.4944210796255968] [-1.4578677739089021:2.8529779514140063] [-2.1673173885714099:2.2715630039582431] [-3.3731584045285183:3.8369021517566861] [-3.4463845960443149:3.6585432919845999] [-3.2541629980268905:3.415508442037789] [-1.4063541189738189:3.2997162170524352] [-2.0900786220318128:1.935158428798224] [-1.6183030703704315:2.6576712231446891] [-1.8507360244047184:2.4590569967549003] [-1.8423095280543524:2.6281287691526329] [-2.880663384967078:3.2071770818840482] [-2.5374826607311922:2.7943633529535625] [-2.5857798419181899:2.7431548046490253] [-1.2093181685296996:4.6260417345836924] [-1.4021118541248023:4.0357977758458565] [-2.4916117225630932:2.7648735140422929] [-1.6170508002800033:3.6258797942387213] [-1.8594356833562129:3.2855298381430926] [-2.6339382070493715:2.6566632248171622] [-2.4329487507599561:2.6555400081410343] [-2.5004057472093222:2.4978048718104815] [-1.4590133000946395:2.8519992151640161] [-2.1657561333364899:2.2726136721576808] [-3.3674652532150309:3.8333148854210681] [-3.4422779763200739:3.6565563377492558] [-3.2512344444890102:3.4141463976939357] [-1.4078352623288835:3.3061265455564151] [-2.0884820355552973:1.9352435402532706] [-1.618467443581959:2.6572659404388199] [-1.8496649254806361:2.4592061197575146] [-1.8416726101111345:2.6260679700448089] [-2.8776373256544181:3.2059239679522098] [-2.5384765596583541:2.7949272247664916] [-2.5868114454691455:2.7437182289641964] [-1.2092399299232033:4.6262438903622254] [-1.4021433169008071:4.0363846942239876] [-2.4911715469424589:2.7646764947743061] [-1.617067980344713:3.6258421452687366] [-1.8594652776693499:3.286213169899697] [-2.6311003487229323:2.6553974477740372] [-2.4307604762181314:2.6551172781270176] [-2.4994383512302978:2.5001212004299211] [-1.4601726811545102:2.8509564289541598] [-2.1642700083342454:2.2727161840164141] [-3.3615617640446835:3.8294447945896413] [-3.4377062559997373:3.6541833923896427] [-3.2490165167189735:3.4131022991732096] [-1.4090642568482741:3.3116113930439486] [-2.0874507015163464:1.9352824101189154] [-1.6187270835904508:2.6567760619928591] [-1.8486096668362599:2.4591608507375362] [-1.8414257582023221:2.6251887567576655] [-2.8755406475990499:3.2051501198358618] [-2.5410198300399842:2.795467318392832] [-2.5894364030098571:2.7442636524616382] [-1.2097472862092771:4.6268667564514354] [-1.4021419491769085:4.0361004908149249] [-2.4927443844281822:2.7647380375902215] [-1.6171647984446131:3.6254506785293272] [-1.8596316359515748:3.2874027976018079] [-2.6317326744249634:2.6557222941558667] [-2.4298437150842309:2.6549021417473959] [-2.4981624605706867:2.5012666609401477] [-1.4613170665197179:2.8498279354153935] [-2.1632034514317304:2.2729728129953077] [-3.3559367584349991:3.8257517258317044] [-3.4327989683268232:3.6515112247527921] [-3.2479479855905162:3.4126954025694798] [-1.4099813881001824:3.3161264734554403] [-2.0867882488869816:1.935382856503256] [-1.6190544122325277:2.6562530005819562] [-1.8484255171474908:2.4590839188292173] [-1.8415207067649659:2.6254688509415791] [-2.8742508350913409:3.2048574009467581] [-2.5411406040104216:2.7948385026523379] [-2.5895464329661912:2.7436357002562906] [-1.2091699001825964:4.6269317119374405] [-1.4017031781358875:4.0358332743563796] [-2.4929364028745238:2.7653967508194905] [-1.6173081815088615:3.6248956713107487] [-1.8597846556578286:3.2885125171179079] [-2.6327227896147223:2.6562380244249444] [-2.4290973738202331:2.6548769597563906] [-2.4970313858306388:2.5026039522435886] [-1.4624143363146904:2.8484988378773002] [-2.1627615787306209:2.2735046898654931] [-3.351260306303542:3.8228591968008687] [-3.4278186074731205:3.6487493495766818] [-3.2480163494878274:3.4126931183330917] [-1.4103965126632467:3.3190240943530944] [-2.0866029871590563:1.9354990793854547] [-1.619449795030073:2.6556814487479943] [-1.848356922533325:2.4590585355080798] [-1.8417199498186969:2.626029051478318] [-2.8739426687481613:3.2049909943280581] [-2.540493050901794:2.7930166358609894] [-2.5888863399664359:2.7418622906602779] [-1.2089859547302226:4.6276387083799184] [-1.4019759255313837:4.0354347372249633] [-2.4926869432479304:2.7646101587918417] [-1.6173544091630976:3.6248340472576079] [-1.8598018380595405:3.2886725922788371] [-2.6344064256069726:2.656191757569907] [-2.4291539212548519:2.6548031419213607] [-2.4972157937717498:2.5054832829223455] [-1.4635185278844529:2.8471992344198775] [-2.1622717295031135:2.2740490675325256] [-3.3472730574980698:3.820525573803069] [-3.4229384631116435:3.6460376719639309] [-3.2483398728111519:3.4124490105507213] [-1.4104231259977222:3.3207929352933387] [-2.0864425095429309:1.9355886879113289] [-1.6199337978949278:2.6550972315802293] [-1.8481383405124907:2.4589973097873727] [-1.841844107430946:2.6263602703767064] [-2.8736429871045646:3.205091927779014] [-2.5403568096066054:2.7930867500811281] [-2.5887512277464602:2.7419354856335749] [-1.2096412502024951:4.6280243335526592] [-1.4014102124914625:4.0353671186260662] [-2.4927545663996682:2.7646028471354143] [-1.6173458741521505:3.6248427687847431] [-1.859816928936932:3.288836004239974] [-2.6359887246999589:2.6559538608857962] [-2.4291262108249252:2.6548123761640903] [-2.4967181105302152:2.5075450524680618] [-1.4646478103856322:2.8460340530265045] [-2.1615031727141005:2.2746634264875967] [-3.3434922562230676:3.8183338976295933] [-3.4181866152906268:3.6433981342699751] [-3.2486790510104315:3.4121261074144384] [-1.4102304696167269:3.3216542606304098] [-2.0859552477364343:1.9357044938212289] [-1.6204741616383982:2.6545819021940802] [-1.8481166863470033:2.4589904264405473] [-1.8421826839465765:2.6272209635934316] [-2.8728236802794602:3.2049889195896242] [-2.5391957603739583:2.7930838725061404] [-2.587574594014018:2.7419470515325624] [-1.2096888095248828:4.6280853360321066] [-1.4012592005872309:4.0358445816029525] [-2.4917442774633338:2.7648742266318092] [-1.617432661070491:3.6247141666749756] [-1.8598283278831182:3.2890026178827583] [-2.6364576715659247:2.6553301081499181] [-2.4286342290281118:2.6546687123394821] [-2.496094773426039:2.5092755933676547] [-1.4657642270229434:2.8448259137604284] [-2.1609120271223916:2.2754543985750133] [-3.3400468258198708:3.8164040922256861] [-3.4136179211117366:3.640877249311802] [-3.2489667969108291:3.4116071649614934] [-1.4100126936201103:3.3219283754171216] [-2.0856373629492468:1.935844880602088] [-1.6210814778733833:2.6541068814943496] [-1.8480508302857859:2.4589720459615392] [-1.8424535146589633:2.6278696505832899] [-2.8722734526154436:3.2050120951727399] [-2.5391954443984202:2.793085870354179] [-2.5875743167820779:2.7419490496926087] [-1.2096793588492969:4.628095795477881] [-1.401404812945531:4.0359514311586144] [-2.4919192454407373:2.7644982714568038] [-1.6188566208513833:3.6257529475814176] [-1.859833764172385:3.2892364383376438] [-2.6364512763373837:2.6551767276459373] [-2.4289995662574864:2.6547360344778723] [-2.4958015500347921:2.5108745526615448] [-1.4669894270915176:2.8440442394028098] [-2.1591697416258793:2.2750372409140764] [-3.3357818025567583:3.8136960699631683] [-3.4089983886896893:3.6382734070178615] [-3.2492461026593285:3.4116254056228517] [-1.4101146758505867:3.3218714851709459] [-2.084153455780827:1.9352827678110984] [-1.6216631854949575:2.6536777541282062] [-1.8479122380146784:2.4589286642097159] [-1.8431946071726597:2.629670752097188] [-2.8691982574866874:3.2032237558546783] [-2.5367168157988802:2.7912052663911933] [-2.5849346323438969:2.7400107289198465] [-1.2068270810255852:4.6069606002374677] [-1.3989447731994273:4.0215414657057229] [-2.4881812275567583:2.7620264403439703] [-1.6185601263332017:3.6221503758976561] [-1.8597836824742271:3.2889779341063252] [-2.6351923954316425:2.6547324510503927] [-2.4285284352937033:2.6544514453042201] [-2.494537011248664:2.5114070132127893] [-1.468224488630556:2.8433627644003616] [-2.1570648914484667:2.2745822275766678] [-3.3305178179872676:3.8100480701136195] [-3.4041218813221277:3.6354137915871299] [-3.248828588981211:3.4114559417431014] [-1.4103631381343273:3.3216387419450251] [-2.0823566602389416:1.9346663574161775] [-1.6222550067741095:2.6532998447343235] [-1.847306427828429:2.4590560029217192] [-1.8428049350861662:2.6282840634473295] [-2.8652996148639436:3.2004872722108964] [-2.5356253415277932:2.7914399362056139] [-2.5838325405833791:2.7402573904901342] [-1.2060984962639667:4.6072184111014653] [-1.3988840043698882:4.0221387122845478] [-2.4872513703331074:2.762622458570362] [-1.618719567170696:3.6209711775894107] [-1.8599989729474302:3.2877465663744569] [-2.6313676620551809:2.6526930667085828] [-2.428362907097684:2.6543633458683367] [-2.4926799471096812:2.5109289506019326]
tree_sizes=2925

Tree=0
num_leaves=31
num_cat=0
split_feature=331 84 225 89 264 307 308 412 178 229 227 130 163 200 182 183 140 136 17 363 22 14 241 307 74 249 140 379 368 326
split_gain=5.18784 4.92721 4.21582 5.09479 5.87636 6.12812 4.58316 4.06208 4.14146 4.05436 4.15536 5.70135 4.77684 5.01005 4.04695 4.04059 3.78387 3.74319 3.67322 3.56895 4.02592 4.1509 3.5115 3.47232 3.47104 3.66234 3.37691 3.25168 3.17498 3.04593
threshold=0.09703740100257878 -1.1109808882322614 1.4581747194745207 0.8037192471289224 0.81821589645616111 -0.48355934521095106 -0.095341053132923945 -0.19434653921567754 0.47134178199596216 -1.5553652790653381 -0.99342589706547979 -0.39307121842777232 -0.12359996994642934 1.6549055999956821 -0.64633640999975095 -0.28050157120961688 -0.6354151846453886 0.11655260015971609 -0.44870677615510168 -1.2354147044390626 0.56989911923188941 -0.78124057953532422 1.0027315516744313 -0.74605053497870799 0.39085015612477436 0.65537110291609102 0.65260854482190389 0.73638268357438486 -0.63013502220192119 -0.50242710147809244
decision_type=2 2 2 2 2 2 2 2 2 2 2 2 2 2 2 2 2 2 2 2 2 2 2 2 2 2 2 2 2 2
left_child=9 -2 3 4 5 23 -5 8 15 -1 17 19 13 -13 -14 -7 -9 -11 -6 -12 21 -21 -4 29 26 28 -16 -20 -26 -3
right_child=1 2 22 6 18 7 -8 16 -10 10 11 12 14 -15 24 -17 -18 -19 27 20 -22 -23 -24 -25 25 -27 -28 -29 -30 -31
leaf_value=0.0021224858667827987 0.0023233842644373123 0.0026092708751738313 -0.0040409457581500382 -0.00028225437793753756 0.00021469262513344642 0.0038904588472028156 0.0031711081985077035 0.00095121100863717071 -0.0016530887867609798 0.0022338561452578442 0.0010241140814488976 -0.0013042927528700767 -0.0012293590307607457 0.0026343555572865803 0.0025724675378235693 2.1196828140071555e-05 -0.002694104902971116 -0.0006180869365558072 -0.0041420302220864496 0.0011787155513047565 -0.004510600753140582 -0.0022134293782740816 0.00022956637936656827 0.0032727653006186107 0.0031681432542588991 -0.0026355485991885353 -7.2870678729994353e-05 -4.3870393355166661e-05 -0.00039417126090108103 -0.001430700394231257
leaf_weight=56 124 31 39 55 58 49 107 37 47 93 34 481 119 32 142 63 93 84 64 41 63 190 32 98 34 44 67 31 75 40
leaf_count=56 124 31 39 55 58 49 107 37 47 93 34 481 119 32 142 63 93 84 64 41 63 190 32 98 34 44 67 31 75 40
internal_value=-9.66329e-05 0.000474985 0.000192658 0.000414016 6.79029e-11 0.000561392 0.00197904 -0.00030946 0.000737825 -0.000455834 -0.000558186 -0.000752944 -0.000367755 -0.00103962 0.000339796 0.00179641 -0.00162002 0.000860675 -0.00168994 -0.0018958 -0.00225501 -0.00158495 -0.00209416 0.00206604 0.00087328 -0.00024215 0.00170809 -0.00288476 0.000709027 0.000287898
internal_weight=2523 968 844 773 611 458 162 289 159 1555 1499 1322 994 513 481 112 130 177 153 328 294 231 71 169 362 153 209 95 109 71
internal_count=2523 968 844 773 611 458 162 289 159 1555 1499 1322 994 513 481 112 130 177 153 328 294 231 71 169 362 153 209 95 109 71
is_linear=0
shrinkage=1


end of trees

feature_importances:
Column_140=2
Column_307=2
Column_14=1
Column_17=1
Column_22=1
Column_74=1
Column_84=1
Column_89=1
Column_130=1
Column_136=1
Column_163=1
Column_178=1
Column_182=1
Column_183=1
Column_200=1
Column_225=1
Column_227=1
Column_229=1
Column_241=1
Column_249=1
Column_264=1
Column_308=1
Column_326=1
Column_331=1
Column_363=1
Column_368=1
Column_379=1
Column_412=1

parameters:
[boosting: gbdt]
[objective: huber]
[metric: huber]
[tree_learner: serial]
[device_type: cpu]
[data_sample_strategy: bagging]
[data: ]
[valid: ]
[num_iterations: 500]
[learning_rate: 0.01]
[num_leaves: 31]
[num_threads: 16]
[seed: 42]
[deterministic: 0]
[force_col_wise: 0]
[force_row_wise: 0]
[histogram_pool_size: -1]
[max_depth: -1]
[min_data_in_leaf: 30]
[min_sum_hessian_in_leaf: 0.001]
[bagging_fraction: 0.8]
[pos_bagging_fraction: 1]
[neg_bagging_fraction: 1]
[bagging_freq: 0]
[bagging_seed: 400]
[bagging_by_query: 0]
[feature_fraction: 0.7]
[feature_fraction_bynode: 1]
[feature_fraction_seed: 30056]
[extra_trees: 0]
[extra_seed: 12879]
[early_stopping_round: 0]
[early_stopping_min_delta: 0]
[first_metric_only: 0]
[max_delta_step: 0]
[lambda_l1: 0.5]
[lambda_l2: 2]
[linear_lambda: 0]
[min_gain_to_split: 0]
[drop_rate: 0.1]
[max_drop: 50]
[skip_drop: 0.5]
[xgboost_dart_mode: 0]
[uniform_drop: 0]
[drop_seed: 17869]
[top_rate: 0.2]
[other_rate: 0.1]
[min_data_per_group: 100]
[max_cat_threshold: 32]
[cat_l2: 10]
[cat_smooth: 10]
[max_cat_to_onehot: 4]
[top_k: 20]
[monotone_constraints: ]
[monotone_constraints_method: basic]
[monotone_penalty: 0]
[feature_contri: ]
[forcedsplits_filename: ]
[refit_decay_rate: 0.9]
[cegb_tradeoff: 1]
[cegb_penalty_split: 0]
[cegb_penalty_feature_lazy: ]
[cegb_penalty_feature_coupled: ]
[path_smooth: 0]
[interaction_constraints: ]
[verbosity: -1]
[saved_feature_importance_type: 0]
[use_quantized_grad: 0]
[num_grad_quant_bins: 4]
[quant_train_renew_leaf: 0]
[stochastic_rounding: 1]
[linear_tree: 0]
[max_bin: 255]
[max_bin_by_feature: ]
[min_data_in_bin: 3]
[bin_construct_sample_cnt: 200000]
[data_random_seed: 175]
[is_enable_sparse: 1]
[enable_bundle: 1]
[use_missing: 1]
[zero_as_missing: 0]
[feature_pre_filter: 1]
[pre_partition: 0]
[two_round: 0]
[header: 0]
[label_column: ]
[weight_column: ]
[group_column: ]
[ignore_column: ]
[categorical_feature: ]
[forcedbins_filename: ]
[precise_float_parser: 0]
[parser_config_file: ]
[objective_seed: 16083]
[num_class: 1]
[is_unbalance: 0]
[scale_pos_weight: 1]
[sigmoid: 1]
[boost_from_average: 1]
[reg_sqrt: 0]
[alpha: 0.9]
[fair_c: 1]
[poisson_max_delta_step: 0.7]
[tweedie_variance_power: 1.5]
[lambdarank_truncation_level: 30]
[lambdarank_norm: 1]
[label_gain: ]
[lambdarank_position_bias_regularization: 0]
[eval_at: ]
[multi_error_top_k: 1]
[auc_mu_weights: ]
[num_machines: 1]
[local_listen_port: 12400]
[time_out: 120]
[machine_list_filename: ]
[machines: ]
[gpu_platform_id: -1]
[gpu_device_id: -1]
[gpu_use_dp: 0]
[num_gpu: 1]

end of parameters

pandas_categorical:null
