{"learner":{"attributes":{"best_iteration":"163","best_score":"0.21731144057379828","scikit_learn":"{\"_estimator_type\": \"regressor\"}"},"feature_names":[],"feature_types":[],"gradient_booster":{"model":{"gbtree_model_param":{"num_parallel_tree":"1","num_trees":"214"},"iteration_indptr":[0,1,2,3,4,5,6,7,8,9,10,11,12,13,14,15,16,17,18,19,20,21,22,23,24,25,26,27,28,29,30,31,32,33,34,35,36,37,38,39,40,41,42,43,44,45,46,47,48,49,50,51,52,53,54,55,56,57,58,59,60,61,62,63,64,65,66,67,68,69,70,71,72,73,74,75,76,77,78,79,80,81,82,83,84,85,86,87,88,89,90,91,92,93,94,95,96,97,98,99,100,101,102,103,104,105,106,107,108,109,110,111,112,113,114,115,116,117,118,119,120,121,122,123,124,125,126,127,128,129,130,131,132,133,134,135,136,137,138,139,140,141,142,143,144,145,146,147,148,149,150,151,152,153,154,155,156,157,158,159,160,161,162,163,164,165,166,167,168,169,170,171,172,173,174,175,176,177,178,179,180,181,182,183,184,185,186,187,188,189,190,191,192,193,194,195,196,197,198,199,200,201,202,203,204,205,206,207,208,209,210,211,212,213,214],"tree_info":[0,0,0,0,0,0,0,0,0,0,0,0,0,0,0,0,0,0,0,0,0,0,0,0,0,0,0,0,0,0,0,0,0,0,0,0,0,0,0,0,0,0,0,0,0,0,0,0,0,0,0,0,0,0,0,0,0,0,0,0,0,0,0,0,0,0,0,0,0,0,0,0,0,0,0,0,0,0,0,0,0,0,0,0,0,0,0,0,0,0,0,0,0,0,0,0,0,0,0,0,0,0,0,0,0,0,0,0,0,0,0,0,0,0,0,0,0,0,0,0,0,0,0,0,0,0,0,0,0,0,0,0,0,0,0,0,0,0,0,0,0,0,0,0,0,0,0,0,0,0,0,0,0,0,0,0,0,0,0,0,0,0,0,0,0,0,0,0,0,0,0,0,0,0,0,0,0,0,0,0,0,0,0,0,0,0,0,0,0,0,0,0,0,0,0,0,0,0,0,0,0,0,0,0,0,0,0,0,0,0,0,0,0,0],"trees":[{"base_weights":[1.7199194E-2,1.01864025E-1,-5.853379E-2,7.473185E-2,5.043485E-1,-9.990164E-2,1.654776E-1,5.8001295E-2,8.144898E-1,2.360981E-3,7.884041E-1,4.9511394E-3,-2.221104E-1,4.3159574E-1,-8.9890264E-2,2.2897145E-3,-7.2794406E-5,1.470695E-2,-2.3974356E-4,3.4114842E-3,1.2002021E-2,-6.1694573E-4,3.3668214E-3,-4.076996E-3,-1.1246944E-3,2.373174E-3,1.0961474E-2,1.8458971E-3,-4.026213E-3],"categories":[],"categories_nodes":[],"categories_segments":[],"categories_sizes":[],"default_left":[0,0,0,0,0,0,0,0,0,0,0,0,0,0,0,0,0,0,0,0,0,0,0,0,0,0,0,0,0],"id":0,"left_children":[1,3,5,7,9,11,13,15,17,-1,19,21,23,25,27,-1,-1,-1,-1,-1,-1,-1,-1,-1,-1,-1,-1,-1,-1],"loss_changes":[8.392846E0,6.6366973E0,6.4137983E0,7.0347886E0,2.5557451E0,7.5051956E0,7.4162207E0,6.387197E0,7.1334534E0,0E0,2.528676E0,7.0290833E0,5.375231E0,6.348177E0,4.944153E0,0E0,0E0,0E0,0E0,0E0,0E0,0E0,0E0,0E0,0E0,0E0,0E0,0E0,0E0],"parents":[2147483647,0,0,1,1,2,2,3,3,4,4,5,5,6,6,7,7,8,8,10,10,11,11,12,12,13,13,14,14],"right_children":[2,4,6,8,10,12,14,16,18,-1,20,22,24,26,28,-1,-1,-1,-1,-1,-1,-1,-1,-1,-1,-1,-1,-1,-1],"split_conditions":[-5.0114486E-2,1.5849184E0,8.755563E-1,2.4443486E0,-3.3864897E-1,-5.6290977E-2,1.2262616E-1,-4.6300337E-1,5.992088E-1,2.360981E-3,-5.960447E-1,5.6713605E-1,-2.5506338E-1,5.6660813E-1,-2.8519306E-2,2.2897145E-3,-7.2794406E-5,1.470695E-2,-2.3974356E-4,3.4114842E-3,1.2002021E-2,-6.1694573E-4,3.3668214E-3,-4.076996E-3,-1.1246944E-3,2.373174E-3,1.0961474E-2,1.8458971E-3,-4.026213E-3],"split_indices":[410,309,183,413,336,71,246,207,267,0,412,398,158,38,225,0,0,0,0,0,0,0,0,0,0,0,0,0,0],"split_type":[0,0,0,0,0,0,0,0,0,0,0,0,0,0,0,0,0,0,0,0,0,0,0,0,0,0,0,0,0],"sum_hessian":[1.3053737E3,6.1672064E2,6.8865295E2,5.7967096E2,3.7049644E1,5.823827E2,1.06270294E2,5.6856494E2,1.1106026E1,2.0648682E1,1.6400965E1,3.1378345E2,2.6859924E2,5.172464E1,5.454565E1,1.5648958E2,4.1207538E2,5.662562E0,5.4434633E0,9.293137E0,7.107827E0,2.6205536E2,5.1728092E1,9.789784E1,1.7070139E2,4.1715473E1,1.0009168E1,2.9206419E1,2.5339233E1],"tree_param":{"num_deleted":"0","num_feature":"420","num_nodes":"29","size_leaf_vector":"1"}},{"base_weights":[-9.917817E-3,-3.6779642E-2,2.7198797E-1,3.5756135E-1,-5.1737454E-2,3.3667967E-1,-4.9796505E-3,-8.806362E-2,5.684456E-1,-4.521394E-1,-3.6499847E-2,2.1429422E-1,6.7459226E-1,3.7165354E-3,-3.9475127E-3,5.784979E-4,8.608372E-3,-1.1712748E-2,-1.2133619E-3,-1.7426878E-3,-4.4174717E-6,1.3531258E-4,4.8155626E-3,1.0578091E-2,2.7371694E-3],"categories":[],"categories_nodes":[],"categories_segments":[],"categories_sizes":[],"default_left":[0,0,0,0,0,0,0,0,0,0,0,0,0,0,0,0,0,0,0,0,0,0,0,0,0],"id":1,"left_children":[1,3,5,7,9,11,-1,13,15,17,19,21,23,-1,-1,-1,-1,-1,-1,-1,-1,-1,-1,-1,-1],"loss_changes":[9.831273E0,7.0046215E0,5.8588276E0,4.197998E0,6.9192314E0,4.043371E0,0E0,2.347786E0,4.280324E0,9.564882E0,5.476691E0,4.2127247E0,3.5873451E0,0E0,0E0,0E0,0E0,0E0,0E0,0E0,0E0,0E0,0E0,0E0,0E0],"parents":[2147483647,0,0,1,1,2,2,3,3,4,4,5,5,7,7,8,8,9,9,10,10,11,11,12,12],"right_children":[2,4,6,8,10,12,-1,14,16,18,20,22,24,-1,-1,-1,-1,-1,-1,-1,-1,-1,-1,-1,-1],"split_conditions":[1.354064E0,-1.3946397E0,1.7949089E0,-3.841102E-1,-1.7788578E0,6.41033E-1,-4.9796505E-3,-3.2570922E-1,-6.2281996E-1,-1.3710704E-2,-6.8486637E-1,2.2892092E-1,4.4898894E-2,3.7165354E-3,-3.9475127E-3,5.784979E-4,8.608372E-3,-1.1712748E-2,-1.2133619E-3,-1.7426878E-3,-4.4174717E-6,1.3531258E-4,4.8155626E-3,1.0578091E-2,2.7371694E-3],"split_indices":[309,259,259,242,388,77,0,75,266,185,116,204,108,0,0,0,0,0,0,0,0,0,0,0,0],"split_type":[0,0,0,0,0,0,0,0,0,0,0,0,0,0,0,0,0,0,0,0,0,0,0,0,0],"sum_hessian":[1.2979102E3,1.1865106E3,1.1139946E2,4.1861095E1,1.1446495E3,1.0366358E2,7.7358785E0,1.35749445E1,2.8286148E1,4.014624E1,1.1045033E3,7.811795E1,2.5545631E1,5.174575E0,8.40037E0,1.1078622E1,1.7207527E1,1.1352853E1,2.8793388E1,2.2734654E2,8.771568E2,4.5722244E1,3.2395706E1,1.1676195E1,1.3869436E1],"tree_param":{"num_deleted":"0","num_feature":"420","num_nodes":"25","size_leaf_vector":"1"}},{"base_weights":[4.5183892E-3,-4.7583023E-1,1.7213352E-2,3.917905E-3,-8.3648354E-1,7.6379105E-2,-7.610476E-2,-3.2976282E-1,-1.719281E-2,9.33074E-3,6.78039E-2,1.0061968E-1,-1.4157203E-1,-6.82883E-3,4.946957E-4,-1.072049E-3,1.0778588E-3,-3.0579665E-3,1.8634395E-3,-1.8154421E-3,1.7299803E-3],"categories":[],"categories_nodes":[],"categories_segments":[],"categories_sizes":[],"default_left":[0,0,0,0,0,0,0,0,0,0,0,0,0,0,0,0,0,0,0,0,0],"id":2,"left_children":[1,3,5,-1,7,9,11,13,-1,-1,15,17,19,-1,-1,-1,-1,-1,-1,-1,-1],"loss_changes":[7.858227E0,1.0915854E1,6.9792457E0,0E0,9.676857E0,5.4913077E0,5.694112E0,2.4133854E0,0E0,0E0,5.3918924E0,4.703917E0,4.5564246E0,0E0,0E0,0E0,0E0,0E0,0E0,0E0,0E0],"parents":[2147483647,0,0,1,1,2,2,4,4,5,5,6,6,7,7,10,10,11,11,12,12],"right_children":[2,4,6,-1,8,10,12,14,-1,-1,16,18,20,-1,-1,-1,-1,-1,-1,-1,-1],"split_conditions":[-1.8833905E0,-2.4979618E0,2.3584653E-1,3.917905E-3,-1.9634153E-1,-1.8297828E0,-4.8040897E-1,-3.037897E-1,-1.719281E-2,9.33074E-3,-4.9383467E-1,-9.411707E-1,1.141815E0,-6.82883E-3,4.946957E-4,-1.072049E-3,1.0778588E-3,-3.0579665E-3,1.8634395E-3,-1.8154421E-3,1.7299803E-3],"split_indices":[376,398,15,0,147,407,157,215,0,0,382,124,31,0,0,0,0,0,0,0,0],"split_type":[0,0,0,0,0,0,0,0,0,0,0,0,0,0,0,0,0,0,0,0,0],"sum_hessian":[1.2926606E3,3.1671799E1,1.2609889E3,9.180225E0,2.2491573E1,7.72531E2,4.884579E2,1.5670427E1,6.821145E0,5.9378757E0,7.665931E2,1.314053E2,3.5705258E2,7.6291914E0,8.041236E0,1.4162971E2,6.249634E2,2.2015081E1,1.0939022E2,3.1764224E2,3.9410355E1],"tree_param":{"num_deleted":"0","num_feature":"420","num_nodes":"21","size_leaf_vector":"1"}},{"base_weights":[-1.2515115E-2,-3.996078E-2,3.1146657E-1,1.8287225E-2,-1.3136873E-1,-4.321724E-3,3.7781072E-1,1.261979E-1,-5.5046357E-2,-1.1356984E-2,-1.1532785E-1,3.073919E-1,1.114646E-2,3.8957244E-3,5.7323236E-4,-3.342539E-4,-1.184505E-2,-5.4645804E-3,-9.035634E-4,5.845696E-3,1.4677469E-3],"categories":[],"categories_nodes":[],"categories_segments":[],"categories_sizes":[],"default_left":[0,0,0,0,0,0,0,0,0,0,0,0,0,0,0,0,0,0,0,0,0],"id":3,"left_children":[1,3,5,7,9,-1,11,13,15,-1,17,19,-1,-1,-1,-1,-1,-1,-1,-1,-1],"loss_changes":[1.1273678E1,6.2514954E0,5.1226435E0,5.6842656E0,7.0368333E0,0E0,4.106777E0,5.195865E0,1.02422905E1,0E0,4.721345E0,3.6260347E0,0E0,0E0,0E0,0E0,0E0,0E0,0E0,0E0,0E0],"parents":[2147483647,0,0,1,1,2,2,3,3,4,4,6,6,7,7,8,8,10,10,11,11],"right_children":[2,4,6,8,10,-1,12,14,16,-1,18,20,-1,-1,-1,-1,-1,-1,-1,-1,-1],"split_conditions":[1.354064E0,2.0719078E-1,-1.5484457E0,-3.9454472E-1,-1.8906537E0,-4.321724E-3,1.6660957E0,-6.767262E-1,2.4093509E0,-1.1356984E-2,-1.0829887E0,-2.348104E-1,1.114646E-2,3.8957244E-3,5.7323236E-4,-3.342539E-4,-1.184505E-2,-5.4645804E-3,-9.035634E-4,5.845696E-3,1.4677469E-3],"split_indices":[309,40,199,231,384,0,395,282,383,0,356,4,0,0,0,0,0,0,0,0,0],"split_type":[0,0,0,0,0,0,0,0,0,0,0,0,0,0,0,0,0,0,0,0,0],"sum_hessian":[1.2673141E3,1.1698367E3,9.747746E1,7.14586E2,4.5525064E2,7.1832542E0,9.0294205E1,2.892442E2,4.253418E2,5.412868E0,4.4983777E2,8.448183E1,5.8123817E0,5.8210983E1,2.3103322E2,4.1895477E2,6.387024E0,2.2694279E1,4.271435E2,2.9313513E1,5.5168312E1],"tree_param":{"num_deleted":"0","num_feature":"420","num_nodes":"21","size_leaf_vector":"1"}},{"base_weights":[-1.8412523E-3,-2.643737E-1,1.6970867E-2,-4.382402E-1,5.8503922E-2,-5.7760817E-1,2.6084026E-2,-2.865247E-1,-1.2875107E-2,2.6778957E-1,-5.499412E-3,3.689778E-3,-1.0014902E0,5.0938907E-3,2.5084215E-1,-1.0257127E-3,-6.890534E-3,7.3927357E-3,2.4786108E-4,-2.4377636E-3,-1.4788743E-2,-8.213526E-4,5.839667E-4,8.5393054E-4,6.431985E-3],"categories":[],"categories_nodes":[],"categories_segments":[],"categories_sizes":[],"default_left":[0,0,0,0,0,0,0,0,0,0,0,0,0,0,0,0,0,0,0,0,0,0,0,0,0],"id":4,"left_children":[1,3,5,7,9,11,13,15,-1,17,-1,-1,19,21,23,-1,-1,-1,-1,-1,-1,-1,-1,-1,-1],"loss_changes":[6.4437613E0,4.975016E0,6.5378675E0,6.6459312E0,4.2247686E0,7.9217677E0,5.614333E0,3.552065E0,0E0,2.7250462E0,0E0,0E0,4.007573E0,5.099252E0,6.4470353E0,0E0,0E0,0E0,0E0,0E0,0E0,0E0,0E0,0E0,0E0],"parents":[2147483647,0,0,1,1,2,2,3,3,4,4,5,5,6,6,7,7,9,9,12,12,13,13,14,14],"right_children":[2,4,6,8,10,12,14,16,-1,18,-1,-1,20,22,24,-1,-1,-1,-1,-1,-1,-1,-1,-1,-1],"split_conditions":[-1.3272455E0,2.0655563E-1,-2.8239574E0,1.9065717E-1,7.21767E-2,-1.1814588E0,1.3308457E0,4.86522E-1,-1.2875107E-2,-2.274686E-1,-5.499412E-3,3.689778E-3,-5.9917533E-1,-4.774657E-1,-3.3248875E-1,-1.0257127E-3,-6.890534E-3,7.3927357E-3,2.4786108E-4,-2.4377636E-3,-1.4788743E-2,-8.213526E-4,5.839667E-4,8.5393054E-4,6.431985E-3],"split_indices":[135,142,130,357,328,242,329,78,0,7,0,0,266,28,349,0,0,0,0,0,0,0,0,0,0],"split_type":[0,0,0,0,0,0,0,0,0,0,0,0,0,0,0,0,0,0,0,0,0,0,0,0,0],"sum_hessian":[1.2968522E3,8.57603E1,1.2110919E3,5.5596107E1,3.0164196E1,1.6704092E1,1.1943878E3,4.8971542E1,6.624565E0,2.3191301E1,6.9728937E0,5.1536565E0,1.1550436E1,1.0941813E3,1.0020654E2,3.5073704E1,1.3897839E1,6.7057314E0,1.648557E1,5.4212184E0,6.1292176E0,4.13996E2,6.8018524E2,7.194856E1,2.8257982E1],"tree_param":{"num_deleted":"0","num_feature":"420","num_nodes":"25","size_leaf_vector":"1"}},{"base_weights":[5.991937E-3,1.3812242E-2,-8.650702E-3,-1.1007527E-2,2.6763248E-1,3.0956036E-1,-2.4525534E-2,3.269956E-1,-3.9271545E-3,1.2683485E-3,7.8374455E-3,-3.0668958E-3,-2.6299238E-5,4.13291E-3,-7.20679E-4],"categories":[],"categories_nodes":[],"categories_segments":[],"categories_sizes":[],"default_left":[0,0,0,0,0,0,0,0,0,0,0,0,0,0,0],"id":5,"left_children":[1,3,-1,5,7,9,11,13,-1,-1,-1,-1,-1,-1,-1],"loss_changes":[8.692883E0,8.069403E0,0E0,5.025024E0,4.6583834E0,3.822713E0,6.87597E0,3.7166328E0,0E0,0E0,0E0,0E0,0E0,0E0,0E0],"parents":[2147483647,0,0,1,1,3,3,4,4,5,5,6,6,7,7],"right_children":[2,4,-1,6,8,10,12,14,-1,-1,-1,-1,-1,-1,-1],"split_conditions":[3.1237614E0,1.354064E0,-8.650702E-3,-1.3946397E0,1.6979895E0,1.1630612E-1,-1.1885455E0,8.718375E-1,-3.9271545E-3,1.2683485E-3,7.8374455E-3,-3.0668958E-3,-2.6299238E-5,4.13291E-3,-7.20679E-4],"split_indices":[252,309,0,259,76,370,196,53,0,0,0,0,0,0,0],"split_type":[0,0,0,0,0,0,0,0,0,0,0,0,0,0,0],"sum_hessian":[1.2844839E3,1.2746313E3,9.85249E0,1.1620422E3,1.12589134E2,4.5390816E1,1.1166514E3,1.0413628E2,8.452857E0,3.4289547E1,1.1101269E1,7.867723E1,1.0379741E3,8.578321E1,1.8353071E1],"tree_param":{"num_deleted":"0","num_feature":"420","num_nodes":"15","size_leaf_vector":"1"}},{"base_weights":[1.2687951E-2,-9.637974E-3,2.6431257E-1,-4.809702E-1,3.8981873E-3,3.2922336E-1,-4.879905E-3,-8.5965574E-1,2.733807E-1,1.0752604E-2,-7.204768E-3,2.067656E-1,7.4362886E-1,-3.6898803E-3,-1.4767564E-2,-3.5280702E-3,8.371929E-3,-8.399103E-6,3.5685494E-3,5.044863E-3,7.167454E-4,1.1937871E-2,2.9414424E-3],"categories":[],"categories_nodes":[],"categories_segments":[],"categories_sizes":[],"default_left":[0,0,0,0,0,0,0,0,0,0,0,0,0,0,0,0,0,0,0,0,0,0,0],"id":6,"left_children":[1,3,5,7,9,11,-1,13,15,17,-1,19,21,-1,-1,-1,-1,-1,-1,-1,-1,-1,-1],"loss_changes":[7.3742537E0,7.7192225E0,5.4487596E0,1.0059195E1,5.7484617E0,4.723262E0,0E0,5.943018E0,4.8474317E0,4.6916494E0,0E0,3.067971E0,3.7617893E0,0E0,0E0,0E0,0E0,0E0,0E0,0E0,0E0,0E0,0E0],"parents":[2147483647,0,0,1,1,2,2,3,3,4,4,5,5,7,7,8,8,9,9,11,11,12,12],"right_children":[2,4,6,8,10,12,-1,14,16,18,-1,20,22,-1,-1,-1,-1,-1,-1,-1,-1,-1,-1],"split_conditions":[1.354064E0,-1.8833905E0,1.7949089E0,1.1266661E0,2.7813113E0,5.4646635E-1,-4.879905E-3,-1.945884E-1,-3.5481018E-1,2.0029714E0,-7.204768E-3,4.2322156E-1,9.2252836E-2,-3.6898803E-3,-1.4767564E-2,-3.5280702E-3,8.371929E-3,-8.399103E-6,3.5685494E-3,5.044863E-3,7.167454E-4,1.1937871E-2,2.9414424E-3],"split_indices":[309,376,259,247,401,77,0,106,349,392,0,354,76,0,0,0,0,0,0,0,0,0,0],"split_type":[0,0,0,0,0,0,0,0,0,0,0,0,0,0,0,0,0,0,0,0,0,0,0],"sum_hessian":[1.3059563E3,1.2004857E3,1.0547051E2,3.2274364E1,1.1682113E3,9.799198E1,7.4785295E0,2.1436413E1,1.083795E1,1.1588615E3,9.349972E0,7.7561966E1,2.0430014E1,1.3367017E1,8.069396E0,5.316871E0,5.5210786E0,1.1224722E3,3.6389183E1,2.269771E1,5.4864258E1,8.8552065E0,1.1574807E1],"tree_param":{"num_deleted":"0","num_feature":"420","num_nodes":"23","size_leaf_vector":"1"}},{"base_weights":[-6.9987155E-3,-2.6715207E-1,1.3807262E-2,-4.5925242E-1,3.2162324E-1,5.1062886E-2,-1.2438697E-1,-1.9609763E-1,-1.0675993E0,-1.1383113E-3,6.896329E-1,3.14589E-2,4.466842E-1,4.885363E-1,-1.589078E-1,-1.7501395E-4,-9.647863E-3,-1.8861966E-3,-1.9062502E-2,1.0502988E-2,1.0819879E-3,-6.7097126E-3,4.2104535E-4,-2.4589726E-3,6.3971845E-3,9.673806E-3,3.2973706E-4,4.3968775E-4,-2.3833555E-3],"categories":[],"categories_nodes":[],"categories_segments":[],"categories_sizes":[],"default_left":[0,0,0,0,0,0,0,0,0,0,0,0,0,0,0,0,0,0,0,0,0,0,0,0,0,0,0,0,0],"id":7,"left_children":[1,3,5,7,9,11,13,15,17,-1,19,21,23,25,27,-1,-1,-1,-1,-1,-1,-1,-1,-1,-1,-1,-1,-1,-1],"loss_changes":[7.038632E0,1.1127786E1,6.179759E0,1.1303622E1,4.092797E0,7.273649E0,5.4715676E0,7.174539E0,1.5246719E1,0E0,2.5626898E0,6.7385287E0,6.20364E0,2.8606217E0,3.9405603E0,0E0,0E0,0E0,0E0,0E0,0E0,0E0,0E0,0E0,0E0,0E0,0E0,0E0,0E0],"parents":[2147483647,0,0,1,1,2,2,3,3,4,4,5,5,6,6,7,7,8,8,10,10,11,11,12,12,13,13,14,14],"right_children":[2,4,6,8,10,12,14,16,18,-1,20,22,24,26,28,-1,-1,-1,-1,-1,-1,-1,-1,-1,-1,-1,-1,-1,-1],"split_conditions":[-1.3495896E0,5.179878E-1,9.1432786E-1,6.592855E-1,6.85479E-1,1.8420329E0,-1.0403606E0,2.9076388E-1,-4.936427E-1,-1.1383113E-3,-3.7122333E-1,-2.8239574E0,-8.162545E-1,3.2394764E-1,-5.355572E-1,-1.7501395E-4,-9.647863E-3,-1.8861966E-3,-1.9062502E-2,1.0502988E-2,1.0819879E-3,-6.7097126E-3,4.2104535E-4,-2.4589726E-3,6.3971845E-3,9.673806E-3,3.2973706E-4,4.3968775E-4,-2.3833555E-3],"split_indices":[397,206,90,373,332,413,165,305,109,0,375,130,284,198,372,0,0,0,0,0,0,0,0,0,0,0,0,0,0],"split_type":[0,0,0,0,0,0,0,0,0,0,0,0,0,0,0,0,0,0,0,0,0,0,0,0,0,0,0,0,0],"sum_hessian":[1.2931785E3,9.48049E1,1.1983735E3,7.185916E1,2.2945738E1,9.452217E2,2.5315186E2,5.1660213E1,2.0198948E1,1.0859879E1,1.208586E1,9.023787E2,4.2842983E1,1.2291394E1,2.4086046E2,4.327094E1,8.389275E0,1.08176775E1,9.381269E0,6.606342E0,5.4795184E0,1.1942497E1,8.904362E2,9.135868E0,3.3707115E1,5.0639305E0,7.2274632E0,6.7601494E1,1.7325897E2],"tree_param":{"num_deleted":"0","num_feature":"420","num_nodes":"29","size_leaf_vector":"1"}},{"base_weights":[-3.7427808E-3,-2.9559992E-2,2.8146455E-1,-4.8522335E-1,-1.6278574E-2,1.1928619E-2,2.146996E-1,-1.232513E-2,-1.7362821E-1,4.4828645E-4,-3.2419497E-1,-1.1276778E-1,3.748896E-1,3.7116152E-3,-5.344611E-3,-4.057763E-4,1.4258134E-3,-1.0205481E-2,-8.457724E-4,4.5383773E-3,-2.5818907E-3,1.7249591E-3,8.074138E-3],"categories":[],"categories_nodes":[],"categories_segments":[],"categories_sizes":[],"default_left":[0,0,0,0,0,0,0,0,0,0,0,0,0,0,0,0,0,0,0,0,0,0,0],"id":8,"left_children":[1,3,5,7,9,-1,11,-1,13,15,17,19,21,-1,-1,-1,-1,-1,-1,-1,-1,-1,-1],"loss_changes":[9.563402E0,7.1654468E0,6.033057E0,7.3524814E0,6.018446E0,0E0,5.4585543E0,0E0,5.3312545E0,6.453562E0,9.803364E0,3.0045333E0,5.757926E0,0E0,0E0,0E0,0E0,0E0,0E0,0E0,0E0,0E0,0E0],"parents":[2147483647,0,0,1,1,2,2,3,3,4,4,6,6,8,8,9,9,10,10,11,11,12,12],"right_children":[2,4,6,8,10,-1,12,-1,14,16,18,20,22,-1,-1,-1,-1,-1,-1,-1,-1,-1,-1],"split_conditions":[1.354064E0,-1.8833905E0,-1.1161859E0,-1.3977867E0,1.646719E0,1.1928619E-2,-6.536312E-2,-1.232513E-2,-1.3388584E0,2.2409627E-1,1.3945674E0,-8.7311476E-1,-5.054386E-1,3.7116152E-3,-5.344611E-3,-4.057763E-4,1.4258134E-3,-1.0205481E-2,-8.457724E-4,4.5383773E-3,-2.5818907E-3,1.7249591E-3,8.074138E-3],"split_indices":[309,376,363,409,19,0,386,0,243,5,71,386,366,0,0,0,0,0,0,0,0,0,0],"split_type":[0,0,0,0,0,0,0,0,0,0,0,0,0,0,0,0,0,0,0,0,0,0,0],"sum_hessian":[1.2990265E3,1.1927527E3,1.06273834E2,3.205822E1,1.1606945E3,5.4246845E0,1.0084915E2,8.034687E0,2.4023533E1,1.1020037E3,5.86908E1,3.3068626E1,6.7780525E1,9.444319E0,1.4579213E1,8.5545074E2,2.465529E2,1.366705E1,4.502375E1,5.9636216E0,2.7105005E1,4.77609E1,2.0019627E1],"tree_param":{"num_deleted":"0","num_feature":"420","num_nodes":"23","size_leaf_vector":"1"}},{"base_weights":[3.4282482E-3,-2.2440266E-2,2.9178867E-1,-3.4061927E-2,5.648892E-1,3.5867727E-1,-4.189391E-3,-5.070339E-1,-1.9861983E-2,1.3990188E-1,1.2669833E-2,1.0114312E-2,2.803187E-1,-8.033536E-3,2.6655106E-3,4.948289E-4,-8.24352E-4,5.194273E-3,-4.7037206E-3,1.4515729E-3,7.3650912E-3],"categories":[],"categories_nodes":[],"categories_segments":[],"categories_sizes":[],"default_left":[0,0,0,0,0,0,0,0,0,0,0,0,0,0,0,0,0,0,0,0,0],"id":9,"left_children":[1,3,5,7,9,11,-1,13,15,17,-1,-1,19,-1,-1,-1,-1,-1,-1,-1,-1],"loss_changes":[9.703181E0,8.100165E0,5.3111267E0,7.7816877E0,6.460169E0,4.500552E0,0E0,8.122753E0,4.940592E0,4.102845E0,0E0,0E0,5.328497E0,0E0,0E0,0E0,0E0,0E0,0E0,0E0,0E0],"parents":[2147483647,0,0,1,1,2,2,3,3,4,4,5,5,7,7,8,8,9,9,12,12],"right_children":[2,4,6,8,10,12,-1,14,16,18,-1,-1,20,-1,-1,-1,-1,-1,-1,-1,-1],"split_conditions":[1.354064E0,2.7549675E0,2.2559657E0,-1.8833905E0,3.844452E-1,-8.826969E-1,-4.189391E-3,5.234589E-1,-9.2351865E-3,7.112423E-2,1.2669833E-2,1.0114312E-2,6.6652256E-1,-8.033536E-3,2.6655106E-3,4.948289E-4,-8.24352E-4,5.194273E-3,-4.7037206E-3,1.4515729E-3,7.3650912E-3],"split_indices":[309,140,403,376,242,157,0,248,172,204,0,0,207,0,0,0,0,0,0,0,0],"split_type":[0,0,0,0,0,0,0,0,0,0,0,0,0,0,0,0,0,0,0,0,0],"sum_hessian":[1.294362E3,1.1887565E3,1.0560563E2,1.167243E3,2.1513313E1,9.732939E1,8.2762375E0,3.2299763E1,1.1349434E3,1.4610626E1,6.9026875E0,8.380354E0,8.8949036E1,2.340578E1,8.893979E0,5.377329E2,5.9721045E2,9.247081E0,5.363546E0,7.0312996E1,1.8636038E1],"tree_param":{"num_deleted":"0","num_feature":"420","num_nodes":"21","size_leaf_vector":"1"}},{"base_weights":[1.7351255E-2,-5.829645E-3,2.806031E-1,-3.9703313E-1,5.8459947E-3,1.367691E-2,1.9898951E-1,-8.039999E-1,3.11112E-1,5.066526E-1,-4.663898E-3,-5.5011692E-3,2.5319734E-1,-3.1997012E-3,-1.7188411E-2,8.199924E-3,-3.637692E-3,1.5570608E-3,1.3511151E-2,2.6599137E-4,-1.2997871E-3,3.4254028E-3,-2.3469198E-3],"categories":[],"categories_nodes":[],"categories_segments":[],"categories_sizes":[],"default_left":[0,0,0,0,0,0,0,0,0,0,0,0,0,0,0,0,0,0,0,0,0,0,0],"id":10,"left_children":[1,3,5,7,9,-1,11,13,15,17,19,-1,21,-1,-1,-1,-1,-1,-1,-1,-1,-1,-1],"loss_changes":[7.834799E0,5.4167495E0,8.652076E0,1.0329126E1,6.0736523E0,0E0,4.177988E0,8.860666E0,5.1413364E0,6.562857E0,4.4092755E0,0E0,4.1843224E0,0E0,0E0,0E0,0E0,0E0,0E0,0E0,0E0,0E0,0E0],"parents":[2147483647,0,0,1,1,2,2,3,3,4,4,6,6,7,7,8,8,9,9,10,10,12,12],"right_children":[2,4,6,8,10,-1,12,14,16,18,20,-1,22,-1,-1,-1,-1,-1,-1,-1,-1,-1,-1],"split_conditions":[1.354064E0,-1.8833905E0,-7.8681046E-1,1.1527537E0,-1.9985635E0,1.367691E-2,-9.7319764E-1,-7.2349004E-2,-1.0301546E0,-3.1041967E-2,7.1056014E-1,-5.5011692E-3,1.2201027E0,-3.1997012E-3,-1.7188411E-2,8.199924E-3,-3.637692E-3,1.5570608E-3,1.3511151E-2,2.6599137E-4,-1.2997871E-3,3.4254028E-3,-2.3469198E-3],"split_indices":[309,376,358,247,414,0,413,21,281,328,102,0,225,0,0,0,0,0,0,0,0,0,0],"split_type":[0,0,0,0,0,0,0,0,0,0,0,0,0,0,0,0,0,0,0,0,0,0,0],"sum_hessian":[1.2774802E3,1.1750931E3,1.0238706E2,3.286824E1,1.142225E3,5.41375E0,9.697331E1,2.0833515E1,1.2034724E1,2.2218033E1,1.1200068E3,5.493303E0,9.148001E1,1.5020382E1,5.813134E0,6.761786E0,5.272938E0,1.7033958E1,5.184074E0,8.9668835E2,2.2331856E2,7.787185E1,1.3608163E1],"tree_param":{"num_deleted":"0","num_feature":"420","num_nodes":"23","size_leaf_vector":"1"}},{"base_weights":[7.0146797E-3,3.4471393E-1,-7.052852E-3,1.6787939E-1,8.8280135E-1,1.4755574E-1,-4.144797E-2,4.445535E-1,-6.046456E-4,2.0918625E-3,1.3513923E-2,6.5419155E-1,9.007462E-2,-8.554764E-3,-3.3518627E-2,8.867033E-4,9.666289E-3,1.1874749E-2,1.7255226E-3,-3.557358E-3,1.7508846E-3,2.5203594E-3,-5.207835E-4],"categories":[],"categories_nodes":[],"categories_segments":[],"categories_sizes":[],"default_left":[0,0,0,0,0,0,0,0,0,0,0,0,0,0,0,0,0,0,0,0,0,0,0],"id":11,"left_children":[1,3,5,7,9,11,13,15,-1,-1,-1,17,19,-1,21,-1,-1,-1,-1,-1,-1,-1,-1],"loss_changes":[6.1595883E0,4.606429E0,6.583923E0,2.6701345E0,3.3128996E0,6.394269E0,6.417729E0,3.281946E0,0E0,0E0,0E0,5.34245E0,7.8120227E0,0E0,5.33449E0,0E0,0E0,0E0,0E0,0E0,0E0,0E0,0E0],"parents":[2147483647,0,0,1,1,2,2,3,3,4,4,5,5,6,6,7,7,11,11,12,12,14,14],"right_children":[2,4,6,8,10,12,14,16,-1,-1,-1,18,20,-1,22,-1,-1,-1,-1,-1,-1,-1,-1],"split_conditions":[-1.3946397E0,-2.2309955E-2,-9.525782E-1,-1.2755403E-1,-7.9131615E-1,-9.695836E-1,-2.0090902E0,-1.6683815E-2,-6.046456E-4,2.0918625E-3,1.3513923E-2,-9.253987E-1,-1.7151644E0,-8.554764E-3,-1.4884578E0,8.867033E-4,9.666289E-3,1.1874749E-2,1.7255226E-3,-3.557358E-3,1.7508846E-3,2.5203594E-3,-5.207835E-4],"split_indices":[259,8,8,395,117,418,279,240,0,0,0,1,20,0,137,0,0,0,0,0,0,0,0],"split_type":[0,0,0,0,0,0,0,0,0,0,0,0,0,0,0,0,0,0,0,0,0,0,0],"sum_hessian":[1.2872177E3,5.035156E1,1.2368661E3,3.9518284E1,1.0833273E1,2.2365918E2,1.0132069E3,1.7424025E1,2.2094261E1,5.4219985E0,5.411275E0,2.1025988E1,2.026332E2,8.105946E0,1.005101E3,1.151851E1,5.9055147E0,8.836326E0,1.2189663E1,3.1499208E1,1.7113399E2,5.9859665E1,9.4524133E2],"tree_param":{"num_deleted":"0","num_feature":"420","num_nodes":"23","size_leaf_vector":"1"}},{"base_weights":[-1.0718253E-3,4.9466023E-1,-1.2173329E-2,2.1832015E-1,1.0708357E-2,-2.363461E-1,9.697312E-3,6.6339597E-3,-2.635869E-3,-3.5209894E-2,-4.9063367E-1,8.915401E-2,-6.340835E-2,-1.8503076E-3,6.4346413E-3,-8.0495365E-3,1.9187071E-4,1.264289E-2,7.3951297E-4,-5.289649E-3,-3.8118561E-4],"categories":[],"categories_nodes":[],"categories_segments":[],"categories_sizes":[],"default_left":[0,0,0,0,0,0,0,0,0,0,0,0,0,0,0,0,0,0,0,0,0],"id":12,"left_children":[1,3,5,7,-1,9,11,-1,-1,13,15,17,19,-1,-1,-1,-1,-1,-1,-1,-1],"loss_changes":[7.1154976E0,4.0286975E0,6.2685733E0,4.8360786E0,0E0,5.7339644E0,6.755588E0,0E0,0E0,6.7712855E0,8.090801E0,9.688704E0,7.0355043E0,0E0,0E0,0E0,0E0,0E0,0E0,0E0,0E0],"parents":[2147483647,0,0,1,1,2,2,3,3,5,5,6,6,9,9,10,10,11,11,12,12],"right_children":[2,4,6,8,-1,10,12,-1,-1,14,16,18,20,-1,-1,-1,-1,-1,-1,-1,-1],"split_conditions":[-1.9985719E0,1.4466596E-1,-1.175619E0,-2.7371663E-1,1.0708357E-2,-4.1812938E-1,-4.6699163E-2,6.6339597E-3,-2.635869E-3,1.1277025E0,2.0466512E-1,-2.4156327E0,-1.2619442E0,-1.8503076E-3,6.4346413E-3,-8.0495365E-3,1.9187071E-4,1.264289E-2,7.3951297E-4,-5.289649E-3,-3.8118561E-4],"split_indices":[393,34,397,98,0,284,411,0,0,392,80,141,249,0,0,0,0,0,0,0,0],"split_type":[0,0,0,0,0,0,0,0,0,0,0,0,0,0,0,0,0,0,0,0,0],"sum_hessian":[1.2985603E3,2.6814785E1,1.2717455E3,1.9638075E1,7.17671E0,1.12143524E2,1.159602E3,1.0023372E1,9.614704E0,6.3788837E1,4.835469E1,5.5616205E2,6.0343994E2,5.3268032E1,1.0520805E1,2.949681E1,1.885788E1,5.4451323E0,5.507169E2,2.9347988E1,5.74092E2],"tree_param":{"num_deleted":"0","num_feature":"420","num_nodes":"21","size_leaf_vector":"1"}},{"base_weights":[6.213362E-3,1.3621734E-2,-6.091534E-1,1.3970904E-1,-1.8295106E-2,3.109287E-3,-1.1589934E-2,1.9285093E-1,-3.381237E-1,-4.1355515E-1,-1.7494414E-3,3.5718658E-3,6.8989873E-4,2.0167073E-4,-1.1987994E-2,-1.3265126E-2,-1.6451656E-3,6.6444343E-3,-1.1338184E-4],"categories":[],"categories_nodes":[],"categories_segments":[],"categories_sizes":[],"default_left":[0,0,0,0,0,0,0,0,0,0,0,0,0,0,0,0,0,0,0],"id":13,"left_children":[1,3,5,7,9,-1,-1,11,13,15,17,-1,-1,-1,-1,-1,-1,-1,-1],"loss_changes":[5.833341E0,5.151702E0,8.323336E0,6.6497517E0,6.6220174E0,0E0,0E0,4.68052E0,8.245054E0,8.776212E0,6.2054553E0,0E0,0E0,0E0,0E0,0E0,0E0,0E0,0E0],"parents":[2147483647,0,0,1,1,2,2,3,3,4,4,7,7,8,8,9,9,10,10],"right_children":[2,4,6,8,10,-1,-1,12,14,16,18,-1,-1,-1,-1,-1,-1,-1,-1],"split_conditions":[3.1237614E0,-8.833799E-1,-9.5528E-2,1.0455592E0,-9.8190933E-1,3.109287E-3,-1.1589934E-2,-2.530675E-1,4.759482E-1,-3.9519325E-1,-1.8297828E0,3.5718658E-3,6.8989873E-4,2.0167073E-4,-1.1987994E-2,-1.3265126E-2,-1.6451656E-3,6.6444343E-3,-1.1338184E-4],"split_indices":[252,8,102,414,257,0,0,55,288,209,407,0,0,0,0,0,0,0,0],"split_type":[0,0,0,0,0,0,0,0,0,0,0,0,0,0,0,0,0,0,0],"sum_hessian":[1.2883926E3,1.2746761E3,1.3716469E1,2.570942E2,1.017582E3,5.3065615E0,8.409907E0,2.3235666E2,2.4737532E1,3.9195805E1,9.7838617E2,9.830076E1,1.3405591E2,1.8418682E1,6.3188496E0,6.9234796E0,3.2272327E1,1.2280907E1,9.661052E2],"tree_param":{"num_deleted":"0","num_feature":"420","num_nodes":"19","size_leaf_vector":"1"}},{"base_weights":[-2.3231106E-3,5.0288226E-2,-8.793968E-2,-4.4742143E-1,6.6579595E-2,-1.2306613E-1,1.9314884E-1,-1.175714E-2,-1.3746129E-1,1.6115083E-1,4.277609E-4,-9.408267E-2,-6.155698E-1,-6.1819E-3,3.0882543E-1,-6.129291E-3,3.890169E-3,6.964802E-3,1.2278708E-3,-7.5406805E-3,2.0325345E-4,2.7070635E-3,-1.2209958E-3,-1.8785977E-3,-1.0522823E-2,1.0875119E-2,1.5772363E-3],"categories":[],"categories_nodes":[],"categories_segments":[],"categories_sizes":[],"default_left":[0,0,0,0,0,0,0,0,0,0,0,0,0,0,0,0,0,0,0,0,0,0,0,0,0,0,0],"id":14,"left_children":[1,3,5,7,9,11,13,-1,15,17,19,21,23,-1,25,-1,-1,-1,-1,-1,-1,-1,-1,-1,-1,-1,-1],"loss_changes":[5.8975286E0,6.572376E0,4.9528294E0,5.419926E0,4.898423E0,6.187912E0,5.479979E0,0E0,5.335929E0,6.417431E0,6.9211082E0,4.345702E0,4.1081314E0,0E0,5.481132E0,0E0,0E0,0E0,0E0,0E0,0E0,0E0,0E0,0E0,0E0,0E0,0E0],"parents":[2147483647,0,0,1,1,2,2,3,3,4,4,5,5,6,6,8,8,9,9,10,10,11,11,12,12,14,14],"right_children":[2,4,6,8,10,12,14,-1,16,18,20,22,24,-1,26,-1,-1,-1,-1,-1,-1,-1,-1,-1,-1,-1,-1],"split_conditions":[2.4382396E-1,-1.9994082E0,1.141815E0,-1.1542131E0,-1.6149805E-1,2.063228E0,-1.26895E0,-1.175714E-2,-5.582824E-1,-9.877265E-1,-1.1293709E0,-1.320719E0,-7.250586E-2,-6.1819E-3,-7.741401E-1,-6.129291E-3,3.890169E-3,6.964802E-3,1.2278708E-3,-7.5406805E-3,2.0325345E-4,2.7070635E-3,-1.2209958E-3,-1.8785977E-3,-1.0522823E-2,1.0875119E-2,1.5772363E-3],"split_indices":[15,199,31,78,172,15,114,0,39,244,340,322,249,0,411,0,0,0,0,0,0,0,0,0,0,0,0],"split_type":[0,0,0,0,0,0,0,0,0,0,0,0,0,0,0,0,0,0,0,0,0,0,0,0,0,0,0],"sum_hessian":[1.3054727E3,8.0825275E2,4.9721994E2,2.4165028E1,7.840877E2,4.4305255E2,5.416739E1,5.8671308E0,1.8297897E1,3.21213E2,4.6287466E2,4.2030737E2,2.274518E1,5.8382297E0,4.832916E1,9.5851145E0,8.712782E0,1.9584965E1,3.0162805E2,1.0342072E1,4.525326E2,2.879713E1,3.9151022E2,1.2690512E1,1.0054668E1,6.235837E0,4.2093323E1],"tree_param":{"num_deleted":"0","num_feature":"420","num_nodes":"27","size_leaf_vector":"1"}},{"base_weights":[-7.963822E-3,4.0472177E-1,-2.364516E-2,2.513667E-1,1.1125093E-2,-6.569121E-2,1.07528664E-1,-1.0171349E-1,5.132925E-1,-9.150917E-2,1.8386889E-1,8.064687E-2,9.247869E-3,-3.7060045E-3,4.143562E-3,1.4514538E-3,1.0095577E-2,-5.7052854E-3,-6.975212E-4,9.53547E-3,8.0595835E-4,1.2885816E-3,-3.897098E-3],"categories":[],"categories_nodes":[],"categories_segments":[],"categories_sizes":[],"default_left":[0,0,0,0,0,0,0,0,0,0,0,0,0,0,0,0,0,0,0,0,0,0,0],"id":15,"left_children":[1,3,5,7,-1,9,11,13,15,17,19,21,-1,-1,-1,-1,-1,-1,-1,-1,-1,-1,-1],"loss_changes":[8.396453E0,4.5977664E0,6.9289846E0,3.9184594E0,0E0,6.1498137E0,6.480697E0,2.8048155E0,4.048455E0,8.882006E0,6.886569E0,6.777734E0,0E0,0E0,0E0,0E0,0E0,0E0,0E0,0E0,0E0,0E0,0E0],"parents":[2147483647,0,0,1,1,2,2,3,3,5,5,6,6,7,7,8,8,9,9,10,10,11,11],"right_children":[2,4,6,8,-1,10,12,14,16,18,20,22,-1,-1,-1,-1,-1,-1,-1,-1,-1,-1,-1],"split_conditions":[-1.3946397E0,2.4300516E-2,5.983966E-1,-5.682907E-2,1.1125093E-2,1.2475559E0,2.4443486E0,5.31343E-1,1.2174441E-1,-1.6405272E0,-6.294638E-1,1.5089468E0,9.247869E-3,-3.7060045E-3,4.143562E-3,1.4514538E-3,1.0095577E-2,-5.7052854E-3,-6.975212E-4,9.53547E-3,8.0595835E-4,1.2885816E-3,-3.897098E-3],"split_indices":[259,29,116,243,0,309,413,37,306,264,376,157,0,0,0,0,0,0,0,0,0,0,0],"split_type":[0,0,0,0,0,0,0,0,0,0,0,0,0,0,0,0,0,0,0,0,0,0,0],"sum_hessian":[1.2996288E3,4.598011E1,1.2536487E3,3.957867E1,6.4014387E0,9.5049207E2,3.0315662E2,1.7084375E1,2.2494295E1,8.6260315E2,8.788896E1,2.9521655E2,7.940072E0,1.1637499E1,5.4468765E0,1.4142849E1,8.351447E0,3.5633747E1,8.2696936E2,8.821971E0,7.9066986E1,2.689509E2,2.6265646E1],"tree_param":{"num_deleted":"0","num_feature":"420","num_nodes":"23","size_leaf_vector":"1"}},{"base_weights":[4.670926E-3,-2.3847263E-2,3.0964816E-1,-3.074386E-1,-3.4465657E-3,3.733031E-1,-2.9586537E-3,-1.9573496E-1,-9.556432E-3,2.0406604E-2,-2.1733434E-1,2.3972952E-1,7.86018E-1,-8.084945E-3,-1.1117223E-3,1.2256805E-4,7.578759E-3,-9.5207355E-4,-5.5272207E-3,1.5135456E-3,9.323058E-3,1.0569674E-2,1.236454E-3],"categories":[],"categories_nodes":[],"categories_segments":[],"categories_sizes":[],"default_left":[0,0,0,0,0,0,0,0,0,0,0,0,0,0,0,0,0,0,0,0,0,0,0],"id":16,"left_children":[1,3,5,7,9,11,-1,13,-1,15,17,19,21,-1,-1,-1,-1,-1,-1,-1,-1,-1,-1],"loss_changes":[1.1471377E1,6.9276943E0,4.521323E0,5.4252057E0,5.7618427E0,5.286664E0,0E0,3.4310787E0,0E0,5.9934816E0,4.498754E0,4.5808077E0,4.0497923E0,0E0,0E0,0E0,0E0,0E0,0E0,0E0,0E0,0E0,0E0],"parents":[2147483647,0,0,1,1,2,2,3,3,4,4,5,5,7,7,9,9,10,10,11,11,12,12],"right_children":[2,4,6,8,10,12,-1,14,-1,16,18,20,22,-1,-1,-1,-1,-1,-1,-1,-1,-1,-1],"split_conditions":[1.354064E0,-1.3272455E0,2.112642E0,4.384315E-1,1.1439582E0,5.0778115E-1,-2.9586537E-3,-1.1515638E0,-9.556432E-3,3.2638462E0,6.4825016E-1,1.2872537E0,-2.5165704E-1,-8.084945E-3,-1.1117223E-3,1.2256805E-4,7.578759E-3,-9.5207355E-4,-5.5272207E-3,1.5135456E-3,9.323058E-3,1.0569674E-2,1.236454E-3],"split_indices":[309,135,418,367,159,404,0,340,0,140,287,16,328,0,0,0,0,0,0,0,0,0,0],"split_type":[0,0,0,0,0,0,0,0,0,0,0,0,0,0,0,0,0,0,0,0,0,0,0],"sum_hessian":[1.312884E3,1.20158E3,1.11304016E2,7.889191E1,1.1226881E3,1.0138614E2,9.917879E0,6.909256E1,9.799347E0,1.010846E3,1.118421E2,7.857065E1,2.2815489E1,6.6780567E0,6.2414505E1,1.0014396E3,9.406415E0,8.3617775E1,2.8224327E1,7.142835E1,7.1422915E0,1.5450684E1,7.364806E0],"tree_param":{"num_deleted":"0","num_feature":"420","num_nodes":"23","size_leaf_vector":"1"}},{"base_weights":[-6.2666363E-3,-2.9675312E-2,2.4154077E-1,-1.31894825E-2,-3.5660377E-1,-4.9202903E-3,2.9021063E-1,-4.563811E-2,1.8634997E-1,-1.019643E0,-1.3338386E-1,9.577117E-3,2.225799E-1,-5.693848E-4,5.9570596E-3,3.0337672E-3,-1.5012118E-3,-1.9430084E-3,-1.4936222E-2,6.850998E-4,-6.0364795E-3,-1.7304125E-3,3.5885328E-3],"categories":[],"categories_nodes":[],"categories_segments":[],"categories_sizes":[],"default_left":[0,0,0,0,0,0,0,0,0,0,0,0,0,0,0,0,0,0,0,0,0,0,0],"id":17,"left_children":[1,3,5,7,9,-1,11,13,15,17,19,-1,21,-1,-1,-1,-1,-1,-1,-1,-1,-1,-1],"loss_changes":[7.4370637E0,6.2875485E0,4.1429386E0,7.2518187E0,7.975739E0,0E0,4.293064E0,6.9919405E0,6.2479887E0,4.78564E0,4.2710905E0,0E0,5.3544436E0,0E0,0E0,0E0,0E0,0E0,0E0,0E0,0E0,0E0,0E0],"parents":[2147483647,0,0,1,1,2,2,3,3,4,4,6,6,7,7,8,8,9,9,10,10,12,12],"right_children":[2,4,6,8,10,-1,12,14,16,18,20,-1,22,-1,-1,-1,-1,-1,-1,-1,-1,-1,-1],"split_conditions":[1.354064E0,1.646719E0,-1.1404198E0,7.331831E-1,1.3454933E0,-4.9202903E-3,-8.7311476E-1,2.7549675E0,7.9465646E-1,-1.7178492E-1,3.1563327E-1,9.577117E-3,-1.37538E-1,-5.693848E-4,5.9570596E-3,3.0337672E-3,-1.5012118E-3,-1.9430084E-3,-1.4936222E-2,6.850998E-4,-6.0364795E-3,-1.7304125E-3,3.5885328E-3],"split_indices":[309,19,77,59,71,0,386,140,15,187,308,0,365,0,0,0,0,0,0,0,0,0,0],"split_type":[0,0,0,0,0,0,0,0,0,0,0,0,0,0,0,0,0,0,0,0,0,0,0],"sum_hessian":[1.2823647E3,1.1732589E3,1.0910586E2,1.1187126E3,5.4546276E1,5.8104033E0,1.03295456E2,9.636623E2,1.5505037E2,1.2277653E1,4.2268623E1,7.550791E0,9.574466E1,9.484731E2,1.5189168E1,1.1536904E2,3.968133E1,5.327222E0,6.950431E0,3.0320326E1,1.19482975E1,2.423845E1,7.150621E1],"tree_param":{"num_deleted":"0","num_feature":"420","num_nodes":"23","size_leaf_vector":"1"}},{"base_weights":[-1.7040815E-2,6.4787835E-2,-9.0490945E-2,-5.5783385E-1,8.6113505E-2,-7.4821025E-1,-7.3028214E-2,-1.289292E-2,-1.1278388E-1,1.0298278E-2,7.248906E-2,-1.3324128E-2,-1.8264703E-3,4.635725E-2,-1.5151463E-1,3.650881E-3,-5.691694E-3,4.1720355E-3,4.5785325E-4,5.88712E-3,4.5269684E-5,-5.0525493E-3,-9.117502E-4],"categories":[],"categories_nodes":[],"categories_segments":[],"categories_sizes":[],"default_left":[0,0,0,0,0,0,0,0,0,0,0,0,0,0,0,0,0,0,0,0,0,0,0],"id":18,"left_children":[1,3,5,7,9,11,13,-1,15,-1,17,-1,-1,19,21,-1,-1,-1,-1,-1,-1,-1,-1],"loss_changes":[7.719394E0,8.082703E0,7.612817E0,6.1988826E0,7.3408823E0,5.1670628E0,6.218458E0,0E0,3.4403753E0,0E0,5.2784653E0,0E0,0E0,5.903076E0,8.407167E0,0E0,0E0,0E0,0E0,0E0,0E0,0E0,0E0],"parents":[2147483647,0,0,1,1,2,2,3,3,4,4,5,5,6,6,8,8,10,10,13,13,14,14],"right_children":[2,4,6,8,10,12,14,-1,16,-1,18,-1,-1,20,22,-1,-1,-1,-1,-1,-1,-1,-1],"split_conditions":[-3.8789038E-2,-1.8833905E0,-2.1144004E0,-6.932704E-1,-2.4156327E0,-1.0757816E0,-3.6074233E-1,-1.289292E-2,-1.9569652E-1,1.0298278E-2,-1.253181E0,-1.3324128E-2,-1.8264703E-3,-1.3086903E0,-8.690708E-1,3.650881E-3,-5.691694E-3,4.1720355E-3,4.5785325E-4,5.88712E-3,4.5269684E-5,-5.0525493E-3,-9.117502E-4],"split_indices":[410,376,172,200,141,95,71,0,139,0,322,0,0,179,179,0,0,0,0,0,0,0,0],"split_type":[0,0,0,0,0,0,0,0,0,0,0,0,0,0,0,0,0,0,0,0,0,0,0],"sum_hessian":[1.2809647E3,6.053629E2,6.756018E2,1.864284E1,5.867201E2,1.570203E1,6.598998E2,5.89085E0,1.275199E1,6.6532693E0,5.800668E2,6.6363225E0,9.065707E0,2.614892E2,3.9841055E2,6.2689033E0,6.4830866E0,3.9858566E1,5.4020825E2,1.7148409E1,2.443408E2,5.620308E1,3.422075E2],"tree_param":{"num_deleted":"0","num_feature":"420","num_nodes":"23","size_leaf_vector":"1"}},{"base_weights":[1.0379138E-2,7.180191E-2,-6.743779E-2,-1.115459E-1,1.1872953E-1,-1.4322963E-1,4.9805425E-2,-4.416527E-2,-7.3870975E-1,-5.8574766E-1,1.3577968E-1,-2.586354E-2,-3.142792E-1,-5.382097E-1,9.342572E-2,-9.337202E-4,8.656519E-3,-1.3563808E-2,-1.7389727E-3,-1.1966777E-2,-0E0,1.5929788E-3,-2.6954524E-3,-3.0946454E-3,4.6302684E-4,-3.784837E-3,3.9881254E-3,1.1764229E-3,-1.1648191E-2,2.911215E-3,-2.150971E-4],"categories":[],"categories_nodes":[],"categories_segments":[],"categories_sizes":[],"default_left":[0,0,0,0,0,0,0,0,0,0,0,0,0,0,0,0,0,0,0,0,0,0,0,0,0,0,0,0,0,0,0],"id":19,"left_children":[1,3,5,7,9,11,13,15,17,19,21,23,25,27,29,-1,-1,-1,-1,-1,-1,-1,-1,-1,-1,-1,-1,-1,-1,-1,-1],"loss_changes":[6.2486672E0,6.311627E0,5.1388254E0,6.183841E0,7.0808945E0,6.995772E0,5.847433E0,6.159236E0,4.464218E0,5.016263E0,5.4954777E0,4.346057E0,6.7376385E0,6.7722716E0,4.865854E0,0E0,0E0,0E0,0E0,0E0,0E0,0E0,0E0,0E0,0E0,0E0,0E0,0E0,0E0,0E0,0E0],"parents":[2147483647,0,0,1,1,2,2,3,3,4,4,5,5,6,6,7,7,8,8,9,9,10,10,11,11,12,12,13,13,14,14],"right_children":[2,4,6,8,10,12,14,16,18,20,22,24,26,28,30,-1,-1,-1,-1,-1,-1,-1,-1,-1,-1,-1,-1,-1,-1,-1,-1],"split_conditions":[1.3548125E-1,-4.8895735E-1,4.5160778E-2,9.428301E-1,-1.6332221E0,2.7617872E-1,-1.2353342E0,2.4439924E0,-7.397011E-2,-6.093856E-1,1.6339566E0,-4.8354062E-1,2.026804E0,5.036086E-1,-1.5610793E-1,-9.337202E-4,8.656519E-3,-1.3563808E-2,-1.7389727E-3,-1.1966777E-2,-0E0,1.5929788E-3,-2.6954524E-3,-3.0946454E-3,4.6302684E-4,-3.784837E-3,3.9881254E-3,1.1764229E-3,-1.1648191E-2,2.911215E-3,-2.150971E-4],"split_indices":[15,382,415,264,270,258,154,329,18,304,99,86,124,15,92,0,0,0,0,0,0,0,0,0,0,0,0,0,0,0,0],"split_type":[0,0,0,0,0,0,0,0,0,0,0,0,0,0,0,0,0,0,0,0,0,0,0,0,0,0,0,0,0,0,0],"sum_hessian":[1.3042152E3,7.296701E2,5.745451E2,1.4784363E2,5.818265E2,3.4927612E2,2.25269E2,1.3509454E2,1.274908E1,1.2428056E1,5.693984E2,2.0851468E2,1.4076144E2,1.4224055E1,2.1104494E2,1.2954422E2,5.550327E0,5.000904E0,7.7481756E0,5.3398933E0,7.088163E0,5.3926575E2,3.0132658E1,4.15771E1,1.6693758E2,1.2990895E2,1.0852498E1,7.4671865E0,6.7568693E0,7.706288E1,1.3398206E2],"tree_param":{"num_deleted":"0","num_feature":"420","num_nodes":"31","size_leaf_vector":"1"}},{"base_weights":[1.0997393E-2,1.7311739E-2,-8.130324E-3,3.3376935E-1,4.014265E-3,-8.423821E-2,5.6940925E-1,-4.162508E-1,1.2927611E-2,-6.1751762E-3,1.6752955E-3,1.4762311E-4,7.352863E-3,-7.820191E-3,3.1209316E-3,-3.738441E-5,2.8803614E-3],"categories":[],"categories_nodes":[],"categories_segments":[],"categories_sizes":[],"default_left":[0,0,0,0,0,0,0,0,0,0,0,0,0,0,0,0,0],"id":20,"left_children":[1,3,-1,5,7,9,11,13,15,-1,-1,-1,-1,-1,-1,-1,-1],"loss_changes":[6.678709E0,5.3781385E0,0E0,5.1990013E0,4.5996065E0,2.8506231E0,2.9741096E0,7.204333E0,5.5893316E0,0E0,0E0,0E0,0E0,0E0,0E0,0E0,0E0],"parents":[2147483647,0,0,1,1,3,3,4,4,5,5,6,6,7,7,8,8],"right_children":[2,4,-1,6,8,10,12,14,16,-1,-1,-1,-1,-1,-1,-1,-1],"split_conditions":[3.2729268E0,-1.3946397E0,-8.130324E-3,-3.841102E-1,-1.3012729E0,2.2198023E-1,-7.7113205E-1,-5.8710262E-2,1.5869026E0,-6.1751762E-3,1.6752955E-3,1.4762311E-4,7.352863E-3,-7.820191E-3,3.1209316E-3,-3.738441E-5,2.8803614E-3],"split_indices":[231,259,0,242,259,324,266,55,36,0,0,0,0,0,0,0,0],"split_type":[0,0,0,0,0,0,0,0,0,0,0,0,0,0,0,0,0],"sum_hessian":[1.2933102E3,1.285053E3,8.257216E0,5.0059124E1,1.2349938E3,1.8240765E1,3.181836E1,2.3992172E1,1.2110016E3,5.2784233E0,1.296234E1,7.839983E0,2.3978376E1,1.5989257E1,8.002916E0,1.1428821E3,6.811958E1],"tree_param":{"num_deleted":"0","num_feature":"420","num_nodes":"17","size_leaf_vector":"1"}},{"base_weights":[2.1990577E-3,7.477701E-2,-6.2696636E-2,-4.083267E-2,1.8287803E-1,-7.743316E-1,-4.8925035E-2,6.977652E-2,-2.1237044E-1,4.0715116E-1,1.0038914E-1,-8.715452E-4,-1.3818322E-2,-2.7720103E-1,-9.189973E-3,5.75624E-3,2.600905E-4,-5.932246E-3,-8.472851E-4,3.0437394E-3,1.335707E-2,2.10885E-3,-6.6068984E-4,-2.8083313E-4,-5.5291057E-3,-2.9328268E-3,2.1810386E-4],"categories":[],"categories_nodes":[],"categories_segments":[],"categories_sizes":[],"default_left":[0,0,0,0,0,0,0,0,0,0,0,0,0,0,0,0,0,0,0,0,0,0,0,0,0,0,0],"id":21,"left_children":[1,3,5,7,9,11,13,15,17,19,21,-1,-1,23,25,-1,-1,-1,-1,-1,-1,-1,-1,-1,-1,-1,-1],"loss_changes":[6.166793E0,7.7570267E0,6.6269855E0,5.7233286E0,5.8158875E0,5.044308E0,6.126716E0,3.968898E0,5.604072E0,7.371214E0,4.386819E0,0E0,0E0,6.8040323E0,5.147269E0,0E0,0E0,0E0,0E0,0E0,0E0,0E0,0E0,0E0,0E0,0E0,0E0],"parents":[2147483647,0,0,1,1,2,2,3,3,4,4,5,5,6,6,7,7,8,8,9,9,10,10,13,13,14,14],"right_children":[2,4,6,8,10,12,14,16,18,20,22,-1,-1,24,26,-1,-1,-1,-1,-1,-1,-1,-1,-1,-1,-1,-1],"split_conditions":[-3.8789038E-2,1.8506043E-2,-2.2259536E0,-6.31232E-2,-2.1933949E-1,-2.1976485E0,-1.0109788E0,-1.2090677E0,-3.1093028E-1,1.4564881E0,-2.2019678E-1,-8.715452E-4,-1.3818322E-2,-1.5474042E-1,-9.8729753E-1,5.75624E-3,2.600905E-4,-5.932246E-3,-8.472851E-4,3.0437394E-3,1.335707E-2,2.10885E-3,-6.6068984E-4,-2.8083313E-4,-5.5291057E-3,-2.9328268E-3,2.1810386E-4],"split_indices":[410,120,293,207,172,106,72,280,344,17,240,0,0,262,388,0,0,0,0,0,0,0,0,0,0,0,0],"split_type":[0,0,0,0,0,0,0,0,0,0,0,0,0,0,0,0,0,0,0,0,0,0,0,0,0,0,0],"sum_hessian":[1.3060494E3,6.171522E2,6.888972E2,2.9822305E2,3.1892914E2,1.1367939E1,6.775293E2,1.8149818E2,1.1672488E2,8.384714E1,2.3508202E2,6.216229E0,5.1517105E0,9.874767E1,5.787816E2,1.281976E1,1.6867842E2,2.7730038E1,8.8994835E1,7.7381546E1,6.465595E0,1.4141219E2,9.366983E1,5.29343E1,4.5813374E1,5.6012066E1,5.2276953E2],"tree_param":{"num_deleted":"0","num_feature":"420","num_nodes":"27","size_leaf_vector":"1"}},{"base_weights":[-4.4581005E-3,3.3773196E-1,-1.933701E-2,-1.7331233E-3,5.166715E-1,3.6396915E-1,-3.0302733E-2,1.7940435E-1,8.373509E-1,7.865661E-2,1.1602744E-2,2.5436608E-2,-1.0229334E-1,7.6265596E-3,-6.9421035E-4,1.0839469E-2,2.6220642E-3,5.052252E-3,-3.177812E-3,-2.3689175E-3,6.167474E-4,-2.1317715E-3,8.642018E-5],"categories":[],"categories_nodes":[],"categories_segments":[],"categories_sizes":[],"default_left":[0,0,0,0,0,0,0,0,0,0,0,0,0,0,0,0,0,0,0,0,0,0,0],"id":22,"left_children":[1,3,5,-1,7,9,11,13,15,17,-1,19,21,-1,-1,-1,-1,-1,-1,-1,-1,-1,-1],"loss_changes":[6.606981E0,5.1117663E0,5.2348833E0,0E0,4.059537E0,7.602912E0,4.8923817E0,3.3167062E0,2.3081512E0,4.856509E0,0E0,6.525358E0,6.5657215E0,0E0,0E0,0E0,0E0,0E0,0E0,0E0,0E0,0E0,0E0],"parents":[2147483647,0,0,1,1,2,2,4,4,5,5,6,6,7,7,8,8,9,9,11,11,12,12],"right_children":[2,4,6,-1,8,10,12,14,16,18,-1,20,22,-1,-1,-1,-1,-1,-1,-1,-1,-1,-1],"split_conditions":[-1.3946397E0,-5.866379E-1,-1.1268946E0,-1.7331233E-3,-6.036646E-1,3.7886846E-1,1.3548125E-1,-2.6951572E-1,4.8919532E-1,-5.5395824E-1,1.1602744E-2,-8.8368434E-1,-4.5592852E-2,7.6265596E-3,-6.9421035E-4,1.0839469E-2,2.6220642E-3,5.052252E-3,-3.177812E-3,-2.3689175E-3,6.167474E-4,-2.1317715E-3,8.642018E-5],"split_indices":[259,242,391,0,68,181,15,128,97,176,0,346,45,0,0,0,0,0,0,0,0,0,0],"split_type":[0,0,0,0,0,0,0,0,0,0,0,0,0,0,0,0,0,0,0,0,0,0,0],"sum_hessian":[1.3005005E3,5.255497E1,1.2479456E3,1.3496841E1,3.905813E1,3.3111977E1,1.2148336E3,2.03288E1,1.872933E1,2.5683456E1,7.4285183E0,6.8446313E2,5.303704E2,5.273041E0,1.505576E1,1.2058388E1,6.6709414E0,1.2294816E1,1.338864E1,8.173284E1,6.027303E2,2.6500626E2,2.6536417E2],"tree_param":{"num_deleted":"0","num_feature":"420","num_nodes":"23","size_leaf_vector":"1"}},{"base_weights":[-1.0711883E-2,1.8937519E-1,-3.6586013E-2,8.071739E-1,1.2509987E-1,-7.7642596E-1,-2.7080622E-2,1.1705356E-2,1.948608E-3,2.2913504E-1,-2.699971E-1,-1.2145181E-2,-7.6728576E-4,-1.9844842E-1,4.5945877E-3,7.4999646E-4,4.736583E-3,-1.1401795E-2,9.152847E-5,-1.3747145E-3,-9.118333E-3,-2.5250207E-4,2.2755833E-3],"categories":[],"categories_nodes":[],"categories_segments":[],"categories_sizes":[],"default_left":[0,0,0,0,0,0,0,0,0,0,0,0,0,0,0,0,0,0,0,0,0,0,0],"id":23,"left_children":[1,3,5,7,9,11,13,-1,-1,15,17,-1,-1,19,21,-1,-1,-1,-1,-1,-1,-1,-1],"loss_changes":[6.690459E0,5.6278367E0,7.9534965E0,2.5281897E0,5.673668E0,4.1330175E0,6.1763296E0,0E0,0E0,3.983634E0,7.1267223E0,0E0,0E0,7.4255223E0,6.4042225E0,0E0,0E0,0E0,0E0,0E0,0E0,0E0,0E0],"parents":[2147483647,0,0,1,1,2,2,3,3,4,4,5,5,6,6,9,9,10,10,13,13,14,14],"right_children":[2,4,6,8,10,12,14,-1,-1,16,18,-1,-1,20,22,-1,-1,-1,-1,-1,-1,-1,-1],"split_conditions":[-1.1624357E0,-1.267124E0,-2.582062E0,1.6483392E-1,6.7525256E-1,-3.122123E-1,-1.0109788E0,1.1705356E-2,1.948608E-3,1.4082865E-1,-2.237027E0,-1.2145181E-2,-7.6728576E-4,1.4273452E0,1.1545477E0,7.4999646E-4,4.736583E-3,-1.1401795E-2,9.152847E-5,-1.3747145E-3,-9.118333E-3,-2.5250207E-4,2.2755833E-3],"split_indices":[159,414,151,263,16,120,72,0,0,290,159,0,0,160,295,0,0,0,0,0,0,0,0],"split_type":[0,0,0,0,0,0,0,0,0,0,0,0,0,0,0,0,0,0,0,0,0,0,0],"sum_hessian":[1.291767E3,1.4638837E2,1.1453785E3,1.2014547E1,1.3437383E2,1.286041E1,1.1325182E3,6.5793767E0,5.435171E0,1.070651E2,2.7308722E1,7.1420627E0,5.7183475E0,1.7593608E2,9.565821E2,6.712307E1,3.994203E1,5.596018E0,2.1712704E1,1.6385934E2,1.20767355E1,8.444323E2,1.12149796E2],"tree_param":{"num_deleted":"0","num_feature":"420","num_nodes":"23","size_leaf_vector":"1"}},{"base_weights":[-1.0311643E-2,-3.49409E-2,2.672897E-1,-4.389358E-2,5.8615196E-1,3.2870668E-1,-3.7846898E-3,-2.697196E-2,-3.5190403E-1,2.1011855E-4,1.1181603E-2,9.219633E-3,2.5404754E-1,-5.839037E-3,-1.9105311E-4,-2.053323E-3,-1.3606376E-2,-4.6487786E-3,3.164648E-3],"categories":[],"categories_nodes":[],"categories_segments":[],"categories_sizes":[],"default_left":[0,0,0,0,0,0,0,0,0,0,0,0,0,0,0,0,0,0,0],"id":24,"left_children":[1,3,5,7,9,11,-1,13,15,-1,-1,-1,17,-1,-1,-1,-1,-1,-1],"loss_changes":[9.0162525E0,6.7356033E0,4.4418597E0,6.1942673E0,5.021699E0,3.9174137E0,0E0,4.908648E0,8.588213E0,0E0,0E0,0E0,4.2526464E0,0E0,0E0,0E0,0E0,0E0,0E0],"parents":[2147483647,0,0,1,1,2,2,3,3,4,4,5,5,7,7,8,8,12,12],"right_children":[2,4,6,8,10,12,-1,14,16,-1,-1,-1,18,-1,-1,-1,-1,-1,-1],"split_conditions":[1.354064E0,3.2638462E0,2.2559657E0,1.6144062E0,-5.14743E-1,-8.978394E-1,-3.7846898E-3,-2.582062E0,8.2519996E-1,2.1011855E-4,1.1181603E-2,9.219633E-3,-1.2203516E0,-5.839037E-3,-1.9105311E-4,-2.053323E-3,-1.3606376E-2,-4.6487786E-3,3.164648E-3],"split_indices":[309,140,403,19,84,157,0,151,352,0,0,0,208,0,0,0,0,0,0],"split_type":[0,0,0,0,0,0,0,0,0,0,0,0,0,0,0,0,0,0,0],"sum_hessian":[1.3185713E3,1.212654E3,1.0591726E2,1.1969556E3,1.5698397E1,9.753244E1,8.384819E0,1.1364755E3,6.0480183E1,8.459393E0,7.2390037E0,8.849518E0,8.868292E1,1.4122204E1,1.1223533E3,5.447001E1,6.010174E0,6.1837864E0,8.249914E1],"tree_param":{"num_deleted":"0","num_feature":"420","num_nodes":"19","size_leaf_vector":"1"}},{"base_weights":[8.695576E-3,-1.6008537E-2,2.9009178E-1,-4.563228E-1,-1.2625136E-3,1.7093478E-1,6.167722E-1,-8.0064946E-1,2.2159958E-1,5.605503E-1,-1.1783886E-2,-2.3647109E-1,3.4043556E-1,1.0369028E0,8.2113524E-4,-1.6329834E-2,-4.238583E-3,9.072529E-3,-5.178712E-3,1.3407299E-2,5.9919746E-4,4.3168518E-4,-1.0333642E-3,-6.789618E-3,1.1169757E-3,6.0736258E-3,-2.522047E-4,3.2679178E-3,1.7803745E-2],"categories":[],"categories_nodes":[],"categories_segments":[],"categories_sizes":[],"default_left":[0,0,0,0,0,0,0,0,0,0,0,0,0,0,0,0,0,0,0,0,0,0,0,0,0,0,0,0,0],"id":25,"left_children":[1,3,5,7,9,11,13,15,17,19,21,23,25,27,-1,-1,-1,-1,-1,-1,-1,-1,-1,-1,-1,-1,-1,-1,-1],"loss_changes":[9.032512E0,7.6865306E0,3.8452864E0,9.280752E0,6.7772555E0,5.596304E0,5.876684E0,6.869047E0,7.8427258E0,7.9702363E0,5.7207966E0,3.862459E0,5.6130643E0,6.843014E0,0E0,0E0,0E0,0E0,0E0,0E0,0E0,0E0,0E0,0E0,0E0,0E0,0E0,0E0,0E0],"parents":[2147483647,0,0,1,1,2,2,3,3,4,4,5,5,6,6,7,7,8,8,9,9,10,10,11,11,12,12,13,13],"right_children":[2,4,6,8,10,12,14,16,18,20,22,24,26,28,-1,-1,-1,-1,-1,-1,-1,-1,-1,-1,-1,-1,-1,-1,-1],"split_conditions":[1.354064E0,-1.8833905E0,5.4646635E-1,1.1527537E0,-1.9985635E0,-4.355309E-1,9.8192535E-2,-1.1516721E0,-1.2597172E0,2.4017142E-1,2.63846E-1,-6.375584E-1,4.7749704E-1,-3.5085413E-1,8.2113524E-4,-1.6329834E-2,-4.238583E-3,9.072529E-3,-5.178712E-3,1.3407299E-2,5.9919746E-4,4.3168518E-4,-1.0333642E-3,-6.789618E-3,1.1169757E-3,6.0736258E-3,-2.522047E-4,3.2679178E-3,1.7803745E-2],"split_indices":[309,376,77,247,414,129,2,256,253,136,15,197,155,349,0,0,0,0,0,0,0,0,0,0,0,0,0,0,0],"split_type":[0,0,0,0,0,0,0,0,0,0,0,0,0,0,0,0,0,0,0,0,0,0,0,0,0,0,0,0,0],"sum_hessian":[1.2928899E3,1.1895198E3,1.0337009E2,3.687055E1,1.1526493E3,7.764132E1,2.5728765E1,2.436909E1,1.2501459E1,1.9573196E1,1.133076E3,2.246431E1,5.5177013E1,1.3513706E1,1.2215058E1,5.952873E0,1.8416216E1,6.38035E0,6.121109E0,6.5886345E0,1.2984562E1,7.078844E2,4.2519165E2,9.391123E0,1.3073188E1,3.1479263E1,2.3697748E1,8.085164E0,5.4285417E0],"tree_param":{"num_deleted":"0","num_feature":"420","num_nodes":"29","size_leaf_vector":"1"}},{"base_weights":[2.5860933E-4,-2.2836976E-2,2.6572457E-1,-2.8082743E-1,-4.922994E-3,5.226336E-1,6.974837E-2,1.1766955E-1,-4.473101E-1,1.7097244E-2,-2.1315874E-1,3.1104502E-1,1.1960274E-2,-6.951573E-3,1.6815285E-1,4.8713693E-3,-3.3165752E-3,-6.98526E-3,2.8674788E-4,2.5091089E-5,3.8182398E-3,-3.699909E-3,5.263852E-4,1.1774811E-3,7.882233E-3,3.0952373E-3,-3.97446E-3],"categories":[],"categories_nodes":[],"categories_segments":[],"categories_sizes":[],"default_left":[0,0,0,0,0,0,0,0,0,0,0,0,0,0,0,0,0,0,0,0,0,0,0,0,0,0,0],"id":26,"left_children":[1,3,5,7,9,11,13,15,17,19,21,23,-1,-1,25,-1,-1,-1,-1,-1,-1,-1,-1,-1,-1,-1,-1],"loss_changes":[8.096608E0,5.565741E0,5.209116E0,5.3021197E0,5.2257323E0,5.745467E0,4.7838516E0,4.2527223E0,6.7537127E0,5.4226956E0,4.605147E0,3.146817E0,0E0,0E0,4.6687584E0,0E0,0E0,0E0,0E0,0E0,0E0,0E0,0E0,0E0,0E0,0E0,0E0],"parents":[2147483647,0,0,1,1,2,2,3,3,4,4,5,5,6,6,7,7,8,8,9,9,10,10,11,11,14,14],"right_children":[2,4,6,8,10,12,14,16,18,20,22,24,-1,-1,26,-1,-1,-1,-1,-1,-1,-1,-1,-1,-1,-1,-1],"split_conditions":[1.354064E0,-1.3272455E0,-3.957361E-1,9.1432786E-1,1.1927105E0,4.8465112E-1,-5.239571E-1,3.544959E-1,1.4036927E0,1.9261689E0,3.140233E-1,7.774067E-1,1.1960274E-2,-6.951573E-3,8.5781723E-1,4.8713693E-3,-3.3165752E-3,-6.98526E-3,2.8674788E-4,2.5091089E-5,3.8182398E-3,-3.699909E-3,5.263852E-4,1.1774811E-3,7.882233E-3,3.0952373E-3,-3.97446E-3],"split_indices":[309,135,343,90,99,122,259,7,123,329,285,405,0,0,414,0,0,0,0,0,0,0,0,0,0,0,0],"split_type":[0,0,0,0,0,0,0,0,0,0,0,0,0,0,0,0,0,0,0,0,0,0,0,0,0,0,0],"sum_hessian":[1.3136356E3,1.2094109E3,1.04224686E2,7.673306E1,1.1326779E3,4.379823E1,6.0426456E1,2.2563547E1,5.416952E1,1.0251665E3,1.0751133E2,3.510817E1,8.690058E0,5.7350245E0,5.4691433E1,1.2434986E1,1.0128561E1,3.5134808E1,1.9034712E1,9.874553E2,3.7711185E1,6.748211E1,4.0029217E1,2.6466671E1,8.6415E0,4.44397E1,1.025173E1],"tree_param":{"num_deleted":"0","num_feature":"420","num_nodes":"27","size_leaf_vector":"1"}},{"base_weights":[-9.052316E-4,5.107689E-3,-8.6039025E-3,1.4113703E-1,-2.7892677E-2,-1.11280195E-1,2.4277908E-1,5.259604E-1,-3.728848E-2,-1.9529836E-3,6.4221746E-3,1.4645001E-3,4.9729487E-3,1.0901175E-2,2.3360056E-4,-1.2326217E-4,-2.4405508E-3],"categories":[],"categories_nodes":[],"categories_segments":[],"categories_sizes":[],"default_left":[0,0,0,0,0,0,0,0,0,0,0,0,0,0,0,0,0],"id":27,"left_children":[1,3,-1,5,7,9,11,13,15,-1,-1,-1,-1,-1,-1,-1,-1],"loss_changes":[6.783313E0,5.7950993E0,0E0,6.5223064E0,5.3743086E0,4.772862E0,4.2517843E0,4.730791E0,5.2384286E0,0E0,0E0,0E0,0E0,0E0,0E0,0E0,0E0],"parents":[2147483647,0,0,1,1,3,3,4,4,5,5,6,6,7,7,8,8],"right_children":[2,4,-1,6,8,10,12,14,16,-1,-1,-1,-1,-1,-1,-1,-1],"split_conditions":[3.2708764E0,-8.833799E-1,-8.6039025E-3,-5.4493564E-1,-2.4156327E0,6.74834E-1,5.368401E-1,3.7774123E-2,1.0315253E0,-1.9529836E-3,6.4221746E-3,1.4645001E-3,4.9729487E-3,1.0901175E-2,2.3360056E-4,-1.2326217E-4,-2.4405508E-3],"split_indices":[252,8,0,307,141,253,396,413,265,0,0,0,0,0,0,0,0],"split_type":[0,0,0,0,0,0,0,0,0,0,0,0,0,0,0,0,0],"sum_hessian":[1.2932316E3,1.2856122E3,7.619352E0,2.5062737E2,1.0349849E3,7.1625916E1,1.7900143E2,1.5711823E1,1.0192731E3,6.555967E1,6.0662484E0,1.3185356E2,4.7147884E1,6.4827213E0,9.229102E0,9.113248E2,1.0794823E2],"tree_param":{"num_deleted":"0","num_feature":"420","num_nodes":"17","size_leaf_vector":"1"}},{"base_weights":[-1.4419762E-2,-3.5331395E-2,3.1646264E-1,-2.744859E-1,-1.5540984E-2,1.4112891E-1,7.781211E-1,-1.40249E-1,-7.324683E-1,5.5441562E-2,-7.9987586E-2,4.0887305E-1,-1.9425659E-1,1.4598994E-2,4.2849523E-1,-6.4464677E-3,-1.4495853E-4,-1.297592E-2,-3.3886198E-4,4.163187E-3,2.4027759E-4,-9.7655866E-5,-1.9746518E-3,3.076631E-4,7.249367E-3,-6.259289E-3,2.0734225E-3,-7.406619E-4,6.9573023E-3],"categories":[],"categories_nodes":[],"categories_segments":[],"categories_sizes":[],"default_left":[0,0,0,0,0,0,0,0,0,0,0,0,0,0,0,0,0,0,0,0,0,0,0,0,0,0,0,0,0],"id":28,"left_children":[1,3,5,7,9,11,13,15,17,19,21,23,25,-1,27,-1,-1,-1,-1,-1,-1,-1,-1,-1,-1,-1,-1,-1,-1],"loss_changes":[9.284029E0,5.952639E0,6.19638E0,5.6739182E0,5.363473E0,5.5075755E0,3.9868298E0,4.768141E0,8.204033E0,6.256919E0,5.048399E0,3.9403286E0,4.983685E0,0E0,2.3422635E0,0E0,0E0,0E0,0E0,0E0,0E0,0E0,0E0,0E0,0E0,0E0,0E0,0E0,0E0],"parents":[2147483647,0,0,1,1,2,2,3,3,4,4,5,5,6,6,7,7,8,8,9,9,10,10,11,11,12,12,14,14],"right_children":[2,4,6,8,10,12,14,16,18,20,22,24,26,-1,28,-1,-1,-1,-1,-1,-1,-1,-1,-1,-1,-1,-1,-1,-1],"split_conditions":[1.5849184E0,-1.3091131E0,4.7008964E-1,7.379862E-1,-3.8789038E-2,-1.5967025E-1,6.452222E-1,-1.3605072E0,2.4681188E-1,-1.2090663E0,-2.1737365E-2,-3.992878E-1,1.499529E-1,1.4598994E-2,-1.1579499E-1,-6.4464677E-3,-1.4495853E-4,-1.297592E-2,-3.3886198E-4,4.163187E-3,2.4027759E-4,-9.7655866E-5,-1.9746518E-3,3.076631E-4,7.249367E-3,-6.259289E-3,2.0734225E-3,-7.406619E-4,6.9573023E-3],"split_indices":[309,263,80,162,410,58,333,365,145,301,13,7,178,0,8,0,0,0,0,0,0,0,0,0,0,0,0,0,0],"split_type":[0,0,0,0,0,0,0,0,0,0,0,0,0,0,0,0,0,0,0,0,0,0,0,0,0,0,0,0,0],"sum_hessian":[1.3418992E3,1.2636774E3,7.822184E1,9.471764E1,1.1689597E3,5.826752E1,1.9954319E1,7.493231E1,1.978533E1,5.556336E2,6.1332605E2,3.2384167E1,2.5883354E1,5.0524673E0,1.4901852E1,1.3559663E1,6.137265E1,1.0147268E1,9.638062E0,4.2767258E1,5.1286633E2,3.854187E2,2.2790736E2,1.5638384E1,1.6745783E1,1.2190785E1,1.3692569E1,5.4196796E0,9.482172E0],"tree_param":{"num_deleted":"0","num_feature":"420","num_nodes":"29","size_leaf_vector":"1"}},{"base_weights":[4.5195E-3,-1.3970817E-2,2.3210604E-1,-1.7522013E-1,1.5173074E-2,3.0530888E-1,-6.1477018E-3,-3.5902027E-2,-3.7353963E-1,-6.3485885E-3,2.0639412E-1,1.8593498E-1,7.731775E-1,-1.0958738E-3,6.46729E-3,-5.536115E-4,-6.173499E-3,-5.3228075E-3,2.8323619E-5,1.0036036E-2,1.3268107E-3,3.0455585E-3,-1.3926072E-3,1.1219163E-2,9.3133084E-4],"categories":[],"categories_nodes":[],"categories_segments":[],"categories_sizes":[],"default_left":[0,0,0,0,0,0,0,0,0,0,0,0,0,0,0,0,0,0,0,0,0,0,0,0,0],"id":29,"left_children":[1,3,5,7,9,11,-1,13,15,17,19,21,23,-1,-1,-1,-1,-1,-1,-1,-1,-1,-1,-1,-1],"loss_changes":[5.493165E0,5.670702E0,6.332231E0,5.042173E0,4.2164693E0,4.7936296E0,0E0,5.6079693E0,5.758354E0,4.483473E0,5.7759657E0,2.9721496E0,3.9753838E0,0E0,0E0,0E0,0E0,0E0,0E0,0E0,0E0,0E0,0E0,0E0,0E0],"parents":[2147483647,0,0,1,1,2,2,3,3,4,4,5,5,7,7,8,8,9,9,10,10,11,11,12,12],"right_children":[2,4,6,8,10,12,-1,14,16,18,20,22,24,-1,-1,-1,-1,-1,-1,-1,-1,-1,-1,-1,-1],"split_conditions":[1.4055047E0,-1.0109788E0,1.7949089E0,4.585449E-3,1.1277025E0,5.2398235E-1,-6.1477018E-3,1.3175138E0,-2.1980396E-1,-2.0151901E0,-1.2461158E0,1.3798411E0,1.054787E0,-1.0958738E-3,6.46729E-3,-5.536115E-4,-6.173499E-3,-5.3228075E-3,2.8323619E-5,1.0036036E-2,1.3268107E-3,3.0455585E-3,-1.3926072E-3,1.1219163E-2,9.3133084E-4],"split_indices":[309,72,259,350,392,143,0,320,186,396,259,333,392,0,0,0,0,0,0,0,0,0,0,0,0],"split_type":[0,0,0,0,0,0,0,0,0,0,0,0,0,0,0,0,0,0,0,0,0,0,0,0,0],"sum_hessian":[1.2975248E3,1.200924E3,9.660079E1,1.8320236E2,1.01772156E3,8.990669E1,6.6940985E0,1.0894501E2,7.425735E1,9.1559937E2,1.0212219E2,7.347088E1,1.6435812E1,9.95996E1,9.345408E0,3.319188E1,4.1065468E1,1.4429516E1,9.0116986E2,6.9270244E0,9.519517E1,5.4129063E1,1.9341822E1,1.0122903E1,6.3129086E0],"tree_param":{"num_deleted":"0","num_feature":"420","num_nodes":"25","size_leaf_vector":"1"}},{"base_weights":[3.9177025E-3,-2.0942735E-2,2.7003872E-1,-1.3663782E-2,-8.068864E-3,-4.622586E-3,3.1781736E-1,-4.7091346E-2,1.3326167E-1,1.1244652E-2,2.4649353E-1,-4.5177233E-3,-3.533084E-4,9.371413E-3,9.833499E-4,9.1895944E-4,5.391651E-3],"categories":[],"categories_nodes":[],"categories_segments":[],"categories_sizes":[],"default_left":[0,0,0,0,0,0,0,0,0,0,0,0,0,0,0,0,0],"id":30,"left_children":[1,3,5,7,-1,-1,9,11,13,-1,15,-1,-1,-1,-1,-1,-1],"loss_changes":[8.647868E0,6.72004E0,4.1140223E0,5.8090034E0,0E0,0E0,5.538378E0,4.5204034E0,5.9078283E0,0E0,4.3558736E0,0E0,0E0,0E0,0E0,0E0,0E0],"parents":[2147483647,0,0,1,1,2,2,3,3,6,6,7,7,8,8,10,10],"right_children":[2,4,6,8,-1,-1,10,12,14,-1,16,-1,-1,-1,-1,-1,-1],"split_conditions":[1.354064E0,3.1257606E0,-1.8588704E0,7.4728054E-1,-8.068864E-3,-4.622586E-3,-8.978394E-1,-1.3945048E0,-1.1044414E0,1.1244652E-2,4.3024227E-1,-4.5177233E-3,-3.533084E-4,9.371413E-3,9.833499E-4,9.1895944E-4,5.391651E-3],"split_indices":[309,231,130,116,0,0,157,385,130,0,220,0,0,0,0,0,0],"split_type":[0,0,0,0,0,0,0,0,0,0,0,0,0,0,0,0,0],"sum_hessian":[1.3005897E3,1.1903921E3,1.1019761E2,1.1811067E3,9.285411E0,5.8242702E0,1.04373344E2,9.63579E2,2.1752765E2,6.565809E0,9.780753E1,2.5386896E1,9.3819214E2,7.324929E0,2.1020271E2,6.551387E1,3.229366E1],"tree_param":{"num_deleted":"0","num_feature":"420","num_nodes":"17","size_leaf_vector":"1"}},{"base_weights":[1.6724097E-2,-2.8114445E-3,2.358461E-1,-2.2140305E-1,1.939335E-2,2.9164854E-1,-5.9791747E-3,-3.3737668E-1,3.739771E-1,3.295621E-3,4.0075573E-1,1.401519E-1,6.0303426E-1,-6.2707965E-3,-1.0751864E-4,-6.439604E-4,1.04300715E-2,8.6170604E-4,-4.1346106E-4,6.9557223E-3,-2.6565667E-3,-1.7259521E-3,3.455897E-3,9.582922E-3,2.2613667E-3],"categories":[],"categories_nodes":[],"categories_segments":[],"categories_sizes":[],"default_left":[0,0,0,0,0,0,0,0,0,0,0,0,0,0,0,0,0,0,0,0,0,0,0,0,0],"id":31,"left_children":[1,3,5,7,9,11,-1,13,15,17,19,21,23,-1,-1,-1,-1,-1,-1,-1,-1,-1,-1,-1,-1],"loss_changes":[5.692047E0,5.9323215E0,5.293757E0,7.969729E0,6.7442484E0,4.663068E0,0E0,8.9423E0,5.7564116E0,3.9406397E0,9.064955E0,4.7028513E0,3.9853811E0,0E0,0E0,0E0,0E0,0E0,0E0,0E0,0E0,0E0,0E0,0E0,0E0],"parents":[2147483647,0,0,1,1,2,2,3,3,4,4,5,5,7,7,8,8,9,9,10,10,11,11,12,12],"right_children":[2,4,6,8,10,12,-1,14,16,18,20,22,24,-1,-1,-1,-1,-1,-1,-1,-1,-1,-1,-1,-1],"split_conditions":[1.354064E0,-1.0113522E0,1.792835E0,2.0344355E0,1.8420329E0,1.5576732E-1,-5.9791747E-3,1.1469934E-1,4.3381688E-1,-6.1399853E-1,5.20944E-1,-4.5051742E-1,6.687154E-1,-6.2707965E-3,-1.0751864E-4,-6.439604E-4,1.04300715E-2,8.6170604E-4,-4.1346106E-4,6.9557223E-3,-2.6565667E-3,-1.7259521E-3,3.455897E-3,9.582922E-3,2.2613667E-3],"split_indices":[309,388,203,66,413,122,0,51,345,310,73,114,35,0,0,0,0,0,0,0,0,0,0,0,0],"split_type":[0,0,0,0,0,0,0,0,0,0,0,0,0,0,0,0,0,0,0,0,0,0,0,0,0],"sum_hessian":[1.3225339E3,1.2152172E3,1.0731674E2,1.1123444E2,1.1039828E3,1.01611305E2,5.705436E0,9.3784256E1,1.745019E1,1.060973E3,4.3009674E1,7.003424E1,3.1577063E1,4.8807762E1,4.497649E1,1.1271099E1,6.1790895E0,3.717268E2,6.892463E2,2.9876797E1,1.3132878E1,2.7667625E1,4.236662E1,1.4927464E1,1.66496E1],"tree_param":{"num_deleted":"0","num_feature":"420","num_nodes":"25","size_leaf_vector":"1"}},{"base_weights":[-7.826232E-3,-4.3746465E-1,4.7192187E-3,-8.7602806E-1,2.5772047E-1,7.722522E-2,-6.1349496E-2,-3.232025E-1,-1.8349512E-2,7.0650503E-3,-3.915163E-3,5.1794535E-1,4.48411E-2,-3.6353126E-2,-3.865639E-1,-6.2687937E-3,1.9448205E-3,7.2573815E-3,-5.37033E-4,-5.028261E-4,1.4016293E-3,-7.149569E-5,-3.4526724E-3,-5.681033E-3,3.0959994E-3],"categories":[],"categories_nodes":[],"categories_segments":[],"categories_sizes":[],"default_left":[0,0,0,0,0,0,0,0,0,0,0,0,0,0,0,0,0,0,0,0,0,0,0,0,0],"id":32,"left_children":[1,3,5,7,9,11,13,15,-1,-1,-1,17,19,21,23,-1,-1,-1,-1,-1,-1,-1,-1,-1,-1],"loss_changes":[7.1443067E0,1.1865239E1,6.1440454E0,1.1345377E1,4.996682E0,8.643843E0,5.385172E0,2.8648462E0,0E0,0E0,0E0,5.059905E0,5.20592E0,5.5935373E0,6.279847E0,0E0,0E0,0E0,0E0,0E0,0E0,0E0,0E0,0E0,0E0],"parents":[2147483647,0,0,1,1,2,2,3,3,4,4,5,5,6,6,7,7,11,11,12,12,13,13,14,14],"right_children":[2,4,6,8,10,12,14,16,-1,-1,-1,18,20,22,24,-1,-1,-1,-1,-1,-1,-1,-1,-1,-1],"split_conditions":[-1.8833905E0,4.430474E-1,-3.8789038E-2,-1.908283E-1,-1.5583069E0,-1.2460723E0,1.407023E0,5.6414664E-1,-1.8349512E-2,7.0650503E-3,-3.915163E-3,4.2088866E-1,1.8506043E-2,1.3563272E0,1.1999303E0,-6.2687937E-3,1.9448205E-3,7.2573815E-3,-5.37033E-4,-5.028261E-4,1.4016293E-3,-7.149569E-5,-3.4526724E-3,-5.681033E-3,3.0959994E-3],"split_indices":[376,248,410,97,237,322,56,350,0,0,0,258,120,64,373,0,0,0,0,0,0,0,0,0,0],"split_type":[0,0,0,0,0,0,0,0,0,0,0,0,0,0,0,0,0,0,0,0,0,0,0,0,0],"sum_hessian":[1.3153691E3,3.6103806E1,1.2792654E3,2.1986855E1,1.411695E1,6.105203E2,6.6874506E2,1.5284878E1,6.7019777E0,8.359893E0,5.7570567E0,4.003943E1,5.704809E2,6.228474E2,4.589764E1,9.556028E0,5.7288494E0,2.9196999E1,1.0842431E1,2.8536682E2,2.8511404E2,5.707494E2,5.2098022E1,3.673721E1,9.160431E0],"tree_param":{"num_deleted":"0","num_feature":"420","num_nodes":"25","size_leaf_vector":"1"}},{"base_weights":[1.147929E-2,-1.122639E-2,2.6253736E-1,-4.7186685E-1,2.843309E-3,3.2695433E-1,-3.1321181E-3,5.158658E-3,-7.284051E-1,7.946792E-2,-6.4430915E-2,-7.547752E-2,4.5214128E-1,-1.908706E-3,-1.5718782E-2,4.7638374E-3,4.8231147E-4,-1.968966E-3,6.0765983E-6,1.2497446E-3,-5.8193887E-3,-1.04441E-3,5.196573E-3],"categories":[],"categories_nodes":[],"categories_segments":[],"categories_sizes":[],"default_left":[0,0,0,0,0,0,0,0,0,0,0,0,0,0,0,0,0,0,0,0,0,0,0],"id":33,"left_children":[1,3,5,7,9,11,-1,-1,13,15,17,19,21,-1,-1,-1,-1,-1,-1,-1,-1,-1,-1],"loss_changes":[7.424465E0,7.766138E0,4.161215E0,9.583115E0,5.971923E0,5.028041E0,0E0,0E0,1.2473155E1,6.634802E0,5.327533E0,2.6276062E0,2.9481564E0,0E0,0E0,0E0,0E0,0E0,0E0,0E0,0E0,0E0,0E0],"parents":[2147483647,0,0,1,1,2,2,3,3,4,4,5,5,8,8,9,9,10,10,11,11,12,12],"right_children":[2,4,6,8,10,12,-1,-1,14,16,18,20,22,-1,-1,-1,-1,-1,-1,-1,-1,-1,-1],"split_conditions":[1.354064E0,-1.8833905E0,1.770058E0,-1.7808374E0,-5.4133236E-2,-6.35793E-1,-3.1321181E-3,5.158658E-3,-1.7631885E-1,-1.2090677E0,-2.966808E-1,8.797156E-1,-1.6221377E0,-1.908706E-3,-1.5718782E-2,4.7638374E-3,4.8231147E-4,-1.968966E-3,6.0765983E-6,1.2497446E-3,-5.8193887E-3,-1.04441E-3,5.196573E-3],"split_indices":[309,376,418,365,410,17,0,0,97,280,326,333,372,0,0,0,0,0,0,0,0,0,0],"split_type":[0,0,0,0,0,0,0,0,0,0,0,0,0,0,0,0,0,0,0,0,0,0,0],"sum_hessian":[1.2957522E3,1.1892327E3,1.0651953E2,3.4011173E1,1.1552214E3,9.654013E1,9.979399E0,6.6192794E0,2.7391893E1,5.4064606E2,6.1457544E2,2.2857658E1,7.368247E1,1.7925926E1,9.465966E0,3.765087E1,5.0299515E2,2.0188586E2,4.1268958E2,1.704417E1,5.813489E0,7.722118E0,6.596036E1],"tree_param":{"num_deleted":"0","num_feature":"420","num_nodes":"23","size_leaf_vector":"1"}},{"base_weights":[4.7127265E-3,-4.348502E-1,1.78404E-2,-9.3486214E-1,3.1497052E-1,-1.5093301E-1,4.880651E-2,-1.1648035E-3,-1.4161998E0,-3.4726392E-3,7.246337E-3,2.4231845E-1,-2.1696462E-1,3.7922308E-2,5.402357E-1,-4.404109E-3,-2.0619659E-2,-0E0,7.858902E-3,-3.6879657E-3,7.126888E-4,1.9457279E-4,2.4116668E-3,1.3893388E-3,1.0997659E-2],"categories":[],"categories_nodes":[],"categories_segments":[],"categories_sizes":[],"default_left":[0,0,0,0,0,0,0,0,0,0,0,0,0,0,0,0,0,0,0,0,0,0,0,0,0],"id":34,"left_children":[1,3,5,7,9,11,13,-1,15,-1,-1,17,19,21,23,-1,-1,-1,-1,-1,-1,-1,-1,-1,-1],"loss_changes":[7.6233463E0,1.4863183E1,6.7401648E0,8.831066E0,4.8547716E0,5.264079E0,5.748246E0,0E0,7.552984E0,0E0,0E0,3.8929794E0,7.5994234E0,3.9802587E0,4.8860593E0,0E0,0E0,0E0,0E0,0E0,0E0,0E0,0E0,0E0,0E0],"parents":[2147483647,0,0,1,1,2,2,3,3,4,4,5,5,6,6,8,8,11,11,12,12,13,13,14,14],"right_children":[2,4,6,8,10,12,14,-1,16,-1,-1,18,20,22,24,-1,-1,-1,-1,-1,-1,-1,-1,-1,-1],"split_conditions":[-1.8833905E0,4.430474E-1,-1.0109788E0,-4.5447713E-1,1.1772445E0,-3.7818875E-2,2.7549675E0,-1.1648035E-3,-4.2268875E-1,-3.4726392E-3,7.246337E-3,7.237481E-2,1.4450485E0,1.3031611E0,2.523851E-1,-4.404109E-3,-2.0619659E-2,-0E0,7.858902E-3,-3.6879657E-3,7.126888E-4,1.9457279E-4,2.4116668E-3,1.3893388E-3,1.0997659E-2],"split_indices":[376,248,72,202,282,60,140,0,97,0,0,310,113,309,74,0,0,0,0,0,0,0,0,0,0],"split_type":[0,0,0,0,0,0,0,0,0,0,0,0,0,0,0,0,0,0,0,0,0,0,0,0,0],"sum_hessian":[1.3248137E3,3.6800274E1,1.2880134E3,2.1935772E1,1.48645E1,1.9828232E2,1.0897311E3,8.890566E0,1.3045206E1,5.6750174E0,9.189484E0,2.771378E1,1.7056854E2,1.0678984E3,2.1832636E1,6.261531E0,6.783675E0,2.013323E1,7.580549E0,1.11671394E2,5.889715E1,9.8091644E2,8.6981995E1,1.3908483E1,7.9241543E0],"tree_param":{"num_deleted":"0","num_feature":"420","num_nodes":"25","size_leaf_vector":"1"}},{"base_weights":[1.2778627E-2,-1.5939204E-2,3.288322E-1,-7.1998274E-1,-8.891745E-3,-3.763277E-3,3.9659336E-1,-1.040861E-3,-1.1531217E-2,6.684143E-1,-1.5795287E-2,4.6616367E-1,-3.2848332E-3,1.1815077E-2,-0E0,5.585868E-4,-7.697613E-4,7.2380183E-3,2.8884092E-3],"categories":[],"categories_nodes":[],"categories_segments":[],"categories_sizes":[],"default_left":[0,0,0,0,0,0,0,0,0,0,0,0,0,0,0,0,0,0,0],"id":35,"left_children":[1,3,5,7,9,-1,11,-1,-1,13,15,17,-1,-1,-1,-1,-1,-1,-1],"loss_changes":[1.1817408E1,5.8255916E0,5.4079227E0,2.7998853E0,5.470796E0,0E0,5.2778645E0,0E0,0E0,4.0340424E0,5.1389403E0,3.7795181E0,0E0,0E0,0E0,0E0,0E0,0E0,0E0],"parents":[2147483647,0,0,1,1,2,2,3,3,4,4,6,6,9,9,10,10,11,11],"right_children":[2,4,6,8,10,-1,12,-1,-1,14,16,18,-1,-1,-1,-1,-1,-1,-1],"split_conditions":[1.354064E0,-3.0469248E0,-9.7319764E-1,-1.557615E0,-1.8297828E0,-3.763277E-3,1.7956064E0,-1.040861E-3,-1.1531217E-2,1.4852529E0,-3.8789038E-2,5.57022E-1,-3.2848332E-3,1.1815077E-2,-0E0,5.585868E-4,-7.697613E-4,7.2380183E-3,2.8884092E-3],"split_indices":[309,382,413,279,407,0,238,0,0,345,410,333,0,0,0,0,0,0,0],"split_type":[0,0,0,0,0,0,0,0,0,0,0,0,0,0,0,0,0,0,0],"sum_hessian":[1.2961831E3,1.1892329E3,1.0695028E2,1.0141696E1,1.1790912E3,8.648006E0,9.830227E1,5.0509267E0,5.0907693E0,1.0300411E1,1.1687908E3,9.031061E1,7.9916606E0,5.166523E0,5.1338882E0,5.376271E2,6.311637E2,3.4702908E1,5.5607704E1],"tree_param":{"num_deleted":"0","num_feature":"420","num_nodes":"19","size_leaf_vector":"1"}},{"base_weights":[4.926416E-3,-1.8498192E-2,2.7707875E-1,5.4796465E-2,-8.1462E-2,3.362106E-1,-5.5429367E-3,-5.4170614E-1,7.664025E-2,-7.721533E-1,-6.796014E-2,-2.3131375E-3,4.0127495E-1,3.0965495E-4,-1.1884509E-2,2.044917E-3,-2.9373834E-6,-9.31313E-4,-1.3257692E-2,1.1747515E-4,-1.6729785E-3,3.3293138E-3,1.0666784E-2],"categories":[],"categories_nodes":[],"categories_segments":[],"categories_sizes":[],"default_left":[0,0,0,0,0,0,0,0,0,0,0,0,0,0,0,0,0,0,0,0,0,0,0],"id":36,"left_children":[1,3,5,7,9,11,-1,13,15,17,19,-1,21,-1,-1,-1,-1,-1,-1,-1,-1,-1,-1],"loss_changes":[8.472088E0,5.6388407E0,5.4360332E0,7.3625655E0,5.968899E0,3.8261108E0,0E0,7.5571275E0,5.38513E0,4.304161E0,5.138924E0,0E0,3.4142857E0,0E0,0E0,0E0,0E0,0E0,0E0,0E0,0E0,0E0,0E0],"parents":[2147483647,0,0,1,1,2,2,3,3,4,4,5,5,7,7,8,8,9,9,10,10,12,12],"right_children":[2,4,6,8,10,12,-1,14,16,18,20,-1,22,-1,-1,-1,-1,-1,-1,-1,-1,-1,-1],"split_conditions":[1.354064E0,-4.268023E-2,1.7949089E0,-1.8833905E0,-1.4791679E0,-8.980004E-1,-5.5429367E-3,-4.5447713E-1,-1.7901804E-1,-2.9552206E-1,5.4301143E-2,-2.3131375E-3,1.3834321E0,3.0965495E-4,-1.1884509E-2,2.044917E-3,-2.9373834E-6,-9.31313E-4,-1.3257692E-2,1.1747515E-4,-1.6729785E-3,3.3293138E-3,1.0666784E-2],"split_indices":[309,411,259,376,364,182,0,202,214,242,92,0,98,0,0,0,0,0,0,0,0,0,0],"split_type":[0,0,0,0,0,0,0,0,0,0,0,0,0,0,0,0,0,0,0,0,0,0,0],"sum_hessian":[1.3221799E3,1.2183455E3,1.0383444E2,5.6234247E2,6.56003E2,9.7885925E1,5.9485173E0,1.844257E1,5.438999E2,1.0819882E1,6.451831E2,9.515679E0,8.837025E1,1.045689E1,7.985679E0,2.0388683E2,3.400131E2,5.7276998E0,5.0921826E0,3.5813492E2,2.870482E2,8.231634E1,6.053904E0],"tree_param":{"num_deleted":"0","num_feature":"420","num_nodes":"23","size_leaf_vector":"1"}},{"base_weights":[-1.2692534E-2,-3.1268865E-1,7.0907534E-3,-1.0312117E0,-1.7603686E-1,3.0535247E-2,-1.67517E-1,-1.2403588E-3,-1.6111327E-2,2.929007E-3,-3.216974E-1,-3.3975968E-1,4.2538226E-2,-7.50522E-2,-6.51588E-1,-1.3647034E-3,-7.012964E-3,3.3849694E-3,-5.5370405E-3,1.222903E-4,1.7621213E-3,4.8865695E-3,-1.2551612E-3,-1.181725E-2,5.261125E-4],"categories":[],"categories_nodes":[],"categories_segments":[],"categories_sizes":[],"default_left":[0,0,0,0,0,0,0,0,0,0,0,0,0,0,0,0,0,0,0,0,0,0,0,0,0],"id":37,"left_children":[1,3,5,7,9,11,13,-1,-1,-1,15,17,19,21,23,-1,-1,-1,-1,-1,-1,-1,-1,-1,-1],"loss_changes":[7.7289534E0,7.516887E0,4.977994E0,6.0750685E0,4.8991203E0,4.770692E0,6.2926564E0,0E0,0E0,0E0,3.5689158E0,5.187369E0,4.20371E0,3.5446632E0,8.681329E0,0E0,0E0,0E0,0E0,0E0,0E0,0E0,0E0,0E0,0E0],"parents":[2147483647,0,0,1,1,2,2,3,3,4,4,5,5,6,6,10,10,11,11,12,12,13,13,14,14],"right_children":[2,4,6,8,10,12,14,-1,-1,-1,16,18,20,22,24,-1,-1,-1,-1,-1,-1,-1,-1,-1,-1],"split_conditions":[-1.3443056E0,-9.659854E-1,1.116724E0,-1.16675116E-1,8.636472E-1,-1.7855067E0,8.4339243E-1,-1.2403588E-3,-1.6111327E-2,2.929007E-3,1.9167064E-1,-5.5450743E-1,5.6872064E-1,-1.5164169E0,-4.964673E-2,-1.3647034E-3,-7.012964E-3,3.3849694E-3,-5.5370405E-3,1.222903E-4,1.7621213E-3,4.8865695E-3,-1.2551612E-3,-1.181725E-2,5.261125E-4],"split_indices":[114,405,158,99,90,258,371,0,0,0,204,310,157,90,32,0,0,0,0,0,0,0,0,0,0],"split_type":[0,0,0,0,0,0,0,0,0,0,0,0,0,0,0,0,0,0,0,0,0,0,0,0,0],"sum_hessian":[1.295077E3,7.9059265E1,1.2160178E3,1.0947177E1,6.811208E1,1.0736674E3,1.4235037E2,5.0463653E0,5.9008117E0,1.5620586E1,5.2491497E1,3.216228E1,1.0415051E3,1.2114837E2,2.1202003E1,3.6825188E1,1.5666311E1,7.390836E0,2.4771446E1,8.509469E2,1.9055821E2,8.721212E0,1.12427155E2,1.1596635E1,9.605369E0],"tree_param":{"num_deleted":"0","num_feature":"420","num_nodes":"25","size_leaf_vector":"1"}},{"base_weights":[1.1278125E-2,-3.8590607E-1,2.3181649E-2,-8.069235E-3,-1.0149505E0,9.015055E-2,-3.902819E-2,4.780584E-1,-4.2312908E-1,-1.6575105E-2,-2.6085933E-3,6.1597288E-2,4.6583155E-1,-2.1562003E-2,-7.462074E-1,-8.806908E-4,1.0120972E-2,-8.415162E-3,-0E0,7.175623E-3,4.845145E-4,9.387297E-3,1.1677413E-3,4.9486145E-4,-1.5682469E-3,-1.4389508E-2,3.7285328E-4],"categories":[],"categories_nodes":[],"categories_segments":[],"categories_sizes":[],"default_left":[0,0,0,0,0,0,0,0,0,0,0,0,0,0,0,0,0,0,0,0,0,0,0,0,0,0,0],"id":38,"left_children":[1,3,5,7,9,11,13,15,17,-1,-1,19,21,23,25,-1,-1,-1,-1,-1,-1,-1,-1,-1,-1,-1,-1],"loss_changes":[6.194333E0,8.941856E0,5.336355E0,5.42631E0,6.034091E0,6.5214124E0,8.088534E0,3.9446614E0,2.5306714E0,0E0,0E0,4.8320093E0,6.84406E0,6.256701E0,8.795269E0,0E0,0E0,0E0,0E0,0E0,0E0,0E0,0E0,0E0,0E0,0E0,0E0],"parents":[2147483647,0,0,1,1,2,2,3,3,4,4,5,5,6,6,7,7,8,8,11,11,12,12,13,13,14,14],"right_children":[2,4,6,8,10,12,14,16,18,-1,-1,20,22,24,26,-1,-1,-1,-1,-1,-1,-1,-1,-1,-1,-1,-1],"split_conditions":[-1.8833905E0,-2.974336E-1,-3.8789038E-2,-8.3839214E-1,1.8137347E-2,1.3442858E0,2.2243776E0,1.135536E0,-9.017218E-1,-1.6575105E-2,-2.6085933E-3,-1.914907E0,-2.505242E-1,3.7432823E-1,-1.184333E-1,-8.806908E-4,1.0120972E-2,-8.415162E-3,-0E0,7.175623E-3,4.845145E-4,9.387297E-3,1.1677413E-3,4.9486145E-4,-1.5682469E-3,-1.4389508E-2,3.7285328E-4],"split_indices":[376,294,410,209,141,389,119,415,302,0,0,346,283,71,34,0,0,0,0,0,0,0,0,0,0,0,0],"split_type":[0,0,0,0,0,0,0,0,0,0,0,0,0,0,0,0,0,0,0,0,0,0,0,0,0,0,0],"sum_hessian":[1.3135021E3,3.6604126E1,1.276898E3,2.3916714E1,1.268741E1,6.153776E2,6.615204E2,1.0799496E1,1.3117219E1,5.808419E0,6.878991E0,5.7378015E2,4.159747E1,6.4722217E2,1.4298203E1,5.7594066E0,5.040089E0,5.769245E0,7.347974E0,9.544302E0,5.6423584E2,1.646731E1,2.513016E1,4.2447443E2,2.2274773E2,6.990311E0,7.3078923E0],"tree_param":{"num_deleted":"0","num_feature":"420","num_nodes":"27","size_leaf_vector":"1"}},{"base_weights":[1.4032922E-3,6.0064986E-2,-9.337967E-2,-3.5867983E-1,7.763358E-2,3.4031215E-1,-1.2025988E-1,-9.618932E-2,-1.1924624E-2,-1.0903092E-2,1.7574409E-1,-1.3540272E-3,7.539012E-1,-7.546925E-3,-1.0500704E-1,1.2419347E-3,-8.018555E-3,-4.700108E-3,2.1117124E-4,1.9281002E-3,-7.3449127E-3,2.547554E-3,1.3891859E-2,-1.2315644E-3,4.7349967E-3],"categories":[],"categories_nodes":[],"categories_segments":[],"categories_sizes":[],"default_left":[0,0,0,0,0,0,0,0,0,0,0,0,0,0,0,0,0,0,0,0,0,0,0,0,0],"id":39,"left_children":[1,3,5,7,9,11,13,15,-1,17,19,-1,21,-1,23,-1,-1,-1,-1,-1,-1,-1,-1,-1,-1],"loss_changes":[7.257103E0,5.9522333E0,5.8515053E0,6.82111E0,6.7615914E0,5.9742613E0,4.350965E0,4.3340764E0,0E0,6.070547E0,5.8873434E0,0E0,4.378132E0,0E0,4.899404E0,0E0,0E0,0E0,0E0,0E0,0E0,0E0,0E0,0E0,0E0],"parents":[2147483647,0,0,1,1,2,2,3,3,4,4,5,5,6,6,7,7,9,9,10,10,12,12,14,14],"right_children":[2,4,6,8,10,12,14,16,-1,18,20,-1,22,-1,24,-1,-1,-1,-1,-1,-1,-1,-1,-1,-1],"split_conditions":[2.3584653E-1,-1.694388E0,-1.3684889E0,2.302272E-2,-2.3692715E-1,-5.4493564E-1,-1.6963056E0,-9.2010456E-1,-1.1924624E-2,-9.503899E-1,2.3424034E0,-1.3540272E-3,-4.1830376E-1,-7.546925E-3,2.4405625E0,1.2419347E-3,-8.018555E-3,-4.700108E-3,2.1117124E-4,1.9281002E-3,-7.3449127E-3,2.547554E-3,1.3891859E-2,-1.2315644E-3,4.7349967E-3],"split_indices":[15,136,284,181,205,307,333,46,0,346,372,0,391,0,35,0,0,0,0,0,0,0,0,0,0],"split_type":[0,0,0,0,0,0,0,0,0,0,0,0,0,0,0,0,0,0,0,0,0,0,0,0,0],"sum_hessian":[1.30279E3,8.057262E2,4.9706387E2,3.1041473E1,7.746847E2,2.777206E1,4.692918E2,2.4972609E1,6.068866E0,4.0737564E2,3.6730905E2,1.3272739E1,1.4499321E1,9.15655E0,4.6013525E2,1.9863457E1,5.109151E0,2.54257E1,3.8194995E2,3.6181747E2,5.4915643E0,9.384671E0,5.11465E0,4.4745096E2,1.268429E1],"tree_param":{"num_deleted":"0","num_feature":"420","num_nodes":"25","size_leaf_vector":"1"}},{"base_weights":[1.5563049E-2,-1.9886728E-1,4.253548E-2,4.1590254E-3,-2.735534E-1,5.989099E-1,3.4114458E-2,-9.918388E-1,-1.9836737E-1,1.5673053E-2,-7.942548E-4,-6.8072644E-3,3.9908398E-2,-2.6163103E-3,-1.4832665E-2,-2.7754097E-3,2.2344475E-3,3.305979E-4,5.8303177E-3],"categories":[],"categories_nodes":[],"categories_segments":[],"categories_sizes":[],"default_left":[0,0,0,0,0,0,0,0,0,0,0,0,0,0,0,0,0,0,0],"id":40,"left_children":[1,3,5,-1,7,9,11,13,15,-1,-1,-1,17,-1,-1,-1,-1,-1,-1],"loss_changes":[7.363903E0,6.6839404E0,5.2147026E0,0E0,6.488535E0,1.1257138E1,4.6068616E0,3.4096756E0,4.029364E0,0E0,0E0,0E0,4.0401382E0,0E0,0E0,0E0,0E0,0E0,0E0],"parents":[2147483647,0,0,1,1,2,2,4,4,5,5,6,6,7,7,8,8,12,12],"right_children":[2,4,6,-1,8,10,12,14,16,-1,-1,-1,18,-1,-1,-1,-1,-1,-1],"split_conditions":[-1.1900413E0,-1.094388E0,-2.4078739E0,4.1590254E-3,-6.835141E-1,-1.0558185E-3,-2.3565104E0,4.0095997E-1,1.1262974E0,1.5673053E-2,-7.942548E-4,-6.8072644E-3,3.2638462E0,-2.6163103E-3,-1.4832665E-2,-2.7754097E-3,2.2344475E-3,3.305979E-4,5.8303177E-3],"split_indices":[93,186,414,0,379,267,418,149,77,0,0,0,140,0,0,0,0,0,0],"split_type":[0,0,0,0,0,0,0,0,0,0,0,0,0,0,0,0,0,0,0],"sum_hessian":[1.2722244E3,1.4066592E2,1.1315585E3,1.43504E1,1.2631552E2,1.5126084E1,1.1164324E3,1.0110236E1,1.16205284E2,5.4818335E0,9.644251E0,7.4325376E0,1.1089999E3,5.0735583E0,5.0366774E0,9.8472275E1,1.773301E1,1.0969431E3,1.2056673E1],"tree_param":{"num_deleted":"0","num_feature":"420","num_nodes":"19","size_leaf_vector":"1"}},{"base_weights":[5.7601007E-3,-2.7060986E-1,2.3854665E-2,-6.10459E-1,-2.2485808E-2,1.5608382E-2,5.713504E-1,-1.9957784E-3,-9.2588514E-1,-2.703665E-1,4.3410724E-1,4.3237388E-2,-1.2613721E-1,7.489659E-4,1.2996534E-2,-1.2709645E-2,-1.5732312E-3,3.0420254E-6,-8.073719E-3,-2.3185755E-3,7.6885927E-3,-5.706478E-4,1.141443E-3,-1.7134129E-3,6.5307934E-3],"categories":[],"categories_nodes":[],"categories_segments":[],"categories_sizes":[],"default_left":[0,0,0,0,0,0,0,0,0,0,0,0,0,0,0,0,0,0,0,0,0,0,0,0,0],"id":41,"left_children":[1,3,5,7,9,11,13,-1,15,17,19,21,23,-1,-1,-1,-1,-1,-1,-1,-1,-1,-1,-1,-1],"loss_changes":[6.405204E0,6.550145E0,5.3757753E0,3.8835611E0,5.5018206E0,4.662156E0,6.1100826E0,0E0,4.3584137E0,4.6826577E0,4.1202984E0,7.1133165E0,6.9526644E0,0E0,0E0,0E0,0E0,0E0,0E0,0E0,0E0,0E0,0E0,0E0,0E0],"parents":[2147483647,0,0,1,1,2,2,3,3,4,4,5,5,6,6,8,8,9,9,10,10,11,11,12,12],"right_children":[2,4,6,8,10,12,14,-1,16,18,20,22,24,-1,-1,-1,-1,-1,-1,-1,-1,-1,-1,-1,-1],"split_conditions":[-1.3272455E0,-2.9874054E-1,3.2638462E0,-4.7404465E-1,1.126953E0,8.5737646E-1,2.2184517E-2,-1.9957784E-3,5.781896E-1,-3.2627732E-1,-6.4068305E-1,-3.1470883E-1,1.6492928E0,7.489659E-4,1.2996534E-2,-1.2709645E-2,-1.5732312E-3,3.0420254E-6,-8.073719E-3,-2.3185755E-3,7.6885927E-3,-5.706478E-4,1.141443E-3,-1.7134129E-3,6.5307934E-3],"split_indices":[135,287,140,286,165,162,32,0,305,367,349,159,32,0,0,0,0,0,0,0,0,0,0,0,0],"split_type":[0,0,0,0,0,0,0,0,0,0,0,0,0,0,0,0,0,0,0,0,0,0,0,0,0],"sum_hessian":[1.2823353E3,7.717238E1,1.205163E3,3.1472216E1,4.5700165E1,1.1889802E3,1.6182795E1,1.4869275E1,1.660294E1,3.0158281E1,1.55418825E1,9.964922E2,1.9248799E2,1.0688471E1,5.4943237E0,1.0691758E1,5.9111814E0,2.0924492E1,9.233789E0,5.2532525E0,1.02886305E1,4.1223834E2,5.8425385E2,1.8316092E2,9.327072E0],"tree_param":{"num_deleted":"0","num_feature":"420","num_nodes":"25","size_leaf_vector":"1"}},{"base_weights":[4.9692015E-3,-1.1095728E-1,3.594409E-2,-1.4966427E-1,5.109459E-1,8.297312E-2,-6.1122265E-2,-4.1994955E-2,-3.9901763E-1,-2.4460661E-3,9.001299E-3,1.6182607E-2,1.8228571E-1,-6.419599E-3,-3.912042E-2,8.064443E-3,-8.3056657E-4,-7.310117E-3,-1.068939E-3,-1.1578823E-3,1.1860313E-3,5.1879543E-3,1.1371565E-3,-5.800443E-4,5.6020743E-3],"categories":[],"categories_nodes":[],"categories_segments":[],"categories_sizes":[],"default_left":[0,0,0,0,0,0,0,0,0,0,0,0,0,0,0,0,0,0,0,0,0,0,0,0,0],"id":42,"left_children":[1,3,5,7,9,11,13,15,17,-1,-1,19,21,-1,23,-1,-1,-1,-1,-1,-1,-1,-1,-1,-1],"loss_changes":[4.655208E0,6.653429E0,4.689826E0,6.8693023E0,5.1570773E0,4.565464E0,4.1724515E0,6.3846636E0,7.313546E0,0E0,0E0,5.643177E0,6.251033E0,0E0,3.66906E0,0E0,0E0,0E0,0E0,0E0,0E0,0E0,0E0,0E0,0E0],"parents":[2147483647,0,0,1,1,2,2,3,3,4,4,5,5,6,6,7,7,8,8,11,11,12,12,14,14],"right_children":[2,4,6,8,10,12,14,16,18,-1,-1,20,22,-1,24,-1,-1,-1,-1,-1,-1,-1,-1,-1,-1],"split_conditions":[-6.141418E-1,1.5150164E0,4.0092546E-1,3.9260894E-1,-2.2773282E-1,-6.344202E-2,-9.868017E-1,-1.8040441E0,-2.0277303E-1,-2.4460661E-3,9.001299E-3,-4.066353E-1,-7.663532E-1,-6.419599E-3,2.2221284E0,8.064443E-3,-8.3056657E-4,-7.310117E-3,-1.068939E-3,-1.1578823E-3,1.1860313E-3,5.1879543E-3,1.1371565E-3,-5.800443E-4,5.6020743E-3],"split_indices":[325,132,71,53,373,39,26,407,281,0,0,205,372,0,354,0,0,0,0,0,0,0,0,0,0],"split_type":[0,0,0,0,0,0,0,0,0,0,0,0,0,0,0,0,0,0,0,0,0,0,0,0,0],"sum_hessian":[1.295346E3,2.7163275E2,1.0237132E3,2.5694067E2,1.4692063E1,6.904402E2,3.3327298E2,1.8095782E2,7.598286E1,5.097052E0,9.595011E0,4.1445734E2,2.7598288E2,1.0454995E1,3.22818E2,6.9503713E0,1.7400746E2,3.434939E1,4.163347E1,1.8059064E2,2.338667E2,4.4803085E1,2.311798E2,3.1443234E2,8.38566E0],"tree_param":{"num_deleted":"0","num_feature":"420","num_nodes":"25","size_leaf_vector":"1"}},{"base_weights":[-1.180347E-2,4.0019855E-2,-9.483187E-2,-1.4937279E-1,7.620094E-2,2.8252427E-2,-1.9817728E-1,7.6130955E-3,-2.0042321E-1,-4.6168172E-1,9.260515E-2,-4.9868992E-1,8.8953316E-2,1.765195E-2,-3.1148866E-1,-2.8581622E-3,2.858626E-3,-8.964781E-3,7.811576E-4,1.0603088E-3,-5.364859E-3,-1.1678004E-2,2.4355084E-4,-2.5986868E-3,1.6154184E-3,5.2066697E-3,-9.571472E-4,-3.5895198E-3,2.9973625E-3],"categories":[],"categories_nodes":[],"categories_segments":[],"categories_sizes":[],"default_left":[0,0,0,0,0,0,0,0,0,0,0,0,0,0,0,0,0,0,0,0,0,0,0,0,0,0,0,0,0],"id":43,"left_children":[1,3,5,7,9,11,13,-1,15,17,19,21,23,25,27,-1,-1,-1,-1,-1,-1,-1,-1,-1,-1,-1,-1,-1,-1],"loss_changes":[5.6576066E0,5.5484257E0,6.455312E0,6.202999E0,6.027852E0,7.4329467E0,6.7729387E0,0E0,5.276441E0,4.927154E0,5.628238E0,8.548828E0,5.347762E0,5.5875707E0,5.417616E0,0E0,0E0,0E0,0E0,0E0,0E0,0E0,0E0,0E0,0E0,0E0,0E0,0E0,0E0],"parents":[2147483647,0,0,1,1,2,2,3,3,4,4,5,5,6,6,8,8,9,9,10,10,11,11,12,12,13,13,14,14],"right_children":[2,4,6,8,10,12,14,-1,16,18,20,22,24,26,28,-1,-1,-1,-1,-1,-1,-1,-1,-1,-1,-1,-1,-1,-1],"split_conditions":[2.3584653E-1,-6.485433E-1,-9.690535E-2,-1.8278686E0,-1.5976348E0,-1.1908118E0,-5.2112806E-1,7.6130955E-3,5.7890046E-1,4.5559356E-1,2.2465432E0,-1.9486322E-1,-1.2310501E0,-9.145304E-1,1.7000908E0,-2.8581622E-3,2.858626E-3,-8.964781E-3,7.811576E-4,1.0603088E-3,-5.364859E-3,-1.1678004E-2,2.4355084E-4,-2.5986868E-3,1.6154184E-3,5.2066697E-3,-9.571472E-4,-3.5895198E-3,2.9973625E-3],"split_indices":[15,361,410,141,270,112,311,0,330,116,99,24,30,134,190,0,0,0,0,0,0,0,0,0,0,0,0,0,0],"split_type":[0,0,0,0,0,0,0,0,0,0,0,0,0,0,0,0,0,0,0,0,0,0,0,0,0,0,0,0,0],"sum_hessian":[1.3107671E3,8.06778E2,5.0398904E2,1.2820782E2,6.785702E2,2.3008287E2,2.739062E2,5.593732E0,1.2261409E2,1.869699E1,6.598732E2,2.2478352E1,2.076045E2,9.442827E1,1.7947792E2,1.0499986E2,1.7614231E1,9.909324E0,8.787665E0,6.4746155E2,1.241163E1,9.134762E0,1.334359E1,3.4856236E1,1.7274828E2,1.6538565E1,7.78897E1,1.6727153E2,1.2206395E1],"tree_param":{"num_deleted":"0","num_feature":"420","num_nodes":"29","size_leaf_vector":"1"}},{"base_weights":[8.029194E-3,4.3154635E-2,-1.3558325E-1,7.614731E-2,-1.20144255E-1,-1.8243514E-1,2.5125036E-1,8.6952046E-2,-5.1313806E-1,1.8807462E-1,-2.3486312E-1,-8.048537E-3,-1.4183702E-1,8.207035E-3,-1.6988339E-2,-1.5034326E-4,1.4947691E-3,-1.1772108E-2,-4.2418568E-4,3.6726075E-3,-3.0888543E-3,-6.707392E-3,-9.1340696E-4,7.415702E-4,-2.1770261E-3,4.937579E-3,-3.0825003E-3],"categories":[],"categories_nodes":[],"categories_segments":[],"categories_sizes":[],"default_left":[0,0,0,0,0,0,0,0,0,0,0,0,0,0,0,0,0,0,0,0,0,0,0,0,0,0,0],"id":44,"left_children":[1,3,5,7,9,11,13,15,17,19,21,-1,23,-1,25,-1,-1,-1,-1,-1,-1,-1,-1,-1,-1,-1,-1],"loss_changes":[6.676455E0,5.748257E0,4.772615E0,5.675638E0,6.404033E0,5.620236E0,4.4515815E0,5.584014E0,4.8145685E0,4.555318E0,8.054006E0,0E0,3.6542115E0,0E0,3.290669E0,0E0,0E0,0E0,0E0,0E0,0E0,0E0,0E0,0E0,0E0,0E0,0E0],"parents":[2147483647,0,0,1,1,2,2,3,3,4,4,5,5,6,6,7,7,8,8,9,9,10,10,12,12,14,14],"right_children":[2,4,6,8,10,12,14,16,18,20,22,-1,24,-1,26,-1,-1,-1,-1,-1,-1,-1,-1,-1,-1,-1,-1],"split_conditions":[1.0044875E0,8.5737646E-1,1.5328968E0,2.6007655E0,-5.7980186E-1,-1.1215854E0,-5.5515385E-1,-5.216895E-1,1.331734E0,2.0185572E-1,-8.790009E-1,-8.048537E-3,-4.86924E-1,8.207035E-3,-4.9549815E-1,-1.5034326E-4,1.4947691E-3,-1.1772108E-2,-4.2418568E-4,3.6726075E-3,-3.0888543E-3,-6.707392E-3,-9.1340696E-4,7.415702E-4,-2.1770261E-3,4.937579E-3,-3.0825003E-3],"split_indices":[69,162,332,119,5,325,242,140,205,245,406,0,368,0,391,0,0,0,0,0,0,0,0,0,0,0,0],"split_type":[0,0,0,0,0,0,0,0,0,0,0,0,0,0,0,0,0,0,0,0,0,0,0,0,0,0,0],"sum_hessian":[1.3221172E3,1.0636981E3,2.5841898E2,8.860873E2,1.7761092E2,2.31439E2,2.6979961E1,8.7155536E2,1.4531872E1,4.7679096E1,1.2993182E2,1.2291707E1,2.191473E2,7.7694106E0,1.921055E1,3.3107236E2,5.4048303E2,5.005937E0,9.525935E0,3.5479244E1,1.2199854E1,3.0647823E1,9.9284E1,5.6631012E1,1.6251628E2,6.4731946E0,1.2737355E1],"tree_param":{"num_deleted":"0","num_feature":"420","num_nodes":"27","size_leaf_vector":"1"}},{"base_weights":[-8.459209E-3,1.11945525E-1,-4.8411842E-2,4.5991424E-1,7.054896E-2,-4.5282012E-1,-3.2506123E-2,8.636977E-1,1.5146711E-1,9.911722E-2,-5.74676E-1,-1.7934611E-1,-1.0494002E-2,1.5822999E-1,-6.1727695E-2,1.0934394E-3,1.3998327E-2,-1.3650137E-3,6.060009E-3,2.4841048E-4,3.1460403E-3,-1.1017378E-2,2.7156537E-4,-4.5257243E-3,1.6859516E-3,1.0133097E-3,8.49575E-3,-3.1402532E-3,-3.6057475E-4],"categories":[],"categories_nodes":[],"categories_segments":[],"categories_sizes":[],"default_left":[0,0,0,0,0,0,0,0,0,0,0,0,0,0,0,0,0,0,0,0,0,0,0,0,0,0,0,0,0],"id":45,"left_children":[1,3,5,7,9,11,13,15,17,19,21,23,-1,25,27,-1,-1,-1,-1,-1,-1,-1,-1,-1,-1,-1,-1,-1,-1],"loss_changes":[6.254177E0,4.560472E0,6.2176228E0,3.922113E0,5.4069476E0,5.572663E0,5.2578297E0,5.3681087E0,2.941747E0,4.4415355E0,4.0926523E0,2.7141926E0,0E0,4.6996164E0,5.250836E0,0E0,0E0,0E0,0E0,0E0,0E0,0E0,0E0,0E0,0E0,0E0,0E0,0E0,0E0],"parents":[2147483647,0,0,1,1,2,2,3,3,4,4,5,5,6,6,7,7,8,8,9,9,10,10,11,11,13,13,14,14],"right_children":[2,4,6,8,10,12,14,16,18,20,22,24,-1,26,28,-1,-1,-1,-1,-1,-1,-1,-1,-1,-1,-1,-1,-1,-1],"split_conditions":[-7.598594E-1,-9.8585516E-1,-9.8190933E-1,-9.253987E-1,1.5350549E0,-7.0601165E-1,-1.0724486E0,-2.0167158E0,-9.602064E-2,4.7520053E-1,3.042773E-1,-1.8794418E-3,-1.0494002E-2,1.6992213E0,-1.2916734E0,1.0934394E-3,1.3998327E-2,-1.3650137E-3,6.060009E-3,2.4841048E-4,3.1460403E-3,-1.1017378E-2,2.7156537E-4,-4.5257243E-3,1.6859516E-3,1.0133097E-3,8.49575E-3,-3.1402532E-3,-3.6057475E-4],"split_indices":[8,418,257,1,122,98,159,18,236,36,285,330,0,370,397,0,0,0,0,0,0,0,0,0,0,0,0,0,0],"split_type":[0,0,0,0,0,0,0,0,0,0,0,0,0,0,0,0,0,0,0,0,0,0,0,0,0,0,0,0,0],"sum_hessian":[1.2982443E3,3.2215723E2,9.76087E2,3.2382E1,2.8977524E2,3.514038E1,9.409466E2,1.2713942E1,1.9668058E1,2.7885318E2,1.0922065E1,2.5547768E1,9.592612E0,1.23671165E2,8.1727545E2,6.1097836E0,6.604158E0,1.2547902E1,7.1201563E0,2.0896275E2,6.989041E1,5.247077E0,5.674988E0,1.4218668E1,1.13291E1,1.1598951E2,7.6816573E0,7.355924E1,7.437162E2],"tree_param":{"num_deleted":"0","num_feature":"420","num_nodes":"29","size_leaf_vector":"1"}},{"base_weights":[-2.0012888E-3,-2.2659576E-1,1.6651312E-2,-3.1049392E-1,4.725402E-3,8.243823E-3,5.691387E-1,-1.2184152E-2,-2.261717E-1,-3.6102455E-2,9.11988E-2,3.9080754E-2,1.2916932E-2,-1.4179781E-3,-1.0687249E-2,4.3108707E-4,-1.0994333E-3,6.90708E-4,1.0490185E-2,-4.7620423E-3,5.3174226E-3],"categories":[],"categories_nodes":[],"categories_segments":[],"categories_sizes":[],"default_left":[0,0,0,0,0,0,0,0,0,0,0,0,0,0,0,0,0,0,0,0,0],"id":46,"left_children":[1,3,5,7,-1,9,11,-1,13,15,17,19,-1,-1,-1,-1,-1,-1,-1,-1,-1],"loss_changes":[5.488231E0,6.0978985E0,5.5311933E0,6.3898716E0,0E0,4.382135E0,6.630642E0,0E0,5.6929107E0,4.544901E0,8.579215E0,3.4133492E0,0E0,0E0,0E0,0E0,0E0,0E0,0E0,0E0,0E0],"parents":[2147483647,0,0,1,1,2,2,3,3,5,5,6,6,8,8,9,9,10,10,11,11],"right_children":[2,4,6,8,-1,10,12,-1,14,16,18,20,-1,-1,-1,-1,-1,-1,-1,-1,-1],"split_conditions":[-1.3342745E0,1.5271925E0,2.9737847E0,-1.8823471E0,4.725402E-3,3.2883742E-1,3.0048063E-1,-1.2184152E-2,5.9288484E-1,-1.2665538E-1,2.4443486E0,1.9154708E-1,1.2916932E-2,-1.4179781E-3,-1.0687249E-2,4.3108707E-4,-1.0994333E-3,6.90708E-4,1.0490185E-2,-4.7620423E-3,5.3174226E-3],"split_indices":[263,396,371,292,0,117,121,0,313,92,413,266,0,0,0,0,0,0,0,0,0],"split_type":[0,0,0,0,0,0,0,0,0,0,0,0,0,0,0,0,0,0,0,0,0],"sum_hessian":[1.3022057E3,9.898416E1,1.2032214E3,8.925071E1,9.733454E0,1.1868638E3,1.6357742E1,5.7694283E0,8.3481285E1,7.7317804E2,4.136857E2,1.0427657E1,5.930085E0,7.7583176E1,5.8981066E0,3.726722E2,4.0050583E2,4.0601825E2,7.6674504E0,5.0220833E0,5.405574E0],"tree_param":{"num_deleted":"0","num_feature":"420","num_nodes":"21","size_leaf_vector":"1"}},{"base_weights":[2.3255045E-4,-2.2701757E-2,2.375205E-1,4.2044926E-2,-8.1302576E-2,3.0499214E-1,-3.6354077E-1,7.2818235E-2,-4.0033606E-1,1.2942508E-1,-1.296474E-1,2.3780318E-1,1.1231628E-2,9.297727E-4,-7.555649E-3,4.3163174E-3,4.551271E-4,-1.2223365E-3,-1.035539E-2,2.800008E-3,-2.0887027E-3,2.0232622E-3,-1.6675895E-3,-4.987148E-3,2.906821E-3],"categories":[],"categories_nodes":[],"categories_segments":[],"categories_sizes":[],"default_left":[0,0,0,0,0,0,0,0,0,0,0,0,0,0,0,0,0,0,0,0,0,0,0,0,0],"id":47,"left_children":[1,3,5,7,9,11,13,15,17,19,21,23,-1,-1,-1,-1,-1,-1,-1,-1,-1,-1,-1,-1,-1],"loss_changes":[7.120801E0,4.5210896E0,4.8387322E0,7.704621E0,6.397973E0,5.2177486E0,2.350935E0,5.1142797E0,6.1908727E0,6.0595827E0,6.3296356E0,4.0426702E0,0E0,0E0,0E0,0E0,0E0,0E0,0E0,0E0,0E0,0E0,0E0,0E0,0E0],"parents":[2147483647,0,0,1,1,2,2,3,3,4,4,5,5,6,6,7,7,8,8,9,9,10,10,11,11],"right_children":[2,4,6,8,10,12,14,16,18,20,22,24,-1,-1,-1,-1,-1,-1,-1,-1,-1,-1,-1,-1,-1],"split_conditions":[1.3031611E0,-5.0114486E-2,2.0270982E0,1.5909525E0,-7.5323945E-1,1.2496986E0,5.0306267E-1,-1.253181E0,6.674356E-2,2.667884E-1,-8.9018637E-1,-1.8063198E0,1.1231628E-2,9.297727E-4,-7.555649E-3,4.3163174E-3,4.551271E-4,-1.2223365E-3,-1.035539E-2,2.800008E-3,-2.0887027E-3,2.0232622E-3,-1.6675895E-3,-4.987148E-3,2.906821E-3],"split_indices":[309,410,418,265,223,78,140,322,329,58,55,32,0,0,0,0,0,0,0,0,0,0,0,0,0],"split_type":[0,0,0,0,0,0,0,0,0,0,0,0,0,0,0,0,0,0,0,0,0,0,0,0,0],"sum_hessian":[1.3015479E3,1.1876904E3,1.1385736E2,5.636471E2,6.2404333E2,1.0318019E2,1.0677171E1,5.283712E2,3.52759E1,1.1559565E2,5.084477E2,9.725197E1,5.9282227E0,5.3436103E0,5.33356E0,3.5535583E1,4.9283563E2,2.588785E1,9.388051E0,8.037479E1,3.5220856E1,5.0182068E1,4.5826562E2,5.5407195E0,9.171125E1],"tree_param":{"num_deleted":"0","num_feature":"420","num_nodes":"25","size_leaf_vector":"1"}},{"base_weights":[-6.6898507E-3,-4.2265177E-1,5.357524E-3,-6.735831E-2,-1.0177299E0,3.0271634E-2,-2.089103E-1,-3.622986E-1,6.632773E-3,2.2263436E-3,-1.7894464E-2,9.608233E-2,-4.9937315E-2,-3.7401316E-1,5.0831757E-2,-5.664862E-3,1.3439704E-3,-9.219478E-5,1.8018018E-3,6.88262E-4,-1.4811769E-3,3.6612155E-3,-4.5121363E-3,5.6995177E-3,-1.5139559E-3],"categories":[],"categories_nodes":[],"categories_segments":[],"categories_sizes":[],"default_left":[0,0,0,0,0,0,0,0,0,0,0,0,0,0,0,0,0,0,0,0,0,0,0,0,0],"id":48,"left_children":[1,3,5,7,9,11,13,15,-1,-1,-1,17,19,21,23,-1,-1,-1,-1,-1,-1,-1,-1,-1,-1],"loss_changes":[6.6019335E0,7.628612E0,6.786397E0,5.7026124E0,1.3821236E1,6.039883E0,5.7367826E0,2.066938E0,0E0,0E0,0E0,5.5852885E0,6.0281363E0,4.903654E0,5.6849523E0,0E0,0E0,0E0,0E0,0E0,0E0,0E0,0E0,0E0,0E0],"parents":[2147483647,0,0,1,1,2,2,3,3,4,4,5,5,6,6,7,7,11,11,12,12,13,13,14,14],"right_children":[2,4,6,8,10,12,14,16,-1,-1,-1,18,20,22,24,-1,-1,-1,-1,-1,-1,-1,-1,-1,-1],"split_conditions":[-1.8833905E0,-1.7050338E-1,1.1580719E0,4.210268E-1,-1.69099E0,1.1964934E-1,3.1076387E-1,8.813662E-1,6.632773E-3,2.2263436E-3,-1.7894464E-2,-3.5540625E-1,-9.690535E-2,-9.372141E-1,-4.92664E-1,-5.664862E-3,1.3439704E-3,-9.219478E-5,1.8018018E-3,6.88262E-4,-1.4811769E-3,3.6612155E-3,-4.5121363E-3,5.6995177E-3,-1.5139559E-3],"split_indices":[376,97,99,161,344,15,393,350,0,0,0,205,410,302,210,0,0,0,0,0,0,0,0,0,0],"split_type":[0,0,0,0,0,0,0,0,0,0,0,0,0,0,0,0,0,0,0,0,0,0,0,0,0],"sum_hessian":[1.3069178E3,3.5581055E1,1.2713368E3,2.3429955E1,1.2151101E1,1.1404814E3,1.3085533E2,1.7328083E1,6.101871E0,5.020091E0,7.13101E0,6.26991E2,5.134904E2,7.983437E1,5.1020966E1,1.2273224E1,5.054859E0,2.7846362E2,3.485274E2,2.3212782E2,2.8136258E2,6.888081E0,7.294629E1,1.3677526E1,3.7343437E1],"tree_param":{"num_deleted":"0","num_feature":"420","num_nodes":"25","size_leaf_vector":"1"}},{"base_weights":[7.569024E-3,-1.2799223E-2,2.6235527E-1,4.0799297E-2,-9.71309E-2,5.349517E-1,7.719713E-2,-2.885554E-1,7.114793E-2,-1.1255251E-1,6.728537E-3,1.0226904E0,2.7215907E-1,-5.26098E-3,1.9611454E-1,1.0631619E-3,-7.7378503E-3,-3.5220813E-3,9.048706E-4,5.2646673E-3,-1.311693E-3,1.5649425E-2,1.9865893E-3,6.8801376E-3,3.466574E-4,-1.4158864E-4,6.4957575E-3],"categories":[],"categories_nodes":[],"categories_segments":[],"categories_sizes":[],"default_left":[0,0,0,0,0,0,0,0,0,0,0,0,0,0,0,0,0,0,0,0,0,0,0,0,0,0,0],"id":49,"left_children":[1,3,5,7,9,11,13,15,17,19,-1,21,23,-1,25,-1,-1,-1,-1,-1,-1,-1,-1,-1,-1,-1,-1],"loss_changes":[6.8797803E0,5.540867E0,4.830301E0,7.488209E0,5.7160153E0,4.4806976E0,4.456042E0,1.2289885E1,5.6430993E0,5.6385193E0,0E0,5.1917353E0,2.6245356E0,0E0,5.0067844E0,0E0,0E0,0E0,0E0,0E0,0E0,0E0,0E0,0E0,0E0,0E0,0E0],"parents":[2147483647,0,0,1,1,2,2,3,3,4,4,5,5,6,6,7,7,8,8,9,9,11,11,12,12,14,14],"right_children":[2,4,6,8,10,12,14,16,18,20,-1,22,24,-1,26,-1,-1,-1,-1,-1,-1,-1,-1,-1,-1,-1,-1],"split_conditions":[1.4055047E0,2.3584653E-1,5.57022E-1,-1.0434145E0,2.2318509E0,-2.897182E-1,-8.841826E-1,-7.868937E-3,-2.2145183E0,-2.0387435E0,6.728537E-3,2.68355E-1,-3.241557E-1,-5.26098E-3,5.241022E-1,1.0631619E-3,-7.7378503E-3,-3.5220813E-3,9.048706E-4,5.2646673E-3,-1.311693E-3,1.5649425E-2,1.9865893E-3,6.8801376E-3,3.466574E-4,-1.4158864E-4,6.4957575E-3],"split_indices":[309,15,333,388,389,369,39,350,11,241,0,55,57,0,101,0,0,0,0,0,0,0,0,0,0,0,0],"split_type":[0,0,0,0,0,0,0,0,0,0,0,0,0,0,0,0,0,0,0,0,0,0,0,0,0,0,0],"sum_hessian":[1.3184197E3,1.2217797E3,9.663995E1,7.4675476E2,4.7502493E2,3.772542E1,5.8914528E1,6.1649902E1,6.8510486E2,4.6708066E2,7.944297E0,1.1557299E1,2.6168123E1,8.7165365E0,5.0197994E1,3.452186E1,2.7128044E1,2.8575033E1,6.5652985E2,1.1912013E1,4.5516864E2,6.0838113E0,5.473487E0,8.324773E0,1.7843351E1,3.513723E1,1.5060761E1],"tree_param":{"num_deleted":"0","num_feature":"420","num_nodes":"27","size_leaf_vector":"1"}},{"base_weights":[-8.402825E-3,2.4292581E-1,-2.7344521E-2,1.1244809E-1,7.323723E-1,-4.8155418E-1,-1.5193992E-2,3.6877033E-1,-5.7401553E-2,2.4023917E-1,1.5932892E-2,4.458995E-3,-7.769253E-1,-3.5517715E-2,1.6605286E-1,-4.997947E-4,6.526775E-3,-3.7819238E-3,9.2835334E-4,6.31808E-3,-1.2277409E-3,-1.1099919E-2,-4.904331E-4,1.6933333E-4,-1.2274693E-3,5.1356885E-3,5.626523E-5],"categories":[],"categories_nodes":[],"categories_segments":[],"categories_sizes":[],"default_left":[0,0,0,0,0,0,0,0,0,0,0,0,0,0,0,0,0,0,0,0,0,0,0,0,0,0,0],"id":50,"left_children":[1,3,5,7,9,11,13,15,17,19,-1,-1,21,23,25,-1,-1,-1,-1,-1,-1,-1,-1,-1,-1,-1,-1],"loss_changes":[6.310663E0,5.721976E0,6.76447E0,3.338819E0,7.3393154E0,9.307204E0,4.4390635E0,3.7264037E0,2.3135874E0,2.157256E0,0E0,0E0,5.830967E0,4.983985E0,6.7112274E0,0E0,0E0,0E0,0E0,0E0,0E0,0E0,0E0,0E0,0E0,0E0,0E0],"parents":[2147483647,0,0,1,1,2,2,3,3,4,4,5,5,6,6,7,7,8,8,9,9,12,12,13,13,14,14],"right_children":[2,4,6,8,10,12,14,16,18,20,-1,-1,22,24,26,-1,-1,-1,-1,-1,-1,-1,-1,-1,-1,-1,-1],"split_conditions":[-1.4884578E0,6.337773E-1,-1.8833905E0,-2.0144203E-1,-1.0214356E0,-2.4979618E0,1.1478827E0,-5.5996567E-1,-5.0041586E-1,-5.0504148E-2,1.5932892E-2,4.458995E-3,6.1857677E-1,2.8401625E-1,-5.327837E-1,-4.997947E-4,6.526775E-3,-3.7819238E-3,9.2835334E-4,6.31808E-3,-1.2277409E-3,-1.1099919E-2,-4.904331E-4,1.6933333E-4,-1.2274693E-3,5.1356885E-3,5.626523E-5],"split_indices":[137,9,376,351,29,398,392,15,120,183,0,0,350,15,163,0,0,0,0,0,0,0,0,0,0,0,0],"split_type":[0,0,0,0,0,0,0,0,0,0,0,0,0,0,0,0,0,0,0,0,0,0,0,0,0,0,0],"sum_hessian":[1.3265405E3,9.13565E1,1.2351841E3,7.374605E1,1.7610453E1,3.0457216E1,1.2047268E3,2.8925793E1,4.482026E1,1.249981E1,5.1106415E0,7.090459E0,2.3366758E1,1.0848386E3,1.1988822E2,1.2044472E1,1.688132E1,1.378204E1,3.1038218E1,5.61159E0,6.888221E0,1.5396671E1,7.970086E0,6.775121E2,4.0732654E2,3.662525E1,8.326297E1],"tree_param":{"num_deleted":"0","num_feature":"420","num_nodes":"27","size_leaf_vector":"1"}},{"base_weights":[-6.8969117E-4,-1.5176031E-2,2.4168889E-1,3.2323543E-3,-2.2789824E-1,7.5661856E-1,1.03946745E-1,-2.4214046E-1,2.1143725E-2,-3.772585E-1,1.13244504E-1,3.1635559E-3,1.1929874E-2,-1.8904921E-1,5.0519127E-1,-6.8164645E-3,-7.990565E-4,-5.3524116E-5,2.118387E-3,-2.5525822E-3,-9.183726E-3,-2.492392E-3,7.0153414E-3,-1.0935806E-2,7.5963564E-4,1.4372682E-2,1.6669807E-3],"categories":[],"categories_nodes":[],"categories_segments":[],"categories_sizes":[],"default_left":[0,0,0,0,0,0,0,0,0,0,0,0,0,0,0,0,0,0,0,0,0,0,0,0,0,0,0],"id":51,"left_children":[1,3,5,7,9,11,13,15,17,19,21,-1,-1,23,25,-1,-1,-1,-1,-1,-1,-1,-1,-1,-1,-1,-1],"loss_changes":[4.6232047E0,4.913954E0,5.0611277E0,5.0417323E0,5.181685E0,2.2173996E0,7.282574E0,5.4042115E0,5.448608E0,4.1550026E0,6.998214E0,0E0,0E0,8.829715E0,7.70483E0,0E0,0E0,0E0,0E0,0E0,0E0,0E0,0E0,0E0,0E0,0E0,0E0],"parents":[2147483647,0,0,1,1,2,2,3,3,4,4,5,5,6,6,7,7,8,8,9,9,10,10,13,13,14,14],"right_children":[2,4,6,8,10,12,14,16,18,20,22,-1,-1,24,26,-1,-1,-1,-1,-1,-1,-1,-1,-1,-1,-1,-1],"split_conditions":[1.5849184E0,1.4071562E0,-6.9023985E-1,-1.3272455E0,2.1364704E-1,-4.825438E-1,-1.3314013E-2,-6.1196756E-1,1.1313977E0,9.63098E-1,3.036694E-1,3.1635559E-3,1.1929874E-2,-8.2690436E-1,5.04122E-1,-6.8164645E-3,-7.990565E-4,-5.3524116E-5,2.118387E-3,-2.5525822E-3,-9.183726E-3,-2.492392E-3,7.0153414E-3,-1.0935806E-2,7.5963564E-4,1.4372682E-2,1.6669807E-3],"split_indices":[309,98,58,135,412,118,77,184,337,91,363,0,0,195,333,0,0,0,0,0,0,0,0,0,0,0,0],"split_type":[0,0,0,0,0,0,0,0,0,0,0,0,0,0,0,0,0,0,0,0,0,0,0,0,0,0,0],"sum_hessian":[1.3200945E3,1.2473616E3,7.273291E1,1.1489425E3,9.841916E1,1.3774261E1,5.895865E1,7.650589E1,1.0724365E3,6.8543526E1,2.987563E1,8.258593E0,5.5156693E0,3.4390285E1,2.4568363E1,1.9165728E1,5.734016E1,9.4242474E2,1.3001181E2,5.788508E1,1.0658448E1,1.8915234E1,1.0960397E1,6.8154864E0,2.7574797E1,5.169381E0,1.9398983E1],"tree_param":{"num_deleted":"0","num_feature":"420","num_nodes":"27","size_leaf_vector":"1"}},{"base_weights":[-4.7259093E-3,4.5858826E-2,-8.498402E-2,-3.6341515E-1,6.099846E-2,2.0581205E-1,-1.2353115E-1,-6.538785E-1,4.3373667E-3,7.1254365E-2,-4.959738E-1,4.8047948E-1,-5.5409797E-2,-1.7088875E-1,1.6498032E-1,-1.332622E-3,-1.2431283E-2,3.5412796E-4,3.2734685E-3,4.1307995E-4,-1.0620048E-2,-9.965632E-4,6.624273E-3,3.61171E-3,-2.7107089E-3,-7.873112E-3,-1.4326462E-3,-2.857696E-3,3.5639685E-3],"categories":[],"categories_nodes":[],"categories_segments":[],"categories_sizes":[],"default_left":[0,0,0,0,0,0,0,0,0,0,0,0,0,0,0,0,0,0,0,0,0,0,0,0,0,0,0,0,0],"id":52,"left_children":[1,3,5,7,9,11,13,15,-1,17,19,21,23,25,27,-1,-1,-1,-1,-1,-1,-1,-1,-1,-1,-1,-1,-1,-1],"loss_changes":[5.2856483E0,4.943501E0,5.6760426E0,7.028447E0,4.411331E0,4.3309293E0,6.1364727E0,6.216213E0,0E0,6.903563E0,4.407817E0,3.2380605E0,2.9685023E0,6.278867E0,5.625688E0,0E0,0E0,0E0,0E0,0E0,0E0,0E0,0E0,0E0,0E0,0E0,0E0,0E0,0E0],"parents":[2147483647,0,0,1,1,2,2,3,3,4,4,5,5,6,6,7,7,9,9,10,10,11,11,12,12,13,13,14,14],"right_children":[2,4,6,8,10,12,14,16,-1,18,20,22,24,26,28,-1,-1,-1,-1,-1,-1,-1,-1,-1,-1,-1,-1,-1,-1],"split_conditions":[2.63846E-1,-1.7788578E0,-1.0965453E0,1.7679296E0,2.8726969E0,2.2606812E-1,1.0745746E0,2.4479177E-2,4.3373667E-3,8.13554E-1,-8.345049E-2,-8.269445E-1,-5.342387E-1,-1.7997599E0,4.0803072E-1,-1.332622E-3,-1.2431283E-2,3.5412796E-4,3.2734685E-3,4.1307995E-4,-1.0620048E-2,-9.965632E-4,6.624273E-3,3.61171E-3,-2.7107089E-3,-7.873112E-3,-1.4326462E-3,-2.857696E-3,3.5639685E-3],"split_indices":[15,388,288,49,194,92,212,64,0,59,287,392,268,242,302,0,0,0,0,0,0,0,0,0,0,0,0,0,0],"split_type":[0,0,0,0,0,0,0,0,0,0,0,0,0,0,0,0,0,0,0,0,0,0,0,0,0,0,0,0,0],"sum_hessian":[1.2980331E3,7.958347E2,5.0219836E2,2.6922394E1,7.689123E2,5.771308E1,4.444853E2,2.0021921E1,6.9004717E0,7.564705E2,1.2441762E1,2.7705408E1,3.0007673E1,3.826358E2,6.184947E1,1.169662E1,8.325301E0,6.654369E2,9.103368E1,7.0057263E0,5.436035E0,6.6454325E0,2.1059975E1,9.732387E0,2.0275286E1,1.4487229E1,3.681486E2,1.805993E1,4.378954E1],"tree_param":{"num_deleted":"0","num_feature":"420","num_nodes":"29","size_leaf_vector":"1"}},{"base_weights":[8.744442E-4,-4.6770725E-1,1.287377E-2,-7.8852636E-1,2.3001942E-3,-6.923512E-3,2.1193306E-1,-3.0250362E-1,-1.5271317E-2,-4.109141E-1,2.829833E-3,4.1573325E-1,3.8544428E-2,9.889159E-4,-8.101136E-3,-1.3362754E-3,-9.03664E-3,5.1406394E-3,-6.2719446E-5,1.9845185E-3,8.538659E-3,2.5399714E-3,-2.693926E-3],"categories":[],"categories_nodes":[],"categories_segments":[],"categories_sizes":[],"default_left":[0,0,0,0,0,0,0,0,0,0,0,0,0,0,0,0,0,0,0,0,0,0,0],"id":53,"left_children":[1,3,5,7,-1,9,11,13,-1,15,17,19,21,-1,-1,-1,-1,-1,-1,-1,-1,-1,-1],"loss_changes":[7.307871E0,7.5907097E0,5.048265E0,7.259639E0,0E0,4.616772E0,4.024674E0,3.3740737E0,0E0,3.4886842E0,5.3358808E0,4.670986E0,4.381712E0,0E0,0E0,0E0,0E0,0E0,0E0,0E0,0E0,0E0,0E0],"parents":[2147483647,0,0,1,1,2,2,3,3,5,5,6,6,7,7,9,9,10,10,11,11,12,12],"right_children":[2,4,6,8,-1,10,12,14,-1,16,18,20,22,-1,-1,-1,-1,-1,-1,-1,-1,-1,-1],"split_conditions":[-1.8833905E0,1.1527537E0,1.354064E0,-7.558898E-2,2.3001942E-3,-2.2145183E0,-2.9568753E-1,-1.7982382E-1,-1.5271317E-2,-1.1809988E-1,-1.9985635E0,2.863362E-1,1.2924999E-1,9.889159E-4,-8.101136E-3,-1.3362754E-3,-9.03664E-3,5.1406394E-3,-6.2719446E-5,1.9845185E-3,8.538659E-3,2.5399714E-3,-2.693926E-3],"split_indices":[376,247,309,0,0,11,364,307,0,214,414,393,410,0,0,0,0,0,0,0,0,0,0],"split_type":[0,0,0,0,0,0,0,0,0,0,0,0,0,0,0,0,0,0,0,0,0,0,0],"sum_hessian":[1.3046997E3,3.0945782E1,1.2737539E3,2.1163013E1,9.782768E0,1.159393E3,1.1436102E2,1.4120842E1,7.0421715E0,2.611813E1,1.1332748E3,5.1341354E1,6.3019672E1,8.449851E0,5.670991E0,1.8063135E1,8.0549965E0,1.8559881E1,1.1147148E3,3.5930267E1,1.5411089E1,3.7423355E1,2.5596315E1],"tree_param":{"num_deleted":"0","num_feature":"420","num_nodes":"23","size_leaf_vector":"1"}},{"base_weights":[2.8750633E-3,5.095143E-2,-6.994289E-2,-3.9746916E-1,6.695686E-2,-8.3926365E-2,5.9100245E-3,-2.700147E-2,-1.1035457E-2,6.699968E-1,5.3074535E-2,4.110211E-1,-1.007359E-1,-4.5720194E-3,9.087502E-3,1.9111375E-4,1.3710558E-2,-2.0318981E-3,8.227166E-4,-8.48724E-4,1.1158019E-2,-7.592182E-4,-5.101958E-3],"categories":[],"categories_nodes":[],"categories_segments":[],"categories_sizes":[],"default_left":[0,0,0,0,0,0,0,0,0,0,0,0,0,0,0,0,0,0,0,0,0,0,0],"id":54,"left_children":[1,3,5,7,9,11,-1,13,-1,15,17,19,21,-1,-1,-1,-1,-1,-1,-1,-1,-1,-1],"loss_changes":[4.6732635E0,5.785574E0,4.9246016E0,7.100723E0,6.3950124E0,4.3635836E0,0E0,8.560916E0,0E0,7.686694E0,5.723136E0,6.2580824E0,5.014673E0,0E0,0E0,0E0,0E0,0E0,0E0,0E0,0E0,0E0,0E0],"parents":[2147483647,0,0,1,1,2,2,3,3,4,4,5,5,7,7,9,9,10,10,11,11,12,12],"right_children":[2,4,6,8,10,12,-1,14,-1,16,18,20,22,-1,-1,-1,-1,-1,-1,-1,-1,-1,-1],"split_conditions":[2.3584653E-1,-1.9994082E0,2.7549675E0,1.1185949E0,-1.6916187E0,-1.6334684E0,5.9100245E-3,7.164167E-1,-1.1035457E-2,-6.7210364E-1,-8.8368434E-1,-2.106427E0,